{"layers":[{"out_depth":1,"out_sx":28,"out_sy":28,"layer_type":"input"},{"out_depth":50,"out_sx":1,"out_sy":1,"layer_type":"fc","num_inputs":784,"l1_decay_mul":0,"l2_decay_mul":1,"filters":[{"sx":1,"sy":1,"depth":784,"w":{"0":0.03728883377654405,"1":0.05099392152502489,"2":0.01636508110543072,"3":0.024761430123390764,"4":-0.05439432536508388,"5":0.005416130922237006,"6":-0.004113694764443142,"7":0.009597889923570595,"8":-0.029953599523859765,"9":0.009818088208932157,"10":-0.04651246346800187,"11":0.014352773199413287,"12":-0.02545687018632973,"13":0.023404568860643054,"14":-0.030868668198696058,"15":0.036791655580321936,"16":0.0006452871341990027,"17":-0.034073750446546924,"18":-0.04858533061537313,"19":0.05723030201432553,"20":0.039716026068781676,"21":0.014733403776890532,"22":-0.08030526426250911,"23":0.05914072378547409,"24":-0.02215307215877565,"25":0.012599790605815463,"26":-0.04262104011211911,"27":0.022792640704866637,"28":0.013433388613346853,"29":0.0071706520483631065,"30":0.0006761675987559789,"31":-0.01657661271414792,"32":0.06492995134789381,"33":-0.051306639990916794,"34":-0.03633063306761888,"35":0.003810517973206107,"36":0.038137138112186296,"37":0.02140137515304495,"38":0.057629306875257885,"39":0.018628159310832476,"40":-0.024628872348122034,"41":-0.03790470172307703,"42":0.0539463707908707,"43":0.026809457427635,"44":0.025630728860618384,"45":-0.045881658335519174,"46":-0.012976032472096586,"47":-0.017939852517703532,"48":-0.03228608124630339,"49":-0.02905040535364391,"50":0.005750594319029703,"51":-0.039543531964071905,"52":-0.008928571943817598,"53":0.04397585744819058,"54":0.03595769518696192,"55":0.0035864354177679953,"56":0.01604313737076874,"57":0.022165885633801626,"58":-0.032560508783665953,"59":-0.033547349428790695,"60":-0.014701729489905523,"61":0.05082079489560078,"62":0.001716285733731871,"63":-0.026441151496551463,"64":-0.012623932663587082,"65":-0.034109177898071975,"66":0.019014451067771485,"67":-0.08510097351965694,"68":0.010792852456024142,"69":-0.06900357632773103,"70":-0.008105762815702544,"71":0.05230489996097609,"72":0.0676564340889667,"73":-0.10018053923034381,"74":-0.17441387250329551,"75":-0.20708724063226527,"76":-0.3604783754760208,"77":-0.12709165369854344,"78":-0.0697899121784805,"79":-0.021358980181082322,"80":-0.022573930333823725,"81":-0.047584326872268705,"82":-0.006484224299855355,"83":0.0021312337088414584,"84":-0.013614288699527398,"85":0.03442934997548746,"86":0.02981675675220963,"87":-0.025136273503498154,"88":0.01689653964521896,"89":-0.030393530349295383,"90":-0.0030585726271409497,"91":0.05777417041193013,"92":-0.023035314950875314,"93":0.011166014712226514,"94":0.02549006989933076,"95":-0.029271171015892602,"96":-0.012460818210700761,"97":0.019653807057698997,"98":0.010381613483515252,"99":-0.02645333725041656,"100":-0.16651304464234457,"101":-0.21531317569438496,"102":-0.2659181333828609,"103":-0.23099819823026396,"104":-0.2655339373631532,"105":-0.2070842341658086,"106":-0.10815230287998867,"107":0.03894092615437626,"108":-0.017163632780262884,"109":-0.002480063188504531,"110":-0.02716684899544023,"111":-0.009142023511976108,"112":0.02930550798163907,"113":0.03728058820544477,"114":0.030206038686101645,"115":-0.008312551606157473,"116":-0.019947816913944857,"117":-0.009130706585598683,"118":-0.055034126597517524,"119":-0.04234964251411717,"120":-0.06918108859371383,"121":-0.08758020032437594,"122":-0.01713235543008113,"123":0.10206493448733249,"124":0.054714441090275935,"125":0.1257580460583686,"126":0.17161608997533023,"127":0.03305983482960014,"128":-0.10324120686327705,"129":-0.20117675761462314,"130":-0.2406420824778101,"131":-0.3006781758424019,"132":-0.12027772934674268,"133":-0.1775958717497932,"134":-0.022529878208013488,"135":0.06978576058330681,"136":0.05228987069392654,"137":-0.014064217752333881,"138":0.025889632143542635,"139":0.003786706757266895,"140":0.05750705192657148,"141":0.026279949497599,"142":-0.03195128793379663,"143":0.002581015852281227,"144":0.010514012105253061,"145":-0.018624895979773123,"146":0.0049665267470332545,"147":-0.021435072758917015,"148":-0.06116545388525246,"149":0.01490040495973966,"150":0.0015853116094761213,"151":0.03894700748525725,"152":0.17427702717461216,"153":0.14585258886544647,"154":0.11088610114285173,"155":0.27513041890924755,"156":0.16494418102970762,"157":0.12517362808160631,"158":0.2133537165991082,"159":0.19218309769914982,"160":0.19172042768131406,"161":-0.0419852462344204,"162":0.04270697795969989,"163":0.0251587028368464,"164":0.031884683880154786,"165":0.02306462392050763,"166":0.0516605374156853,"167":0.04601598463400338,"168":-0.008118363087212314,"169":0.016245472809015178,"170":0.012602774291684637,"171":-0.04928897044959569,"172":-0.017317457038364674,"173":-0.08447729360670223,"174":-0.07582218990559952,"175":-0.21042128164101706,"176":-0.06931155741667124,"177":-0.0027737035531108004,"178":0.02195676109284117,"179":-0.04174214945275899,"180":0.17681551042703597,"181":0.25691580878966447,"182":0.17507291938288705,"183":0.1510053329751914,"184":0.026456873675101904,"185":0.17661316922297277,"186":0.10454960311163576,"187":0.20676772411988423,"188":0.1390141689182632,"189":0.24280551733891914,"190":0.04865478669059445,"191":0.009079106420323911,"192":0.001213171417039461,"193":0.004253431640325632,"194":-0.0073839979823193454,"195":0.001937931951325809,"196":0.0050985812659246465,"197":0.01835764318566166,"198":0.012371128132334068,"199":-0.05237399614835963,"200":-0.10123157094334952,"201":-0.03204246366940111,"202":-0.013535574054260044,"203":-0.18458539479413436,"204":-0.027551296096578765,"205":-0.03445864599142865,"206":-0.06562160888944575,"207":0.0036712591667321815,"208":0.17655578467458788,"209":-0.05175151738232859,"210":-0.03566192317030375,"211":-0.04913978875452541,"212":-0.029948302960491866,"213":0.11748276849135084,"214":0.12363714892437537,"215":0.13261215962580306,"216":0.04473546342280114,"217":0.04535013763931035,"218":-0.05110310016328036,"219":-0.15762667494308638,"220":-0.024008893172473764,"221":-0.15983131923556002,"222":-0.02834652407919146,"223":0.021375557788813605,"224":0.009488003826476797,"225":0.01576076964115576,"226":-0.0012661223356823033,"227":0.019281858331186702,"228":-0.08415456069842638,"229":-0.15055243179305455,"230":-0.06770839933446501,"231":-0.20527950652278637,"232":-0.15038156812258566,"233":-0.017137634858457935,"234":-0.1296543295894791,"235":-0.13027259582589212,"236":-0.1789355860849927,"237":-0.22290007084427074,"238":-0.2177568985754511,"239":-0.15324803105425205,"240":-0.17199223124484708,"241":0.034120841436919784,"242":0.08152503443405909,"243":-0.043060499992990324,"244":-0.009138012290636804,"245":-0.00502345754115866,"246":-0.045043165680904315,"247":-0.05484922343876929,"248":0.0716370982485184,"249":-0.08544194012884757,"250":0.01379143676806417,"251":-0.016377250681397403,"252":-0.031075017383285303,"253":0.028367345110190314,"254":-0.015223950388329131,"255":-0.015305046719473483,"256":-0.05175546564241054,"257":-0.06323465231364761,"258":-0.20727501325915898,"259":-0.16665697268954882,"260":-0.03410789171508039,"261":-0.11335450093521733,"262":-0.3025102343681358,"263":-0.3012973965443595,"264":-0.22714750834851752,"265":-0.17019634847771112,"266":-0.16594412875400344,"267":-0.1690398245538266,"268":-0.04176024470270447,"269":0.19680767119511713,"270":0.07752583025102533,"271":0.025478984443211415,"272":-0.0015765882700037388,"273":-0.015198884173036503,"274":-0.006587358798034768,"275":0.07998797228589331,"276":0.2279544878722719,"277":0.013064910325970075,"278":0.03860641629985504,"279":0.023553620515063305,"280":-0.004837434563340747,"281":0.01753934622426025,"282":-0.0812441162286609,"283":0.046421870225522535,"284":-0.00005669255425226952,"285":-0.07141067039917463,"286":-0.33160409908743493,"287":-0.17006471218816738,"288":-0.07790481653635029,"289":-0.027978508824428674,"290":-0.28577687982777406,"291":-0.27300465931676904,"292":-0.18787734682479898,"293":-0.005182407879116125,"294":0.10859570058389584,"295":0.08742193704461965,"296":-0.08537240430617438,"297":0.09124110089682476,"298":0.0398499047291567,"299":0.027525080914130952,"300":-0.04513746674681321,"301":-0.0809141830690193,"302":-0.1523001769395094,"303":0.016095709501564654,"304":0.04856925917006065,"305":0.14208100075620525,"306":0.012591149582326981,"307":0.01596798367016201,"308":-0.03287153227425313,"309":0.022974823669178274,"310":-0.007388088202930451,"311":-0.02464240383146877,"312":0.007685066340020145,"313":-0.06831142728110072,"314":-0.3830976002746828,"315":-0.17279545844065292,"316":-0.11458069582275829,"317":-0.19979740152482434,"318":-0.33071955383833557,"319":-0.17730189708618257,"320":-0.0965339537956753,"321":0.003075099423654999,"322":0.1714866127089079,"323":0.07764338417861226,"324":-0.09514247951444128,"325":-0.21443941410609146,"326":-0.10756000195087885,"327":0.03191766337035656,"328":0.05540093320139571,"329":-0.10647786984750837,"330":-0.1655997315328934,"331":-0.09284742415748726,"332":-0.023175632005655804,"333":0.08857921411332936,"334":0.05309087657313616,"335":-0.012100085082920283,"336":-0.021946342485713914,"337":-0.012186154653174295,"338":-0.016504643456031247,"339":-0.03684074177622329,"340":-0.043742214318422935,"341":-0.2123599540420714,"342":-0.3147085084662972,"343":-0.10533295854898375,"344":-0.20962022850377163,"345":-0.3833751932080168,"346":-0.2066434938260938,"347":-0.14500570146333872,"348":-0.08639688872982411,"349":0.01630343331580582,"350":0.28809456813331097,"351":0.16430276311416248,"352":-0.13527102871785596,"353":-0.38782657137023613,"354":-0.09231884510708786,"355":-0.04133045210788783,"356":-0.06333413895393147,"357":-0.16206402266552922,"358":-0.179404132667352,"359":-0.2534203752198249,"360":-0.11108999281415068,"361":0.0050107438982788825,"362":0.013553258891023743,"363":0.03553926044145298,"364":0.03359614949562733,"365":0.043638971158789855,"366":-0.049178694401877374,"367":0.010200605481716007,"368":0.0009027260797632866,"369":-0.23568936477207697,"370":-0.3023078342451348,"371":-0.23258965201381,"372":-0.33072975667495436,"373":-0.4255711125601583,"374":-0.264356382199311,"375":-0.07339668434005009,"376":0.1014122947426471,"377":0.27433496725973683,"378":0.3413511546245569,"379":0.1517115432785941,"380":-0.04924762376345232,"381":-0.37955256400556897,"382":-0.18971750032982165,"383":-0.20551551372707755,"384":-0.1866178303722336,"385":-0.3953712781410005,"386":-0.1566606757423789,"387":-0.27669310722158186,"388":-0.10983488647096226,"389":0.027783756190900698,"390":0.021712599055627727,"391":0.01100215847112747,"392":0.029494195249249382,"393":-0.026524189861939256,"394":-0.0011176530749657917,"395":-0.05523256578063826,"396":-0.11431445339298357,"397":-0.26149688346313577,"398":-0.23184395328129867,"399":-0.13382259144479003,"400":-0.2528846599129971,"401":-0.281667093308407,"402":-0.1824391046709337,"403":-0.044677038529259076,"404":0.15205152970331448,"405":0.2955467322011641,"406":0.31626216792091333,"407":0.18894358404829248,"408":0.07587255863907512,"409":-0.2731372271453293,"410":-0.044870220272589044,"411":-0.15323396725176114,"412":-0.43630108199352785,"413":-0.49999588827863023,"414":-0.220579440456115,"415":-0.15533141155917596,"416":-0.1358322791372995,"417":0.009175114232158027,"418":0.00003827200360190266,"419":0.02646974799752859,"420":-0.009597476633112285,"421":-0.07318086496787424,"422":-0.06885084515184559,"423":-0.03330968721973757,"424":-0.06016187965581796,"425":-0.19416980553029295,"426":-0.10330998131513384,"427":0.06736032739752514,"428":-0.176763078155364,"429":-0.16572051883955122,"430":-0.11161954355183447,"431":0.12493957849330754,"432":0.02140610841720364,"433":0.18038707067306045,"434":0.2992781094095103,"435":0.23759876083659182,"436":0.0024069710047030504,"437":-0.16110297863740874,"438":0.03269667570193045,"439":-0.19091657808813,"440":-0.4463485070770563,"441":-0.2956360263561819,"442":-0.19538266616287342,"443":-0.2961125441878368,"444":-0.09760089760684373,"445":0.026926504405634103,"446":-0.02765489695966267,"447":0.044450730992300555,"448":-0.036374930568125095,"449":-0.03225530407626514,"450":-0.008038356653109606,"451":0.016908487577734607,"452":-0.022031272666647356,"453":-0.05524422358675263,"454":-0.08035278461036742,"455":-0.03992482625464597,"456":-0.11437810013130421,"457":-0.14459618265148727,"458":-0.09167513243665179,"459":0.2087467198102263,"460":0.14686249526976322,"461":0.15761787983289122,"462":0.36477111165865717,"463":0.13922066945045272,"464":0.0008908572804528989,"465":-0.036484380746877154,"466":0.07043602590566791,"467":-0.05823349687276616,"468":-0.284963295452623,"469":-0.2871151621915784,"470":-0.17993648844365198,"471":-0.23785898327855154,"472":-0.0903900801311383,"473":0.1523372010166199,"474":0.10676840971809727,"475":0.014850336118186524,"476":-0.018522301621902174,"477":-0.03707686931189646,"478":-0.03880223565854105,"479":0.04082296521899026,"480":0.04521952087312279,"481":-0.02398165346885784,"482":0.02050894730173751,"483":-0.13612274055967288,"484":-0.08063384707864693,"485":-0.009500967840010605,"486":0.04116332419671388,"487":0.3282478873549707,"488":0.16527922105449727,"489":0.16691432573601017,"490":0.0958761942478253,"491":-0.07150477339113485,"492":-0.10115710909805457,"493":0.05603169059026673,"494":0.13776500846570258,"495":0.02907571975828332,"496":-0.1593129265046293,"497":-0.1535891769253004,"498":-0.08044671995502123,"499":-0.061733911149235106,"500":0.010891091010075883,"501":0.008086090629367751,"502":-0.03912881527623062,"503":0.0018735044104880368,"504":0.05307426985608319,"505":-0.003451172516120349,"506":-0.0008416864299054668,"507":0.03895899154710656,"508":0.21140890475426932,"509":0.18554922520715672,"510":0.11652902311925545,"511":0.03709277262954027,"512":-0.12613629322080544,"513":0.02448816362189413,"514":0.24350362938363632,"515":0.42168539484951834,"516":0.15762292238514083,"517":0.0572389539739539,"518":-0.06623187383109322,"519":-0.22828161879202796,"520":-0.05499392272881893,"521":0.12498957911496489,"522":0.1347676563366412,"523":-0.031925670260109305,"524":-0.04524845330545991,"525":0.0580910729859248,"526":0.10146238412075799,"527":-0.03880950982634197,"528":0.1748274760963474,"529":0.09550475208504763,"530":-0.022566894901903466,"531":-0.04820311490165214,"532":0.02960941322047198,"533":-0.005052287818741082,"534":0.010021337039206452,"535":0.06808570474872995,"536":0.15524862945343543,"537":0.0640948132441298,"538":0.08737665580985027,"539":0.13353815756011997,"540":0.08535423367673516,"541":0.15041681274706473,"542":0.42070373974119707,"543":0.38016492478082303,"544":0.13592311919775676,"545":-0.23086535379696896,"546":-0.31334467022610246,"547":-0.25489910877415034,"548":-0.08000927524887433,"549":0.20459122899771434,"550":0.26770408297501924,"551":0.0071352506588497015,"552":0.06822672592913784,"553":-0.06587348384597352,"554":0.123706844677777,"555":0.16580488927681009,"556":0.21460672988515989,"557":0.12030961591363064,"558":0.05448370132697839,"559":-0.030497953603082214,"560":-0.04749796737909499,"561":0.023945085266947625,"562":0.004493425056638984,"563":0.0705854258310627,"564":0.04928255536525427,"565":0.09831538034934782,"566":0.2004147669579791,"567":0.3324501570186558,"568":0.3544384806043618,"569":0.4204705775904272,"570":0.2777679611562273,"571":0.1582317351089951,"572":-0.0615860463253718,"573":-0.16652523988275364,"574":-0.19883838125043163,"575":-0.20668656355013604,"576":-0.07082393094168055,"577":0.12854551355493515,"578":0.1165108671858137,"579":-0.06339560473710074,"580":-0.07602448309210923,"581":-0.17978326103642664,"582":0.003889209818529176,"583":0.24115854652095473,"584":0.20995697386987372,"585":0.04869191734644582,"586":-0.0831367876510677,"587":0.007882651517047128,"588":0.03371745440732652,"589":-0.010107081680689158,"590":-0.08918825190651188,"591":-0.017142429787995843,"592":-0.016426988297400566,"593":0.10292956840970091,"594":0.265327532550287,"595":0.24416108710243517,"596":0.2572931966184852,"597":0.2347772600352051,"598":0.11650144449104864,"599":-0.06082804417220924,"600":-0.037559701808020686,"601":-0.1886800080760747,"602":-0.12993647421640392,"603":-0.0993379952819585,"604":0.100224658585778,"605":-0.04194283352992634,"606":-0.16427964003007103,"607":-0.0492518840967459,"608":0.01506861391869187,"609":-0.034639988470069855,"610":0.1389081518649016,"611":0.18700410295008246,"612":0.19547117112654358,"613":0.09848184172494698,"614":0.0544856752217788,"615":-0.022933461719433598,"616":-0.009785569664498233,"617":-0.013658494316674022,"618":-0.06467833590348038,"619":-0.09208669295426483,"620":0.00006251269343431157,"621":0.1515208705623472,"622":0.2994917742971665,"623":0.24335411321264472,"624":0.21884457382716416,"625":0.28522599893844364,"626":0.32587254513263275,"627":0.16968706879735482,"628":-0.0800635555290775,"629":-0.18744945000584048,"630":-0.08612694414567401,"631":0.043112946592262474,"632":-0.03281451535122006,"633":-0.14380371573661818,"634":-0.0843689976444045,"635":-0.04324198405715352,"636":-0.056105832502708765,"637":-0.05841121486922723,"638":-0.05157304562481436,"639":0.16037154056862568,"640":0.153270870979929,"641":0.04336371593254986,"642":0.057249662694207434,"643":-0.012294823962201459,"644":0.01594273526236165,"645":0.016670135846255905,"646":0.03639629398559224,"647":0.004752723209386561,"648":-0.015822536343625626,"649":0.09512050027888257,"650":0.19718294058154354,"651":0.28677016156213353,"652":0.16401842068555975,"653":0.1829655490973285,"654":0.11228458872152043,"655":-0.004548874547189291,"656":-0.17296562449782413,"657":-0.21796958758963472,"658":-0.09452321978437507,"659":-0.0906847037456494,"660":0.037990906493256454,"661":0.07413458810215852,"662":0.10527939779587465,"663":0.01946478620091089,"664":-0.059125619079409227,"665":-0.012219393240779974,"666":0.10122192722405766,"667":0.23203011833416753,"668":0.09546463266203638,"669":0.0004332331019631503,"670":0.009984605509313118,"671":0.008079718106359922,"672":0.03491418350880817,"673":0.024697070074311295,"674":0.008008703563135088,"675":0.007882133601077132,"676":-0.06388328122700732,"677":0.05718543520814159,"678":0.07487705186780208,"679":0.05043918193072566,"680":0.023021801716923113,"681":0.07794692325560762,"682":0.06418226106092463,"683":-0.18178541247117277,"684":-0.4259672772554049,"685":-0.2518211720393532,"686":-0.0936753209332573,"687":-0.013502005905019524,"688":0.053895113432213045,"689":0.04528001889467889,"690":-0.19580146156079517,"691":-0.166635391613438,"692":-0.12076123253489751,"693":-0.06894628851616773,"694":0.026555648942598105,"695":0.06199556925852768,"696":0.0473884808694395,"697":0.012408040009338608,"698":-0.021206127512438448,"699":0.06224209038849965,"700":-0.008106257019324386,"701":-0.03892404404147746,"702":0.008244973731094294,"703":-0.00774187442108026,"704":-0.01544476040179033,"705":-0.016420227320067406,"706":-0.14177394335318352,"707":-0.26364939767032347,"708":-0.09908118173105836,"709":-0.08079382418265278,"710":-0.08952477118816493,"711":-0.38592930080587284,"712":-0.5187973022551768,"713":-0.5841209647731029,"714":-0.4356731962379259,"715":-0.3627868292624858,"716":-0.256825014875461,"717":-0.21218278650066338,"718":-0.18884875825470918,"719":-0.0812238720075367,"720":-0.039531829085228835,"721":-0.009986419021876943,"722":0.04143379343408937,"723":-0.04392709804366285,"724":0.011811052507921381,"725":-0.0402325137393707,"726":-0.005739820109339966,"727":0.025202070660147565,"728":0.06196197651551516,"729":-0.01405174530913106,"730":0.006529623198818497,"731":0.04922449816080401,"732":-0.0037828772726912698,"733":-0.04983417976903723,"734":-0.034124065429985695,"735":-0.04166951271454912,"736":0.04913832790001437,"737":0.24527402826704936,"738":0.06425539485636972,"739":-0.014847841482172726,"740":-0.09586402167882627,"741":-0.09368938235881609,"742":-0.08954421200040145,"743":-0.04558814642222777,"744":-0.01339203952020011,"745":0.003410124283828286,"746":0.020439578433318343,"747":0.09822370142078654,"748":0.014607815970163876,"749":-0.007028626644084709,"750":0.00970417005495494,"751":-0.010029576375002848,"752":-0.026955510374029986,"753":-0.04355307761699711,"754":0.008858068609076631,"755":0.028663628375289286,"756":0.019421351990783823,"757":-0.004288881440471795,"758":0.01690092034122028,"759":0.05470104665084667,"760":0.00026148970208439166,"761":0.017717694387514412,"762":-0.03200726133408029,"763":-0.01701208396474773,"764":0.06132167295041278,"765":-0.007023689635269557,"766":0.013295379939156651,"767":-0.03505810278941702,"768":-0.03629644680045982,"769":0.052105741526841914,"770":0.022609729830969552,"771":-0.01399316242029015,"772":-0.00023585304658538755,"773":0.07796166241764084,"774":0.007587928262083474,"775":-0.02264312354694965,"776":0.01334115463516342,"777":0.02716289130563972,"778":-0.03133264467337727,"779":0.048251352518657184,"780":0.01640559602691463,"781":0.019661584775716424,"782":0.005338190797646412,"783":-0.027003377702120763}},{"sx":1,"sy":1,"depth":784,"w":{"0":0.03854244813649039,"1":-0.021024607783347204,"2":0.08143882834606316,"3":-0.010016653650023596,"4":0.0035895514893457127,"5":0.03010995697472937,"6":0.009988573143573116,"7":0.05703980865557524,"8":0.010324986703526598,"9":0.02875424067651843,"10":-0.01576676874543925,"11":-0.007862554937368024,"12":0.031822211498529096,"13":-0.008761963704887167,"14":0.01758226791041068,"15":-0.02415256275954203,"16":-0.018126305252915722,"17":-0.0012159462530947596,"18":-0.03643697705304132,"19":-0.0026141742334819863,"20":-0.029924398858915506,"21":0.01937674907859725,"22":-0.005391826813524287,"23":-0.0011083051809962642,"24":-0.03566749604938712,"25":-0.029074516511396295,"26":0.007691511265532113,"27":0.01884591000892505,"28":0.03566592707299062,"29":0.003739621018095984,"30":-0.030596904346859227,"31":0.0010100991646704788,"32":0.013964831862886681,"33":-0.016189498312200203,"34":-0.0038216524223831237,"35":-0.010648472848211982,"36":0.04669761924150639,"37":0.016282686592091224,"38":0.05168736676810676,"39":-0.0103515404036848,"40":-0.0021763490331950146,"41":0.0025496298731711746,"42":0.049612295645903894,"43":0.07414371130129861,"44":-0.002709051472919157,"45":0.021830068432184425,"46":0.01273473656117539,"47":0.004476826390243378,"48":-0.006728266285032557,"49":-0.027484606836614023,"50":0.027062991755999192,"51":-0.0018082086176238982,"52":-0.00922660686902195,"53":0.02549166167261526,"54":0.023564760478543313,"55":-0.01475074148145444,"56":0.03637247427350892,"57":-0.04090404762485725,"58":-0.004165000412347245,"59":-0.0032429334502986295,"60":-0.003690362819539129,"61":0.03722682679520075,"62":-0.023207494816960095,"63":0.009080146408065128,"64":-0.01357746999446077,"65":-0.06544660452912876,"66":-0.061893233531855496,"67":-0.08642621441649992,"68":-0.12732954209278485,"69":-0.12030410915440318,"70":-0.1908320670901882,"71":-0.012032130193874495,"72":0.06179809629983948,"73":-0.04184694240803853,"74":-0.09660481539222784,"75":-0.09533073050470642,"76":-0.03508287732195097,"77":0.004758700058784879,"78":-0.002525655601799867,"79":0.02309451688124575,"80":-0.0007593452615511292,"81":-0.007952842335018598,"82":-0.045663527535942106,"83":-0.005316820636059361,"84":-0.028445917048799226,"85":0.00036959017833550483,"86":0.04686570394367505,"87":0.03387314752273318,"88":-0.009564033138758164,"89":-0.04357776397705799,"90":0.007585299838857995,"91":-0.08984334416687217,"92":-0.04421167967690072,"93":-0.021056158532062635,"94":-0.04255338168161122,"95":0.008585225506795816,"96":0.056833915496965114,"97":-0.060256705035492325,"98":-0.04858239405165734,"99":-0.08029185519327363,"100":-0.10690673050060656,"101":-0.20383046282988268,"102":-0.1759446260326868,"103":-0.2609094115600142,"104":-0.014200795140425793,"105":-0.034765670843757694,"106":-0.09585325419074149,"107":0.003808323825116774,"108":0.030623731107249575,"109":-0.046086374623452726,"110":0.03987788564804001,"111":0.0512427873191214,"112":0.03363622186997628,"113":-0.0029437835601291732,"114":-0.0316207870055047,"115":-0.0043341528191266875,"116":-0.026554023430556285,"117":-0.06703436374749228,"118":-0.0876203183992567,"119":-0.009587084120704081,"120":0.016074554941313348,"121":-0.04007622737157591,"122":-0.04156700485812413,"123":-0.15447054645434574,"124":-0.1655368265686251,"125":-0.11255359302592659,"126":-0.03188007581122979,"127":-0.1350516315056874,"128":0.03411311302399565,"129":-0.03163143502186507,"130":-0.15249545745792742,"131":-0.09249972909469335,"132":-0.03408131032077717,"133":-0.016238835654376525,"134":-0.23301917593617802,"135":-0.10460041410780774,"136":-0.018639683434808665,"137":0.06030701577248605,"138":-0.023642206899518823,"139":0.0023359406564045578,"140":-0.04366061406238156,"141":-0.003925597740473948,"142":0.0037002705036467656,"143":-0.02490505651758451,"144":-0.08223269429978992,"145":-0.05130122903465106,"146":-0.15276780901498685,"147":-0.14724699494630689,"148":-0.1017494709117232,"149":-0.24342813077580458,"150":-0.18669310390305233,"151":-0.13479013703803133,"152":-0.06987007289266683,"153":0.01927113373821876,"154":-0.010131761884909532,"155":-0.004609784820436101,"156":-0.10224053419645743,"157":-0.05505946041725724,"158":-0.008986473456876256,"159":0.07311172478862854,"160":-0.001599382282241942,"161":-0.042713697081703854,"162":-0.15391374857570328,"163":-0.11193613567513355,"164":-0.0471071637930852,"165":0.12192133536740381,"166":0.030535847336744176,"167":-0.010062953777693265,"168":0.04243301176006288,"169":-0.046458751189874616,"170":0.020357038980207527,"171":-0.02668619348191699,"172":-0.06782127048939791,"173":-0.11259873913800024,"174":-0.13538824958690834,"175":-0.02247871747148938,"176":-0.07368701154935427,"177":-0.2262366912832971,"178":-0.13114033600631478,"179":-0.03959117548940311,"180":0.014682734794544178,"181":0.049414991628755164,"182":-0.09498329790941329,"183":-0.045412637939156224,"184":-0.054592177533605034,"185":0.015759757765001183,"186":0.05514945378909782,"187":-0.0023303905018881694,"188":-0.05851233668154543,"189":0.08344520343510206,"190":0.06271665655143004,"191":0.10840362665211765,"192":-0.003921470410749276,"193":0.09313409733843443,"194":0.016845130309667104,"195":-0.014014985351105956,"196":0.0037220343559593925,"197":0.016479203414493104,"198":0.051169535927836685,"199":-0.021216584497773364,"200":-0.0726141913399418,"201":-0.07336998006341608,"202":-0.06422001439406706,"203":-0.08019162380007976,"204":-0.05567503915319976,"205":-0.21950661381893957,"206":-0.07114143295094551,"207":0.06640213583923854,"208":-0.036228081446353075,"209":0.12009249997333697,"210":0.03348316177041425,"211":-0.06950075836718438,"212":-0.05809438321871397,"213":-0.024794917514247766,"214":-0.12754444811299134,"215":-0.1495245196457551,"216":-0.10477197716703272,"217":-0.06712090131905024,"218":0.06628570168879167,"219":0.01637329048740971,"220":-0.03449374460598286,"221":0.019625877730066122,"222":-0.010164934506104775,"223":0.03585627703793493,"224":0.027034355044151286,"225":0.05205477809457715,"226":0.023328276825628456,"227":-0.014337430360254023,"228":-0.04326951963567024,"229":0.003854755221679781,"230":0.04917483979054348,"231":0.05327722774284971,"232":-0.07540664835375666,"233":-0.0421607560796444,"234":-0.1907343301019872,"235":-0.10553724579847652,"236":-0.03162101741386541,"237":-0.03145827444271626,"238":0.1440938620141323,"239":-0.03415029898620782,"240":-0.10820842404213402,"241":-0.08817445766384177,"242":-0.08002845544825626,"243":-0.04004697293423239,"244":-0.041383643258426354,"245":-0.15525188591633146,"246":-0.01948930213194506,"247":0.017870094465460916,"248":0.027282630729999226,"249":0.02934408625419676,"250":-0.0023085856953599295,"251":-0.0013997360246569908,"252":0.01625358616906414,"253":-0.024554955334082213,"254":-0.02791103573192602,"255":-0.040747250074256315,"256":0.006713365026135476,"257":0.12561368963222605,"258":0.010266634579586462,"259":-0.08461123048700495,"260":-0.1214861048299168,"261":-0.09083385895811319,"262":-0.24793319795534038,"263":-0.06250879639605583,"264":-0.12084487289781724,"265":0.005786897977286982,"266":0.23483069667510217,"267":0.07806260264479467,"268":-0.14522954663985138,"269":-0.10495113450791382,"270":-0.11091143560294361,"271":0.0214414799249462,"272":-0.15667719009235462,"273":-0.1450434380869458,"274":-0.04859742283108279,"275":0.0069292898800343075,"276":0.04635855598043938,"277":0.0033810370407566536,"278":-0.051497862695903104,"279":0.010280588134051943,"280":0.0027339228430354936,"281":-0.023068984078730228,"282":-0.04731608614090489,"283":-0.051004640558596534,"284":0.06549846030030754,"285":0.14457428867061464,"286":0.06493840496975481,"287":-0.00048682095682856235,"288":-0.010748035427587652,"289":-0.005275339710823328,"290":-0.013144862610045351,"291":-0.029156359238321976,"292":0.023359507870169247,"293":0.1369208144387747,"294":0.091042695029811,"295":-0.08771362146071315,"296":-0.23957007103873568,"297":-0.23020170539270246,"298":-0.09053098141800477,"299":-0.04586008713971957,"300":-0.12640782295720268,"301":-0.04869719557193452,"302":-0.03632027793274079,"303":-0.01835945535692299,"304":0.0375605824033485,"305":0.01768219979383862,"306":0.01007778014905428,"307":0.028835067417498514,"308":0.023271440112505076,"309":-0.0014275104223379833,"310":-0.04326304971450592,"311":0.014224043277880467,"312":0.12403856345001626,"313":0.12082072458583264,"314":0.02962520058358704,"315":0.04868975115582423,"316":-0.1673032509074583,"317":-0.053636218162152145,"318":0.07260468699722555,"319":0.11678507520198293,"320":0.05105407239667222,"321":-0.009880648903886492,"322":0.06851040069695466,"323":0.05444937447813972,"324":-0.17528184133720914,"325":-0.29384274128702176,"326":0.05988047780219942,"327":0.13729197159197926,"328":0.11423638353443155,"329":-0.007823235226899476,"330":-0.00423382540347445,"331":-0.13922746336877975,"332":-0.0729757608274729,"333":0.007949339133667056,"334":-0.012978311508073315,"335":0.02419997658514688,"336":-0.014565266009734476,"337":-0.0005482131373442308,"338":-0.014822052948928955,"339":0.020619784839852773,"340":0.1062389006285252,"341":0.038069245745362267,"342":0.03982441069529974,"343":0.13735162135129453,"344":-0.10144912799860431,"345":-0.035144539487296275,"346":0.07564457608577785,"347":-0.02322778113925245,"348":-0.00023840376123430594,"349":0.009430756584019609,"350":-0.06980700892941932,"351":0.09999887946270207,"352":-0.2733842193093979,"353":-0.5661674356294568,"354":-0.17029071864455306,"355":0.11099012755165764,"356":0.2245393979251328,"357":0.2544970725725155,"358":0.054499175952298216,"359":-0.14129728904596434,"360":-0.2920037468282096,"361":-0.08515887668311758,"362":-0.025459921169967516,"363":-0.011147441708727477,"364":-0.0044702730624396,"365":-0.024040357097740096,"366":0.0014176252574430112,"367":-0.03451308092934617,"368":0.0857548299349775,"369":-0.11909693368798348,"370":-0.10272962428258034,"371":-0.06737711241882698,"372":0.033301014742240315,"373":0.05266369765925213,"374":-0.15937084403718935,"375":-0.09268046316929306,"376":-0.035308539398862034,"377":-0.042457294557311016,"378":-0.003234005528237739,"379":0.06156978618132956,"380":-0.33238534285742666,"381":-0.6174580519329996,"382":-0.33070468483278653,"383":0.05855163926091196,"384":0.21036423993692113,"385":0.20851595555579783,"386":0.033468260051088626,"387":-0.1305135654036284,"388":-0.35675138645934273,"389":-0.016351762657317564,"390":0.03830724329825818,"391":-0.029316053093538467,"392":-0.0074160306812321355,"393":0.025829562489881313,"394":0.004371083220659422,"395":0.04441370188728193,"396":0.03590343385117568,"397":-0.257900226736708,"398":-0.2339500448395818,"399":-0.21123730739521726,"400":0.07733339512678557,"401":0.11452757486922253,"402":-0.09806553486965162,"403":-0.15565714000984,"404":-0.026797473812041943,"405":-0.08537461151029824,"406":0.05182376812291227,"407":-0.05293699152006512,"408":-0.3045652806141796,"409":-0.6351809068345546,"410":-0.44699569314139,"411":-0.16596153528044288,"412":0.0517843072201474,"413":0.25378409737614377,"414":-0.0818905738828899,"415":-0.01672958941781722,"416":-0.2741592779122502,"417":-0.005340920221900671,"418":-0.056163989155601175,"419":0.002583150401736493,"420":-0.0035539239684859586,"421":-0.011746190814664492,"422":-0.057202395960356624,"423":-0.014897085902266157,"424":-0.12459362759809385,"425":-0.4309141409080388,"426":-0.060936954260223726,"427":-0.08504918551847039,"428":0.24607530435864158,"429":0.021596156266006035,"430":-0.08619712433278809,"431":-0.13643067917171978,"432":-0.12185061754756282,"433":0.05774064711093614,"434":-0.07063353877547891,"435":-0.2846846061493282,"436":-0.3151149005165938,"437":-0.5212197737462347,"438":-0.6296638840983853,"439":-0.095105264329375,"440":0.27276135681360725,"441":0.11041314188397963,"442":0.013048600603287348,"443":0.07454088212693179,"444":-0.21239037724485085,"445":0.025905689045590808,"446":-0.06271030973862642,"447":-0.008896964779943457,"448":-0.0025979705805027663,"449":0.023141877807285886,"450":-0.04683425344230814,"451":-0.002108669390566847,"452":-0.17122019155430554,"453":-0.3946929441443426,"454":-0.12227486207643214,"455":0.10941099802546914,"456":0.2064249991080025,"457":-0.10377861224992194,"458":-0.23056916640531877,"459":-0.05190281912379255,"460":-0.14426948321157454,"461":-0.056575336911394776,"462":0.05439891537253679,"463":-0.2195573018545118,"464":-0.20304251121151873,"465":-0.37551658960563505,"466":-0.8087111867036989,"467":-0.18291761946286653,"468":0.2576433851061906,"469":0.1715101501006753,"470":0.19891754658143337,"471":0.13625948280174724,"472":-0.030754531075973583,"473":0.21217234228246143,"474":-0.010069886441544482,"475":-0.021849112446951924,"476":0.024774806162826995,"477":0.009276991636717075,"478":-0.008319103513315596,"479":0.0015598238172602104,"480":-0.1597005700192875,"481":-0.3925613141809382,"482":-0.16575795553278722,"483":0.05630236332158277,"484":0.11090765713344883,"485":-0.17374683017381037,"486":-0.2442155915200169,"487":-0.04785235125970638,"488":-0.14276603896675635,"489":-0.15692889288098827,"490":-0.006261686578435334,"491":-0.1433097607162568,"492":-0.12436326394399345,"493":0.11044584980986533,"494":-0.4630389470265528,"495":-0.25275305786789715,"496":0.14593331886463512,"497":0.10189477451912157,"498":0.21482816963610907,"499":0.08859338005434518,"500":-0.020277811668018775,"501":-0.028471902378579883,"502":-0.10557874269799052,"503":0.0020715736908596695,"504":-0.009196264728309218,"505":-0.004123564600175608,"506":0.011363940524982106,"507":-0.06551295259895341,"508":-0.06617200593392238,"509":-0.29141884634552434,"510":-0.2054459032516476,"511":-0.11250225678203375,"512":0.10432803669571336,"513":-0.035867321581518556,"514":-0.0443036894625799,"515":-0.09669264743688391,"516":-0.33830845200680587,"517":-0.18458635169707505,"518":-0.039217963614220246,"519":0.12486635662565587,"520":0.1702439361321183,"521":0.2941822278015459,"522":-0.03876657250953706,"523":-0.30767581289019347,"524":0.10497839335790286,"525":0.11880775717914502,"526":-0.02572867092826654,"527":-0.002920279378508149,"528":-0.1460995841481773,"529":-0.13132052089884144,"530":0.010312191890511345,"531":-0.02319921071760543,"532":0.02917620355465075,"533":-0.018969331860293922,"534":0.01794834052818173,"535":-0.11608882349757604,"536":-0.04232588572486958,"537":-0.17464410835089214,"538":-0.14857798162886554,"539":-0.16450828761461134,"540":-0.04056397897894399,"541":-0.05520307491410902,"542":0.04246679641965144,"543":-0.1567446069682362,"544":-0.36281152823171864,"545":-0.2374240158860001,"546":-0.0338982143346808,"547":0.19611330798580856,"548":0.364153633514584,"549":0.2761558258590857,"550":0.09724129464570591,"551":-0.04209480587945,"552":0.07402836640493336,"553":0.11903413120440033,"554":-0.11676970984471637,"555":-0.14721208587317866,"556":-0.16459606476762925,"557":-0.04555593163697066,"558":-0.012564314889971716,"559":-0.038277661134267005,"560":0.0030640246178381637,"561":-0.044474616013827586,"562":-0.006260497452371532,"563":-0.06773494290447934,"564":-0.06918488756963248,"565":0.021369581229086054,"566":-0.09681093901880514,"567":-0.1070958022862846,"568":-0.05717469310897112,"569":-0.06859708030496639,"570":-0.0018546969218091215,"571":0.04506110943024694,"572":-0.2939170523298338,"573":-0.27863240426721436,"574":0.06826323063907759,"575":0.29620542750631984,"576":0.21506976048383675,"577":0.19504693394474226,"578":0.1650925917350785,"579":0.10791125781511317,"580":-0.0520565359262435,"581":-0.11608041449576557,"582":-0.08088484487527632,"583":-0.11532360786093789,"584":-0.20976472415208683,"585":0.0008952342786567407,"586":0.027402451010416783,"587":0.0005960006485986861,"588":0.026055087243627106,"589":0.009192345017770201,"590":-0.0016496817137057786,"591":-0.0026805460724796506,"592":0.06755891357525509,"593":0.05839426262426362,"594":0.04807794007893807,"595":0.16928911729173618,"596":0.044443348416358316,"597":0.019854242523308942,"598":-0.03455990185912498,"599":-0.1217715205634445,"600":-0.2757860679557829,"601":-0.1639395102642531,"602":0.2898404607144221,"603":0.37258248957330137,"604":0.25812442688019066,"605":0.06388401217998693,"606":0.14811163257632348,"607":0.1667219903574021,"608":0.09943120725458789,"609":-0.013994215260416875,"610":0.04066328849002144,"611":0.06935799360050697,"612":-0.09964675723823814,"613":-0.03288829331091772,"614":-0.0419425333428871,"615":-0.04403329720891248,"616":0.01063468389120995,"617":-0.025193265181952293,"618":-0.002241917790965159,"619":-0.0177383719275693,"620":0.030198266257862143,"621":-0.006903505131402078,"622":0.062023201254835236,"623":-0.004782893569964456,"624":0.07298259182830365,"625":-0.03390271159149864,"626":-0.060092322987046205,"627":-0.17821405212522215,"628":-0.19133492275059236,"629":0.1360302378781366,"630":0.33795103210328586,"631":0.27093478533531967,"632":0.07894322765077,"633":0.05763244794269468,"634":0.11817690706571934,"635":-0.020594960595310484,"636":0.10402479045379802,"637":0.05430306936188881,"638":0.07828061719975413,"639":0.07956247588876685,"640":-0.04920368204433885,"641":0.004930567086292967,"642":0.008406320187722256,"643":0.015254983735666222,"644":-0.006060283806343028,"645":-0.04114959970001642,"646":-0.052603663719513846,"647":-0.0053943970169109765,"648":-0.08235342936078288,"649":-0.0872102444348457,"650":0.05854655683374424,"651":-0.032575620175427374,"652":0.024618228590899367,"653":-0.02833022748283212,"654":0.010068721586900203,"655":-0.06904703333624898,"656":-0.14005377955803766,"657":-0.006733791787019399,"658":0.16760798038180774,"659":0.1482172854090395,"660":0.012204963106685089,"661":0.10361845824395265,"662":0.029057326160287694,"663":0.08379578805863604,"664":0.17474429198225291,"665":0.04312914699325635,"666":0.07559098607152777,"667":0.0774420366962701,"668":0.009238749733456699,"669":0.008437261328396818,"670":0.03174682760605113,"671":0.04077880026767196,"672":-0.0008711833942628227,"673":-0.00028095082930266145,"674":0.025509621684010778,"675":0.020852618809014723,"676":-0.0493583070065515,"677":-0.0978078196095517,"678":-0.09164154072309744,"679":-0.07889565052448992,"680":-0.16198430276977693,"681":-0.11061180423841761,"682":-0.04208352782428331,"683":-0.06259724120723639,"684":-0.06387699389775889,"685":-0.12518834393760572,"686":-0.07070456738280671,"687":-0.0755451865582394,"688":-0.0408720167131976,"689":-0.028063174847118812,"690":-0.08053960931061278,"691":-0.013461339782993591,"692":0.04298053838414986,"693":-0.009772236129711299,"694":0.026422882727929874,"695":0.05195624622104601,"696":-0.02624384514928889,"697":-0.01683762898587228,"698":0.03824206796114115,"699":-0.05899586969003588,"700":-0.04412412234525412,"701":-0.02286627132937413,"702":-0.0075071781811615074,"703":-0.04768948447558297,"704":0.042482300768923155,"705":0.06160091096030085,"706":0.019320061697404304,"707":-0.04099543170775612,"708":-0.05354077687703801,"709":-0.048984434386668725,"710":-0.003296534718092476,"711":-0.0742851206948577,"712":-0.06177534806612774,"713":-0.16184892986170596,"714":-0.21023903037899894,"715":-0.3704655295083647,"716":-0.4736635835108183,"717":-0.4127244028488435,"718":-0.302239977203699,"719":-0.22886499515774644,"720":-0.1429625056034667,"721":0.022269951232924752,"722":-0.05788118559411059,"723":-0.03844552702131903,"724":0.0182905683714114,"725":0.008868558448286993,"726":0.007217096394189607,"727":0.018913113335432805,"728":-0.00840975507643202,"729":-0.031108097193038937,"730":-0.025655845649690076,"731":-0.0016089944904600498,"732":0.011570000355929613,"733":0.018286543318854837,"734":0.024279581493967025,"735":0.08224074881463428,"736":-0.01343580808704793,"737":-0.022050917294981966,"738":-0.13457741675163015,"739":-0.23194240973444347,"740":-0.3251321869375328,"741":-0.21897730615089028,"742":-0.16781685059505505,"743":-0.13487886106575667,"744":-0.2616570759581282,"745":-0.24469279398123658,"746":-0.11889912113161574,"747":-0.060726689640823804,"748":-0.014861908393027756,"749":-0.030965907692560798,"750":0.009960366972013758,"751":0.026885113668114906,"752":0.0008340508687223497,"753":0.015452678580522374,"754":-0.003946696917269148,"755":-0.04263988905111275,"756":-0.008254782092975275,"757":0.06555566337088024,"758":-0.001985880325987636,"759":0.008467104611609157,"760":-0.02971096632542422,"761":-0.012509081222524041,"762":0.0002993611050235801,"763":-0.03458066754413042,"764":0.03821157876727307,"765":-0.028027898945023975,"766":0.004830673921770121,"767":-0.07735382495230263,"768":-0.05966974113946811,"769":-0.02338021271556701,"770":-0.005244981176273516,"771":-0.02826876313479189,"772":-0.031746100191612586,"773":-0.05572733815924332,"774":-0.006635783102105352,"775":-0.053523700486512164,"776":-0.021401833986788226,"777":-0.017749344014676913,"778":-0.017955933173534798,"779":-0.03817828510575509,"780":-0.004044743346648455,"781":0.040745768826243374,"782":-0.027773549358937537,"783":-0.001956341586382886}},{"sx":1,"sy":1,"depth":784,"w":{"0":0.020949497131592935,"1":0.009837724938085114,"2":-0.006316588350904382,"3":-0.03581884323317058,"4":0.0338588257768767,"5":-0.007489115360327137,"6":-0.040917517797249205,"7":-0.008178995804014622,"8":0.010504079812325495,"9":0.011217178681462514,"10":-0.009948881671787283,"11":0.013812936194938912,"12":0.010923288588594482,"13":0.07422117687581752,"14":0.003575687510624443,"15":0.02349012851216236,"16":-0.03261349434206568,"17":0.015621102998210096,"18":0.0043230966950817415,"19":0.01089353298258928,"20":0.00007162441283112541,"21":0.023096955527553382,"22":0.010432653194630364,"23":0.026089456633653797,"24":-0.0030488960797329535,"25":0.0027561740699537443,"26":0.008702633665709223,"27":-0.02682251461607949,"28":0.0021731135793843135,"29":0.017891446840488698,"30":-0.01045763012996966,"31":0.028220667564973056,"32":0.0350321914444399,"33":-0.05738568998038765,"34":0.02500759235064176,"35":-0.043656986472696085,"36":-0.007213449435373208,"37":-0.04703518261448708,"38":0.009314558754048758,"39":0.009124077022601006,"40":0.0307492527997703,"41":-0.00645007497055246,"42":-0.005120770110837241,"43":0.003637127636161577,"44":0.08199671118453132,"45":-0.028608277691383133,"46":0.00022614051586561222,"47":0.001396733717399223,"48":-0.000020241667041486226,"49":-0.07928503536100842,"50":-0.07490693480688407,"51":-0.0025826822518788153,"52":0.014409781884048067,"53":0.0007583380846515182,"54":0.033238932120254236,"55":-0.003832572359131536,"56":-0.001985738754514337,"57":0.004502961670290793,"58":-0.040390370181103016,"59":-0.038493773995095834,"60":-0.03443420446062876,"61":0.0011715200896475347,"62":-0.019540588535848696,"63":-0.008379840167904263,"64":-0.02353621817609983,"65":-0.01334973406105423,"66":-0.04363471803065609,"67":-0.018302071112009363,"68":0.03970670306825134,"69":0.02629291762559405,"70":0.05729244117725536,"71":0.008301686611647279,"72":0.04323635797659221,"73":0.023394778025285203,"74":-0.0675530531107116,"75":-0.028675717400507176,"76":-0.03972872961191439,"77":0.0016115159149557138,"78":0.009017042942032408,"79":-0.03489897258071887,"80":-0.0036698385553671745,"81":-0.037664645340695496,"82":-0.005976184884915031,"83":-0.02720094064554519,"84":-0.003910175273924609,"85":-0.0474604419882197,"86":0.019094603885833637,"87":-0.019815638171718816,"88":0.017752609742842308,"89":0.020691080393252743,"90":-0.014622741526601106,"91":0.009390854595658157,"92":-0.005110085084516349,"93":0.04428688229165578,"94":0.10054398752305624,"95":0.11047688242726232,"96":0.10366579402738546,"97":0.1634022766259391,"98":-0.001779499492531959,"99":0.016111360865157628,"100":-0.0019405254232496925,"101":-0.06174303175706252,"102":-0.020649552027753485,"103":0.06889209396877433,"104":0.014701930124177406,"105":0.002045114327245983,"106":0.03124079829421681,"107":-0.01902418740559838,"108":-0.078918848933373,"109":-0.010272236496309666,"110":0.0018220374230399584,"111":-0.00010492397306365298,"112":-0.004651337692714535,"113":0.022703311735475767,"114":0.01826690242235014,"115":0.06118190086271542,"116":-0.009828185043192666,"117":0.026335598622370743,"118":-0.054678425156876646,"119":-0.03440490591897053,"120":-0.0456579993892139,"121":0.010369884146608535,"122":-0.01827835463698485,"123":0.0035609723881203544,"124":0.078535481688478,"125":0.12618042043734715,"126":0.04463020551226088,"127":0.1267783220750831,"128":0.04482235370335453,"129":0.06934896213425924,"130":0.2621557678272947,"131":0.19339305956247962,"132":0.09897258195708307,"133":0.04220586935709926,"134":-0.01367028344097699,"135":0.017968699821475465,"136":-0.01760512846996976,"137":-0.05552262765521396,"138":-0.002125123366471864,"139":0.013558653544840793,"140":0.0034265724844999854,"141":-0.01134532883079143,"142":-0.06076250297941321,"143":-0.008348713649168005,"144":-0.00571848705784826,"145":-0.035389732906073924,"146":-0.09476754073363311,"147":-0.11886583974031283,"148":-0.13699911348264396,"149":-0.35751689070188797,"150":-0.22988942848750457,"151":-0.09590457405349179,"152":-0.05169729412201877,"153":0.03769356483373188,"154":0.007031331401190353,"155":0.009308452703738425,"156":0.14039366736781292,"157":0.30631949929012076,"158":0.3462935199635648,"159":0.2375122860168485,"160":-0.0048311552681193125,"161":-0.032957372918789564,"162":-0.092794194909927,"163":-0.05370893025340095,"164":-0.13880155028620103,"165":-0.006708906031640621,"166":-0.011257259858545135,"167":0.04572956355173087,"168":0.03930840888828533,"169":0.012634268585451124,"170":-0.0017848022070304412,"171":-0.039319744869426715,"172":-0.048837019403983994,"173":-0.06355002250694566,"174":-0.12157258075144553,"175":-0.06675357412550098,"176":-0.15853982376880674,"177":-0.20723901476899,"178":-0.07947336828541586,"179":-0.08143995750980113,"180":-0.0656404623609654,"181":0.08199042809871528,"182":0.1033657115149626,"183":0.04364796098750803,"184":0.2055660983485068,"185":0.3131492849683675,"186":0.14748152599650133,"187":0.10059705953277015,"188":-0.04008327836951066,"189":0.01324757778706249,"190":-0.059733637630591786,"191":-0.026780195927765642,"192":-0.03442259863683917,"193":0.05556746382624025,"194":-0.04756244166825934,"195":0.03104980465714384,"196":-0.0005391175723710019,"197":-0.033541207821081706,"198":0.008332655789789976,"199":-0.04155149348298396,"200":-0.023120752158397245,"201":-0.18677309579394752,"202":-0.06599514626077035,"203":-0.18063732504607957,"204":-0.024765912005530785,"205":-0.12039434260470201,"206":-0.03748612721771462,"207":0.030551315002435245,"208":0.08888877657987512,"209":0.10021945700676267,"210":-0.004883581969388842,"211":-0.00017991330614839946,"212":0.05890060593884627,"213":0.08490018702576067,"214":0.006037834961219846,"215":-0.08574776098386622,"216":-0.02242541689170665,"217":0.06631027730297596,"218":-0.10627909458255562,"219":-0.10047749795560988,"220":-0.10050882084854115,"221":-0.07813760771170344,"222":-0.010652424155542895,"223":-0.0013781041529381775,"224":-0.02315535590857746,"225":0.015848947309677574,"226":-0.024515030694945678,"227":-0.023987991977802808,"228":-0.11806949680159173,"229":-0.162804873749488,"230":-0.12902131071973313,"231":-0.02331127578702599,"232":-0.04008816857856727,"233":-0.05155535133604726,"234":-0.0596109060841567,"235":-0.15598683273932545,"236":0.0556241584997115,"237":-0.0143566362606074,"238":-0.0910893691209091,"239":0.09835124339321885,"240":-0.07938245917107783,"241":0.07656814632708646,"242":-0.1472772613911564,"243":-0.11176826076599192,"244":-0.04044351714332042,"245":0.07119705993803675,"246":-0.19719486883658902,"247":-0.11603216198675782,"248":-0.12834562172141895,"249":-0.06278790893054426,"250":0.05077156682772174,"251":0.01464044341371993,"252":0.036823812590293055,"253":0.02299479926622021,"254":-0.029828531742497878,"255":-0.04493187186876439,"256":-0.0885707504333373,"257":-0.06633580997193227,"258":-0.052875439016948654,"259":0.024521374415335213,"260":-0.018303693506208217,"261":-0.03660185890437027,"262":-0.09070172403695372,"263":-0.21571716608850758,"264":-0.2151489964846879,"265":-0.11714486022316073,"266":0.038499374893781135,"267":0.0989909472806351,"268":-0.037570005044545086,"269":-0.0614126210895934,"270":-0.22262760328699846,"271":-0.14600986096923788,"272":-0.16900281900060887,"273":-0.16100227107661522,"274":-0.1840486924131203,"275":-0.09804599748616091,"276":-0.08115955268806219,"277":-0.06380741878304266,"278":-0.0034495867999618035,"279":0.016297003400210706,"280":0.028685582263561642,"281":0.020731194438186138,"282":0.009058341800517802,"283":-0.008166551031288438,"284":-0.0822722508320688,"285":-0.031216599325451906,"286":-0.030439319805027867,"287":0.0062698714564330795,"288":-0.00653022186603581,"289":-0.22360642681314366,"290":-0.2602979840833517,"291":-0.10304140386521593,"292":-0.0780921348221779,"293":-0.07118227103296558,"294":0.10441691527749235,"295":-0.005114214277689252,"296":-0.06462377287712723,"297":-0.09102832808440696,"298":-0.2576094094180047,"299":-0.10966173997314727,"300":-0.030557201592597363,"301":-0.08186578771763349,"302":-0.24054089045594063,"303":-0.10725715987561218,"304":-0.06867176589772324,"305":-0.020821964184211023,"306":0.0031538749116650777,"307":0.006683399584618642,"308":-0.028064105052058527,"309":0.02247238906012873,"310":-0.05695243065877477,"311":-0.018258079218557793,"312":-0.02510693198011588,"313":-0.041988088752069226,"314":-0.09234684411425098,"315":-0.11364690765188301,"316":-0.21431581953284776,"317":-0.28590528687238587,"318":-0.31628039503011907,"319":-0.01704855863327177,"320":0.01944919038147564,"321":-0.11842734006673256,"322":-0.018018087256594387,"323":0.07204916953662949,"324":-0.10553937981666352,"325":-0.23093405344320778,"326":-0.2695839151349358,"327":-0.12390460820307037,"328":0.05429490497414319,"329":-0.22627680560862992,"330":-0.21278179730559701,"331":-0.1585716987536387,"332":-0.13424503141913052,"333":-0.025780615579558006,"334":-0.010701591223928454,"335":-0.011971139292170736,"336":0.0023054701723860824,"337":0.008761284778830486,"338":-0.021595223798770213,"339":0.00493843353633012,"340":-0.05735397282446716,"341":-0.06946239085162292,"342":-0.16898502491206294,"343":-0.21154793506861208,"344":-0.24944241610423948,"345":-0.29523933276983744,"346":-0.27996344510182813,"347":-0.17453575178592712,"348":-0.19770605125651133,"349":-0.22376157034043329,"350":0.03683296890528442,"351":0.04655056576619311,"352":-0.17620712764924493,"353":-0.3996056145930545,"354":-0.28796597709245575,"355":0.05475352151913328,"356":-0.03055551583141347,"357":-0.12791792206357025,"358":-0.3542534547103994,"359":-0.33730662322315275,"360":-0.1396153339789562,"361":0.042383803525164715,"362":0.0254360682140883,"363":-0.02625494975466019,"364":-0.04132492472003915,"365":0.008670728215723893,"366":0.04112712290364941,"367":-0.03633565986559943,"368":-0.06448197974974873,"369":-0.14782530628267168,"370":-0.14700183937142627,"371":-0.21595964483529814,"372":-0.305686600543712,"373":-0.2802120297793975,"374":-0.12247690742771335,"375":-0.138002314714007,"376":-0.22085710944924022,"377":-0.06969991037782727,"378":0.20971788142688405,"379":0.2067743618346335,"380":-0.12162532879023996,"381":-0.35844753606379637,"382":-0.15501580756244907,"383":-0.021820348461386547,"384":-0.18022097362966463,"385":-0.42495361820243915,"386":-0.361507730207727,"387":-0.2985508738620129,"388":-0.12305709579148097,"389":0.029971435356074213,"390":0.02264070826491315,"391":-0.05759583345356617,"392":0.05454750831241813,"393":0.029970745734565225,"394":-0.01959983001838888,"395":-0.03336910618373076,"396":-0.1108913776455786,"397":-0.20227568475310348,"398":-0.21134184377363738,"399":-0.20418194753534713,"400":-0.1403341230225349,"401":-0.10062478354173117,"402":-0.12580903707976046,"403":-0.2867753101413686,"404":-0.28821709523706573,"405":-0.011156793493617867,"406":0.16888516644929358,"407":0.04982481287619488,"408":-0.20457278338537357,"409":-0.5490414774963852,"410":-0.3379279823538157,"411":-0.11092369811337247,"412":-0.3556631249682295,"413":-0.4238460634954386,"414":-0.39040368572723033,"415":-0.22200650141341666,"416":-0.11690904509667295,"417":0.041332709007805314,"418":-0.050832435070420255,"419":0.023220997946614606,"420":-0.02053375547712208,"421":0.05114575512989801,"422":-0.028358211149627503,"423":-0.019364217688208684,"424":-0.07059721801071507,"425":-0.2303875089784772,"426":-0.3256844638995425,"427":-0.20744656219880855,"428":-0.11487059207640297,"429":-0.07162908328839183,"430":-0.06977455301243665,"431":-0.23154161023052156,"432":-0.23838469868031698,"433":0.012663603235261358,"434":0.03771104611481971,"435":-0.03894505001982201,"436":-0.399444922003784,"437":-0.5501957684646742,"438":-0.3701052227244041,"439":-0.11924036388843932,"440":-0.25788500460672986,"441":-0.4173062499198249,"442":-0.35488940458114715,"443":-0.24383634173751356,"444":-0.1700710890946319,"445":0.040776662629963094,"446":-0.03995058200947002,"447":0.008910731912276081,"448":0.029771434633604377,"449":0.003304220265893651,"450":-0.03785014036965976,"451":0.05310404502712101,"452":-0.07338374937843427,"453":-0.2728280745372754,"454":-0.2214145551803486,"455":-0.20406713889057884,"456":-0.12069102867705395,"457":0.047603136592975916,"458":-0.0921479431195069,"459":-0.14081391271890772,"460":-0.02895896358852231,"461":-0.07388255847336803,"462":-0.03366412931889075,"463":-0.05264326790847707,"464":-0.5811605573903174,"465":-0.5182782960184901,"466":-0.30113786495908496,"467":0.0317660791339845,"468":-0.16738306296460062,"469":-0.33415833604318435,"470":-0.27771844053671485,"471":-0.23867757849172436,"472":-0.059301377938867694,"473":0.0949504887401318,"474":0.03964796036790048,"475":-0.025619217459869958,"476":-0.005240361894687663,"477":0.006805465446578335,"478":-0.013492652623638478,"479":-0.013038747649624828,"480":-0.03514077213192724,"481":-0.17031393991773744,"482":-0.19758331868095752,"483":-0.10016901328929612,"484":0.01782329525023243,"485":0.01991269388796685,"486":-0.06555768616033689,"487":0.01419312961169229,"488":-0.09692688353675186,"489":-0.1406282837954654,"490":-0.01671642106900441,"491":-0.11279777627293854,"492":-0.3206550518054577,"493":-0.24458753224557223,"494":-0.26068758795761154,"495":0.027307603111855004,"496":-0.012897254560327,"497":-0.026657343176410442,"498":-0.0563050604471968,"499":-0.025534200325899505,"500":0.09457698846695813,"501":0.07118627009881709,"502":0.026804380598986655,"503":-0.0037195755359075706,"504":-0.04093070697346736,"505":0.05361522378817256,"506":-0.002556841788395429,"507":-0.0984448627826601,"508":0.033057765681537,"509":-0.07273499274715456,"510":-0.1036313306392637,"511":-0.06056573445142247,"512":0.060821813114321846,"513":0.1476889797967713,"514":0.17618786588773772,"515":0.023801229729733406,"516":-0.07905381837231595,"517":-0.13608503581359827,"518":-0.10885449594115282,"519":-0.0939336832584209,"520":0.19773728136744478,"521":0.09191788486081574,"522":-0.09431313916262526,"523":-0.12358259610959592,"524":0.012907507521371858,"525":0.04242046127920865,"526":0.050435970214402145,"527":0.10124442204251911,"528":0.11923841456508992,"529":0.12812532412631117,"530":-0.036187526300194534,"531":-0.0004863850447362348,"532":-0.012170314858036213,"533":0.028811005437735696,"534":0.05701695074899751,"535":-0.019681109605418426,"536":0.12998812983110855,"537":-0.062027811153879155,"538":-0.013298646143750597,"539":-0.049888140736545426,"540":-0.010962840338054879,"541":0.13390433849901068,"542":0.12006172925109357,"543":0.18644726732642686,"544":-0.057944891031008194,"545":-0.07636856694896388,"546":-0.022720709729068655,"547":0.005684738946536632,"548":0.31498131535226176,"549":0.08894168240756219,"550":0.09163037818139373,"551":-0.15465019915665024,"552":0.009461806608440081,"553":0.05250565062329256,"554":0.04251405269018837,"555":0.1292653717294284,"556":0.08871127392763158,"557":0.06232452929041327,"558":-0.01740455858925146,"559":-0.006476041591022476,"560":-0.007190793211953385,"561":0.006889346613343559,"562":0.0002568599182960563,"563":-0.0008107395595851626,"564":0.08124878720803691,"565":-0.002463119564794492,"566":0.028625233919819023,"567":0.040551436555093745,"568":0.11763613337479116,"569":0.05339692264785152,"570":0.00004492092672492634,"571":0.19509957478809856,"572":-0.027395487639494374,"573":0.004277036754527026,"574":0.05030200155361197,"575":0.25081937049717795,"576":0.17967099211818907,"577":0.101676474910946,"578":0.09403038745955222,"579":0.013135646813112821,"580":0.06796410483489375,"581":0.20082157999242575,"582":0.09706773909467838,"583":0.03288006493315078,"584":0.08109416579697755,"585":0.039345853291125034,"586":-0.021694244486596286,"587":0.0023415562265216147,"588":0.008953312769778595,"589":0.04708864579710651,"590":-0.007273121409549537,"591":-0.0640328431345653,"592":0.04141370635171482,"593":0.11109308327406908,"594":0.045840843360949235,"595":0.09693387544628533,"596":0.07194311575519437,"597":0.048150259709207346,"598":0.24910891497459764,"599":0.012876117054004762,"600":-0.009554285431297514,"601":0.18985491733286622,"602":0.31507948094299404,"603":0.32070288224764665,"604":0.2724776584914117,"605":0.04558981810323568,"606":0.21473791929202257,"607":0.17310245809308247,"608":0.23497255411392579,"609":0.13956686890489198,"610":0.10955731485400054,"611":0.10363377761816782,"612":-0.00039264106605986466,"613":-0.018864768405910424,"614":-0.027824610327276452,"615":-0.022199416807842574,"616":0.06822936844240747,"617":0.04467136300105903,"618":-0.034384414007074766,"619":0.07088819237659644,"620":0.08333480000312153,"621":0.144633985989386,"622":0.09853552176587128,"623":-0.0045643068254983534,"624":0.0008177777521256729,"625":-0.04291109204631055,"626":-0.000556115537271462,"627":-0.06141219618505974,"628":0.04080529434682229,"629":0.1493059974341126,"630":0.23612151929800573,"631":0.1587086876969311,"632":0.13821741532384016,"633":0.21302405658549572,"634":0.18110359468285697,"635":0.15810688506603396,"636":0.07616412741454624,"637":-0.02378519625117789,"638":-0.05056087303985363,"639":-0.020490836353430245,"640":-0.04185617177805248,"641":-0.04983318661799714,"642":0.028205037623890844,"643":-0.00604312168878463,"644":0.03413901533782798,"645":0.020048253001280596,"646":0.00415348217349716,"647":0.004894423835219978,"648":0.05335719907564711,"649":0.002843930339975549,"650":-0.002388649273047223,"651":-0.043926040680444214,"652":-0.11985133520100211,"653":-0.07049190750277477,"654":-0.024633459603115773,"655":-0.12479240310317616,"656":-0.02607402351971617,"657":-0.10039707087364418,"658":0.07317201303059036,"659":-0.00434780550323563,"660":0.05515524874230378,"661":0.12704515388936286,"662":0.12352893608374235,"663":-0.06596958908265305,"664":-0.08450911780532626,"665":-0.10952652036340085,"666":-0.11198196593814844,"667":-0.1023000923876054,"668":-0.036843138217449965,"669":0.006333910707530168,"670":0.020792477665258872,"671":0.006914199503998301,"672":-0.00376290779086474,"673":0.021479734627491698,"674":-0.021955065985072332,"675":0.0007355233427372938,"676":-0.010726667340893573,"677":-0.0192689853264417,"678":-0.025218283395516416,"679":-0.0378175134877686,"680":-0.1356950837046048,"681":-0.15203511909772102,"682":-0.08729016148781202,"683":0.031378633101725846,"684":0.0434975357824489,"685":0.05675624956717379,"686":0.054849160108835796,"687":0.023694957613371415,"688":0.029328981833709692,"689":-0.0010340109443599489,"690":0.011897761357835582,"691":-0.03247936232068494,"692":-0.020607168712398247,"693":-0.02435492198101709,"694":-0.010429629310128228,"695":-0.029753050582224206,"696":0.025503295175501255,"697":-0.038161389758097464,"698":0.015018439197292746,"699":-0.0320775120277787,"700":-0.018715006104223,"701":0.03922819556774861,"702":0.033013833851033264,"703":0.04754703627674475,"704":0.01065539765667124,"705":0.0053286624908336815,"706":0.017857762203786917,"707":-0.05067991462329062,"708":-0.10705503175273115,"709":-0.09742007327477459,"710":-0.11418325011519742,"711":-0.024013216420616608,"712":0.1030372195245874,"713":0.08224190839420575,"714":-0.023061873956811488,"715":-0.19710104091659086,"716":-0.19107319148024776,"717":-0.0515376340881407,"718":-0.05563537681118805,"719":-0.033932649595388366,"720":-0.007161192108133835,"721":-0.03497460476573685,"722":0.01783971985847875,"723":-0.00374353989339933,"724":-0.025556234873696484,"725":0.025139608065173968,"726":0.0010132630468770417,"727":0.03486796488212096,"728":-0.008234662780334637,"729":0.006351627006554497,"730":-0.0029129846104212188,"731":0.04127365446302569,"732":0.05493031303510846,"733":0.010403850169890079,"734":-0.010427419575829114,"735":-0.014337408881932353,"736":-0.046183665647035695,"737":-0.0035587106207245127,"738":-0.06486835892636893,"739":-0.038399272883428315,"740":-0.08291914652516671,"741":-0.07999668317837146,"742":-0.09249180824273676,"743":-0.139170571110147,"744":-0.11388442218532441,"745":-0.038997054666093364,"746":-0.03653214560523136,"747":-0.07707374733449147,"748":-0.01137455350694094,"749":-0.0034444571109131044,"750":-0.0005052302870635985,"751":-0.01982819294519687,"752":0.027050091529904847,"753":-0.006865542161623673,"754":-0.012540893992858735,"755":-0.025430654837020786,"756":-0.018978129354537035,"757":-0.04801685946251354,"758":0.007824559713727534,"759":-0.041887866136941454,"760":0.05589377802690858,"761":-0.025356725626039422,"762":0.03608228514203104,"763":0.03750484070185471,"764":-0.008419894098540347,"765":-0.010647331698242217,"766":-0.04327638077633049,"767":0.024363023295041086,"768":-0.041218034030444176,"769":-0.03348184355575803,"770":0.012260962917777998,"771":0.025344588402735055,"772":-0.029959600022010424,"773":0.001747076223498297,"774":-0.06185243379091811,"775":0.011424054185751752,"776":0.006001160369530391,"777":-0.03966818536412287,"778":-0.009139060662509817,"779":-0.022615661235396455,"780":-0.019369689285645524,"781":0.047093263365095436,"782":0.008106670867945358,"783":-0.026520038377313877}},{"sx":1,"sy":1,"depth":784,"w":{"0":-0.008314355723788915,"1":0.018116957422308448,"2":0.01873182458609584,"3":-0.017550080985736363,"4":0.02302257293574365,"5":-0.049751284952054005,"6":-0.004614863182149704,"7":-0.030821784101057324,"8":0.10190643212880336,"9":-0.00040930073141888794,"10":-0.00010426672401199124,"11":-0.007122933387236573,"12":0.001006199373424167,"13":0.029746371469148953,"14":-0.018602530822737946,"15":-0.06233410815614063,"16":-0.003338408901641136,"17":0.010940410018098454,"18":0.008667416582825098,"19":-0.01798937572381813,"20":-0.019774229383595784,"21":-0.0008569619484927479,"22":-0.026118324856352716,"23":0.0015185887417642002,"24":-0.05540193637935138,"25":0.02626613603123567,"26":0.015554872480206683,"27":-0.04858202329565902,"28":-0.020763733545101346,"29":-0.03275047003591237,"30":-0.024143267133547582,"31":0.054236706373410624,"32":0.002687707639219522,"33":0.02799106344199837,"34":0.05706732979259806,"35":-0.015683580054643872,"36":0.04902236903607391,"37":0.08224439148991383,"38":0.04761778453550305,"39":0.008393935576310869,"40":-0.03241310483093491,"41":-0.010798662164743,"42":0.008670633879240037,"43":-0.025291784097401362,"44":0.027424971764972005,"45":0.005294370042826083,"46":0.0005862291576318372,"47":0.04149256337276728,"48":0.009576986395946202,"49":0.03141789949666866,"50":0.028200663965736752,"51":0.02254961811563656,"52":0.02315046468657308,"53":-0.01574737313784785,"54":0.01764993313812508,"55":-0.011482644146561341,"56":0.017974429185297458,"57":0.056843279629131716,"58":0.01568974669267647,"59":-0.027002780308874232,"60":-0.018697390455803417,"61":0.024977764932481807,"62":-0.0282606820933342,"63":0.037561451590912405,"64":0.004496738306564057,"65":-0.028981741453699552,"66":0.009472850580969945,"67":0.012812424817577961,"68":-0.020633333270822982,"69":-0.09200251370243931,"70":-0.06522446935458716,"71":-0.06276174300471166,"72":-0.03822338611322721,"73":-0.08848397901099557,"74":-0.06306720311123548,"75":0.021257299008992165,"76":-0.021450450924862054,"77":-0.00022547164579293287,"78":-0.026804291539515083,"79":0.04380512677882337,"80":0.01393394332151816,"81":-0.021667759628648312,"82":-0.04160599142007856,"83":-0.07593957591713367,"84":-0.01106365446740681,"85":0.003005926765890615,"86":-0.05294845246039306,"87":-0.03366855193522566,"88":0.0441927523968666,"89":-0.011732194508203946,"90":-0.06692952438773077,"91":-0.06440429615703093,"92":0.009101858073874829,"93":-0.21216200872840454,"94":-0.13745280812612717,"95":0.11136317057798877,"96":-0.05349843734364393,"97":-0.04375937236574768,"98":-0.30036435709747955,"99":-0.25920870149945546,"100":-0.5692935400624348,"101":-0.3944906382307783,"102":-0.2780762066936672,"103":-0.17610213673950395,"104":-0.12925352817813135,"105":-0.06208790456036852,"106":-0.009793920863042226,"107":-0.027207268359518654,"108":-0.002162345991894219,"109":-0.017155196877682015,"110":0.03414791095501735,"111":0.001135682728491243,"112":-0.02585581783525676,"113":0.009973160618530846,"114":0.029533921632699547,"115":-0.030744337002075958,"116":0.004437173440894082,"117":-0.026622421070375536,"118":0.027955415429735068,"119":0.05241790146457519,"120":0.018034749015140576,"121":-0.16679552523480082,"122":-0.009642627102265105,"123":0.06449544639438255,"124":0.10502173551454634,"125":0.09382636022685499,"126":0.05095915018303454,"127":0.009778583604037105,"128":-0.079633867152309,"129":0.039257600309384785,"130":-0.16522899619518228,"131":-0.22936591486322122,"132":-0.1850110392813372,"133":-0.020697522442424784,"134":0.002542192941385958,"135":-0.05962670617428975,"136":-0.06594218956102649,"137":0.005297356851686647,"138":0.010254717521739334,"139":-0.03525876749976556,"140":0.0368371571373755,"141":0.0003304109638981689,"142":0.013628128516242734,"143":0.08257251048927014,"144":0.08113757439165195,"145":0.0018679500352484025,"146":0.022539603561560984,"147":0.05939068301504465,"148":0.02490638597307081,"149":0.059770240069781336,"150":0.029986298592136685,"151":0.1394854374785376,"152":0.2455000477213714,"153":0.3477534309618923,"154":0.4216504686478126,"155":0.38125547393487336,"156":0.08478080821965495,"157":-0.07479554424754381,"158":-0.10310275418952373,"159":-0.22153201883728058,"160":-0.2196773354076086,"161":-0.0493036200069677,"162":0.01573486258766927,"163":0.1137894814802594,"164":0.13967601925683862,"165":-0.007382829805006398,"166":-0.012396762251885487,"167":0.0016415215639198966,"168":-0.0007417011416207767,"169":0.03898975479894213,"170":0.035580770085197215,"171":0.06421404603505534,"172":0.09439410840361787,"173":0.00012001909753744613,"174":0.11933923035670602,"175":0.11189902204521068,"176":0.12874822147328777,"177":0.2042374676978848,"178":0.12747971217220372,"179":0.12004822798392611,"180":0.25384731497563084,"181":0.31492824594588714,"182":0.31184498575679187,"183":0.31646474949128484,"184":0.10260535853126038,"185":0.18027363574569694,"186":0.08549815644895067,"187":-0.07170767263104406,"188":-0.1855284845118971,"189":0.042876804902715226,"190":-0.01060809000457017,"191":0.05784228727968397,"192":0.0311339674252783,"193":0.0760759526288931,"194":-0.006502720529454402,"195":-0.000950637042379857,"196":0.03882251313593144,"197":0.034333468525576914,"198":-0.10730886025717938,"199":-0.07831905375166949,"200":0.1850950298375578,"201":0.05452435565725466,"202":0.019911263464360947,"203":0.10580008174511213,"204":0.04593209517282038,"205":0.10567830453211231,"206":0.14547599856361254,"207":0.16043474947358963,"208":0.26294675932881295,"209":0.0726501276040261,"210":0.10584155882526375,"211":0.058421658457183286,"212":0.027132767131124134,"213":0.07939713497257726,"214":0.004180460699306762,"215":-0.020877337340968964,"216":-0.09874178965100754,"217":-0.18511045999303835,"218":-0.06829345602641712,"219":-0.09793271011646135,"220":0.07457424541113418,"221":-0.030921652669338082,"222":-0.10194572072342034,"223":-0.033863724922267475,"224":-0.0008291582745722705,"225":-0.010949933060506116,"226":-0.04752835209616897,"227":-0.14610728486859417,"228":0.0773806819286256,"229":0.07702229493385536,"230":0.15596682530991926,"231":-0.02446643228213146,"232":0.14831333626925672,"233":0.21738372341528614,"234":0.07353885764818349,"235":0.10386955896876444,"236":-0.0008540469898557031,"237":-0.0992376851995673,"238":-0.01753322334239938,"239":-0.13699881317911847,"240":-0.07874404744699955,"241":0.026791790274989225,"242":0.08298216296617666,"243":0.049714698487205236,"244":-0.09955414829666734,"245":-0.29070763932681,"246":-0.1506117379465606,"247":-0.012981605528976571,"248":0.11406081409596402,"249":0.013969741371478037,"250":-0.11592061719933748,"251":0.04508268769845167,"252":-0.030042616950174027,"253":-0.011684853894091822,"254":-0.14376076138173757,"255":-0.16545377272796669,"256":-0.012242247678631638,"257":0.032049250406056606,"258":0.14386669175439973,"259":-0.012359047241393535,"260":-0.09483951594764585,"261":0.12066230345873384,"262":0.06689128328556623,"263":-0.000636219119353342,"264":-0.18389087368391327,"265":-0.20720929443842978,"266":-0.15840886776249827,"267":-0.049272595386213584,"268":0.007521533120898955,"269":0.07431091116634173,"270":0.02735007919757951,"271":0.034559931222258734,"272":-0.042174371536990586,"273":-0.21094237251713555,"274":-0.20678015122684829,"275":-0.05905424141731799,"276":0.07246305102385515,"277":-0.012365284496251076,"278":0.003219700998673214,"279":-0.007111483735585885,"280":0.016022376307907867,"281":0.024003514527047153,"282":-0.043499148174485816,"283":-0.10364494589246619,"284":0.0711282667887759,"285":0.04913796172368785,"286":0.0018321294660226229,"287":0.043246559144766314,"288":-0.048710794705198644,"289":0.01871870177512846,"290":-0.03809942542325384,"291":-0.05689225639347151,"292":-0.14966543386341877,"293":-0.14826572444035652,"294":-0.1304992177674872,"295":0.002193539518024856,"296":0.07727546317808645,"297":-0.0012687412936144794,"298":-0.1746126331743756,"299":-0.11433785795964453,"300":0.040409731555449815,"301":-0.01864613327364057,"302":-0.10521122350812726,"303":-0.015055505899618845,"304":0.06880711942889338,"305":0.08842287235054469,"306":0.06846817249736674,"307":-0.003639613435115907,"308":0.0005156089462791649,"309":-0.02043169653620838,"310":-0.019349431439660916,"311":-0.05906102351157265,"312":0.03178770316846565,"313":-0.04290220275613844,"314":-0.0358419377876007,"315":-0.07908642278554837,"316":-0.18751801504174448,"317":-0.07976333784477115,"318":-0.15046170918456736,"319":-0.06248652497596508,"320":-0.15380183269408634,"321":-0.08473659727307781,"322":0.13598104385227675,"323":0.24745652818502684,"324":-0.12756761403862665,"325":-0.18624236405122033,"326":-0.14015483780312063,"327":-0.05330260455933482,"328":-0.038909681858527743,"329":-0.0642550866442275,"330":-0.18537315399078846,"331":-0.19811647168154498,"332":-0.012997039776700919,"333":0.07043756427138609,"334":-0.0041882326477993065,"335":0.011138289179197581,"336":-0.030181616839671244,"337":0.048417708773912875,"338":0.007571931651102093,"339":-0.037560215533079325,"340":-0.03297992547532844,"341":-0.12618061531473343,"342":-0.042271479468876834,"343":-0.054682927012164574,"344":-0.16728830883359205,"345":-0.14159387536546786,"346":-0.09203832175096358,"347":-0.13494074403966438,"348":-0.0707188466609921,"349":0.06664931808969697,"350":0.28162428331486133,"351":0.10392096221269942,"352":-0.23376569055831944,"353":-0.2389194746697359,"354":-0.2126534727621406,"355":-0.3216198669870279,"356":0.026824982674947425,"357":-0.007948129903689137,"358":-0.17344701218310274,"359":-0.13089475448196425,"360":-0.037772735986888475,"361":0.029809864998809124,"362":0.009117199226338343,"363":0.03229538941748858,"364":-0.012145940225616532,"365":-0.0013667368558187732,"366":-0.036264767895528245,"367":0.0015049058762021952,"368":-0.08564789006769014,"369":-0.06472272248959415,"370":-0.059343445062529455,"371":-0.09651725374285769,"372":-0.25218511183760545,"373":-0.17626566936188567,"374":-0.1532006291620872,"375":-0.1963991773267235,"376":-0.00961079621407939,"377":0.15656376004989045,"378":0.37891866787157147,"379":0.21469624082486627,"380":-0.2160221014591359,"381":-0.4481289759897515,"382":-0.35114302335658104,"383":-0.422025641040748,"384":-0.1679001498404839,"385":-0.09306514719025709,"386":-0.12300052880249762,"387":-0.17252842347943098,"388":-0.06821953495554042,"389":-0.03191900960993055,"390":-0.08272360608845251,"391":0.008170689590729611,"392":0.002443470803476557,"393":0.03819707481750661,"394":-0.019739819916776678,"395":0.004628490044837944,"396":-0.056403336280366714,"397":0.02536514206598416,"398":-0.07663478543515773,"399":-0.17955556344806164,"400":-0.18416801390204562,"401":-0.18518198079103115,"402":-0.28787586234437396,"403":-0.27746561488792515,"404":-0.007842060896697556,"405":0.2687719216169311,"406":0.3692183295044074,"407":0.09006388032873798,"408":-0.16266372887601083,"409":-0.41026019037580735,"410":-0.3739393621377413,"411":-0.33329433098018174,"412":-0.2909675577001736,"413":-0.1312619480417144,"414":-0.03416880485827425,"415":-0.09989829350061415,"416":-0.026875842086078267,"417":-0.16541479016915261,"418":-0.017774613383387313,"419":-0.05076908221241606,"420":0.05274051129941713,"421":-0.03150977870142147,"422":0.0073659950758421895,"423":-0.1288933503575546,"424":-0.017923040754038798,"425":-0.0980484078989225,"426":-0.13682133546328865,"427":-0.2733162902702836,"428":-0.11505707171921667,"429":-0.28526124672609204,"430":-0.33165601499943737,"431":-0.34486017106295314,"432":-0.03867100702462679,"433":0.1955836559843128,"434":0.2361056845460078,"435":-0.014250931505409598,"436":-0.29359137778493616,"437":-0.35267875770200224,"438":-0.46751264496808853,"439":-0.10724843175310664,"440":0.0013845017168125462,"441":-0.09935123934129751,"442":-0.06458604529144098,"443":-0.01910381340137336,"444":-0.018905455840890116,"445":-0.08849371510058372,"446":-0.01650545487047392,"447":-0.04296909363440484,"448":-0.03387110730488001,"449":-0.001904166360418653,"450":-0.027097202287768712,"451":-0.12121065536986954,"452":-0.059136622399078104,"453":0.0009647576618271913,"454":-0.12676218534454567,"455":-0.38265284107301234,"456":-0.3031908973040812,"457":-0.39415642307676113,"458":-0.3576918878968087,"459":-0.24626442467205914,"460":-0.05788983875592798,"461":0.059413745314165795,"462":0.029348919524999215,"463":-0.14546753763198464,"464":-0.430266424128654,"465":-0.3298074726100643,"466":-0.25039591057773375,"467":-0.0414462372946708,"468":0.09418697092885354,"469":-0.007389541320914679,"470":-0.01028886358820172,"471":0.08019899876949294,"472":-0.07697677650927595,"473":-0.022484880139984162,"474":-0.08351299021312293,"475":-0.01541519757441893,"476":0.009741247123976744,"477":-0.040185491600709555,"478":-0.03291533117963519,"479":-0.07336259909122533,"480":-0.17693032343787232,"481":0.035494064092866935,"482":-0.1657332515762806,"483":-0.19323696941720134,"484":-0.2226880394541896,"485":-0.3743296211127526,"486":-0.2587187545989651,"487":-0.12589011465866629,"488":-0.043184083951072275,"489":0.013969442208125762,"490":-0.16280699043059704,"491":-0.29700808251719296,"492":-0.279911167357915,"493":-0.1485575999347393,"494":-0.3456561137715,"495":-0.07983554253680353,"496":0.07171395875821593,"497":-0.025890320956522783,"498":0.10893186790005224,"499":0.1133938589142949,"500":-0.05904107757390919,"501":-0.07949367346623808,"502":0.05711805586031964,"503":0.00574583871824497,"504":-0.03918179932073793,"505":0.03429901744932103,"506":-0.05563961356278345,"507":0.022701751908057354,"508":-0.02244365364810765,"509":-0.08116538326677725,"510":-0.18899293258456487,"511":-0.2513851009507386,"512":-0.07051065377377783,"513":-0.1467436985124522,"514":-0.15787700368261878,"515":0.012999487694609535,"516":0.04101669933059769,"517":-0.10543014775551014,"518":-0.22994157102842702,"519":-0.19971588425911285,"520":-0.2645236610214029,"521":-0.24238609534328384,"522":-0.1883169479111582,"523":-0.06609238101082021,"524":0.027290568361484014,"525":0.13215927845352882,"526":0.1763297344679396,"527":-0.029812861257591337,"528":-0.0958455182917854,"529":-0.05825783593214947,"530":0.05505197973498337,"531":-0.027252390950939752,"532":0.007062108751132885,"533":-0.031930035413220946,"534":0.04263047912046923,"535":-0.05753656902773259,"536":-0.1379882913251639,"537":-0.09879643853248493,"538":-0.34443616137913946,"539":-0.28551247835601445,"540":-0.06810395150555072,"541":-0.09479470743672597,"542":-0.033469604952398674,"543":0.004292230217356983,"544":0.12860932553527377,"545":-0.1422904935985072,"546":-0.5159707593991751,"547":-0.31523660111615653,"548":-0.1814670095885807,"549":-0.1575870032674588,"550":-0.08192685705579207,"551":0.05777742577611519,"552":0.11660689164223949,"553":0.07561091004164867,"554":0.11451499412488242,"555":0.03681392467149481,"556":0.008830257608181945,"557":-0.028715145178611637,"558":0.009605366158862387,"559":-0.01949134284590657,"560":-0.03567485596011546,"561":-0.00013993823401018763,"562":0.028385180604320052,"563":-0.010838747545255902,"564":-0.17613819420523572,"565":-0.15811222871234917,"566":-0.2837463464456151,"567":-0.21047132584244727,"568":-0.08432473692061256,"569":0.0027816914207334197,"570":0.08548199692729562,"571":0.056129768106982926,"572":-0.017431333373506944,"573":-0.37133753236402767,"574":-0.3380423810799416,"575":-0.145601231253854,"576":-0.030302010477599086,"577":0.13249099717868143,"578":0.2818434751260023,"579":0.2835036054461975,"580":0.2701690687739138,"581":0.06306288643101833,"582":0.22640559118926695,"583":0.08238189781954591,"584":-0.06935721493318465,"585":0.06017239248524925,"586":-0.031150165349743936,"587":-0.031599031659855656,"588":0.016647442119996442,"589":0.017446921644801335,"590":0.017614072481485846,"591":0.04694710053316479,"592":-0.09973673233479441,"593":-0.18777311462103874,"594":-0.09992885185391889,"595":-0.1409469000658483,"596":0.04316994699638591,"597":0.0601009814870228,"598":0.2346945388447274,"599":0.21533894954485425,"600":-0.0619830278727536,"601":-0.1606820184554625,"602":-0.10306092318263081,"603":0.1690476124017879,"604":0.22639155071766023,"605":0.18897048209491357,"606":0.13704324233704449,"607":0.33517369296667016,"608":0.34698718486863817,"609":0.19601267755131668,"610":0.2378412439186974,"611":0.09256095492082451,"612":-0.02860129499801709,"613":0.09679226625520859,"614":0.021991431936358642,"615":0.045456230748863374,"616":-0.011415257851044488,"617":0.022386595133521554,"618":0.01788425492209909,"619":0.019889265971746905,"620":-0.038056571140149494,"621":-0.10133318757760111,"622":0.019084994224135128,"623":-0.15085367429686541,"624":-0.12898782982905788,"625":0.03930183832381498,"626":0.1742835545195253,"627":0.24048680494148097,"628":0.2733811519282386,"629":0.3564965692195911,"630":0.4291266349368343,"631":0.28533104490656414,"632":0.24437133803956312,"633":0.09043594791515361,"634":0.20263498933331456,"635":0.364229222482142,"636":0.4048586748537744,"637":0.07721889607976976,"638":0.26312505463567043,"639":0.033493423552455,"640":0.0034243207331592813,"641":0.02081282658829743,"642":-0.010133161010130936,"643":0.004278572007976229,"644":-0.008484411648413254,"645":-0.04612853568685859,"646":0.09774016615955824,"647":-0.02483077822350396,"648":-0.019954598696626632,"649":-0.12219465724234141,"650":0.0748445774384656,"651":0.03475248454347253,"652":0.006895919251301268,"653":0.15868926328562755,"654":0.0055512287595237035,"655":0.11552562187821164,"656":0.31281933058025424,"657":0.5065028864692439,"658":0.4896548583351255,"659":0.4156003574722734,"660":0.2578557536675758,"661":0.24989036650864319,"662":0.31204038279369944,"663":0.06145554521771875,"664":0.006910174134319054,"665":0.03661699372403046,"666":-0.04669322115463358,"667":-0.06921532749481409,"668":0.06179008587056383,"669":0.03899519285213117,"670":0.024190089027760292,"671":0.035197097818646626,"672":-0.008241867957549092,"673":-0.020956567664555278,"674":0.04671200482609405,"675":0.05761967402334679,"676":0.04949891090173781,"677":0.017955859201168142,"678":0.08915693014900622,"679":0.1439585181388447,"680":0.18716468219782728,"681":0.1263829973315983,"682":-0.06358925991586076,"683":0.0416582136495997,"684":0.11558395467203758,"685":0.12193552043408803,"686":0.026969631803636776,"687":0.03274900490795174,"688":0.04822486338947342,"689":-0.02055781549493677,"690":-0.21875782109648712,"691":-0.2523886836745062,"692":-0.29088641600141946,"693":-0.20705221077438501,"694":-0.11283862243067448,"695":-0.06147855252642484,"696":-0.003305457909565449,"697":0.013379868512315546,"698":0.03995342723112334,"699":0.025464533509227918,"700":-0.014535443937031253,"701":0.0184049009754139,"702":0.022997995751078904,"703":-0.0012074002736128936,"704":0.08614401000814803,"705":0.08013668691612522,"706":0.06733923700127321,"707":-0.09299301739260042,"708":-0.1910556369450023,"709":-0.24490256915357156,"710":-0.2303311264167782,"711":-0.16478970115370167,"712":-0.26898373200116066,"713":-0.14215385405074452,"714":-0.4965572882361715,"715":-0.5535544382590738,"716":-0.511175763470829,"717":-0.5222727449537371,"718":-0.4367103152436911,"719":-0.28996701535764935,"720":-0.2318302756116375,"721":-0.09121177453175683,"722":-0.03363522463086173,"723":-0.059612494970573235,"724":-0.03844168820717145,"725":0.005885090693582578,"726":-0.02132835650729312,"727":0.022786079202821267,"728":0.012019007678220018,"729":-0.01041023582829519,"730":0.0317734612398224,"731":-0.010691390086785706,"732":-0.03269124064475121,"733":-0.034790337479677434,"734":0.030399449950459997,"735":-0.06861980593683364,"736":-0.12578356951674746,"737":-0.11950848171734582,"738":-0.12044670423235308,"739":-0.17993044918274642,"740":-0.2441654631932278,"741":-0.25394046441023604,"742":-0.29558544980963225,"743":-0.26227636636053603,"744":-0.1375803229277756,"745":-0.10913013299440716,"746":-0.09451141167157935,"747":-0.08198953997733192,"748":0.006131673405195248,"749":-0.033873608327047965,"750":0.015044779908677301,"751":-0.0006045588972344276,"752":-0.002145643864474941,"753":0.03328604512946701,"754":-0.014948658705263903,"755":0.03347248119992755,"756":-0.01658111061072778,"757":-0.027424705386525233,"758":-0.0391513035356298,"759":0.0013799149492254431,"760":0.002114922907754667,"761":0.04554615331504524,"762":0.019757398410186176,"763":0.024914471464444667,"764":-0.009232031495469072,"765":-0.00814641721072502,"766":0.01835135700004269,"767":0.026661899663444285,"768":-0.03884463995117734,"769":0.06995100258138585,"770":-0.029511268820057193,"771":-0.07002098257622166,"772":0.035834737232190876,"773":-0.04456906907581671,"774":-0.04970390690912333,"775":0.01992930962050917,"776":0.00262556682615006,"777":-0.013717552032223534,"778":0.02112896765260011,"779":-0.028092336419031454,"780":-0.007896262076280731,"781":0.016760335728097573,"782":-0.021678964008749853,"783":0.037467659501179806}},{"sx":1,"sy":1,"depth":784,"w":{"0":0.016862651132918113,"1":-0.01763277413029204,"2":-0.021348820440397733,"3":0.022699054348221902,"4":-0.0022932997173541053,"5":-0.009048728897044903,"6":-0.01344306068800681,"7":0.05199689311674376,"8":-0.026132732089827325,"9":0.0012345694380917593,"10":0.03580407054075503,"11":0.05575369247586925,"12":-0.015224694612401817,"13":-0.005599321460026619,"14":0.0066686773149628314,"15":0.036442067643737065,"16":0.018144060628305834,"17":0.03116463274714043,"18":-0.08175197841542887,"19":-0.02678903735460863,"20":-0.016428306331691317,"21":-0.03230496649723549,"22":0.04399847063417439,"23":0.031070420183747463,"24":0.011549401198776137,"25":0.02459921455261006,"26":0.05771890133671217,"27":-0.01715569220668334,"28":0.01016085852474657,"29":-0.005610862119460796,"30":0.012494059034583095,"31":0.04638753230466482,"32":0.0015511362558169154,"33":0.013308216566279391,"34":-0.03116459632386767,"35":0.006635513777403598,"36":-0.04822837325686721,"37":0.005088129210332188,"38":-0.005303255760442318,"39":0.004449393441442121,"40":-0.038134179007107284,"41":-0.021445977598491102,"42":-0.05485999803140249,"43":0.04250864977544364,"44":0.009439170941412028,"45":0.03165960768203078,"46":-0.05378829267852176,"47":-0.03222720025464995,"48":0.011817770008014506,"49":0.025295736048213297,"50":0.014819524363845094,"51":-0.016348311639226856,"52":-0.010588891705905755,"53":0.02459688393163468,"54":0.0010968022421003882,"55":-0.06077377764314848,"56":-0.0008055925539716097,"57":-0.013457772264406939,"58":0.03890000789806097,"59":0.002880230406924246,"60":-0.032136803080096386,"61":0.019473271314340585,"62":0.051153947121090004,"63":-0.0011104077397197682,"64":0.011052134855577787,"65":-0.022802083006443926,"66":0.005731100352859938,"67":0.12449417385221027,"68":0.0673950606123293,"69":-0.026076934071795295,"70":-0.018029782549869342,"71":-0.046737803308060995,"72":-0.13414638009988428,"73":-0.12239985938459444,"74":-0.11619345270730146,"75":-0.04687505982053765,"76":-0.018952785583088855,"77":0.0023603833389543943,"78":0.033234078870783924,"79":-0.07807841527075643,"80":-0.03452619074681481,"81":0.03907272765800476,"82":0.006038328824326156,"83":-0.005315926051751237,"84":0.033678925424474655,"85":0.0300298041674832,"86":-0.013748424697577413,"87":0.010296202778104982,"88":-0.021063988132272605,"89":-0.04296360320550892,"90":-0.02792206675964075,"91":-0.0367852811854653,"92":-0.019583006469369786,"93":-0.034055621550075445,"94":-0.08328655707481147,"95":0.006719568913657205,"96":-0.0862797809174101,"97":-0.22007159194232523,"98":-0.23829367884510347,"99":-0.36612699002560123,"100":-0.4709858315054241,"101":-0.4657389146546812,"102":-0.2898306240192796,"103":-0.29570061432062794,"104":-0.32113308987008615,"105":-0.18519447551572385,"106":-0.17518170022470408,"107":-0.005863879845262839,"108":0.0009141018593165283,"109":0.028862541426702394,"110":-0.009949946882030564,"111":-0.026630249166564892,"112":-0.00937320747116212,"113":0.0398450139973042,"114":-0.04946942837006755,"115":-0.00195272058947733,"116":0.05529281170332426,"117":-0.04523110491922365,"118":-0.10106756923510889,"119":-0.1506376322343971,"120":0.07367164867210692,"121":-0.005144052740878507,"122":-0.03731375668722244,"123":-0.021390167137954563,"124":0.17390164062146202,"125":-0.04008058704413439,"126":-0.08819503590283315,"127":-0.20365711146015614,"128":-0.3748007418824033,"129":-0.31487442721392495,"130":-0.1964961960785934,"131":-0.11236823795232509,"132":-0.02367993341874057,"133":-0.005293645334647029,"134":0.13891634104409334,"135":0.10642368721537684,"136":-0.03794097489831148,"137":-0.017380308597610642,"138":-0.06443033781065108,"139":-0.008144732500543176,"140":0.006359552224447849,"141":0.05767238441151458,"142":0.006985888841548384,"143":0.030949169312856892,"144":0.0391496695819493,"145":-0.08213569820842088,"146":-0.04010871320715348,"147":-0.0013180104681027444,"148":0.004008172987519506,"149":-0.022891671678733908,"150":0.0945904534608393,"151":0.23002754908480727,"152":0.3311325600161968,"153":0.3915443806373628,"154":0.32054657673907255,"155":0.4196551164151208,"156":0.32361099884129174,"157":0.18640499957220608,"158":0.15880066701233475,"159":0.21958892310443384,"160":0.0930555240163592,"161":0.19466499189576447,"162":0.13656384075957514,"163":0.12974639156543846,"164":0.03772810482887287,"165":0.11082531233496498,"166":0.018551057476789444,"167":0.008682026772842556,"168":0.042178508377429494,"169":0.034393069479795875,"170":-0.0011700222838643976,"171":0.033915694768842146,"172":0.025027293573257083,"173":-0.035334446447608144,"174":-0.00935156831771803,"175":0.041732654580114645,"176":0.20597157932026297,"177":0.09491602621045213,"178":0.11538157990020577,"179":0.2258743243133978,"180":0.2716810959735827,"181":0.2265961984176857,"182":0.25745566802422915,"183":0.316094062877642,"184":0.29715994100795035,"185":0.2599954597274811,"186":0.24173839810124334,"187":0.3013059285805716,"188":0.33097321731865464,"189":0.2758597340949375,"190":0.21274764029622925,"191":0.11785395713870986,"192":0.1165186485187711,"193":0.07695077811288023,"194":-0.047390401876795024,"195":-0.05502685631213201,"196":-0.002137771558445681,"197":0.0331293833487185,"198":-0.0238033330773661,"199":-0.1717212582822112,"200":-0.03419189210150533,"201":0.023493501771464628,"202":-0.014402318356088394,"203":0.08251790635137278,"204":0.006760963039957745,"205":0.10921282183610886,"206":0.2041796120484868,"207":0.16090079898702184,"208":0.05595661517780328,"209":0.010914819345049778,"210":0.11976721106601035,"211":0.35130079510092926,"212":0.25152415882197865,"213":0.20753414013477003,"214":0.08220539998760068,"215":0.18996482221930497,"216":0.0781961765166499,"217":0.15221263182705702,"218":0.2835843595834044,"219":0.2741833336357454,"220":0.1840832047295998,"221":0.1184588461369194,"222":-0.07897764323576839,"223":-0.03193000998156925,"224":0.038701896890271564,"225":-0.0009557175089456244,"226":-0.13872346330722224,"227":-0.10939732690118922,"228":0.02728910654547654,"229":0.08198268071803777,"230":0.11549291894637102,"231":-0.07551804333514513,"232":0.08093436865580479,"233":0.07935991763932981,"234":-0.06377724010722884,"235":-0.12063741586217958,"236":-0.07668870870444,"237":-0.08691181558939863,"238":0.015147522984170186,"239":0.12424940963407562,"240":0.10290670535952512,"241":0.07896786950794252,"242":0.10564865767159648,"243":0.13067049813705678,"244":0.020200740909964092,"245":0.05751273686154422,"246":0.16871152084167676,"247":0.25202310310633447,"248":0.18128251911644228,"249":0.1412008111368865,"250":-0.011306899924222987,"251":0.026145733638763387,"252":0.018193884810849298,"253":-0.0004821337631345087,"254":-0.10127581449978779,"255":-0.2109159443197448,"256":-0.03709427868157096,"257":-0.0239284591249219,"258":-0.03094274222690123,"259":-0.19818221620719834,"260":-0.17506461750022434,"261":-0.03503569575426108,"262":-0.09875457516744741,"263":-0.0928844348814952,"264":-0.15464228910136443,"265":-0.0666393897702422,"266":0.07330284535696124,"267":0.20296213762957266,"268":0.19497394877015864,"269":0.2297249620558053,"270":0.025257210671508,"271":-0.129766716028509,"272":0.02832125672674521,"273":0.09515589148206165,"274":0.06344696916670131,"275":0.13318876671260468,"276":0.10557535067905682,"277":0.040254961473715656,"278":-0.11900711408028838,"279":0.08314029473868559,"280":-0.0118493407892931,"281":0.003057394854483263,"282":-0.1090520608402098,"283":-0.1877096550773443,"284":-0.05445428769533367,"285":0.0526708868223506,"286":-0.05271906481665529,"287":-0.11557778998098645,"288":-0.15722373525044803,"289":-0.20113262341880653,"290":-0.24461946964539694,"291":-0.09596847471189313,"292":-0.0005591145084962394,"293":0.02701753829621612,"294":0.06589720887178019,"295":0.0459287946285514,"296":0.07101961961775664,"297":-0.1141680009661984,"298":-0.15827367235464126,"299":-0.126049099139916,"300":0.02141246324361832,"301":0.04565978138027905,"302":0.03254169489695523,"303":0.07876611832919433,"304":0.03721254415889618,"305":-0.005023909866721618,"306":-0.09918602737092143,"307":0.0378187822036703,"308":-0.0038899744033577166,"309":-0.0243777567854156,"310":-0.15468030733466204,"311":-0.228426187752562,"312":-0.07598852084258981,"313":-0.15233712933454113,"314":-0.10931334504839975,"315":-0.11188805265311892,"316":-0.2224881298524376,"317":-0.08007863289870677,"318":-0.027631054237857455,"319":-0.013047784517144853,"320":0.15881435752032008,"321":0.27162009124694,"322":0.3489414104909026,"323":0.1636192654621283,"324":-0.21222715302955594,"325":-0.464662622412062,"326":-0.20587308056530199,"327":-0.020097747048533385,"328":0.08174405397881761,"329":0.02596904138227502,"330":-0.011102436313645605,"331":0.02802668136676294,"332":-0.13773636304421974,"333":-0.12711909651786144,"334":-0.06594380064805433,"335":-0.018937829329132693,"336":0.027435758268189715,"337":0.01907187080774818,"338":-0.05267899244908116,"339":-0.08973357273398778,"340":-0.07335674405823335,"341":-0.28488673915401996,"342":-0.265995264642334,"343":-0.15102277348472168,"344":-0.14048141635474237,"345":-0.20168471687479572,"346":0.005026580271643181,"347":-0.010327326389582812,"348":0.12793116836671423,"349":0.29355025147286756,"350":0.3539852884470735,"351":0.24724057432796723,"352":-0.30146841115322964,"353":-0.6068362601178963,"354":-0.3808569853565631,"355":-0.18905631849859353,"356":0.008210257697559252,"357":-0.005410625008249237,"358":-0.12850260024658924,"359":-0.0960015326529829,"360":-0.20515003580557606,"361":-0.0766958920300402,"362":0.0385397243321286,"363":0.024765806613972888,"364":-0.024029856229953957,"365":0.031512908967005655,"366":-0.024133488801409968,"367":-0.04245976017389014,"368":-0.06918925635003856,"369":-0.1493110503613652,"370":-0.19088757853580351,"371":-0.20525737372113892,"372":-0.26753057075177017,"373":-0.13987283468037934,"374":-0.1180814819509063,"375":-0.09589857578831587,"376":0.14762430209227248,"377":0.2895361251399351,"378":0.49588540512028,"379":0.2695190983380623,"380":-0.4268056035113064,"381":-0.6098852934535687,"382":-0.35287882584612124,"383":-0.40206199336829246,"384":-0.10836334982934731,"385":-0.19188630989825067,"386":-0.23877026506909013,"387":-0.09136476972344715,"388":-0.32397075289922594,"389":-0.16523173560781518,"390":-0.0014933585509952505,"391":0.0144962608310025,"392":0.018909050097269942,"393":0.05439967492818679,"394":-0.012188028772751353,"395":-0.08193041362832712,"396":-0.12193090592365231,"397":-0.09542991692860614,"398":-0.04061095777656703,"399":-0.21920823517059415,"400":-0.21038807763116987,"401":-0.17525823457817502,"402":-0.20482009569068896,"403":-0.24497242473260425,"404":0.03931309493939772,"405":0.2753780426931469,"406":0.40533938527924857,"407":0.1629418405042689,"408":-0.43109480406665274,"409":-0.6670483472638894,"410":-0.36580390112093575,"411":-0.3842829111034428,"412":-0.21356201729639723,"413":-0.2782934338423433,"414":-0.3670709316558502,"415":-0.2742276145426418,"416":-0.26405194532621973,"417":-0.25049710607668174,"418":-0.028944142089012265,"419":-0.008715593107819051,"420":-0.05731945273573711,"421":-0.01678024714984799,"422":-0.03273642237446788,"423":-0.02667863868278424,"424":-0.05863570163027489,"425":-0.15476076682046946,"426":0.00574913381194108,"427":-0.09825311472136838,"428":-0.18264193642753324,"429":-0.21353201121353027,"430":-0.3530895219485423,"431":-0.4303197839987457,"432":-0.008874754890639767,"433":0.13521883472543922,"434":0.23411208432812441,"435":-0.17321341998616183,"436":-0.5345393697874881,"437":-0.5030536291442289,"438":-0.3831703007444433,"439":-0.024905708565918155,"440":-0.12180594095755758,"441":-0.26296260723966847,"442":-0.23177908067556702,"443":-0.21342030498992073,"444":-0.2001894219725029,"445":-0.24872049713183983,"446":0.03898895570520301,"447":-0.0033992271878147276,"448":-0.039386099781176714,"449":0.011298398525900631,"450":0.028182247236500514,"451":0.07850170810143053,"452":-0.03414488151886078,"453":-0.1020404239726977,"454":-0.2251074531572143,"455":-0.25292961098519384,"456":-0.250010449653723,"457":-0.3882789001793717,"458":-0.4890724809931547,"459":-0.38894821398304585,"460":-0.11405588748551565,"461":0.01982078882686307,"462":-0.07715775816624715,"463":-0.28429290349720415,"464":-0.6231147409108596,"465":-0.34238694723750224,"466":0.059609549756495205,"467":-0.001756579661614203,"468":-0.08173854927775863,"469":-0.21091615152267076,"470":-0.20096408323290263,"471":-0.13882786646450093,"472":-0.24889487206090702,"473":-0.06904045477679889,"474":0.0895023395277134,"475":0.010175844241169175,"476":-0.006583493280257979,"477":0.04644240734039979,"478":0.012128895980594082,"479":-0.0031371815256703607,"480":-0.018659553029986745,"481":-0.010256259215196633,"482":-0.21316305466736252,"483":-0.2553057493025419,"484":-0.28039388928535913,"485":-0.29306573394443247,"486":-0.3621257634728956,"487":-0.21943330386375956,"488":-0.08852784747603433,"489":-0.1645555647450702,"490":-0.3019879244677668,"491":-0.5426715460818955,"492":-0.3133946412649835,"493":-0.08588168591769806,"494":0.019907428243748367,"495":-0.19134568773593788,"496":-0.09623303177343356,"497":-0.046920436067934466,"498":-0.14236571816352792,"499":0.010347233735464747,"500":-0.14595484334933867,"501":-0.1309921408425734,"502":-0.008627992646858552,"503":-0.01487438808514774,"504":0.016858451147481694,"505":0.003906971415663916,"506":0.059619117602701006,"507":-0.017818305122174867,"508":0.0026492940219644684,"509":0.03517699409435329,"510":-0.1163480682885401,"511":-0.2503114185688641,"512":-0.09300378434116362,"513":-0.15328119999960885,"514":-0.020484780057040058,"515":-0.06021697665044405,"516":-0.18303023390318515,"517":-0.35476360824543535,"518":-0.6193759021947327,"519":-0.44132105315402725,"520":-0.19171054460427164,"521":-0.14883361527478514,"522":-0.2762947590707627,"523":-0.18648746746856154,"524":-0.17566242586089886,"525":-0.024595380058871453,"526":0.08953418848471316,"527":0.08965508514487629,"528":0.08847794358011905,"529":0.03310056848375511,"530":0.04713989796677191,"531":0.018070348773520293,"532":-0.004802123853932974,"533":-0.029564513871527306,"534":0.03019949016626702,"535":0.016892284211515125,"536":-0.06747195898384568,"537":-0.046671707699697446,"538":-0.05473498887763334,"539":-0.22180080620949658,"540":-0.02809757277907773,"541":0.12259305362988904,"542":0.046626324679422376,"543":-0.10187023400897009,"544":-0.15210122246048915,"545":-0.328685037653235,"546":-0.545459030458905,"547":-0.25034026249613417,"548":-0.03402874870960872,"549":-0.07711230801954393,"550":-0.14093538797242106,"551":-0.06287134781442723,"552":-0.05061211031487569,"553":-0.000549308546798656,"554":0.11130878373506375,"555":0.11316233600558996,"556":0.21044062777543077,"557":0.08289391232925972,"558":0.02630261755057959,"559":-0.04399197261531073,"560":-0.012047851459959378,"561":-0.01635837484768405,"562":0.021441859108050673,"563":-0.020737405760714245,"564":0.03136802115959428,"565":-0.07616855341712925,"566":-0.00035659111851342093,"567":0.0336806586274527,"568":0.16029598861816413,"569":0.40856684317627145,"570":0.24281842185710803,"571":-0.0955959242778032,"572":-0.09530813083099844,"573":-0.22613646597947817,"574":-0.15182763824332468,"575":-0.02933828271235596,"576":0.02530926185666658,"577":-0.003936825684461354,"578":0.14795842612915938,"579":0.19763581953086853,"580":0.04240589360091913,"581":0.21456492685077747,"582":0.16371036904972464,"583":0.09767951484604227,"584":0.05127361402730759,"585":0.15146826699841617,"586":-0.03903629835727643,"587":-0.01447088367447533,"588":-0.034404986953896745,"589":0.03500633309207096,"590":0.0927868568307312,"591":0.12948612084173972,"592":-0.07849849000292845,"593":0.06183668973058171,"594":0.15398799598250634,"595":0.22603637025842974,"596":0.4140659531982301,"597":0.4030196726748367,"598":0.37794138555437196,"599":0.20306726229047903,"600":0.058282600599630724,"601":-0.02908008097178542,"602":0.11297845235510798,