{"layers":[{"out_depth":1,"out_sx":28,"out_sy":28,"layer_type":"input"},{"out_depth":50,"out_sx":1,"out_sy":1,"layer_type":"fc","num_inputs":784,"l1_decay_mul":0,"l2_decay_mul":1,"filters":[{"sx":1,"sy":1,"depth":784,"w":{"0":-0.000513798779113393,"1":0.002035136336644042,"2":0.0006870576265204946,"3":0.002441511058176017,"4":-0.000515589438100855,"5":0.0017529104116688246,"6":-0.002808752487363237,"7":-0.002194627701269069,"8":-0.0008735536833880537,"9":-0.004621371549484199,"10":0.00019474814819249293,"11":0.0016451792663740856,"12":-0.003937889599356998,"13":-0.0026515815485041883,"14":-0.0016706695900843241,"15":0.000595095551814206,"16":-0.005258431916033797,"17":-0.0018282283418835634,"18":0.0012049035097977255,"19":0.003627019780187703,"20":0.0012916246207751512,"21":-0.0007385353602923027,"22":0.0022323527067052897,"23":-0.00214283373266345,"24":-0.003137377388095383,"25":0.00026029389380293204,"26":0.0005151533225231865,"27":-0.0013505142488153645,"28":-0.002730608021855981,"29":-0.0018995826901967638,"30":0.0013775363585907569,"31":-0.0032289324392943903,"32":0.0011203053788590544,"33":-0.003371939850752086,"34":0.01599269286183034,"35":0.12447854409389843,"36":0.10106698386560242,"37":0.17208887113425814,"38":0.018454676025799442,"39":0.03100060737601552,"40":-0.08760012969942066,"41":-0.09788836385352498,"42":-0.15117373543076176,"43":-0.08221227853237788,"44":0.037894147561701466,"45":0.012358974133417754,"46":-0.00376749375336893,"47":-0.021067013699875733,"48":-0.04715040149493435,"49":-0.007706597649857208,"50":0.006492648530032647,"51":-0.004840999637428517,"52":-0.00010334096189970999,"53":-0.0021175327179128434,"54":-0.000691062294797483,"55":-0.004861701178383934,"56":-0.0015432488209401582,"57":-0.000651265257377849,"58":-0.006300223922361267,"59":0.0016234156733586592,"60":0.002344231796543344,"61":-0.015297587176650106,"62":-0.04263510500647173,"63":0.05123022882501425,"64":0.0635625401338748,"65":0.2219257400103656,"66":0.05929482638764059,"67":-0.10268064706248622,"68":-0.05010026750526787,"69":-0.1173281204399112,"70":-0.12398946806145211,"71":-0.0132878581231754,"72":-0.10279820557389613,"73":-0.27148879505470336,"74":-0.3309297276280817,"75":-0.2917671865602949,"76":-0.035898816884778924,"77":0.03056980684014585,"78":0.10447887096808245,"79":0.03191844594166115,"80":0.018425379476768936,"81":-0.0016428304953140388,"82":0.00492218578179719,"83":0.0003587032554176975,"84":0.0039932229559612505,"85":0.002165434986617979,"86":0.00008169498542888016,"87":0.000742400676707356,"88":0.011588295433888904,"89":-0.187963535518235,"90":-0.13476341800194028,"91":0.2022508399504699,"92":0.029695669691616848,"93":-0.2154790128532714,"94":-0.38198086132147036,"95":-0.09515825218519791,"96":0.4757068029121798,"97":0.40254341256720577,"98":0.6846819304087658,"99":0.6621410328152796,"100":0.26635332463040434,"101":-0.08524372726245641,"102":-0.19679714934397244,"103":-0.13222807951283017,"104":0.03201695079094447,"105":0.05302159668781181,"106":0.06941079904660535,"107":0.04612349934852732,"108":0.010920866180665807,"109":0.0013353790417623523,"110":-0.0028003679193048915,"111":0.004161381937720994,"112":0.002110147977131564,"113":0.005503875675935588,"114":0.0004321176893793711,"115":0.004058042786507483,"116":0.060345149212699886,"117":-0.25409658910121186,"118":-0.04139546115344722,"119":0.3395925016257338,"120":0.13574261944955823,"121":-0.48364370887541913,"122":-0.4322392863650502,"123":0.08388356114520143,"124":0.1662624583313362,"125":0.09980870896349404,"126":0.12273806355273402,"127":-0.2545083751818236,"128":-0.19877742626468534,"129":-0.008190889887693294,"130":0.10600960175411182,"131":-0.15700861425241067,"132":-0.038364629693366896,"133":-0.13686685446595612,"134":-0.2609801782978782,"135":0.014608500296380035,"136":-0.07948893226931342,"137":-0.06248428801179364,"138":-0.07875820195635246,"139":-0.10605400034740728,"140":-0.0038274621865521,"141":0.00019735648570086512,"142":-0.0029300825640173832,"143":-0.20072215594095966,"144":0.05869799489894672,"145":-0.27652015356480647,"146":-0.09456799883729491,"147":-0.543069333877634,"148":-0.10050492339870605,"149":-0.16625844775412524,"150":0.08066596610987418,"151":0.35350416529232387,"152":0.07124187849454387,"153":0.23077265780490425,"154":-0.07368034753164392,"155":0.043846769301322364,"156":0.21311700487253674,"157":-0.17280580029617562,"158":-0.017413613225185087,"159":-0.040310123726836164,"160":-0.07144791608019521,"161":-0.0517800662799052,"162":0.2247659166099871,"163":-0.15148989631481774,"164":-0.1379506780273471,"165":-0.07629574469083082,"166":-0.15933714215348999,"167":-0.13529220941369588,"168":-0.0031704477742987877,"169":-0.00025956385805000787,"170":-0.06858511114028779,"171":-0.3099754724603314,"172":0.036588257064439036,"173":-0.2750322051872247,"174":0.10273970437374698,"175":0.16822333972931547,"176":0.13472701832555967,"177":0.011908942704019938,"178":-0.07092697771327797,"179":-0.1361590793388231,"180":-0.23230460404210423,"181":0.32063000697558175,"182":0.052383581169988924,"183":-0.09916137532798078,"184":-0.01126482607425193,"185":0.14132824538875324,"186":0.0823989184440999,"187":0.011559612125501318,"188":0.3849480022346384,"189":0.12859606903505755,"190":-0.05610473802422487,"191":0.005214398962233639,"192":-0.09197720968053864,"193":0.004879955652686875,"194":0.01635695322097128,"195":0.03422564793943455,"196":0.005815031916922294,"197":0.0003698842665439157,"198":-0.12694335051165942,"199":-0.23799658067422025,"200":0.15765536057936277,"201":-0.32648654990106885,"202":-0.11138697827613518,"203":0.013241529527065485,"204":0.00020960179324735036,"205":0.12501289278758473,"206":0.4228035109590022,"207":0.4983618630026121,"208":0.15702925781868718,"209":0.18064687848017386,"210":0.40758517469047195,"211":0.02994991725050728,"212":-0.3296812000871471,"213":-0.06578999009103458,"214":0.3132107253392442,"215":-0.25379939434014265,"216":0.020042231688701763,"217":0.19455627780047616,"218":-0.04150267118508432,"219":0.20415767620796715,"220":0.15887834607442056,"221":0.1916025781377825,"222":0.11434947410554204,"223":0.030144938721488608,"224":-0.00023580196265542993,"225":-0.037155939246798546,"226":0.08858112819065089,"227":-0.05917614893129232,"228":-0.029799463089995502,"229":-0.10448592393619838,"230":-0.4314954673028316,"231":-0.07417709593205117,"232":-0.21149734067123327,"233":-0.010433488644527802,"234":0.32787634543397054,"235":0.361632831114966,"236":0.13912854643234926,"237":-0.012747991666668668,"238":0.004283978385222965,"239":0.1557710284869344,"240":0.04930331212144646,"241":0.25034267149324113,"242":-0.06550747758427841,"243":-0.010824578111549195,"244":0.048515347487532154,"245":-0.10470151782261283,"246":-0.11595958386628208,"247":-0.13396634653174977,"248":-0.2860422632718859,"249":0.2699063242680527,"250":0.22901078287315554,"251":0.02288164783307946,"252":-0.00017013343828083712,"253":-0.05531361204839938,"254":-0.055542194993402065,"255":-0.2250199386041026,"256":-0.4333199144496144,"257":0.007939221584373032,"258":-0.16314057616996214,"259":-0.2744273273032327,"260":-0.14209383542479198,"261":0.3308078270267601,"262":0.5136081212073295,"263":0.2991197504393832,"264":-0.2812593565114953,"265":0.024443909107460155,"266":0.3730150785542162,"267":0.3399030342255369,"268":0.22517487163633987,"269":-0.21748365570387587,"270":-0.11522088591880932,"271":-0.04650166654981542,"272":-0.23475230748075918,"273":0.12608323247056524,"274":0.32246066634431564,"275":0.0117044957094956,"276":-0.3008280515958324,"277":0.2446855327696576,"278":0.11075908685684935,"279":0.03967891054058555,"280":-0.004763838005684881,"281":0.04754700792130249,"282":-0.20830881182637173,"283":-0.46713804793660707,"284":-0.49710327551628253,"285":-0.1247252693244566,"286":-0.2514626595912379,"287":-0.6780578300486865,"288":-0.256282414935033,"289":0.3285561771449179,"290":0.7520638114892475,"291":0.145227020908389,"292":0.14749274762343237,"293":-0.03925846148265881,"294":-0.05930158140488212,"295":-0.2331596241936303,"296":-0.07746914660058885,"297":-0.20838540941378733,"298":0.1537941553328073,"299":-0.15610939727069695,"300":0.0704902652919852,"301":0.06567807930529825,"302":0.048550820579018675,"303":-0.057264329985995115,"304":-0.20717761394673576,"305":0.07228087223847857,"306":0.04458006105275244,"307":0.002987414964607944,"308":-0.027748440792489722,"309":0.07999135033252944,"310":-0.27120878091423845,"311":-0.48391365083703614,"312":-0.5862606672689138,"313":-0.3490811869037751,"314":-0.2757259790137679,"315":-0.556102213314364,"316":0.09334825459220945,"317":0.10652449610030758,"318":0.02949598187684154,"319":-0.18084855294244592,"320":-0.06266498232623433,"321":0.293845026339097,"322":0.09221185307935865,"323":-0.019187473269517422,"324":-0.3067358387622994,"325":0.21187749429802163,"326":0.18619807801131197,"327":0.14996896892733055,"328":0.36346146482078845,"329":0.1072706870743538,"330":-0.09108311925842216,"331":-0.32830109319445466,"332":0.28756879828557447,"333":0.12251790688099316,"334":-0.023115405770026735,"335":0.013758812334594995,"336":-0.0007146390015526768,"337":-0.06176314863243239,"338":-0.09624345927035187,"339":0.037557504264994136,"340":-0.1331262319536222,"341":-0.1276364558774941,"342":-0.8092766819789864,"343":0.2423104905154334,"344":0.006014608916111241,"345":0.12284974068782681,"346":-0.31639557441756777,"347":-0.31812765718589114,"348":0.24106668313952168,"349":0.114029752855945,"350":-0.07920036664528758,"351":-0.2494803858951285,"352":-0.1738360350399726,"353":-0.20088363551782934,"354":-0.3407562118212866,"355":0.1385506850097034,"356":-0.2481965819551781,"357":-0.04204160129709815,"358":-0.03828861994207384,"359":-0.17098379305910552,"360":-0.23717661708453797,"361":0.023943318268081437,"362":0.017582722499187266,"363":0.04228820332898427,"364":-0.000021080587933569137,"365":-0.1374502846862442,"366":-0.08688129762959976,"367":0.0012555226262213456,"368":-0.2774431777245025,"369":-0.04659457981258029,"370":-0.24755031038551828,"371":0.004487605818621989,"372":0.0314872227446265,"373":0.2079268767364724,"374":0.07703338726823411,"375":0.30332450448613346,"376":-0.09043541986304998,"377":0.032661129026858984,"378":-0.06649065213111796,"379":0.2288321250777775,"380":-0.07204834875168342,"381":0.22947684801455678,"382":-0.10153154477326838,"383":-0.1622693231152978,"384":-0.44282234149762545,"385":-0.15094673767583405,"386":0.1378726852005455,"387":-0.2855607937740793,"388":-0.2376705676096955,"389":-0.033426301714520865,"390":-0.059730198916879675,"391":0.002428539044928592,"392":0.0005085588072995638,"393":-0.05760474883091952,"394":-0.06945317081247446,"395":-0.43502841068649306,"396":-0.13837064361140067,"397":-0.34741745340181407,"398":-0.16140243434356452,"399":-0.37455443309774217,"400":0.31574845293525655,"401":-0.5102611231779473,"402":0.20517347858193627,"403":0.18626434708189743,"404":-0.02762853414702467,"405":0.3391033669213109,"406":-0.1826054114651663,"407":0.3566584714713042,"408":0.24074251832926455,"409":0.3376900643658664,"410":0.19671658069834957,"411":-0.28456541084159787,"412":-0.18827040784198898,"413":0.4286429142182938,"414":-0.19698226526729293,"415":-0.4995193871355339,"416":0.03474183547991134,"417":-0.06355188844016517,"418":-0.04811177630966683,"419":0.0019656030312836218,"420":-0.0013957649011406702,"421":-0.0025584498271259085,"422":-0.09634665385048696,"423":-0.21126954616093582,"424":-0.16349960826287893,"425":0.0906600925047019,"426":-0.1344217741574797,"427":0.20830302029458272,"428":0.2656514780156172,"429":0.11105453393088972,"430":0.1396402164034749,"431":0.016396620324925597,"432":0.01973929892586848,"433":-0.12632429831143105,"434":0.03552509104494189,"435":0.18225653816537468,"436":0.28506158899397954,"437":0.22022997252631418,"438":0.4058987347048225,"439":0.41572517602716386,"440":-0.3866362269139518,"441":0.42420432047770257,"442":-0.31410310991969015,"443":-0.4895046649340526,"444":0.416732893470522,"445":-0.1151111401331532,"446":-0.06390097540188262,"447":-0.00440783220995903,"448":-0.0010253355530858929,"449":0.004310523085553561,"450":-0.03615570595498392,"451":-0.11858169979189294,"452":0.025245495824042407,"453":-0.35695863993257176,"454":-0.1535008428285569,"455":0.08097282877196789,"456":0.33884139863025103,"457":-0.21691671443480817,"458":-0.03944794088427886,"459":0.062017982339944745,"460":0.018458062239254162,"461":-0.1830458372801651,"462":0.1998182144087998,"463":0.06766637536322002,"464":0.4329751214087306,"465":0.24751757643349406,"466":0.17172738875484972,"467":0.16020062264667415,"468":0.12170389023883034,"469":-0.025108729570013498,"470":-0.4459809314470402,"471":-0.3896728664610183,"472":-0.08666079221749716,"473":0.1963741451457655,"474":0.018485060814827852,"475":-0.00840670653905384,"476":0.002720111518687992,"477":0.0035537807774724613,"478":-0.0026512007241511117,"479":-0.030897954739298655,"480":0.08220232341834194,"481":-0.25663223959574094,"482":0.5622763145789258,"483":-0.20053006704067033,"484":-0.3847524369785223,"485":0.03824003733573531,"486":0.22578210007334504,"487":0.1547899561310841,"488":-0.38791660457571886,"489":-0.14450165625658862,"490":0.061392832033716406,"491":-0.0532527975636989,"492":0.21542774604723886,"493":0.08027095409146148,"494":0.20228711742552083,"495":-0.0971518058674328,"496":0.3186551326632644,"497":0.07223771928988486,"498":-0.3722977862404413,"499":-0.4024760379600886,"500":-0.9615344769487189,"501":-0.07227752012485847,"502":0.056671496515521516,"503":-0.0014082764971064278,"504":0.002053877265611238,"505":-0.001930830616514584,"506":-0.06304216912185263,"507":-0.19857624455335005,"508":0.13459976970132617,"509":0.33449511312717506,"510":0.4212245562277012,"511":0.3017265632045118,"512":-0.0672322623921832,"513":0.12060890598353699,"514":0.06442813779528421,"515":-0.07018678661984537,"516":0.45827826692136936,"517":0.3754512151217056,"518":0.19668677240277063,"519":-0.0379914349178211,"520":0.0716457294120489,"521":-0.006886918478765764,"522":-0.07691547088470502,"523":0.058261657751496096,"524":0.4005055789365293,"525":-0.13608410629926734,"526":-0.3427966240927261,"527":-0.15859460606322565,"528":-0.3743494521964307,"529":0.04828004389514027,"530":-0.03694404830879628,"531":0.004172237317417726,"532":-0.002610490288786064,"533":-0.0019351852177708732,"534":-0.13742081952139565,"535":-0.19871147892019106,"536":0.1336634482872406,"537":0.07144047188972368,"538":-0.16243619184452432,"539":0.06730381891939327,"540":-0.23499715493681175,"541":0.0373003604203819,"542":0.005151617493999015,"543":0.20633259876718066,"544":0.06621286164725859,"545":0.22145101709884135,"546":0.11654055663962042,"547":0.05452738905552203,"548":-0.0884905558639139,"549":0.12475408366774875,"550":0.18075916108356566,"551":0.5272904624770848,"552":-0.22503417887022728,"553":-0.47774930001464216,"554":0.14523597032535202,"555":0.058058704123459905,"556":-0.40041376035870596,"557":0.10921534029402426,"558":0.06986247171253256,"559":-0.0009979873679686452,"560":-0.0005180538998877471,"561":0.005072056715978698,"562":-0.12133320500123683,"563":-0.2075443983034202,"564":-0.0476113768944971,"565":-0.16254228963952572,"566":-0.14311083540222663,"567":-0.09527850630472755,"568":-0.07150904818295344,"569":0.1040738779199605,"570":-0.2116941157191289,"571":0.14145194714672465,"572":0.06195781083031765,"573":-0.021918818457096888,"574":0.3134817017734507,"575":0.21236764365922484,"576":0.35827851256294074,"577":0.6290010192225699,"578":0.5763143510100691,"579":0.4494304456500972,"580":-0.3750683558604437,"581":-0.4423290333535037,"582":-0.18261365445246028,"583":-0.2101354759042536,"584":-0.37359059170772607,"585":0.05226827211120439,"586":0.08875449414563104,"587":0.001376437139434507,"588":0.0012795815889396368,"589":0.002151542342777104,"590":-0.1299595316934995,"591":-0.22128360890257398,"592":-0.22787511671956004,"593":-0.1674392765578343,"594":-0.19106010533428539,"595":0.027222301071421515,"596":-0.26897292184495925,"597":-0.21142808369998603,"598":0.10803914266954769,"599":0.12603195347305504,"600":0.27013245345172243,"601":0.10687881481301487,"602":0.16906385200081508,"603":0.25803390147110483,"604":0.1621730926733962,"605":0.17081511909784738,"606":0.42329557908033255,"607":0.14917775515083603,"608":-0.45834190874543884,"609":-0.30807836821611445,"610":-0.28578805419658787,"611":-0.5506794608813014,"612":-0.15495725098319538,"613":0.06673341588156695,"614":0.09089726527763448,"615":-0.0020648620297354365,"616":0.0010005301427070204,"617":0.006608823815151081,"618":-0.07507400956697703,"619":-0.32057542624282065,"620":-0.19050863276145938,"621":0.021226842229118456,"622":-0.15782407104509455,"623":0.2771572387344572,"624":-0.016258265004506993,"625":0.03378272038842067,"626":-0.0021689828766366277,"627":0.22470443714196214,"628":-0.13885229837187504,"629":-0.23022032107337453,"630":0.055158005097222254,"631":0.20230818694081923,"632":0.5006952757547616,"633":-0.11120982414074843,"634":0.3125182323965497,"635":0.3509862440036567,"636":-0.31569519328565865,"637":-0.156851265832786,"638":-0.5116953844588042,"639":-0.06921891728776439,"640":-0.06746547608813808,"641":-0.020545371429265633,"642":0.0037828977739257927,"643":-0.0018837703102718248,"644":0.005766087182914987,"645":0.003687435598665093,"646":0.008480281190750803,"647":-0.1067875771437298,"648":0.03135717550733014,"649":-0.22731737332395954,"650":-0.05481259479492972,"651":0.04726491999764092,"652":-0.20737396571509426,"653":-0.07734014500129509,"654":0.08058289885321494,"655":0.13938560257765867,"656":0.19906625741336967,"657":0.5094961812284379,"658":0.24468511953651523,"659":0.16668698056887596,"660":0.10164266989923999,"661":0.11875858126496604,"662":-0.06405605815757391,"663":-0.10352034632015987,"664":-0.11841896038535178,"665":-0.1637081586024236,"666":-0.3705077494492111,"667":-0.1977200818882649,"668":-0.14113052421451702,"669":-0.0735422425481872,"670":-0.001104537602823464,"671":-0.003954900727128591,"672":0.0005038610545423961,"673":0.0021211665243754244,"674":-0.015581782018842829,"675":0.029884226914938333,"676":-0.13279237336536787,"677":-0.18561451297013562,"678":-0.3171504110426502,"679":-0.21710507830281436,"680":-0.0924459681168033,"681":-0.20220658580864323,"682":-0.09767006354202869,"683":-0.25748574138357055,"684":-0.03898377407698615,"685":-0.024712547525087745,"686":0.31260261543915846,"687":0.2569717948239501,"688":0.35615573530847067,"689":0.25496646794782607,"690":-0.2738250736416659,"691":-0.1174144196252343,"692":0.02364210078443701,"693":-0.2958045929679808,"694":-0.21757583543265294,"695":-0.26722304907632044,"696":-0.14973471862098675,"697":-0.0008433843797134692,"698":-0.003213368576931379,"699":0.0016368532845029275,"700":0.003104692377779564,"701":0.0014798759060186133,"702":-0.002313447969264505,"703":-0.0305450414129389,"704":-0.27083496414365327,"705":-0.22547010706357828,"706":-0.043676703719279675,"707":-0.37148787263475175,"708":-0.4066127929008787,"709":-0.17612160272761268,"710":0.11721427474160367,"711":0.07708558556674168,"712":0.0016668959557947203,"713":0.03602258281417833,"714":-0.007906380261705957,"715":0.3337268111991887,"716":0.025646545889528923,"717":-0.08889982483460424,"718":-0.19743878723894132,"719":-0.36318074186275673,"720":-0.4750293169346871,"721":-0.08081269699755883,"722":-0.2801428488930139,"723":-0.3364337922948146,"724":-0.1193914602312379,"725":0.0007989288415763883,"726":-0.00014905095865672813,"727":-0.002600074371943818,"728":0.0002297294056401858,"729":-0.00023239056333491522,"730":0.0010196278426617541,"731":0.0019758667010687015,"732":-0.0039027963828206142,"733":0.007224244651270671,"734":0.08608932926096709,"735":0.03424936294437238,"736":0.0024602895049769483,"737":-0.06280701865272129,"738":0.0033760907600465886,"739":0.11093296661748496,"740":0.08108779533038359,"741":-0.044490599712886596,"742":-0.07341050364228667,"743":-0.020002754334529287,"744":0.16261187221164639,"745":-0.07335329623596601,"746":-0.21532649517156102,"747":-0.2351502876215442,"748":-0.4145242155422106,"749":-0.18815835505757417,"750":-0.14221982340593242,"751":-0.1613423418684427,"752":-0.0006311132329414148,"753":-0.002496405482858041,"754":0.0006214343718724359,"755":0.001010040468702346,"756":0.0015177693665088935,"757":0.0003477485583421747,"758":0.0013083800754595614,"759":-0.000790625226894619,"760":-0.0017017914076415787,"761":-0.01835065788963715,"762":-0.019526243485854734,"763":-0.012075335190412912,"764":-0.023829111499514985,"765":-0.0309679430790861,"766":-0.036408976697635084,"767":-0.013995595604576114,"768":0.0016663803243309983,"769":0.03180579645168762,"770":0.023901216505338142,"771":0.10857996693773453,"772":0.09535071812407941,"773":0.01774738260533134,"774":-0.050152957842436674,"775":-0.030609021998846495,"776":-0.1258777641122506,"777":0.027854559303376974,"778":0.03246066987676578,"779":-0.004057084836573504,"780":0.0005223306199439516,"781":0.0014993451380633331,"782":-0.0033468710375829398,"783":-0.004509652885602265}},{"sx":1,"sy":1,"depth":784,"w":{"0":-0.000586328540555916,"1":-0.0010367731707210995,"2":0.0019763637255935875,"3":0.004662414608172121,"4":-0.000652078229217386,"5":0.00003218404199166306,"6":-0.004805566575237858,"7":-0.00033180941058692185,"8":-0.003871441333076442,"9":0.0013127772376782282,"10":-0.002653946535063716,"11":-0.002697145797262101,"12":-0.008504131791886938,"13":-0.015762844577114236,"14":-0.0006494479760925293,"15":0.001547762845724141,"16":0.0009715138537482118,"17":-0.003746447509232857,"18":-0.0005884963399897338,"19":0.0008549642542911727,"20":-0.0009451885319870127,"21":0.0025360500065855166,"22":0.0007539910349023635,"23":-0.000845955705353847,"24":0.0022071460573495735,"25":0.005474052348397657,"26":-0.0008557712556163821,"27":0.0021250143855436354,"28":-0.001988990726512444,"29":0.0022488473297124583,"30":0.000583877057795808,"31":-0.0012092405111259542,"32":0.0005491735735412827,"33":0.00002711261027716064,"34":0.002614666021414601,"35":-0.011589183294251567,"36":0.0636255592431095,"37":0.016573803045551807,"38":-0.20696565545947138,"39":-0.3054388128208913,"40":-0.05321532393504186,"41":0.03704788859685593,"42":0.06575652831989229,"43":-0.037462191687953734,"44":-0.009276990597325384,"45":0.049401912469307,"46":0.009627332889574453,"47":-0.008783286034617649,"48":0.012922857848697117,"49":0.017094990254845375,"50":0.06460495781774281,"51":0.056972931243974644,"52":-0.003273256911892024,"53":0.005047269485496103,"54":0.0003767830016056639,"55":0.0014204450488507186,"56":0.0006634342885205518,"57":0.005358937829467214,"58":-0.004957173844397401,"59":0.00025824651784622245,"60":-0.0024094896723176103,"61":0.0034442325664233247,"62":-0.03474449871849877,"63":0.04295204925110524,"64":0.34904520682257806,"65":-0.01388869034405599,"66":-0.21406723822954987,"67":-0.14657263412398489,"68":0.18210532750956981,"69":0.11808713481791185,"70":-0.1246314582385126,"71":-0.0950947333248093,"72":0.062368556067522604,"73":-0.00785189117907632,"74":-0.16339474020342767,"75":-0.08156705955344168,"76":0.002362495522120788,"77":-0.0406755372533151,"78":-0.0033900426353646305,"79":0.014798286701353835,"80":-0.018276142455892073,"81":-0.0017950899328099256,"82":0.0027529458027970525,"83":-0.003989123033755482,"84":0.0008221096125863085,"85":0.003057664187721827,"86":-0.006494385295255395,"87":0.004191372684180465,"88":-0.007036883010404662,"89":0.04170661017670529,"90":-0.07026120440695491,"91":0.1871491070256059,"92":0.4639133585793973,"93":0.2183954848771364,"94":0.04800674702371245,"95":0.17750710133497552,"96":0.27176150507547076,"97":0.40039029451786484,"98":0.014134752298085917,"99":-0.3165829056545476,"100":0.2366987542566682,"101":-0.015170621737875799,"102":-0.2094106228607666,"103":-0.0435382791604443,"104":-0.034009377821523336,"105":0.07056900932557439,"106":0.13115979569272768,"107":0.03304645882977506,"108":-0.0035296869208804927,"109":0.0010658936143121355,"110":-0.00530901856709337,"111":0.0031649930412673295,"112":-0.0011199915365970351,"113":-0.0012425296413652576,"114":0.0034713102077197407,"115":0.00243658576157805,"116":0.08757161798334478,"117":0.18790497598571812,"118":0.027184222924878647,"119":0.30562311345533333,"120":0.41350259735429307,"121":0.8325512900438217,"122":0.3146025546769021,"123":-0.03842673651332585,"124":-0.40565951840759823,"125":-0.5359398997343928,"126":-0.03136176996434511,"127":-0.4410657173172767,"128":-0.07436848477814978,"129":-0.5044967205126286,"130":-0.2414246432448675,"131":-0.3686183930664133,"132":-0.0611913321951355,"133":0.07991548970868421,"134":-0.04360014265830614,"135":-0.06682842306688498,"136":0.055662472566450426,"137":0.03877766047138005,"138":0.0008558204539610725,"139":0.00003617023208670553,"140":0.004213602813934343,"141":-0.0007394402488013265,"142":0.0020905387268953363,"143":-0.025925915041781773,"144":0.09200411851852909,"145":0.11661913853563947,"146":0.2857899858536162,"147":0.031769832968137075,"148":0.35148854189027245,"149":0.39610981093997705,"150":-0.5527948024293143,"151":-0.1827662451663523,"152":-0.44088127555688233,"153":-0.2935198606904193,"154":0.03803618078215556,"155":-0.19746108588339112,"156":-0.0021410239625383872,"157":0.269563888918185,"158":0.42607817234821843,"159":-0.07974193218473039,"160":-0.0647321377543221,"161":-0.37514093564159373,"162":-0.27939767374266306,"163":-0.12428551342743671,"164":-0.10034864293845408,"165":-0.01757664244485916,"166":-0.00889198213890882,"167":0.001102324583963925,"168":-0.00012594093151477507,"169":0.0014227411258032159,"170":0.013767090504219866,"171":-0.0990336652592749,"172":0.09614839710598486,"173":-0.08753340974058428,"174":-0.021360613992864635,"175":-0.11712446868428553,"176":0.10689645125274251,"177":-0.18777768489210744,"178":-0.10332324010502895,"179":-0.06197755003539258,"180":-0.3012275221057277,"181":0.2059833281151574,"182":-0.22169566440760163,"183":-0.17620607804717275,"184":-0.05824178293715317,"185":0.03374517055171023,"186":-0.5991184371686055,"187":0.12017958676580284,"188":-0.17649890729583573,"189":-0.04796178583439681,"190":0.3635368240607407,"191":0.07983276683355393,"192":0.11927595449318967,"193":-0.0020516052193304294,"194":-0.006160356822548111,"195":-0.055276064890850234,"196":0.004599111693315861,"197":0.056490993593694666,"198":0.11180624478704937,"199":0.14599352993146994,"200":0.07942686482476653,"201":-0.1808289341772897,"202":0.31039295389681515,"203":-0.19837136552125928,"204":-0.04669592515770662,"205":-0.055274884773694556,"206":-0.16659275835764542,"207":-0.04140017734088234,"208":0.10308036627955382,"209":-0.02335525862789155,"210":-0.18504943357910333,"211":0.2431710419709911,"212":0.017638261368872775,"213":-0.2395776037942145,"214":0.04963374812958843,"215":0.17157337412871262,"216":-0.0023077904493669235,"217":0.2218583836023792,"218":-0.5272034110808457,"219":0.08024716477922561,"220":0.2866502564912776,"221":0.27768892214897234,"222":-0.06438529786836289,"223":-0.055081438264364936,"224":0.0194048390364175,"225":0.07015031605486977,"226":0.24969669611668482,"227":0.1471593453852279,"228":0.05940466054346426,"229":-0.18810577333183767,"230":0.24985431963674218,"231":-0.0791459365873338,"232":0.17361690037459485,"233":-0.07802155911833436,"234":0.022080543085931107,"235":-0.21539465558636725,"236":0.052195409333660715,"237":-0.11456427117838512,"238":-0.07511062902645266,"239":0.09961370367405864,"240":-0.09628074153228455,"241":0.16538572498321738,"242":0.11749551861433542,"243":-0.2585163840124675,"244":0.0828251674429062,"245":0.09846509568038998,"246":-0.24302840435868983,"247":-0.005609665430761565,"248":-0.11196866736391078,"249":0.060138553030373514,"250":-0.023776137140246005,"251":-0.00030472712207832274,"252":0.0032628639864952288,"253":0.013043745630140643,"254":0.28701420296776264,"255":-0.11941620227622356,"256":-0.2013229806708489,"257":0.19950778630469904,"258":0.21341753150639997,"259":0.2734760023243869,"260":-0.0018172191965854408,"261":0.17030465169204073,"262":0.029221662851338245,"263":0.03909824918438103,"264":0.3599384696478667,"265":-0.11368613070116976,"266":0.09722985794574115,"267":0.2178077695670477,"268":0.05066990705048785,"269":-0.1281303141722869,"270":0.18323669829510084,"271":-0.14201295511790965,"272":0.07612876248241048,"273":-0.17043582180485128,"274":-0.09588555139891793,"275":0.15498966370367095,"276":0.2054298294661567,"277":0.09579592504357573,"278":-0.061995589974610514,"279":-0.02458213537498136,"280":-0.003052267008520512,"281":0.1285500102148027,"282":0.17189583116937837,"283":-0.0662692372521806,"284":0.06898006594073754,"285":-0.17832551849940678,"286":0.0825371422645553,"287":0.5600740654265745,"288":0.12440101393227132,"289":0.18893690601127258,"290":0.10233169786101608,"291":-0.08482961815890057,"292":0.09265144416108309,"293":0.1035503920579691,"294":0.2515946157577407,"295":0.22534742205470723,"296":-0.18490321794811032,"297":0.059237207332086574,"298":-0.1891302361589413,"299":-0.51643508508834,"300":0.0815030095928113,"301":0.1609821428534007,"302":0.06403150449569653,"303":-0.3048890778168546,"304":0.08668385595152606,"305":-0.09289265999388233,"306":-0.10590602735626096,"307":0.0016872989848650832,"308":0.002739363146794732,"309":0.10705550516278917,"310":0.21367303844309074,"311":0.16523851429823677,"312":-0.11889940698868956,"313":0.1159544946599641,"314":-0.06646179044942803,"315":-0.30314446124735117,"316":0.2696155747433212,"317":0.2835593363362231,"318":-0.5228925788603846,"319":-0.0644398065513174,"320":-0.11945798864550335,"321":-0.10498624058342354,"322":0.07172030631899991,"323":0.06328877511058442,"324":0.27514204096294115,"325":0.41785145268797586,"326":0.1213420596713689,"327":0.09666029271652396,"328":-0.1902492227230611,"329":-0.2889245044546677,"330":-0.09310715973427755,"331":-0.5318137241449976,"332":0.0019524851796958562,"333":0.017342817584743455,"334":-0.0032943813120238463,"335":-0.0034181163571362838,"336":0.004482499743310562,"337":0.0358895866818295,"338":0.1399220685349527,"339":0.1964432564532522,"340":-0.1284596144009315,"341":-0.006582102367090285,"342":-0.06768545659104848,"343":0.13704857430749853,"344":0.20178197810799753,"345":-0.5177575904644683,"346":0.08556380947228404,"347":-0.029976003192575467,"348":-0.38671262604465084,"349":-0.12110188665160891,"350":-0.14182459552331522,"351":-0.06635728171981255,"352":-0.2602723176666939,"353":-0.0363637114089514,"354":0.2896304820354209,"355":-0.4019437733306154,"356":-0.023991950234766038,"357":0.2283618314220195,"358":0.5125509869534061,"359":-0.09553142761083531,"360":0.07585672229007319,"361":0.04765387766017456,"362":0.004085746255378598,"363":-0.014555234661002706,"364":0.0012242770593186012,"365":0.03131949081891145,"366":0.025365063277450074,"367":0.1764077794007226,"368":0.4976761483094405,"369":0.22579917226541266,"370":0.23280774602981164,"371":0.16797286364197972,"372":0.23366716027577558,"373":0.5223917955624041,"374":0.12095171116182271,"375":-0.038682627909015666,"376":-0.4450021976338466,"377":-0.03483959884555555,"378":0.18218954339890756,"379":-0.025507848200795092,"380":0.1466173242886714,"381":0.0990667839373177,"382":-0.11583783306813854,"383":0.23393699200095247,"384":0.058043492718661924,"385":0.22681868438798783,"386":0.09735582219525159,"387":-0.16091807415276033,"388":0.06603660080134714,"389":-0.03527551904707835,"390":-0.050646900353205127,"391":-0.007735009674824777,"392":0.0003648572530807772,"393":0.02027885926689793,"394":0.09823431570579488,"395":0.34490586628054215,"396":0.3544339094694311,"397":-0.016083560218588682,"398":-0.24865098524946752,"399":0.22801995959812493,"400":-0.032658127422558754,"401":-0.03668419554812391,"402":0.08119382162790947,"403":-0.06197397951089827,"404":-0.3756641148197272,"405":-0.10824694802821444,"406":-0.13778450773060155,"407":0.23619896285756464,"408":-0.015274886277790353,"409":-0.22875328675317802,"410":0.01701629086279616,"411":-0.06972603750092249,"412":0.07887366996374215,"413":0.11067006930418408,"414":-0.21650330706240387,"415":0.017133077099473967,"416":-0.2446029155224733,"417":-0.061339198213651955,"418":0.015393847725590354,"419":-0.0008568595249250588,"420":-0.0006825319175145398,"421":0.006274273477193658,"422":0.08463976238460952,"423":0.17851222984548262,"424":-0.12183387184689873,"425":0.05517511109556821,"426":0.2542796593668801,"427":-0.1714715933857459,"428":-0.11604396395797097,"429":0.18253043824512621,"430":-0.3959454526805727,"431":-0.025046005764295068,"432":0.20373566129448972,"433":-0.2879200639628334,"434":-0.22195412442089565,"435":0.06295061639021061,"436":-0.15445903572564407,"437":0.25039875428650676,"438":0.3978267577004893,"439":-0.0957474089123361,"440":-0.02823266527462002,"441":-0.015477434138837336,"442":0.020809503812502843,"443":-0.27301662913253477,"444":-0.30126934610089234,"445":-0.17926077008499666,"446":-0.04024101019149629,"447":-0.024266044131545778,"448":0.008694694043441933,"449":0.0012089502399215476,"450":-0.0110658453544923,"451":0.16299445183571865,"452":-0.24130834325851502,"453":-0.20629908965692453,"454":0.10815759315021746,"455":0.05271061337934056,"456":0.21704066022014573,"457":0.10891259905698339,"458":0.07729048548506026,"459":0.22575280298790212,"460":-0.05432894480019927,"461":-0.07995453110507802,"462":-0.10612751429231292,"463":-0.08132327310319552,"464":0.2250829608723769,"465":0.033271502629867375,"466":0.006188960331957352,"467":0.14203178824611798,"468":0.020767684872928335,"469":-0.07369812197266926,"470":-0.20894003139417835,"471":-0.38235043308967054,"472":-0.14762664200813502,"473":-0.2548738454971648,"474":-0.16208827952087274,"475":0.017011810290823853,"476":0.0001696975342422451,"477":-0.013324099307068802,"478":-0.07610835090567637,"479":-0.04086915450688994,"480":-0.13074911197448594,"481":-0.04896210402676547,"482":0.13566720478495703,"483":0.14482843757948136,"484":0.005642874995125825,"485":0.19457660485238246,"486":0.008231320422370753,"487":-0.28643437325927196,"488":-0.17390918277796652,"489":0.03967695128806631,"490":0.17273287500247203,"491":-0.23122626571575866,"492":0.018695434673888324,"493":-0.40174849078099983,"494":-0.16726445085816385,"495":0.27799427260418763,"496":0.37630638694824897,"497":0.018709914482541903,"498":0.2694816741963711,"499":-0.7209344084156282,"500":-0.5489273665199154,"501":0.05254634359697407,"502":-0.09637365609158871,"503":0.08286857335686669,"504":0.00011845169858491174,"505":-0.010084540724846176,"506":-0.11764791234812005,"507":-0.21149955621819488,"508":0.1907515875643948,"509":-0.2305394295390746,"510":0.03958663681512969,"511":-0.11155426077464928,"512":-0.1154425567390494,"513":0.2319408814440128,"514":0.02814386419449283,"515":-0.20328992333107154,"516":0.26319113467270977,"517":0.06752129797620686,"518":-0.4134501893736446,"519":-0.11253050671233956,"520":-0.10323627652265195,"521":0.3117110650066334,"522":0.23389719869707096,"523":0.18638125617694604,"524":0.15557687668585593,"525":-0.35265136049853607,"526":0.1122637414269151,"527":-0.5071935228079514,"528":-0.446758124736156,"529":0.11875331285132601,"530":-0.010678556295530075,"531":-0.010024310648732914,"532":-0.0019206620714605084,"533":-0.011116651260473395,"534":-0.03699656780565679,"535":-0.2057006982103498,"536":0.5228809764519196,"537":0.38236736611295025,"538":-0.024692745538953065,"539":-0.11403265307540553,"540":-0.12621197379635293,"541":0.1557269424089532,"542":0.37118719938365374,"543":-0.5018309810348429,"544":-0.25914398114335174,"545":-0.17764374407933492,"546":0.2902505175652736,"547":-0.569884411084314,"548":-0.44551719413658797,"549":0.6883611479631319,"550":0.10448354954551228,"551":0.12850877185197435,"552":0.1535069029654618,"553":-0.5665004268398772,"554":0.18067643261215416,"555":-0.13190085435352494,"556":-0.246766409415292,"557":0.10531107204590769,"558":-0.05342420656771108,"559":-0.0028240400122080994,"560":-0.0050604185265954735,"561":-0.014570264433604922,"562":-0.022991040027525278,"563":-0.1146995567958782,"564":-0.3893687298666597,"565":0.28864951955856194,"566":-0.01441602535471295,"567":-0.6065746459246677,"568":-0.21997512759640933,"569":-0.4142965059879111,"570":-0.1473894934181685,"571":0.14906725057714232,"572":-0.251220456021779,"573":-0.3785619697708126,"574":-0.16393767890891164,"575":-0.3301519857018851,"576":0.2017525678824974,"577":0.3026926567095366,"578":-0.01826498353010537,"579":0.1168245723204849,"580":-0.030154267692062923,"581":-0.08372747405027,"582":0.0848950357412042,"583":0.11445352687720432,"584":0.21908134192726156,"585":0.12231489541054531,"586":0.006953419396078662,"587":-0.0007736400901341964,"588":0.0021581482716279466,"589":-0.005529979079508834,"590":-0.026752697820458214,"591":-0.10227958904981892,"592":-0.4907322248758379,"593":0.1551954850184655,"594":0.024256588410642727,"595":-0.14684726841981788,"596":-0.05005409066638817,"597":-0.00526934529823465,"598":0.01687634868864752,"599":-0.3756022049851201,"600":0.023891280368022138,"601":0.05490269159226655,"602":-0.6338056973632643,"603":-0.5051996906435404,"604":-0.41787641527421754,"605":0.16020948563176998,"606":0.3972718692061753,"607":0.20683439550135113,"608":-0.5804068127145525,"609":-0.04072182234093179,"610":0.1488247472605654,"611":-0.07447481357294074,"612":0.13956478394012325,"613":0.19036917165137898,"614":0.08392275411783516,"615":-0.00017773195289527713,"616":0.0004741141804283163,"617":-0.0064961860523523015,"618":-0.027702729437275215,"619":-0.11175953976973005,"620":-0.04848791191775446,"621":0.19119503825795728,"622":0.13083055524035167,"623":-0.1968784906308818,"624":-0.24165874351656993,"625":-0.1353226023203919,"626":0.07790849395153936,"627":-0.6197703033980962,"628":-0.6568978486165461,"629":-0.4926426310012273,"630":0.008192003682821733,"631":-0.5061111858438433,"632":-0.03731831545084445,"633":0.4131617352813857,"634":0.31599766077647296,"635":0.22627338565471591,"636":-0.019598617592580612,"637":0.12838907902135263,"638":0.414694441677402,"639":0.43564060215857997,"640":-0.026621366307382207,"641":0.007659383191873637,"642":0.0009611938995171903,"643":0.0009656305506977987,"644":-0.003992944888022102,"645":-0.004123083237768538,"646":-0.012469598502730337,"647":-0.09229899833579297,"648":0.05555545472668793,"649":0.009979722103952943,"650":0.10684341289546755,"651":-0.19368812832091206,"652":-0.294772948229444,"653":0.014378482281065757,"654":-0.03463232296870714,"655":-0.22436846881918202,"656":-0.42930377989159213,"657":-0.49904412249845775,"658":-0.3656116179016775,"659":-0.17639329590128644,"660":-0.24564958707785392,"661":0.1492639919808222,"662":0.10882781510206717,"663":-0.1425671993962789,"664":0.04710442030226748,"665":0.1539632138382093,"666":0.3521316460040507,"667":0.39549907605155243,"668":0.22179297627209157,"669":0.08325786759351439,"670":0.000041285470525740036,"671":0.004258412603568871,"672":0.004864185966337719,"673":-0.0000735523444803005,"674":0.005856058298650335,"675":-0.056233857276834706,"676":0.07617531310886859,"677":0.047877056308599765,"678":0.14648910184681113,"679":0.15267380732355307,"680":-0.29368965639888023,"681":-0.2682508329373177,"682":-0.10234767506129144,"683":0.13117750950159687,"684":-0.46775948994985117,"685":-0.26851114785109514,"686":-0.09690792868680567,"687":-0.5339230758990346,"688":-0.24647317023824197,"689":-0.007408752911660439,"690":-0.04238747492593872,"691":0.6344933006154639,"692":0.7510033669305204,"693":0.05140760581559732,"694":0.33089782798730055,"695":0.36675058957707424,"696":0.3684496460400549,"697":0.1727715376495411,"698":0.031385792246571446,"699":0.0022895894052101153,"700":-0.004102017476774821,"701":-0.000932258541042871,"702":-0.012721807822029377,"703":-0.07405952065695658,"704":-0.050145061115216785,"705":-0.18364622255945706,"706":-0.051413397662835765,"707":0.2301286786400479,"708":0.6125999073153579,"709":-0.08562706218885986,"710":-0.06664335154141857,"711":0.46523603403578623,"712":0.579061818241028,"713":0.06944567110596331,"714":-0.14077673802669669,"715":-0.03420264718627843,"716":0.11134978999660469,"717":0.09521721734407096,"718":-0.05621804340219674,"719":0.008946100328513487,"720":0.08531129254503124,"721":0.05728643497579644,"722":0.2908265250462508,"723":0.1953463424207992,"724":0.12023175197901254,"725":0.027556073610161554,"726":0.027450293291895758,"727":-0.0002484497167109988,"728":-0.0014406958769725723,"729":6.55711426836705e-7,"730":0.0002435405815838421,"731":-0.0020777635360394947,"732":-0.04295114614075498,"733":-0.15245772162793966,"734":-0.0020389466607981673,"735":0.17622629763741013,"736":0.10269330594361542,"737":0.029223504475183158,"738":0.276960104454722,"739":0.10055851716812958,"740":0.27283005854554965,"741":-0.30645879207304394,"742":-0.21402890389944038,"743":0.08247399868729381,"744":-0.25910661122457274,"745":-0.0007537660490400293,"746":-0.1974774946517364,"747":0.020891323203872356,"748":0.1576271680082803,"749":0.19108084521571592,"750":0.10353635573395348,"751":0.010332263274113596,"752":-0.00043564254188330936,"753":0.007903834618043788,"754":-0.0009134188314294903,"755":-0.006310733570930043,"756":0.001286747465903502,"757":-0.0019921129569241284,"758":-0.0017494638322887157,"759":0.0019469918305436245,"760":-0.012375194118277776,"761":-0.014642165614630318,"762":0.01452299142580557,"763":0.029055686627469414,"764":-0.05373455125198097,"765":-0.10155746026150621,"766":-0.2200505763039944,"767":-0.03792669914609939,"768":0.01823343016604826,"769":-0.09509087604274977,"770":-0.04969714609343628,"771":0.02477530134167769,"772":-0.01621111480205204,"773":0.07870022973824284,"774":-0.08214576228377748,"775":-0.0027985583998968357,"776":0.004399504266100004,"777":0.04435257386281413,"778":0.0683561876369638,"779":0.01488044746111589,"780":0.0032418897380365836,"781":-0.001378151219264037,"782":0.0006259874026291257,"783":-0.0025351711947933717}},{"sx":1,"sy":1,"depth":784,"w":{"0":-0.00033907192267947604,"1":-0.0011944793426744908,"2":-0.001646962721949063,"3":-0.00022393715975174016,"4":-0.000196869622479088,"5":-0.0015994542456387447,"6":0.006282944727916116,"7":0.002857953940711605,"8":0.004137057649747732,"9":-0.003795583504268086,"10":0.00020379336656113547,"11":-0.005220503414974312,"12":-0.0007074151685822342,"13":0.0037770881299849313,"14":0.0069771329684429045,"15":0.002417546986901446,"16":-0.002653219189499714,"17":0.002679279150840628,"18":-0.0030876643319638314,"19":-0.0032001428598993024,"20":0.0021245307984344903,"21":-0.001734693548396501,"22":0.0023408476001846967,"23":0.0036689084950349607,"24":0.003994299359527727,"25":-0.0021156230232355568,"26":0.0005416470874271475,"27":0.0010293897082724929,"28":0.0020819412723499663,"29":-0.006020223484043626,"30":0.004774415166597971,"31":-0.00005623026778769693,"32":0.0019482990672208356,"33":-0.006335092766918538,"34":0.00473897033312707,"35":-0.012992060348880298,"36":-0.028411256789829538,"37":-0.07149933912356989,"38":-0.06914500398981963,"39":-0.02206807664886895,"40":-0.011626961180823205,"41":-0.06507474162551839,"42":0.001043758075252802,"43":0.0715478368293511,"44":0.10191315601477932,"45":0.013701613928487547,"46":-0.018829320606967608,"47":0.010825512855120937,"48":-0.0077460171910373465,"49":-0.002914687352312555,"50":0.0023017475665430523,"51":0.008252270259679513,"52":0.0031764199587388797,"53":0.0026618227310791364,"54":-0.0007379395525243321,"55":-0.0005547975950253498,"56":0.001679097231402761,"57":-0.002507419424875902,"58":0.0004944880443489472,"59":-0.0009614625568232321,"60":0.001806982483587107,"61":-0.007115986978250261,"62":0.004931052807383743,"63":0.02646465915518702,"64":-0.021776900204565894,"65":-0.11489729384839982,"66":0.020418992759652515,"67":0.32596339046915185,"68":0.2877893207703605,"69":0.23839368488354395,"70":0.33377865453733924,"71":0.3163410099921012,"72":0.3593814848940531,"73":0.34928905165247975,"74":0.3331545156007819,"75":0.06968914900108482,"76":-0.06359512477291886,"77":-0.07882890223786848,"78":-0.0855420101601823,"79":-0.034285951016308366,"80":0.020215962600632586,"81":0.02737819190320655,"82":-0.0008227781095537244,"83":0.0004766390869398109,"84":0.0006937929170755687,"85":-0.0026909333874067143,"86":0.003949291692926663,"87":-0.00762896894618547,"88":0.006844461639853646,"89":0.07589331937153629,"90":0.11413560333690888,"91":0.18845150698156674,"92":0.1778264698666818,"93":0.23138793740311311,"94":0.4601825416648276,"95":0.4652992597058674,"96":0.36084863411040247,"97":0.14967991695094537,"98":0.19523253703100218,"99":-0.0046900631061839535,"100":-0.05055955009109428,"101":-0.38076047550159015,"102":-0.23465146157617756,"103":-0.14880713560169553,"104":-0.25134749455603494,"105":-0.15526297119580337,"106":0.032295108301908675,"107":-0.009181023496162028,"108":0.0045232032957984785,"109":-0.02992732712770259,"110":-0.007095065931947617,"111":0.0014914492719007657,"112":0.001628418418818779,"113":0.00002024598326153792,"114":0.00942063376367307,"115":0.004698332538807677,"116":0.05387042140892554,"117":0.06775776500547331,"118":0.21917477540729324,"119":0.386514522611687,"120":0.29709034604085827,"121":0.3568992207681862,"122":0.2828484042263358,"123":0.41840898431021517,"124":0.2626590540723367,"125":0.10700432218069073,"126":0.4543842343335746,"127":0.3735704857063684,"128":0.453924802136428,"129":0.35563952464023557,"130":-0.062379195145823574,"131":0.1103617063670016,"132":0.04554744352506126,"133":0.10088606905930303,"134":0.08759822132975491,"135":-0.17061358287447762,"136":-0.30661727156987506,"137":-0.01705308858742522,"138":0.06512789765513467,"139":0.0714032708301584,"140":-0.0030267790577428754,"141":0.0014928863982610573,"142":0.0042638204244721525,"143":-0.016589065228183382,"144":-0.0002666721161560435,"145":0.049240998583453495,"146":0.14614954745696762,"147":0.31425252655844443,"148":0.1301146005644583,"149":-0.002833611437775588,"150":0.3644214505670688,"151":0.12388667097163403,"152":-0.06982500772977174,"153":0.37395412101576253,"154":0.2970389396079831,"155":0.6057132116844396,"156":0.857619896148818,"157":0.24902313921332261,"158":0.5326229913502628,"159":0.30378078324922,"160":-0.3863213613444115,"161":-0.054041121050691636,"162":0.21011739081096165,"163":-0.00007558675067256601,"164":0.07641441840769564,"165":-0.04315157670886278,"166":0.08977486008179979,"167":0.01953504569311663,"168":-0.0020585788023953057,"169":-0.0048379896999778925,"170":-0.05298678293715512,"171":-0.06190967114267,"172":-0.028956997429012737,"173":-0.019345328056739216,"174":0.16981570196049303,"175":0.11764625613547353,"176":0.3517751948034636,"177":0.49170336425540384,"178":0.7371861530990049,"179":0.26851693924883546,"180":0.19443835324144915,"181":0.4073466121118122,"182":0.5370300898293178,"183":0.4390876098842855,"184":0.2863437872542156,"185":-0.04347903644883805,"186":0.11913646031884309,"187":0.4766960649706023,"188":0.30178751443017926,"189":-0.024903215384659148,"190":-0.12762825342282122,"191":-0.24543022143063883,"192":-0.1904745096865245,"193":-0.11930503842970407,"194":-0.014748981423630216,"195":-0.04550558128718364,"196":-0.0032926983252629283,"197":0.04908757724198165,"198":-0.03756772061720666,"199":-0.14643250799335525,"200":0.07710563525587535,"201":0.32629803879487257,"202":0.20474198321813133,"203":0.03352159355076772,"204":0.03298435123055884,"205":0.47808281933967073,"206":0.37871770410515915,"207":0.35863793615388073,"208":0.3021238418281843,"209":0.42169236059081466,"210":0.4209935393761381,"211":0.1321336897069578,"212":0.5703659136330781,"213":0.5148303866789987,"214":0.31114102128027016,"215":0.17161998692605018,"216":0.27281834603594324,"217":-0.14953403744099458,"218":0.4888061523913911,"219":-0.09531342019753979,"220":0.2722913822292913,"221":0.12841716023722327,"222":0.2768931563376477,"223":-0.0014839881586360879,"224":0.0018277038404082696,"225":0.029891093774111175,"226":-0.0263533949358371,"227":-0.07803303624844027,"228":0.2587855571483113,"229":0.3947000448819874,"230":0.312595963770976,"231":0.07995831673198629,"232":-0.046004121049352385,"233":0.6483679638869234,"234":0.020795716566816395,"235":0.21883579105314957,"236":0.24073985417413105,"237":0.4551159400261686,"238":0.36010922609183055,"239":0.1133640611297651,"240":0.11775136068712529,"241":-0.20421710936288504,"242":-0.13623182164327155,"243":0.012455279729110933,"244":-0.031361720917833354,"245":0.21016621980264788,"246":0.5177354236324616,"247":-0.08336788544814246,"248":-0.15944435907307766,"249":-0.17073429529376408,"250":0.11574449564081006,"251":-0.06136171286262581,"252":-0.0015142122524843323,"253":0.0155435887633175,"254":-0.09936112433681857,"255":-0.2301562184428645,"256":-0.1538554270828863,"257":0.01788843399957656,"258":0.26409899787033186,"259":0.1207662918872066,"260":0.016090556259837074,"261":0.05819057754868287,"262":-0.0017773397653102817,"263":0.3059065088648052,"264":0.07256381579854983,"265":-0.09469575010024497,"266":0.3595871857455459,"267":0.07939310962158475,"268":-0.05633516257980674,"269":-0.06284884104650534,"270":0.10504917265822994,"271":0.044383444900261394,"272":-0.04460799440923491,"273":0.08131085038806052,"274":0.2784136140687173,"275":-0.6324997959999176,"276":-0.11620044955299287,"277":-0.41050709717998435,"278":-0.0336224086598645,"279":-0.0496660758971443,"280":0.0015046720716090384,"281":-0.045915392661415366,"282":-0.10619501508359216,"283":-0.1442647402901856,"284":-0.12561149973116673,"285":0.11927394321267729,"286":-0.5964819868278011,"287":-0.35217750755985616,"288":-0.10065995939355796,"289":-0.5029238891782252,"290":-0.6383914650348619,"291":-0.43707065285849495,"292":-0.3155907093057291,"293":-0.27165798927208296,"294":-0.4418639960831172,"295":-0.45489815498447866,"296":0.1717331652457832,"297":-0.06658121774528393,"298":-0.24133355950795227,"299":-0.18748284760913503,"300":-0.17107331388167282,"301":-0.1680038627190752,"302":0.13260372803770432,"303":-0.440496309717144,"304":-0.37175837152175534,"305":-0.03681907227884822,"306":0.07790469435532098,"307":-0.05465743422592153,"308":0.002720371299624952,"309":-0.03192903165107125,"310":-0.056832212558300066,"311":-0.11773749285052991,"312":0.05124339882949947,"313":0.2787688595511198,"314":-0.2863344648929317,"315":-0.7280277828803203,"316":-0.308701920110709,"317":-0.08142099137857116,"318":-0.6494665938755418,"319":-0.3143388560553287,"320":-0.23999854657332093,"321":-0.36805584818097953,"322":-0.33196327631220623,"323":0.21953835843390992,"324":0.41499954474073286,"325":-0.2484169727295008,"326":-0.188471901639192,"327":0.36628339357264045,"328":0.16048386088222877,"329":-0.01802493485885446,"330":-0.1638393288974644,"331":-0.711495198847071,"332":0.2376948001348642,"333":0.02462257201080826,"334":0.014154261734463545,"335":-0.004219721822978025,"336":0.0016960418477306894,"337":0.007404175323539996,"338":-0.05148548327944368,"339":-0.010305132707263657,"340":-0.13370825201393186,"341":-0.12093210339850805,"342":-0.46498834024292285,"343":-0.7224522009449155,"344":-0.02379551194433222,"345":-0.5938100501883229,"346":-0.1382491189183255,"347":-0.08199357537745795,"348":-0.15846082527194444,"349":-0.8618415706574447,"350":0.4334849175372699,"351":0.47315983995893107,"352":-0.03870277171671877,"353":-0.2911266282491895,"354":0.11166458561571818,"355":0.5567852224051398,"356":0.19690654227934798,"357":0.10016238522255778,"358":-0.44696914227044116,"359":-0.5473155595221143,"360":0.3320706774475533,"361":0.21170113089288295,"362":-0.008050126231526743,"363":0.002156943942298056,"364":-0.0010666260572862094,"365":-0.0026009864619853575,"366":-0.02614553939094199,"367":0.01901055964016444,"368":-0.6571670572673733,"369":-1.0511584422055311,"370":-0.6802004498706966,"371":-0.7690091130304378,"372":-0.3310118208559447,"373":-0.6615236557283545,"374":-0.2776903864248315,"375":-0.13479107011056488,"376":-0.2914285412158389,"377":0.07581314131824915,"378":0.05162419638646275,"379":0.1112862837001029,"380":0.018146343343900518,"381":-0.25430457082349595,"382":-0.19384076325992172,"383":0.006085176631125024,"384":0.1295467436024039,"385":0.10066082376710574,"386":0.03728110601790744,"387":-0.3494140335660567,"388":0.2505026842453653,"389":0.1735872110260084,"390":-0.07900337988409363,"391":-0.04265446063243814,"392":-0.004250807465899211,"393":0.003439858798163938,"394":0.024729261413223264,"395":0.12362662253025583,"396":-0.6845317103564653,"397":-0.8931450412717091,"398":-0.8063445658501426,"399":-0.7044513728218903,"400":-0.3148875374849244,"401":-0.338371618104851,"402":-0.14154881409136477,"403":-0.2510214014380957,"404":-0.07460760575356112,"405":0.32390275236249705,"406":0.1197634960935494,"407":-0.014454017344202626,"408":-0.14499817608593388,"409":-0.1848840853617348,"410":-0.11616578077680746,"411":0.030290616686674855,"412":-0.2488273225228314,"413":0.41228754217150626,"414":0.019587993493957005,"415":-0.742490840823607,"416":-0.248653823316121,"417":-0.15188729137474952,"418":-0.17950544468614515,"419":-0.035829145053593275,"420":-0.0027490416464383757,"421":0.0015437803225752777,"422":0.05345921493479571,"423":0.026978891621327127,"424":-0.5363076423885579,"425":-0.2836457103305631,"426":-0.29906873598772055,"427":0.12925046887644054,"428":0.052924407439314876,"429":-0.40697972819693073,"430":-0.060487566917463265,"431":-0.21483397342875332,"432":-0.3044216885165957,"433":0.2313552099601489,"434":0.27709570849337833,"435":0.2531740275551375,"436":-0.025177161722306,"437":-0.2767517968309372,"438":-0.05271941563559413,"439":-0.08411993566714526,"440":-0.24332625777354247,"441":0.22297595879671347,"442":0.251954316115616,"443":-0.5941647833208394,"444":-0.46197452549647516,"445":-0.2353996296748508,"446":-0.21827268671730682,"447":0.024288707250634756,"448":-0.0028201232415678576,"449":0.05064711907107949,"450":0.0387757280783154,"451":0.2781171040004943,"452":0.059979127807121876,"453":-0.0429856247643477,"454":0.1880156732963066,"455":0.13275019417894818,"456":-0.2933355243231091,"457":-0.46870418068740477,"458":-0.24238283102020866,"459":-0.20398783204039206,"460":-0.3398955781646301,"461":0.30844817648708417,"462":0.04415058346396351,"463":0.26954573856134045,"464":-0.38298690487932563,"465":-0.37527620285701635,"466":0.05415417991090932,"467":-0.6736158226943739,"468":-0.22489960260256797,"469":0.15244848550197354,"470":-0.12131898556935743,"471":-0.7138844284496174,"472":-0.21354555560457256,"473":0.032009689019115085,"474":-0.15869189788665178,"475":0.015653239025511717,"476":0.004875252392506104,"477":0.009189991295700292,"478":0.03906075387646397,"479":0.49106597484556475,"480":0.276673893205406,"481":-0.1396421412942932,"482":-0.06498322276269414,"483":0.06393479278251972,"484":0.1363778903659295,"485":-0.30581787216134276,"486":-0.4950082339631189,"487":-0.22904230643258153,"488":-0.024980895110199627,"489":0.15053220788702293,"490":0.1364422699944303,"491":-0.02202517211361109,"492":-0.42825292016093697,"493":-0.4430963901496867,"494":0.06951593110427828,"495":0.05259387040734079,"496":-0.3587481737257345,"497":-0.1332601400450065,"498":-0.07436340405106595,"499":-0.45351879178376625,"500":-0.12498005947782402,"501":0.00799383226948051,"502":-0.17423299546216425,"503":-0.016361963715880765,"504":0.0002528719154126066,"505":0.0037799219021520643,"506":0.04847234428683078,"507":0.2939826400855271,"508":0.1241509242782739,"509":-0.14231527584820988,"510":-0.34297567993052236,"511":-0.039861991844883,"512":0.3884567574624812,"513":-0.16191920774935245,"514":-0.17593743565969347,"515":-0.11838111328892821,"516":-0.26893022146514467,"517":-0.13975206605553292,"518":-0.15205039641777057,"519":-0.2573556269416932,"520":0.04596605522930764,"521":-0.27715770580884774,"522":0.050683911335111034,"523":0.3424654470281872,"524":-0.08544693068862086,"525":-0.12781015380404084,"526":-0.07282776056189347,"527":0.1212404081136104,"528":0.28291989999129225,"529":0.1046980040580244,"530":0.0716026769825447,"531":0.048648056930774855,"532":-0.00403172496235636,"533":0.0025285019064669005,"534":0.0217296147827749,"535":0.2699197499408142,"536":0.1754579711919846,"537":0.043378548923362535,"538":-0.31309218564802954,"539":0.22099613040607996,"540":0.39841478743916275,"541":0.14777145578079617,"542":-0.06886175534370305,"543":0.30830992203038154,"544":0.18686614013923158,"545":-0.006292496318145466,"546":-0.00010255009671398461,"547":0.2009035472538867,"548":0.11942941038065803,"549":-0.08673294554995731,"550":0.017026159923623982,"551":0.061417415187556924,"552":-0.11652809431613706,"553":0.3222263709300773,"554":0.5732934098608006,"555":1.0311321815867847,"556":0.03862959891315022,"557":0.08756922434378549,"558":-0.042293161452986526,"559":0.012040179638749367,"560":-0.00010250401046259831,"561":-0.002783851185419329,"562":-0.0025211578227026096,"563":0.08419504755520442,"564":0.42397848969481333,"565":-0.22184369112091185,"566":-0.028200235851059338,"567":0.24900241613499388,"568":0.29842502665895015,"569":0.26740471539962585,"570":0.17966656267441528,"571":-0.20639541392399816,"572":-0.15481296026393124,"573":-0.2672868103257977,"574":-0.29920132306969904,"575":-0.2345495939983586,"576":-0.13799721660065442,"577":-0.028570853846963052,"578":-0.2561759232166836,"579":-0.42351763685081145,"580":0.22550916869382992,"581":0.19448658695439583,"582":0.21056490207383802,"583":0.07836507926673585,"584":-0.406222965243236,"585":-0.051907566246197516,"586":-0.05084599146012784,"587":-0.004653813474674052,"588":-0.004858112858068018,"589":0.00013222526230987893,"590":-0.0045279800402941335,"591":0.122382172462199,"592":-0.09475844386310689,"593":-0.07474744120634205,"594":0.31253087879885116,"595":0.3821950844127062,"596":0.3137338627883215,"597":0.1983992649873462,"598":0.3457083195700175,"599":-0.14163304719199152,"600":-0.25385438396642374,"601":-0.10427310856794468,"602":-0.5808403400541229,"603":-0.33579608584040144,"604":0.06388636509243781,"605":0.023609423319774652,"606":-0.31035734792268854,"607":-0.011995632164930702,"608":0.49724951706082404,"609":0.137455205823175,"610":0.12736032096231287,"611":-0.13549668009582236,"612":-0.44487264013482947,"613":-0.05138231572992756,"614":-0.009065225916086867,"615":-0.0008363043361229013,"616":-0.002190178224823536,"617":0.003908346383580196,"618":-0.03478655632447975,"619":0.15222176947221258,"620":0.10389204881969848,"621":-0.036191338935508084,"622":-0.07432659788170301,"623":0.1832674635769247,"624":0.4322121941669323,"625":-0.034800649503663565,"626":0.42589999435130044,"627":0.49793341931352625,"628":0.7831227043050537,"629":0.2518198349711702,"630":0.17127353451166855,"631":0.34491693090107356,"632":0.25693359782919367,"633":0.0377236786664776,"634":0.5915807880408971,"635":0.6034659835958924,"636":0.7662352256627863,"637":0.3234916881459275,"638":-0.11076470501112952,"639":-0.25507433746812463,"640":-0.22687444385771,"641":-0.00862005723805622,"642":-0.001202852836304382,"643":-0.003657390870011026,"644":0.002437412399884714,"645":-0.00005490075311716995,"646":-0.0060365202991098325,"647":0.09168378995244353,"648":0.003384331525177696,"649":0.1399574797073017,"650":0.15120028675744243,"651":-0.15154196815690374,"652":-0.10908867336109522,"653":0.2998844506371849,"654":0.29728808077449714,"655":0.003645071305557984,"656":1.2416671300027764,"657":0.9083451162902701,"658":0.8543254776292278,"659":0.9706704366717838,"660":0.979822371241355,"661":1.1213801301574526,"662":0.6837913651065015,"663":0.28987071633110206,"664":-0.0062195885432314545,"665":0.06117276131903468,"666":-0.3449543733245917,"667":-0.33678739574681366,"668":-0.08730370617599902,"669":0.009350961517449432,"670":0.0024150489153961655,"671":-0.0007439829344310159,"672":0.002899001104873108,"673":-0.00009287472083986079,"674":-0.003470346412228023,"675":0.026131271269986055,"676":-0.11586125914057789,"677":-0.14805776769328252,"678":-0.4513464867200286,"679":-0.34006498462374884,"680":0.3645407987544625,"681":0.5134229509681446,"682":-0.11085575969223817,"683":0.05533878464422224,"684":0.21781843544506627,"685":0.1527265037164447,"686":0.04603280763759365,"687":0.13456821544676897,"688":0.014602132495251413,"689":-0.06623403360765893,"690":-0.3031637281708187,"691":-0.6196766638871318,"692":-0.41400743404598406,"693":-0.23847615275587752,"694":-0.3162882138409558,"695":-0.19974241091767642,"696":-0.04260557336492563,"697":0.0357331732961157,"698":0.015017987009395653,"699":0.000552127332212639,"700":-0.00002781423575509517,"701":0.006829743635421049,"702":-0.004076677426015467,"703":0.028384720689124246,"704":0.01454434570895332,"705":-0.1092949442181741,"706":-0.4200891484290898,"707":-0.15805220970504857,"708":-0.026286326659472715,"709":0.3785578327986109,"710":0.013817673443142558,"711":-0.33713392190902114,"712":-1.1404441324498784,"713":-0.5260514679805771,"714":0.01644407529400591,"715":-0.4630282240932467,"716":-0.14396753366805576,"717":0.1563262297674087,"718":-0.19278224647156056,"719":-0.11454242647898556,"720":-0.2781408551836945,"721":-0.11518708090740892,"722":-0.16664884758503914,"723":-0.1256734700672036,"724":-0.038689898642982876,"725":0.004413356870715438,"726":0.013275656145503231,"727":-0.0002758083228630822,"728":0.000134493705807155,"729":-0.0040629809190462236,"730":0.003651814351730111,"731":0.009125335879994737,"732":0.15434739825597885,"733":0.07602569617140485,"734":-0.12759472634394217,"735":0.03053054280176992,"736":0.1170557198280447,"737":0.6612114581306803,"738":0.40527017457256986,"739":0.09386942510530978,"740":0.08724199464526877,"741":0.4579219147809212,"742":0.34953956856874596,"743":0.28115160038773546,"744":0.44200877671639216,"745":0.7428967679869721,"746":0.4383118895565642,"747":0.08622050409252967,"748":0.026678024207258053,"749":0.01872959358903211,"750":0.049995231301121795,"751":-0.0037316895976194395,"752":-0.0008998701430061695,"753":-0.0164369149358782,"754":-0.004088630650536632,"755":0.00135646289276351,"756":-0.001774946146815664,"757":-0.0006162374637498692,"758":0.00041504783748124786,"759":-0.003891203428435989,"760":0.005850728829269905,"761":0.0002996912843339952,"762":0.0012958860500808483,"763":0.028635062234528663,"764":0.02633994427283617,"765":0.012946355972580889,"766":0.011783813810613697,"767":0.01716373474562189,"768":-0.042300062947543945,"769":-0.0475259692170646,"770":0.13590224275517043,"771":0.07036780402963146,"772":0.0725788950629337,"773":0.028353762869412033,"774":0.02363537559719021,"775":-0.024653601424477197,"776":-0.02753276082246784,"777":0.0011375267809108738,"778":0.023011389200797646,"779":0.0035220385750447196,"780":0.0023647292720060335,"781":0.0018098362308970638,"782":-0.0024362385147084255,"783":0.00003148741679385801}},{"sx":1,"sy":1,"depth":784,"w":{"0":-0.00292930106442097,"1":0.0031955961661489416,"2":0.0005752172863032011,"3":0.00072964975382815,"4":-0.00026149669862257315,"5":-0.0015083323899831732,"6":-0.004806294483743583,"7":0.0006549282959008462,"8":-0.002637474269804437,"9":-0.0035587857018555525,"10":0.0011604199854408262,"11":-0.0033576670882241684,"12":-0.0011456328799949109,"13":0.001284021680201112,"14":-0.003021753635750764,"15":-0.0010825382622208781,"16":0.0013887647734943686,"17":0.0020481967939488493,"18":0.005324136632085124,"19":0.001196827157610077,"20":-0.0022215882822213284,"21":0.0008796313845846799,"22":0.0007932186117990653,"23":0.0006573345058869085,"24":-0.002735939102443605,"25":0.0012490303477545894,"26":0.00318184615031419,"27":-0.0019050899131179014,"28":0.004004125465958529,"29":-0.003970349727232041,"30":-0.0026988555698976803,"31":0.0011598925527509581,"32":-0.00328091858158506,"33":0.0006566223463312979,"34":0.00013183259453768424,"35":0.0020964568198929084,"36":0.0010985062786339913,"37":-0.0006200482792070053,"38":0.006564870966619259,"39":0.005770828364216681,"40":0.005468727082392888,"41":0.0046865111359415115,"42":0.06450652673322387,"43":0.10841555913456981,"44":0.1346616036368775,"45":0.01699204294898632,"46":0.018571217740888168,"47":0.009954699054515483,"48":-0.006439836928140334,"49":0.002028766177400246,"50":0.03005100480489543,"51":0.032779483589456884,"52":-0.0027195304139625404,"53":-0.0023411285483378955,"54":-0.0032669951240303394,"55":-0.0002389281155225949,"56":0.005410842251316344,"57":-0.0033214264016478497,"58":0.0008396395061460889,"59":0.0022710809157141603,"60":-0.00007196926635215454,"61":-0.002408977060963817,"62":0.005683128175664075,"63":0.01051712029209986,"64":0.030882788633744832,"65":0.10805693178738263,"66":0.26180450563865126,"67":0.22293682629647463,"68":0.3001259748567762,"69":0.47983116787443286,"70":0.46379347542320537,"71":0.40590423283742966,"72":0.6742233230547587,"73":0.5948953084598184,"74":0.5294899458347525,"75":0.2506796316322785,"76":0.1893100870253543,"77":0.174470624231062,"78":0.22578345561430888,"79":0.16507484718578794,"80":0.016062770043599787,"81":0.0034247992436303196,"82":-0.00277647838628168,"83":-0.005628234100048459,"84":0.0008197780953512753,"85":-0.004418956521156447,"86":-0.007940328437978036,"87":-0.001640753568493414,"88":-0.00008027172067114684,"89":0.0026173172677256976,"90":-0.001612709308395352,"91":-0.062012508725152495,"92":0.05693503929005663,"93":0.07468653754243608,"94":0.25631165320508414,"95":0.28847333612846243,"96":0.5503824828988378,"97":0.8776231406425125,"98":0.84420661173483,"99":0.7497712108659765,"100":0.8670951002484655,"101":0.8541289331698789,"102":0.5595349005047086,"103":-0.050046745477096054,"104":0.29569897517625077,"105":0.35681867412336715,"106":0.2874387036719108,"107":0.3767285553038705,"108":0.09041990263002712,"109":0.07279994456751315,"110":-0.02205838790220379,"111":-0.0019694291816853724,"112":0.002637193147764363,"113":-0.0006060506669323662,"114":-0.01023203985942512,"115":-0.013765419772423355,"116":-0.05646821430581741,"117":-0.023041410172451187,"118":0.029758330620926622,"119":0.03238158080825641,"120":0.01117567996591545,"121":-0.17171000560306432,"122":-0.07922821978729773,"123":0.5138654052332904,"124":0.46557807983770755,"125":0.28484027434263887,"126":0.49276272611885635,"127":0.25905380821386026,"128":0.39024494505697294,"129":0.06271488459499279,"130":-0.27063798969713077,"131":0.3248887821848435,"132":0.12702808598536197,"133":0.015307287313727238,"134":0.1983344722409569,"135":-0.23162193216611376,"136":-0.22777823588356555,"137":-0.11443478329853397,"138":-0.0007318814956718883,"139":-0.0021109115869107423,"140":-0.001298631937709638,"141":0.0009755228333576648,"142":-0.003715200864129529,"143":-0.012891638891358628,"144":0.00038440185374045754,"145":0.11191676990172789,"146":0.47919340116351516,"147":0.43769087094379994,"148":-0.0011343130926930092,"149":-0.13949449352397572,"150":0.2552868634644929,"151":0.5842101912719655,"152":-0.09979699848128513,"153":0.2511908197444001,"154":-0.04544971047352319,"155":-0.24316043513336114,"156":-0.08346956232874113,"157":0.25095682237832434,"158":0.5079722998903066,"159":0.0009995565306109766,"160":-0.08853302378161808,"161":-0.015543469141799706,"162":0.32340213210373925,"163":0.15128095890319793,"164":-0.2544672029216925,"165":-0.13912120862878283,"166":-0.05447087526395727,"167":-0.09500918561548875,"168":0.0031672922546385303,"169":0.0025092327751290206,"170":0.04344981541894545,"171":0.07576324684785947,"172":0.015435716407649366,"173":0.06270145514085762,"174":0.04098580521879564,"175":0.22997559968352024,"176":0.3161890624948994,"177":0.20372466125693914,"178":0.5044630623518581,"179":0.16448074636696441,"180":-0.28366558371697714,"181":-0.006732622412455835,"182":0.02638822524846631,"183":0.02221539177944859,"184":0.2086800518326849,"185":0.09436793039725269,"186":-0.23759807837085642,"187":0.00044817841451560666,"188":0.00660190514546554,"189":-0.26028959247801614,"190":-0.1205786682758362,"191":0.12527668403662212,"192":-0.2519376427160025,"193":-0.1562920130699455,"194":-0.15708414604322704,"195":-0.06876597821336992,"196":0.003936104588165802,"197":-0.020843354923601145,"198":0.0028655074512203443,"199":0.10577428342739488,"200":-0.3147463684678712,"201":-0.10061172485482255,"202":0.09401071389360222,"203":-0.30544393637038564,"204":-0.2196321391812092,"205":-0.012879961385095907,"206":-0.11497244600912036,"207":-0.11693619651001141,"208":-0.1099441325274058,"209":-0.1908758387130251,"210":0.08652280984595005,"211":0.030614244653447708,"212":0.20081550485132038,"213":0.11700574426195981,"214":-0.12614650607125277,"215":-0.33884987772639585,"216":-0.3602853020376341,"217":-0.44355298919567393,"218":-0.43813732603254335,"219":-0.21772601649372528,"220":-0.5741762177118097,"221":-0.1982637704397376,"222":-0.10250131632927012,"223":-0.03785185104464595,"224":-0.009033641631328299,"225":0.015508546055838698,"226":-0.2162717574951919,"227":-0.1220938710758375,"228":-0.4417851035754172,"229":0.08651735834543882,"230":-0.11356895617732952,"231":-0.031399633056466064,"232":-0.2847185951607468,"233":-0.08906969431696639,"234":-0.4498090297183238,"235":-0.16492494747707395,"236":-0.003453053805347379,"237":-0.4737398377298212,"238":0.017254188335206647,"239":0.1988945172079669,"240":-0.29171839146412804,"241":-0.09114204405131586,"242":-0.3031847548627797,"243":-0.5790999340867304,"244":0.10489573554954008,"245":-0.2926190656150245,"246":-0.3821655697362346,"247":-0.1614022820509089,"248":-0.3644257110365481,"249":-0.05420549777838508,"250":0.00463578174602174,"251":0.002560939203755908,"252":-0.026117097884056927,"253":-0.07253533867381491,"254":-0.129652825277233,"255":0.019066219491944564,"256":-0.2715576028715177,"257":0.046102414675497846,"258":-0.4692776596749231,"259":-0.001310044973289473,"260":-0.31051239227429045,"261":-0.12933521798870093,"262":-0.3797769676814608,"263":-0.16544646005324593,"264":-0.08431562108940074,"265":0.06201798365794467,"266":0.2514801691207513,"267":0.4804919004263686,"268":-0.024489145058643524,"269":-0.3414318824347991,"270":-0.17633758413721431,"271":-0.15093859384810487,"272":0.21575199894966796,"273":-0.2681653538570526,"274":-0.2810280996757067,"275":-0.1854313418725926,"276":-0.7701529082846532,"277":-0.3796479783636733,"278":0.1020716004048601,"279":-0.0072365767652631235,"280":-0.02502750416907173,"281":-0.05422586110400044,"282":-0.05460903150413219,"283":-0.06172363322517102,"284":-0.0866082089108042,"285":0.0940612498054595,"286":-0.5643673186432645,"287":0.06168088007005232,"288":-0.2422193797757273,"289":-0.7243894192638622,"290":-0.38519967142860406,"291":0.09061350892570473,"292":-0.22917398264154487,"293":-0.3371448464655409,"294":-0.2735027058747489,"295":0.3737761678980793,"296":0.38269041887190614,"297":-0.034613501222308496,"298":-0.3679819455166418,"299":0.1592496770640987,"300":0.09903960181942155,"301":-0.19870373303126343,"302":-0.33777529097709535,"303":-0.14587589170775697,"304":-0.18487763814835156,"305":0.29037664171140865,"306":0.1927946582355764,"307":-0.00014451863629630685,"308":0.0073979406820530984,"309":-0.025597971417932772,"310":-0.06039010437134558,"311":0.00899368215535901,"312":-0.004212783575715822,"313":0.17437454312377396,"314":-0.6411437219073127,"315":-0.017924794567478867,"316":-0.4116188643126006,"317":-0.434822462772296,"318":-0.6302102799973363,"319":-0.3657840925434237,"320":-0.3122380154591429,"321":-0.0851720989011073,"322":0.06285734498704836,"323":0.37310427100058935,"324":-0.17914014220952543,"325":-0.341319494261263,"326":-0.4286120311388807,"327":-0.16898101419145609,"328":-0.2832118722269743,"329":0.04093941247260416,"330":-0.3042408077568711,"331":-0.40185963032245675,"332":-0.34087239148201454,"333":0.23645824117602268,"334":0.03155022812108443,"335":0.004954818022751963,"336":0.002559614123498217,"337":-0.01279594433422836,"338":-0.041790676810988886,"339":-0.039580090246430735,"340":0.11472934830814666,"341":-0.0038669731723432084,"342":0.05023044689757349,"343":-0.22796459861658938,"344":-0.5475006760664773,"345":0.03411572567367901,"346":0.046042210436156736,"347":0.01934738086865335,"348":-0.09419467664183953,"349":0.055936441037252316,"350":0.5404108516010999,"351":0.3956918011085501,"352":-0.15702867206653273,"353":-0.12423822932708496,"354":-0.29443489636998316,"355":-0.5819953976618051,"356":-0.009054814856694387,"357":-0.11224448518785549,"358":0.0038528513906143716,"359":-0.1927370380978056,"360":0.050181986782092014,"361":0.22628677975432054,"362":0.04216716060585782,"363":-0.0013614958152448333,"364":-0.0006054283967633218,"365":-0.00843004440886747,"366":-0.06540249047634265,"367":-0.04847704734820533,"368":0.11695220163807564,"369":0.1424711780076678,"370":0.3653885860804281,"371":-0.13392859106573898,"372":-0.6154440858426418,"373":0.0003921919064934412,"374":0.46813593559452704,"375":0.5406841781857786,"376":-0.21898886888479918,"377":-0.44708229085087137,"378":0.18424569269638263,"379":0.4129170606563356,"380":0.18132694764542445,"381":-0.060908571462978026,"382":-0.2569413520699006,"383":0.2934566204126292,"384":0.39866021978419086,"385":0.1589552736687197,"386":0.6596128683151711,"387":0.23204772196687173,"388":0.053982899982456964,"389":0.2662999282921775,"390":0.1527985514399356,"391":0.0006514335759312435,"392":-0.002846160705181046,"393":-0.005304616383134234,"394":-0.029910758443646955,"395":0.0071572403399853156,"396":-0.04106269932400168,"397":0.5834951982868634,"398":0.35922655976533585,"399":-0.4684449394081316,"400":-0.1898629701386206,"401":0.2010767948781159,"402":0.02155466866580233,"403":0.38512333842644497,"404":-0.18784426755608652,"405":-0.5848829672359536,"406":-0.22718845438566712,"407":-0.30330695600601093,"408":-0.04897004882330119,"409":0.13321456341908516,"410":0.5510836675682595,"411":1.3401829852361271,"412":0.8659289871715349,"413":0.6122194499335704,"414":0.8824159877365003,"415":0.27156761875269175,"416":0.006343370206466843,"417":0.2304514384164173,"418":0.021924258314889738,"419":-0.002672874422218693,"420":-0.006184450982507892,"421":0.0011699657740737194,"422":-0.0032193584160992417,"423":-0.04981646704417547,"424":-0.00512864078288219,"425":0.4397804159380654,"426":0.4516822870109678,"427":0.38706047460383375,"428":0.4065466980675638,"429":0.4026353512309037,"430":0.3301976370236106,"431":-0.04792469686890671,"432":-0.5028465186827664,"433":-0.7429576730931824,"434":-0.4722154975270671,"435":-0.5362165065836138,"436":-0.345697378605165,"437":0.44430502993794946,"438":0.46570773466865567,"439":0.8419630884815217,"440":0.7829519537741291,"441":1.2083897851230234,"442":0.7545009709213341,"443":0.6645797342410569,"444":0.2445287883186479,"445":0.0727626690054185,"446":0.026296058720168297,"447":-0.001170206172949333,"448":-0.0023742668268438554,"449":0.0024854856927106726,"450":0.013877342461054761,"451":0.01860332240774303,"452":0.18213527431225499,"453":0.3986704130963355,"454":0.637885309484804,"455":0.061159151341335295,"456":0.4091543845495947,"457":-0.019959449378610977,"458":-0.34128418681243466,"459":-0.3485840502959334,"460":-1.028223973068653,"461":-1.214576689818516,"462":-0.8405843582369409,"463":-0.8360175011761419,"464":-0.2717601183926943,"465":0.3908723719366038,"466":0.6490780010116681,"467":0.4772436037438511,"468":1.016071695940207,"469":1.2796935674071146,"470":1.0471226930661865,"471":0.6791105722653715,"472":0.5490723073308124,"473":0.2670479630797599,"474":0.18017882620937717,"475":0.0069577458807641756,"476":0.002594356360989499,"477":0.0005513290577916024,"478":0.03512197562005882,"479":0.16541181309663613,"480":0.2697509602395164,"481":0.2929132334012377,"482":-0.029946959307608538,"483":-0.0015235568135734217,"484":0.44438719437130625,"485":0.297278590255524,"486":-0.049272119973349654,"487":-0.7930544601871499,"488":-1.2206575274278353,"489":-0.5369758587715782,"490":-0.5826583354435175,"491":-0.6875380326290688,"492":0.3955441277691248,"493":0.9607685033082919,"494":0.4314087480362124,"495":0.948769194860031,"496":0.7121852271253889,"497":0.6519915806666146,"498":0.9184938070136723,"499":0.5150679643441127,"500":0.8108600409335958,"501":0.6528176415911405,"502":0.1780835489473713,"503":0.010852115977641673,"504":-0.024407489912201423,"505":0.0017250702810337794,"506":0.031862156733111775,"507":-0.10379925195711613,"508":0.2505631573605656,"509":0.6231987829683326,"510":0.5023451271420218,"511":0.19824052401179384,"512":0.12443216315451495,"513":-0.17489202938242646,"514":-0.15808640440581176,"515":-0.5853598577895268,"516":-0.501815168028726,"517":-0.41911952619804044,"518":-0.20960352194833148,"519":-0.033849659831364225,"520":0.4836141810814774,"521":0.5135253169213405,"522":0.617536990811616,"523":0.9253805299470071,"524":0.554379067463025,"525":0.426969090746966,"526":0.8866830826252543,"527":0.34676079841058466,"528":1.059606370106282,"529":0.6184897935199553,"530":0.05623416522343928,"531":-0.02241870329358844,"532":-0.0003318233637221086,"533":0.0023017191848408967,"534":-0.011036274737958783,"535":0.0926606107241039,"536":0.7223568292870739,"537":0.9619869575319677,"538":0.44261198423941644,"539":-0.1171540974891493,"540":-0.08029621582342765,"541":-0.3055540216374129,"542":-0.2532483586612595,"543":-0.16889497864367362,"544":0.7206398892850047,"545":0.16841895111748906,"546":0.11072030625817274,"547":0.333928176138648,"548":0.5176211884715446,"549":0.4727127358454328,"550":0.30067656234081247,"551":0.5691461526287876,"552":0.480555401226975,"553":0.4126744084603102,"554":0.6146323008330329,"555":0.36654101792851285,"556":0.8539687498349016,"557":0.3747793248726094,"558":0.08235098641688432,"559":-0.02168697847817874,"560":-0.005407363042895049,"561":0.01563095398893905,"562":0.029880191548906407,"563":0.08841271204410033,"564":0.7295377020058905,"565":0.3052784169036956,"566":0.2681982952389855,"567":0.247306523217719,"568":-0.17400633010082867,"569":0.05640104232899142,"570":0.13326839079984032,"571":0.1074439850498998,"572":0.5332948959347248,"573":0.22353510291469889,"574":0.4272308233129284,"575":0.3163921980988573,"576":-0.13923660531039755,"577":-0.11656081989312239,"578":0.33782039160255833,"579":0.3589901509342717,"580":0.5003122487671707,"581":0.022721473033397842,"582":0.17281441918312057,"583":0.086133921383176,"584":0.8248415796893631,"585":0.32323095023366855,"586":0.06679577297961449,"587":-0.0008107439417471256,"588":0.00042082535226661296,"589":0.009894860602887369,"590":0.14919300424970636,"591":0.06752940611269713,"592":0.5158616241295901,"593":-0.29385350615199796,"594":0.543819702526612,"595":0.6633419488807925,"596":0.3790332078531966,"597":0.1645280317881444,"598":0.1407228199277138,"599":0.09623060927256727,"600":-0.005727887634837466,"601":0.05269337880090793,"602":0.0022940646745501173,"603":-0.0646610198344138,"604":-0.15218146311062986,"605":0.2496629081759104,"606":0.26329303296255496,"607":0.3823156646692272,"608":-0.15752872716576877,"609":-0.002978033477559914,"610":-0.3962863125002908,"611":0.10901804674344344,"612":0.3271703388683588,"613":0.18143058448620733,"614":0.03829277763568666,"615":0.0008487061477906352,"616":0.0011887658083135169,"617":0.0019878541131414696,"618":0.1056567261136584,"619":-0.08564214744350516,"620":-0.0006847236092680649,"621":-0.34247290579204664,"622":-0.1710585493178114,"623":0.20895992507818953,"624":0.45790437367432957,"625":0.11963439117517484,"626":0.2392475406273658,"627":0.22201799691785182,"628":0.17044505855024514,"629":0.03578970781809853,"630":0.13967641989132218,"631":-0.1974363447497076,"632":0.14325548447038092,"633":-0.05368059478875668,"634":-0.45963402004417314,"635":-0.2695771851092933,"636":-0.39672763236533715,"637":-0.26852818089609853,"638":-0.38895240243924084,"639":0.20357170755035361,"640":0.3564063710645809,"641":0.13027528422295637,"642":0.025287490218592452,"643":-0.0001803858068504355,"644":-0.0024193756266770484,"645":-0.0028021256397524705,"646":-0.006816269036054023,"647":-0.07088070962550906,"648":0.21012779206403073,"649":0.08129825502025607,"650":0.07696538046958992,"651":0.3958134022614654,"652":0.5449726445180609,"653":0.32362636953902096,"654":0.08850542345386814,"655":0.2650257420775113,"656":0.3608852046440942,"657":-0.013754314412896242,"658":-0.45691474695933576,"659":-0.7485158416672658,"660":-0.6729987984558775,"661":-0.9860200507337848,"662":-0.43293358111578,"663":0.3120764824955372,"664":-0.24742185100982042,"665":-0.11376095056622666,"666":0.25041276137551866,"667":0.12805129577734967,"668":0.10956174546847076,"669":0.0014450565042722588,"670":-0.0056687538629380686,"671":0.0022556031999691893,"672":-0.000056637888804032685,"673":0.0000018315223640542726,"674":0.016964555546299477,"675":0.0893603018925665,"676":0.2333493878047873,"677":0.1532956505547896,"678":0.046140126418881634,"679":-0.21724358790228657,"680":-0.15068176122780047,"681":-0.14529228521366666,"682":0.154572706490714,"683":0.04395393914128944,"684":-0.3966599582151574,"685":-0.13387708430994702,"686":-0.12367667042979255,"687":-0.14867314260609243,"688":-0.46457774266091884,"689":-0.5967921095765994,"690":-0.33677213714075555,"691":-0.2847949363624834,"692":-0.015660877189001984,"693":0.3194819654758049,"694":0.2925018838134402,"695":0.0028512257552709306,"696":0.015256393953021872,"697":0.028303373955648223,"698":-0.0021446342518778444,"699":-0.002115643650392473,"700":0.0024667599437358185,"701":-0.0020179747110635887,"702":0.003293497315473801,"703":-0.0005066101540209498,"704":0.0514875195569974,"705":0.0036105270993396486,"706":0.11928983139238401,"707":0.0770917251775579,"708":-0.025644786778882975,"709":0.13496980748927292,"710":0.12451271958241818,"711":-0.40593095035306964,"712":-0.084557970473786,"713":-0.41116998429439705,"714":-0.8264772489257938,"715":-0.6611034014827859,"716":-0.5320350933771251,"717":-0.5654006284102351,"718":-0.26865290354590776,"719":0.24427299816919773,"720":0.5229980581940692,"721":0.5311957598901096,"722":0.21691374251876425,"723":0.004523023107176264,"724":-0.022868346559252982,"725":-0.00202233063824584,"726":-0.003723003504523723,"727":0.0016778596108961408,"728":-0.0033809377455418146,"729":-0.0013461453301020295,"730":0.005791137897410215,"731":-0.003358092661174922,"732":-0.0030175299588905634,"733":-0.03959967515649414,"734":-0.049159867038487716,"735":-0.047265586610973465,"736":0.06554905115763057,"737":0.18673365435522776,"738":0.317482435673417,"739":0.35071127799434837,"740":0.6393208377647437,"741":0.4065118017904737,"742":-0.010247999137073364,"743":-0.3519876087758024,"744":-0.10131720928818128,"745":0.09592117580086666,"746":-0.07699534697784687,"747":0.09340121366923292,"748":0.1504980992254539,"749":0.24127132011605915,"750":0.10940415197135898,"751":-0.0014587986358276762,"752":-0.003505824812367165,"753":-0.0003900220783810715,"754":0.0012398432145439187,"755":-0.000542770929965372,"756":0.006253375457205934,"757":0.00014245887098715066,"758":-0.0013287923157300535,"759":-0.00042083262546439815,"760":-0.004820065945301284,"761":-0.007158068942095237,"762":0.009254106696326881,"763":0.0450764195926342,"764":0.027531795287667752,"765":-0.017725048595416123,"766":0.02350214092136927,"767":0.14287229562649856,"768":0.24385547840513044,"769":0.2004860397716187,"770":-0.04541688556261851,"771":-0.14647863932776603,"772":0.0008030372312723417,"773":0.08203177389454559,"774":0.04482252612764954,"775":0.07404336647374374,"776":0.026846246857497574,"777":0.0023397396895089963,"778":0.00923326942588619,"779":0.0002879794563258394,"780":-0.0023471312721842987,"781":-0.0037021956525983674,"782":0.0018800083326120979,"783":0.0010000573549773055}},{"sx":1,"sy":1,"depth":784,"w":{"0":0.0015795602680125562,"1":0.007922397428426866,"2":-0.006377797093062926,"3":0.0018571972018331742,"4":-0.0004993969149314307,"5":0.00102975235222811,"6":-0.000750147138020144,"7":-0.00006215951075966481,"8":0.004022553887337369,"9":0.0018236047529925938,"10":-0.0017702703838596374,"11":0.00358858792746624,"12":0.00453010577293206,"13":0.007272106272440828,"14":0.0008360642425750964,"15":-0.0005865172588990503,"16":0.0006439136738694989,"17":0.0034347406132085472,"18":0.003046495030340928,"19":0.0014741497440872635,"20":0.00659151053202063,"21":-0.0006919505575600916,"22":0.0007579649168444046,"23":-0.0015617233500376424,"24":-0.0015200561080366312,"25":0.00008530851665538975,"26":-0.0011173540394299778,"27":-0.0006071221974555075,"28":0.001863623083689466,"29":0.0017190379212687474,"30":-0.0010629899563270148,"31":0.000636875267772865,"32":-0.004001353382011652,"33":0.0009285834287745716,"34":0.008833409704764855,"35":-0.0029748279526432934,"36":-0.0551227064101646,"37":-0.05267339336338706,"38":-0.09743984478165407,"39":-0.12565356919622706,"40":-0.011532767811018795,"41":0.05419289128479875,"42":-0.1309617016197114,"43":-0.16641962243672165,"44":-0.18124901198091473,"45":-0.0527057587066533,"46":0.05521627834423702,"47":-0.005995712428609272,"48":-0.01854206821002729,"49":-0.006285712605107344,"50":0.006858765352549119,"51":0.009656817369879764,"52":0.000892812004068598,"53":-0.0001321702578618541,"54":0.0013066007614999278,"55":0.0012346065938617019,"56":-0.0007684416141105877,"57":0.0008675261565511199,"58":0.015424338318635954,"59":0.008663995615271546,"60":0.0014647825641780925,"61":-0.002097449782715042,"62":-0.06507922349062865,"63":0.059922534871117636,"64":-0.16271039737826523,"65":-0.28788933559371166,"66":-0.09163215320666664,"67":-0.11675194171044424,"68":-0.5105455583146998,"69":-0.23389541862884614,"70":-0.2173842886464053,"71":-0.0520894729148485,"72":-0.18322154103207128,"73":-0.06519414891567142,"74":-0.41250365962165364,"75":-0.15371682393508473,"76":0.2623125561297673,"77":0.17418826483835914,"78":0.08838063258599432,"79":0.04318606344715514,"80":-0.0236369366037607,"81":-0.02903566199096127,"82":0.0012869427281400688,"83":-0.0005548999008387802,"84":-0.0009209409705299873,"85":-0.0003922013759829836,"86":0.01664655622293085,"87":0.005348646959948699,"88":0.0036212432025555024,"89":-0.05318339410108961,"90":-0.2696422704254571,"91":-0.1873664318683014,"92":-0.2907662925345061,"93":0.19503952659351928,"94":0.11906840793832611,"95":-0.1656847557878539,"96":0.22924188080127741,"97":-0.4536475651460431,"98":-0.05321770557235885,"99":-0.15819283585835442,"100":0.2784050884664352,"101":0.518715853681664,"102":-0.114831077760354,"103":-0.0011626701254055342,"104":-0.013681472046693769,"105":-0.15673255480868134,"106":-0.18608115392309138,"107":-0.2799943543341611,"108":-0.06975626718874338,"109":0.010464395848445166,"110":0.007409125970249148,"111":0.0040919261751495295,"112":-0.001495607538389788,"113":-0.01833713457377707,"114":-0.012951207027571203,"115":-0.0692171294754955,"116":-0.15308028539911797,"117":-0.2527605030129516,"118":-0.243328865149914,"119":0.19594352738154255,"120":-0.22548601296207815,"121":-0.05442427132340408,"122":-0.14512389167877215,"123":-0.24157212272467993,"124":-0.43284174608895154,"125":-0.07556106133777238,"126":-0.24120473510212875,"127":-0.1688942375893318,"128":-0.1397883023088979,"129":-0.06296523305891091,"130":-0.16378718816176124,"131":0.08387118869734739,"132":-0.08714877773960773,"133":0.0864743524704353,"134":0.30501009489725633,"135":-0.08867845003752257,"136":-0.17032923160940422,"137":-0.04783521435196534,"138":-0.007367178865063633,"139":-0.039777852078424526,"140":0.0005909655577433692,"141":0.0014375603739762435,"142":-0.02564079491995175,"143":-0.06298631655590363,"144":-0.06623089618261427,"145":-0.1779156718775607,"146":-0.0643052875999383,"147":0.1889976779432118,"148":-0.06000028505273687,"149":0.014912902867982428,"150":-0.10466183839092691,"151":-0.054640011802929135,"152":-0.18457996527609838,"153":-0.5828257955319154,"154":0.033798891270982186,"155":-0.2294423075354204,"156":-0.00015031617351483678,"157":0.07233254215288094,"158":0.008056560827885112,"159":0.31240584944457456,"160":0.1819610141543788,"161":-0.021497579586232718,"162":-0.1664745261439003,"163":0.2541783080288039,"164":0.04545253974955094,"165":0.24694717000821148,"166":0.22424615811112245,"167":0.08186874015609333,"168":0.0038943831455574697,"169":0.0002450667795566833,"170":0.06807089776286866,"171":-0.10322331117075433,"172":0.07986268513561168,"173":0.024049542369697207,"174":0.047464312880063135,"175":0.36399337402589044,"176":-0.13933471215330254,"177":-0.07101490854765859,"178":-0.2443361632528904,"179":-0.06910972480523787,"180":-0.04918793300309945,"181":-0.17486554892379888,"182":-0.34838560311086375,"183":-0.04312025400958573,"184":-0.09211100230302506,"185":0.07616560498498523,"186":0.0533655662332631,"187":0.11869340003332109,"188":0.3247274171954436,"189":0.26131918153682676,"190":0.18821038414338412,"191":0.1172453696042382,"192":0.341639865659582,"193":0.360896510505463,"194":0.13260711069134293,"195":0.18604754307262827,"196":-0.001935502838256237,"197":0.03301467131894172,"198":0.05069926026889668,"199":-0.14448334313554662,"200":-0.12067544598550142,"201":0.17919733946856198,"202":0.03313718587695972,"203":0.26035533269818184,"204":-0.14615519590241177,"205":0.14617000115262369,"206":-0.12783563079084168,"207":-0.06480722107551033,"208":-0.19414669072346938,"209":-0.2536009179928889,"210":0.14502830548229867,"211":0.4059684527023481,"212":0.05817823466529692,"213":0.19719344920009166,"214":0.06765336203054345,"215":0.36810062246725445,"216":0.390820026798107,"217":-0.0014532111171589816,"218":-0.029366827672703023,"219":0.11668845591693479,"220":0.2673526923548675,"221":0.5239482700367545,"222":0.0764525616366855,"223":0.11747613190665873,"224":-0.0021229309432795546,"225":0.012405082867693021,"226":0.22886027129779546,"227":0.1572308501110632,"228":0.2544711549243848,"229":0.13702454675151032,"230":0.16538791118624643,"231":0.5555989215132442,"232":0.2084980202895476,"233":-0.25738335759656333,"234":0.39241733656203426,"235":-0.1542270344678595,"236":-0.046788052988744805,"237":-0.1406754395535616,"238":0.3567307398855858,"239":0.18700383169494245,"240":0.038239702894248655,"241":0.3968051689908401,"242":0.021629211065783166,"243":0.16646456841762974,"244":-0.19103759752083485,"245":0.2447161542494803,"246":0.16523321604840266,"247":0.18912069865460912,"248":0.31952537728564206,"249":0.07489030760693999,"250":-0.08057632942435518,"251":0.13733166862513307,"252":0.008910754792358793,"253":-0.009782657161453693,"254":0.16251999720401056,"255":0.2776022016329816,"256":0.2051069331496154,"257":0.3120555744329004,"258":-0.018151362535825246,"259":-0.19405529240171687,"260":-0.1418511039496306,"261":-0.026556972210704948,"262":-0.04848026830157413,"263":0.3189079474724514,"264":-0.02961447041547568,"265":-0.06381857245189886,"266":0.3455492927825767,"267":-0.2400653054723864,"268":0.12564906734194686,"269":-0.3857543497126685,"270":0.06347719785266702,"271":-0.23207916127940897,"272":0.1876138683256647,"273":0.18909484751721195,"274":0.5082121291684578,"275":0.44855703024376486,"276":0.5564379916645928,"277":0.15950009781003324,"278":0.19517939121137023,"279":0.08267029841910932,"280":0.014705690179568132,"281":0.0130287320136014,"282":0.19239663958666298,"283":0.3224207825675011,"284":0.12010887607187602,"285":-0.25614010932707404,"286":-0.05254810841124259,"287":0.19190187895804367,"288":-0.1987342440364927,"289":0.22452804984581032,"290":-0.1885603434144653,"291":0.06763384623742641,"292":-0.2482185233743036,"293":0.1418808833978381,"294":0.1384006871355948,"295":0.01421344069409578,"296":-0.04374198354413653,"297":-0.02520786091347185,"298":0.1947712116991452,"299":-0.08342734769438828,"300":-0.3375000876445124,"301":0.13015525129113303,"302":0.07282868362078078,"303":0.3687587919915614,"304":0.6041052340085515,"305":0.3470401963623326,"306":0.31835666085021475,"307":0.00034766559142174647,"308":0.019839771992357712,"309":0.06870827221435201,"310":0.2230261905067973,"311":0.16988341162921422,"312":0.3243562594124828,"313":0.06565823545413811,"314":0.10849559508102283,"315":0.21802279556014836,"316":0.11799167159802967,"317":0.20178286857782624,"318":0.052807459309259695,"319":-0.004157132388190987,"320":-0.011044748958518792,"321":0.09169091660083005,"322":-0.0062213239819439315,"323":0.005193214001035987,"324":-0.1715303916243142,"325":0.1115310048451087,"326":0.24752041995738297,"327":0.09838116235922238,"328":0.11990115523632579,"329":0.11575927559501153,"330":-0.28279662237274733,"331":0.23834380467559593,"332":0.20897513019168304,"333":0.5898752708637146,"334":0.28829485262044063,"335":0.011665328318850941,"336":0.002984609161522975,"337":0.052958340929483955,"338":0.14100273019167345,"339":0.10279489259195423,"340":0.13134993396805622,"341":-0.11904570911220567,"342":0.16038728584798842,"343":-0.1800264379736303,"344":0.1866919324172292,"345":0.08774718643961009,"346":0.20417506400034774,"347":-0.04726276318936592,"348":0.09101201924927084,"349":0.06419257487058555,"350":-0.1580621730182298,"351":-0.06296209502390905,"352":-0.10727640348452137,"353":0.07377881712727843,"354":0.26384264193103846,"355":-0.1918896166226636,"356":0.07884273151586259,"357":-0.4050467269185427,"358":0.13481519083334273,"359":-0.1291748852381284,"360":-0.3042407863394928,"361":0.40815758820914955,"362":0.2831212746374072,"363":0.04121819648044765,"364":0.0020960530642960876,"365":0.03657721501120301,"366":0.025533796307058668,"367":-0.06877323367462215,"368":0.07918141722014392,"369":-0.2739748909522194,"370":-0.16258922609429366,"371":-0.31156862616296366,"372":-0.2196477257222778,"373":-0.014564712286547744,"374":-0.022158356349867035,"375":-0.23364282903369013,"376":0.18974993253345152,"377":-0.07065269957545962,"378":-0.2398128541002697,"379":0.03489431796404779,"380":0.01955381741712506,"381":0.04800650740406491,"382":0.11234125092452857,"383":0.42990697163371683,"384":-0.16273055956257274,"385":-0.2181136160519081,"386":0.015318236505507,"387":-0.11907492065374024,"388":0.07499255604881004,"389":0.3664940942292848,"390":0.23580957107648703,"391":0.05687173141227983,"392":0.012806908754483873,"393":0.008277877955179338,"394":0.02388238609572906,"395":-0.22533342242405774,"396":-0.22211835303427796,"397":0.4169179796318325,"398":-0.015476656797615696,"399":0.07860404765956559,"400":0.32560969204944507,"401":-0.017120719300740387,"402":0.201648176984945,"403":0.15471964559976145,"404":0.27357832819558714,"405":0.005178729612589942,"406":0.16191595374762857,"407":0.3073060892338747,"408":0.07194190039170502,"409":0.09099820221188502,"410":0.18672974859073857,"411":-0.21374339562758735,"412":-0.10809310710099493,"413":-0.016060341425699596,"414":0.17591402372886578,"415":0.0009280593656213329,"416":0.12081022839626465,"417":0.20512905530428546,"418":0.09043286932617872,"419":-0.00939633994169964,"420":0.0009057997756283768,"421":-0.0173534695108791,"422":0.004784433157958129,"423":-0.43416214646421886,"424":0.023777338302994104,"425":0.19815678370827933,"426":0.06728459805285163,"427":-0.13056936343032896,"428":0.05195149185097232,"429":0.16913678373593546,"430":0.14093867067873977,"431":0.2848368390329591,"432":0.13239763786658781,"433":0.09491213632840224,"434":0.09100998583063767,"435":0.2916927524792347,"436":0.14511077580654066,"437":0.4868426448870177,"438":0.1411737322726934,"439":0.1351858819580086,"440":-0.09439475251038901,"441":-0.1794379314402354,"442":0.0017848497944159547,"443":-0.06464949056573241,"444":-0.1635391094801324,"445":0.5741771605356683,"446":0.22094004922735722,"447":0.09183594188215159,"448":-0.0013277870082428586,"449":-0.021828746889716595,"450":-0.04516064450373176,"451":-0.4703627181858896,"452":0.3973251695103138,"453":0.07920151741026,"454":-0.2474199593608863,"455":0.1723924457928977,"456":-0.36095274542489825,"457":0.13952554374141038,"458":0.08294082537440561,"459":0.3133318857913324,"460":0.11675179612530424,"461":0.0035084916265739306,"462":0.32623390871203783,"463":0.13355771884534356,"464":0.32703833167322444,"465":-0.16043074489776826,"466":0.204590358216546,"467":-0.0016076777321061778,"468":-0.076611741617431,"469":0.4608000257522655,"470":0.05065207257208358,"471":-0.0029474296863175003,"472":0.2247760357342134,"473":0.4869127883410382,"474":0.17911475953088601,"475":0.1210325656917198,"476":-0.0035058266149603735,"477":-0.007986210829732627,"478":-0.07998704626306358,"479":-0.30847255990406236,"480":0.25912694814630566,"481":0.2317252153694881,"482":0.20247072276473138,"483":-0.08011537223632945,"484":-0.13990092934314755,"485":0.27523185521566346,"486":-0.076341014789038,"487":0.18029810795882134,"488":0.11051078772786063,"489":-0.08850756169363935,"490":-0.13630391166781322,"491":0.2823432267710528,"492":0.009842942357375711,"493":0.09342553408357863,"494":0.24087712502987155,"495":-0.09233718740870785,"496":0.2796162754120264,"497":0.00229138274823911,"498":-0.12604461298229308,"499":0.11310460117043179,"500":0.24293014120269107,"501":0.1353463276394782,"502":-0.14631530119176012,"503":0.03586238167059623,"504":-0.008899837066298707,"505":0.0035654102259919823,"506":0.014692025296759226,"507":-0.14509140147502367,"508":0.3534743678877072,"509":0.23526443085795412,"510":0.1113347413798941,"511":0.315416597413332,"512":-0.03312107146322499,"513":-0.165612738453725,"514":-0.15582504797492266,"515":-0.048366626784159636,"516":0.002936121877581774,"517":-0.015492408475899229,"518":0.41937184346240014,"519":-0.07726238606798186,"520":-0.22716966161810637,"521":0.14472852106126222,"522":0.07344418450573392,"523":-0.1541481476520336,"524":0.13293118738526624,"525":-0.1640705219569577,"526":-0.20392218825301775,"527":0.376710321309234,"528":0.045227153845381875,"529":0.1614957444370976,"530":-0.16090724196285647,"531":0.08022735927336498,"532":-0.00010630257248926468,"533":0.010187012398288245,"534":0.04671131928776651,"535":-0.059914652357387826,"536":-0.11820359383406097,"537":0.40984918746533333,"538":0.0649137535140497,"539":0.01540441968477076,"540":-0.1681586675036524,"541":-0.040453398221537824,"542":0.06782934533102465,"543":-0.35103514795271573,"544":0.06884084307113364,"545":-0.08223635639205057,"546":-0.10532486509198007,"547":0.11427887838851357,"548":0.02252486520516917,"549":-0.21307488236251262,"550":-0.07339976171898736,"551":0.09430347557532612,"552":0.04280823101595093,"553":0.14477912731879558,"554":0.4732592854817411,"555":-0.07883563798181062,"556":-0.37325797416594375,"557":0.25817253209977437,"558":0.10928975847808564,"559":0.03461618192817243,"560":0.00019204254237923908,"561":0.002949991678356026,"562":0.1156054489941557,"563":-0.07480564132865508,"564":-0.03774029786953286,"565":0.2655916532532611,"566":0.3802382876684268,"567":-0.08359782441866981,"568":0.05425784601357448,"569":0.09902485583889181,"570":-0.019378279117251974,"571":-0.22757959032423822,"572":-0.025328435969934955,"573":0.2798578881880025,"574":0.14657199060151857,"575":-0.2714722758848746,"576":-0.2707560843979814,"577":0.02514291184681166,"578":-0.17846490522484132,"579":-0.14364357281479737,"580":-0.22998053919500192,"581":0.07316910543233102,"582":0.014102730709896587,"583":-0.13935901834480102,"584":-0.23649506675035736,"585":0.2938745660296852,"586":0.17243069700692565,"587":0.009463247070018924,"588":-0.010216628577629418,"589":0.013056862395200609,"590":0.07591742176884715,"591":0.13203061112433243,"592":0.11910804162900522,"593":0.043889746680465816,"594":0.21084956424739684,"595":0.10199850543766123,"596":0.006401343276149789,"597":0.015213126908297304,"598":0.01529277643027013,"599":-0.10038468122109509,"600":0.1259478518691604,"601":-0.21301145228325274,"602":-0.20002109269502918,"603":0.005773075340035391,"604":0.02965336801853596,"605":-0.3161701549561751,"606":0.04568398088306351,"607":0.22743767962042322,"608":0.08865017990626683,"609":-0.19772298610373393,"610":-0.3673968518100467,"611":-0.05959833429123977,"612":-0.25602427720597537,"613":0.11575813342588401,"614":0.012733762215049075,"615":-0.004124742250875772,"616":-0.006682936375619365,"617":-0.0018134203774028007,"618":-0.08944005335580953,"619":0.01934833533117018,"620":0.10906949996459636,"621":-0.0009811264917879887,"622":0.167049480008894,"623":0.40394179386003937,"624":-0.10633382233737035,"625":0.1510753106036932,"626":-0.046489160832433984,"627":-0.24240037419391858,"628":-0.2786885339783191,