{"layers":[{"out_depth":3,"out_sx":32,"out_sy":64,"layer_type":"input"},{"sx":5,"sy":5,"stride":1,"in_depth":3,"out_depth":16,"out_sx":32,"out_sy":64,"layer_type":"conv","l1_decay_mul":0,"l2_decay_mul":1,"pad":2,"filters":[{"sx":5,"sy":5,"depth":3,"w":{"0":0.06202886485611527,"1":0.08515814856795104,"2":-0.13953590367726262,"3":0.03902434176340491,"4":0.23286172254902876,"5":-0.19525124892444357,"6":0.10574817839183832,"7":0.1638550680594693,"8":-0.17285059569625522,"9":-0.010321529144762136,"10":0.09423110490525492,"11":-0.3223419591935488,"12":-0.03882614095495601,"13":0.12172741359819018,"14":-0.07259332655536467,"15":-0.046722093787448224,"16":-0.002279163106020719,"17":-0.11954544836930568,"18":0.2575981574581499,"19":0.012077403520910702,"20":-0.05295080601948374,"21":0.23229792487102877,"22":0.008485151764625953,"23":-0.32728143928670506,"24":0.19426772806685924,"25":-0.038229665237741725,"26":-0.06844024770948895,"27":0.039231086439221026,"28":-0.14001591953477385,"29":-0.38685122837334035,"30":-0.020740656087368865,"31":-0.16684791443571212,"32":0.06411416172525158,"33":-0.03111194068006398,"34":-0.08823533162017844,"35":-0.23380237735066595,"36":0.0723794028471522,"37":-0.15550521019072777,"38":-0.2588928674061401,"39":0.08719628537222289,"40":0.03176068227294174,"41":-0.08085805694166336,"42":-0.018008507864829937,"43":0.16322449364251843,"44":-0.28310536317861434,"45":-0.05698268226314634,"46":0.06597748974044199,"47":-0.042244430208338055,"48":0.08816244922938414,"49":-0.05014387337985045,"50":-0.2630880758209715,"51":0.10462931611976524,"52":-0.024683002231799235,"53":-0.2807991524589852,"54":0.18444830258366943,"55":-0.2068065867556724,"56":-0.17046703363393767,"57":-0.016808507032837837,"58":0.02196340179601486,"59":-0.08948285123353825,"60":-0.14482260296542318,"61":0.019637129010905925,"62":-0.059799265645964474,"63":-0.02054477895010326,"64":-0.031924486670074304,"65":-0.1924817625680123,"66":0.039502976457967326,"67":-0.1526688948998829,"68":-0.12538622987158962,"69":-0.035683980390379774,"70":-0.0032912403385614076,"71":0.03189492008638269,"72":0.11987407590553485,"73":-0.15531640039419659,"74":-0.10310586855487779}},{"sx":5,"sy":5,"depth":3,"w":{"0":0.15596157359600657,"1":0.038285379046841726,"2":0.06360015385248087,"3":0.18843504673423858,"4":0.0831089152272347,"5":0.15706477558850485,"6":-0.08337668308221972,"7":0.12720103640795677,"8":0.18272582924055372,"9":0.14366245763871857,"10":0.16798934210434088,"11":-0.03023890089504568,"12":-0.10567615141734378,"13":-0.06200277910559473,"14":-0.26906057495410124,"15":-0.06688568798168783,"16":-0.027580021240049872,"17":-0.2544914231420308,"18":0.11874397848328656,"19":0.1395633791075895,"20":-0.17374837496192033,"21":0.005500117821482201,"22":0.23287233483766973,"23":0.015133859009988626,"24":0.014032912885769704,"25":-0.034189561994770086,"26":-0.07419824557924602,"27":-0.11442667493025617,"28":0.16693362498289516,"29":-0.03405350063865789,"30":0.221434843851051,"31":-0.03227902322836346,"32":0.06796564303590234,"33":-0.1777125131009431,"34":0.04975823360225037,"35":0.14023867614034594,"36":-0.149767511112906,"37":0.024104180123217207,"38":-0.016050140005878104,"39":-0.1512432980063625,"40":-0.019257183264086566,"41":0.009635955079452118,"42":-0.06047613165170894,"43":-0.262349469825667,"44":-0.01704293030523925,"45":-0.1675501972127082,"46":-0.0015199193071801546,"47":-0.027091871401834274,"48":-0.04636555686452689,"49":0.05304645236264216,"50":0.004744330872638923,"51":-0.29776459745373046,"52":-0.2559610709548503,"53":0.025693951750456724,"54":-0.3821892069300428,"55":-0.19709543439079055,"56":0.10915467341461511,"57":-0.1302492903407826,"58":-0.20617227392133883,"59":-0.07885456768599483,"60":-0.021437980227328297,"61":0.1767169870381531,"62":0.08548302725604946,"63":-0.015884681496525475,"64":0.01650880402436199,"65":-0.12767757047201117,"66":-0.07861529429317372,"67":-0.059584654305163694,"68":-0.08235779682411369,"69":-0.039432030017849715,"70":-0.007781207283318687,"71":-0.11242883561382533,"72":-0.11509445465438009,"73":0.12071113113043892,"74":-0.07365935262807063}},{"sx":5,"sy":5,"depth":3,"w":{"0":-0.11194542169126759,"1":-0.014424885544217201,"2":-0.16788454373810022,"3":0.19335150351013305,"4":-0.009326850015724824,"5":-0.048845954805864816,"6":-0.15942842377269764,"7":0.16165438693033368,"8":-0.20115226239732473,"9":-0.21741948734626382,"10":-0.05731028034880403,"11":-0.19058788613602723,"12":0.053346556229116854,"13":0.0992288601104347,"14":0.06655528301773277,"15":-0.07055278188830214,"16":0.1566439830711314,"17":-0.26618881735393934,"18":-0.0628032916160516,"19":0.09042297278097565,"20":-0.16296480233997612,"21":-0.03134429627493037,"22":-0.002299153538044331,"23":-0.07133999797061624,"24":0.05410049886659398,"25":0.18108503259756825,"26":-0.1263444415989424,"27":0.010872408155088338,"28":-0.07347603851625216,"29":-0.3091773812421449,"30":-0.0975468393345549,"31":0.005779839230102298,"32":-0.06462465682034858,"33":-0.00031341617584163906,"34":-0.0390805959134328,"35":-0.3350803392675063,"36":0.07270018114299824,"37":-0.08830271791430148,"38":-0.12171391327301488,"39":0.03586161589795011,"40":0.05608662418875564,"41":-0.41670997909241136,"42":0.1789633046876243,"43":0.04340734347959266,"44":-0.04641450188356453,"45":0.1363065244246735,"46":0.22921735067929908,"47":-0.15293413218134408,"48":-0.04313809637831235,"49":0.16071983402276885,"50":0.1447253122270043,"51":0.08631929212482606,"52":0.09768648674890226,"53":-0.1712027942675251,"54":0.1792335813620371,"55":0.13450134917631845,"56":-0.08042042564477501,"57":-0.04754964615267615,"58":-0.24064641590453856,"59":0.07348845098966847,"60":-0.25646938770134614,"61":0.13279885709493594,"62":0.21382406079432603,"63":-0.07294089314608793,"64":-0.0510616109466271,"65":-0.008668161007160457,"66":-0.13054331847252684,"67":-0.014010212772247147,"68":-0.019580654743982746,"69":-0.15017683744203794,"70":-0.0115169781615333,"71":-0.2050972622345107,"72":-0.05903499325706358,"73":-0.044020900484211235,"74":0.26896610115144404}},{"sx":5,"sy":5,"depth":3,"w":{"0":0.12082416355566328,"1":-0.0725905335569634,"2":-0.03388831284204023,"3":-0.14966269824529146,"4":0.007451433124488477,"5":-0.1282936881811467,"6":-0.12248656149674317,"7":-0.0206802667136297,"8":0.025330955798128545,"9":0.17376572457452039,"10":-0.26872702221024314,"11":-0.4754844187786316,"12":0.04174760153946151,"13":-0.038499621717391644,"14":-0.2239053427117215,"15":-0.14894739518126746,"16":-0.040719166960866485,"17":-0.027745538088508125,"18":0.02904242040851776,"19":-0.007738759057539334,"20":-0.18570244879696263,"21":-0.2488663349893541,"22":-0.07640471017914158,"23":-0.16256628205242,"24":0.013769862204940904,"25":-0.059735967085720265,"26":-0.14748180997450755,"27":0.10666219407913663,"28":-0.15555168640777492,"29":-0.11171432975552385,"30":0.03668654475880774,"31":-0.20088003170559676,"32":-0.39785772018663706,"33":0.11959987232011547,"34":-0.24870733807910572,"35":-0.2652280907164004,"36":0.2539069431811777,"37":-0.22406045203762537,"38":-0.11380917129052037,"39":-0.13097831141164204,"40":-0.10782527518763904,"41":-0.201011236149266,"42":0.13871072218252573,"43":-0.2785294106336522,"44":-0.13254916673828426,"45":-0.14416554657794053,"46":0.02491706262061273,"47":-0.08011645825074099,"48":-0.14167409417182752,"49":0.13460487567801302,"50":-0.16304289500053054,"51":-0.02920136608979672,"52":-0.056397662360991994,"53":0.003260136968473636,"54":0.015434970083738557,"55":0.09334108589846551,"56":-0.017635669619370305,"57":-0.017582382765368526,"58":-0.04088461791543085,"59":-0.1597398851070438,"60":-0.0710097147990904,"61":-0.16256634636392697,"62":-0.018820216685433582,"63":0.11539233677067393,"64":-0.22681136307579283,"65":-0.10395714359998644,"66":-0.22898239154133282,"67":0.06778036133338625,"68":-0.11696506588096492,"69":-0.20969569647932185,"70":0.0019088860528957054,"71":-0.14313006930684571,"72":-0.21643330826960436,"73":-0.23942726590676341,"74":0.020812358478185678}},{"sx":5,"sy":5,"depth":3,"w":{"0":0.013063627459903573,"1":0.264030965287033,"2":0.16674469043199425,"3":0.12981016171799747,"4":0.1657517413996016,"5":0.2838644291117547,"6":0.18965607234051943,"7":0.15537524923372178,"8":0.0538973865111853,"9":0.10297310960433803,"10":0.07520755473606897,"11":0.17610937572537588,"12":0.21990197347552545,"13":0.0904983335262451,"14":0.11689593778067653,"15":0.1132400510077835,"16":0.08982144231214718,"17":-0.06056223433579272,"18":0.10400475028563774,"19":0.09972555668656094,"20":-0.008447282759661631,"21":-0.0026513880221117007,"22":0.011870238292224626,"23":0.24897805021630584,"24":0.17443078650943872,"25":0.0483988232123362,"26":0.13966348054025113,"27":0.009722797713284579,"28":0.015573427111767566,"29":0.047029721705065454,"30":0.2647126776446681,"31":-0.14052190300564368,"32":-0.09962208903860237,"33":0.21219832418032125,"34":-0.1288589326005229,"35":-0.022186601740727833,"36":-0.07606023240908125,"37":-0.006532968386675628,"38":-0.08006334059259017,"39":0.22250616921950428,"40":0.25276177617913054,"41":0.0456620244387926,"42":0.10525556222360087,"43":-0.006352880911856525,"44":-0.10820105768082518,"45":0.22022090462896904,"46":0.15321627334019966,"47":0.00024664786553402673,"48":-0.005569733038700824,"49":-0.05840230469137379,"50":0.04975713237974059,"51":0.04553344240103372,"52":0.05316810632813674,"53":-0.008322629395304548,"54":0.2544397645853854,"55":0.16825110496181162,"56":0.036293445719092925,"57":0.025815281488096288,"58":-0.03580433926045527,"59":-0.26033549123304306,"60":0.20284216322896773,"61":-0.04487694760890274,"62":-0.1351653244876782,"63":0.07508959338301677,"64":0.05551972620624729,"65":-0.07424120554770253,"66":-0.0441322127748597,"67":-0.14409724323962533,"68":0.04270578957110605,"69":-0.002537744659173562,"70":0.0847270798779916,"71":-0.1440622971842246,"72":0.07512609933752962,"73":0.136415186462235,"74":-0.1256576525432815}},{"sx":5,"sy":5,"depth":3,"w":{"0":-0.013716460078728076,"1":-0.049596710709373604,"2":-0.062336834736930746,"3":-0.2772345342428059,"4":0.17653286730329545,"5":0.023223349060416985,"6":-0.15796889787068477,"7":0.016774530485603522,"8":-0.003095020467421342,"9":-0.11864918942850357,"10":0.003908181939342197,"11":-0.008053893047945949,"12":-0.04324023703033642,"13":0.06853806551834145,"14":-0.2532093811214233,"15":-0.21201864895950503,"16":-0.10103265996295514,"17":-0.01019493415007966,"18":-0.1488424546924972,"19":0.00990604440499909,"20":0.05416573064542943,"21":-0.19440043126528547,"22":0.023596001928350888,"23":0.06729093012149108,"24":-0.21721434529828237,"25":-0.05384726816466371,"26":0.007920944869290314,"27":-0.07290205175074871,"28":0.08156188203125132,"29":0.20434695778171832,"30":-0.15777230874961956,"31":-0.21507721648846848,"32":0.056625820372765964,"33":-0.13506647097032565,"34":0.2594940679620321,"35":-0.28720883180976114,"36":-0.2620880368411518,"37":-0.16301954211811345,"38":0.02798455956492028,"39":0.07913717817911343,"40":0.14018915898279408,"41":0.040809744432345314,"42":0.19332355573290538,"43":-0.06261899394784783,"44":0.08840964073475559,"45":-0.162205796084319,"46":-0.13027921701812495,"47":0.16966661097840832,"48":-0.08019873267052795,"49":-0.2003985446601403,"50":0.04374246530152493,"51":-0.1492060497167959,"52":0.0014377607165980148,"53":0.12595164663521835,"54":0.06369481273861427,"55":0.048162672154686184,"56":0.1639807203209337,"57":0.1634573821442108,"58":-0.04721109222541236,"59":-0.08713668226036694,"60":-0.11942279285447642,"61":-0.20187895248641982,"62":0.06274624352565661,"63":-0.14163630629244411,"64":0.03826179296607636,"65":-0.17624705382731712,"66":-0.16509577477656628,"67":0.099919060469933,"68":0.08782745708265045,"69":-0.032712932341974546,"70":0.13417217131132922,"71":-0.20683583568415084,"72":0.04446705443336417,"73":-0.017638922409861892,"74":0.041627794771025385}},{"sx":5,"sy":5,"depth":3,"w":{"0":0.1483843718714881,"1":-0.02543186580105924,"2":0.15507969424834453,"3":-0.01746720608988487,"4":0.1110230714260881,"5":0.04386411679004682,"6":0.18679611068982133,"7":0.2797291574677264,"8":0.1695865642482664,"9":0.3906647234764498,"10":0.0857880561136399,"11":0.1085748419659091,"12":0.021784041689107615,"13":0.1973655395107477,"14":0.17868496585743737,"15":0.1617413054584798,"16":0.25371846820687655,"17":0.12894387871266275,"18":0.15834265759224803,"19":0.05686300510872664,"20":0.09665412571425655,"21":-0.08553845062123015,"22":0.22115328963954264,"23":-0.07692838892752729,"24":0.14179034060283094,"25":0.1075949030081233,"26":0.09595776558670806,"27":0.09029480563584028,"28":0.030571902454357137,"29":0.012879150266475617,"30":0.09804820648682085,"31":0.12560184753799622,"32":-0.15207573912347214,"33":-0.01979680309102079,"34":-0.08047206807263681,"35":-0.18580662938441436,"36":0.08934907822523906,"37":0.007950122679382887,"38":0.08984861668714095,"39":0.12871166648122212,"40":0.24796654808847252,"41":-0.10305358430284464,"42":0.2904062976084334,"43":0.22338484357646435,"44":0.14477872650374962,"45":-0.061989420961337124,"46":-0.0659660545717267,"47":0.1993001928265715,"48":0.2117482439896837,"49":0.06882743530549745,"50":0.07078890614074969,"51":0.18590432297936849,"52":0.0691694569482634,"53":-0.0031696703339775772,"54":0.05296034328193445,"55":-0.04010532213707845,"56":0.008100743907710931,"57":0.23822502450924193,"58":-0.1628155555553682,"59":-0.13394590232327658,"60":0.044771847574331794,"61":0.10709795646614348,"62":0.023017265021131817,"63":0.15787905499969537,"64":-0.18969300351096716,"65":0.033456147132867944,"66":0.1174602232231689,"67":0.03070054261139391,"68":0.04063101575751913,"69":0.05354666392123244,"70":-0.12182725721394387,"71":0.03151855909094881,"72":0.054854810122949536,"73":-0.07094018079217687,"74":-0.007248913618942623}},{"sx":5,"sy":5,"depth":3,"w":{"0":0.14264614450800286,"1":-0.13379636760368785,"2":-0.0007123507359936199,"3":0.2717688909735724,"4":0.05370064550752059,"5":-0.24063938747639635,"6":0.10068547061579992,"7":0.08804506246437355,"8":-0.34940976861469336,"9":0.19145235448704392,"10":0.06164931487716425,"11":-0.05363663801088641,"12":0.19566741291261852,"13":-0.14277325618860265,"14":-0.04726079385356441,"15":0.05731245120671021,"16":0.03261386004592803,"17":-0.17665652532275455,"18":0.2076675357234393,"19":-0.0628248034253869,"20":-0.1460130312826617,"21":-0.07436916906609083,"22":-0.10923995020271282,"23":-0.20166394037575247,"24":0.25769902436205516,"25":0.06953686723160074,"26":-0.32819593032829375,"27":0.05507302735422096,"28":0.11392145966552708,"29":0.05430328848806683,"30":0.21430766602638432,"31":-0.043921534336962414,"32":-0.13792280097666468,"33":-0.06378820201110788,"34":-0.03733043859034469,"35":-0.29043850413967087,"36":0.024698581122839396,"37":0.057683117201272976,"38":-0.007185351848471232,"39":0.19602581222885015,"40":-0.24548874748277416,"41":-0.2207856741145277,"42":0.26628910954459223,"43":0.03210332228390372,"44":-0.09340634805489263,"45":0.132991538524719,"46":-0.021889933109782527,"47":-0.21218722040685076,"48":0.0817764094646437,"49":-0.1709111430552979,"50":-0.003544140807829045,"51":0.0616623651221253,"52":0.1886344292719293,"53":-0.2190768407193645,"54":-0.08026548354208496,"55":0.013860279156409794,"56":-0.27601326439031815,"57":0.08953928787018746,"58":0.2518720777735549,"59":-0.041343550820959245,"60":0.29975484452315104,"61":-0.08267413065882843,"62":-0.16646644373451908,"63":-0.11622614604483056,"64":-0.08288433314524088,"65":-0.20799392172669,"66":0.2839608265247183,"67":-0.12592070148355095,"68":-0.2633498001258078,"69":-0.009096714095559812,"70":0.050477069873554374,"71":-0.21793688213183998,"72":0.17102049765855473,"73":0.03248571743910444,"74":-0.006418570973140965}},{"sx":5,"sy":5,"depth":3,"w":{"0":-0.25561672955562154,"1":0.0007843811257443467,"2":-0.03520456486819005,"3":0.09941656523963079,"4":0.26438587137076536,"5":-0.040766508081277034,"6":-0.11958004842274615,"7":-0.12450086420593602,"8":0.09764514669187625,"9":-0.09369784842176515,"10":0.07137612868517597,"11":-0.015111279728110069,"12":-0.006797848147909464,"13":0.05072856761053484,"14":0.030163956486066363,"15":0.05273041868047788,"16":0.0027750130130286058,"17":0.15927450693718445,"18":-0.13838415088856962,"19":0.04257290482153014,"20":-0.1418761217676004,"21":-0.02675850992380953,"22":0.044936907390566355,"23":0.04619230049581762,"24":-0.0012069085305004095,"25":-0.06384685451845412,"26":-0.00847653674053371,"27":0.03662913906076615,"28":0.07317985472149874,"29":0.15753286245445902,"30":-0.007705804066084534,"31":-0.056992490711370344,"32":0.05353704941220567,"33":-0.10094621764479547,"34":0.06078204572254887,"35":-0.030263476566923395,"36":-0.016461828393116055,"37":-0.040595565785504426,"38":0.25558063077207366,"39":-0.05493442201109443,"40":-0.10714963981635887,"41":0.18061216654527248,"42":0.03927131183432847,"43":0.036966982277034245,"44":0.04151861111471845,"45":-0.24030084414145153,"46":-0.023700311520560204,"47":0.018651771704644906,"48":0.1377303560588192,"49":-0.18133612036447688,"50":0.05876180995604566,"51":0.017842624277525098,"52":-0.10161073370163767,"53":-0.15568471404146908,"54":-0.019456435785448534,"55":-0.04165903449602459,"56":0.12316241901336625,"57":-0.09934682636967271,"58":-0.0799217481070469,"59":-0.07571846042506158,"60":0.04756896821408255,"61":-0.0845257661838542,"62":0.1444987043587083,"63":-0.1768076255137208,"64":-0.048781157733733885,"65":0.28986169716507787,"66":-0.07583566480119719,"67":0.16848066528616576,"68":-0.1605732346060876,"69":-0.009701004459683995,"70":0.0334639601387974,"71":-0.14827481664361533,"72":0.1343253392766381,"73":-0.20308945517730742,"74":0.1526356048551111}},{"sx":5,"sy":5,"depth":3,"w":{"0":-0.17116401378384133,"1":-0.19104577412918972,"2":-0.13817018848271556,"3":-0.056387030167344275,"4":-0.17709084290508187,"5":-0.19526294233553668,"6":-0.047579495096141344,"7":0.02547140786913512,"8":-0.10457382297153917,"9":0.030027394366759153,"10":0.11064888309597205,"11":-0.09398257350172778,"12":0.1574468608511239,"13":0.18110584789768522,"14":-0.09320337450095886,"15":-0.061607497083815285,"16":-0.06167161256835403,"17":0.02022761891643017,"18":-0.069967782931062,"19":-0.0502315152128406,"20":0.11038143707329454,"21":-0.20130093857511763,"22":0.1165560680879082,"23":0.07978797913684388,"24":0.14200792157412842,"25":0.07692637801330478,"26":0.126491078876459,"27":-0.046454538580312815,"28":-0.062366740536605764,"29":0.1529420177104704,"30":-0.11119679295890253,"31":-0.15615066964690608,"32":-0.11730965926031128,"33":-0.205571527578054,"34":-0.017250215899478172,"35":0.004420320350198427,"36":-0.2517131257128128,"37":0.07509951194598448,"38":0.10456780432545458,"39":-0.035640528454335234,"40":-0.1361951819495721,"41":0.06009844595119946,"42":0.12414497230996807,"43":0.1788100606588328,"44":-0.048369888877705755,"45":-0.16150287282554518,"46":-0.1761680788382728,"47":0.13200594115748895,"48":-0.2934851803150325,"49":0.010495419398685861,"50":0.225073358305101,"51":-0.15411520740754375,"52":0.03866414100860098,"53":0.13395187002167058,"54":-0.06039069900252995,"55":0.05237688352182151,"56":-0.16503124760403123,"57":0.16766301586695145,"58":0.07041645973766118,"59":-0.023305113436076587,"60":-0.18678331706645884,"61":-0.08258400790192717,"62":0.05304962121763297,"63":-0.20052485749396212,"64":0.10980523251307359,"65":0.094291161265782,"66":-0.0921737428489471,"67":0.07279540826949446,"68":-0.19519719292097282,"69":-0.061187911080343584,"70":-0.13228651905344763,"71":0.001460207339506795,"72":-0.16450314398858673,"73":-0.08013983590846263,"74":0.17356372637695752}},{"sx":5,"sy":5,"depth":3,"w":{"0":0.10110201740448152,"1":-0.06405822765994543,"2":-0.10529638934969489,"3":0.019411487434760337,"4":-0.10120268359311158,"5":0.07732560944167448,"6":-0.15101782588975396,"7":0.09449649856272924,"8":0.16151138192226108,"9":-0.13545188550753368,"10":-0.0230702152650184,"11":-0.1119761103672152,"12":-0.14453381420464692,"13":0.06944269094145722,"14":-0.1001588389499466,"15":0.03830203776243583,"16":-0.03429512206753919,"17":0.057020097530810936,"18":-0.10741610819452625,"19":0.11072398689359637,"20":-0.04530533431258457,"21":-0.115326851654949,"22":-0.05715636823403262,"23":0.1731013309549533,"24":-0.32007171282579877,"25":0.07007163725184497,"26":0.16230679685722776,"27":-0.07729135987320797,"28":-0.13104894573663198,"29":0.03387987098981912,"30":-0.27526771407142026,"31":0.18920123750097512,"32":0.022386035621584442,"33":0.04999853269733511,"34":0.07140282868117855,"35":-0.17396983784726677,"36":-0.3254725035481505,"37":-0.012349643330986523,"38":-0.015435925436020457,"39":-0.11443037519105546,"40":0.0334418180615874,"41":0.21555636833005773,"42":-0.12522016471958056,"43":-0.08532760683963239,"44":0.10352076111827392,"45":0.037637554296120194,"46":-0.005004025330201735,"47":0.017034998044956545,"48":0.011241700472872459,"49":0.1598672925576656,"50":0.10071951425431121,"51":0.0739035213718632,"52":0.022108620655130827,"53":0.2140459705156865,"54":-0.14864853012649623,"55":-0.18809567728317536,"56":-0.028677286371341544,"57":-0.058964936721106184,"58":0.025890089506509395,"59":0.1362805079325053,"60":-0.07509776350917878,"61":0.01240119266398321,"62":0.020408004051236477,"63":-0.05990933747600143,"64":0.09995324697085284,"65":0.08423894698288664,"66":-0.18602379108274636,"67":0.13799696245503,"68":0.010903656866564063,"69":-0.028865432049170976,"70":0.011652960226524223,"71":-0.0035199927732354596,"72":-0.17297277365379096,"73":0.03363027335257363,"74":0.168356655205431}},{"sx":5,"sy":5,"depth":3,"w":{"0":-0.2118690325169934,"1":0.01956261241845107,"2":-0.05834351986208505,"3":0.019302619416272163,"4":-0.061660371703368085,"5":-0.11184940413870234,"6":-0.0734946795493443,"7":0.044421540522872435,"8":-0.22077669829894003,"9":0.20112132072829622,"10":-0.15394683775325527,"11":-0.35381810231080746,"12":-0.18493042189252254,"13":0.0011831921571155378,"14":-0.15336259817379472,"15":0.05430057355141809,"16":0.07190666697978124,"17":-0.0610559043065301,"18":0.08105051614005823,"19":0.03057959918335828,"20":-0.25162563561666673,"21":0.13585862600299894,"22":0.0096109701808847,"23":-0.27902139752738875,"24":-0.2516885406819829,"25":0.07647102622877575,"26":-0.0629850138483421,"27":-0.1580669051436285,"28":0.26085412097212224,"29":-0.12823907562889442,"30":-0.26950147129002294,"31":0.3146849812145774,"32":0.013361087151619084,"33":-0.057389758589677736,"34":-0.07215819601152539,"35":-0.22433606632403763,"36":0.019205159085943,"37":0.07542582381077712,"38":-0.10427884237348219,"39":0.15257995346792294,"40":-0.011878362897633495,"41":-0.17396305433116147,"42":0.11090244744147519,"43":0.14275380180159836,"44":-0.2663482668023135,"45":-0.11342231758961854,"46":-0.1557025520004475,"47":0.10024897688289625,"48":-0.09224595497169503,"49":0.12952043032672925,"50":-0.08865827117584503,"51":-0.07146352660574382,"52":-0.1106115798616425,"53":-0.008180128964294526,"54":-0.060209726352920136,"55":0.040079888946520335,"56":-0.016315737568307766,"57":0.12954882114098903,"58":-0.02884813684126285,"59":-0.19501430384789661,"60":-0.09488774073783297,"61":-0.003395549919770133,"62":0.1262611776175652,"63":-0.20842016187218665,"64":-0.13947871188338,"65":0.2630906765617008,"66":-0.16060066870144893,"67":0.07051800561148087,"68":-0.1497675982047892,"69":-0.08717954148473714,"70":0.05640483101876435,"71":-0.21318773230509144,"72":-0.09058402391312133,"73":0.030776027384649955,"74":-0.1789465295528539}},{"sx":5,"sy":5,"depth":3,"w":{"0":-0.04916679894465871,"1":0.017531857691379982,"2":-0.03431622355965018,"3":-0.26422596364192136,"4":-0.08768996929643111,"5":-0.1462371557086473,"6":0.02621488958067717,"7":-0.20731188460864247,"8":-0.123258118249539,"9":-0.1831923434774012,"10":-0.2224508779683733,"11":0.08635896731237513,"12":-0.16898944132961585,"13":-0.08304596423016022,"14":0.26289492339042264,"15":0.10879700739446799,"16":0.108326826481106,"17":-0.1801772399754995,"18":0.01534061347426771,"19":-0.2095224788602217,"20":-0.1878001514915334,"21":-0.070366811066788,"22":-0.20220588042214185,"23":-0.005963383622354979,"24":0.11352929786091108,"25":-0.33018480487220797,"26":0.08692751084682662,"27":-0.16764483364834196,"28":0.0061159708796051085,"29":-0.01915817345439133,"30":0.017552936905888654,"31":-0.04464514182885333,"32":-0.14592719041244215,"33":0.0653932976053388,"34":0.15491981574929872,"35":-0.15735714912621257,"36":-0.15614329197982169,"37":-0.1320269034927704,"38":0.060463529510812984,"39":-0.1933533593783269,"40":-0.04825668709529804,"41":0.18047187570705384,"42":-0.09164680480567654,"43":-0.05330747836382235,"44":-0.08045339050735596,"45":-0.2009743443235912,"46":0.09030595769019487,"47":-0.16163754635884547,"48":0.10406590154258016,"49":0.02702726721644482,"50":-0.11770753128121676,"51":0.13970940379218907,"52":-0.12578501022914412,"53":-0.06856337645506963,"54":0.04460221065621103,"55":-0.19688269465210922,"56":-0.04749228260826257,"57":-0.2656516295558171,"58":0.1410506677807621,"59":-0.23857549846932383,"60":-0.014164388249480067,"61":0.07525951182385093,"62":0.030089737590246073,"63":-0.06622269333311152,"64":0.03948415935343443,"65":-0.16298788874540182,"66":-0.21942470749195386,"67":-0.09816234941001185,"68":-0.038685638585100525,"69":-0.005893581181858721,"70":-0.0575091986230681,"71":-0.09083650458806629,"72":-0.17761884706340303,"73":-0.2046311742977969,"74":-0.15556824495653726}},{"sx":5,"sy":5,"depth":3,"w":{"0":0.018293274468830143,"1":-0.12283881822140412,"2":0.10170696936791357,"3":-0.025952061833926014,"4":-0.04233743977082484,"5":0.00015471260863124866,"6":-0.0647779647071555,"7":0.019134087242563137,"8":0.07060532662885846,"9":0.18988094921619067,"10":0.12168707860894039,"11":0.08709004820072547,"12":0.029811196600874796,"13":-0.15298943101356832,"14":0.15656996271889803,"15":-0.23288953319541741,"16":-0.10274319693707518,"17":0.18555507889459905,"18":-0.11849037416179516,"19":-0.10437082879207499,"20":0.03930704022259274,"21":0.013987566200551471,"22":0.0016869767854712483,"23":-0.14786949084612835,"24":-0.00003692573228818561,"25":-0.09993541113751037,"26":-0.0594210667251181,"27":0.05606067257713553,"28":0.06938431382592185,"29":0.004804749601403535,"30":-0.14464718426079912,"31":0.016936391701971535,"32":0.07321529262479173,"33":-0.10323461405116362,"34":-0.010957978063524826,"35":0.05845358397239125,"36":-0.12005195264894429,"37":-0.129937467867636,"38":0.24160593923716459,"39":-0.1262849729279717,"40":-0.04416245441607726,"41":0.09360969509206074,"42":-0.04718907735696427,"43":0.24645231709846518,"44":0.10263314329480606,"45":-0.15194280370498825,"46":0.18795863075463295,"47":0.07129022903028757,"48":-0.1899575170925004,"49":-0.07022040764874753,"50":0.29154720501944015,"51":-0.03763353854410472,"52":0.07726082260957422,"53":0.08829508658264297,"54":0.050320012931813735,"55":-0.0030364859522115885,"56":0.009001480841072752,"57":-0.0339147298128364,"58":0.029314852063139638,"59":-0.04929418830306111,"60":-0.03997915553513576,"61":-0.03228908654681992,"62":0.17408041498599663,"63":-0.04816518212414562,"64":-0.10247431247972755,"65":0.04281620471172164,"66":-0.15237262132052093,"67":-0.07137544115987375,"68":0.2564835999578131,"69":-0.2368301820923844,"70":-0.3489411211491869,"71":0.22003806518049673,"72":-0.04958285447766302,"73":0.05861789702578205,"74":0.12003068425420309}},{"sx":5,"sy":5,"depth":3,"w":{"0":0.2123183705464284,"1":0.15204620093262958,"2":0.01308272201352707,"3":-0.014744986126141177,"4":-0.11950732679570324,"5":0.013826746223782507,"6":0.18449255085825456,"7":-0.08935955972602559,"8":-0.12462965254557544,"9":0.15213161254024565,"10":0.029992915209987266,"11":0.06129105893444751,"12":0.09840180133844521,"13":-0.019701997487774056,"14":-0.0920625770643875,"15":0.1463084161604157,"16":0.14179177272171192,"17":0.048376665167084706,"18":0.2327213171225852,"19":0.27110035589137454,"20":-0.07876444817528225,"21":0.05899360764542019,"22":0.007071989662678186,"23":-0.1617790045390095,"24":-0.009406785058660688,"25":-0.0891923842069673,"26":0.04933438124263005,"27":0.29697596778094626,"28":0.1548311313083246,"29":0.04793551604526953,"30":0.05790027932477483,"31":0.06389228045633291,"32":-0.010890034429281152,"33":-0.05727930361979559,"34":-0.024740817371527522,"35":-0.2428104309205804,"36":0.12283867753139747,"37":-0.14101165237916655,"38":-0.07974862257980386,"39":0.2581703662935994,"40":-0.011754753096839423,"41":-0.20475301086040382,"42":0.06926244694182379,"43":-0.052862932388697804,"44":0.1681045344591627,"45":0.15020306299234332,"46":0.017551585865663584,"47":-0.25794421041002535,"48":-0.036073719970236305,"49":-0.3144181647115079,"50":-0.06653762846228643,"51":0.14498353870590017,"52":-0.01598022508114849,"53":0.07883871591619314,"54":0.1405024513158853,"55":0.12009107513041908,"56":-0.0027607718953558515,"57":-0.019912732017363956,"58":-0.01819648195476131,"59":0.12807952110121212,"60":0.13272509973493551,"61":0.29423792781192815,"62":0.06374582285223371,"63":0.27067118948370766,"64":0.0027807611587935205,"65":-0.04600585363849442,"66":0.04035216952113918,"67":0.12701310336379676,"68":-0.2184841074757888,"69":-0.04479766685966724,"70":-0.06027380744209537,"71":0.1613922142147898,"72":0.08727329774824127,"73":-0.004101733123969277,"74":-0.08717028247196126}},{"sx":5,"sy":5,"depth":3,"w":{"0":0.1097612851962402,"1":-0.13030477410287636,"2":0.20510592649424755,"3":0.010441221072145524,"4":0.16705233311275258,"5":0.027752856129289592,"6":-0.10037072810066916,"7":0.05562185585562304,"8":0.2028484494282867,"9":-0.06951181880618107,"10":-0.069337441002699,"11":-0.139444130958547,"12":-0.05126493519568263,"13":0.06279116012676993,"14":0.1809889309543953,"15":-0.11525721656454437,"16":0.014304314783159352,"17":-0.08544572517527146,"18":-0.03406495945737442,"19":0.0028870029005351365,"20":0.29276334162003237,"21":-0.062074373653526686,"22":-0.02788475883525067,"23":0.13492714649144769,"24":-0.22469451421751732,"25":-0.08676388225970175,"26":0.10195300712375492,"27":-0.15649108816249344,"28":-0.19048866006728948,"29":0.04340327777627505,"30":-0.04992161666729855,"31":-0.1906051889033457,"32":0.04920545244392251,"33":-0.13469911762052514,"34":-0.05839980880977083,"35":0.10754112155581913,"36":-0.10557643298950278,"37":-0.02292463449134498,"38":0.0019145933525568462,"39":-0.025406079691851883,"40":-0.08826799970956185,"41":0.1798870999475168,"42":0.00021723359480658265,"43":-0.10529589470665428,"44":0.031473971772217176,"45":0.00515618108651986,"46":0.07599038384280579,"47":-0.03285730740722097,"48":0.2311636862075248,"49":0.1309014043339354,"50":0.15567405140752658,"51":-0.06132574858324383,"52":-0.2354912120191538,"53":-0.04386227928334484,"54":0.008029133502787708,"55":-0.09032610252633701,"56":0.2733444252771966,"57":0.08435374777916238,"58":-0.050230139295923334,"59":0.16836551865370925,"60":0.08411170072189085,"61":-0.02806183956861232,"62":-0.14383876359544306,"63":0.18252699433151573,"64":-0.11832694683129273,"65":0.06603171280498811,"66":0.13756684512501724,"67":-0.1034381657788137,"68":0.05130533998981159,"69":-0.005329963686761383,"70":-0.02433839479570257,"71":0.06319056930294734,"72":0.058145534598927275,"73":-0.1196479804529633,"74":-0.0028543941394204896}}],"biases":{"sx":1,"sy":1,"depth":16,"w":{"0":0.0979695679445608,"1":0.08103605735602061,"2":0.09712482038419022,"3":0.11896806948531978,"4":0.12820099035784316,"5":0.0818906651175665,"6":0.13926628815178804,"7":0.09828891664077495,"8":0.05251421971588153,"9":0.09526301111018896,"10":0.12083872124766604,"11":0.08810943383883196,"12":0.09874797732921767,"13":0.13045001506106205,"14":0.05986740750394772,"15":0.06697414129282282}}},{"out_depth":16,"out_sx":32,"out_sy":64,"layer_type":"relu"},{"sx":2,"sy":2,"stride":2,"in_depth":16,"out_depth":16,"out_sx":16,"out_sy":32,"layer_type":"pool","pad":0},{"sx":5,"sy":5,"stride":1,"in_depth":16,"out_depth":20,"out_sx":16,"out_sy":32,"layer_type":"conv","l1_decay_mul":0,"l2_decay_mul":1,"pad":2,"filters":[{"sx":5,"sy":5,"depth":16,"w":{"0":-0.2160184077855189,"1":0.03286093548732861,"2":-0.13248339829539105,"3":-0.13137837076857187,"4":0.026257447264854756,"5":-0.11562449898776654,"6":0.10441967581095035,"7":-0.06111758924203166,"8":0.027622918138172557,"9":-0.11367322419916712,"10":0.0300817907068181,"11":-0.17404976132131122,"12":-0.13950112687055968,"13":0.014522691957638972,"14":0.04032149399573455,"15":0.09238279837404313,"16":-0.031206725994809798,"17":0.021747592209890438,"18":-0.11149579209321948,"19":-0.0872000492730006,"20":-0.0037951113795499426,"21":-0.10432880575718617,"22":0.07172242520078032,"23":-0.054000625059125444,"24":0.025021981723606743,"25":-0.13775599163787755,"26":-0.02315383544969058,"27":-0.11745393006770653,"28":-0.08728045412981483,"29":-0.04205511316977161,"30":-0.02502258066016041,"31":0.0910050963426571,"32":0.08218644381722236,"33":-0.009038279679025828,"34":0.11837033655469432,"35":0.06775393579788976,"36":0.021232629529053262,"37":-0.08698937604134482,"38":-0.04050258617842434,"39":0.1048678473171872,"40":-0.02812144887309114,"41":-0.04017160488298186,"42":-0.05708141472825607,"43":-0.011237846828911923,"44":-0.042117570794017956,"45":-0.1401302650598669,"46":0.04622304645258803,"47":-0.03532895408239336,"48":0.11377290676310058,"49":0.11207543383736486,"50":0.14892618804436847,"51":0.23700693387346108,"52":0.08725913605863711,"53":0.007412060932479164,"54":-0.04466620953096981,"55":0.17906153946953343,"56":-0.06913784081101607,"57":-0.02526775724163307,"58":-0.11464522730247796,"59":0.025981332985408313,"60":0.09468407169026134,"61":-0.20953835716668312,"62":0.020433709736795765,"63":-0.07598629987500778,"64":0.14288418614969414,"65":0.09995673185848832,"66":-0.009361498296280944,"67":0.07301486995188991,"68":-0.056907388142480114,"69":0.001841702484625038,"70":0.01842273588291575,"71":0.15175008774678303,"72":-0.10763759929940307,"73":-0.044931915764662635,"74":-0.08461751063646028,"75":0.09347333451128836,"76":0.00019887783161259565,"77":-0.10526881119690805,"78":0.06102358936365793,"79":0.032303565029487155,"80":-0.09982619262408184,"81":-0.013212872057683882,"82":-0.047105750997708015,"83":-0.0416167415028853,"84":0.08687578145809872,"85":-0.08051440970943445,"86":0.006987402175683818,"87":-0.10881807119273207,"88":0.011250257331701577,"89":-0.032456332140518955,"90":0.05613816058728736,"91":-0.11390178125710215,"92":-0.14314910270403333,"93":0.0730142658989968,"94":-0.004929981865337413,"95":0.0020692653500484406,"96":0.031093770128260374,"97":0.0570073417551093,"98":-0.02515440198652993,"99":-0.04784202311341297,"100":-0.08165272722780358,"101":0.00890629009006869,"102":-0.07801832506797701,"103":-0.037768178984939754,"104":0.049060333587788586,"105":-0.04530290333529122,"106":0.008218183713609932,"107":-0.01888280728303797,"108":-0.10444923643907646,"109":0.03416862000758281,"110":-0.041124948909591,"111":0.027736952548921896,"112":0.145578910060277,"113":-0.026616115880767892,"114":-0.009178600855538212,"115":0.060668526742474214,"116":0.038247120937016904,"117":0.016925583346260393,"118":-0.017714435558021775,"119":0.10167996135971609,"120":-0.09180781324187688,"121":0.0004241869848924633,"122":-0.11281144142915023,"123":0.11751587344677088,"124":0.025035505058044177,"125":-0.15462843411327368,"126":0.06682354604260998,"127":-0.043972743328683755,"128":-0.031849318260854055,"129":0.011065494129260865,"130":0.09559837247847772,"131":0.05072204847022074,"132":0.12067484231380304,"133":-0.07190210632239129,"134":0.026306666138636494,"135":0.18163400867196117,"136":-0.10095907309007383,"137":-0.14517618630399304,"138":-0.14418726660255235,"139":0.08681751017101058,"140":-0.024372322626237734,"141":-0.15512212212060983,"142":-0.023862915231738682,"143":-0.04480872464567959,"144":0.06844670576643994,"145":-0.0030080393363107636,"146":0.1152146251681971,"147":0.07406431639639201,"148":-0.051311399809242514,"149":0.02441264052646024,"150":-0.037371478808957345,"151":0.154311164144628,"152":-0.04136080414474447,"153":0.028567243907601007,"154":-0.1333011797299396,"155":0.21685133811106416,"156":-0.02276985718099952,"157":-0.12845815183268375,"158":0.13180409551477618,"159":-0.0846566454758439,"160":-0.07245519945462797,"161":-0.08621863307393353,"162":-0.02414305556321825,"163":-0.08539773722858593,"164":0.05386009596762833,"165":-0.02468796478243671,"166":-0.005311262037172493,"167":-0.04564368080589551,"168":0.025860319221545428,"169":-0.1257702741530919,"170":-0.014481890557584382,"171":-0.029837689058296087,"172":-0.13122482211462955,"173":-0.04551237052624672,"174":0.053758521723920316,"175":-0.061657360710047515,"176":0.004298084820773535,"177":-0.017120717723877056,"178":-0.018909755501577478,"179":-0.11543631326759118,"180":-0.02882606031739602,"181":0.03586197828413605,"182":0.0076072839030758175,"183":0.06785135957928591,"184":0.027309670972783612,"185":-0.0017099051942283726,"186":-0.005757839005580482,"187":0.028779559913853586,"188":-0.15265292175633566,"189":-0.006192773244422795,"190":0.12633997842919595,"191":0.08226310650218131,"192":0.10576046297914538,"193":0.07289700483383207,"194":0.07711982082344318,"195":-0.006168271564437404,"196":0.07671221981734791,"197":-0.22779426033922198,"198":0.0461013039439522,"199":0.1078720533976517,"200":-0.1389631300077477,"201":-0.06740502398092782,"202":-0.050963228731702406,"203":0.13907988506564922,"204":0.044003737977002355,"205":-0.08118908690545261,"206":0.12077112310420773,"207":-0.05426887623888112,"208":0.08107261076124966,"209":0.013662430198302825,"210":0.06041626689467255,"211":0.041646903247656,"212":-0.08216707791008238,"213":-0.03340301117328376,"214":-0.006841788271899628,"215":0.21276759525695427,"216":-0.10008779631918169,"217":-0.07041127657206021,"218":-0.08723969588073682,"219":0.05773836804756707,"220":0.02888877574300886,"221":-0.02302406177964323,"222":0.09326352939052426,"223":-0.09389491296400442,"224":0.12613903304584453,"225":-0.09948007415145775,"226":0.14225313641881943,"227":0.08154717982629905,"228":0.04836546051645493,"229":0.01223219115303139,"230":0.004279592988184359,"231":0.17681809476144503,"232":-0.0210050844007621,"233":0.09835374977408248,"234":-0.1658917525512271,"235":0.05717303821247839,"236":0.03915742639401697,"237":-0.02043350718010095,"238":0.09601618134903389,"239":0.04603460537257776,"240":-0.02658969704465158,"241":-0.013168379870812234,"242":-0.10114563040153876,"243":0.019263867527378555,"244":-0.024320287318036093,"245":-0.09620277766289063,"246":0.05052966895324096,"247":-0.032493489708907836,"248":-0.02220760845640752,"249":-0.009474145484329252,"250":-0.014402072978121305,"251":0.0518176774226744,"252":-0.07943623707575376,"253":-0.008990145932508463,"254":-0.005259010893708585,"255":-0.031450292658650736,"256":-0.02435613458013853,"257":0.019222099309950096,"258":0.03493909212123839,"259":0.0021815276934006992,"260":0.06925726360876473,"261":0.07286494694087829,"262":-0.03532941123694709,"263":-0.0660898151280664,"264":0.04567289323825019,"265":0.012969075394329248,"266":-0.04329044275784067,"267":0.020838708017852463,"268":-0.06919434700747142,"269":0.03672192483011383,"270":0.10524156621646592,"271":0.014274916859070688,"272":0.1235538904686954,"273":0.06321437917241257,"274":0.004295835361876405,"275":-0.025166194774132945,"276":-0.13209028120928404,"277":-0.060217611683951185,"278":-0.05332901432897913,"279":0.012821960406819889,"280":-0.009541987511416395,"281":-0.07864650821762445,"282":0.0030297013510723887,"283":0.03824260842967657,"284":-0.060756788979909514,"285":-0.022483062222877888,"286":0.07543690708929739,"287":-0.051303874804768494,"288":0.05123141422550699,"289":-0.011373557662994091,"290":0.04313925848455565,"291":0.009387209603752916,"292":0.00013727744512987932,"293":0.01682169539206432,"294":0.02407981922674218,"295":0.06476904913763092,"296":-0.048784422438452796,"297":-0.010205630513587922,"298":0.050614387767442294,"299":-0.008534647409413872,"300":0.0037129376187558117,"301":-0.014731663434527595,"302":0.06252039388522179,"303":-0.07344186806656236,"304":0.0002815506938703943,"305":-0.007841460333936536,"306":0.04507253368354755,"307":0.038970320348041834,"308":-0.004915470525864836,"309":0.047935839159637124,"310":0.06654705705375637,"311":0.11622697708810927,"312":-0.05206316213041342,"313":0.038138732922315066,"314":-0.1144585476204597,"315":-0.03330482239370336,"316":-0.020847943433227722,"317":-0.02826400880207592,"318":-0.03424430709419192,"319":0.0410280032011021,"320":-0.09533588006162357,"321":0.05135241150806603,"322":-0.026195402795980247,"323":0.005284082757313905,"324":-0.048048257268766534,"325":0.010410783237888382,"326":0.0022968087477050537,"327":-0.12861898404461466,"328":0.04980843104212178,"329":0.011936577586859762,"330":0.043051386033859634,"331":0.09718567651273727,"332":0.020725350878161665,"333":0.050725820851050055,"334":-0.05041801250183025,"335":0.09112927984381534,"336":0.03805302278040477,"337":0.08724201492103782,"338":-0.0038244216287255032,"339":-0.005146013253624747,"340":-0.01689991888718457,"341":0.05221697566480659,"342":0.0871502602523625,"343":-0.05193179399676908,"344":0.1007239778118128,"345":0.06610722302344973,"346":0.0005993329533490285,"347":-0.07262150578543197,"348":-0.0388718934804521,"349":0.06495452096578667,"350":0.027752492953542367,"351":-0.01718795879566372,"352":-0.10303348097306259,"353":-0.02845002913060253,"354":0.10600981154613312,"355":0.07520377457230913,"356":-0.13985616676325796,"357":-0.0611716347817248,"358":0.09946950872570173,"359":0.05571327629792619,"360":-0.0387360109226153,"361":0.07751290948421746,"362":-0.06548825156773522,"363":0.019606280593690077,"364":-0.06532939766850011,"365":0.0440545055320016,"366":-0.02467149962664581,"367":-0.014226931834068502,"368":-0.0006194427200316807,"369":-0.11476004023109747,"370":-0.02245433738956111,"371":-0.032170531324059407,"372":0.021356428505956884,"373":-0.05585010852216179,"374":0.03955681863389115,"375":0.09925584812075565,"376":-0.0656058525175696,"377":-0.01562720220082738,"378":0.049391159951004376,"379":-0.004009238361481938,"380":-0.030306020888495457,"381":-0.10429096109173983,"382":-0.020456155284951726,"383":0.09804794486737847,"384":-0.039996111888381966,"385":-0.13582324898675763,"386":-0.04592092440360114,"387":0.025752076915071614,"388":0.012828273917771832,"389":0.022791979983176298,"390":-0.010930857987494056,"391":0.015537786681656772,"392":-0.01867493151966608,"393":-0.0428970765543391,"394":0.06310551896467052,"395":-0.04986171290271115,"396":0.05774695831564927,"397":0.012106898300382272,"398":0.03775928558803879,"399":-0.07577622182452183}},{"sx":5,"sy":5,"depth":16,"w":{"0":0.011068998807558933,"1":0.007073327895962911,"2":0.09732973919987614,"3":0.13083976762538335,"4":-0.12739452614275495,"5":-0.026109663368868326,"6":-0.00025240389172437154,"7":0.03744910987730176,"8":-0.07605089389210615,"9":0.10588207987856507,"10":0.05647005511004475,"11":0.10777768190527008,"12":0.10080785999916571,"13":-0.041559246155050536,"14":-0.10150892733911043,"15":0.007982462755273194,"16":0.059141359986794824,"17":0.005713979936188176,"18":-0.03321308548958961,"19":-0.07070545059520625,"20":-0.03670638996660188,"21":0.07919985663219699,"22":-0.07000582145011906,"23":0.07480379407747545,"24":0.014128359602495909,"25":0.03698159173555869,"26":0.0439059855471748,"27":0.10426311525434248,"28":0.06481452630189878,"29":0.07641710701387666,"30":-0.08012907345289501,"31":0.08357243125132183,"32":0.013119180362815583,"33":-0.06902015130443558,"34":-0.021177730178982786,"35":-0.012843511501155161,"36":-0.0174785372388849,"37":0.021615699076138774,"38":0.03979495129509884,"39":-0.06877515821178436,"40":0.015937469680561967,"41":0.030389706070399574,"42":0.0038346751051505043,"43":0.052892434325995503,"44":0.0051344737567808225,"45":-0.006286701447037669,"46":-0.00202716021964096,"47":0.01307953715202938,"48":-0.030820305585121704,"49":-0.08078734927369427,"50":-0.05281744592756374,"51":-0.055510922326349764,"52":-0.009796231354338582,"53":-0.058489386102367216,"54":-0.022619442521659778,"55":0.05118749499926511,"56":-0.011059198411311215,"57":-0.05761803327777945,"58":-0.03580282409732163,"59":0.04191582921295261,"60":-0.10227291540876933,"61":-0.05898119966311084,"62":-0.003226386366768572,"63":-0.029893956040045033,"64":0.11691670977704158,"65":-0.14938404561602459,"66":-0.03143001460206904,"67":-0.07388068541127364,"68":0.11241700600941028,"69":-0.06378285036810717,"70":0.021326028510117324,"71":0.02268459403899235,"72":-0.05509023266935544,"73":-0.12713737606840084,"74":-0.0904434999401701,"75":0.019088811809553807,"76":-0.06596221346729152,"77":-0.10961456847579834,"78":0.029567445771406582,"79":-0.08646208412498504,"80":-0.016603792540981075,"81":0.020390477413159976,"82":0.036401000230470486,"83":-0.045174081758236846,"84":-0.11253550755253947,"85":0.06157461243720913,"86":-0.09091629584716018,"87":-0.08426213668748035,"88":0.05602458579864039,"89":-0.0417579359627036,"90":0.06445972507283211,"91":0.03395227492670163,"92":0.010855533194885837,"93":-0.02559547970427038,"94":-0.08619140748727867,"95":-0.04690850645606522,"96":-0.0510403150630454,"97":-0.09277812534006367,"98":0.10762727583186812,"99":0.0778285525785476,"100":-0.1517595472022083,"101":0.09083416884736342,"102":-0.11424919332112951,"103":-0.05368876564311714,"104":0.09940700901672815,"105":0.20140048184632436,"106":0.005207556777025905,"107":0.019261169485217118,"108":-0.07102494492991625,"109":0.030834464343819312,"110":0.005315671083933856,"111":-0.1176356155286318,"112":0.027995408620133114,"113":-0.11947682001455745,"114":0.11729735134576129,"115":-0.07018068625252195,"116":0.006132156611440841,"117":0.05286593453542998,"118":-0.02354757258238367,"119":-0.0738637952086499,"120":-0.053105403085984056,"121":-0.015370018612973248,"122":-0.09682843416431713,"123":-0.025800830372612077,"124":-0.04109340764484133,"125":-0.011355091500937662,"126":0.08885797701732331,"127":-0.08294724885023994,"128":-0.027596731601768416,"129":0.005897594441168173,"130":0.016399381248937403,"131":-0.0631322344587294,"132":0.002851882919067017,"133":0.0214151514399935,"134":0.0452303995119637,"135":0.011757474992511844,"136":-0.05113840571260838,"137":0.01838802449711927,"138":-0.12537059701617176,"139":0.02913040371267495,"140":-0.11919084824162629,"141":-0.055580349248427856,"142":0.09023627511911494,"143":0.012676138480361643,"144":0.08424798050842566,"145":-0.08806895411318234,"146":-0.012768935298469156,"147":0.010458307781741534,"148":0.02202368315788429,"149":-0.16090465281298313,"150":-0.0248655116725751,"151":0.093588663711242,"152":-0.08336684072414988,"153":-0.08062606350613742,"154":-0.17265692645959915,"155":-0.01810808905964841,"156":0.008653379483127756,"157":-0.18712460915248913,"158":-0.0035651443646705725,"159":-0.12842001412814072,"160":-0.08130647007365512,"161":-0.011626349672995077,"162":0.008102725272582023,"163":0.039004920052760385,"164":-0.13115708796013348,"165":0.06768800846178953,"166":-0.20484169688534395,"167":-0.057314804139975174,"168":0.009321819484112988,"169":-0.04744632221310556,"170":0.09256867759469548,"171":-0.04907415422446757,"172":-0.0037699915977508396,"173":0.050449908843510284,"174":-0.06702695997520379,"175":0.12660650856757563,"176":-0.057882117927719225,"177":-0.09460760819601192,"178":-0.050785110180278516,"179":-0.09536119391790765,"180":-0.11591300655617943,"181":0.11201476738403807,"182":-0.02999760653924757,"183":-0.09283661890376678,"184":0.09664439536012878,"185":0.09557248810506727,"186":0.024496778090451282,"187":-0.03671160807059664,"188":-0.0470702326015762,"189":0.14829088276686103,"190":-0.1917866506871922,"191":-0.07962118945977395,"192":0.030950196523762588,"193":-0.058553336281646724,"194":-0.010492410380806904,"195":-0.036086716826252314,"196":0.023516081182365024,"197":0.00592044958308322,"198":0.10132544907257557,"199":-0.07823778557433024,"200":-0.03294025001286578,"201":0.11500788871029155,"202":0.025541036173811888,"203":0.0017120684307223165,"204":-0.0797929921245739,"205":-0.017251404805684975,"206":-0.0461932705331277,"207":-0.03130302497547574,"208":-0.0009496997123914859,"209":-0.00804205181122705,"210":-0.04750617988745275,"211":-0.08440920319243703,"212":0.11042588996946727,"213":-0.006118677249382919,"214":0.004716342820261281,"215":0.11073963071594521,"216":-0.11384042306092838,"217":-0.0721667914241975,"218":-0.1202433432372698,"219":-0.03558270052489909,"220":-0.15527892928576378,"221":-0.02534668133048059,"222":0.0346414524882053,"223":-0.011702164477320472,"224":0.04740583958283445,"225":-0.0736803722794051,"226":-0.003911613945364192,"227":-0.07394254536692715,"228":0.05264492115430196,"229":-0.08796532542959094,"230":0.046049167061894006,"231":0.031181634573342124,"232":-0.06292782227401975,"233":-0.19844625833535043,"234":-0.15908226518159382,"235":0.09424248433988011,"236":-0.07516479970511897,"237":-0.08750585298804159,"238":0.0013087342513672703,"239":-0.06171411152320665,"240":-0.08255828056976203,"241":-0.002138760557631346,"242":-0.08345832989744191,"243":0.0549256950501515,"244":-0.10355993949264644,"245":0.02189203987030916,"246":-0.023247725051910147,"247":-0.13698740135452506,"248":0.08757805804356314,"249":0.025151420245353766,"250":0.19703218615779317,"251":-0.012097701844986857,"252":0.026003153788387662,"253":0.03394802729660534,"254":-0.13001669391411497,"255":0.0863110945465204,"256":-0.002512582218667006,"257":-0.14327228105351514,"258":0.003103540452543784,"259":0.0711236466253875,"260":0.015496806906545455,"261":0.04397795902837279,"262":-0.0035094706433027143,"263":-0.09816251308930642,"264":0.006332034443149324,"265":0.1733516584810182,"266":0.04663680406011653,"267":0.06374417205579226,"268":-0.02104367612313343,"269":0.1502018716146547,"270":-0.13376461078632754,"271":0.04843151201244215,"272":0.012492146486911767,"273":-0.19150925467359822,"274":0.01711722874955155,"275":0.008900415527584858,"276":-0.03854298100214201,"277":0.041805797349490414,"278":0.08182053983846363,"279":0.027771274788845154,"280":-0.0004437495070920273,"281":0.04756146713578427,"282":-0.016974398727900856,"283":-0.024161191663307637,"284":-0.10228735252372803,"285":0.021208382233512627,"286":0.04507927148385388,"287":-0.13043000046689243,"288":0.04641259161034163,"289":0.0314299020259356,"290":-0.014988251268549656,"291":0.015934907912624155,"292":0.12161140477689032,"293":-0.18299223189924702,"294":0.03428030878700227,"295":0.030532012066392153,"296":-0.04625036770640638,"297":-0.04751536831558081,"298":-0.04688124508208132,"299":-0.03890741929306262,"300":-0.07094200625656422,"301":-0.015823773030086214,"302":0.013496700208446906,"303":0.031584058262173136,"304":0.044425313564885306,"305":-0.03438874031916141,"306":0.04794202868982399,"307":-0.07091480916571466,"308":0.07508526907013441,"309":-0.1313563024259418,"310":-0.04370891821199942,"311":0.021327995316896553,"312":0.005411335455492111,"313":-0.10452268963469767,"314":-0.007610341144092266,"315":0.026864351784442877,"316":-0.1753358483856739,"317":-0.15341487555074065,"318":0.06181690026248338,"319":-0.07074744031432464,"320":0.029389203912754094,"321":0.02007760494946771,"322":-0.05376295033700321,"323":-0.060585712185273546,"324":-0.11568107073269716,"325":-0.04383724662257324,"326":-0.07319379731016569,"327":-0.12811987023265733,"328":0.011484041785831362,"329":0.13679587801974075,"330":0.10207114094822856,"331":-0.07084558176412405,"332":0.06771298392155636,"333":0.07980614256259506,"334":-0.08323835690160653,"335":0.08454956049699443,"336":-0.03708884617461587,"337":-0.06212454247667473,"338":-0.05213240236679106,"339":0.0355445962912128,"340":-0.05317964730006675,"341":0.055144037158388566,"342":0.07688700739654133,"343":-0.10295657318243345,"344":0.026436145726413594,"345":0.04914254575982888,"346":0.111181784230976,"347":0.006803037408844255,"348":-0.040714002749396815,"349":0.10327928776010244,"350":-0.14308343058819606,"351":0.011304913035035896,"352":0.11334783742936287,"353":-0.06459765359859289,"354":-0.031919386563346384,"355":-0.07458296800789915,"356":-0.005699989598291095,"357":0.027237588280104103,"358":0.04468305319485232,"359":0.0696322976381496,"360":0.05684860745055084,"361":-0.022218419100756195,"362":-0.06184457966235745,"363":-0.03241018494503895,"364":-0.08236180387594937,"365":0.024597023376741342,"366":0.025275884163657447,"367":-0.020190101761194127,"368":0.08492721493848612,"369":-0.05128170513225736,"370":-0.01751069331343987,"371":0.02683564806601143,"372":-0.030538502397775943,"373":-0.07039120338723397,"374":-0.020621689888690946,"375":0.12450787836212557,"376":0.0028493013053727013,"377":-0.046372551791101974,"378":-0.12100318625708474,"379":-0.0056954351671175945,"380":-0.06671660921185792,"381":-0.04353013365235524,"382":0.06850479173591566,"383":-0.025634998874799298,"384":0.08479611177656493,"385":-0.010633107686327243,"386":0.00011754073850652526,"387":0.00014771335479303195,"388":0.11100146996115798,"389":-0.17956593265482237,"390":0.08315180548231793,"391":0.1274997401724843,"392":-0.07626434112065016,"393":-0.14159471090756356,"394":0.032987652582796075,"395":0.0659538058596457,"396":-0.09501400559264425,"397":-0.12498803999186871,"398":0.006625183432239303,"399":-0.03052769914510059}},{"sx":5,"sy":5,"depth":16,"w":{"0":0.05794559612914839,"1":0.000005933922226429747,"2":0.02026727006703497,"3":0.10033262629445935,"4":0.0569043321579041,"5":-0.10545247177180903,"6":0.09509244652854529,"7":0.022199653058716764,"8":-0.06338346750004979,"9":-0.03294568381260934,"10":0.0546115104497506,"11":-0.07659106738741728,"12":0.07328084464506641,"13":0.004964223713118379,"14":-0.04322899730673794,"15":-0.01281777417218162,"16":0.020636970429533677,"17":0.07109288293909254,"18":-0.07149447277682208,"19":-0.03171900196794782,"20":0.07532746054395774,"21":0.05252354499671505,"22":0.027346804656455156,"23":0.0505561518299321,"24":-0.010117071545810282,"25":-0.0002956329713725864,"26":0.012467701570826531,"27":-0.03758014953339727,"28":-0.014052694825970538,"29":-0.01293102386847768,"30":0.07011693543393711,"31":-0.0899817480455961,"32":0.0022395222228535207,"33":-0.10904135576719234,"34":-0.05804665822159237,"35":-0.12325023133344082,"36":0.046809743221032915,"37":-0.1058044377826414,"38":-0.014418651687650856,"39":-0.055196905710728335,"40":-0.09371627972669301,"41":-0.13137337615443592,"42":-0.09689509648379104,"43":-0.08321660832554394,"44":-0.14499583507279898,"45":0.033417724221091,"46":0.04594808821085793,"47":0.02537810136396785,"48":-0.0794567204187511,"49":-0.03290245063077022,"50":-0.12274988612523836,"51":-0.05440528808894318,"52":0.10852088269323093,"53":-0.14820613865743526,"54":0.054094135443542544,"55":-0.004252030431806891,"56":-0.008848330362527182,"57":0.007814944587243362,"58":-0.00009463656531998426,"59":-0.1440351350437993,"60":-0.02838220429565983,"61":-0.06942521807504654,"62":0.017077850811443866,"63":0.009524874421807002,"64":-0.028042787386907964,"65":-0.02544681185429503,"66":0.01930115687185682,"67":0.00009033064474230353,"68":0.056026849833562056,"69":-0.12602707555706857,"70":0.1039512114323624,"71":-0.018246578615363215,"72":0.03195787897212603,"73":-0.05924395762489146,"74":0.0047211836497471175,"75":-0.013612994978076111,"76":-0.006061583877964572,"77":-0.04003140151481258,"78":0.03813572750729108,"79":0.048709447686457547,"80":-0.09118346715336108,"81":-0.07965221037989352,"82":0.031856420897349275,"83":-0.016190649713487548,"84":-0.012423193320746448,"85":-0.08042223926158991,"86":0.13018187609977813,"87":0.03432057005903488,"88":0.05997608756971436,"89":0.004147865576844062,"90":-0.10475842624109649,"91":-0.014048156519931803,"92":-0.015279873256809245,"93":-0.09500950931914408,"94":0.09879489814462723,"95":0.05460015430013601,"96":-0.004447404370522986,"97":-0.10962477064750495,"98":-0.10852384258318756,"99":0.03183310184694154,"100":0.059649260059703904,"101":-0.060610052233535876,"102":0.00505314476140358,"103":0.019828643762981116,"104":0.05413922927190041,"105":-0.045647641611857366,"106":-0.03247889021931981,"107":-0.06848305530179821,"108":-0.06851048547586332,"109":-0.033446956973278374,"110":-0.046347285527267204,"111":-0.05632257558843515,"112":-0.0645569483929899,"113":-0.07141287561954536,"114":-0.14848243785465062,"115":-0.007374729460574426,"116":-0.06844373681856096,"117":-0.16014171277714087,"118":-0.01092522534763438,"119":0.0065328072897518795,"120":-0.04007028009148675,"121":-0.06012756769794397,"122":-0.0407331073170601,"123":-0.029216888096735304,"124":-0.0991661221960561,"125":-0.05941098955132049,"126":0.1211183474812448,"127":-0.04413935929977056,"128":-0.042396616404600865,"129":-0.033139020907059766,"130":-0.06866951855854125,"131":-0.06399826812995513,"132":0.026405609491524536,"133":-0.12953105837142315,"134":0.15564991011864024,"135":0.015532742320460629,"136":-0.0797712280120627,"137":-0.1220794066003505,"138":0.0470396409875309,"139":-0.1424635159111919,"140":-0.07697552642928669,"141":-0.02078965799085892,"142":0.015163340848888603,"143":-0.024315553727379955,"144":-0.06751219760010185,"145":-0.044367239209046956,"146":-0.03829411569513845,"147":0.010960379332353776,"148":0.0023299862883084887,"149":-0.24666630354533428,"150":0.1009279571386814,"151":0.02620737470340883,"152":0.026203291694792127,"153":-0.16306889001617056,"154":-0.04292599306720039,"155":-0.11434426266248919,"156":0.012882073075244424,"157":-0.04794969773508686,"158":0.012497330807962292,"159":0.017504726961654914,"160":0.0014424823053409168,"161":0.03648465480829548,"162":0.03988137701810773,"163":-0.02132259636021502,"164":0.05456411716268903,"165":-0.10400944171183835,"166":0.12274515035597307,"167":0.1586717553345819,"168":-0.08881426047411835,"169":0.026684957647496513,"170":-0.02162102518530554,"171":0.02958949185350564,"172":-0.07998755734559636,"173":-0.065196650243011,"174":0.04832161115210734,"175":0.046836310403430025,"176":0.04991743824724743,"177":-0.09263128705819684,"178":0.024951818264585812,"179":-0.1128619003121986,"180":0.07197662597006933,"181":-0.10417159758127034,"182":0.049461218237527214,"183":0.13804558389562424,"184":0.008058166060101884,"185":-0.1255982410968519,"186":-0.06547918499807864,"187":-0.038722729574980734,"188":-0.05639280265299889,"189":0.004980868783363481,"190":0.05543241634746713,"191":0.009181108902213166,"192":0.023902696144167183,"193":0.0020024557346100375,"194":-0.019599850181239022,"195":-0.019107545171846076,"196":0.023808318867842335,"197":-0.13315313261418824,"198":0.06683649699257588,"199":0.12180158112298403,"200":-0.11666069137431777,"201":-0.13872754318244931,"202":-0.19523398230518438,"203":-0.09356579153021756,"204":-0.05313409141976068,"205":0.016357527855301767,"206":-0.03269740077487436,"207":-0.03940327319221116,"208":-0.05360020688470012,"209":-0.02509170436130312,"210":-0.010488513969592378,"211":-0.1204561848311333,"212":0.04407291698394095,"213":-0.1528303089494228,"214":0.07601463631157515,"215":0.11785481609127386,"216":-0.0019367549698144004,"217":-0.037545769366547924,"218":-0.07729176794651094,"219":-0.15014886229680452,"220":-0.06652897783107048,"221":-0.03653423152165314,"222":0.02912159061166351,"223":0.015187100290055362,"224":-0.04125128287177651,"225":0.0011073175625197305,"226":-0.02467104248989171,"227":0.07738466329146095,"228":0.05292588803460391,"229":-0.025770621232966955,"230":0.06445282571763747,"231":0.05868210770552129,"232":-0.10873763385615343,"233":-0.09868987114985892,"234":-0.039093241518295505,"235":-0.02425967313078446,"236":-0.01690820308280164,"237":0.006335989745385317,"238":0.02873064534140586,"239":-0.03986729690639883,"240":0.1678811444702138,"241":0.01092862276397347,"242":-0.021204258899737594,"243":0.009666802543488947,"244":0.04666302639679219,"245":0.010694070595981795,"246":0.0863443715234117,"247":0.049006428554409925,"248":-0.07336913638913174,"249":-0.09204366403345154,"250":-0.1684648865007746,"251":0.007712886783505382,"252":-0.0689673874988266,"253":-0.14341949619855454,"254":0.045076735545985507,"255":0.0022837798625534467,"256":0.07728228501145461,"257":-0.0431799187428032,"258":0.03846052285561601,"259":0.03649591021208822,"260":0.09536304830245729,"261":-0.11191258188207996,"262":0.028200712411021987,"263":0.09429119411437294,"264":-0.12105213086146772,"265":-0.030072756743171794,"266":-0.12771741811253937,"267":0.038031445959584576,"268":0.03694960232369028,"269":-0.06522084570424184,"270":0.01674830967425786,"271":-0.05760782513359708,"272":0.0392583284098283,"273":-0.1120728883043915,"274":0.05493356631876823,"275":0.03179957576737107,"276":0.049253170327316804,"277":-0.10899176760464248,"278":0.008241045711632306,"279":0.11731432671099519,"280":-0.023709276323511816,"281":-0.11995635104217608,"282":-0.07966046257324026,"283":-0.008470731586295594,"284":-0.11312473620291585,"285":-0.03013430006972639,"286":0.07954182195428695,"287":0.07913063447114305,"288":-0.03425549577313197,"289":-0.13673780069763625,"290":-0.04191882378332935,"291":-0.029929868325509295,"292":0.09020877317158614,"293":-0.12578004578853466,"294":0.014427064259047514,"295":0.10748485528012197,"296":0.11562122015878369,"297":-0.05118441893879918,"298":-0.07389297917972522,"299":-0.03912073764851365,"300":-0.10756952525702364,"301":-0.010446139190345954,"302":0.02683809069346825,"303":0.008060399340404091,"304":-0.061601230699204486,"305":-0.13011819625709742,"306":-0.03859368964092272,"307":0.04834058878165423,"308":0.07170715729709648,"309":0.03431429151856185,"310":0.07857332930444329,"311":0.01399404045424686,"312":-0.06425671709947654,"313":-0.0683875381890908,"314":0.01226840711341043,"315":-0.09321494441784853,"316":-0.03587475503811759,"317":-0.06382826452845618,"318":0.018042849390713288,"319":0.02373015282627094,"320":0.1358891469530645,"321":-0.1707059966241409,"322":0.07640267965276237,"323":0.05978710723206645,"324":0.02851204777237816,"325":-0.10690385382755528,"326":0.01957346815202785,"327":0.18251962790391998,"328":0.017533994903620318,"329":-0.11894465367015178,"330":-0.05782924789052166,"331":0.03667471687374809,"332":-0.01876509135183625,"333":-0.020859555550178776,"334":0.022812520559775732,"335":-0.054499291905044066,"336":-0.00149093520989353,"337":-0.1903292215706717,"338":0.009386606724597448,"339":-0.0017980697398010765,"340":0.03316757694157404,"341":-0.0648985034113568,"342":0.0206486293414247,"343":0.15496320507891234,"344":-0.07210509631706813,"345":-0.05346286154765676,"346":-0.13789869765848115,"347":0.03570694535510016,"348":-0.05330739205845413,"349":-0.04030313161524843,"350":0.036391993939993546,"351":-0.1329392745296725,"352":0.07108314514408856,"353":-0.032770900521925855,"354":0.07624611282494384,"355":-0.008134314288278823,"356":0.154300077029866,"357":-0.15066219205804143,"358":0.004920873896001416,"359":0.13097407486726245,"360":-0.014030429900021893,"361":-0.013412080004964425,"362":-0.03336330925454555,"363":-0.10150420723685138,"364":-0.09436217104021985,"365":-0.04864301927734684,"366":0.061347870789965696,"367":-0.02227839698993998,"368":-0.014801584199012159,"369":-0.09580219922899413,"370":-0.07494312754183924,"371":-0.016619376219646036,"372":-0.026178965757914462,"373":-0.07713604525768963,"374":0.028938724430558914,"375":0.018183092768063173,"376":-0.010498980308013557,"377":-0.1073923036394811,"378":-0.11190382108217378,"379":-0.10244451596800658,"380":-0.09604590568687711,"381":-0.010825280629869536,"382":0.0487602504114095,"383":-0.04238717241650099,"384":0.03853700371803442,"385":-0.05876018152283996,"386":-0.08940458443957598,"387":-0.023903047172218975,"388":0.04455878125432278,"389":-0.03342467167169432,"390":0.08791540100552576,"391":0.03903862554160159,"392":0.026710350600595407,"393":-0.08598275790536773,"394":-0.058529819492044145,"395":-0.041009514341805366,"396":0.02935976493443623,"397":-0.04388636193501594,"398":0.09166177008719069,"399":-0.011352055773342456}},{"sx":5,"sy":5,"depth":16,"w":{"0":0.032832237196471575,"1":0.032485986418826364,"2":0.022288101234108217,"3":0.08142517309338959,"4":-0.006302357526627176,"5":-0.026200341248278816,"6":0.005259696071270706,"7":0.025857128852673543,"8":0.02457304677778452,"9":0.02309360351100767,"10":-0.035884450462057293,"11":0.03251058595992913,"12":-0.006625430336093817,"13":0.048847246438307124,"14":-0.10096634519177433,"15":-0.03198587376857872,"16":0.11218800945902438,"17":0.0746900662726203,"18":0.11941365601361036,"19":0.10606660667849431,"20":-0.01975788445369659,"21":-0.13167293911840583,"22":-0.025861679901374758,"23":0.11063035647769666,"24":-0.01808228463688483,"25":-0.042457441339177754,"26":-0.04450213939888322,"27":0.123702707739504,"28":0.030989853406065613,"29":-0.07950591432237068,"30":-0.010722251687006317,"31":-0.04045003938941393,"32":0.06570297164340945,"33":0.07046998575854774,"34":-0.1304740110109913,"35":-0.007288284778316965,"36":-0.07825268810863331,"37":-0.06988743090457294,"38":0.02966021271760643,"39":0.12746062488599952,"40":-0.05967469640958476,"41":-0.04001354747720356,"42":-0.005304217017774241,"43":0.006476003583899566,"44":0.09889622649403186,"45":-0.024903366302938622,"46":-0.04766902602819262,"47":-0.023714236947715725,"48":0.007991832483609582,"49":-0.034217696943706265,"50":0.004740160332708865,"51":-0.00009069813348651959,"52":0.02189201788954623,"53":0.054480502212590536,"54":0.05666765553846766,"55":-0.0025797245198181926,"56":0.089157248572647,"57":0.0790730877427406,"58":-0.01944957030407075,"59":-0.045449705946798764,"60":0.045384434491838196,"61":0.08111971497798282,"62":-0.09403204476199584,"63":0.07774221798967586,"64":0.045151332380758157,"65":-0.06232340513082282,"66":-0.044742591639574315,"67":0.07010878183205148,"68":-0.017016423515164632,"69":-0.08573634902964256,"70":-0.06371296956308727,"71":0.012311953121726303,"72":-0.03416235759830264,"73":-0.0027484862266147136,"74":0.008177178536326001,"75":-0.08604376584148667,"76":-0.03401344371277132,"77":-0.04058288427747265,"78":0.0007669145981555477,"79":-0.00031672231221629955,"80":0.0006313548547786954,"81":0.06323662837104249,"82":-0.14101924741501157,"83":0.029174974356865613,"84":-0.13058288240935617,"85":0.1385313353803661,"86":0.020160288848696018,"87":-0.04185304100228526,"88":-0.12462689667830193,"89":0.03393629711465802,"90":-0.03333130903556778,"91":0.09111885336565931,"92":-0.018342828608850587,"93":0.16400683522035966,"94":-0.036202618471023025,"95":0.02254166569772571,"96":-0.04070861178580104,"97":0.12682084756231762,"98":0.022041089750875396,"99":0.054133946130789375,"100":-0.004269605092175802,"101":0.025439395925612843,"102":-0.07852556716162777,"103":0.07144145550211668,"104":-0.06807161946029408,"105":0.011867395565308523,"106":-0.030533966696225257,"107":0.08468458591451937,"108":0.11833069965030396,"109":-0.027344991012459317,"110":-0.08491244896132936,"111":0.012094739149136549,"112":-0.06388565278376072,"113":-0.010498871948660235,"114":0.04706646365054188,"115":0.04446396349856008,"116":-0.12674507436556595,"117":-0.043305424600186646,"118":-0.10033069559531399,"119":-0.006410880107283383,"120":0.047971653478823754,"121":-0.021316571175032103,"122":-0.024524271988431316,"123":-0.06965129147300775,"124":-0.04225173475772228,"125":0.058850079281080526,"126":-0.05450306965962427,"127":0.029888191936583295,"128":-0.029314603846780234,"129":-0.0702966685765626,"130":-0.023399654706123263,"131":-0.05942429603896397,"132":0.04937117543609562,"133":0.04475277684252793,"134":-0.02085516597601536,"135":0.004285757002347273,"136":-0.038768147385647704,"137":-0.0015172421830313648,"138":-0.06080956785480061,"139":-0.140180089278844,"140":0.01102230093685767,"141":-0.0083380194262325,"142":0.05923242975677381,"143":-0.0021531250335636042,"144":-0.10249771990660733,"145":-0.062331112965725154,"146":-0.09556397409320191,"147":-0.08270120069134061,"148":-0.003327952093351429,"149":0.05004056349988325,"150":-0.07474968221371656,"151":-0.0478595461161277,"152":-0.09093397947715594,"153":-0.09367774282772963,"154":-0.03824788266306537,"155":-0.043012157767054734,"156":0.028200103945477003,"157":0.007550365905593964,"158":-0.02268327470449368,"159":0.007930894256259344,"160":0.0015566858885915989,"161":0.014038839758809457,"162":0.03268941677131956,"163":-0.011543106353228144,"164":-0.2252269976682416,"165":0.015876041418818404,"166":-0.0148432225864661,"167":0.06380256631718326,"168":0.07387321257443814,"169":-0.024808203976285494,"170":-0.048448709081581484,"171":0.07575488113666502,"172":-0.010505827624757956,"173":-0.023276420401390552,"174":0.005008468967235936,"175":-0.000604835386303613,"176":0.1468433645099667,"177":-0.02363479357077264,"178":0.026127755576883658,"179":0.08066791587697904,"180":-0.03568430728540471,"181":-0.05808168732201622,"182":-0.04342626502319274,"183":-0.04618970444730853,"184":-0.0402839882173378,"185":-0.03806097255822276,"186":-0.022645733026241656,"187":0.04976683717478484,"188":-0.021620334698905168,"189":-0.09739022952077625,"190":-0.08569427264785448,"191":-0.012186272061314458,"192":0.10821516998795734,"193":-0.009831390523016582,"194":0.16834170462736445,"195":0.03371208299751803,"196":-0.054580700867971954,"197":0.07563662514660123,"198":-0.055216097916176654,"199":0.07893835633095456,"200":-0.0289509165224655,"201":0.029847634450104906,"202":0.05075248498574639,"203":0.0650166575005196,"204":-0.0006252707028397757,"205":-0.08027457425287819,"206":-0.06502691504840842,"207":-0.07398436596894485,"208":0.010056245384485128,"209":-0.06967437726385234,"210":0.015682881215379356,"211":-0.0628104559236268,"212":0.03787024138135696,"213":0.005925273264357011,"214":-0.03591217211057024,"215":0.06120557118896111,"216":0.021492902485709016,"217":0.037763269504496565,"218":-0.07537275727936722,"219":-0.029412083408332575,"220":-0.05936822425299102,"221":-0.07574349216002318,"222":0.07790554364900319,"223":-0.05217689582171232,"224":-0.037848315116912286,"225":-0.10536134027357519,"226":-0.023308796325708408,"227":-0.07712563088435104,"228":0.0644072345915162,"229":-0.02035178164708245,"230":0.006886081133986979,"231":-0.048288225902011886,"232":-0.03786447230856366,"233":0.012864223673246583,"234":0.0392854563893072,"235":-0.06318396580929835,"236":-0.011843065343657587,"237":-0.03490493181743562,"238":0.027200501168795722,"239":-0.04080757121048985,"240":0.05306210451330297,"241":0.02589606228754514,"242":0.06707183016387427,"243":0.07516769578444069,"244":0.00013433955195779788,"245":-0.025075776761683592,"246":-0.05248176212883296,"247":-0.06083862448104728,"248":-0.051195224997592784,"249":0.0009330022058460136,"250":-0.042871968806375206,"251":-0.01707471655753749,"252":-0.012231320687266714,"253":-0.08641375729066929,"254":0.024019651293092904,"255":-0.03549566313843673,"256":0.07244243057886089,"257":0.06281913439426948,"258":0.09727678698166814,"259":0.04365501786588266,"260":-0.09933113256391511,"261":-0.02219214167945015,"262":-0.1018317905467683,"263":-0.0041243065578199746,"264":0.00019680158906945473,"265":-0.1408006116497744,"266":-0.061754153916523336,"267":0.021773319768771154,"268":-0.029832687389559225,"269":-0.0572578318528873,"270":-0.015985329142947452,"271":-0.13770659974308763,"272":-0.05671456230305977,"273":-0.020083576038219638,"274":0.023255276996153203,"275":0.041325723911373353,"276":-0.011998048545060536,"277":0.01830850770030873,"278":0.03266179776667594,"279":0.15412215326022835,"280":-0.06826527277719106,"281":0.022989178915222296,"282":-0.05765870500079067,"283":0.09786417514748098,"284":0.04383356174657659,"285":-0.015573218132478585,"286":-0.03141223368163986,"287":-0.14695486057237117,"288":0.03336575194630383,"289":-0.0517582586359458,"290":-0.09888341445788298,"291":-0.08685110101197957,"292":-0.04977995931582928,"293":-0.005537297349178699,"294":-0.010850861759460066,"295":0.05158337037488454,"296":0.12020973224825285,"297":0.04172485863851788,"298":-0.14109668832207561,"299":0.03213163781097344,"300":-0.07530058749377797,"301":0.07494868660791376,"302":0.013859667354811893,"303":0.03087983179810277,"304":-0.04477333564443373,"305":-0.06634814352535374,"306":-0.013620073345538287,"307":-0.034181069844660954,"308":-0.03671129860315026,"309":-0.009810524259226532,"310":-0.012241060820689091,"311":0.038633802018670026,"312":0.019477297775998575,"313":-0.0513502615641343,"314":-0.044130785649433533,"315":-0.0767899893635382,"316":-0.11742041712406331,"317":0.0575154871675987,"318":-0.0014289874778374626,"319":-0.031084259132217795,"320":0.06422239559011249,"321":0.03424621904711633,"322":0.03682839846327195,"323":0.06846530975127091,"324":-0.01992943809845986,"325":0.0037872650322933557,"326":-0.023576795023585256,"327":-0.04419370270190932,"328":0.0028117321266526683,"329":-0.003509273694015281,"330":0.03215741541205685,"331":0.018228648766356593,"332":0.07263427376264017,"333":-0.03913581758562737,"334":-0.0010053552761879248,"335":-0.03384393428770146,"336":0.015587531934225289,"337":-0.021852097945746784,"338":-0.01676632679539384,"339":0.02675576716472949,"340":-0.06664821560386154,"341":-0.06331781221492003,"342":0.05948834084540533,"343":0.013767564113297388,"344":-0.03070154499541544,"345":-0.011592966135183885,"346":-0.04906122452258645,"347":0.024407002387952553,"348":0.026437053169927716,"349":-0.13361844423618255,"350":-0.012407137824479376,"351":-0.048029426186748825,"352":0.06701565127111017,"353":-0.03617295674661763,"354":0.13026566025058234,"355":0.009483391359154374,"356":-0.009311443408569459,"357":0.0007948988207293877,"358":0.07975081897920126,"359":0.07400239419529071,"360":-0.003235153657185526,"361":-0.04016804691761842,"362":0.039830716682084,"363":-0.06527232385214982,"364":0.05795017423814772,"365":0.02795405080530494,"366":-0.07625259468510778,"367":-0.059820452765160015,"368":-0.09848450378487913,"369":-0.01596889421524635,"370":-0.012907862465305077,"371":-0.03798595211008271,"372":0.037347973245206535,"373":0.08855781476078452,"374":0.016269564567340952,"375":0.03975765920621356,"376":-0.019817157319731164,"377":0.01755478085495318,"378":-0.003539988213105376,"379":0.06806553872022758,"380":-0.0016526332032718747,"381":0.06443670068867889,"382":-0.09308841038258826,"383":0.03960718339665281,"384":-0.14059105649278242,"385":-0.07760112678261558,"386":-0.028814596405583065,"387":-0.032922197227619666,"388":0.09824493278862076,"389":0.08238233969807192,"390":0.011385448153516551,"391":-0.10560630087431205,"392":-0.08043234507350239,"393":-0.07210894839197868,"394":-0.04089715278131797,"395":-0.12398237299857877,"396":-0.035280218549941525,"397":-0.032395597272402946,"398":-0.08775849596457001,"399":0.0361324028789373}},{"sx":5,"sy":5,"depth":16,"w":{"0":-0.031798567958250694,"1":-0.046938912611394816,"2":0.02254624622929357,"3":0.0032719185979035153,"4":0.06281197028693036,"5":-0.06454048572329707,"6":0.011155400326899542,"7":-0.04405811072736358,"8":0.078148377338208,"9":-0.06132327552504519,"10":-0.046536955657746716,"11":0.0028252019931254693,"12":-0.00781053018922856,"13":0.080899518954547,"14":0.008040426628662896,"15":0.028094444593097005,"16":0.007374556846527438,"17":-0.11026397482057135,"18":-0.020623452506087298,"19":-0.09110139907249443,"20":0.0437542088983487,"21":-0.0038185430736417947,"22":0.06368576866625456,"23":-0.015379988071608782,"24":-0.012755877822651931,"25":-0.11177025461134647,"26":-0.024170318139350846,"27":-0.09295130642247144,"28":-0.019773544780383605,"29":0.02535131689567647,"30":0.06623035782907684,"31":0.082184462881979,"32":-0.06343128165627201,"33":-0.18588720068584152,"34":-0.22214388730721596,"35":-0.09245609734349225,"36":0.09188016225226739,"37":-0.08401119593302658,"38":0.1271816040896299,"39":0.000025597920255911726,"40":0.026791062245802508,"41":-0.060449432178275496,"42":-0.09385156217920834,"43":-0.0035100874515150825,"44":-0.10966472305802168,"45":0.049736054022546786,"46":0.03376014525605248,"47":0.06477384536506507,"48":0.03355061457062215,"49":-0.08806395170391465,"50":0.010427788007751787,"51":-0.04014905884492506,"52":0.05230186133933898,"53":-0.15668877566134223,"54":0.06018139087469469,"55":0.057454155403674524,"56":-0.04335528159665469,"57":-0.12944267678498336,"58":-0.06330293782848607,"59":-0.007229207823439632,"60":-0.13928891146899983,"61":-0.017384109291673003,"62":0.02890472997313505,"63":0.024561323253463472,"64":0.09291710634080019,"65":-0.10425393579603724,"66":0.03235127168349588,"67":0.009483636753088673,"68":0.10588138089258116,"69":-0.08903736280701921,"70":0.09566328225441963,"71":0.04704798861045383,"72":0.1021468389816972,"73":-0.1807875121346411,"74":-0.1413324785732658,"75":0.009104062376456714,"76":-0.01862016114303861,"77":-0.08067686049397017,"78":0.012931769540540273,"79":0.01840652645864382,"80":0.0003380438838533875,"81":0.04947869043157714,"82":0.04981795420854746,"83":0.09545873335934436,"84":-0.018366396417409243,"85":-0.02234485460622394,"86":0.0034192991176431584,"87":0.06387403663137894,"88":0.03718643029108771,"89":0.08174408570594523,"90":-0.03242066969087727,"91":-0.07246944325563683,"92":0.016558410599648528,"93":0.013285617475335387,"94":-0.03553885528823255,"95":0.01145776990386163,"96":0.008462258055624589,"97":-0.07891352523020129,"98":0.07706963440076557,"99":-0.09619038081320869,"100":-0.004371093594368251,"101":0.025864109414266114,"102":0.09785696909198835,"103":-0.026191066633777807,"104":-0.038333198920040897,"105":0.07494911215877817,"106":-0.07755496605229746,"107":0.010314607046398801,"108":-0.1656167427716916,"109":0.010005117908874659,"110":0.024494166546409162,"111":0.027834350693646225,"112":-0.09108962664389454,"113":0.06059940450392113,"114":-0.041215319502433144,"115":-0.10991267956917836,"116":0.04897671325232675,"117":-0.04169830104640429,"118":0.07219761585536051,"119":-0.07183570267757049,"120":-0.006674783145242217,"121":-0.11685207217788511,"122":-0.0748496577217641,"123":-0.052866267354538816,"124":-0.2257992118016174,"125":-0.12307928998148165,"126":0.0013317699910138539,"127":0.07183436020816354,"128":-0.016163189095288896,"129":-0.016423373365144097,"130":-0.09455292466348288,"131":-0.10355705203010064,"132":-0.003442745754256921,"133":-0.06493295461173039,"134":0.07641681419858763,"135":-0.029172356125078326,"136":0.053517088480889916,"137":-0.09681987060492243,"138":-0.09686037472842515,"139":-0.030871413316185956,"140":-0.11609525648423182,"141":-0.07469616080138339,"142":0.05088825937355816,"143":-0.05613729830825676,"144":0.07953015549671008,"145":0.038098202255148324,"146":0.03509869337107892,"147":0.043036611135955895,"148":-0.022772280948778142,"149":-0.067421324996776,"150":0.018244439149691226,"151":0.14111663037939676,"152":-0.09260436862349888,"153":-0.08451314649013485,"154":-0.2188520671974356,"155":0.010377367106063963,"156":0.009506871870274528,"157":-0.030898185839942114,"158":0.053106376622540835,"159":-0.07917750354656872,"160":0.025812841075812304,"161":0.04862543256590698,"162":0.046314891523627194,"163":0.07139700937189386,"164":-0.09977536896556063,"165":-0.00790041587529327,"166":-0.04974461184032731,"167":0.03073532089052914,"168":0.161737257350842,"169":0.061481868217136006,"170":-0.0587054875750271,"171":0.07584305311984364,"172":-0.012624720026227663,"173":0.06288868309751375,"174":-0.04288320150857415,"175":0.003023113974669004,"176":-0.023906998605035427,"177":-0.10699623955002505,"178":-0.02185687705989485,"179":0.012666554901491904,"180":0.05351253282396061,"181":0.004364308024291516,"182":0.057103884785864624,"183":0.1874330438254389,"184":0.047700295481440204,"185":0.06078121894200197,"186":-0.06411679058915003,"187":-0.005147084593382315,"188":-0.05352546296583539,"189":0.031096817997453036,"190":-0.02384088503939721,"191":-0.04527271719498866,"192":-0.039509893396880935,"193":-0.043018817519591177,"194":-0.03734693840363537,"195":-0.1419205926059288,"196":0.10754976271230782,"197":-0.10944199799164503,"198":0.06742290092403996,"199":0.051434754390989774,"200":-0.02466667491493272,"201":-0.04622077854872772,"202":-0.012104803510172969,"203":0.028710148018971638,"204":-0.06781533560268235,"205":-0.1016199261332102,"206":0.024529962467025625,"207":0.10374384312373902,"208":-0.05970141770318025,"209":-0.12814033487578722,"210":-0.01589433995666145,"211":-0.06374439432928158,"212":0.04807343874440741,"213":0.03573511583987032,"214":-0.023114442451208222,"215":0.037652853483216744,"216":0.005115594485690945,"217":-0.0785807096370297,"218":-0.04050468910204257,"219":-0.06920002229530832,"220":-0.18557484981061476,"221":-0.030023324931935866,"222":-0.01866026448032041,"223":-0.042873599108301616,"224":0.05659863011805187,"225":-0.05437391976578446,"226":0.03437336034936938,"227":0.04551217885971202,"228":0.02810459832051245,"229":-0.05189493200213451,"230":0.07908802046372267,"231":0.1045724517282109,"232":-0.12150171611631476,"233":-0.08097974985383392,"234":-0.07833338319232418,"235":0.1147576198889916,"236":-0.08140091455401628,"237":-0.07798749609692605,"238":0.08793965201280801,"239":-0.023676248157619182,"240":0.06168811107897663,"241":0.020048581288943813,"242":0.06287717191048539,"243":0.030109063643944133,"244":-0.042001476676181995,"245":0.05551750954819168,"246":0.011256613965352864,"247":0.09823813704657518,"248":0.0012933626473816274,"249":0.027362258326924325,"250":-0.05366647507451388,"251":0.04256753146766155,"252":-0.009749759691285454,"253":0.0864730714919334,"254":0.05592736178930801,"255":0.010878406141303294,"256":0.08457873020089997,"257":0.008958122673295984,"258":-0.01590519421063971,"259":0.03978685657179866,"260":0.04429551591627787,"261":-0.06059495540546485,"262":0.07120524843440111,"263":0.0658099926679344,"264":0.028605689315964033,"265":0.01161920816170605,"266":-0.07968029176521588,"267":0.014281653411917875,"268":-0.05834875622529554,"269":0.06201328391469846,"270":0.041517806525611795,"271":-0.12846515123041535,"272":0.035662382748880964,"273":0.051824348273738226,"274":-0.01877500730088788,"275":-0.12988358305701073,"276":0.08955389914020986,"277":-0.011867335050659041,"278":0.11391215108912518,"279":0.07314125304011493,"280":0.0038281912078540754,"281":-0.007676796809933063,"282":0.004641851962703359,"283":0.013365573314216318,"284":-0.07059371380958274,"285":-0.209457338020123,"286":0.03099906648378638,"287":-0.0036797425034402,"288":0.10408299883382059,"289":0.045381630823887464,"290":0.038819150937913015,"291":-0.029593249718684055,"292":-0.054402288379602266,"293":-0.10726203682856622,"294":0.006886535888840885,"295":0.1326616013231984,"296":-0.04339674294978807,"297":-0.04828513707121975,"298":-0.045796367209239006,"299":0.04803602757157696,"300":-0.1678209231237354,"301":-0.11732183540217891,"302":-0.0004278359716667982,"303":-0.0246955462034949,"304":0.06982409531423824,"305":0.012171733116272697,"306":0.010825058831903196,"307":-0.019995900956283157,"308":0.09320027301652832,"309":-0.11222574815926512,"310":0.007288558435830243,"311":0.09591498926399077,"312":-0.06723223242568611,"313":-0.013915515594286764,"314":-0.1472175723416307,"315":0.07801168818217367,"316":-0.030788326797612394,"317":-0.1976749727146708,"318":0.11733315755523896,"319":-0.07595411950352006,"320":0.1549349298330964,"321":0.06346087423675797,"322":0.04541025879713908,"323":0.2460880316818008,"324":0.021405132485161373,"325":0.030531529411465808,"326":0.05561940227514684,"327":0.10081593740661328,"328":0.04600686342121551,"329":0.12191439225321067,"330":-0.05423112643800552,"331":0.09988412127326306,"332":0.00012418399421221184,"333":0.03242436689616163,"334":-0.0485474823564553,"335":-0.10079024156195,"336":0.10616137499032614,"337":-0.046213204791772884,"338":0.11784679675080653,"339":0.07912956674005367,"340":-0.02404702220679827,"341":0.01614820039543955,"342":0.06626698197025813,"343":0.09316378092323056,"344":0.03783853381130742,"345":0.09859585273835068,"346":0.05657147557242472,"347":-0.037913153300459225,"348":-0.06420340315866631,"349":-0.06812106027799426,"350":0.05935957708094728,"351":-0.09948630470567936,"352":0.1278830750534961,"353":-0.0017521007039998581,"354":-0.004266938406456919,"355":0.07557595074721049,"356":0.09253248376677049,"357":0.040820334602833526,"358":0.04584617321409395,"359":0.10150097811455581,"360":-0.013913320574574358,"361":0.015166600573120302,"362":-0.029982480438212767,"363":0.05980921812142346,"364":-0.07082991882997605,"365":-0.03679547405497792,"366":0.14457860161997907,"367":0.04691570212670097,"368":0.01837209135484217,"369":0.08029928680294733,"370":0.10915281022680952,"371":-0.028029947233115325,"372":0.15611300534750913,"373":0.031861489335825034,"374":0.05041388449223583,"375":0.07379612035172656,"376":-0.08546766186264146,"377":-0.0025772447867440772,"378":0.004975130226415778,"379":0.05734499454064345,"380":-0.048385286033758565,"381":-0.0357800288173184,"382":0.01374220714013079,"383":-0.1950938870721932,"384":0.10758302108240762,"385":-0.008605278696011907,"386":0.08379168089268982,"387":0.025527561637430644,"388":0.057142135821921916,"389":0.04199219596783872,"390":0.09085329285036182,"391":0.13459493332186492,"392":-0.046866784342018616,"393":-0.039161151010442874,"394":-0.0809617219189338,"395":0.11014929403071311,"396":-0.02566090042078445,"397":-0.04404796196914473,"398":0.07406246813571658,"399":0.013046377853563667}},{"sx":5,"sy":5,"depth":16,"w":{"0":0.044979446484785836,"1":0.041518816575242944,"2":-0.026443365841607346,"3":0.04525530018849274,"4":-0.1525197884597258,"5":0.03503107085505029,"6":-0.0543106285311662,"7":-0.10137938822858253,"8":0.029543168874172045,"9":0.050489821686326194,"10":0.08494663761529436,"11":0.06977047435042465,"12":0.14276419615009514,"13":0.08166132922126233,"14":-0.0730146186711577,"15":0.0008510963739959029,"16":0.02482300268221971,"17":0.06903360766413193,"18":0.12440871584858429,"19":0.21806828613373638,"20":-0.1480263519936255,"21":0.03800551461248688,"22":-0.28038540927466565,"23":0.022771651297765108,"24":0.0908512372548654,"25":0.007797563708185227,"26":0.002648040513257752,"27":0.1201394878329985,"28":0.032881721369755895,"29":0.014662715162527125,"30":-0.03460156591723021,"31":0.028636873111040646,"32":0.09969365890541561,"33":0.0005378937437966869,"34":0.039678155793040785,"35":0.0820210896226451,"36":-0.1965309280911328,"37":0.07235364988638712,"38":-0.153228687266527,"39":0.03688930611692423,"40":-0.053478233335521,"41":0.019769353328705334,"42":0.05438153088750383,"43":0.11246768252730682,"44":0.10427400011245935,"45":0.03950470653808411,"46":-0.11685429951942235,"47":-0.029702437731720793,"48":0.08146646367189385,"49":-0.06535983709750362,"50":0.1329753475038688,"51":-0.012734870403905052,"52":-0.06488129537092108,"53":0.08299662582028317,"54":-0.11931843023972898,"55":-0.04204301624093717,"56":-0.0827073055731768,"57":0.044654452266017,"58":-0.008207124544559062,"59":0.07227876059329362,"60":0.047990192277572244,"61":-0.0746279362469475,"62":-0.07092226769642773,"63":0.007881975365760704,"64":0.0027865314815752984,"65":0.04143146847793219,"66":0.08708559614855237,"67":0.11341718910162744,"68":-0.22758884941529675,"69":-0.010744527026003342,"70":-0.2067894450781106,"71":0.04710639502775748,"72":-0.032395453507929016,"73":0.03102889069175766,"74":-0.022402931328705748,"75":0.0549621543731892,"76":0.028646328737879645,"77":-0.07764354651676997,"78":-0.04044638377053544,"79":-0.05988094566303411,"80":0.013122133622516713,"81":-0.01161015934095986,"82":0.11691393281345099,"83":0.100207847818266,"84":-0.13506158231395315,"85":0.19473709607489376,"86":-0.14809728055037505,"87":-0.021024325096680185,"88":-0.05431194994506703,"89":0.083418110274928,"90":0.10302838432408139,"91":0.1590654919263155,"92":0.10479559940123218,"93":-0.002515760436992038,"94":-0.04420069191318289,"95":0.042483609243021705,"96":0.07296544988317247,"97":-0.011123597386149129,"98":0.030237869365900862,"99":0.1301787607832004,"100":-0.08350107520782596,"101":0.13337688771774167,"102":-0.24330595570114769,"103":-0.04585067222140969,"104":0.10757800353068649,"105":0.05800553044292738,"106":-0.0013271099705898543,"107":0.058271729191709636,"108":0.0037754969244662207,"109":0.03799956196527288,"110":-0.14877619135867703,"111":-0.04481863524299979,"112":0.09887419371495959,"113":0.021917064943175857,"114":0.10609346441749473,"115":0.10583247732943428,"116":-0.21073165463440077,"117":0.060372328940940224,"118":-0.14898792210199419,"119":0.08277276748813622,"120":-0.012724496437984649,"121":0.07913555242122747,"122":0.08374508586959718,"123":0.004516726390471812,"124":-0.028838804373093666,"125":-0.0299645737819641,"126":-0.000042524633040694796,"127":-0.01875643646631076,"128":-0.07396960518697497,"129":0.03277797801059824,"130":0.012207401232590846,"131":0.05105912178593849,"132":-0.1429880327029317,"133":-0.0014551221821641658,"134":-0.1717967272133184,"135":-0.0835732717098209,"136":0.050340847423916736,"137":-0.014499966240829694,"138":0.12451802912477752,"139":0.050027242114733625,"140":0.05161144959297342,"141":0.06779665768655865,"142":-0.040869414138440446,"143":-0.04405690359201419,"144":0.06433353524534009,"145":-0.00011880530344389126,"146":0.06851802157666587,"147":0.02916796052582488,"148":-0.1282511850689836,"149":-0.05743458351515101,"150":-0.13103224191056106,"151":-0.023386726848063706,"152":0.10135003081890144,"153":-0.0074794141461386725,"154":0.08297252949742853,"155":0.07662268875098512,"156":0.06338736185486157,"157":-0.027141704117685385,"158":-0.13142642042421604,"159":0.05494571698213863,"160":0.039383505817986775,"161":0.0411845794900646,"162":0.14328510219413548,"163":0.0924781985492779,"164":-0.16250534317750923,"165":0.08170182745775556,"166":-0.10396774475499432,"167":-0.08387301485401875,"168":0.015591064283738071,"169":0.10848557059798367,"170":0.012226799274566512,"171":0.1254487865836375,"172":0.06530195133379253,"173":0.09515906785787212,"174":-0.09738013744780637,"175":-0.09711910456520986,"176":0.08861991924802834,"177":0.09485914709908759,"178":0.22335303933744338,"179":0.06758133621611674,"180":-0.14885935605329656,"181":0.08080514603038809,"182":-0.16686450196673314,"183":-0.011391517684822747,"184":-0.009822686572580215,"185":0.06911041727710435,"186":-0.009815691967672357,"187":0.08079142923658295,"188":0.07406721284950978,"189":0.01561287970293622,"190":-0.025370822206382034,"191":-0.21830972724477865,"192":0.02812204077215276,"193":0.0059405480395666324,"194":0.13122864721758198,"195":0.01118234567768015,"196":-0.2923791103493586,"197":0.009633301471980056,"198":-0.1522735490855611,"199":0.04556110367224409,"200":0.03367200310227442,"201":0.01127957740520051,"202":0.1191742450322222,"203":0.14466039437947184,"204":0.050961662217244304,"205":0.022850503955772702,"206":0.028478001073019826,"207":-0.1037429620944446,"208":-0.00011403937826681045,"209":0.03976219948527429,"210":0.03626311725160893,"211":-0.015484057149692277,"212":-0.18006721954600766,"213":0.05135046188084434,"214":-0.22150849367130876,"215":0.04749598995518699,"216":-0.04865430877094548,"217":-0.07091407360669459,"218":-0.005148104587081632,"219":0.016606968980559886,"220":0.02451111144955675,"221":-0.028684709640137973,"222":-0.04928252876479705,"223":-0.08112389922566907,"224":-0.07009974412330437,"225":0.004162034410722154,"226":0.01351207115154703,"227":0.11390903349082972,"228":-0.22282110600490654,"229":0.029892302172165198,"230":-0.0829755468694538,"231":-0.0684091873182695,"232":0.007702676310932484,"233":0.01920867322987891,"234":0.03640048267547196,"235":0.05343455660555973,"236":0.007741696723353516,"237":0.0440830418247571,"238":-0.06716190668901219,"239":-0.009311121989820478,"240":-0.04156403579889406,"241":0.07109194692864675,"242":0.011341527147629699,"243":0.006708541253214878,"244":-0.16013533801810365,"245":0.07556079493789078,"246":-0.09717696969431698,"247":0.0024670302450596716,"248":-0.02819001466022859,"249":0.16898053464031176,"250":-0.005301764882704096,"251":0.11743612302936483,"252":-0.02173559581979064,"253":0.11725471278798053,"254":-0.17115522849664946,"255":-0.00986710210365218,"256":0.08572923223777874,"257":-0.021343048356404423,"258":0.04284925149476171,"259":0.12251917274939328,"260":-0.09785139103426048,"261":0.11414906318418698,"262":-0.09934726817472211,"263":-0.06323195948209186,"264":-0.020519601288417746,"265":0.07982326178587952,"266":0.05780970220919573,"267":0.04272497295889086,"268":0.09373466006337346,"269":-0.012805939108411163,"270":-0.09055450597050425,"271":0.03497178904926606,"272":-0.033148354590479705,"273":0.03755615971750838,"274":0.02933316284174665,"275":0.04250672850832789,"276":-0.06541008012905268,"277":0.0211725335999312,"278":-0.1797458682220378,"279":-0.15781619050794646,"280":0.08003109457707054,"281":0.07718786044755928,"282":0.06037294218583507,"283":0.08943941995981738,"284":0.11009079014943911,"285":0.004378129189648433,"286":-0.058027410768857694,"287":0.0419606374274502,"288":0.024829689980749185,"289":0.07164067423437954,"290":-0.09602183457371036,"291":0.06851843999053707,"292":-0.12959596984028324,"293":-0.04430328454041095,"294":-0.12930917987022825,"295":-0.1769907720325872,"296":-0.027123214676979503,"297":-0.003429156714546348,"298":0.08092751673655486,"299":-0.03586453234576715,"300":0.06768900855344992,"301":0.007901873771107137,"302":-0.02565650606904576,"303":-0.023244180845951035,"304":-0.04125120092698437,"305":0.00847292686660527,"306":0.010569071715958287,"307":-0.020482832245189497,"308":-0.21495555257856114,"309":0.08659266602802951,"310":-0.09725243346979684,"311":-0.15357747919745898,"312":-0.07312759188855146,"313":0.09264049071361274,"314":0.015982614313619574,"315":-0.08109916593214593,"316":0.038424269005876546,"317":0.10049029990684898,"318":-0.16423485847001096,"319":-0.07250348035725465,"320":-0.08022881454860577,"321":-0.06512564775935473,"322":0.02309820881623828,"323":-0.01941679712511191,"324":-0.02513835191573638,"325":0.07111654172925941,"326":-0.10496443223053847,"327":-0.039676015080156266,"328":0.04538445161646817,"329":0.005679777698423227,"330":0.11597615284511796,"331":-0.0907581714872385,"332":0.012980913623515902,"333":-0.04598290980331524,"334":-0.04037791603192899,"335":0.03555298765324499,"336":0.02922462474343698,"337":-0.07297707421357592,"338":0.022307634294431503,"339":0.035437478638707894,"340":-0.1405756517174777,"341":-0.055047090021905436,"342":-0.02738371402430425,"343":-0.030905126714637948,"344":0.019162624823428794,"345":0.005379642949093203,"346":0.10819666715459436,"347":-0.07071304592964349,"348":0.02173696620389686,"349":0.02204618913459989,"350":-0.00021390373559674553,"351":0.07811455156105397,"352":-0.050740558561884225,"353":0.02318021668310438,"354":0.031824605568062526,"355":0.006336104071155453,"356":-0.11779612624773825,"357":0.06534298001392183,"358":-0.1688986392091757,"359":-0.04623060451820125,"360":-0.02466651173634065,"361":0.08532063251499097,"362":0.03079820964313904,"363":0.06860423829785273,"364":0.056785932891801255,"365":0.024813161985823014,"366":-0.027647414793162427,"367":0.06467756921776728,"368":-0.10310880523675593,"369":0.10514367384237505,"370":0.01832793179655715,"371":-0.09812381162377799,"372":-0.09687737667558305,"373":-0.09490949761917716,"374":-0.18093951460993501,"375":-0.024730954557165993,"376":-0.03891362825554184,"377":-0.06561179209443392,"378":-0.025413131941941038,"379":-0.043051352433712005,"380":-0.11623752060599193,"381":0.004205112822599334,"382":-0.07967849662473689,"383":0.06715098678466684,"384":-0.08622965389627721,"385":0.013589672261054626,"386":-0.008607091299084685,"387":-0.06255171190117305,"388":-0.0867455916373448,"389":0.05678335164770208,"390":-0.14766632546131706,"391":-0.1424876814514921,"392":0.05623674506555006,"393":0.04392464567584241,"394":0.12278315075645271,"395":-0.023843230628943737,"396":-0.031685300622227956,"397":-0.03664170542817003,"398":-0.002277708273351575,"399":0.08531985476346222}},{"sx":5,"sy":5,"depth":16,"w":{"0":-0.03226819243122111,"1":-0.01595624034836356,"2":-0.021481987599078767,"3":-0.07418783825742586,"4":0.011987220161297833,"5":0.040877344373542415,"6":0.09365147074796591,"7":0.040001046409542274,"8":-0.06298430931851737,"9":-0.06549362247515271,"10":0.01610301576660874,"11":0.005375353473333914,"12":0.014778566794458072,"13":-0.06141235787019958,"14":0.05880770770812147,"15":0.055768327099744365,"16":-0.010539668711051242,"17":0.044803471400479244,"18":-0.03579249358120983,"19":0.014123210759520187,"20":-0.003622379944003512,"21":-0.025869344455565706,"22":-0.0948432779755304,"23":-0.00048737822365141814,"24":-0.05882818410160066,"25":-0.039746026847550534,"26":-0.011025566594178873,"27":-0.05666382221468037,"28":0.043327166532554855,"29":-0.015476428786897718,"30":-0.03376679272663283,"31":0.006851511722494837,"32":-0.04873765532249025,"33":-0.02288522783971863,"34":0.04345980921478645,"35":0.06308569145716351,"36":-0.0033097970577122982,"37":-0.01585764812108047,"38":-0.03594432382092793,"39":0.020075166209084047,"40":-0.011956094112495421,"41":-0.02491149536796173,"42":-0.03716248565939562,"43":-0.036069168174692544,"44":-0.0036213779567519943,"45":0.04574765558081239,"46":-0.02905274592243753,"47":0.05848603720663648,"48":-0.010687797800468253,"49":-0.07801249129714712,"50":0.06340196507341034,"51":0.056811906803627917,"52":-0.061520475230541445,"53":-0.05953334858205201,"54":-0.057853771443525506,"55":-0.05151848924692384,"56":-0.03404476943354858,"57":-0.13017863242174207,"58":-0.02192549926240265,"59":0.06829961458005743,"60":0.005676441956773844,"61":0.006739973000356923,"62":-0.021920633042861393,"63":-0.09300221656076572,"64":0.05386540435634232,"65":0.011761286620019091,"66":-0.028380712552917416,"67":0.01537324282921179,"68":-0.012366724607333774,"69":-0.06096991600009174,"70":-0.015237397656692115,"71":-0.10327412591141205,"72":-0.02962097583872442,"73":0.061013511038200324,"74":-0.03851141926013099,"75":-0.016760966168332333,"76":0.017822320852277123,"77":-0.13726948158835414,"78":0.0050510988649563205,"79":0.004494733519453191,"80":-0.04330485319126229,"81":0.01910330374027428,"82":-0.027045997547874415,"83":0.015216733774695268,"84":0.0021108751129456636,"85":-0.004480085678839795,"86":0.0938951641027291,"87":-0.06927857741765402,"88":0.0002452160136786587,"89":-0.027189007051011634,"90":-0.10416774569258849,"91":-0.010910718778127715,"92":-0.02992035981742677,"93":-0.1323923114792165,"94":0.04892198557267327,"95":0.010291380630430587,"96":0.025867286766692428,"97":0.0023852374209341436,"98":0.02628526127737576,"99":0.08465362321590077,"100":-0.035235539475805974,"101":0.10570532484889146,"102":-0.17232432532850578,"103":0.028849887220959727,"104":0.07967819170455807,"105":0.02752699464583107,"106":-0.04172695370950934,"107":-0.036917006388931764,"108":0.02315037341554461,"109":-0.0006918742129621178,"110":0.0025855894260972357,"111":0.02763536359124402,"112":-0.006752511730495068,"113":-0.0903887075032311,"114":0.036072180623493634,"115":-0.00595971327917502,"116":-0.0225529412441586,"117":0.021274194431819764,"118":0.021282438654961437,"119":-0.07101641988083864,"120":0.0020056558740962622,"121":0.10142133547092702,"122":0.009531051613837434,"123":0.02368616764284343,"124":0.04459631024247758,"125":0.03584795068359895,"126":0.025910047576369874,"127":-0.06499623566242647,"128":0.034777002053019083,"129":-0.08156849405529061,"130":0.013367877891266514,"131":-0.12104523028249622,"132":0.018094289937791157,"133":0.025105255209520266,"134":-0.06635890703287692,"135":0.012298128428424652,"136":-0.04083558530532118,"137":-0.04175706080334919,"138":-0.05894304614654149,"139":-0.02696792779326423,"140":-0.04242993109496979,"141":-0.09540006091005153,"142":-0.018632640023046983,"143":0.0809728684125143,"144":0.016590819337649738,"145":-0.043456800988775524,"146":0.052385844444793425,"147":0.0023941963886069486,"148":0.040545451855152584,"149":0.007995386291934248,"150":-0.015092781702427898,"151":-0.16376282426822775,"152":-0.1468625435633693,"153":-0.055347834828659674,"154":-0.08388128635428012,