{"layers":[{"out_depth":3,"out_sx":32,"out_sy":64,"layer_type":"input"},{"sx":5,"sy":5,"stride":1,"in_depth":3,"out_depth":16,"out_sx":32,"out_sy":64,"layer_type":"conv","l1_decay_mul":0,"l2_decay_mul":1,"pad":2,"filters":[{"sx":5,"sy":5,"depth":3,"w":{"0":-0.2041170881965482,"1":-0.0913117839781199,"2":-0.11980740666426723,"3":-0.02253097023408883,"4":-0.17367287365141212,"5":-0.028184090556908598,"6":-0.015472634811935195,"7":-0.3437968523494664,"8":0.06209631570536556,"9":0.06738638342986608,"10":0.11476627197853453,"11":0.06810247419930997,"12":-0.14786290376752054,"13":0.09683099014772338,"14":0.052538357826272586,"15":0.021058744635087008,"16":-0.1200652818497716,"17":0.20869742223042406,"18":-0.0679236061471542,"19":0.10984469291602299,"20":0.22391236554499697,"21":-0.08669270957792274,"22":-0.05971554449933161,"23":0.09976291422623204,"24":0.019873201439233816,"25":-0.03134529143711665,"26":0.1133498667846219,"27":-0.20837663951159413,"28":-0.005612824036880559,"29":-0.19960924738605715,"30":-0.06290115233104385,"31":-0.014694810312498018,"32":0.2284294007060382,"33":-0.1363762392702461,"34":-0.02336663249042406,"35":0.2181634079871941,"36":-0.06684597776755108,"37":0.06209515580927041,"38":-0.002517935737028919,"39":-0.046652354500864385,"40":0.10889157510656552,"41":0.16386467000598942,"42":0.01840764263723935,"43":0.0559195561366275,"44":0.04742279486248157,"45":-0.055773946764901994,"46":0.1428853743348663,"47":0.004338605811680061,"48":0.035150177335877865,"49":0.012967995622293312,"50":-0.0027356715366508295,"51":-0.08796649579968774,"52":-0.019019397810763398,"53":0.1081944849904659,"54":-0.19937488345454107,"55":0.06612732631362284,"56":0.17623711893145588,"57":-0.1374297515946463,"58":0.06068991158061201,"59":0.09595085980199677,"60":-0.18644723071370842,"61":0.04624758450245681,"62":0.1936559568942999,"63":0.05873449043064115,"64":0.20125117173293416,"65":-0.10319517579454072,"66":-0.028845055498277147,"67":-0.07256018931339861,"68":0.09479935835014966,"69":0.16024594406754547,"70":-0.06207518050587343,"71":0.1663293025911065,"72":-0.19563842222527553,"73":0.051586601569805476,"74":0.331750373311799}},{"sx":5,"sy":5,"depth":3,"w":{"0":0.13798927042509196,"1":-0.11576400932059026,"2":0.024707617394857315,"3":0.12129629782062555,"4":-0.022193618478911374,"5":0.3341178453761812,"6":0.08440874114515631,"7":0.0832842091535912,"8":-0.1537166810674711,"9":0.1072489944860577,"10":-0.006265727856061305,"11":0.32355620168279714,"12":-0.04918325440339502,"13":0.04039942989301797,"14":-0.11237231269638541,"15":0.1265186339860618,"16":0.19850225453187098,"17":0.08484055919280453,"18":0.14807981801212342,"19":0.07401497483048208,"20":-0.18383814350501795,"21":-0.16114181680708956,"22":0.07095410834200697,"23":0.1186102351349617,"24":0.135597387912916,"25":0.07879104472758092,"26":-0.07522266423397005,"27":0.18672323355087725,"28":-0.009251035292724044,"29":-0.05845195359833312,"30":0.2113105559340463,"31":0.07729150078049325,"32":-0.027801048252603665,"33":-0.06921654606512968,"34":0.2657026652220693,"35":0.10810472368835834,"36":-0.03890878583839651,"37":-0.08109624098877137,"38":-0.06743929695362558,"39":0.21732315291494214,"40":-0.06703531179993012,"41":0.11548309325988002,"42":0.1739044500472622,"43":0.10820280266575633,"44":0.07186671546893535,"45":-0.11634418658038145,"46":0.056391746307875176,"47":-0.20407216785674767,"48":-0.02559858703978287,"49":0.018448802629356286,"50":0.01641069773315938,"51":-0.013732114654381974,"52":-0.09164820100112873,"53":-0.137114783918944,"54":0.011607724682298377,"55":-0.11075337433046753,"56":-0.021940863833588897,"57":-0.06668679610321929,"58":-0.1416004385694352,"59":0.02864835850219019,"60":0.11120523848639191,"61":0.07901522510486779,"62":-0.0946378887382777,"63":0.1902021821184899,"64":-0.003539985631936076,"65":-0.11278661675033054,"66":0.10347625265915739,"67":-0.16598802699644513,"68":0.06296755415590086,"69":0.025180052322952416,"70":0.05598388455342006,"71":-0.13746002677346322,"72":0.22022620363449438,"73":0.050094995358488485,"74":0.06687225292687048}},{"sx":5,"sy":5,"depth":3,"w":{"0":-0.06522289146777184,"1":-0.011786481354138106,"2":0.01526664385509852,"3":-0.15180292624245098,"4":-0.12333011214080393,"5":0.04221520398252798,"6":0.22547183139160645,"7":-0.07591424403309328,"8":-0.24520165650563117,"9":0.05568012394318402,"10":-0.2061922208451373,"11":-0.10652510488031576,"12":-0.09613311036749293,"13":-0.035342232295936624,"14":-0.05981302870861649,"15":-0.01533567158333494,"16":0.005558123274856958,"17":0.20282137060346078,"18":-0.07511948928743753,"19":-0.15560057486234327,"20":-0.009920548432961182,"21":0.045332474900561734,"22":-0.16529783661952405,"23":-0.029489582457798844,"24":-0.07478795578308764,"25":0.017623425267316275,"26":0.050417160295508204,"27":0.07783922694410733,"28":0.07065061139374187,"29":-0.10460652685084296,"30":0.19627089693299077,"31":0.03231873732355695,"32":-0.019214192619631393,"33":0.0574250833604473,"34":-0.18609842556387102,"35":0.03709582739470678,"36":-0.021928413302533013,"37":-0.1040209883704739,"38":-0.11397708411381777,"39":-0.05375579720181397,"40":0.08605270099798892,"41":-0.041326011094229675,"42":-0.25922455524693994,"43":0.03895446426893824,"44":-0.01812201944333147,"45":0.2761414122657703,"46":0.15410140911502127,"47":0.15965775919654746,"48":0.011011408567100865,"49":0.1721336366312301,"50":0.10105766125527035,"51":-0.03872988390476197,"52":-0.07101230183818279,"53":-0.09787170736065991,"54":0.010141722425745271,"55":0.23695264287480847,"56":0.023676680271677464,"57":-0.1289089039999014,"58":-0.07856672000886729,"59":-0.059821423378755866,"60":0.026252603061985944,"61":0.17700861132324655,"62":0.2119935544985543,"63":0.17507799077398656,"64":0.15284569395983655,"65":0.10211663268738129,"66":0.0681821861323302,"67":-0.09604443656126307,"68":0.07313157749360827,"69":-0.022816374051965196,"70":0.18078765832712757,"71":0.07879328769627009,"72":-0.0575908308047391,"73":0.07234856293897311,"74":-0.10549326173946787}},{"sx":5,"sy":5,"depth":3,"w":{"0":0.13307649644236674,"1":0.02497568025716568,"2":0.06780983913694133,"3":0.15645586165534386,"4":0.1318730855281345,"5":0.15631097377474182,"6":0.09126441562611334,"7":0.05879097553828888,"8":0.24699696280713726,"9":0.14479073218669866,"10":0.10849456341483178,"11":0.32525521636974364,"12":0.16575052980263716,"13":-0.05144263698593979,"14":0.18560247898723814,"15":0.05534423721031399,"16":-0.030051020839003895,"17":0.22180703723347606,"18":0.09543175555483988,"19":0.14264349015318795,"20":0.20674254401167022,"21":0.14754921043273192,"22":-0.2796688873820823,"23":0.11681968750942218,"24":0.025722434402537655,"25":-0.13770612718373448,"26":-0.010562443903242586,"27":-0.019087171342330393,"28":0.3771366783186122,"29":0.07976185202805307,"30":0.101937943557533,"31":-0.20731521788083634,"32":-0.12714436561583686,"33":0.16634578174730844,"34":0.12453774044286288,"35":-0.09652449051175295,"36":0.028384868303621164,"37":-0.0658389656874172,"38":0.16157955929593595,"39":0.03732206321644374,"40":-0.13681416470821517,"41":0.012728774387241985,"42":0.2731714156566484,"43":-0.1349440831896552,"44":0.05868119755185121,"45":0.012294512575343586,"46":0.07147111361667262,"47":-0.15050349466307725,"48":0.0893780117703261,"49":-0.07502181819996395,"50":0.0008494333019655664,"51":0.23915310192242667,"52":0.06522253399809809,"53":-0.05321589967127608,"54":-0.0789100930993962,"55":-0.11863076501624456,"56":-0.22054222827491007,"57":-0.06408473712450757,"58":-0.009714889539956018,"59":0.04147996525338461,"60":0.20658556546312637,"61":0.1678957203654664,"62":-0.10631185791647146,"63":0.11602261979042368,"64":-0.10245984061066621,"65":-0.17083511383512592,"66":0.14534137376240477,"67":-0.06781823614531399,"68":-0.021588884464678028,"69":0.14405682902172884,"70":-0.1360349199869153,"71":-0.11126720737798668,"72":0.23179750615200553,"73":-0.14775149806576496,"74":-0.009122305082366593}},{"sx":5,"sy":5,"depth":3,"w":{"0":0.2297701508386699,"1":-0.1230444499079222,"2":-0.14874842607531044,"3":0.30707067357316575,"4":0.13342422621420702,"5":0.03587823554505576,"6":0.08810689356089245,"7":-0.032555887072845555,"8":0.15070752566874168,"9":0.16383601625152586,"10":-0.0343665041081905,"11":0.1472833371165285,"12":0.031140770634168473,"13":-0.04326071065678567,"14":-0.08931235823912834,"15":-0.17346351496733517,"16":0.03858901072579696,"17":0.05167944802613353,"18":0.18589702453340348,"19":0.05927844678903135,"20":-0.12967838413609697,"21":0.1590712521655379,"22":-0.1515431752928391,"23":-0.06076159685295098,"24":-0.032414111177076224,"25":0.2323753773969863,"26":-0.013449832432628065,"27":0.14400434869805775,"28":-0.040377529602537925,"29":0.06997086122207044,"30":0.3856287425490066,"31":0.08817230432201438,"32":-0.18467845961621224,"33":0.1809279361904222,"34":-0.0685039427741651,"35":0.02006005144561851,"36":0.17451482201002386,"37":-0.07949336847494468,"38":-0.048411750887675034,"39":0.13244348394000055,"40":-0.09354245347500324,"41":0.03638959309487163,"42":0.021027440850215472,"43":0.06085451060959865,"44":-0.017748701492723853,"45":0.07671916235050799,"46":0.07928268495641483,"47":0.05315651724465334,"48":0.044500336115501214,"49":0.3155795317366418,"50":-0.11177517436429432,"51":0.05780278743948145,"52":-0.05871331669168623,"53":0.12452559253808766,"54":0.015130632463058279,"55":-0.002179563616401656,"56":-0.09731931149726,"57":0.06778182506014528,"58":0.014357235648804282,"59":-0.043460748511017916,"60":0.24977815482676147,"61":-0.09929172471053235,"62":0.13530553485551616,"63":-0.04023147343852976,"64":0.09966851322484845,"65":-0.09455457173298978,"66":0.15073602660186197,"67":-0.08634891448379026,"68":0.15972861814624742,"69":0.18289706392060726,"70":0.21964458535773196,"71":-0.10048319352553338,"72":0.268876987253711,"73":0.04994902496359854,"74":0.10669874965649202}},{"sx":5,"sy":5,"depth":3,"w":{"0":-0.010127874731295127,"1":-0.17168143919446377,"2":0.09749279722739264,"3":0.08370589794884611,"4":-0.15228988354432854,"5":-0.03193520921677906,"6":-0.1636809260892386,"7":-0.04456455184990894,"8":-0.20620044298038276,"9":-0.15700008842300536,"10":-0.046916693795767156,"11":0.02268019621191622,"12":-0.014962427446074822,"13":-0.00923598490085122,"14":-0.043036549416503235,"15":0.04338538570662374,"16":-0.012738351194570962,"17":0.048045648277723875,"18":-0.17050409057423543,"19":-0.022789092841044484,"20":0.1194282696919583,"21":-0.28768101725869644,"22":-0.04766151378672049,"23":0.08208238286089432,"24":-0.08527760845523934,"25":-0.05503612229412453,"26":0.038942624555569294,"27":-0.2625436506697126,"28":-0.0017579666834187427,"29":0.07003607184004548,"30":-0.1241976701171546,"31":-0.12725545819012127,"32":0.09914399665886708,"33":0.0014868232745188664,"34":0.126973304717049,"35":-0.0820964419948772,"36":-0.1826008081075992,"37":-0.059958820791797846,"38":0.015005667469389713,"39":-0.19101368063548135,"40":-0.019657682906412708,"41":0.14833076105741697,"42":-0.046052054318346546,"43":0.1952525626694915,"44":0.018939463120664277,"45":-0.15195237566502795,"46":0.02107242560087945,"47":0.22495219891618087,"48":-0.14606069551998843,"49":0.03817217870967277,"50":0.24931204262119122,"51":-0.15041703661011208,"52":-0.01609353971557851,"53":0.1368693028222755,"54":-0.04805161750004832,"55":0.031388566504001326,"56":-0.226170871545807,"57":-0.01726872027787322,"58":-0.14482003473803068,"59":-0.07407216128547647,"60":-0.06307673709638846,"61":0.07074236370013207,"62":-0.05329202383303506,"63":-0.1684257621042662,"64":-0.19835427161816144,"65":0.19822933571160145,"66":-0.08497168652085767,"67":0.06475696451123597,"68":0.019900479529585624,"69":0.02099557492118377,"70":-0.14759927102453715,"71":-0.1369767404647426,"72":0.017057932560031224,"73":0.0365159627448938,"74":-0.14781430622651043}},{"sx":5,"sy":5,"depth":3,"w":{"0":-0.22470507691694602,"1":0.16535859858157412,"2":-0.08951776943845227,"3":0.018837875806742177,"4":-0.08226930529603724,"5":0.08084477764157666,"6":-0.037698751055519515,"7":-0.20486541975269454,"8":-0.0230587948991247,"9":-0.17985671439949338,"10":-0.12066081698257917,"11":0.17399527055804104,"12":-0.04003070883543812,"13":0.08137942726508178,"14":-0.09314813436007403,"15":-0.2203916523724169,"16":-0.07713681194619382,"17":0.0386929605954498,"18":-0.12267533860214434,"19":0.006631253205823701,"20":0.03595284824792341,"21":0.13222523901921884,"22":-0.12432973566373606,"23":-0.03294396595833428,"24":-0.049209645972256966,"25":-0.18278516698163771,"26":-0.03496046159469738,"27":0.15513190817100364,"28":0.0011494377715528712,"29":0.0050334552037927995,"30":-0.08388234254586176,"31":0.19179073811010522,"32":0.04504349499737928,"33":-0.24677033938555043,"34":0.055526568761996555,"35":0.039173414194828844,"36":-0.08471928251735104,"37":-0.061302206206963375,"38":-0.022760057850688555,"39":0.013366939489880766,"40":0.09934198042640167,"41":-0.2211723398064749,"42":-0.11036635463684777,"43":0.02147988717546358,"44":0.14829739790666424,"45":-0.08811817021753618,"46":0.08738730299030377,"47":0.04486986783394033,"48":-0.009070723148585933,"49":0.04264543821758651,"50":0.13108215034539372,"51":0.13013622346012482,"52":0.001940219297670974,"53":0.11938593163473545,"54":-0.12015996972481248,"55":0.0853402167731286,"56":0.10821173079043399,"57":0.20543082445524646,"58":0.19874105340243076,"59":0.12769261253742764,"60":0.15718126394171958,"61":0.09345973872948148,"62":0.14055283247690525,"63":0.15039813407174193,"64":0.2901459676748382,"65":0.16066106981072464,"66":-0.09024505703005106,"67":0.1481084379415671,"68":-0.029914928585569208,"69":-0.1157414356662455,"70":0.23628601524809062,"71":0.0057106492327981566,"72":0.003429023117978087,"73":0.15620818690759422,"74":0.11927305500968222}},{"sx":5,"sy":5,"depth":3,"w":{"0":0.06234722319971717,"1":-0.01681776114641061,"2":0.09243769292410652,"3":0.0027482058557113335,"4":-0.16815213393178802,"5":0.0686202073872511,"6":0.04907640688113632,"7":-0.08280879010586217,"8":-0.16592635719756826,"9":-0.08574880111466202,"10":0.0372670341433987,"11":0.04557722724063514,"12":-0.05679173277135536,"13":0.03150791557278704,"14":0.011653354264641941,"15":0.11946487307615965,"16":-0.16943935063186355,"17":-0.01283856340127861,"18":-0.060445235369972275,"19":0.10536108503283469,"20":-0.09500063120069628,"21":0.03332772149332674,"22":-0.028639438810883027,"23":-0.3313148889686642,"24":-0.09581235936908693,"25":-0.0439970193088028,"26":-0.33538220639566224,"27":0.07603574809246498,"28":-0.10827656724503336,"29":-0.24299045095544256,"30":0.05000767846879565,"31":-0.12246334650926406,"32":0.014055457932464717,"33":0.1311666156136091,"34":-0.19463821975164994,"35":-0.10836441596795562,"36":0.02744687062102412,"37":-0.24465592046115184,"38":-0.14386388814188833,"39":0.02021970322817022,"40":-0.19606196866220943,"41":-0.08367389869592896,"42":-0.13976057379133833,"43":-0.007981448227494184,"44":-0.15931289735385104,"45":-0.10003424230472366,"46":0.09330148241772401,"47":-0.061296887782258204,"48":-0.04774026690438956,"49":-0.1282341506336056,"50":-0.04202317438181534,"51":-0.009700220544722825,"52":0.09345714530782853,"53":-0.06361830671171084,"54":-0.06585142360161765,"55":-0.22073247555971576,"56":-0.10433223048694286,"57":-0.04505197743461714,"58":-0.05867557519309349,"59":-0.13345144970045292,"60":0.08068316219166474,"61":-0.028959293758723467,"62":0.006696798777576856,"63":-0.01732074390335527,"64":0.07428790546376421,"65":-0.18516905186965124,"66":-0.03807441772959621,"67":0.009266710050084127,"68":-0.03458483653368645,"69":0.030830161345184397,"70":-0.07521687496387268,"71":0.03587361865967441,"72":-0.07365926033342518,"73":0.00405392272393569,"74":-0.13948705110196866}},{"sx":5,"sy":5,"depth":3,"w":{"0":0.1749745867333497,"1":0.18366549721867598,"2":-0.0569696631066294,"3":-0.08041399095055192,"4":0.09255340918043649,"5":0.14766386186023736,"6":0.1211273224914731,"7":-0.10786007132139463,"8":-0.06627569256758839,"9":0.334981632705909,"10":0.038539124347952536,"11":0.26664535739100265,"12":0.08342147121359517,"13":0.10994176099320542,"14":0.09310790759141492,"15":-0.013876819365668315,"16":-0.0723278522527197,"17":-0.03501790202033781,"18":0.07912916643026434,"19":-0.1469504188264629,"20":0.27851074295732736,"21":-0.0155054157125073,"22":-0.09312831422114179,"23":-0.031008190788612652,"24":0.000870730467186772,"25":0.10095131686238497,"26":0.09029825493128332,"27":0.16461912093627876,"28":0.30919806916322146,"29":0.06284502595035409,"30":0.009477402826801002,"31":-0.14608841833881878,"32":-0.02394842739558162,"33":0.03910332117408938,"34":-0.18904289826986057,"35":-0.05302700911186815,"36":-0.07202761181011146,"37":-0.025998992143562796,"38":-0.24596471264769976,"39":0.19541172298418025,"40":0.06556911801401362,"41":-0.054919756473304146,"42":-0.05614877405743758,"43":0.10947315956984945,"44":-0.03166791466905828,"45":0.12371942547291345,"46":0.22963185812873094,"47":0.07218329603891718,"48":0.10912371145299476,"49":-0.06752364921457348,"50":-0.24869468362259625,"51":0.20734908151382972,"52":-0.041707352803955405,"53":-0.2549577851847418,"54":0.15202366766101533,"55":-0.01643220651533203,"56":0.10095693883717577,"57":0.2116789091238492,"58":-0.015786196492468228,"59":-0.17810255207739845,"60":-0.08049475511525103,"61":0.08326714150994566,"62":-0.17875777019850253,"63":0.010927895950110162,"64":0.024238360423583134,"65":-0.17684992449606338,"66":0.013612689397665292,"67":-0.022145197647239278,"68":-0.03798252392423145,"69":-0.007983332115130241,"70":-0.02288129622715069,"71":-0.03197539072414905,"72":0.038438007937419284,"73":-0.09150663884977747,"74":-0.20087529311914948}},{"sx":5,"sy":5,"depth":3,"w":{"0":-0.011104891188407079,"1":-0.22697834483452764,"2":-0.0888597510707862,"3":-0.02837884700141415,"4":0.10698099102176022,"5":0.2090040502065268,"6":-0.005104800467580916,"7":0.27702414074113557,"8":-0.09184834176342414,"9":0.10927644141577056,"10":-0.11975361855678339,"11":0.18575495865120434,"12":-0.10499991617707229,"13":-0.05170628283224692,"14":0.0688148340077814,"15":0.024501586084942503,"16":0.028911457481518733,"17":-0.15827017970002172,"18":0.05018338455108323,"19":0.13851677961644962,"20":0.18792709551168651,"21":0.20249881303479966,"22":0.07253545732731415,"23":0.2052824491230673,"24":0.020294375252035705,"25":0.10008093971398335,"26":0.21329540374748288,"27":0.1287437655037465,"28":0.09101162254913066,"29":-0.035998582408440734,"30":0.02038937913331137,"31":0.05641678527752282,"32":-0.010387654857168525,"33":0.0019654561595083297,"34":-0.06561407438254757,"35":0.12015689807116726,"36":0.14944659077880765,"37":0.09291505119761828,"38":-0.0461794358838514,"39":0.12196009514961235,"40":-0.20751206058176666,"41":0.10556910954053444,"42":-0.021448985446312723,"43":0.18487896945360238,"44":0.04417652944947384,"45":0.17147363158873458,"46":-0.07039242490882948,"47":-0.010069369816737039,"48":0.01381930672359344,"49":-0.1475815952684956,"50":0.044116593656465426,"51":0.3197951897499268,"52":0.12002870894182957,"53":0.016617262864825403,"54":-0.07402198027983026,"55":-0.04913039303944395,"56":-0.006778820639976834,"57":0.22826624958278263,"58":-0.03440570742324044,"59":0.14359928637460875,"60":0.102359432421609,"61":-0.2740136401935073,"62":-0.1549914633745004,"63":0.2867893406210018,"64":-0.15599186755814076,"65":0.14012242599251007,"66":0.24713301224722867,"67":0.17633778777105158,"68":0.08186642860705971,"69":-0.08712417959540729,"70":-0.15759206938653839,"71":0.11687873860022949,"72":0.2594999399608938,"73":-0.19696849042103234,"74":0.09509183677992217}},{"sx":5,"sy":5,"depth":3,"w":{"0":0.06230595647981998,"1":0.04738119535024265,"2":-0.15680666551020053,"3":0.17898234302989038,"4":0.10669533555343486,"5":-0.0249494063711295,"6":0.09938240168091106,"7":-0.14501152274741733,"8":0.3089565335985033,"9":0.2865562142052793,"10":-0.10278756043399656,"11":-0.09452772242877275,"12":0.20583091051687688,"13":0.04694043591208326,"14":0.08768957418234577,"15":-0.01414144988032065,"16":0.01027512982432736,"17":-0.037674792625607786,"18":-0.05902656173451783,"19":-0.26596567104462754,"20":-0.20953328935065677,"21":0.028107629604889158,"22":0.03276543288218766,"23":0.06718525008052235,"24":0.0018284801180415175,"25":0.07779035285573523,"26":0.3453079382778097,"27":-0.14161363069873495,"28":0.04962794181481722,"29":0.19541766955135548,"30":0.01715738310612394,"31":-0.05822814763294246,"32":-0.026410043935179685,"33":0.021789093157893576,"34":0.005220142778059556,"35":-0.06116340538238933,"36":0.33974321700679744,"37":0.1833168597612092,"38":0.09302252886023404,"39":0.18197530485786123,"40":0.10043716753388036,"41":0.03886300945884237,"42":0.08958231344356693,"43":0.03535118709969974,"44":0.20200984579606218,"45":0.017420125797926875,"46":0.18018654468825737,"47":-0.16528034137216416,"48":0.18794355938756593,"49":0.006985033673708554,"50":0.18369959147513754,"51":0.026038410106860272,"52":-0.011949390658512119,"53":0.22664648795300368,"54":0.15984825481288845,"55":0.19431730325649524,"56":0.046618795595699425,"57":0.015882669537424572,"58":-0.07856269560166212,"59":-0.1714608492604827,"60":0.244982023871407,"61":0.16563174735809347,"62":0.1268850287346055,"63":0.0226247804557526,"64":-0.10527901555204643,"65":-0.1782669102807336,"66":0.1940773266744248,"67":-0.048871987818518946,"68":-0.29880786655187286,"69":0.2311460630921664,"70":0.046088819801371965,"71":0.3137140588698233,"72":0.19635146356295136,"73":0.04439994264374485,"74":-0.06199472616615265}},{"sx":5,"sy":5,"depth":3,"w":{"0":0.0022540481379380996,"1":0.2870190604629616,"2":-0.044336383129448105,"3":-0.12599037743820676,"4":0.05514472999423995,"5":0.09356002153015049,"6":0.01570903864233958,"7":-0.03410454641145868,"8":-0.22129069748826577,"9":0.16041230214985758,"10":-0.03421382795807143,"11":-0.17362901219266597,"12":0.06998310649022457,"13":0.08179625208165425,"14":0.16812281211371352,"15":0.027655814337626983,"16":0.043468460183263655,"17":-0.11012080233740089,"18":0.21623015004717452,"19":-0.08675523578487884,"20":-0.22963068367820078,"21":0.10913790516629984,"22":0.05999915948424169,"23":-0.08328453593944389,"24":0.0343234781727231,"25":0.08424528395301582,"26":-0.20573698314192213,"27":-0.06683611341627314,"28":0.0672823242711888,"29":0.0006018754115720476,"30":-0.038996449535879295,"31":0.16412037820307787,"32":0.038944294315201786,"33":0.22238693520802386,"34":0.09081132950575214,"35":0.06706059572988803,"36":0.19817257966538124,"37":-0.1325550422249568,"38":-0.1814608875047793,"39":0.009261267642988342,"40":0.007357729509931079,"41":-0.04050225113480835,"42":0.24251141598546466,"43":0.10588751726051213,"44":0.09495542280999285,"45":0.07712453220800886,"46":0.07482523449557818,"47":-0.17542065944376858,"48":0.004137298074909438,"49":0.017381008780161782,"50":0.0837177346771108,"51":-0.1694198752178305,"52":0.038914959649278096,"53":-0.09587283876126942,"54":0.016822177191735933,"55":0.11238428913652963,"56":-0.037843892639686516,"57":0.010751363647563048,"58":-0.04550036736131885,"59":-0.34965548707727395,"60":0.050737030525401634,"61":0.07177699900016923,"62":0.03125949946927353,"63":0.16862625508952922,"64":-0.10471299275830785,"65":-0.26763573406628577,"66":0.19211650496164567,"67":0.006456178177931323,"68":-0.3027420363042741,"69":0.18386108952456232,"70":-0.1577625656410069,"71":-0.007411527622611663,"72":0.37955658361988437,"73":0.015918101916316593,"74":-0.06858314831423099}},{"sx":5,"sy":5,"depth":3,"w":{"0":-0.036428303983209835,"1":-0.30202307265485884,"2":-0.005214655122896121,"3":-0.051505599618919894,"4":0.1200672560102347,"5":0.09603274305046665,"6":0.09770432486055322,"7":0.030393891035057154,"8":0.23081571025245265,"9":-0.02449051032963289,"10":0.00022566928567110486,"11":-0.08717738755628539,"12":0.039545406777478795,"13":0.10399246252682882,"14":0.02736915739064075,"15":0.06942264377415261,"16":-0.2142030756719021,"17":-0.1390509042346905,"18":-0.133189688870313,"19":-0.17752792393260977,"20":0.13332430046836424,"21":0.10043235077323892,"22":-0.09489169100013388,"23":-0.01351611058927899,"24":-0.03260910849519889,"25":-0.02421882332921366,"26":-0.0694528964456938,"27":0.04068589767777133,"28":0.11367048291014015,"29":0.12031527405208825,"30":0.10948560470246191,"31":-0.07627744023974492,"32":0.11128858693801771,"33":0.1133882704112571,"34":0.18746828133315388,"35":-0.007883068498505934,"36":0.04372224952963238,"37":0.16452672982267208,"38":0.01810914171203057,"39":-0.070056580745205,"40":0.05333859882645352,"41":0.007699144254329304,"42":-0.04770886955664149,"43":0.04404940270214301,"44":0.021899015643885484,"45":0.07509714479530123,"46":-0.07415111206803911,"47":-0.265636890173567,"48":0.03229860919074545,"49":0.07065770761662597,"50":0.19053906695051356,"51":0.03236323087826273,"52":0.1769027666812385,"53":-0.02081246551337837,"54":0.15932130244102136,"55":0.17126390692595933,"56":-0.06555035050030796,"57":0.20309889253256896,"58":-0.08222354772435561,"59":0.20572025802343913,"60":0.13424813622028373,"61":0.03997024044810233,"62":-0.09522536026853018,"63":0.1408863554934685,"64":0.10304626638326597,"65":0.08872732122565434,"66":0.05746485640858479,"67":0.10337732345140244,"68":-0.076170801034797,"69":-0.005728668089414298,"70":0.09526046091178313,"71":-0.07340342382486037,"72":-0.19318776335091048,"73":-0.10121780334373581,"74":0.18721422077859642}},{"sx":5,"sy":5,"depth":3,"w":{"0":-0.1288775843797149,"1":-0.0868802949400253,"2":0.0649104261202535,"3":0.13024605047813412,"4":0.0018789749289942113,"5":-0.11683133004035233,"6":-0.069224658284964,"7":0.0830339771528302,"8":0.1415561389257816,"9":-0.11668214529601034,"10":-0.07125650174039497,"11":0.11723625453463489,"12":-0.17431067839693662,"13":0.2582469406872204,"14":-0.06597000764915441,"15":-0.014079357974836582,"16":0.1795783737009267,"17":-0.004498594043968931,"18":0.061277643737952484,"19":-0.13568742663659414,"20":-0.20194811394980217,"21":-0.021683564254126902,"22":0.008281577134851852,"23":0.0919033322927503,"24":-0.031529856086400194,"25":0.08799456009104702,"26":0.13820493901761682,"27":0.021148958821329025,"28":-0.00937704478839182,"29":-0.10101054420158745,"30":-0.05718172176391213,"31":0.03494486301870373,"32":-0.21697179319998636,"33":0.12747851656260825,"34":-0.003966429412342719,"35":0.13690826171879997,"36":-0.030191596163587468,"37":0.006503518509371066,"38":-0.12722474219539498,"39":-0.010585026936372286,"40":0.1380142431001986,"41":0.10951988889344602,"42":-0.22416509030463422,"43":-0.10432718728596432,"44":0.06895596567715415,"45":0.012762836484153805,"46":0.134849265317775,"47":0.0784561813824237,"48":0.08421916347734971,"49":0.0706123015783909,"50":0.023036946162712256,"51":-0.07747032776021491,"52":0.009375720351030103,"53":0.007980159230145634,"54":-0.3636552426302704,"55":0.02534994880020862,"56":0.2225951713890757,"57":0.16052686989496384,"58":0.13281427729023518,"59":-0.06114364105390668,"60":-0.23260955575602546,"61":0.23505212761071395,"62":0.021491047704384522,"63":0.11095237149493857,"64":0.11544342009468127,"65":-0.012640814573369146,"66":-0.12489503516015134,"67":-0.01572568740467183,"68":-0.11910133061807805,"69":-0.05140656247230555,"70":-0.13026932614576242,"71":0.15020576761248225,"72":-0.09684918345676895,"73":-0.026509486359384087,"74":0.2981669203754557}},{"sx":5,"sy":5,"depth":3,"w":{"0":0.12729541230776678,"1":0.07591748618654692,"2":-0.07733383981682052,"3":-0.03669678903749266,"4":0.032784659015249004,"5":0.030482918305838987,"6":-0.04774750325122639,"7":-0.21200072721565444,"8":-0.07106512884280064,"9":0.17767508291759432,"10":-0.19883333483318097,"11":-0.296843399839958,"12":0.014632287166323685,"13":0.001256094046993381,"14":-0.22318227030783802,"15":-0.10158955385828207,"16":-0.014629351319216602,"17":-0.18566684441999826,"18":-0.12112879755730467,"19":0.0060946479094125035,"20":-0.11646400164982819,"21":-0.10278615260657913,"22":-0.006424156885831737,"23":-0.15402808478702773,"24":-0.21933347129426073,"25":-0.07958495207769245,"26":-0.10802722637518752,"27":-0.01989035292173223,"28":-0.1534783158933988,"29":-0.035457412813725796,"30":-0.009155064990590581,"31":-0.05498092178517723,"32":-0.23439528758220685,"33":-0.1256838428483339,"34":-0.030098214825584477,"35":-0.04603370932589699,"36":0.00237672247967658,"37":-0.1497960295052917,"38":-0.14448506574238323,"39":-0.07410045838865968,"40":-0.06569612527793836,"41":0.01605310560528322,"42":-0.3865104757834489,"43":0.15805525674177823,"44":-0.049127800562652174,"45":0.0047513889485138,"46":-0.19492972422664967,"47":-0.03468306201021095,"48":0.043828003615443,"49":-0.13058058950537355,"50":-0.18720507475132733,"51":-0.2939249624830825,"52":-0.07770407534791948,"53":-0.02612542997019262,"54":-0.27115880509504353,"55":-0.13109149114651314,"56":0.07753498777885594,"57":-0.14939535525557643,"58":0.0218276747150584,"59":-0.034050808967450434,"60":-0.10090083674502255,"61":-0.12625830281091682,"62":0.04685526355976151,"63":-0.030461000001337758,"64":0.015280438484641182,"65":-0.05226645911029339,"66":-0.2951788179082374,"67":0.040551980620087504,"68":-0.08411068072705358,"69":-0.22258293162514783,"70":0.027429956053183786,"71":-0.07173819263751816,"72":-0.14331285438845512,"73":-0.030115195658524385,"74":-0.049364317195233265}},{"sx":5,"sy":5,"depth":3,"w":{"0":-0.13857061713131127,"1":-0.06505081878339672,"2":0.13890694327381314,"3":-0.16048257041154976,"4":-0.17318762867976623,"5":0.08019314535865697,"6":-0.0956956857304399,"7":-0.031783909504046054,"8":0.03966539426814445,"9":0.10940819004948615,"10":0.07516339671908476,"11":0.12894602468662245,"12":-0.05368155180969362,"13":-0.0359666134330913,"14":-0.024012204903655607,"15":0.019484387307876622,"16":-0.0072830991457715445,"17":0.1510534398539013,"18":-0.22116241442159193,"19":0.18213572545943005,"20":-0.2961059915461937,"21":-0.10801208473266703,"22":-0.021809053817813357,"23":-0.07052761446593349,"24":-0.009695747402250635,"25":0.026262386215447815,"26":0.15538945472833626,"27":-0.2472171833980615,"28":-0.013240814944547272,"29":0.014145430342024172,"30":-0.19796267054387146,"31":0.022146340237780133,"32":-0.05617148351119626,"33":-0.046689575416738856,"34":-0.029597637084628748,"35":0.20012203196917752,"36":-0.1269046004007666,"37":-0.1252713904330294,"38":-0.18160879611916012,"39":-0.02527755210297262,"40":0.1898798350068275,"41":0.01655648596920524,"42":-0.17859914698921306,"43":-0.11553635936711432,"44":0.09741943100954126,"45":0.02932579670337481,"46":0.06314035097139581,"47":-0.10636469820555529,"48":-0.10437913901503494,"49":0.12758470158138263,"50":-0.01835796759086319,"51":-0.14104560910692607,"52":-0.045652112128484995,"53":0.05525079752386054,"54":-0.2237117592127801,"55":0.0037338203157633075,"56":0.1708753028546772,"57":0.05940270640605007,"58":0.2119493248320769,"59":0.028418171175482777,"60":0.2672749793334165,"61":0.03275423144194149,"62":0.2343818084714131,"63":-0.006931536125305301,"64":0.1359266453437427,"65":0.041849212562135356,"66":-0.05907018342573347,"67":0.23057282311529403,"68":0.11220197447521739,"69":-0.15976340850598927,"70":-0.005233469003678302,"71":0.1973053598120305,"72":-0.028859678777332375,"73":0.22162350029471078,"74":-0.10786873423504242}}],"biases":{"sx":1,"sy":1,"depth":16,"w":{"0":0.21908580409150039,"1":0.08834867699263645,"2":-0.0393104736995917,"3":0.11672395296078268,"4":0.08921811774844546,"5":0.05090036553256605,"6":0.10897897148401553,"7":0.020952253087559772,"8":0.08649343626432893,"9":0.10630924045277863,"10":0.10923419239738164,"11":0.07021339585567041,"12":0.08487691092906753,"13":0.11980956783552318,"14":0.055406272631944274,"15":0.13477638470019104}}},{"out_depth":16,"out_sx":32,"out_sy":64,"layer_type":"relu"},{"sx":2,"sy":2,"stride":2,"in_depth":16,"out_depth":16,"out_sx":16,"out_sy":32,"layer_type":"pool","pad":0},{"sx":5,"sy":5,"stride":1,"in_depth":16,"out_depth":20,"out_sx":16,"out_sy":32,"layer_type":"conv","l1_decay_mul":0,"l2_decay_mul":1,"pad":2,"filters":[{"sx":5,"sy":5,"depth":16,"w":{"0":-0.03961503721979239,"1":0.056182289882906175,"2":-0.07218392837542352,"3":-0.03285290357341246,"4":0.0049863042725360116,"5":0.02487463167519155,"6":-0.031393409636059515,"7":0.013123661711905809,"8":-0.017949394269239694,"9":0.05293412466070109,"10":-0.03455600545759088,"11":-0.0028906488217759828,"12":0.021725946739568958,"13":-0.004129254298912379,"14":0.03121135865506668,"15":-0.1296572308733446,"16":0.00282934338732754,"17":-0.01894403752803897,"18":-0.00625065223743101,"19":-0.0015215806919209674,"20":-0.07113780168671145,"21":0.0029211290171909624,"22":-0.02473566747713482,"23":-0.04791793008697614,"24":-0.009802731217808064,"25":0.007021900300963028,"26":0.019581128662229833,"27":-0.1185416503329215,"28":-0.026972241470946734,"29":-0.10872672258437047,"30":0.043325875906407664,"31":-0.007356202010643933,"32":0.07180358989898221,"33":-0.04036316832404096,"34":-0.010400736381533795,"35":0.030076800334335213,"36":0.02868355114247577,"37":-0.012205284532783705,"38":-0.0650281264126525,"39":0.023003676886363903,"40":0.02041211146799099,"41":0.0458540960019913,"42":-0.094598206932798,"43":0.010888677324920852,"44":-0.015362860928363238,"45":-0.03766000981348814,"46":-0.026995551298050403,"47":0.050689506470852005,"48":-0.012115955064040099,"49":0.07067936951989309,"50":0.0039197260801717565,"51":-0.027452989386835408,"52":0.07118907147135113,"53":0.005779801662437115,"54":0.020664236763608883,"55":0.02511740313538798,"56":-0.025811500006290556,"57":-0.032000620303040926,"58":-0.044310220061545405,"59":-0.09380742882251135,"60":-0.054726300588963134,"61":-0.027751080696120818,"62":0.022598133533647785,"63":-0.034663848404686434,"64":-0.003778558508358532,"65":0.034511846164853574,"66":0.02183013703532717,"67":-0.013081343386514024,"68":-0.1355084337964927,"69":-0.03195762561762392,"70":0.04262994204043982,"71":-0.04814480170528101,"72":-0.00673917612842121,"73":-0.01152665560018698,"74":0.04452656461404752,"75":0.031801082761121716,"76":-0.09528853094337233,"77":0.0012522340342172773,"78":0.023309804134280705,"79":-0.04545258379262792,"80":-0.06883360127271365,"81":-0.02887672080951877,"82":0.026148603912765953,"83":-0.03931914602914936,"84":-0.04708945593293456,"85":-0.06311013006689223,"86":-0.08183450567142002,"87":-0.01736640690510941,"88":0.07375972860680531,"89":-0.0159699603862201,"90":-0.024642517762036863,"91":0.06158087032792956,"92":-0.02547200675053346,"93":0.038684734915494914,"94":-0.06694918024235776,"95":0.009785476600442926,"96":0.031150355360528393,"97":-0.005033141602192512,"98":-0.016427363754127927,"99":0.010301969964079304,"100":0.015953590875211452,"101":0.018033563975182212,"102":0.020367491812866647,"103":-0.02253147067146495,"104":-0.0013223362200503821,"105":-0.0015603474656012046,"106":0.04202039722764839,"107":-0.027731912540975574,"108":-0.07098607478886017,"109":0.09171195060298447,"110":0.10872355569630962,"111":-0.05157680986550594,"112":-0.021585841011830215,"113":0.016061696771405728,"114":-0.012388187488987484,"115":-0.07711560484248164,"116":-0.014819664758061577,"117":-0.09118963251725282,"118":0.00811455985188186,"119":0.04840697583081058,"120":0.0038728411203104037,"121":-0.0451676110461877,"122":-0.07699722520352614,"123":0.006065686817081757,"124":-0.02912245428857466,"125":-0.037606090988738246,"126":-0.07535274905682073,"127":-0.04687942445081101,"128":0.049107731569502266,"129":0.001939276372958389,"130":0.0063522012224677335,"131":-0.05850075296948971,"132":-0.001856180884346752,"133":-0.03047050986652462,"134":-0.017337968460473287,"135":-0.09795445792534797,"136":-0.0038025903650680095,"137":-0.0747335412395748,"138":-0.06847472926605702,"139":0.017274931457703032,"140":-0.012444387918705708,"141":-0.021266254956030566,"142":0.027058335446227322,"143":-0.04955400987983893,"144":0.008122424537485077,"145":0.03237021656276355,"146":-0.015985698643610033,"147":-0.03383569799532636,"148":0.0022829148972238,"149":-0.0044388281246790905,"150":-0.028930822074463295,"151":-0.05145211651636029,"152":-0.02469667201626435,"153":-0.026346944599526204,"154":-0.023314099510719062,"155":-0.02916250741340673,"156":-0.10150209304517112,"157":0.02869825395066753,"158":-0.052827830261948434,"159":0.02427707176241396,"160":-0.025443754136821498,"161":-0.017390548306409938,"162":0.004660681391120449,"163":-0.024109635407742584,"164":-0.006294218815181839,"165":-0.006254820667779775,"166":0.052680684872050146,"167":-0.10618347165544716,"168":0.006425835806696201,"169":-0.03037515397038211,"170":-0.018627212379504998,"171":-0.03126748813891519,"172":-0.03674124827949664,"173":0.05337126022874127,"174":-0.0425141407965791,"175":-0.10841281517515583,"176":0.08541560583540314,"177":-0.07084267421476237,"178":-0.10175240289660795,"179":0.07732276599460253,"180":-0.021109426528140386,"181":-0.05259660310381157,"182":-0.031442215430428466,"183":-0.0025034846262573193,"184":0.05493516026098613,"185":0.013400879826907545,"186":-0.027794728069772727,"187":-0.019517045615101657,"188":0.09567570434030348,"189":-0.008784590759517779,"190":-0.004862622087171573,"191":-0.12535884952473786,"192":-0.03606949859837814,"193":0.03447273883729882,"194":0.07487943816299222,"195":-0.013456229190836113,"196":-0.008489502076229833,"197":0.00884485640053826,"198":-0.06492841548622416,"199":-0.007352359294759165,"200":0.018860115201983878,"201":0.0360817548934474,"202":0.0525628291845718,"203":0.037107451014819715,"204":-0.009059941644818105,"205":0.059575434300320945,"206":0.019811552034302602,"207":-0.001163426949703543,"208":-0.03205086050346433,"209":-0.02733955732465448,"210":0.021849950853155435,"211":-0.009569363929345105,"212":0.010679310182029991,"213":0.02006885321584781,"214":0.00023884852414669979,"215":-0.013175840349219184,"216":0.10980903118790211,"217":0.021815084303256436,"218":0.03206501954297701,"219":-0.044921183859197446,"220":-0.042937584081837496,"221":0.034796260887599156,"222":0.028932629567549793,"223":-0.06145058085467894,"224":0.026480883209428114,"225":-0.0621592865897355,"226":0.0586066501683864,"227":-0.07748105227323415,"228":0.04807431159691194,"229":-0.02086834162505312,"230":-0.06361268998262462,"231":-0.06875023250094806,"232":-0.07910982063857885,"233":-0.0031329702960149063,"234":-0.0122616598542898,"235":0.04912655336251501,"236":-0.11300640916037387,"237":-0.013907894237446476,"238":0.004649912892172055,"239":0.0350473204866902,"240":-0.005352504823195961,"241":-0.10032591086135846,"242":0.00397237315905613,"243":0.02446330476938241,"244":0.04860161267782569,"245":-0.06590247457956959,"246":0.05547212518600931,"247":-0.0059030693724245725,"248":0.007818132365056024,"249":-0.07088712936475634,"250":-0.008658808796957908,"251":-0.10665293187329535,"252":-0.03594483032676129,"253":0.0016438790312302911,"254":-0.09986013802984002,"255":0.07845733193342684,"256":0.061696738934134326,"257":-0.0755997838166947,"258":-0.043940445420538744,"259":0.09735785227837439,"260":-0.0018527501798931627,"261":0.03139984877611194,"262":0.004910726695405516,"263":-0.011741019567964337,"264":0.02037250991201259,"265":-0.021909136796705357,"266":0.04716872226535345,"267":-0.00023234347910392958,"268":-0.018087237681437506,"269":-0.05859382690500758,"270":-0.02434852228975196,"271":-0.006667918826305251,"272":-0.06438328687985838,"273":-0.03715320731039629,"274":0.09451900518976668,"275":0.029693626515390772,"276":-0.028533493200690027,"277":-0.017207468527358254,"278":-0.05892575761785879,"279":0.02261795941169177,"280":-0.07239374131185035,"281":-0.02178648973617699,"282":-0.07478924773133248,"283":-0.06009360420441247,"284":-0.01449931900145911,"285":-0.07174429299402484,"286":-0.05855234144808239,"287":-0.10448032228820762,"288":0.002327529241693004,"289":0.01331340113917477,"290":-0.06509290970288974,"291":-0.05634344890279076,"292":-0.014325673411495984,"293":0.1141503794192768,"294":0.06093100940212117,"295":0.026462090004769394,"296":0.06050631868864486,"297":0.060536995467106086,"298":-0.03640781932408233,"299":0.05514554662592167,"300":-0.0032540804314530286,"301":0.06805156477586694,"302":-0.054383771564640505,"303":0.04129458573182402,"304":-0.027073549201559605,"305":-0.006007631501151152,"306":-0.03621965215423092,"307":-0.03880385413143747,"308":0.014745785550287402,"309":-0.03103705802286512,"310":-0.05961661604228991,"311":-0.09531398940747801,"312":-0.02263325502571527,"313":-0.10070524949210954,"314":-0.029000215738612837,"315":0.010294458006180254,"316":0.029443037337183897,"317":0.053699759491633386,"318":-0.09174796204970688,"319":-0.046672917649658544,"320":0.015515949234932134,"321":-0.00411218181257954,"322":-0.10619112514462105,"323":-0.029887608562405354,"324":0.050859764969559906,"325":-0.07243166946900723,"326":0.0007884066463341496,"327":-0.05228443781778978,"328":-0.052593921260995144,"329":-0.006941733942739328,"330":-0.018954272489229065,"331":-0.04088233235781972,"332":-0.062201727892815306,"333":0.04512568241081613,"334":-0.07228607563154518,"335":-0.023048587480882652,"336":-0.0806790748214617,"337":0.037319301257240395,"338":-0.051473266152847946,"339":0.022694140841195674,"340":0.009993111905157774,"341":-0.022924162629860474,"342":-0.05808069954346836,"343":-0.06851097599081978,"344":-0.006255911528743627,"345":-0.0000393619709027101,"346":0.03327360886956031,"347":0.005563161449224385,"348":0.017289769635349908,"349":0.023233722144158503,"350":0.05254189554283557,"351":-0.021341445639277975,"352":-0.04084200803146254,"353":-0.01641008583554695,"354":-0.040911428221024136,"355":-0.08614658552342484,"356":-0.050586639030605285,"357":-0.07697104348119385,"358":0.026536482983345988,"359":-0.07647083087647912,"360":-0.03335327055881221,"361":-0.016319670669918705,"362":-0.013609717136278503,"363":0.018614979994227673,"364":0.050314668779371054,"365":0.05938128607974892,"366":0.030691870946380605,"367":-0.034903539248956145,"368":0.04969670837296937,"369":0.01410939396901659,"370":-0.04461758699930843,"371":-0.008924647519919534,"372":0.012679296079120956,"373":-0.007700196711368551,"374":-0.015960009217662868,"375":-0.05700187352477405,"376":0.0375974626402756,"377":-0.008412075953840584,"378":-0.011281239851937994,"379":-0.01938060133363079,"380":-0.016666013666907353,"381":-0.037261223945364505,"382":-0.006187443291763386,"383":0.04878728953299316,"384":0.083509782132233,"385":0.016780600209390636,"386":-0.044172661485600825,"387":-0.09233110066192084,"388":0.06292608934199168,"389":0.01815024645238444,"390":-0.055302467687327765,"391":0.017174117882287177,"392":0.1188380645119581,"393":0.03248881277962389,"394":0.004060341313512199,"395":-0.03676174399002103,"396":-0.02229331594489877,"397":0.012174542387168169,"398":-0.0909222039995627,"399":-0.007638773133164461}},{"sx":5,"sy":5,"depth":16,"w":{"0":-0.0023970702653388666,"1":0.0027341904221772836,"2":-0.09673130610680496,"3":0.10116966175258109,"4":-0.01235238842502917,"5":0.00006853787555294316,"6":0.11036102837401597,"7":-0.026734295123216623,"8":0.025812484897122595,"9":0.10142366019017758,"10":0.040939988578157116,"11":0.033564929450856776,"12":0.057927344443513766,"13":-0.03574867979429192,"14":-0.03182366432430649,"15":-0.05815431340864919,"16":0.003679777956245559,"17":0.03769568292302756,"18":0.0602093242425082,"19":0.14763214698395874,"20":0.06081264138610418,"21":-0.12212648716176376,"22":-0.03781696158921885,"23":-0.07819344213730317,"24":0.10835349274303653,"25":0.009066025250709448,"26":0.0028184458571794933,"27":-0.008801575020992254,"28":0.04063774732296147,"29":0.027624530889690555,"30":-0.07891147054296407,"31":-0.04315631905778518,"32":0.003094706517309471,"33":0.024827648577392687,"34":0.014360304074517856,"35":-0.044632577151394806,"36":0.13190765791332343,"37":-0.08363201221853256,"38":-0.013405992639900307,"39":-0.013187011677812261,"40":-0.05072958708298554,"41":0.13947859564688583,"42":0.040769240245969306,"43":-0.0194207641038362,"44":0.11851765798355089,"45":0.07566561123117016,"46":-0.11702466916010622,"47":-0.08606485371250167,"48":0.06770490903741629,"49":0.03575840445354958,"50":0.05991423718380384,"51":0.0708971716263957,"52":-0.06295609631953003,"53":-0.036116663104740494,"54":-0.005706843890699763,"55":0.0026824553485790144,"56":-0.0008260027213680859,"57":-0.018724774131038083,"58":-0.01652520534885552,"59":-0.030542610586171356,"60":-0.004847559517691891,"61":0.0632453788251358,"62":-0.0705856554321032,"63":-0.0822268368325213,"64":0.03404993177138647,"65":0.023183881233234612,"66":-0.10634081420894596,"67":0.005583758190723716,"68":-0.009748265781307884,"69":0.12448444548190457,"70":0.02547020961186296,"71":-0.011187215981061158,"72":-0.05004009526552931,"73":0.009223382187819897,"74":-0.028333644251054443,"75":0.029729064438815726,"76":0.009862134515650864,"77":-0.006263664637878457,"78":0.015890542106664945,"79":0.002440374434052501,"80":0.017747553137389162,"81":-0.04470292390702646,"82":-0.026086206729088453,"83":0.03958757740748528,"84":0.056392211920590456,"85":0.012859804841318476,"86":0.01021007153243489,"87":-0.007529527821745139,"88":-0.042951689607727654,"89":0.04237766234706015,"90":-0.036893740827897314,"91":-0.05912001163571013,"92":-0.04836614876192671,"93":0.0282463980540757,"94":-0.046860023493056256,"95":0.007780001066128724,"96":0.034255240069669256,"97":0.03697561492719692,"98":-0.08297895211336055,"99":-0.04295873667981806,"100":-0.09493295810787711,"101":-0.0390338993144634,"102":-0.08469528063965982,"103":0.0430598352692572,"104":0.03260928958581519,"105":-0.04148185714285106,"106":0.06432105879099403,"107":-0.02781288301468333,"108":0.0023423574374833813,"109":-0.03364564086613979,"110":0.13278572677685574,"111":0.0017761039490127605,"112":0.02255271968663497,"113":-0.06153411701949407,"114":-0.05091453283121799,"115":0.01951705588871352,"116":0.015760904459736498,"117":-0.011416936219057825,"118":-0.012640702591944851,"119":0.04034315353132681,"120":-0.08246835875665004,"121":0.1029709499841474,"122":-0.056892278627838314,"123":-0.03850171950434261,"124":0.0033694839708318055,"125":0.03024018295920628,"126":0.03612152635456451,"127":-0.022168007635473514,"128":0.06888428475544664,"129":0.02875012486400231,"130":-0.08523312609920726,"131":-0.01569733728605197,"132":-0.08363995721888698,"133":-0.004208611248907342,"134":0.0283001079614523,"135":-0.07649515712376147,"136":-0.09548814615773751,"137":0.01313050668057514,"138":-0.047385258894496365,"139":-0.10650766801615597,"140":0.028824138935115852,"141":0.09752660859550763,"142":0.06188460190175054,"143":-0.06496069397362544,"144":0.06755842183529419,"145":-0.023760996622797213,"146":-0.016193247953392637,"147":-0.12721525659613583,"148":-0.03387496113797668,"149":0.028933017487533262,"150":-0.0782732911852139,"151":0.03028699377092132,"152":-0.048882927189514425,"153":-0.08229355231404403,"154":0.030997717168573424,"155":-0.03678919562390122,"156":-0.060673608594376774,"157":0.05821962029240769,"158":0.016876284805285944,"159":0.06671113409281537,"160":0.04730496433897347,"161":-0.053069092034947224,"162":-0.00981177675072329,"163":-0.08185115703356079,"164":0.034385001905568716,"165":-0.04773206072427339,"166":0.05085830947302748,"167":-0.023971652048486378,"168":-0.03349816027847064,"169":-0.04584413561638064,"170":-0.10484736245310149,"171":-0.0906459715450756,"172":-0.07522151016271388,"173":-0.02943407460461073,"174":0.1110843709464684,"175":-0.018707768442873925,"176":0.13098056127178978,"177":0.051629056280910406,"178":-0.06071162830263917,"179":0.03562314710659892,"180":0.04949313541464664,"181":0.006188593502532521,"182":-0.04894478659984955,"183":0.07851110085163451,"184":-0.0730228367269572,"185":0.029297169481624415,"186":-0.05580115996713788,"187":-0.03753101107967361,"188":-0.06732911736897179,"189":-0.01997933348083141,"190":0.011157837551947242,"191":0.0320686639522298,"192":0.07895719184595903,"193":-0.05106885077616831,"194":0.00794494257065105,"195":0.09949027655660239,"196":-0.08842228835471311,"197":-0.007186458090971216,"198":-0.13591825919037118,"199":0.165155287245116,"200":-0.05629483690978836,"201":0.027023163809132177,"202":-0.014914186404967762,"203":-0.12039565348694277,"204":-0.02348543596824734,"205":-0.0754150725618502,"206":0.08840225093716286,"207":0.017064452962942254,"208":0.08276754883040317,"209":-0.065352395184811,"210":-0.0660056055009623,"211":-0.018381402310319976,"212":-0.017079805268284044,"213":-0.11202826011892855,"214":-0.051781092747881494,"215":-0.009771645803174118,"216":-0.12944644358872967,"217":-0.09692991873993939,"218":-0.004134300269800272,"219":-0.1766397248046572,"220":-0.00785811360344683,"221":0.026773645495188375,"222":0.02559085841601269,"223":0.07775464330004701,"224":0.08511593299083625,"225":-0.15191250096485223,"226":-0.1014964064270778,"227":-0.08803846639994115,"228":-0.22187828472085666,"229":-0.06769589622258855,"230":0.09162886465104128,"231":-0.03845216340733023,"232":-0.20418696370310477,"233":-0.028358904648660997,"234":-0.1775665781587163,"235":-0.12790284553884962,"236":-0.00216579057141684,"237":0.05898299333935235,"238":-0.03249316720973078,"239":0.022410313771266115,"240":0.05714370675628232,"241":-0.0561359719409714,"242":-0.050584913913134084,"243":-0.03888580586331413,"244":-0.017007327141882595,"245":0.024074588835627242,"246":0.02735063242903997,"247":-0.06778697997224079,"248":-0.06960523772090155,"249":-0.08786637868495789,"250":-0.12308364699948562,"251":-0.0782306408126205,"252":-0.03924598748126581,"253":-0.0008919981768041907,"254":0.09966981290756366,"255":-0.035529210307599375,"256":0.12851261624988405,"257":-0.15502015410225126,"258":-0.034424027899213346,"259":-0.06769463669368952,"260":-0.02808570421086448,"261":0.07641751141146276,"262":0.07232379864418496,"263":0.005898139161412775,"264":-0.08494972950199967,"265":-0.13985885263643416,"266":-0.1140352557440262,"267":0.02062281789759748,"268":-0.07820724106786368,"269":0.06965540245212118,"270":0.0821268584700734,"271":-0.01931638228020156,"272":0.12463564068779137,"273":-0.08932830876995396,"274":-0.051388973407716504,"275":-0.11683166378901241,"276":-0.04760786764536491,"277":0.007187996850312346,"278":-0.04448746048622333,"279":0.046986893097425785,"280":-0.07524647364726832,"281":-0.1340529579490843,"282":-0.09500047216088298,"283":-0.10433836806506176,"284":-0.053906772737203006,"285":0.10533360076893648,"286":0.09357010024542185,"287":0.054502222859796175,"288":0.06702916378747488,"289":-0.08146192209433083,"290":-0.10607945624324024,"291":-0.18962010372913754,"292":-0.14117742542000242,"293":0.009861059151983192,"294":-0.004915766214997232,"295":-0.0675383690812463,"296":-0.24497776666916288,"297":-0.0726054622292589,"298":-0.11817981830717329,"299":-0.10309879714891407,"300":0.017162451092516934,"301":0.08642438712591671,"302":-0.12415997314475902,"303":0.04359231116590529,"304":0.038379283795095455,"305":-0.19789710332934737,"306":-0.0030906426779593954,"307":-0.20943316665075837,"308":-0.13885613053226614,"309":0.08477795976876293,"310":0.10501721679486675,"311":0.0275550144748765,"312":-0.1625259104119317,"313":-0.2118600751584385,"314":-0.14025505054860013,"315":-0.12412031952032898,"316":0.026850468757192138,"317":0.112494708965345,"318":-0.07646329043446412,"319":0.03556202341006496,"320":0.08984087435227199,"321":-0.11410992397957608,"322":0.048441314605029685,"323":-0.057699209234231365,"324":-0.01456991409962608,"325":0.09912376714308219,"326":0.032280711348775304,"327":-0.021702997848993315,"328":-0.12230532866676375,"329":-0.12745537942970248,"330":-0.09007996926916735,"331":-0.002127150973562519,"332":-0.020009740466016654,"333":0.1561258246535857,"334":-0.0734515944623388,"335":0.056699364196612805,"336":0.09407004312872502,"337":0.00985716385461687,"338":0.024640445122082213,"339":-0.10968311488783862,"340":0.023891739564877293,"341":0.0073007345418377315,"342":0.01421752285310732,"343":-0.029595732606401432,"344":-0.08521688735799275,"345":0.015744146145736777,"346":-0.10854007600447381,"347":-0.031140999260002574,"348":0.025068081574921963,"349":0.04265582088567476,"350":0.03758107774100427,"351":0.08249635445977994,"352":0.12432909625720184,"353":-0.03932492931500946,"354":-0.03811857371243897,"355":-0.14004611907925507,"356":-0.1394107250340591,"357":0.09371071804179744,"358":0.05933225327412265,"359":-0.10428572198385293,"360":-0.11281916133303148,"361":-0.04073923352420952,"362":-0.07262689552905086,"363":-0.0717211791370546,"364":0.07041921080511862,"365":0.05398362056337492,"366":-0.012903677230392067,"367":0.08300554210212774,"368":0.12408241352076668,"369":-0.12534789452363648,"370":0.032723612718911624,"371":-0.21588817208628297,"372":-0.06930777583736014,"373":0.04047453317467434,"374":0.08043476361484,"375":-0.11815181841211188,"376":-0.11851390132772051,"377":-0.03175791218681938,"378":-0.12391309414244843,"379":-0.07266025321424904,"380":-0.027141646583605558,"381":0.1561885969933162,"382":0.14035762412766156,"383":0.15501954104243473,"384":0.09357304214970057,"385":0.013757391151991894,"386":-0.10951738581261601,"387":-0.13571102329943402,"388":-0.11744455209311627,"389":0.10109362623350121,"390":0.10346112457526062,"391":-0.03289746537549797,"392":-0.07139803843731826,"393":-0.00689820726956352,"394":-0.11729901683359895,"395":-0.1628118436713669,"396":0.03294085308701109,"397":0.008485923155055818,"398":0.0006213801222346587,"399":0.017869677163744546}},{"sx":5,"sy":5,"depth":16,"w":{"0":-0.030606634827548173,"1":0.10800924343147712,"2":-0.0489668768597488,"3":-0.05725761733880024,"4":0.006642972684725507,"5":-0.11132812602060686,"6":0.007855490095774022,"7":0.0023281331794114445,"8":0.12997732079383437,"9":0.0396944579082356,"10":-0.05998303264556454,"11":0.03296749079017953,"12":0.10467300770824353,"13":0.05384409371011505,"14":-0.0854844630487526,"15":0.01258627221163856,"16":0.009951110576732912,"17":0.06451130679092629,"18":-0.04590609714757563,"19":0.07856559822536689,"20":0.05435477030338307,"21":0.008822110457869915,"22":-0.06270648715773931,"23":-0.06519810524262823,"24":0.07206555560399247,"25":0.07237905062837166,"26":0.05931815652673879,"27":0.08468112176944267,"28":0.06630349493133791,"29":0.013428496121751878,"30":-0.1265495392574431,"31":-0.035591694404749144,"32":0.11365524483130152,"33":0.07789288521541216,"34":0.029806359409931742,"35":0.15362215191129303,"36":0.10436755701642529,"37":-0.10119962596307791,"38":0.02044402893316412,"39":-0.047428381304766176,"40":0.040388974076629336,"41":0.11578458319953286,"42":0.08188292279452326,"43":0.043071268685368695,"44":0.18157353350268582,"45":0.10060856851027285,"46":-0.09741089861634455,"47":-0.05682679673764219,"48":-0.13997502454528266,"49":-0.027425161940563006,"50":0.07257553621878424,"51":-0.0013274418010577405,"52":0.018740577814650182,"53":-0.04339169051655145,"54":0.006774359002244817,"55":0.0415928169866649,"56":-0.12165652741121866,"57":-0.020385760610867446,"58":-0.11751887102091771,"59":-0.09809950209335737,"60":0.06485854039341107,"61":0.03268158888546216,"62":-0.07345782483222245,"63":0.0702808254629232,"64":0.05917377687535935,"65":-0.1578706977968201,"66":0.02089192431354375,"67":-0.17862557079183686,"68":-0.2205666944693119,"69":0.08414248267974728,"70":-0.07888145270044641,"71":0.04670016914714344,"72":-0.16712959265896452,"73":-0.10096996801816063,"74":-0.10315766927706298,"75":-0.17418189517828978,"76":-0.08428236036564675,"77":0.03793303561119312,"78":-0.0725059008503292,"79":0.11208253334426263,"80":-0.011881661754047451,"81":0.1094366731263856,"82":-0.16231274803944826,"83":0.1225436092556932,"84":0.06208367583837344,"85":-0.04962633912396941,"86":-0.07518547595144048,"87":-0.04860468911905225,"88":0.08772290037925017,"89":0.04551658268128921,"90":-0.026324531824472797,"91":-0.01984891569760348,"92":0.03359869773717588,"93":0.03443917278302508,"94":-0.05665551143390363,"95":-0.04806647467696363,"96":-0.07646515372365181,"97":-0.03725030152857233,"98":-0.10472712130078252,"99":0.036867121067258646,"100":-0.06337945178602526,"101":-0.028452217101378244,"102":-0.026053046989923483,"103":-0.029344848642076694,"104":0.1746179728853301,"105":-0.06719612805701744,"106":0.03325445441234664,"107":0.0651949193081433,"108":-0.02283751490981976,"109":-0.017596772087620123,"110":-0.06541589271962467,"111":-0.0028865929032088162,"112":0.06625785807038949,"113":0.1443271397914346,"114":-0.06393540564466696,"115":0.12185495492305932,"116":0.11396419015073903,"117":-0.09493502446774509,"118":-0.01622730620033848,"119":-0.10114322864711994,"120":0.10235474458794568,"121":0.08624445166932382,"122":0.17115566844117705,"123":0.0024717636576453606,"124":0.12820501497623085,"125":0.018997555423104755,"126":-0.036788032171540586,"127":0.05031655595525519,"128":0.012864283998697247,"129":-0.025089329911607127,"130":0.02241444944540158,"131":0.054162573919087145,"132":-0.06984520575602284,"133":0.06578200167874566,"134":-0.038595950871678955,"135":-0.05051234853848745,"136":-0.1007834951218831,"137":0.047268243446039714,"138":0.0345950162951745,"139":-0.05834116602876247,"140":0.009994045602612025,"141":0.050517233191981384,"142":-0.08659170418388874,"143":0.00810746701335202,"144":-0.038293106288927445,"145":-0.03935845406408648,"146":-0.014090980888584292,"147":-0.1248940765976894,"148":-0.0944297491769938,"149":0.003188484094236523,"150":-0.1534693760788688,"151":0.02467790225133825,"152":-0.12980309681346971,"153":-0.08863688695866864,"154":-0.21087833379744994,"155":-0.10165961280256373,"156":-0.17472772727160318,"157":0.05581889848177341,"158":0.08293322389793824,"159":0.033224917589001916,"160":-0.06387421322225603,"161":-0.01619713686879746,"162":-0.10855061967234375,"163":0.055838555848686536,"164":-0.05380432176301563,"165":0.04548991764800827,"166":-0.10057568134119958,"167":0.13524863093302156,"168":-0.021344852911899317,"169":-0.0729166233932537,"170":0.05531803470236376,"171":0.07822116225818095,"172":-0.06691985104097961,"173":0.0291303549475339,"174":0.0038884846009124485,"175":0.012960649859520964,"176":-0.07546258183078161,"177":0.06717621813149735,"178":-0.10974398235848007,"179":0.05435218335364393,"180":0.01976757078302056,"181":-0.035576641388976815,"182":0.05513177655238658,"183":-0.04073215635788053,"184":0.06387441719830718,"185":-0.001129627532046567,"186":0.1745077259952943,"187":0.07513638833922323,"188":-0.0946679644944381,"189":-0.011675215089706106,"190":-0.14254090396136718,"191":-0.025040112679265994,"192":0.07797250398718002,"193":0.023225968226446337,"194":-0.08007218747912045,"195":0.029457489553508794,"196":0.0659221295113329,"197":-0.10115111387959844,"198":0.05787519422702076,"199":0.0009512624637354247,"200":0.044963591109860195,"201":0.1391414572183237,"202":0.2066422313304339,"203":0.020399359520703975,"204":0.1772785058322779,"205":-0.012356268205336614,"206":-0.15168082165065366,"207":-0.1441292696331428,"208":0.033602829716764315,"209":-0.12262420387626154,"210":0.025026069397021712,"211":0.017012034364503353,"212":-0.06980288337562744,"213":-0.05945781758501671,"214":-0.09170372840114563,"215":0.09471063135691908,"216":-0.10891169553995973,"217":0.05645962376064,"218":-0.05146543517743885,"219":-0.012196928033209481,"220":0.08323386020576015,"221":-0.05669848865893636,"222":-0.1325382049434982,"223":0.011253792953598957,"224":0.01523001027979994,"225":-0.23159878240230403,"226":-0.06928155212133914,"227":-0.152162357387437,"228":-0.02477602291476329,"229":0.04696712781083984,"230":-0.08148782806077795,"231":-0.08638439019144678,"232":-0.1680046966349252,"233":-0.12837676823585653,"234":-0.17793737170261945,"235":-0.05996706396404644,"236":-0.09749840624838539,"237":0.043933652343199146,"238":0.07529733139388688,"239":0.0028459636330820303,"240":-0.02516612669463785,"241":0.009775891100359537,"242":-0.06042244649601242,"243":-0.02692626742569688,"244":0.06548601007707869,"245":-0.04993097446011707,"246":-0.08284954042031097,"247":0.11134897882169367,"248":-0.020392160251028864,"249":-0.033008061855820225,"250":-0.13836774753028402,"251":0.026248117570695152,"252":-0.06374852592886987,"253":0.007070931695690542,"254":0.08484939842855915,"255":0.04800802595322995,"256":-0.0788556425305363,"257":0.01034896731877146,"258":-0.21093839971018874,"259":0.07169374807340992,"260":0.10231150847921139,"261":0.010036714331943862,"262":0.01970489134409777,"263":-0.08369421999543722,"264":0.1459371294553995,"265":-0.017174406096764235,"266":0.04986987806462635,"267":0.04654931103895692,"268":0.018390589476753746,"269":-0.07036290282869612,"270":-0.033018017441477567,"271":-0.02692766538464929,"272":-0.04041802625266676,"273":0.05890956591060323,"274":-0.11040527282468521,"275":0.0587486271843179,"276":0.11124332272961143,"277":-0.18124163514035244,"278":0.016834998336631976,"279":-0.09431333286619835,"280":0.07948772958186788,"281":0.13156769072759109,"282":0.1259672895062865,"283":0.08031143719262786,"284":0.07689528228567663,"285":0.054473672104838264,"286":-0.07768110905819936,"287":0.0017349484381084992,"288":-0.01628064568416972,"289":0.054004094263380494,"290":0.033501391103777194,"291":-0.007724099598015262,"292":0.07355260059034402,"293":-0.06943071922772238,"294":-0.04355527020975108,"295":0.11618642133859454,"296":-0.002183938305663956,"297":-0.036116388660583344,"298":-0.021783949827283842,"299":-0.07339198492327309,"300":0.14225137608127683,"301":0.06580646299603458,"302":-0.0007302833903803448,"303":-0.06445376495805528,"304":-0.07939220646411568,"305":-0.16518043002770164,"306":0.005329570566443452,"307":-0.128098738327526,"308":0.0009758266244999941,"309":0.12465308291343169,"310":-0.1255220602038208,"311":0.04521596444421479,"312":-0.16290663770130281,"313":-0.04844419581619876,"314":-0.16194250448462488,"315":0.052767825773659814,"316":-0.07571276891601586,"317":-0.11498451797275694,"318":-0.032152900989061046,"319":0.07566017204319048,"320":0.005990735009036144,"321":0.024860104498636265,"322":-0.006328476422967083,"323":-0.08124054109402759,"324":0.03661367006496903,"325":0.05891024792166634,"326":0.007858034234258822,"327":0.05410638587056877,"328":-0.02419763001564682,"329":-0.16058605499672557,"330":-0.13638881616709425,"331":0.03480813831429698,"332":-0.017668820516288018,"333":-0.013207833478903313,"334":-0.03581494332515897,"335":0.03879574356208228,"336":0.048190873504115835,"337":0.024845364350795263,"338":-0.05687155348491934,"339":-0.015355213317990524,"340":0.05637483165194085,"341":0.026463998367750246,"342":0.012113180146746547,"343":0.11294685708673592,"344":0.0407946676566479,"345":-0.09119897477008788,"346":0.011892807319450839,"347":0.06857236346513013,"348":-0.02728733478192093,"349":-0.044722829975072764,"350":-0.022320019322021416,"351":-0.0029382760081183906,"352":0.034970279583140744,"353":0.008876740691090545,"354":-0.1768027639125579,"355":0.10461564041519271,"356":-0.02067528266601065,"357":-0.1575165084037557,"358":-0.037785022461522,"359":0.050633728858392825,"360":0.02395586644794053,"361":0.059263184357097876,"362":0.1198512237427754,"363":0.07887138809581999,"364":0.11270242360258488,"365":0.02681974642302596,"366":0.02822612181183556,"367":-0.11436950283725679,"368":-0.030657191398790203,"369":-0.00012573083041754978,"370":-0.041219114355200676,"371":0.06000422347171653,"372":0.13160139588118475,"373":-0.0644274627867454,"374":-0.12658376792308673,"375":0.03562076640573321,"376":-0.008918683414639382,"377":0.06858305942432516,"378":-0.04805360743912792,"379":-0.02454481506111884,"380":0.044438479959944155,"381":0.12001602746272852,"382":0.07181875524100911,"383":-0.020084627785806164,"384":-0.041345374353279986,"385":-0.008514753140083448,"386":-0.04442931844672043,"387":-0.12959033567291023,"388":-0.0005196732905091058,"389":0.03466638215491248,"390":-0.11523927664746707,"391":0.016447629728354448,"392":-0.046084073959104174,"393":-0.1018642144874455,"394":-0.07810784572426929,"395":0.03541379260086784,"396":-0.1716088913706429,"397":-0.018830766429161632,"398":0.0654072510995585,"399":0.031022095401639756}},{"sx":5,"sy":5,"depth":16,"w":{"0":0.0003169330499942005,"1":-0.06559116552467856,"2":-0.11891670844272914,"3":-0.018158459855208496,"4":0.036644426718993685,"5":-0.10098901943424832,"6":0.003724645073310652,"7":-0.045146424935905004,"8":-0.03094516873841291,"9":0.011038434509947972,"10":0.0160343849870896,"11":-0.11217172127475625,"12":-0.10170422807179255,"13":-0.06761607057409241,"14":-0.011462431821215039,"15":-0.08065520753683163,"16":-0.059783636969655676,"17":0.016968902535363928,"18":0.003940644461781867,"19":0.014918709317374096,"20":0.06040877601325364,"21":0.04604656743592931,"22":0.009997081268543031,"23":-0.026128192794652068,"24":-0.04512399315338346,"25":0.060704150599022025,"26":0.1400245510805207,"27":0.005124523888721538,"28":-0.057397093704903646,"29":-0.09842896691391004,"30":-0.044044897708979854,"31":-0.03556109656420872,"32":-0.05748892406238773,"33":-0.04770202532406331,"34":-0.045504225424885046,"35":-0.028298827835372464,"36":-0.02859079010076055,"37":-0.10127168883999348,"38":-0.10272276017539848,"39":0.06617384259116375,"40":0.011960473412055132,"41":-0.014864663777911276,"42":0.015385647116929479,"43":0.09352541933937071,"44":0.07962295019111926,"45":-0.0778233625167262,"46":-0.08656474279491488,"47":-0.07823157878860963,"48":-0.1493920910742261,"49":0.04829848822042155,"50":-0.08273910881904994,"51":0.04582027305419046,"52":0.0038079932113623738,"53":-0.06020652541528805,"54":-0.021251112836508674,"55":-0.06496352365475734,"56":0.051445239983834525,"57":-0.09004597147618869,"58":-0.0016685655566968318,"59":-0.0018664962654283768,"60":-0.025560529431203658,"61":-0.01837132629523253,"62":0.03219626702043191,"63":-0.053475551897730914,"64":-0.007753120406544221,"65":-0.020352422405103703,"66":0.00770584539845055,"67":-0.0486100921594898,"68":0.046327017661644355,"69":0.020502765663419183,"70":-0.17708139362240635,"71":0.004003274230907279,"72":0.01505646471693161,"73":-0.04964312422826532,"74":-0.09178830542052675,"75":0.020857469125626072,"76":-0.06388090194502445,"77":0.023569552729234552,"78":0.10471732438159732,"79":-0.0372494374315999,"80":0.0038636242068398885,"81":0.021293574076694875,"82":-0.0889246260602931,"83":-0.027396470344938268,"84":-0.05671018385508238,"85":-0.02679718899447857,"86":0.032659113628376236,"87":-0.035220305419722056,"88":-0.014651589377683839,"89":0.0027773333059972405,"90":-0.06557070863071714,"91":-0.0009521222141488516,"92":0.023208218797779546,"93":-0.023234785243045886,"94":-0.05672916049694627,"95":-0.10059816987609149,"96":-0.10889594036354455,"97":0.054008602448903896,"98":0.02801378408297312,"99":0.07318973991075109,"100":-0.09366962943706703,"101":-0.06067804440222718,"102":-0.11325959584869741,"103":-0.03263997741815736,"104":0.07492803373872862,"105":-0.0170710028518061,"106":-0.04748845822844,"107":-0.07287129630162008,"108":-0.11167429102803335,"109":-0.1331861993611334,"110":-0.07760014261291938,"111":-0.04960464999174956,"112":-0.029406927298320295,"113":-0.03286292909675508,"114":-0.10981651811642808,"115":0.015274021846187187,"116":0.06733903112035623,"117":-0.05194558163443536,"118":-0.12906812793214006,"119":0.038975290655106694,"120":0.13112999211509804,"121":-0.026507994734220656,"122":0.0008206586999481414,"123":-0.009180840706959422,"124":-0.07356842657821011,"125":0.028549187834862856,"126":-0.022374207342427847,"127":-0.10787255475993882,"128":-0.003938125252322116,"129":0.0055905440150888705,"130":-0.1340611336721014,"131":0.06810626613260681,"132":0.0033296265539697117,"133":-0.07301504117430695,"134":-0.018010744779305695,"135":-0.06367352785549206,"136":-0.02411558332910267,"137":0.03188457837801633,"138":-0.04501647659747097,"139":-0.052891830409628374,"140":-0.0802635633376279,"141":-0.13163387885569866,"142":-0.044555794165430686,"143":-0.10525745058947175,"144":-0.042920667433815216,"145":0.07891350375925091,"146":0.02399143824822849,"147":-0.015077861398278523,"148":-0.01959684945406647,"149":-0.00981579880403545,"150":-0.028517788517102374,"151":-0.035401979023467534,"152":0.01869005814633532,"153":-0.07874024574902326,"154":0.05408171706266508,"155":0.04532408931637436,"156":-0.08171108626320267,"157":-0.08817841946723239,"158":-0.00010606318236745037,"159":-0.01980417908717351,"160":-0.06808533603934941,"161":0.03952149873767037,"162":0.02004472954010332,"163":-0.0004866203445653745,"164":-0.008339018534321414,"165":0.009854894514576143,"166":-0.04043196142458652,"167":-0.04719952517620086,"168":0.01407379665396636,"169":-0.08845978233126961,"170":-0.05314275265840809,"171":-0.029463794792372516,"172":-0.04174834911849718,"173":0.024480921936073735,"174":-0.04974721047859241,"175":0.003747092711928803,"176":-0.08984124608415311,"177":0.024508536440217606,"178":0.026609009781193668,"179":-0.02280668591407937,"180":0.013419604957284616,"181":-0.00810630492422515,"182":-0.040433569706760666,"183":0.020863591258881497,"184":-0.018216754324578137,"185":-0.08095635670911773,"186":0.021182666890126572,"187":0.004538602759128773,"188":0.024790009071106473,"189":-0.02891843868070442,"190":-0.07072263119322358,"191":-0.07736568343781432,"192":-0.12143903069069177,"193":-0.0026060523341902165,"194":-0.05618546270320992,"195":0.024783945933712633,"196":-0.057401309863966465,"197":0.04969564497805366,"198":0.0007251626910288311,"199":-0.015520420573400624,"200":0.014054669404876253,"201":0.039823306045348526,"202":-0.0223050652883411,"203":-0.04869413155251684,"204":-0.0031249718114087373,"205":0.03172693792227998,"206":-0.024166054061760568,"207":-0.07028088432242155,"208":-0.04517019728768408,"209":-0.049436570315585925,"210":-0.0010875429808855327,"211":-0.021265987946188225,"212":-0.008346049821051381,"213":0.12218555816629993,"214":0.06632459887807148,"215":0.07072370666499274,"216":0.0020635295731952523,"217":-0.010230614010741355,"218":0.02436121592844424,"219":0.04140930209174263,"220":-0.008080886715381347,"221":0.04183078477032289,"222":0.03008917871854053,"223":0.027716817887035096,"224":-0.07204066315508353,"225":-0.04509735445320551,"226":-0.03914700457388195,"227":-0.0066443055875232545,"228":-0.09129268629604885,"229":-0.08963626304337367,"230":-0.022479403660108217,"231":0.0716713439303746,"232":-0.0896710702111877,"233":-0.04629932965051624,"234":-0.00947990384686505,"235":0.006027745367012505,"236":-0.1075362361732161,"237":0.05843514992499286,"238":0.04775835511278837,"239":-0.012892164117595906,"240":0.0474610070337744,"241":-0.09783028976570095,"242":-0.015147969000524293,"243":0.004993372429940588,"244":0.08376613469973286,"245":0.05827925714554228,"246":-0.07670224719579638,"247":0.03347247525432294,"248":-0.06450284244981906,"249":0.004397815202656941,"250":0.02337615503938606,"251":0.007699184504633756,"252":-0.017059655053775866,"253":0.013437405708073377,"254":-0.08410988731706409,"255":0.024655674203581748,"256":-0.01589347323526254,"257":-0.06072587048873713,"258":0.09773791772334316,"259":-0.04353857305586399,"260":-0.02710441503341235,"261":0.0003349633654514732,"262":-0.02228479623584021,"263":0.020086102444605645,"264":-0.014484878372115092,"265":0.046541099752897205,"266":-0.015699335950766856,"267":0.029102637695908193,"268":-0.06466214045873982,"269":0.13787319716993932,"270":0.027944941059546213,"271":0.013474699461576544,"272":-0.03234417534755442,"273":0.06299141156485513,"274":0.0009865728253822875,"275":-0.15555410054659494,"276":0.005693909176009373,"277":0.05602182083425333,"278":-0.05637924945951129,"279":0.026047768347439517,"280":-0.05461646978939259,"281":-0.005465575660978673,"282":0.04761608138625038,"283":-0.02445014965134365,"284":0.014827983502346055,"285":0.03808463493254755,"286":0.0786081600376281,"287":0.007903716763602105,"288":0.041811395490221816,"289":-0.027281516689536635,"290":-0.03085605469351427,"291":0.053753185216861954,"292":-0.03966839250267403,"293":0.07256667618076344,"294":-0.024373947332653106,"295":0.05704836146087117,"296":-0.06278972356160983,"297":-0.05133359061518664,"298":0.06454697420201487,"299":-0.021078667030624415,"300":-0.010268986925285568,"301":0.012254014609757502,"302":0.03492134840274581,"303":0.06036508125798844,"304":0.006456214780755329,"305":-0.10800390967733753,"306":-0.047698264611571006,"307":-0.02205156393658515,"308":-0.08399458069264815,"309":0.00842916547511546,"310":-0.06263498020514724,"311":0.05716827901569516,"312":-0.020022584699633635,"313":0.110958727473909,"314":-0.014015683664841537,"315":-0.1067816430750539,"316":-0.021710922877673792,"317":-0.009574726856011124,"318":0.09044939571571158,"319":-0.09139749390998546,"320":0.13136293358696247,"321":0.08178274513373067,"322":-0.0014916504744589903,"323":-0.14759796655260932,"324":0.056081462903695666,"325":0.05392566811270413,"326":-0.06477668083406236,"327":-0.042038666616669176,"328":-0.03710447437193389,"329":0.025960677123496957,"330":0.024434797041420944,"331":-0.013935208273603854,"332":-0.02227518703260079,"333":-0.00628603074663159,"334":0.04416843295530016,"335":0.06060770912592203,"336":0.03122315329217168,"337":0.0020323802576469314,"338":0.008005725080398686,"339":0.034036036721204956,"340":-0.08624392907655967,"341":0.047666074212782114,"342":-0.017713606971553827,"343":0.08863322447982283,"344":-0.016327068169556716,"345":0.12368923581904111,"346":0.05445815996521982,"347":0.04114408267155374,"348":0.07218304868569395,"349":0.015556625614308992,"350":0.13040632961897053,"351":0.07723404772549528,"352":-0.005987644909048914,"353":-0.0974162101262034,"354":-0.01689789688381668,"355":-0.03344010120696305,"356":-0.0639354688534019,"357":0.020975722305137078,"358":-0.10112653465734786,"359":0.0493980136311153,"360":0.021370504539791325,"361":-0.02061605245738678,"362":-0.032131183468614155,"363":-0.03654226840705862,"364":-0.0385576207456779,"365":-0.004500063466782432,"366":0.026024692355245398,"367":0.010743474267382076,"368":-0.04228599871351907,"369":0.04118261908656866,"370":0.0639331096041227,"371":0.0024561454322935775,"372":-0.102201753041094,"373":0.07201267978476049,"374":0.018371702691589886,"375":0.0060704821651911284,"376":0.017696275086157183,"377":0.028376513054115756,"378":-0.032480515496931456,"379":-0.07711784782123565,"380":-0.05484468647097699,"381":0.03803858381104496,"382":0.04256845716188964,"383":0.020008001242156036,"384":0.03721825454445501,"385":0.04754749791254879,"386":0.05675179597020913,"387":0.03672172014541775,"388":-0.011447797672472173,"389":0.1446830343961098,"390":0.01737787639788039,"391":0.0904651657304268,"392":0.00334170897942102,"393":-0.036690624067187365,"394":-0.0058719459539859345,"395":-0.05459006570356917,"396":-0.0735931948741213,"397":0.07303160353049863,"398":-0.011870963491682623,"399":-0.012000138851951973}},{"sx":5,"sy":5,"depth":16,"w":{"0":-0.12896691797362442,"1":0.01484406706328713,"2":-0.035778194221517935,"3":0.04682308049995885,"4":0.15834639807147557,"5":-0.10231596486954757,"6":-0.10013312949772786,"7":-0.002854256138635447,"8":0.06807269337616935,"9":-0.0514782840910903,"10":0.06943337034533287,"11":0.09384830168324079,"12":-0.05208242659739397,"13":-0.029310686764072696,"14":-0.02334238158391779,"15":-0.18481753942297094,"16":-0.1684659839024655,"17":0.0874304157101821,"18":-0.02856190681463399,"19":0.02155092092194046,"20":0.08622047063884974,"21":-0.17758635932320832,"22":-0.010506986828109879,"23":-0.03247988260615637,"24":0.10813846598893313,"25":0.03940594918466421,"26":0.03565494275034459,"27":0.1172176219306188,"28":0.009546867283823491,"29":-0.09663408815996315,"30":-0.07578479797623572,"31":-0.12594477121779563,"32":-0.06772209722146974,"33":0.04363811139505248,"34":0.02308552643408815,"35":-0.04545006253371655,"36":0.05812028977269412,"37":-0.12831674800724033,"38":-0.04056390360320574,"39":0.01678897913088508,"40":0.08472777582510303,"41":-0.07555268630905561,"42":0.04688301105044918,"43":0.000838284445094571,"44":-0.01634159439449214,"45":-0.12349348919476243,"46":-0.09614881227534246,"47":-0.09764899541639135,"48":-0.02956719702332896,"49":-0.04809871589886057,"50":0.01579570359967924,"51":-0.0009654950621209538,"52":0.012143288188317246,"53":-0.06801305827574913,"54":0.048670504850113705,"55":0.09450363673543341,"56":0.07567841504453121,"57":0.016352929238239233,"58":0.030476819936215618,"59":0.0011165951678689817,"60":0.039185739534746196,"61":0.07881791087278672,"62":-0.03778595530112919,"63":-0.03696168613121193,"64":-0.10703715904425389,"65":-0.0631147114421462,"66":0.030129144211619666,"67":-0.13136600194531992,"68":0.04706197226446445,"69":0.05970916579853669,"70":-0.05069292807817962,"71":0.06745958259255103,"72":0.05473461208983342,"73":-0.0069051004991692614,"74":-0.07401259413178175,"75":-0.08550427822602925,"76":-0.10071047262045343,"77":-0.036702937412608896,"78":0.04826833293755005,"79":0.010695495616111831,"80":-0.1491766362688983,"81":0.007714662429705536,"82":-0.108080124335963,"83":0.11751804724654466,"84":0.031617160577364904,"85":-0.052477399772177614,"86":-0.15152465056285344,"87":0.028002152904996518,"88":0.09609285467209394,"89":0.02907775948859747,"90":0.06888230911159418,"91":0.010334778413341626,"92":-0.06936454668737922,"93":-0.058594528541512855,"94":-0.051073698702061215,"95":-0.22929353437725367,"96":-0.1237150171873861,"97":0.042706904280190944,"98":0.008787141410106463,"99":0.0164745739269215,"100":0.06125569127106818,"101":-0.13736448399117723,"102":-0.08856751510223979,"103":-0.012770723878152103,"104":0.03398619706571346,"105":-0.0002531639782224226,"106":-0.007390431389440971,"107":0.09098953457494871,"108":0.017774503438335365,"109":-0.1139411513189091,"110":-0.08819531677759646,"111":-0.17037627250935994,"112":-0.14573479370345893,"113":-0.02609927698700604,"114":0.08743059491788972,"115":0.11607877316726439,"116":0.11126626998709042,"117":-0.09404124340469454,"118":-0.05846426074832892,"119":-0.03804369488087489,"120":-0.06373791757340413,"121":-0.009473059693679524,"122":0.08150581556961385,"123":0.06250781825200688,"124":-0.022279506563084087,"125":0.06538912346924637,"126":-0.0355780019080817,"127":-0.17577078901326532,"128":-0.08092084395660679,"129":0.07679361297113403,"130":-0.02177101459996622,"131":0.019769894449100926,"132":0.061620106760172474,"133":0.000386027772177806,"134":-0.08750589167513596,"135":-0.056449567259440246,"136":-0.023358269087595997,"137":0.004327830277657673,"138":0.06884978826289384,"139":-0.03896555510129808,"140":-0.0577625693230789,"141":0.011370731321016476,"142":0.005998778927880243,"143":-0.05697470025555156,"144":-0.05770634415400642,"145":-0.09538507350004861,"146":-0.0825522268888394,"147":0.002098202860140159,"148":0.012613906885728087,"149":-0.0048252167931090864,"150":-0.03330716820129451,"151":0.04409514208601351,"152":-0.0047939866751939356,"153":-0.06193455196079337,"154":-0.010671213119872878,"155":0.027905735468241752,"156":-0.06865847294846175,"157":-0.057243192670291626,"158":-0.13080886693651672,"159":-0.06263219160590253,"160":-0.2248494240176941,"161":-0.015228895023216176,"162":-0.04478133983921634,"163":0.16050113165300264,"164":0.03661194639959496,"165":-0.022925432265591204,"166":-0.12108159887606708,"167":0.06745884722076126,"168":0.04391085717801329,"169":0.06613764719985672,"170":0.09559481524094932,"171":0.051162596201321936,"172":0.0702786531170873,"173":-0.0009812240883829396,"174":-0.037471397120403004,"175":-0.11347400069881651,"176":-0.1350930025580695,"177":0.10553417038680767,"178":-0.026335085382815444,"179":0.0042838723826086915,"180":0.028315282596055546,"181":-0.11621933774114239,"182":-0.0384697403250387,"183":-0.10225271536776259,"184":0.0622328155122191,"185":0.00006442554173978654,"186":-0.044288316772951586,"187":0.12044654163431436,"188":0.02570009845070221,"189":-0.06211691377485736,"190":-0.06537660366113464,"191":-0.1592681643384772,"192":-0.13738906839712234,"193":0.08533346374725702,"194":-0.044389346477846786,"195":0.062416508959975525,"196":0.05471924174585467,"197":-0.14697365150904787,"198":-0.025367367113756752,"199":0.04980391382757101,"200":0.08178926392105314,"201":0.10764680453203095,"202":0.1251437716271419,"203":-0.0003806898658499881,"204":0.02174125867874849,"205":-0.0837061415571372,"206":-0.08071252632409012,"207":-0.09937551024370064,"208":-0.07501613032282718,"209":0.07642878241186961,"210":0.02002206592895165,"211":0.0029181915487131423,"212":0.15799065608505367,"213":-0.08094757445561308,"214":-0.07002329112798741,"215":0.09182228494643584,"216":0.09247801869551885,"217":0.03824619546882924,"218":0.06852884851323061,"219":0.009727618425270585,"220":0.057146170910136025,"221":-0.05670865351058614,"222":0.019413587244510897,"223":-0.02696752262637144,"224":-0.13193586315024183,"225":0.04173689945736937,"226":0.004202283892922061,"227":0.055884955387170865,"228":0.0000586661271831311,"229":0.021233034844846604,"230":-0.1294666314332311,"231":0.03268496459545057,"232":-0.01043467343419804,"233":-0.04846638326669087,"234":0.010698630326451625,"235":-0.008671538631714404,"236":-0.03321301823346792,"237":-0.0020031184302484,"238":0.050091662056925744,"239":0.01600318419011663,"240":-0.17850687214802075,"241":-0.006931773335048868,"242":-0.0202114383991241,"243":-0.031339056395999355,"244":0.07395821477970944,"245":-0.1013056556800626,"246":-0.027872009853122732,"247":0.014012836339570766,"248":0.01795739071111218,"249":0.0844429879484186,"250":0.05410671181102449,"251":0.0896954665360379,"252":0.0031063412066160596,"253":-0.0905954529704333,"254":-0.06832953355090685,"255":-0.12379331320180144,"256":-0.1745610503874297,"257":0.003979553518348016,"258":-0.013355020133465515,"259":0.042632060039050484,"260":0.002779448516208193,"261":-0.09302785435001486,"262":0.0013325202374914243,"263":0.011583192386161519,"264":0.05021453410953282,"265":-0.003324019564836438,"266":0.06367269648534572,"267":0.08615279637220406,"268":-0.035753348510451574,"269":0.0019487293423072654,"270":-0.008301659862269007,"271":-0.13864852966355476,"272":-0.11014173397353674,"273":-0.013045512313103146,"274":-0.08721403428082436,"275":-0.033729681288389164,"276":0.06576553250291048,"277":-0.15014167277539148,"278":-0.02989796872801282,"279":0.02172194195296032,"280":-0.04409392008317599,"281":-0.04968211433312852,"282":0.04466857042019688,"283":-0.032324382698583606,"284":0.06810636121850776,"285":-0.05784031253970789,"286":-0.13703401620675038,"287":-0.1419352901592778,"288":-0.06218145865507247,"289":0.06415521370995492,"290":0.06556582150244933,"291":-0.04741918976778784,"292":0.02805988893769106,"293":-0.10254833260385558,"294":-0.09344037985209136,"295":0.046286383354853806,"296":-0.020981840964808804,"297":-0.014613870086558896,"298":0.04293943785614321,"299":0.019678026746820548,"300":0.02033244004058659,"301":-0.055550252067490036,"302":-0.010676725187946027,"303":-0.13670753359726132,"304":-0.15228007107193683,"305":-0.005215334215292594,"306":-0.02028931383346003,"307":-0.00824995992444977,"308":0.10557684515284017,"309":-0.11438052278125066,"310":-0.15446803035678972,"311":-0.03380400147090851,"312":0.039108265585803915,"313":-0.08385060426058404,"314":-0.020143615943681185,"315":0.07130313909665599,"316":-0.09134877751879747,"317":-0.00551865090037023,"318":-0.10659181410921896,"319":-0.03321573365096639,"320":-0.14066457053098577,"321":0.06465315789101587,"322":0.02679221047325481,"323":-0.07029355088267195,"324":0.052817493305505434,"325":0.00040126097902796505,"326":-0.12317687856413338,"327":-0.10079675258744016,"328":-0.004321953345957835,"329":-0.000962634686618056,"330":0.050996860368465805,"331":-0.04268065721877456,"332":-0.050380628226654824,"333":-0.08633147981941126,"334":-0.08252531000252755,"335":-0.09655007100297779,"336":-0.16221968545165105,"337":0.0386231099609546,"338":-0.033958308382932345,"339":-0.03065866749021489,"340":0.056663912882721316,"341":-0.07742168415755507,"342":-0.015234613796298676,"343":-0.005444825298657441,"344":-0.01137751345936791,"345":-0.028566063632408985,"346":0.008119581791533775,"347":0.09278826992047311,"348":0.002901377694389307,"349":-0.014100172415227444,"350":-0.11751342373325298,"351":-0.07276879039471223,"352":-0.12954112201362436,"353":0.04250155742176102,"354":0.06742607327802444,"355":-0.027792280312134033,"356":0.08278164203338277,"357":-0.09502291236325147,"358":-0.11340625584921067,"359":0.0002752607496391488,"360":0.03671551407725388,"361":-0.017922732492957432,"362":0.019663216633782017,"363":0.049475067312459424,"364":-0.03967393566097813,"365":-0.022672401662634022,"366":-0.026809526646650997,"367":-0.047333795989368814,"368":-0.06784072826721108,"369":0.14487290731026586,"370":0.0500607762877946,"371":0.010769277133560146,"372":0.09906518407357233,"373":-0.1164858382811382,"374":-0.0819607472003141,"375":0.04656251587043018,"376":0.06460795224846241,"377":0.04293699298651432,"378":0.03036985671119269,"379":0.07321659036687256,"380":-0.03714818864944995,"381":-0.11854292043615575,"382":-0.06467647064631413,"383":-0.09079802438313973,"384":-0.09432286030498033,"385":0.04216276710604233,"386":-0.053763581241813935,"387":-0.021594648367919002,"388":0.08442392845507252,"389":-0.03841978790785294,"390":-0.025541625523895717,"391":0.02788428025751119,"392":0.008790293075256611,"393":-0.09980730233706596,"394":-0.003914298765623919,"395":0.05265608910347487,"396":-0.04999266370281467,"397":-0.039925620403831415,"398":0.03462661029856648,"399":-0.11651600604510326}},{"sx":5,"sy":5,"depth":16,"w":{"0":0.13341744740394293,"1":0.036272277522839694,"2":0.12240248165221544,"3":-0.1265070378378538,"4":0.03812288259235689,"5":0.06998679242128053,"6":0.000463435556451388,"7":-0.024862356290943473,"8":-0.11764569700212318,"9":-0.028006233111403957,"10":0.008642059529782349,"11":-0.054202978764559755,"12":0.07572885041306762,"13":0.04424866660654615,"14":0.02267905712980558,"15":0.0259251100111716,"16":0.13455281220712126,"17":-0.06493962171258744,"18":-0.037825471387501634,"19":-0.18684873677158004,"20":-0.05640054933119876,"21":0.08383554512526717,"22":0.017321907944455577,"23":0.016272212260782813,"24":-0.03308555556930821,"25":0.056282004285523976,"26":-0.015416091990233319,"27":-0.09651521136284183,"28":-0.015099836908069257,"29":0.11167959597392686,"30":0.055056268547813966,"31":0.03648294621780504,"32":0.03939779933882494,"33":-0.02765955570750976,"34":-0.07231840968133504,"35":-0.11834775532027754,"36":-0.07242509758914774,"37":-0.039752139007783745,"38":0.0409332735415769,"39":0.05311814579352033,"40":-0.035377101274130275,"41":-0.07311655773804043,"42":-0.08157446229181921,"43":-0.044984618073411184,"44":0.008628462460333065,"45":0.014514989892314053,"46":0.017805380457169194,"47":0.09355830086324086,"48":0.02387352512753114,"49":-0.04821910941322854,"50":-0.0011154217107975433,"51":-0.13176780312854922,"52":0.02515494037485123,"53":0.023535277769799412,"54":0.04014759120866104,"55":0.012294597587835252,"56":-0.14423293935844503,"57":-0.06425967900427441,"58":-0.11305207637846551,"59":-0.03128146485688186,"60":-0.07302842158236239,"61":0.010336822243094722,"62":0.0822176213003526,"63":-0.03252596329307053,"64":0.11076271535789671,"65":0.014502603731015725,"66":0.05973317139344536,"67":0.0008625390917639022,"68":-0.09230133339898697,"69":0.05311436516078281,"70":0.11866144861443317,"71":0.024492965304754435,"72":-0.07047531876398934,"73":0.015096182674805265,"74":-0.05416470923066448,"75":-0.14210192957931475,"76":0.05938765674691452,"77":-0.003671503175437435,"78":0.026889223157490413,"79":-0.021247621526072572,"80":-0.012714279632155158,"81":-0.07690050905408401,"82":-0.12146907736047043,"83":-0.05804838618746486,"84":-0.016592343682452354,"85":0.100841830986888,"86":0.08023758040589468,"87":-0.08412604655976899,"88":0.01923707177016008,"89":-0.057954761634664224,"90":-0.016593123284693704,"91":-0.06667700483196909,"92":-0.00595857549323071,"93":0.04539296852578812,"94":0.0856247647185466,"95":0.14315951055681886,"96":0.06936969662992584,"97":-0.03189486430897115,"98":0.03033198890300219,"99":-0.05140592881552641,"100":-0.05675397977549679,"101":0.0578930460368392,"102":0.06415555723224345,"103":0.05324717078250004,"104":-0.13700668182921116,"105":0.07760043193490987,"106":-0.06476307601919565,"107":-0.07932668584757141,"108":-0.05370179703745923,"109":0.059763851363128215,"110":0.13356437274654345,"111":0.0735253037600074,"112":0.10240105025318506,"113":-0.15666095071856756,"114":-0.057440917724861165,"115":-0.05833568479065486,"116":-0.16321953008932105,"117":0.0008973746842642708,"118":0.10980377896907767,"119":0.022408332325273457,"120":-0.19980143424886526,"121":-0.07729580789649394,"122":-0.06026895645729751,"123":-0.20882028991476467,"124":0.0022598732774318365,"125":-0.030588854755429187,"126":0.0458706296104594,"127":0.09969181732121264,"128":0.16584310795510795,"129":-0.046377183412955936,"130":-0.032183019783988805,"131":-0.043877658119718,"132":-0.08348351542271337,"133":0.09130096849269347,"134":0.006297834850095503,"135":-0.008526646372457427,"136":-0.12142724577054212,"137":-0.1116592072997029,"138":-0.11490024818126261,"139":-0.1462229364810262,"140":-0.04657804983722961,"141":-0.03300949964855829,"142":0.004354856357380131,"143":0.07962704447011495,"144":0.10730110153300858,"145":0.017189188297657535,"146":-0.1171915552546039,"147":-0.10994432500658587,"148":-0.002502810756517416,"149":-0.02370697090233219,"150":-0.10376425819566527,"151":-0.1184093553381506,"152":-0.08144940408013954,"153":0.05858923347111782,"154":-0.06308011749739836,"155":-0.024462646371560343,"156":0.07859767356259185,"157":-0.04048582953013658,"158":0.01016515061505288,"159":0.08178984676656757,"160":0.05341761573029935,"161":-0.029582922072561486,"162":-0.002451031785235204,"163":0.08008457867848466,"164":-0.00695802642103319,"165":0.05423391805842243,"166":0.01770807931712061,"167":0.03222597809620797,"168":-0.14092468546120163,"169":-0.09824883114857154,"170":-0.09665303320064865,"171":0.011870040268816032,"172":0.034743058036783986,"173":0.010244171073064644,"174":0.0487371766569715,"175":0.0075104366095378565,"176":0.04355901827319472,"177":-0.044003801030506745,"178":-0.02899781584020381,"179":0.011907316789723173,"180":-0.08406751912056526,"181":-0.015463035394021088,"182":-0.002291417048262553,"183":-0.032797744651524914,"184":-0.08682175080978952,"185":-0.07295571035621157,"186":-0.08590725836015317,"187":0.10368265760911073,"188":-0.005699341660469302,"189":0.05735471181262913,"190":-0.04298580349118709,"191":0.10535423659562114,"192":0.03877935267347165,"193":-0.11050155374608672,"194":-0.045082176107502404,"195":-0.11040639689589356,"196":-0.008710682433513382,"197":0.0661714465215557,"198":0.04495783999314605,"199":0.029543569610216834,"200":-0.2180414440527123,"201":-0.05131987920966802,"202":-0.06902208850211292,"203":-0.03714556291114653,"204":0.06877567171598457,"205":0.048589497168034866,"206":0.04414810819909225,"207":0.05383538524505042,"208":0.015539704101816484,"209":-0.10936576148582353,"210":-0.06634153655399963,"211":-0.03515715746059283,"212":-0.06619795313598682,"213":-0.004228593050400551,"214":0.04784232198217029,"215":-0.025121209878544996,"216":-0.08411669970285622,"217":-0.041278862169215,"218":-0.08202012647506332,"219":-0.06678358017888562,"220":-0.0007363241924000812,"221":0.1115841926655413,"222":0.01514509107689551,"223":-0.00435365999427867,"224":0.020491498849670328,"225":-0.038093519439553414,"226":-0.005084679153784447,"227":-0.05862379546835481,"228":-0.12074072965289227,"229":0.00515926308676345,"230":-0.031299812477028045,"231":0.01688719306170315,"232":-0.09094282100767147,"233":-0.054497188408154436,"234":0.0059002247828857275,"235":-0.019745509546479734,"236":-0.005757312398856364,"237":-0.10300161276465042,"238":-0.059926381479343024,"239":-0.00715628484898711,"240":0.0393403378204999,"241":-0.025624966809974854,"242":-0.06194617925173393,"243":0.004628491593901614,"244":0.08723967118754178,"245":-0.03217226295032822,"246":0.07051086653350164,"247":-0.08045271057848283,"248":0.02265168205113653,"249":-0.04046635207743345,"250":0.07155973170420779,"251":-0.03270413560722173,"252":-0.004596490288889439,"253":-0.03786896299423138,"254":-0.09458991640595035,"255":0.10985231410562236,"256":0.029938760178298003,"257":-0.053802277760383835,"258":-0.053489728984939686,"259":0.02479863785669431,"260":-0.10372426014580159,"261":0.020295765419524863,"262":-0.028475684485788834,"263":-0.14002274093157865,"264":0.007828989922893648,"265":0.023445593244187983,"266":0.04033322284654933,"267":0.08114692650042363,"268":0.0370444633099934,"269":-0.0410782583785606,"270":-0.09746402511807786,"271":-0.09370729965727248,"272":0.0802880890846515,"273":0.0006118891927219222,"274":0.002983663291410674,"275":-0.058092459454572296,"276":0.02176043484138822,"277":0.0328268195817478,"278":0.06524311877285072,"279":-0.11857342488699887,"280":0.013256055020952829,"281":-0.02088003508373198,"282":0.022786626813196483,"283":0.07106364195633484,"284":0.009877686041296574,"285":0.016503682857718346,"286":-0.0947463020571317,"287":0.03797580967039461,"288":-0.06612790980011327,"289":-0.009934401643826026,"290":0.002960826757296606,"291":-0.04035643671939596,"292":-0.06615134094535413,"293":-0.06953299190863312,"294":0.03987507074913264,"295":-0.09211339956495973,"296":0.03788722977460025,"297":-0.00880790152658081,"298":-0.1349526401882581,"299":0.05776617475886224,"300":-0.034916397113339444,"301":0.07008624709692923,"302":-0.016379667892162386,"303":0.07672225541115031,"304":0.11256113991009663,"305":0.03473841245752089,"306":0.005856037112740093,"307":-0.07127105474257496,"308":-0.05484264694517352,"309":-0.007377291193251411,"310":0.046229453897137986,"311":-0.0974474927212009,"312":-0.024523004726851937,"313":-0.008087853798858674,"314":-0.08277332128642445,"315":-0.05842005996455771,"316":0.018620819879472818,"317":0.025734556194061953,"318":-0.10945278925389312,"319":0.08912103669204478,"320":0.08203911788126934,"321":-0.0016212923497512192,"322":-0.15980556512899638,"323":0.010034780919969366,"324":0.07586200729007225,"325":-0.09789977767062331,"326":-0.07274550476297482,"327":-0.04335555800261011,"328":-0.013948465456919015,"329":-0.007104247360284273,"330":0.03992018430337138,"331":0.025457689594792488,"332":0.042700082125520414,"333":-0.02101098946381428,"334":-0.024425137880333687,"335":-0.07855653596520465,"336":-0.02951076212457625,"337":0.04663279077061668,"338":-0.10094204443046768,"339":0.05227388089302891,"340":-0.013214166191721308,"341":-0.028940480508393197,"342":-0.05560858671099841,"343":-0.09537590776635806,"344":0.08945163033882773,"345":-0.09872526364264364,"346":-0.16903775202444474,"347":0.02949260139559019,"348":-0.010410693930505413,"349":0.011614438408116608,"350":0.007010725004039011,"351":-0.05071058101160163,"352":0.016822341838487964,"353":-0.03212880980725103,"354":-0.03130816502081346,"355":0.006409666951374729,"356":0.018055506407929318,"357":0.0041465840371919735,"358":-0.037596187784887485,"359":-0.06785202936797768,"360":0.01726975729880915,"361":-0.09923427040581463,"362":-0.07131133641648385,"363":0.014436778612684713,"364":-0.10309652194224005,"365":-0.05358047381723167,"366":-0.02407596048062608,"367":-0.07996737908710776,"368":-0.04799870711367835,"369":-0.023666251124577712,"370":-0.10847821171374276,"371":0.00516196538964404,"372":0.052293203521868864,"373":-0.052933052723259114,"374":0.026200400513467895,"375":-0.07079804036049642,"376":-0.08549006813222128,"377":0.06979038503270203,"378":-0.10572506319873064,"379":0.004078235304047525,"380":-0.06048795615660064,"381":-0.11552222881546367,"382":-0.09865027081330716,"383":-0.03666178791353217,"384":0.03683577425844035,"385":-0.05247810313695906,"386":-0.12160388840783781,"387":-0.004981799006970289,"388":-0.04438919021502082,"389":-0.03831365225991415,"390":-0.03529055718893707,"391":-0.10815559031182909,"392":0.07530021792601836,"393":0.04817087962634637,"394":-0.014867661088715654,"395":0.02169110779821527,"396":0.016914063843589205,"397":0.10201442612035001,"398":-0.10923824055933894,"399":0.03615490061064028}},{"sx":5,"sy":5,"depth":16,"w":{"0":0.0612749719139038,"1":0.12554037171599652,"2":0.00018149753236151994,"3":0.03502253935204404,"4":-0.025383122381501266,"5":-0.05717239450696225,"6":0.030508395328812304,"7":-0.04015116697262322,"8":0.12697573946789004,"9":0.055603075167917335,"10":0.15184554441814627,"11":-0.020775404287860833,"12":-0.010750572374733538,"13":-0.01780310445725342,"14":-0.09284609040733616,"15":0.09057242554841487,"16":-0.047560006512950545,"17":-0.0032956910360800104,"18":0.010137075752408005,"19":0.015246976066228499,"20":-0.0502234987157546,"21":-0.042568910332173505,"22":0.020971339186527518,"23":0.009372275707646599,"24":0.018915236308166,"25":0.0563272027064615,"26":-0.1827703718954643,"27":-0.02838901770652845,"28":-0.009227681924580159,"29":0.01723886960182865,"30":0.0019450860613802218,"31":0.030204668901725344,"32":-0.010693730545998686,"33":0.026471936479324994,"34":-0.06144454712498767,"35":0.04277797512532796,"36":0.02576866484342653,"37":-0.0014211274494947024,"38":-0.08982008844674644,"39":0.05044562216304706,"40":-0.07310639200554869,"41":0.03224672888520028,"42":0.042183279313399616,"43":-0.04538776384374922,"44":0.06850723223084798,"45":0.07003037646879513,"46":-0.03468603054008803,"47":0.007864888394731855,"48":-0.05629380356494951,"49":0.10608177369533217,"50":0.1658511840713315,"51":-0.0029805102643129557,"52":-0.009871529571366102,"53":-0.03328721660050935,"54":-0.06285058829417749,"55":0.05611627806138387,"56":-0.07658195912732955,"57":0.025918169755245274,"58":-0.02311241422908062,"59":-0.090094611610019,"60":0.03302718650867186,"61":0.005348672375099905,"62":-0.06419846254385218,"63":-0.07042953767933649,"64":0.020922321020915544,"65":-0.010755820628946155,"66":-0.061495551089084735,"67":-0.052884524743039237,"68":-0.049853278491581804,"69":-0.05790378848858596,"70":0.008249870947065604,"71":0.04447883384131213,"72":-0.00678508413125654,"73":-0.053435202802110775,"74":-0.03328850455256007,"75":-0.01632647430834215,"76":0.01748417290096913,"77":-0.039369697475337806,"78":-0.08280017615663846,"79":-0.05993538828002418,"80":-0.014671969475307804,"81":-0.07743032996450966,"82":0.07046135812796989,"83":-0.060512697316190155,"84":-0.026921103171544614,"85":0.03230231327637636,"86":-0.03978800578554033,"87":-0.01455210366036945,"88":0.043917656533539816,"89":0.06656578724440688,"90":-0.04609574183847202,"91":-0.009490176276113463,"92":0.07033973242173616,"93":-0.0032716754648539413,"94":0.009241762743496185,"95":-0.03396881446398461,"96":0.07564538451792731,"97":0.00851568255456894,"98":0.04153859085488771,"99":-0.01830057979521753,"100":0.037556294971764444,"101":0.01821683637009743,"102":-0.040748373439134046,"103":-0.0015477546029400533,"104":-0.026442752697347777,"105":0.03927090245313737,"106":-0.09951067857661697,"107":-0.06423510486072635,"108":0.026628181933640752,"109":-0.05265509211321338,"110":-0.02334401792086947,"111":-0.10383117903636868,"112":0.02945437441668946,"113":0.00776840166886603,"114":0.012444802231807547,"115":0.026658389963523734,"116":0.012542038493147003,"117":0.0493438545300865,"118":0.04120227414074377,"119":0.05478424504314869,"120":-0.028166325605520116,"121":-0.0347041829814457,"122":-0.08135824205716026,"123":-0.02440011863890264,"124":-0.0218050724303324,"125":0.058328001476168206,"126":0.05108340285124915,"127":0.10711093404427406,"128":0.055292541877578816,"129":-0.007825906261473354,"130":0.037594355690928366,"131":0.0009993323268549785,"132":-0.011577829298712957,"133":0.03143314815215718,"134":-0.03197020214185429,"135":-0.005425085580793446,"136":-0.024061562168703258,"137":-0.008861652698533862,"138":-0.02127864051568934,"139":-0.07619493034270534,"140":-0.033555443649143105,"141":-0.01610320392348725,"142":0.11028287519077731,"143":-0.0030057092652030176,"144":-0.018933267038441844,"145":-0.17849911714840347,"146":0.06274256950564634,"147":-0.07995131856266464,"148":-0.03316450794007551,"149":-0.0050759515944285806,"150":-0.001402581538715985,