{"layers":[{"out_depth":3,"out_sx":32,"out_sy":64,"layer_type":"input"},{"sx":5,"sy":5,"stride":1,"in_depth":3,"out_depth":16,"out_sx":32,"out_sy":64,"layer_type":"conv","l1_decay_mul":0,"l2_decay_mul":1,"pad":2,"filters":[{"sx":5,"sy":5,"depth":3,"w":{"0":-0.18885657937119008,"1":-0.015335733250799987,"2":-0.1107846774975064,"3":-0.2016893411638374,"4":-0.19342050478170278,"5":0.20957343372640788,"6":0.03928934121187683,"7":-0.22221099977717446,"8":0.06583312350230873,"9":0.04756920352819752,"10":0.09132976358551474,"11":0.10063414484501318,"12":0.006509896342086531,"13":-0.02650970552197457,"14":-0.03641399244968296,"15":-0.1329760427412098,"16":-0.038947101585932446,"17":0.19105775019392918,"18":-0.04256127657996022,"19":-0.19718252569196543,"20":0.09594542698598307,"21":-0.13056699725680024,"22":-0.014428382026462867,"23":0.0856985092719716,"24":0.0851188321198919,"25":0.10375046007652745,"26":0.036018195128069835,"27":0.008071301944509349,"28":0.024599754723777546,"29":-0.08977589890580075,"30":-0.10334371518406567,"31":-0.033026839023702244,"32":0.1702639887015523,"33":-0.17779223428751056,"34":-0.3506243169409402,"35":0.12863454427714321,"36":0.006302468822188834,"37":-0.044312437943172994,"38":0.04686812510484709,"39":-0.05432733782897766,"40":0.006531985176956453,"41":-0.13204501576361924,"42":-0.034080359459420805,"43":0.1771270412489132,"44":-0.12925032787376867,"45":-0.06231293245946997,"46":-0.01126481192045504,"47":-0.03331113763046272,"48":-0.16533724539281727,"49":0.002492452686264608,"50":-0.13377379943596138,"51":-0.2793163056335285,"52":-0.06630898251070694,"53":-0.10274017924865657,"54":-0.09483972536235175,"55":0.1334156307814119,"56":-0.1354156194698027,"57":-0.08967860328963209,"58":0.07911201468588289,"59":0.027193787550627426,"60":0.06648394105792466,"61":-0.15661965432732802,"62":0.11487384983182519,"63":-0.01789641732035346,"64":-0.020914955497232452,"65":-0.08499418777099321,"66":-0.1864625296955728,"67":-0.0387755977015198,"68":0.04446082538215019,"69":-0.12887872299509853,"70":-0.028052748144718333,"71":-0.1254881448383713,"72":0.01447772492778054,"73":-0.07846187328818512,"74":-0.1071302610625502}},{"sx":5,"sy":5,"depth":3,"w":{"0":0.2109935568937912,"1":0.1546241839882834,"2":-0.07190492510438759,"3":0.07661402125861316,"4":0.17990528069178274,"5":0.0668111874175643,"6":-0.019057236056575035,"7":0.2016074584947717,"8":-0.01205117934295237,"9":-0.029762485661792796,"10":-0.02730249287546322,"11":0.049063433080310755,"12":-0.009045533867268592,"13":-0.10086859996811952,"14":-0.07449781973346672,"15":0.15416093973138387,"16":0.2885909953234424,"17":-0.029191956366228254,"18":-0.24430683565875652,"19":0.022882670586159733,"20":0.08995157596492113,"21":0.04145895356076959,"22":-0.06514834424337083,"23":0.04513479001110128,"24":0.062015640925210835,"25":-0.05929108259421133,"26":-0.04047788663603584,"27":0.0017786693996530837,"28":0.04760719720136271,"29":-0.07496257341068993,"30":0.010906869094815374,"31":-0.07649760914280508,"32":-0.15565315027607038,"33":-0.038035846204854465,"34":0.046710467293796146,"35":-0.1329620524725647,"36":0.1293493633129832,"37":-0.029628126980594097,"38":0.06033968290880961,"39":-0.03643164996477538,"40":0.15320117077103382,"41":0.08976749265000038,"42":0.014529595611109024,"43":0.026819104404275138,"44":0.15174624907756754,"45":0.19410144382929384,"46":0.1662966259807285,"47":0.10442865371253847,"48":0.05802864345697217,"49":0.0804748655888918,"50":-0.05119721112853372,"51":-0.06132594572286324,"52":-0.09846940126914669,"53":0.10633308575895037,"54":0.055529082679254216,"55":-0.04374710241635714,"56":0.08556405996071731,"57":-0.07707120203082296,"58":0.08500020543352722,"59":-0.024673536817776332,"60":0.11252280973260563,"61":0.18682729568109838,"62":0.01742940341303929,"63":-0.022722245920909302,"64":0.14350474801319058,"65":-0.030286212507457586,"66":-0.16192561160175478,"67":0.16153157098847737,"68":0.07328426076246562,"69":0.030641916863721527,"70":0.16151505231390093,"71":0.09107579249598056,"72":-0.11155364745260407,"73":-0.009998935855316034,"74":-0.08502137930599167}},{"sx":5,"sy":5,"depth":3,"w":{"0":0.005853533255051266,"1":-0.16895354080487515,"2":0.0699439548941862,"3":-0.20627734987487562,"4":0.16479104702123282,"5":0.0809083937222016,"6":0.02859621335312186,"7":0.07804507931570298,"8":0.1761220614102164,"9":0.020267388515864907,"10":-0.03564856058960344,"11":0.02945925415039228,"12":-0.04547572741264862,"13":-0.21340500800095535,"14":0.20363235657968484,"15":-0.1537161161895575,"16":0.3081058884017129,"17":-0.022612050709954284,"18":0.07974158347245534,"19":0.010435060344060975,"20":-0.028946157102863232,"21":0.0515200937557839,"22":-0.16847448465314996,"23":0.015799742777784804,"24":0.07912685255334458,"25":0.010980874800285156,"26":-0.1307518106572909,"27":-0.14093414430672335,"28":-0.01441995758049591,"29":0.016719170860939946,"30":0.12295685235677904,"31":0.09847124368850343,"32":-0.07215664598368716,"33":-0.08031980034665995,"34":-0.004685641495107057,"35":0.04777253371745055,"36":-0.12136272918637744,"37":0.046690435694235005,"38":-0.19165353377761335,"39":0.07699878281221305,"40":0.11576115749199013,"41":0.00625942837475431,"42":-0.04812546537433053,"43":0.1170553256710062,"44":-0.04979963904565925,"45":0.04898814476940754,"46":0.09139732377618436,"47":-0.005247127289102553,"48":-0.03693511691826429,"49":0.09571064572425522,"50":-0.011368458948587522,"51":0.048999888150308,"52":0.03850819471805326,"53":0.10958437501380805,"54":0.01565653317676195,"55":-0.061972701198002085,"56":-0.07425448949026914,"57":0.06350480050767768,"58":0.21355750857317832,"59":0.0004761273751927437,"60":0.0716373276821261,"61":-0.03513580863420247,"62":-0.08469107977862672,"63":0.1942310664894201,"64":-0.056943770746985485,"65":-0.12925132424045244,"66":0.18592051397094816,"67":-0.01591390082739361,"68":0.10286850025146681,"69":0.05496486857643383,"70":-0.015382950765238159,"71":-0.044785566537509154,"72":-0.077897307484246,"73":0.02488072874409408,"74":0.2847201185195433}},{"sx":5,"sy":5,"depth":3,"w":{"0":-0.14664601758510395,"1":-0.11054610821938758,"2":0.05511981840723898,"3":0.06715766029696575,"4":0.06290963991533477,"5":-0.03395633845751609,"6":0.0025332578662161463,"7":-0.21119225329656527,"8":-0.24889208561943696,"9":0.11025839931232652,"10":0.10079270099954447,"11":-0.12995512548560198,"12":-0.15545577315232437,"13":0.04374416338082341,"14":-0.1650075284539988,"15":0.09069391553686208,"16":-0.0744843656447486,"17":-0.1952652257697511,"18":0.04792056437786229,"19":0.038388903843657105,"20":-0.1448739343574468,"21":0.008159702744871444,"22":0.005483120438003184,"23":-0.0331631147752768,"24":0.20392874291624405,"25":-0.42696661432826916,"26":-0.13441828867098526,"27":0.11261630134157012,"28":-0.08718591336942567,"29":0.0009153528112730556,"30":-0.21952333013632822,"31":-0.011819816805640286,"32":-0.17814540601756607,"33":0.01593878028452326,"34":-0.04249683375344912,"35":0.11170792322103486,"36":0.0125717618023015,"37":-0.13282524752382474,"38":-0.33268793796397106,"39":-0.08575938201770382,"40":0.1476652911791372,"41":-0.2124544097552311,"42":-0.12819009705837583,"43":-0.05795183317440396,"44":-0.10915787057810479,"45":-0.185319185550008,"46":0.0012658454220123734,"47":0.0038387359416823448,"48":0.008834046956558577,"49":-0.08439554694472694,"50":-0.23976558412436624,"51":0.047613211791863584,"52":-0.11406417917858629,"53":-0.37896460533144205,"54":-0.17771366283844045,"55":-0.5780534356076475,"56":-0.10053581645823795,"57":-0.16744265939782804,"58":-0.27585255503871153,"59":-0.01288805125776818,"60":0.03640648983764603,"61":0.17691184834215903,"62":0.05263494870797918,"63":-0.07885094223694633,"64":-0.020708291380932727,"65":-0.1461348436859996,"66":-0.04885792032800681,"67":-0.2516468436994856,"68":-0.17138796139719822,"69":0.03117685226347025,"70":-0.22857688680070726,"71":-0.15156088911841267,"72":0.14897382923860725,"73":-0.10372070762352228,"74":-0.19796728085996151}},{"sx":5,"sy":5,"depth":3,"w":{"0":0.0021898977156104213,"1":0.1363123216808181,"2":-0.05916581270878412,"3":-0.02220138873672608,"4":-0.044395754463663985,"5":-0.01902182993490549,"6":-0.025865019105097708,"7":-0.12580803005053304,"8":-0.17261929559276115,"9":-0.3025521373590464,"10":0.07950533405120434,"11":-0.09362269556242116,"12":-0.10648631089977545,"13":-0.22996246121373232,"14":0.11872344285886698,"15":-0.025229304597987084,"16":-0.16256647634805327,"17":0.0524569885301877,"18":0.2672515718205892,"19":-0.21644909099890097,"20":-0.16030510383677204,"21":-0.054231322751957724,"22":-0.11583088220412835,"23":-0.047564255987005054,"24":-0.2192333652469588,"25":0.27384993085102416,"26":0.08310388732669169,"27":0.08756807929076396,"28":-0.05897875120421014,"29":0.10201874720340519,"30":0.14183575981962238,"31":0.058443059340232154,"32":0.04777595439742718,"33":-0.12325650874069755,"34":0.03982565349149534,"35":0.05960142720392912,"36":-0.07396004021270013,"37":-0.07574328078304712,"38":0.05402193910511856,"39":-0.012015686606817672,"40":-0.07454985914606205,"41":0.06642002765961633,"42":0.029635229956774048,"43":-0.05613663338077762,"44":-0.06706335450166304,"45":0.055775984691468404,"46":0.19525027306518727,"47":-0.031282858396667244,"48":-0.061549721777966436,"49":0.016747796544918096,"50":0.1429003162914305,"51":0.0482823110488839,"52":-0.26146912114762216,"53":-0.10063079822894884,"54":0.11906523923332368,"55":-0.0741011111862604,"56":0.1232080453968734,"57":-0.1514047510310985,"58":0.18118304067313373,"59":-0.1849715209904907,"60":0.11946113160487322,"61":-0.08430694545660361,"62":-0.243322545632131,"63":0.12584753091264989,"64":0.014153583263199699,"65":0.33031080147293523,"66":-0.025433767724986987,"67":0.2555356566796484,"68":0.03675408159926291,"69":0.009449199099489177,"70":-0.0020333534101024237,"71":-0.23252834672187186,"72":0.15670857542164845,"73":-0.20611740048398003,"74":-0.01108496062747997}},{"sx":5,"sy":5,"depth":3,"w":{"0":-0.20643913512242593,"1":-0.094407442185048,"2":0.18103988990948255,"3":-0.08539739998262266,"4":0.03290307760820725,"5":0.012835180883359247,"6":-0.1756873044477701,"7":-0.13931839172858312,"8":0.09023153296864303,"9":-0.26652920438495054,"10":0.10212120812767557,"11":0.02725789583483382,"12":-0.05616913028377932,"13":0.1589869960656065,"14":-0.14553084783162995,"15":0.027091297532017788,"16":0.001646842976695002,"17":-0.06577790228562237,"18":-0.05142161890937665,"19":0.10905545406127472,"20":0.06151351192667832,"21":-0.11003770819621142,"22":0.006804455537919798,"23":0.14380949812993737,"24":0.09031790170272487,"25":0.13471808304388475,"26":0.08646008144109513,"27":0.08357127288570822,"28":0.17384864512144782,"29":0.026516876178592982,"30":-0.15583931408476237,"31":-0.07801431073701777,"32":0.10305792276352042,"33":-0.029156222447604734,"34":-0.014712990276177765,"35":-0.17494511626652123,"36":0.09479829324907402,"37":0.022486607064100623,"38":0.20964245794931713,"39":0.1841451964638858,"40":-0.03924065088274815,"41":-0.07294328658002039,"42":0.09102999761490588,"43":-0.05024057250501811,"44":0.2416450943685914,"45":-0.04349295316345801,"46":0.03909755304065293,"47":0.16821694802423628,"48":-0.053395706479325906,"49":0.0447544089757534,"50":-0.17266471734229275,"51":0.0905814434922772,"52":0.10301337024488413,"53":0.03303551558016402,"54":-0.045946989514789385,"55":0.053228434808809774,"56":-0.00017715445760494168,"57":0.014341782621176776,"58":0.037592190624720793,"59":-0.016219134854765543,"60":0.018436829481316398,"61":0.26026737864588856,"62":-0.1700062785262796,"63":0.19111687611414446,"64":-0.0026669323267771443,"65":0.2479550653164795,"66":0.05544322557097007,"67":0.005771007182886782,"68":0.17456860959550222,"69":0.1892865455966838,"70":0.12450994179068302,"71":0.1469982032137713,"72":0.04089144841622996,"73":-0.05308752762223857,"74":-0.0008135846117543636}},{"sx":5,"sy":5,"depth":3,"w":{"0":0.056709113001842934,"1":0.05140661779044789,"2":-0.09180072693411619,"3":-0.2871831774112748,"4":0.17548790394612368,"5":-0.1699038558263946,"6":-0.032843117575259914,"7":-0.009343365520402411,"8":0.05336768851646404,"9":-0.17581357305042988,"10":-0.05185356653439444,"11":0.11117788736294101,"12":0.04676723830454809,"13":0.25966400465823236,"14":0.07314061921109032,"15":0.11708705421112207,"16":0.03921267888469055,"17":-0.07512830622647704,"18":-0.0695077629032049,"19":0.17023279805465016,"20":-0.007419379359322538,"21":-0.006349733932123765,"22":0.06990489210792258,"23":0.026086909857973663,"24":-0.06403163768666438,"25":0.24765448468669166,"26":0.15966377462184042,"27":0.24566929991745332,"28":0.009680997976017357,"29":-0.04924353521195381,"30":0.2365520719755521,"31":0.027395190648978288,"32":0.048308491992273904,"33":0.20090205189877253,"34":-0.01845908278460465,"35":0.007741875379345995,"36":0.2423553424434794,"37":0.06223603783629868,"38":0.06695353460095192,"39":-0.0698701611955424,"40":0.17732969547327132,"41":0.0629855127368942,"42":0.06472082047720046,"43":0.1453246634845878,"44":0.13411858445725536,"45":0.008410519961967441,"46":0.022657481717913194,"47":-0.020015367727616792,"48":-0.15925503079085043,"49":-0.18950524610135858,"50":-0.19657993216784928,"51":-0.1484047080819984,"52":0.27476727482852936,"53":-0.10584498279959093,"54":-0.04396376897230344,"55":-0.10442667005936272,"56":-0.24595998888933682,"57":0.010744161436561553,"58":0.15899914065543064,"59":0.08823633535914825,"60":0.14654374852695837,"61":0.01689379232294911,"62":-0.24503233237423283,"63":-0.03680180071440217,"64":-0.04607248520235401,"65":0.014216191313582371,"66":0.23091187331967303,"67":0.15197971320933007,"68":0.18381255561472265,"69":0.09393407741562636,"70":0.18225662057314948,"71":-0.005982680553527995,"72":-0.07671943841423629,"73":0.0021788948237354126,"74":0.05086743119399375}},{"sx":5,"sy":5,"depth":3,"w":{"0":0.10002640303353054,"1":-0.08192971605977294,"2":-0.09192656981986963,"3":0.30057748200305306,"4":-0.061538761160867615,"5":0.27548849812233406,"6":0.02978344251003215,"7":-0.012943085062133937,"8":0.0725256419074587,"9":0.08776383332377426,"10":0.0006534821835540748,"11":0.21787572812625802,"12":0.08252059501378832,"13":0.01116621802711292,"14":-0.07326042185743618,"15":-0.09466763599479351,"16":-0.025486788721278665,"17":-0.1558061838402028,"18":-0.07875487621118431,"19":0.02363477397377124,"20":-0.15038334130780798,"21":0.004720735336294664,"22":0.07340797731943355,"23":0.11246866330165955,"24":-0.07573820382364325,"25":-0.179280903360613,"26":0.09461396914338045,"27":0.19129263685009815,"28":0.049616477276395315,"29":0.09701322430803677,"30":-0.044059857202120446,"31":0.02686497036479105,"32":0.08560019940511188,"33":0.08265401904579389,"34":-0.14129830816787245,"35":-0.11528997355471064,"36":0.024804913632381694,"37":0.015330113112151956,"38":0.10572108432901324,"39":0.0735397346573738,"40":0.0006865593787275761,"41":0.04080783509863362,"42":0.03368566579829572,"43":0.18092526810843368,"44":-0.022976186568691014,"45":-0.060348622474255084,"46":-0.02077877272273683,"47":-0.08210502465181288,"48":0.16496921629753455,"49":0.004720249576135955,"50":-0.05061507350068254,"51":-0.14465647968205342,"52":0.026206841364317793,"53":0.04122291642249493,"54":-0.1305102322101517,"55":0.11371863336085467,"56":0.030360347864167463,"57":0.08824847315844411,"58":-0.17173273022251928,"59":0.15581029811907524,"60":-0.034696962459055555,"61":-0.09940137963328786,"62":0.043779232650031794,"63":0.12516537410095835,"64":0.08308894378545881,"65":-0.12026369974313082,"66":0.015832707518474105,"67":-0.25786998988388093,"68":0.09437847732496871,"69":-0.11179848586781571,"70":0.039211143142790575,"71":-0.01501485560975565,"72":0.14864344166358281,"73":0.15771236491582,"74":-0.3522574026425997}},{"sx":5,"sy":5,"depth":3,"w":{"0":-0.15039540010925953,"1":-0.13688274928435196,"2":-0.03504727198540014,"3":-0.006042643405867857,"4":0.083679032483371,"5":-0.16492131940993032,"6":-0.05123021821544957,"7":-0.09091250137594051,"8":0.08987381858012347,"9":-0.17605886994132058,"10":0.03638035350189479,"11":-0.2554482578855517,"12":-0.11300436550709356,"13":-0.12350049246752358,"14":-0.09370152301244399,"15":0.016416237291823184,"16":0.017371624055057665,"17":-0.11784966880056552,"18":-0.21583580207655803,"19":-0.21310517128135376,"20":0.03386727372503017,"21":-0.10327297756344929,"22":0.13164519349710824,"23":-0.032328885303812886,"24":0.09556706253726002,"25":-0.08378958850830825,"26":-0.3177695220271515,"27":0.08310466756154641,"28":-0.10929392660617117,"29":0.04156496684395684,"30":0.019291382686994072,"31":-0.07299183148060272,"32":-0.15222292266740214,"33":0.013984477551035296,"34":-0.040365877518600046,"35":-0.018836455577755522,"36":-0.10435850874923612,"37":-0.010069219956928707,"38":-0.13153986913147814,"39":-0.17936358539603275,"40":0.05407590007512123,"41":-0.27570824946003,"42":0.016632736190044527,"43":-0.15623908783192436,"44":-0.09956635191747586,"45":0.1479533351262155,"46":-0.23758432491779072,"47":-0.3164221111572722,"48":0.013546038328163387,"49":0.006540131833161872,"50":-0.3665091986535546,"51":0.13281738103714896,"52":-0.2805631528599941,"53":0.023455551679684248,"54":-0.11679590139360774,"55":-0.07748640383207056,"56":-0.20565521836564232,"57":-0.18123049295068006,"58":0.026046680926913892,"59":-0.11849514211481715,"60":-0.2010754995980061,"61":-0.19078392342605477,"62":0.037790790329207784,"63":-0.15848588175237546,"64":-0.1781011032875935,"65":-0.2629106817772739,"66":-0.10286198131227552,"67":0.05920054172161185,"68":-0.2665570570493633,"69":-0.03822859586906234,"70":-0.18474034440230863,"71":-0.15764384066172943,"72":0.010674140872444551,"73":-0.19227028656204692,"74":-0.20685403964214885}},{"sx":5,"sy":5,"depth":3,"w":{"0":-0.04660814257790619,"1":-0.1480076682145904,"2":0.13924181512752118,"3":0.1435236772560745,"4":-0.14206418168020624,"5":0.1597810709126127,"6":0.09948641525898103,"7":0.05370891822271407,"8":0.03757184540208861,"9":0.023280076070263906,"10":0.13834580896781415,"11":0.08169901953805075,"12":0.02014889992359415,"13":0.09922752352193089,"14":0.1084038490595569,"15":0.09071101670199569,"16":0.036533901455990225,"17":0.03079572793246502,"18":-0.001572452312799653,"19":-0.00641936907942055,"20":0.08659014622382438,"21":-0.17928525600384013,"22":-0.03973352136971179,"23":0.08025602672079682,"24":0.1656277938521392,"25":-0.05982298190702084,"26":-0.007068175634527115,"27":-0.08931556622447538,"28":0.013434925352040387,"29":0.16020251841851157,"30":-0.18071815982670034,"31":-0.2149166009306734,"32":-0.012780537256868372,"33":0.002948595046078247,"34":-0.028953819377156933,"35":0.09110122830405949,"36":0.15499018021554328,"37":0.12645300129644832,"38":0.042317640660878494,"39":0.06185178739628247,"40":-0.15810844278039704,"41":0.05820700142010708,"42":0.11887818190753845,"43":0.030189795513926518,"44":0.0069588648836130165,"45":0.009925054574528356,"46":-0.23810006755598725,"47":-0.027597533495664156,"48":-0.21726149871217698,"49":0.08559932952159773,"50":0.1940652109006485,"51":-0.09678799496673557,"52":-0.00029456357051788176,"53":0.025355831412089167,"54":0.20231777475850704,"55":-0.16512167770882777,"56":0.31545937420753983,"57":0.026456246230836762,"58":0.12969294773309079,"59":0.005744788563340782,"60":-0.05444331087086687,"61":0.0402041164334279,"62":0.1162586020137339,"63":-0.19238713299407906,"64":-0.020460349049369855,"65":-0.05651836167434116,"66":0.06612463415613166,"67":-0.1657152763142364,"68":0.010988436277404657,"69":0.11842590121058226,"70":-0.012679892844979643,"71":0.1047263233600108,"72":0.06910252965627697,"73":0.10203570205736524,"74":-0.1236884400698484}},{"sx":5,"sy":5,"depth":3,"w":{"0":0.08632418055075575,"1":-0.10993185757039711,"2":0.0051395816279380425,"3":-0.041281585539423946,"4":-0.27285187779988657,"5":-0.17782620283907657,"6":-0.23533218532976855,"7":-0.1185252780168481,"8":-0.016699167816439285,"9":-0.004377837987353546,"10":-0.19652820647459332,"11":-0.14943709055683613,"12":-0.11481550711767435,"13":-0.08381375390494841,"14":0.08727076622307939,"15":-0.16395858200841693,"16":-0.08056205499644914,"17":0.1124130387569511,"18":-0.08474558664419722,"19":-0.28857221201208194,"20":0.1825109156617142,"21":0.01883660348322141,"22":-0.19182618705320062,"23":-0.10211049942393242,"24":-0.10937880493184017,"25":-0.12321170254316322,"26":-0.031154731170495734,"27":0.03161736190254698,"28":-0.12756304972910473,"29":-0.032802679157898966,"30":-0.02623047471003105,"31":-0.14362299407545895,"32":0.1896283723801193,"33":0.07379290646785332,"34":-0.062420267157700965,"35":0.029749133486465854,"36":0.06743901283170817,"37":-0.3350699750423518,"38":-0.009599747077575852,"39":-0.19232032084643505,"40":-0.1772714770786815,"41":0.05971855289899067,"42":-0.028831841896166808,"43":-0.004999147175607536,"44":0.006339368981119223,"45":-0.11393402364820776,"46":-0.14134063278364067,"47":-0.21345837867950396,"48":-0.13618917623166185,"49":-0.2617544609287127,"50":0.18539723034403763,"51":-0.2504144609380665,"52":-0.17209817962261773,"53":-0.22267700262413698,"54":-0.07502247387561452,"55":-0.22594213741088917,"56":-0.19676281993812533,"57":0.03105302470117678,"58":-0.26330360899167515,"59":0.1809249673831048,"60":-0.09236243007423434,"61":-0.14335197851999268,"62":-0.03965400179057479,"63":-0.0856123640789926,"64":-0.3428858232564847,"65":0.04817524659130483,"66":-0.18478981253255083,"67":-0.4024611168922271,"68":0.15940788952305082,"69":-0.05241608822724189,"70":-0.17300911426135734,"71":0.0041430680972040475,"72":-0.41555890832422554,"73":0.039402196529919616,"74":0.06739965643202336}},{"sx":5,"sy":5,"depth":3,"w":{"0":-0.026779066495653397,"1":-0.24486707856777526,"2":-0.09422932655809697,"3":0.08753970939578962,"4":-0.29244922502756576,"5":-0.09184451865108997,"6":0.05799335610547756,"7":0.04407304154838106,"8":-0.08884681759521776,"9":0.13233332496717,"10":-0.1969356466650366,"11":-0.06563879465115303,"12":0.07976174626127247,"13":-0.23877178513580744,"14":-0.1714473597889971,"15":0.1437029586079393,"16":-0.21774335290634014,"17":-0.009443296272673922,"18":0.12177326712448715,"19":-0.13284558566060617,"20":-0.12133183036300822,"21":-0.019107793609507182,"22":-0.06372777874809359,"23":-0.06378776526020348,"24":0.005031680031127072,"25":-0.2476279695803087,"26":-0.2018568269276433,"27":0.07557287096519043,"28":-0.19724154199854987,"29":0.14171344553816909,"30":-0.02820098212451615,"31":-0.009810625059757163,"32":0.11167136781854545,"33":0.05851125468409158,"34":-0.22605329764863505,"35":0.0839244032992752,"36":0.07467317881566637,"37":0.014802467041441223,"38":-0.07143087322225068,"39":-0.17043708527216941,"40":-0.0016134632456379044,"41":-0.3326774667545108,"42":-0.05234780206870426,"43":-0.1697043498185594,"44":0.04634782546566943,"45":0.014218224397248238,"46":-0.08483829336068531,"47":-0.2750014179355787,"48":0.0783814483292587,"49":-0.018700503736168116,"50":-0.24953743311177637,"51":0.06286661790779342,"52":-0.23086157770458524,"53":-0.21532323470699058,"54":-0.04802332038591478,"55":-0.08539833324367467,"56":-0.09577110027508587,"57":0.018555769189213377,"58":-0.09897358541382899,"59":-0.19137444661790992,"60":-0.05698600089759774,"61":-0.10598934285256492,"62":0.10346532424631101,"63":-0.07784473242192246,"64":-0.16847072103540944,"65":-0.2418586272793709,"66":0.029893674719414037,"67":-0.102190768964949,"68":-0.25113161323767325,"69":0.16553134853331888,"70":-0.07162533404219036,"71":0.029912625753212477,"72":-0.04158296949545585,"73":-0.048897594943652437,"74":0.059328134500917985}},{"sx":5,"sy":5,"depth":3,"w":{"0":0.24356465458050602,"1":0.10017318635820763,"2":0.040702034606478844,"3":-0.10927244030807122,"4":-0.3242547158561838,"5":-0.009609462420175734,"6":-0.20711967007580365,"7":-0.0706825604861533,"8":-0.17443750714970202,"9":-0.07248361952246093,"10":-0.073769845396152,"11":-0.13772522548231333,"12":0.029952564061103373,"13":-0.14728367769096967,"14":0.0006370410513807643,"15":-0.022794027293265892,"16":0.0671339040809958,"17":0.027141331875262454,"18":-0.03217950441490071,"19":0.10118487922594496,"20":-0.03632217462463506,"21":0.016585759676249145,"22":-0.013829838946982613,"23":-0.0038656755308927727,"24":0.1322072996055837,"25":0.22251904969135178,"26":-0.20551461720011197,"27":0.12117544869966841,"28":-0.02409893941416594,"29":0.1900639698370316,"30":-0.0801533643779284,"31":-0.0008531197921474687,"32":0.06140804595793637,"33":0.17554736615056785,"34":-0.07616503351762623,"35":0.1602918467826692,"36":0.12291251581876939,"37":0.06313131281410567,"38":0.05011689446836966,"39":0.02884453503579945,"40":0.025579164877492414,"41":0.11673557662916038,"42":-0.021704521811865708,"43":-0.11729158012183896,"44":-0.1196223377331959,"45":0.08600899950111152,"46":0.2607887620283429,"47":0.09145186809817389,"48":0.03858236907671521,"49":-0.08164572668341674,"50":-0.10388605751016836,"51":-0.12411115587136297,"52":0.2172190932980735,"53":-0.07637674956483417,"54":-0.18580643196770014,"55":0.18728507298360475,"56":-0.012900630810780689,"57":0.19530269887470858,"58":-0.01398058485697441,"59":0.140390180345528,"60":0.09958217030594171,"61":-0.03925455556338242,"62":-0.15042743947531334,"63":0.08752695032905135,"64":-0.05522616144471666,"65":0.21072255355699387,"66":-0.1312484259826298,"67":0.12106000408249248,"68":0.061456720229772666,"69":0.0685087219838106,"70":0.05915461271272651,"71":-0.0622913341323158,"72":0.04717141324407436,"73":0.02457311101201767,"74":-0.23251679277924625}},{"sx":5,"sy":5,"depth":3,"w":{"0":0.2596946785410075,"1":0.18507614017774404,"2":0.04996170838046203,"3":0.08339318152191735,"4":0.027227658365327825,"5":-0.00499573908414048,"6":-0.06495122562895847,"7":0.10057769607790437,"8":-0.057251085521650695,"9":0.12473292341101637,"10":-0.007724675690633793,"11":0.1709164468297762,"12":-0.0812229268070988,"13":-0.14638085182284508,"14":0.06302468560459286,"15":-0.09227213748543552,"16":0.18440201969142483,"17":-0.252936797089493,"18":0.02094312040907045,"19":0.12224801916316347,"20":0.21315061404562505,"21":0.28588795140321843,"22":-0.03679027535907991,"23":0.20502464557153854,"24":0.07086213171601712,"25":0.001049222517987054,"26":0.20608329029813918,"27":-0.0011834528873294896,"28":-0.03879680213906508,"29":0.14854201586004537,"30":0.165012041181819,"31":0.15564742426134723,"32":-0.2622366911014741,"33":0.06507671897642732,"34":-0.1796694558944814,"35":0.008028269854021443,"36":-0.009315024451336236,"37":0.22240820766627628,"38":0.013053949793946135,"39":-0.09091827701703277,"40":0.07964819476647926,"41":-0.0378388387396028,"42":-0.19445919278023782,"43":0.10270968813432745,"44":-0.002197810418500593,"45":0.05538665765751771,"46":0.1902661166667739,"47":-0.041560405501630135,"48":0.0320255575284236,"49":0.26370361415123483,"50":0.09826422686888223,"51":-0.10129003938994281,"52":-0.030517288286133003,"53":-0.10757309835706588,"54":-0.013057991748760305,"55":0.21930774827148317,"56":0.12281553143430504,"57":0.1020373015781574,"58":-0.21464906008390186,"59":0.04277977190143053,"60":0.13408393719903175,"61":-0.05653362198590782,"62":0.1775953439562827,"63":0.12860655025300705,"64":0.009843832633798804,"65":0.07318544977699688,"66":0.08294498697047818,"67":0.09771740515921777,"68":-0.12172969640208513,"69":-0.19164713950957482,"70":-0.02377410409659273,"71":0.042149702185417,"72":-0.19051690746817046,"73":-0.08551494604345901,"74":0.05593819443676625}},{"sx":5,"sy":5,"depth":3,"w":{"0":0.07612682709530541,"1":0.0009405233776746004,"2":0.15944409967223172,"3":-0.023842837686157314,"4":-0.13077583798817322,"5":-0.0691757955094338,"6":0.14826618135266953,"7":0.11270619875703992,"8":0.1375120827108913,"9":0.13434811200569519,"10":0.25532235498718886,"11":0.06245914798649252,"12":0.16153994436183858,"13":0.13811637361471849,"14":0.014928132003356976,"15":-0.010005500717708542,"16":0.14988023881490942,"17":0.07894758311176148,"18":0.015050951074696027,"19":0.044644006422390234,"20":0.17061765658928874,"21":0.278697132291206,"22":0.04507848633824214,"23":0.0016731623284151915,"24":-0.024889421754443735,"25":0.21802989895649566,"26":0.12064216545377342,"27":0.09239262140083734,"28":-0.10469182318616727,"29":0.07597137053404882,"30":-0.15393796811025645,"31":-0.1256789787913172,"32":0.2764524783449675,"33":0.13881186936823947,"34":-0.026749154738916318,"35":0.08622733796028423,"36":0.04657926605850687,"37":-0.02939335363379955,"38":-0.1008715330230123,"39":-0.12673421723615116,"40":0.14646782168264405,"41":0.04655837469284562,"42":0.09035408751950254,"43":0.06291207617716722,"44":0.004183677739909717,"45":0.20158022916336638,"46":0.0004531830819942201,"47":-0.014113005256671474,"48":0.18300490622900664,"49":-0.15110250956063268,"50":0.14654173871680437,"51":0.042788424195295494,"52":0.16162524727966535,"53":-0.04177936104673724,"54":-0.003790386499023037,"55":-0.19924238992085172,"56":-0.016531103777982368,"57":0.26873552599311834,"58":0.012436730126397432,"59":0.03001795967492012,"60":0.15247185115053177,"61":-0.008171063300385212,"62":0.021083691757641427,"63":-0.1405987373163449,"64":-0.024111853747366716,"65":0.17601004808561743,"66":0.17536727753503573,"67":-0.1320041015907085,"68":0.016647110412940976,"69":0.017188279804993975,"70":-0.027640497563392773,"71":0.05655667946803137,"72":0.278479764497383,"73":0.040487763975889504,"74":-0.0751129125107716}},{"sx":5,"sy":5,"depth":3,"w":{"0":-0.1528638940548122,"1":-0.19894593536893956,"2":0.17471507883227974,"3":-0.2160143231330682,"4":-0.25562273230813193,"5":-0.06221544404378739,"6":-0.11350906793801217,"7":-0.17326133070365562,"8":-0.014234292181089202,"9":0.0623740327171206,"10":0.15247482890184452,"11":0.25165758561343887,"12":0.06101469469563984,"13":0.14492315931899638,"14":0.028464246935723,"15":-0.31725337055319885,"16":-0.019552167044572157,"17":-0.05455532307375228,"18":-0.30303003556594266,"19":-0.0394031701946117,"20":0.17904725479400904,"21":-0.09002263494930417,"22":-0.10036729263320518,"23":0.03651770451354175,"24":-0.03686995100211494,"25":-0.02557456482009486,"26":0.1400259203170807,"27":0.13780968109758257,"28":0.07593121003690703,"29":0.11677113857665636,"30":-0.24850725074186286,"31":-0.002739728721379418,"32":-0.043755722075995936,"33":-0.07414957681934256,"34":-0.2487747505483689,"35":0.14369238000960824,"36":-0.1783686766552145,"37":0.01556862453122623,"38":0.18761897354892065,"39":-0.08966502048141704,"40":-0.08340596885801826,"41":-0.05196513118779017,"42":-0.10779448277931922,"43":-0.007442207092405497,"44":-0.02557568762613043,"45":-0.0764976091336098,"46":-0.09238767743425377,"47":0.2052794528967739,"48":0.022058054052098548,"49":-0.21591022211799862,"50":0.09447643012319448,"51":-0.19875600165473878,"52":-0.20637797700411417,"53":0.0683304082449862,"54":-0.08153392830015661,"55":-0.08115737070813071,"56":-0.07478420329383131,"57":0.06718261329338049,"58":-0.1496595399601471,"59":-0.004379788355788794,"60":-0.17466825453026802,"61":-0.39818945879753265,"62":0.19799610274540716,"63":-0.2800568384465367,"64":-0.18731915606732963,"65":-0.04764270815107309,"66":-0.25594711374205353,"67":0.24129301761660477,"68":0.004233964114523806,"69":-0.03540841317893614,"70":0.17006149392066783,"71":0.007154106174976045,"72":0.05457763991374369,"73":-0.02776895431722625,"74":-0.022881020091368953}}],"biases":{"sx":1,"sy":1,"depth":16,"w":{"0":0.08639417628974229,"1":0.056926222099388614,"2":0.04441252864481087,"3":0.11796520397514886,"4":0.09662710280570173,"5":0.06046596237230299,"6":0.09150915225894586,"7":0.0369299907815966,"8":0.12076061628029576,"9":0.06996463691025533,"10":0.14096372576683316,"11":0.11359691126288231,"12":0.06422938810442275,"13":0.09535473050692919,"14":0.12138837141157986,"15":0.059809567379778626}}},{"out_depth":16,"out_sx":32,"out_sy":64,"layer_type":"relu"},{"sx":2,"sy":2,"stride":2,"in_depth":16,"out_depth":16,"out_sx":16,"out_sy":32,"layer_type":"pool","pad":0},{"sx":5,"sy":5,"stride":1,"in_depth":16,"out_depth":20,"out_sx":16,"out_sy":32,"layer_type":"conv","l1_decay_mul":0,"l2_decay_mul":1,"pad":2,"filters":[{"sx":5,"sy":5,"depth":16,"w":{"0":-0.021895926461579514,"1":-0.042180749266135506,"2":0.009447742776982302,"3":-0.000753101391596238,"4":0.020498496648255666,"5":0.028320167671972176,"6":0.023600528476208353,"7":0.0572534323526943,"8":-0.01260660248244553,"9":0.007044795547609388,"10":-0.060735174820512786,"11":0.006770010438074579,"12":-0.014770619374904016,"13":0.015665844011997394,"14":-0.06393340151433108,"15":0.008851082403697646,"16":0.07580862471892476,"17":-0.05221755035054395,"18":0.01708005932812616,"19":-0.07843771248764952,"20":0.04231377465824765,"21":0.02379775446911393,"22":-0.10305459966012652,"23":0.003771451277442521,"24":0.005977760750669657,"25":-0.08104303152096812,"26":0.1005209697777446,"27":0.06935599762102276,"28":0.0667398551125744,"29":-0.08878670384510194,"30":0.032379126022438955,"31":-0.06748800726708953,"32":-0.034120540739731475,"33":-0.017610347858202154,"34":-0.05147591668618576,"35":-0.018154107274896344,"36":0.011291498142507529,"37":-0.13328585385784372,"38":-0.017315791589470903,"39":-0.08442554064546365,"40":-0.02166085888831065,"41":-0.04429472750018833,"42":0.006966579755939189,"43":-0.09512530524673923,"44":-0.015809529706144704,"45":-0.03303067248965184,"46":0.07279818994843706,"47":0.009082948033271707,"48":0.005502443562481459,"49":0.0001635649550083448,"50":-0.04025046466415336,"51":-0.0993742819392038,"52":0.08233274086822046,"53":-0.07278169235725195,"54":-0.056415730690471,"55":0.04699305376284247,"56":-0.009033227253755206,"57":-0.025489909289476854,"58":-0.06647737334259776,"59":-0.05422741780955742,"60":0.04132577835353496,"61":-0.06121877670980366,"62":-0.12967923263583092,"63":-0.009352082815315481,"64":-0.0035986633879445755,"65":-0.00410965313948668,"66":-0.03420015364008574,"67":0.06637236846776669,"68":0.017288279161145798,"69":-0.0706619752180329,"70":-0.041232306230514465,"71":-0.014087944752615194,"72":0.09548710401477405,"73":0.015355000006202036,"74":-0.11901156048981,"75":-0.10274573152785355,"76":0.04875394100972495,"77":-0.003262276721948309,"78":-0.0919721889673332,"79":0.016667234004577425,"80":-0.008193709463889665,"81":0.01192573257584276,"82":-0.027473014027073858,"83":0.01632797042285895,"84":-0.025478793818209715,"85":-0.009474934587672533,"86":-0.029294730005470955,"87":0.0026915667343962793,"88":-0.0250850978061566,"89":-0.06463448543893237,"90":-0.007255870883683659,"91":-0.008071682741092915,"92":0.02362555628536149,"93":-0.08108849743155987,"94":0.01813405287892284,"95":-0.05398681725724371,"96":-0.0017543083285682002,"97":0.0594307605515878,"98":0.0662228187381811,"99":-0.023545015844671058,"100":-0.020187363167787967,"101":0.028266774430264697,"102":0.04105399526763599,"103":-0.00019378196243393517,"104":-0.01182534267794494,"105":-0.1034751127560593,"106":-0.10335937398288077,"107":0.041233497612665065,"108":-0.08495812112493127,"109":-0.08845691715313557,"110":0.025440445571349963,"111":0.02235101677460919,"112":0.0022025379168937737,"113":-0.04951555649455024,"114":-0.011286163610213906,"115":-0.056012910637614405,"116":-0.0248026676403152,"117":-0.01827520174627124,"118":0.08947172129754005,"119":-0.03665083729119285,"120":-0.05736137529144999,"121":0.006613952072915556,"122":0.00024245588567135452,"123":0.029333132365883554,"124":-0.011994691518560953,"125":-0.04013769151133136,"126":-0.035716395024965104,"127":0.04785551961113197,"128":-0.02799539601552679,"129":-0.03596192028366475,"130":-0.08930270084014234,"131":0.0020149516579419796,"132":0.0004144395763528777,"133":-0.009024303546123814,"134":0.02091365120153113,"135":-0.01236786836633345,"136":-0.01711509772141315,"137":-0.013270639459560122,"138":-0.02898608673742917,"139":-0.03426132100547722,"140":-0.04999824522211986,"141":-0.007637772828599024,"142":-0.0015226278456452074,"143":-0.0350452422290908,"144":-0.08975186536201829,"145":-0.10697333145878483,"146":-0.04930530899169344,"147":-0.025433949748864187,"148":-0.01572218715436275,"149":0.11573897449142488,"150":-0.035226265799811404,"151":-0.012211584307076891,"152":0.028488592589226622,"153":-0.05877081541001171,"154":0.017327140112382233,"155":0.04768104745083619,"156":-0.032958301903702,"157":-0.04473283961002086,"158":0.03750509029192868,"159":0.001093996307118547,"160":-0.060649487582176156,"161":-0.040759099064871906,"162":0.026918908161003816,"163":-0.049854170234931626,"164":-0.036643525995795276,"165":0.01898925665044942,"166":0.035807801074150554,"167":-0.07922069825415534,"168":-0.0726442652819884,"169":0.06396514388370839,"170":0.027182447601879538,"171":-0.029138309934061093,"172":-0.03210954476621896,"173":-0.019283933843206064,"174":-0.0388589767194656,"175":0.03432817011490151,"176":0.010520794757984328,"177":-0.07490098449977356,"178":0.007635639228515929,"179":-0.002210895056279169,"180":-0.0054147072800008605,"181":-0.013500497342011258,"182":0.10226455572472305,"183":-0.03913684585980687,"184":0.006702165169174004,"185":-0.004832097371751209,"186":0.05124708408091843,"187":-0.0022967772402716392,"188":-0.012243568704020621,"189":0.09307778102672454,"190":0.037590639911267223,"191":-0.01580708260741106,"192":0.012257734137956926,"193":-0.080181800787399,"194":-0.032198344462186355,"195":-0.0052971929766360846,"196":0.031059466414550777,"197":-0.08314671685348046,"198":-0.041717264717000054,"199":-0.025911170449164158,"200":-0.0014753559334898657,"201":-0.051301516116048516,"202":-0.08776299979956627,"203":-0.007007545544846647,"204":0.11294407454035864,"205":0.12696439212624214,"206":0.0027392354357162435,"207":-0.002606443155780481,"208":0.02422452742977236,"209":0.009506066650263054,"210":0.04878936934615197,"211":-0.05105265030017921,"212":-0.051711109872441804,"213":-0.027422908359283824,"214":0.12239699456735102,"215":-0.07982581954418047,"216":-0.06437457498451118,"217":-0.00047463622843971735,"218":0.01020556391156217,"219":-0.05061813885343375,"220":0.0210496459058769,"221":0.012221420069962123,"222":-0.010618388248128293,"223":-0.04648446289792941,"224":-0.04252766751204927,"225":0.008680888231961404,"226":-0.006971523053427151,"227":-0.0278375227209582,"228":-0.02198517993657678,"229":-0.01858100646953487,"230":-0.040671941539666336,"231":-0.02849057752592193,"232":-0.07311067146587664,"233":-0.05174730008979726,"234":0.006317609617197602,"235":0.01582540184086433,"236":0.03298753911074394,"237":-0.01819740043660723,"238":-0.00023516868025434234,"239":0.014600623856162544,"240":-0.03371395624078452,"241":0.006269965637827386,"242":-0.05250900752672708,"243":-0.07447989557425791,"244":-0.012198201423208927,"245":0.0019262490514963435,"246":-0.04798049541187558,"247":-0.010896958262573479,"248":-0.03290238345151069,"249":0.0009160635702671275,"250":-0.0527113210915561,"251":-0.056379325362764444,"252":-0.10133793330757626,"253":-0.08908157119068685,"254":0.03884118204890092,"255":0.01566080989976161,"256":0.05454542928853649,"257":-0.04650947733734618,"258":0.05316836623784414,"259":-0.005197489132132699,"260":-0.01004006955499867,"261":-0.04150000481773204,"262":0.07831829813650358,"263":0.049345871763352596,"264":-0.06967582737699657,"265":-0.02224087132952953,"266":0.05805348956301708,"267":0.053779053068994165,"268":-0.04468155083971471,"269":0.07588489874713338,"270":-0.011906787165972415,"271":-0.0265223062732599,"272":-0.10793795941614324,"273":-0.06430369256710891,"274":-0.006997806228054742,"275":-0.010408897713107967,"276":-0.014625387214419378,"277":-0.05717549236247513,"278":0.008041213057033477,"279":0.049595075808519816,"280":0.033066436429960065,"281":0.023156395937305632,"282":0.03852428410743075,"283":-0.0065447985721565445,"284":0.021797087995616856,"285":0.08619878609408754,"286":-0.012631723765927434,"287":-0.03793350556107343,"288":0.05707951174395149,"289":-0.02449079610806882,"290":0.006876409909637644,"291":0.01583722135941697,"292":-0.06867194679293995,"293":-0.04792827062069213,"294":0.04229907385674615,"295":-0.044629599538663085,"296":-0.030400812546673383,"297":0.04111247352311656,"298":-0.03203439535079015,"299":0.05864867526980187,"300":-0.09677029309703301,"301":-0.0014602007472465724,"302":0.001194813989184806,"303":0.06330737751796012,"304":0.02927617306969373,"305":0.03912598255542987,"306":0.048396168941637376,"307":0.03959067650924856,"308":0.08572107949406267,"309":-0.03445877747895759,"310":-0.03634661448257606,"311":-0.02358366215483186,"312":-0.03211563209311843,"313":-0.011481890660517295,"314":0.0001759044626877349,"315":0.0418782824315332,"316":-0.0023624498070997984,"317":-0.033971569373831154,"318":0.013998412239727224,"319":-0.038560795096643334,"320":-0.025235911586484024,"321":-0.05703108032319187,"322":-0.1038007835098793,"323":0.1435186264937526,"324":0.028322499083378336,"325":-0.042503269028386075,"326":-0.008479117718544937,"327":0.01019468466803909,"328":-0.009093340512406302,"329":0.04870799604160648,"330":-0.0641286580172586,"331":0.01039047600414523,"332":-0.023993152313590428,"333":-0.03614379314792752,"334":-0.08427554454264717,"335":-0.00842514112825694,"336":-0.02911242578736727,"337":0.07681722619773822,"338":-0.02816475207045795,"339":0.007579568640461504,"340":0.07551151857921952,"341":0.0255922327754005,"342":0.03529160119712837,"343":0.018852282984583784,"344":-0.006167570217988417,"345":-0.0719174184737443,"346":0.08027155484688582,"347":-0.054573927892263875,"348":-0.045258611888310325,"349":-0.0486798227157512,"350":0.057428781981884246,"351":-0.0073188296837520634,"352":0.02781758121014302,"353":-0.023460191543689012,"354":0.06004252841924069,"355":-0.054424636502498985,"356":0.03151210213867243,"357":0.017497456232023954,"358":-0.00102990364274492,"359":0.02886167745938226,"360":-0.004257236101360126,"361":0.002526939808173455,"362":-0.033007735621229946,"363":0.006717250081805574,"364":-0.08379937651367685,"365":-0.001910939806757397,"366":-0.040715634105602826,"367":0.033178249001869574,"368":0.046467914742045514,"369":0.09341963015975274,"370":0.05493112930038746,"371":-0.049457782878179604,"372":0.02420435587507913,"373":-0.011679279780478303,"374":0.07436655202383362,"375":-0.056603316606183694,"376":0.0024855543648866596,"377":0.047415684373854475,"378":-0.049422162904004134,"379":-0.036707766416536364,"380":0.03378766735038718,"381":-0.020645684200634888,"382":-0.11554243929490615,"383":0.03665318049193756,"384":-0.0664742309952819,"385":-0.004365599532787274,"386":0.0822298326848871,"387":-0.02653124840177296,"388":0.049430297736780614,"389":0.02061827592417155,"390":-0.031259735979575126,"391":-0.01876231468813274,"392":-0.042007661308300366,"393":-0.0293766278801017,"394":-0.0186135263135696,"395":-0.017402593664123618,"396":0.006900817783016126,"397":-0.06157765372520393,"398":-0.042898936386743476,"399":0.010239335872782727}},{"sx":5,"sy":5,"depth":16,"w":{"0":-0.056443192767375694,"1":-0.06263741951248926,"2":0.07687407804437665,"3":-0.0006136678894158345,"4":0.03246232067188957,"5":-0.004225127524873019,"6":0.05628155723051984,"7":0.02055900381574549,"8":-0.006641369375818748,"9":0.02703295470539566,"10":0.1057046796336507,"11":-0.011516167761376232,"12":0.06625446831056475,"13":0.06067308546939256,"14":-0.001975334240804331,"15":0.0006025271744385463,"16":-0.004835297012866244,"17":-0.02376971848322586,"18":-0.02996735527512288,"19":0.04482777013533218,"20":0.0716110115395653,"21":0.0009942177582575383,"22":0.018705013718430277,"23":-0.06679679312368225,"24":0.08294223497617086,"25":0.010379231483676171,"26":-0.0607847255313917,"27":0.05771894776825861,"28":0.08885870302626801,"29":-0.03867823266904166,"30":0.02343551013304257,"31":-0.0488911979178444,"32":-0.040578700633174064,"33":0.04782230272993457,"34":0.12128852575810187,"35":0.0269751345174119,"36":0.0857490335646722,"37":0.04784759522609784,"38":-0.0009693533688101597,"39":-0.036022502062586746,"40":0.025857906575397726,"41":-0.035177727081078414,"42":-0.09142882167162035,"43":-0.05191282917035443,"44":0.0731337499375713,"45":-0.04834769405356256,"46":-0.11648026675135571,"47":-0.08852579851421255,"48":0.0005661091903821944,"49":0.048909392797022756,"50":0.05541106612290441,"51":0.11609735642051554,"52":0.08169614161242425,"53":0.027762739024535615,"54":-0.036475091134183714,"55":0.019351118384188112,"56":0.07549827529076034,"57":-0.01793637811560123,"58":-0.03992023481372932,"59":-0.07018687682763673,"60":0.04643735300881291,"61":0.008318695532625294,"62":-0.09464027591485698,"63":0.027167882478750086,"64":-0.05237376679083464,"65":0.05948524175801986,"66":0.08149437929463024,"67":-0.09703362108700724,"68":0.16170400090665868,"69":0.0672556977702069,"70":0.04164770384541785,"71":0.08248936718882448,"72":0.07368076605658978,"73":-0.0056375822376298805,"74":-0.14372240024905894,"75":0.028374906031457058,"76":0.08762275740423757,"77":-0.08660330670661262,"78":-0.10801613997143104,"79":-0.012789698193746606,"80":-0.050298343376393974,"81":0.03967669984919401,"82":0.03270200196220884,"83":-0.026674488829482323,"84":0.03499026566494273,"85":0.04458377754686442,"86":0.12439124685302562,"87":0.00865233773597019,"88":0.02300548146941612,"89":-0.025536206641935948,"90":-0.09691468003353586,"91":-0.005830686126326589,"92":0.022053069207816082,"93":0.023458951162302746,"94":0.062339634942528,"95":-0.0634813115720338,"96":-0.014845202250038337,"97":-0.049287944302558735,"98":-0.08596198939028299,"99":-0.03185565689881391,"100":0.07655962725940578,"101":0.02771543921033241,"102":-0.011374137256125518,"103":0.021374477898293814,"104":-0.036965566655252,"105":0.027249179476996354,"106":-0.16483870157608604,"107":-0.04527367974358768,"108":-0.02003762381818912,"109":0.023717696009291467,"110":-0.009379592754479669,"111":-0.09097328732499159,"112":-0.11365715950301163,"113":-0.039629373611843814,"114":0.07568162756935992,"115":-0.005303077488432833,"116":0.038632102518506316,"117":-0.02495367508828999,"118":0.04102284496631511,"119":0.00911742248094089,"120":-0.0690383797786718,"121":-0.09653686924034566,"122":-0.09866703829434681,"123":-0.011961792137700804,"124":0.044973358856051616,"125":0.00876086787936261,"126":-0.009371088649805744,"127":0.02301207403004365,"128":-0.015606009211270717,"129":-0.041235677105621704,"130":0.02069928623229144,"131":0.014964455469799945,"132":0.07000262621761164,"133":-0.031550940284183655,"134":0.07692943705126415,"135":-0.05369405420446181,"136":0.046925911112517,"137":0.0067936218338524555,"138":-0.03663753612166337,"139":-0.016061432872792436,"140":-0.07669205268464381,"141":-0.02559552548260639,"142":-0.017520941125527857,"143":-0.0663244266964704,"144":-0.025936388293689175,"145":-0.04775681778995465,"146":0.02254187808453213,"147":-0.05467263587031417,"148":0.0863566988033577,"149":0.014830384371452352,"150":0.04498091795508345,"151":0.029010501680014924,"152":-0.018631149015140097,"153":-0.06201289274181426,"154":-0.01388794014317289,"155":-0.042298528781040914,"156":0.10234405636014134,"157":-0.022520929852935523,"158":0.017785640966423863,"159":-0.1363506521022764,"160":0.02595631302450938,"161":0.11495090564079524,"162":0.029333642237920624,"163":-0.010759203442664272,"164":-0.013598747327392732,"165":-0.016273581105342178,"166":0.042154818223560826,"167":0.04542214329350373,"168":-0.05212034365995713,"169":0.03399891049414714,"170":-0.06264381445230725,"171":-0.03077527313450238,"172":-0.03594669855073158,"173":0.10798994679150364,"174":0.06546774868563304,"175":-0.06636479831321099,"176":-0.01614314764876292,"177":0.043115395967901246,"178":-0.031747444787274044,"179":-0.01358065214400383,"180":-0.09688388325967333,"181":0.060409727968305446,"182":-0.009526905233990574,"183":0.025090173844289236,"184":-0.010615511071949175,"185":-0.13550471269640585,"186":-0.0017927330559127281,"187":0.031257083242967845,"188":-0.07434325254029499,"189":-0.023866035401190054,"190":0.051448769860895326,"191":-0.09891080447069102,"192":-0.008024143700047268,"193":-0.011069283918445904,"194":0.009880500341178912,"195":0.008431652153556051,"196":-0.07259723147496921,"197":-0.1423312592738427,"198":0.03966938584805293,"199":0.07531575052959484,"200":-0.04847649845846169,"201":0.006406750447800394,"202":-0.033001950439254885,"203":-0.008152068506803656,"204":-0.003780915664422862,"205":0.023141474255277742,"206":0.07443609325070445,"207":-0.023811190019764745,"208":-0.05550732143588027,"209":0.08341677706440072,"210":0.09833376747875962,"211":0.07768636998121986,"212":-0.04488807099799624,"213":0.02886115271664285,"214":0.004315212119294692,"215":0.04874808137730081,"216":-0.002203971026191947,"217":0.04820585853404441,"218":-0.06725047481705702,"219":-0.01890327539030484,"220":-0.08416620506504234,"221":-0.07051863219398757,"222":-0.03547516178941013,"223":-0.06324339767277859,"224":0.04510879998888713,"225":-0.027135543665362395,"226":-0.01158800805238498,"227":-0.03746891511375981,"228":-0.05559001422838688,"229":0.0309860611997424,"230":0.053336531756519624,"231":-0.05797322501333081,"232":-0.014758049719342931,"233":0.14874727972294838,"234":-0.06553898230215263,"235":0.05947280239098154,"236":-0.026092028181343725,"237":0.07449422205440116,"238":0.009765311952457304,"239":-0.07015592832585585,"240":-0.14175457635324556,"241":-0.026562935961822985,"242":-0.05491269588094638,"243":-0.08578351466659907,"244":0.009726066662917284,"245":0.024911621468792385,"246":0.000412454473859613,"247":0.06416442743245528,"248":-0.05263915204208426,"249":-0.0029910727585292923,"250":-0.05447587519232698,"251":-0.08105942618200525,"252":0.01581681553485099,"253":0.08315429979208834,"254":0.005803389608528249,"255":-0.1413476537446755,"256":0.05844479204122179,"257":0.01803644493142867,"258":-0.036733301185287656,"259":0.07481967153992544,"260":-0.014434352353873877,"261":-0.1438580565755515,"262":-0.07617311596889732,"263":-0.0031081162051363057,"264":-0.0051422328205158385,"265":0.12448006451716782,"266":-0.007158356220325653,"267":-0.044953944427940436,"268":0.0727295829716199,"269":-0.03449267807617475,"270":-0.03748282050430106,"271":-0.13962238277093586,"272":-0.1254047767832505,"273":-0.016700906161206057,"274":-0.0036328338210089802,"275":-0.03613563126391179,"276":-0.013656489923957852,"277":0.046838136398838985,"278":0.02227714222180073,"279":-0.012628037633596182,"280":0.027235400082477823,"281":-0.022831114279197345,"282":-0.003394434391063513,"283":-0.004512297764242501,"284":-0.010578960151337085,"285":0.028095507123433044,"286":0.09094144487170579,"287":-0.05884204986522117,"288":-0.046209540181059966,"289":0.0011676619448005691,"290":0.004541439272919665,"291":-0.06987361675552017,"292":0.07761946436549766,"293":-0.050222534012364706,"294":0.10990331059521227,"295":0.0708380488790288,"296":-0.09736748170163488,"297":0.0034320681020317736,"298":-0.06441259629151845,"299":0.014749041698826567,"300":0.11592629519848295,"301":0.04850180467368607,"302":0.03510827352200408,"303":-0.009416752900414282,"304":-0.0358340289307791,"305":-0.03542067567665391,"306":0.07390756327543659,"307":-0.042873287337712125,"308":-0.013930447576514482,"309":0.06421527230960032,"310":0.011367827467509781,"311":0.022723861175018453,"312":-0.03906912204579102,"313":0.14087977159754703,"314":-0.05039467224862287,"315":-0.047629977457405916,"316":0.007707206459819741,"317":0.023837461469172132,"318":0.11754727600695627,"319":-0.14248030032287506,"320":0.014387228769125505,"321":0.0012784379998135125,"322":-0.06138046051709795,"323":-0.046323964471947934,"324":-0.03801487549652758,"325":-0.05427566153906545,"326":0.10855145711480242,"327":0.010234324018275776,"328":-0.04344796843312213,"329":0.012332863310318066,"330":-0.09101005531058226,"331":-0.013231729447256453,"332":0.033985809380447,"333":0.033729906420919685,"334":0.0926734947794294,"335":-0.07460129055968193,"336":-0.019605726996095512,"337":-0.021599126876050485,"338":0.04337672108870008,"339":-0.06269778297700444,"340":-0.04437773517933691,"341":-0.02395551854385469,"342":-0.0029968738788466905,"343":0.07160932596966324,"344":-0.030473289728335917,"345":-0.019521467933733234,"346":-0.057957348846633644,"347":0.0026018412668187526,"348":0.035296716126888755,"349":-0.0033569270835346466,"350":0.04266652163055065,"351":0.05542092576615703,"352":-0.043029337316194405,"353":-0.01593677090852864,"354":-0.00879231465889676,"355":0.015323579441323672,"356":0.09003140018934803,"357":-0.018897294324294767,"358":0.09492972462940424,"359":0.05195709309777087,"360":-0.01154596181109098,"361":-0.029044674251738758,"362":0.07893552596537488,"363":0.024806400430579283,"364":0.01999774683310359,"365":-0.04196371010623006,"366":-0.00336666801043788,"367":-0.07736600567196508,"368":0.08581883589098492,"369":-0.09278167762353413,"370":0.04266149605478717,"371":-0.045340473824562404,"372":-0.00039242840877256696,"373":0.09966626402417826,"374":0.04445006120801948,"375":0.020976887377988484,"376":-0.023218196062435897,"377":-0.06082621882528362,"378":-0.08125454680102752,"379":0.08353995988242019,"380":0.02269081679159572,"381":0.08525820855323127,"382":-0.014630038620063077,"383":-0.08069100754757176,"384":-0.06343912058096864,"385":-0.0030001292355746416,"386":0.054876937338883776,"387":-0.03054440574140551,"388":-0.001845643843161396,"389":0.046007688333714165,"390":0.07259561140530696,"391":0.06170414740231629,"392":-0.025222163117504123,"393":0.030536590526275987,"394":-0.027386411353052868,"395":0.054663624822715556,"396":0.052989220900271146,"397":-0.013032783352430707,"398":0.020052279012494647,"399":-0.08204982725387089}},{"sx":5,"sy":5,"depth":16,"w":{"0":-0.023874135658211816,"1":-0.028988780774362937,"2":-0.004999121943730648,"3":-0.02911371734025463,"4":-0.030427361548216687,"5":-0.0992812837202962,"6":0.07689919694725769,"7":0.024998903735468536,"8":-0.05762767640241697,"9":0.034932411043938724,"10":-0.01613883631178405,"11":-0.0799932658899145,"12":-0.05072178795872414,"13":0.016727071021343413,"14":0.02153275140100669,"15":0.031632413411809765,"16":-0.052225412622611676,"17":-0.06480610742780431,"18":-0.08787354239902774,"19":-0.043818776583830654,"20":-0.04580719154746878,"21":-0.01161743773069297,"22":0.017042947782267025,"23":-0.027974268139412017,"24":-0.03615273010156179,"25":0.06272909373932377,"26":0.015090256432966478,"27":0.015835813866476697,"28":-0.07960174391528144,"29":0.07369663534084045,"30":-0.004496634280029454,"31":-0.06599448049521553,"32":0.00018752903848639257,"33":-0.01779797652152631,"34":-0.013339364729239172,"35":-0.1435750642818401,"36":0.12949889837061246,"37":-0.07673820472849859,"38":0.03525037807962112,"39":-0.037862072276984626,"40":0.007122168148496782,"41":0.002574140523907547,"42":0.07481787397180722,"43":-0.008365565200993436,"44":-0.07301397695834944,"45":0.08036785277221968,"46":0.02248203058932972,"47":0.040458511513087776,"48":-0.0065026790471768075,"49":0.026087958344111106,"50":-0.04552395010442049,"51":-0.0104612864458436,"52":0.0039705146907368085,"53":0.0007276228146744667,"54":0.04092452332554209,"55":0.03882843289292255,"56":0.040418818468548424,"57":0.015375448227149029,"58":0.0962154819388107,"59":0.11841785410779704,"60":-0.03259726713315243,"61":-0.023027612105828616,"62":-0.05552180711740959,"63":-0.024202742184876763,"64":-0.0009466294815750428,"65":0.04081688028799869,"66":0.02706029170049984,"67":0.04556979486575941,"68":-0.08438512202206713,"69":-0.10326027432428055,"70":-0.08808838475440242,"71":-0.016533941598999482,"72":0.03258263547622002,"73":-0.030302479286054115,"74":-0.02340408793395986,"75":-0.002405538933224278,"76":-0.028743560648724728,"77":-0.06518560219535076,"78":0.07433166164873481,"79":-0.021958651555584064,"80":-0.005382978974141403,"81":-0.0776310051523061,"82":0.050199518199023185,"83":-0.009857916361623281,"84":0.028203264374134725,"85":-0.0348108781902237,"86":-0.034805457181465625,"87":0.05052354658190292,"88":-0.0023806351306918825,"89":-0.018646359591952568,"90":-0.035154082731943696,"91":0.04530590299362809,"92":-0.09318498098717365,"93":-0.06730617195304626,"94":-0.05473315411836461,"95":-0.08128974314073016,"96":-0.08707063682188523,"97":0.02959796695600358,"98":-0.010048472144854118,"99":-0.05100248350104769,"100":0.012790616733658451,"101":-0.017926971295073264,"102":-0.03346544595856636,"103":-0.04335881390772577,"104":0.08208391467534287,"105":-0.048791148587760326,"106":-0.035382176243192995,"107":-0.012499382741147287,"108":0.013084770587780114,"109":-0.06164244330312759,"110":0.0014069484205078558,"111":-0.10709727027562638,"112":0.03192699551188444,"113":-0.03904343660949702,"114":0.02153048549247211,"115":-0.09997309366578967,"116":-0.01414497487308621,"117":0.020967210118858357,"118":-0.03290194422006077,"119":-0.01158451046478699,"120":0.054921288445485765,"121":-0.017880745627303227,"122":0.03510072600122192,"123":-0.06824534831514041,"124":0.025276682079978876,"125":0.029305095235962794,"126":-0.038719844453542776,"127":0.04414876827224751,"128":0.03221694054051499,"129":0.031214737140759955,"130":0.0404880222795925,"131":-0.02006869477112649,"132":0.03773020874570039,"133":-0.08666384883857538,"134":0.01579977406000016,"135":-0.024619100368628244,"136":0.023812243986248396,"137":0.02484645483771159,"138":0.011282259140248817,"139":-0.08313382843875225,"140":0.016718247898222578,"141":-0.09852421734316785,"142":-0.08233889310045348,"143":0.03842290457053211,"144":0.01644495332713232,"145":-0.009068644195958401,"146":-0.033390092317082586,"147":0.02062443497963504,"148":-0.0293305267455677,"149":0.0030298552686127463,"150":0.06767643571571624,"151":0.03364609777241955,"152":0.00838753880498505,"153":-0.12333044786355692,"154":0.017265671710500908,"155":0.09688715560412123,"156":0.020156581045821055,"157":-0.07928275646239591,"158":0.08344685452698448,"159":0.029183840835678147,"160":-0.06203121495261633,"161":-0.03309740857274849,"162":0.03509562242872397,"163":-0.03281012602424229,"164":-0.0015579191237613647,"165":-0.033495032815838516,"166":-0.04856967850446216,"167":0.04735565077600111,"168":0.02594333343921102,"169":-0.0528270719625808,"170":-0.03156145374220912,"171":-0.07118677185940937,"172":-0.07297611346901678,"173":-0.03233229459413383,"174":-0.054379078888131316,"175":-0.050635190633595194,"176":-0.0936252395494057,"177":0.0023311623979796543,"178":-0.0984628683675295,"179":-0.010647195523166553,"180":0.03713416340251309,"181":-0.07363775304754881,"182":0.014930115726617151,"183":-0.055846039331457334,"184":-0.07547658720248288,"185":0.02670194721506158,"186":-0.145849304096297,"187":-0.064506807355849,"188":0.015036069847720433,"189":-0.047605142056882495,"190":0.09996540092065342,"191":-0.10529460586565192,"192":0.039537178489322866,"193":0.003202628961589475,"194":0.07271604327970588,"195":0.0006285611877182551,"196":-0.034423554382117236,"197":0.0037985581952742777,"198":0.017338894062572986,"199":0.055491657140549884,"200":0.051616020076059255,"201":-0.015259153137047775,"202":0.04251755965251792,"203":-0.01922965475257333,"204":-0.00919571830114237,"205":-0.02561372968788475,"206":-0.012604613565578075,"207":0.05700353729800553,"208":0.08545100506451313,"209":0.017898706468065424,"210":0.03513467427671445,"211":-0.0582198876063591,"212":-0.003962155432727811,"213":-0.04477486749850264,"214":0.018525269289632707,"215":-0.0021399934024421345,"216":-0.023814167705785576,"217":0.003593760822556112,"218":0.007085435835628106,"219":0.009608095500262676,"220":0.004962992590993462,"221":-0.022696577096173558,"222":-0.009308875633895607,"223":0.056736136541648816,"224":0.10504051105281437,"225":-0.14073435428997058,"226":-0.11009076959634632,"227":0.03154859458895598,"228":-0.03787800717442036,"229":-0.008002088453567527,"230":-0.007892017575509355,"231":0.031912038275283244,"232":-0.02150544713252463,"233":0.027582397738904724,"234":0.09232214149772842,"235":0.01479298405569552,"236":-0.07845423940986206,"237":-0.05949884265450825,"238":-0.07374059061074745,"239":-0.006938490459577133,"240":-0.01149915917048919,"241":-0.037949197984710845,"242":-0.07899439348455307,"243":-0.03310562487902587,"244":-0.005944839882006119,"245":0.0022624832251519874,"246":0.024664450388804948,"247":-0.05151586752675184,"248":-0.04722464004526191,"249":0.0028608266048976596,"250":-0.00023673020121453664,"251":0.006048538428661828,"252":-0.02847468759742671,"253":0.009124265828129542,"254":0.03606968464619456,"255":-0.019907599769345582,"256":-0.05331158860729591,"257":-0.06995185456289846,"258":0.07138932786808927,"259":-0.0931549818434622,"260":-0.05164239749290832,"261":-0.04367749112533759,"262":0.0029796828304689254,"263":-0.021141347928225106,"264":-0.05668620749242793,"265":-0.03214300306302349,"266":-0.007520876402204031,"267":-0.019965171515217178,"268":0.00781938811699922,"269":-0.04643602125086173,"270":-0.02302454975212375,"271":-0.08338302616391667,"272":0.014316028841097362,"273":-0.044403968366756856,"274":-0.007413770050417188,"275":0.0024788100485263497,"276":0.028087211109623558,"277":0.007821254141301089,"278":0.044891542130924604,"279":-0.034032834415298995,"280":0.007814681320027375,"281":0.008430899085200227,"282":0.08850892580717043,"283":-0.07235995259017886,"284":0.03639610368209835,"285":0.022809362698925747,"286":-0.029498825727599678,"287":-0.03865720732008146,"288":0.03818054052302595,"289":0.003242922029412088,"290":-0.06764083399747121,"291":-0.03712368968636836,"292":0.058861873427480206,"293":-0.018216890404341407,"294":-0.08926307222573128,"295":0.04139394874738263,"296":0.05247963778872759,"297":0.12165333926394736,"298":0.06501891252232357,"299":0.035538484952866635,"300":-0.046413218294808815,"301":0.03834233992171277,"302":-0.08817123122167538,"303":0.08873252686026802,"304":0.014775592592491027,"305":0.004249102999294167,"306":0.040272460431507534,"307":0.01807205556778987,"308":0.0235374359501968,"309":0.032765682940195946,"310":-0.03081773435239006,"311":-0.006795515939705472,"312":-0.004180246926389777,"313":0.03960895829079491,"314":0.06811266030754219,"315":0.009855616212463602,"316":-0.015693458381300023,"317":0.010097784396520385,"318":-0.03268226681910649,"319":0.020535775046179237,"320":-0.062435051203984994,"321":-0.03862900317955759,"322":-0.0490798659622704,"323":-0.029770517716294388,"324":0.04544744636414249,"325":-0.03083977796357485,"326":0.039367372699331916,"327":0.012141148968817586,"328":0.025952262951873528,"329":0.02783134717810071,"330":0.09910136988066914,"331":-0.024690622887914435,"332":0.03436347843122095,"333":-0.04075626922618554,"334":0.008364050035673783,"335":0.02724641802425071,"336":-0.008404286353008897,"337":-0.016179574585014064,"338":-0.07623860891459111,"339":-0.012479130645016302,"340":-0.06603953381893142,"341":-0.07069689864349729,"342":-0.01457341507456534,"343":-0.03362262638622302,"344":0.049079463948354975,"345":-0.06026093795359949,"346":-0.014563949236894467,"347":-0.001470622965973696,"348":-0.06108415052675349,"349":-0.09998811684056874,"350":0.017878085669004257,"351":0.0139159999236043,"352":-0.04491260723703612,"353":-0.07281547547506463,"354":0.06423153673740355,"355":-0.01705086845044609,"356":0.02354962760080203,"357":-0.023678690637356264,"358":0.09099672315315768,"359":-0.01578514349991154,"360":0.009662205847422358,"361":-0.022450878986103172,"362":-0.03665930953873996,"363":-0.0483551014967325,"364":-0.06543575065661274,"365":-0.01135039730867448,"366":0.011350958750509269,"367":0.0002625223522233763,"368":-0.04672213169028386,"369":-0.029750098352843937,"370":-0.05974654290433854,"371":0.08847929434219994,"372":-0.017184184572103817,"373":0.03406764191234716,"374":0.027290585086807314,"375":-0.045366112803524865,"376":0.022334418359896552,"377":-0.00888271093636869,"378":0.047638514399653976,"379":0.00645097852977193,"380":-0.08159699809438387,"381":0.022623575596301133,"382":-0.019243094039549397,"383":0.05871393275993622,"384":0.007312129199209844,"385":-0.00826904537751621,"386":0.04642434488741165,"387":0.06293314418231646,"388":-0.033145892620892674,"389":0.08138601016636678,"390":-0.07496810636208692,"391":-0.03267863828972126,"392":0.02743316869408435,"393":0.0798467235101479,"394":0.08106482276930355,"395":-0.0003962405433948669,"396":0.011845167408207936,"397":-0.0017101269868605676,"398":0.010043668224052008,"399":0.0027906357791893156}},{"sx":5,"sy":5,"depth":16,"w":{"0":0.10823480018074627,"1":0.05693588708496892,"2":-0.00024338915196440796,"3":-0.03940215644823206,"4":0.07665612684871484,"5":0.017451247870585124,"6":-0.06097445313441637,"7":0.04027897967030991,"8":0.027552199207119737,"9":0.06137705322271092,"10":-0.024542436822866276,"11":-0.034532669058832996,"12":0.09093380629291914,"13":-0.04164450758626616,"14":-0.00788692649795389,"15":-0.04482858287680461,"16":-0.018534301226849955,"17":0.03951545348590625,"18":-0.021245157905284986,"19":0.0015371590828640472,"20":0.06246257928229597,"21":0.051690712130371276,"22":0.008867005489801091,"23":0.015936429292905847,"24":-0.06925297222162073,"25":0.0075605398606238515,"26":0.03251152790935158,"27":-0.006456362944172231,"28":-0.002860770165750373,"29":0.03244369899531575,"30":-0.0646324404864096,"31":0.055699496344551035,"32":-0.057107073442972646,"33":0.0142675522359814,"34":0.03135967192065919,"35":0.06909874599321622,"36":-0.10114182832937327,"37":-0.047931158686179046,"38":-0.11142590987175575,"39":-0.08474494408286519,"40":0.048103725455459136,"41":0.03440955322187811,"42":0.03148415193748463,"43":0.02604687081351542,"44":-0.06556120887444322,"45":0.00045655684619834485,"46":-0.03987576052112119,"47":-0.031649200709363154,"48":-0.03793007088259734,"49":0.04347365425944839,"50":0.001289106941592713,"51":-0.0035690036007740814,"52":-0.001843054458841551,"53":-0.06425573465220634,"54":-0.010771987607866199,"55":-0.04371301618573378,"56":-0.03753848643333506,"57":-0.03550001111980745,"58":0.006969932544601021,"59":-0.0900298847075045,"60":0.08236209550083672,"61":0.06140965304894188,"62":-0.003508866148070952,"63":0.015483631829077716,"64":0.012064460563702053,"65":0.00727250018232342,"66":0.051763287764856426,"67":-0.015599628151217784,"68":-0.009111709316468508,"69":-0.05120147143892177,"70":-0.027459814791494487,"71":0.014847409231638797,"72":0.11992496867228854,"73":-0.009671804956114267,"74":0.16747365510117942,"75":0.057261749215342536,"76":-0.15593438123277625,"77":-0.028838216079031455,"78":-0.06570267401448213,"79":-0.03891188811158919,"80":0.011166630592805381,"81":0.01797767597700293,"82":-0.030418059852958305,"83":0.00023967638802897332,"84":0.04815748054887214,"85":-0.010355011029416598,"86":-0.023551249458079713,"87":-0.0108787542957998,"88":0.05884049213888454,"89":-0.06120048540338551,"90":0.08169212648479827,"91":0.08047835558505864,"92":0.08260843983154753,"93":0.017064586420980413,"94":-0.0025481626867432878,"95":-0.04996073508484919,"96":0.07239818649709373,"97":0.013023375660778195,"98":-0.0878117299521225,"99":0.07607009202747118,"100":-0.10766435080422261,"101":-0.07995111360643348,"102":-0.029110817381007726,"103":-0.05577504500985307,"104":0.06157585224109307,"105":-0.07935655664812155,"106":0.05296136014815307,"107":0.06641859882001953,"108":-0.03451948801617356,"109":0.003387935633581713,"110":-0.020439176253709376,"111":-0.032203691710710775,"112":0.0910634524843371,"113":-0.06789213011568887,"114":0.0036390013026568933,"115":0.12878025992649797,"116":0.02220965240363954,"117":-0.024709663402399926,"118":-0.09676035869962968,"119":0.025930301823516765,"120":0.14550843759736978,"121":-0.1007484185271551,"122":-0.009905529865489369,"123":0.012650658744478164,"124":-0.13577349943252026,"125":-0.010790376555068875,"126":0.034895683117820195,"127":0.006115699702202909,"128":0.013173496428997412,"129":0.0028204633326124337,"130":-0.053142758679062325,"131":-0.017080064960189194,"132":-0.051454569802819185,"133":0.07480779665784716,"134":-0.02007480160893501,"135":-0.002935101945681056,"136":0.04031727559491486,"137":0.028295774961828484,"138":0.08493481101799516,"139":-0.04573540814893213,"140":-0.06452223805811878,"141":0.11024706801552685,"142":-0.10241058253879827,"143":0.02511407050037965,"144":-0.0035204267388002234,"145":0.02021887398467136,"146":0.04365124490052364,"147":-0.05934013114340188,"148":-0.006684229879178662,"149":-0.06838453978550685,"150":-0.06032158132556164,"151":-0.05699483303168448,"152":0.03362578661951727,"153":0.006883060584038282,"154":0.059491858302825766,"155":0.09099102617301214,"156":-0.06844823593000263,"157":0.009149725721865653,"158":0.0008062954241033083,"159":0.045774104722853357,"160":-0.022769385871945307,"161":-0.016464775969984403,"162":0.05893825635134148,"163":0.07987668927671857,"164":0.08778362584400418,"165":-0.03136179880834086,"166":-0.07786452589457295,"167":0.01483877389920163,"168":0.1487775710963822,"169":-0.0738803753766961,"170":-0.004733029401503488,"171":-0.01792148272694153,"172":0.04828457522146757,"173":-0.07089865213117302,"174":0.05742274707679741,"175":0.02362716997771692,"176":0.04090642135117222,"177":-0.07886162121249568,"178":-0.09859692587987154,"179":0.10885983044715021,"180":-0.000582700856478305,"181":0.10026126984696326,"182":-0.020683704462060585,"183":-0.05439849354514203,"184":0.08448829550251112,"185":-0.033846693464032,"186":0.08300102930175228,"187":0.10649823532413809,"188":-0.026439312151515428,"189":-0.0392379742920486,"190":-0.027674215674193082,"191":0.022224373109001983,"192":0.06682744607490765,"193":0.07964793223162071,"194":0.015371174683798124,"195":0.07463415444646379,"196":-0.019904194076122587,"197":0.05551746726281066,"198":0.05631239079479251,"199":-0.0557499815690604,"200":0.13738791313673193,"201":0.02439347042802105,"202":0.07485894256010872,"203":0.06785394051201879,"204":-0.06533387268897355,"205":-0.04740047981049144,"206":-0.02993144681687919,"207":-0.022499505299203564,"208":0.036358284196637586,"209":0.019826985789161707,"210":-0.05311814904920784,"211":-0.016942681939308275,"212":0.03017600169071438,"213":-0.005923289714075944,"214":0.025249532684486688,"215":0.05519410283717023,"216":0.06978486268961873,"217":0.03890036908177255,"218":0.070177115752029,"219":-0.042461682135501784,"220":-0.13454845227420364,"221":-0.006605134149683707,"222":-0.06605181731283502,"223":-0.015444099127237008,"224":0.00411081149007359,"225":-0.027245345326441878,"226":-0.023278607084691635,"227":0.05662742218489909,"228":0.043435529615758896,"229":0.0024641493934054876,"230":0.027993805864740474,"231":0.02188712118493326,"232":0.034875392286793476,"233":-0.01241491493722046,"234":0.13104560752484187,"235":0.030956092378393942,"236":-0.10925250454892807,"237":-0.052254305442459265,"238":-0.07347780342028261,"239":0.12945814125265678,"240":0.02961455519730214,"241":-0.033077762117138206,"242":0.009631890499494911,"243":0.05330105575066358,"244":0.06673487409085785,"245":-0.015671213691152975,"246":-0.0406847956885937,"247":0.07796223336561038,"248":0.123888382152129,"249":0.017733892542523638,"250":0.10420512111065336,"251":0.03806067304798782,"252":-0.002754274098301996,"253":-0.003494611353704235,"254":-0.10462465594246526,"255":0.028540222618102424,"256":0.06747244394706474,"257":-0.10165424526098366,"258":-0.11794095277434173,"259":0.004523842945944517,"260":0.06899581698873691,"261":-0.04862538506114969,"262":-0.037568504521599946,"263":0.032307345192489276,"264":0.03701301901454943,"265":-0.022474411524432154,"266":0.04363122667947559,"267":-0.011981858588072986,"268":0.011890525755971866,"269":0.01579366223472618,"270":-0.047009496105912235,"271":-0.0339456472202159,"272":0.036122046840260706,"273":-0.06562203127819105,"274":0.025432682840516137,"275":0.02537176135414776,"276":0.027470031462228803,"277":-0.0443394912240572,"278":0.03123424820382804,"279":-0.04837645102317364,"280":0.09297789665104728,"281":-0.05212182691938209,"282":-0.004673388818682771,"283":0.08923220232939322,"284":-0.027577823115913985,"285":-0.023271771934998277,"286":-0.04289935494380323,"287":0.020914641069765594,"288":0.013786982616240758,"289":0.007673951829420245,"290":-0.08482585402895773,"291":-0.06874406907236111,"292":0.03131290088897882,"293":-0.01626917142994441,"294":0.10126880346404991,"295":-0.023471302539386868,"296":0.11019153570440757,"297":0.001518387807595442,"298":0.01109789191636618,"299":-0.030202982664457697,"300":-0.040628191309569274,"301":-0.07590500291825494,"302":0.014552613983202537,"303":0.1138142762695989,"304":0.004485406635562764,"305":-0.016828822809714296,"306":0.010355836451854962,"307":0.02790522821960136,"308":-0.027770561326479624,"309":-0.038819057914311575,"310":-0.0756445120834856,"311":-0.010113296018951123,"312":0.06080180037666629,"313":0.019723590628945614,"314":0.004022232133951108,"315":0.008678088625903897,"316":-0.0475389910090558,"317":-0.06395158519796847,"318":0.016273544778130512,"319":0.12291981206773803,"320":-0.008830874753072633,"321":-0.03532016354638244,"322":-0.007338531497127457,"323":0.04584844249592186,"324":0.009943620600073028,"325":-0.04194125686603803,"326":-0.09373226350221378,"327":-0.0394782900007432,"328":0.11326006548049546,"329":0.014821059359129175,"330":0.13502975288498126,"331":0.09179176763099656,"332":-0.09363467870189791,"333":-0.002909851125799224,"334":-0.06419349421596,"335":-0.030082628304288574,"336":0.11246009471167559,"337":-0.0073619793851382575,"338":-0.033248402734992334,"339":0.07885500774241931,"340":-0.06288018369335445,"341":-0.14256667840760923,"342":0.01828255301810842,"343":-0.014377149764304603,"344":0.044807749149806286,"345":-0.03649112969124081,"346":0.05849222189161172,"347":0.027198921089845,"348":0.021998469315151044,"349":-0.022851422534053575,"350":-0.008442303252984621,"351":-0.009479354966398056,"352":-0.08784546334274744,"353":0.027523510343207158,"354":-0.011354725053396988,"355":0.04412280646668042,"356":0.024180909290319463,"357":-0.04219303896960101,"358":0.00617722086814483,"359":0.10775263369926856,"360":0.04914456499808864,"361":-0.03660131298400014,"362":0.03489115816747217,"363":0.032358620640646756,"364":0.011158312452251405,"365":-0.04574449818546676,"366":-0.12769269477167106,"367":-0.03746917705124455,"368":0.007960199657570551,"369":-0.0003308032030490499,"370":0.00880088947741952,"371":0.05427113271444267,"372":-0.037278255920966466,"373":-0.06300707117629939,"374":0.008241514461654395,"375":-0.062274628339412115,"376":0.03217824433815219,"377":-0.10638390814896699,"378":0.09255658913317719,"379":0.03620457021117144,"380":0.024443344337252988,"381":-0.016944816126562484,"382":-0.010220208029743695,"383":0.017456954302382376,"384":0.02542893796867918,"385":0.008289405812336429,"386":-0.06155179051917152,"387":0.010788873498370967,"388":0.023955477848015057,"389":-0.03593575616884317,"390":0.032413989313287456,"391":-0.10020293329747774,"392":0.150978680345516,"393":0.0033784156886676937,"394":0.0830746251603605,"395":0.04151094848810481,"396":0.051007013601734694,"397":0.07502848480390113,"398":-0.027874184597942723,"399":-0.07640789106967848}},{"sx":5,"sy":5,"depth":16,"w":{"0":-0.016658504825951936,"1":0.03800619739447025,"2":0.15564003497452558,"3":-0.058330455178441425,"4":0.051133604200534394,"5":0.02097534797145246,"6":-0.06729152190863208,"7":-0.06053103515702018,"8":0.012727221142779112,"9":0.01885104782638773,"10":-0.029158662036903874,"11":-0.10021148097694633,"12":-0.012459771053243593,"13":-0.05363678318759189,"14":-0.06298154327151724,"15":-0.019274694132339534,"16":0.09181903999122236,"17":0.027450281656321594,"18":0.03433901968206725,"19":0.0007413360036481073,"20":0.04366930458720299,"21":0.11216332164248971,"22":0.01983022005763639,"23":-0.058048924824319934,"24":0.01449530536006,"25":0.04168817871124277,"26":-0.10455483872623968,"27":0.035372253416334,"28":0.009329032660495958,"29":0.039113238659537204,"30":0.019924809961005766,"31":0.10087468491396308,"32":-0.003506652488774168,"33":0.05838446936487296,"34":0.11509507105577431,"35":-0.03845585383115113,"36":-0.04369657898499096,"37":0.08267995552325985,"38":-0.03441437471336578,"39":-0.05140698637851811,"40":0.03489700981321463,"41":-0.08682895922077077,"42":-0.03680424384740977,"43":0.01759484878001962,"44":0.06449739193277634,"45":0.006260105118294021,"46":0.02224116247467133,"47":-0.021485089728767916,"48":-0.11139022932798318,"49":-0.054305855087911165,"50":0.09051550907152817,"51":-0.031068948811264704,"52":0.010437707037286489,"53":0.09184937312528624,"54":0.036357255906856865,"55":-0.04802863443150437,"56":0.06847905938219939,"57":0.012835625311811705,"58":-0.06529544296752365,"59":-0.053514739856679795,"60":-0.07293912808916718,"61":0.06514699705872981,"62":0.05791909511341264,"63":0.044107935588997046,"64":-0.03934949642944222,"65":-0.006026339085568729,"66":-0.007770674160012434,"67":-0.07560288285051175,"68":0.05167869473512443,"69":0.029309768100313806,"70":0.026187683679658832,"71":-0.014735651771354892,"72":0.04489560698172016,"73":-0.012766976004150858,"74":-0.04532277865872399,"75":0.10094286245272022,"76":-0.023603034406482922,"77":-0.055435531368686654,"78":0.06729985278491842,"79":0.015227626901990069,"80":-0.09844810648952429,"81":0.0440866461785572,"82":-0.04114704348751814,"83":-0.007547629228426031,"84":0.017043197901810192,"85":0.053137964900852035,"86":0.08230152359392734,"87":0.05672188137943974,"88":0.02567432629794813,"89":0.011019960626109057,"90":-0.1139823780941477,"91":-0.058596427126610375,"92":0.03622418575099234,"93":-0.022211943759011952,"94":0.11140377169852209,"95":-0.04646421096272997,"96":-0.023882342408935994,"97":-0.0019060611723033432,"98":0.04730264972842505,"99":0.033512436933525486,"100":0.019485614203024658,"101":0.042096553129844255,"102":0.01388364695953618,"103":-0.058487645307425055,"104":-0.05109700880639275,"105":0.07036890270692461,"106":-0.14316328484471927,"107":-0.030435192849578147,"108":0.032653829779700036,"109":0.03284721899671608,"110":0.07145422618764709,"111":-0.10318921507345494,"112":0.0335038891301736,"113":-0.02818674856423843,"114":0.031310697966310516,"115":0.011672515099040536,"116":0.05324747627918622,"117":-0.017314442280119788,"118":0.07247109027687301,"119":0.10139519555173766,"120":0.07819290942867921,"121":0.00019362464441492847,"122":-0.05133329427247619,"123":0.04463128025301191,"124":0.10608134380794157,"125":-0.01220217878255393,"126":0.011159057364974188,"127":-0.02696048622553836,"128":0.09938161144097779,"129":-0.024563444392763367,"130":0.06428946964683195,"131":-0.04638332987209652,"132":0.03636394380451846,"133":-0.017432672494155123,"134":-0.025552887310022976,"135":-0.05932412313223398,"136":-0.04395736780608432,"137":-0.024591232343919047,"138":-0.07329371298039332,"139":0.05869321365393071,"140":0.12486209918631454,"141":0.08358545536314864,"142":-0.03554657931785327,"143":-0.06135944051551738,"144":0.037466113526495516,"145":-0.023249759797828676,"146":-0.003769441873977883,"147":-0.01704823087456823,"148":0.05163321825827364,"149":0.03009346342545646,"150":-0.045882933512228635,"151":-0.028942536309534528,"152":0.06557257526557236,"153":-0.07300375640838376,"154":-0.036304751112631664,"155":-0.0075576951204256605,"156":-0.000542326698145828,"157":-0.09486839221890063,"158":0.04083815955256807,"159":0.08141291261706894,"160":0.007107058003126846,"161":0.027735491463095126,"162":-0.020255296264929327,"163":-0.07479476719946715,"164":0.0320615553348286,"165":0.10558570558577864,"166":0.05442506306072444,"167":0.0948683365225387,"168":0.018254397790988867,"169":-0.05426542599499089,"170":0.014655434360783214,"171":0.0008563060280259821,"172":-0.0037678682670631383,"173":0.07141616691905105,"174":-0.061328480391261056,"175":-0.02595346307546287,"176":-0.10902978016244018,"177":0.014247307254293667,"178":-0.06532449090444925,"179":-0.003883779561390312,"180":-0.06313608562355548,"181":-0.0598937096390525,"182":0.0993185199326927,"183":0.013480964900968066,"184":-0.04779467826835117,"185":0.016442820258395236,"186":-0.12008287883785507,"187":-0.06356188242427954,"188":-0.012899475619028008,"189":0.039645002447582095,"190":0.020850500959150236,"191":-0.06875164105536351,"192":-0.028791825242947152,"193":-0.00021303430334756456,"194":-0.01728642979193269,"195":0.02514350128628455,"196":0.006486172961579481,"197":0.028340657203675786,"198":0.0024477458467347616,"199":0.001568752977975383,"200":-0.03211555891287586,"201":-0.02630321641496269,"202":-0.05211474567348962,"203":-0.07091460133513723,"204":-0.004640047606868693,"205":0.04428397180274048,"206":-0.008497973144998996,"207":-0.042810182539284834,"208":-0.08687666133436524,"209":0.06391998290297646,"210":-0.08354855332593822,"211":0.000714767519918853,"212":-0.038037662235372846,"213":0.005739197638287231,"214":-0.005768242835651019,"215":0.03923184780626997,"216":0.06498557856185462,"217":0.03436829511557822,"218":-0.08161305982200806,"219":-0.10277265429447262,"220":0.05221277057376136,"221":-0.03975818527630637,"222":0.06483854231666195,"223":-0.08319414683640955,"224":0.04386296911724434,"225":0.059678555855735886,"226":0.052165819866242975,"227":-0.009794061405332746,"228":0.039041111518038144,"229":-0.09988738683704071,"230":-0.02970028094264555,"231":0.05416292312059288,"232":0.025465485897215093,"233":0.08677449305071654,"234":-0.07061307937185997,"235":-0.05796378806772896,"236":-0.046958674400565684,"237":-0.038729187361785884,"238":-0.031210141851408156,"239":0.014507303619991726,"240":0.00013335339264103165,"241":-0.013194948773424784,"242":0.10641840734445804,"243":-0.12405265191505473,"244":0.10616130376835901,"245":0.04890166911941727,"246":0.009452570104021268,"247":-0.06184536337488227,"248":-0.11911043573980103,"249":-0.09121938782032694,"250":-0.1287251653419993,"251":-0.07277810203421764,"252":0.013406121448440196,"253":-0.011755356479592211,"254":0.029763309056143904,"255":-0.011306975351355011,"256":0.002883892660459357,"257":0.08161471558989764,"258":-0.06525019531219411,"259":0.062411932659223436,"260":0.025204349853384628,"261":0.00837059737985038,"262":0.11321314253460839,"263":-0.019430586502246192,"264":-0.023877710776541633,"265":0.0008876129531228153,"266":-0.07752050433621714,"267":-0.07281768169355639,"268":-0.004267137916552849,"269":-0.020465997632494213,"270":-0.015696187811630798,"271":-0.10247807904511558,"272":0.006307935760509316,"273":0.08946327629906446,"274":0.025728516061142948,"275":-0.07263325800637398,"276":0.03811260649131019,"277":0.0376419756412928,"278":0.043135542037548526,"279":0.07564837243112876,"280":-0.1310123651148504,"281":0.021563484184803857,"282":-0.1413347533185631,"283":0.0708054085309186,"284":-0.02535186987750184,"285":-0.044975871332874805,"286":0.05742205425589797,"287":-0.06504855284433357,"288":-0.002613129513037469,"289":-0.025459075273365335,"290":0.004480800003325358,"291":-0.1189282006668136,"292":-0.022739075433787136,"293":0.013846589666362758,"294":0.024067609866800163,"295":-0.002462184810330874,"296":0.07117458287138632,"297":-0.07458569756025421,"298":-0.06179748724551816,"299":-0.04205102658977383,"300":0.09768804881301246,"301":-0.002081836277274037,"302":0.0036013296484286267,"303":0.005520845495154139,"304":0.046322419239554574,"305":0.08447060244717991,"306":0.04284288516102033,"307":0.04787834212636534,"308":0.0379118821041096,"309":0.051345299787476734,"310":-0.04455384984169748,"311":0.06707236917005399,"312":-0.0034989168120325162,"313":0.08897791453553691,"314":-0.02297624367575597,"315":0.024812597502040783,"316":0.026030408394114555,"317":0.02780184382738014,"318":-0.009615151058805053,"319":-0.04287604902668538,"320":-0.029798336391944288,"321":-0.07426756734166519,"322":-0.054765585030924276,"323":-0.069957092367334,"324":-0.003373639033199687,"325":0.012250464607019855,"326":0.046789530918164825,"327":0.0314019068302882,"328":-0.02457081672214201,"329":-0.021500340261357734,"330":-0.04475542786830633,"331":-0.010397994697370006,"332":0.017934331809935932,"333":-0.060505459196397604,"334":-0.01761817496790966,"335":0.07487332498038658,"336":-0.0016814174739312466,"337":-0.045050483012874884,"338":-0.001125999603951281,"339":0.013027735147001673,"340":0.10353121834995974,"341":-0.04513798510558832,"342":-0.018593959666949465,"343":-0.00966564086804591,"344":-0.14703752149360075,"345":-0.033036495102833664,"346":-0.07171908025287835,"347":0.0320877975286243,"348":-0.06565993711960653,"349":0.07268721821092476,"350":0.02107776122850143,"351":-0.0038107919012911875,"352":-0.008646669168921489,"353":-0.03499272550155365,"354":0.07375191149784359,"355":0.006232303413904472,"356":0.04346496194445466,"357":-0.015326984397176384,"358":0.07681245352702534,"359":-0.0204334113909853,"360":-0.07537804304104989,"361":0.019038510603971742,"362":-0.10139022479021072,"363":-0.041474571317328617,"364":0.046580017014610293,"365":0.10514548939693324,"366":0.07646619082898566,"367":-0.20099336977466395,"368":-0.0003310493487145442,"369":0.06214289831826258,"370":0.006581715654633901,"371":-0.0520271462646305,"372":-0.06579495932375216,"373":-0.05606602640525388,"374":0.0852628238096093,"375":0.03162779144273371,"376":-0.03979035355890817,"377":0.051746989957097006,"378":-0.015009970680877241,"379":0.056813305805174345,"380":0.08966228268352462,"381":-0.0705887747792535,"382":-0.056544685789803796,"383":-0.03411971439605318,"384":0.01706653248236059,"385":0.020399815484708272,"386":-0.025822035766622554,"387":0.026437424857033143,"388":-0.033881649492360624,"389":-0.06634199916719595,"390":0.04025139583300286,"391":0.03963311866505698,"392":0.021891978231501866,"393":0.09589933593831182,"394":-0.07413972986722477,"395":-0.043624771000675085,"396":-0.016983770731328937,"397":0.06032928069803333,"398":-0.038199694755432445,"399":0.008424762727253211}},{"sx":5,"sy":5,"depth":16,"w":{"0":-0.019282397711097236,"1":-0.09011479320217643,"2":0.060646105987843306,"3":-0.007880364117866502,"4":0.12716976351412848,"5":-0.012580453588167837,"6":0.044197466061000376,"7":-0.001955890503163686,"8":-0.014335557872002738,"9":-0.0809123489940827,"10":-0.006425186188198,"11":-0.063459151516494,"12":0.04943506390129811,"13":-0.004820893541837689,"14":0.05775011800481032,"15":-0.01944315905986483,"16":0.04581776531068128,"17":-0.015890064508735587,"18":0.022257566402717834,"19":-0.060313405118632674,"20":-0.0009087711477481553,"21":-0.008944578124029184,"22":-0.10437389579811551,"23":-0.04969579263046571,"24":-0.04277842891540507,"25":-0.11506332279261676,"26":0.06441628951637719,"27":-0.044714340717959794,"28":0.003780620715868812,"29":-0.021726659094862644,"30":0.0018104012951281443,"31":-0.09872071708861606,"32":0.013910757140974927,"33":0.039303438293572295,"34":-0.03153874316083562,"35":-0.026734496125571335,"36":-0.07959795923743383,"37":-0.0818111008775181,"38":-0.017727727558022422,"39":0.0171466945763967,"40":0.013450263100574527,"41":-0.012633224004107005,"42":0.0024529732771277736,"43":-0.0639481040850856,"44":0.02152417015317791,"45":-0.026664636134603396,"46":-0.010963283879392277,"47":0.01883053608944631,"48":-0.0023756725274679496,"49":-0.06438399024641266,"50":0.036908540885699274,"51":0.05576354913332309,"52":-0.010202609890028204,"53":0.010502663463038872,"54":-0.03125568171120172,"55":-0.07350252997039132,"56":-0.021474684839252155,"57":0.02517366619733305,"58":-0.03517961257509129,"59":-0.07029266744563886,"60":0.0054914611471551045,"61":0.12210058762173409,"62":-0.008800707779362284,"63":-0.020924887779052135,"64":0.024272433489427352,"65":0.07184675274257984,"66":0.0440487258176208,"67":-0.09611585069013374,"68":-0.018183149119486434,"69":-0.10168481071872201,"70":0.015054009901516867,"71":-0.007913218274230836,"72":-0.06829382310471728,"73":0.09006825538273473,"74":-0.022135594864136326,"75":-0.042342255248470656,"76":0.021232654919062764,"77":0.01051466884779826,"78":-0.05501520114258449,"79":0.05790573056990741,"80":-0.032033626505564385,"81":0.01878350686495322,"82":0.08752156895405189,"83":-0.054531798005755146,"84":-0.05274286829072654,"85":-0.04329833654676428,"86":-0.06643759968432594,"87":0.00012493390408877406,"88":0.07003065506576346,"89":-0.01074001397831171,"90":0.04319682320395508,"91":0.00990045952217477,"92":-0.0034967798337462645,"93":-0.018894747913242107,"94":-0.05033037307247594,"95":0.010397564635542388,"96":0.08039622802706868,"97":0.045272408294761396,"98":0.037769847375409143,"99":-0.06259621286475663,"100":-0.01792262764783626,"101":0.013091773034794106,"102":-0.09379854495824429,"103":-0.010949532542734513,"104":0.044003388937053516,"105":0.08283496172499571,"106":-0.06160151163029229,"107":0.017429905768690687,"108":0.043743750864918114,"109":-0.016167075988717708,"110":0.07280514468921183,"111":-0.061630631060363365,"112":-0.0038003465837401777,"113":-0.004792837606334013,"114":0.03969936962569355,"115":0.048249046905096515,"116":-0.05810371646655157,"117":-0.0795957354765118,"118":-0.015231930259835921,"119":-0.023517271363306266,"120":-0.07521137824294086,"121":-0.025366282793610775,"122":-0.027064517916152987,"123":-0.04445996655050297,"124":-0.027255145055637087,"125":0.08751533823424455,"126":-0.16997338670513512,"127":-0.021066531526067356,"128":-0.041380896704454655,"129":0.011640415299808296,"130":0.02990117578320974,"131":0.040484127713892364,"132":0.0025490366381220883,"133":-0.012890623777997913,"134":0.03464966853965,"135":-0.054132828281868585,"136":0.017225477315280763,"137":-0.028669505783677905,"138":-0.012008807627560075,"139":-0.0026345951714734158,"140":-0.031440649201576784,"141":-0.03698415292086769,"142":-0.019990091546792904,"143":-0.06597486669228164,"144":-0.012410608160888232,"145":-0.00037892169004162003,"146":-0.020732457073231993,"147":0.006013556987101489,"148":0.06234043692779162,"149":0.038824660153265717,"150":-0.017482209299576074,"151":0.06300362926104146,"152":-0.01518333328237882,"153":0.08942384171852924,"154":0.001207221996655002,"155":-0.01660554326547249,"156":-0.14108397726289185,"157":0.017873614105920817,"158":0.021787260734266765,"159":-0.06571957917187517,"160":-0.04272705800696769,"161":-0.009432158851597938,"162":-0.013666258055799697,"163":-0.022156725430651,"164":-0.06017984148189018,"165":0.013863465225395805,"166":-0.01820404883177152,"167":-0.017740073955427357,"168":-0.05705213345634691,"169":-0.08241659271241734,"170":0.02863053925172868,"171":0.04386308566706607,"172":-0.003721935091847952,"173":0.02270199054262137,"174":0.023801445417144837,"175":-0.0033113810906963367,"176":0.04690993036579784,"177":-0.010294984098931781,"178":0.005717227197968741,"179":-0.03436689943706115,"180":-0.09328153988039277,"181":0.003286309501669809,"182":0.011254924810367982,"183":-0.03870843751142107,"184":-0.03741584628704608,"185":0.06217408054826628,"186":0.030136733567463398,"187":0.050075831047468516,"188":-0.01456579759766258,"189":-0.06819202011785294,"190":-0.06527696722822039,"191":-0.0675856209815589,"192":-0.03855843932970332,"193":0.02151272997930668,"194":0.032427230555652775,"195":-0.02641700597570894,"196":-0.0583561450431917,"197":0.017679064413033664,"198":-0.114071967339377,"199":-0.06984817712937245,"200":0.07401629335220612,"201":0.06709067769757762,"202":-0.01806075117410932,"203":-0.0034560983296185338,"204":-0.04714275710200321,"205":-0.031085399623449136,"206":-0.07735809105598514,"207":-0.029425637344368302,"208":-0.03139631063348444,"209":0.07409617829733625,"210":-0.09176979853637032,"211":0.09091909467962166,"212":-0.0462351569315824,"213":0.01388842577566007,"214":-0.03005201026810979,"215":0.007399701409018641,"216":0.018942404291552375,"217":0.0053389995529141985,"218":-0.04050253598127889,"219":0.021236659771022563,"220":0.01026659066972817,"221":-0.05545366429867989,"222":-0.08372408279970675,"223":-0.09853941984718867,"224":-0.018835439252104187,"225":-0.035049820986224105,"226":-0.06579540546570962,"227":-0.057061460041718186,"228":0.023723949768061355,"229":-0.0660908478997859,"230":-0.005304094828808484,"231":-0.00888567138275637,"232":-0.04014958623747829,"233":0.008042093108657708,"234":0.055302980142236474,"235":0.028581980615043287,"236":-0.0008047086903685004,"237":-0.035386598668843375,"238":-0.10274369223545848,"239":0.004266005699350187,"240":-0.03624190438298621,"241":-0.014403583994947676,"242":0.06631347172362607,"243":-0.023282661103815196,"244":0.03547180286176451,"245":0.09177712617858295,"246":-0.056359483508468304,"247":0.012455601301681853,"248":0.030208227952968975,"249":-0.030042949587203154,"250":-0.03126734090583471,"251":-0.10366503345293672,"252":-0.040520286031898056,"253":-0.08833753533628956,"254":0.021555136908875932,"255":0.0570740952365341,"256":0.042163019430612333,"257":-0.053032439429836715,"258":0.029154756314604895,"259":0.06623441092732973,"260":0.025270837766512427,"261":-0.04708994945595695,"262":-0.08124644013806182,"263":0.13039826519272496,"264":-0.05730334064107779,"265":-0.013046639821143308,"266":-0.0008894736942933802,"267":-0.04909843870385308,"268":0.04878566158918391,"269":-0.05731952691543183,"270":-0.0024495157614836055,"271":-0.09758239774781796,"272":-0.03697626154274453,"273":0.020425806679541997,"274":0.1261151066199617,"275":0.02461946257039477,"276":0.051398794749330706,"277":0.04031896010190948,"278":-0.02256274666158598,"279":0.012637825123945848,"280":-0.03338111454993027,"281":-0.02351151346738594,"282":-0.022964184710441562,"283":0.02569246380195942,"284":-0.028344372493925792,"285":-0.012955801391100018,"286":-0.0653710818658834,"287":-0.03299507632974986,"288":0.014619315292215563,"289":0.009122824416280888,"290":-0.050535985317494106,"291":0.007205481193662857,"292":-0.0221563306614169,"293":0.024680800974565483,"294":-0.04094183855373072,"295":0.07849613189699983,"296":-0.06986971261942698,"297":-0.0407833979966303,"298":-0.048065436215799805,"299":-0.07653882330007923,"300":-0.025449490116157096,"301":-0.03881108054351161,"302":-0.00025376413804908645,"303":-0.0960378437528755,"304":-0.04029259196268371,"305":-0.016637709608681613,"306":0.028312527254237493,"307":-0.06583825366290594,"308":-0.047336669159884624,"309":-0.0016992860192933795,"310":0.001956836327987722,"311":-0.025950269149842775,"312":-0.04319962476459903,"313":-0.051473388708359026,"314":0.02595842192118813,"315":-0.04467398121966962,"316":-0.13902064117561386,"317":-0.19132300217940715,"318":0.03945177531234684,"319":0.04841402817871908,"320":0.021271137129590417,"321":-0.03160837896019162,"322":-0.015830438970427345,"323":-0.01755605258295751,"324":-0.04117532272088201,"325":-0.0177879673728528,"326":0.02209633946044217,"327":0.11271980920299025,"328":-0.03619804832501956,"329":-0.0072191210416452265,"330":0.07194468058497828,"331":-0.09432843403550858,"332":0.08477684427165255,"333":-0.04272532919446894,"334":-0.025561433289517873,"335":0.07999410912427464,"336":-0.07970432282929908,"337":0.0325809936345754,"338":-0.08524816609508559,"339":-0.002502875430665743,"340":0.008111642971525217,"341":0.0018548504658965018,"342":-0.012201521858968395,"343":0.03170209683845414,"344":-0.0915777476331248,"345":-0.013390052639872814,"346":0.1342092794740382,"347":-0.06682967248087282,"348":-0.07895283387558474,"349":-0.00016569339660717062,"350":0.004725564266056444,"351":0.0158215253537569,"352":-0.07185664030541576,"353":0.04876631391457495,"354":-0.0700737831719583,"355":0.057414920466313135,"356":0.05951078220269288,"357":0.04678051245968333,"358":0.054984786124075445,"359":0.030496496909387685,"360":-0.016002747783817783,"361":-0.06417569285124158,"362":0.0077285181230753374,"363":-0.005823517507591195,"364":-0.08829985878541638,"365":0.06816960765029079,"366":0.04947887259054642,"367":-0.007090142687558341,"368":-0.006990191714746545,"369":-0.010973626482548168,"370":0.04884296268352745,"371":0.06039454860456547,"372":-0.049848855760494186,"373":0.0033030085985350345,"374":-0.07193725328041675,"375":0.02795381199039596,"376":0.023340789369509646,"377":0.027185412508815242,"378":0.10905126520475565,"379":0.013277997764832206,"380":0.06929671936382478,"381":0.009406475313265729,"382":-0.008659312677013205,"383":0.020037082878086566,"384":-0.030979071886735633,"385":0.08293473631090612,"386":0.026433571099851734,"387":0.020883235643832904,"388":-0.005367053747680384,"389":-0.028774656366259515,"390":0.011025624374071105,"391":0.02158803788235672,"392":0.05000568023060262,"393":-0.035674619297685416,"394":-0.053584464639941175,"395":-0.016760049113121685,"396":0.03166689984736516,"397":0.002998528456670428,"398":-0.06914445459499369,"399":0.009073271457055944}},{"sx":5,"sy":5,"depth":16,"w":{"0":-0.03351694179548966,"1":0.04210168476168671,"2":-0.08319701535658201,"3":-0.045157324583800666,"4":-0.015084714521106912,"5":-0.05072243632448691,"6":0.004617619809887723,"7":-0.01439421837514528,"8":0.027251349782664903,"9":-0.00024213171049505805,"10":-0.030048395538196146,"11":-0.022584630562704593,"12":-0.01050895140270386,"13":-0.009106672726889992,"14":0.10684605464709765,"15":-0.04274604054844084,"16":-0.0739690693361977,"17":-0.06456015130293481,"18":0.0104537932495651,"19":0.08785835139177091,"20":0.0018538245400341925,"21":-0.057197876522272435,"22":0.005940560054370643,"23":-0.0024740742871202192,"24":0.007267383454732034,"25":-0.031107396302995742,"26":-0.03258201108365104,"27":-0.0338486544666838,"28":0.016480215139334193,"29":0.059980126118467786,"30":-0.20998277247505842,"31":-0.0465059591632345,"32":-0.06994148732790702,"33":0.021502692940813424,"34":-0.08132432499318924,"35":-0.038162268382713437,"36":-0.05492824506228491,"37":-0.052033630534314125,"38":0.004485101029835076,"39":0.0100507431696508,"40":-0.02087712806213604,"41":-0.0731239742550742,"42":-0.05121689510717629,"43":0.07638087377738727,"44":0.037341057092365904,"45":-0.008843495229856809,"46":-0.03496896419449154,"47":-0.007855556754083712,"48":0.02323164856916276,"49":-0.015558718538999662,"50":0.06829402707489972,"51":0.004268377618701767,"52":0.11708593527650772,"53":-0.004365679370787571,"54":0.0276093143886811,"55":-0.022752641915314505,"56":-0.07011562619130685,"57":0.029979999122988987,"58":0.07565657906387704,"59":0.03511328901169329,"60":-0.001889806972309135,"61":-0.044112679825540985,"62":0.03284724776863609,"63":-0.0542286991415319,"64":-0.024356432253431294,"65":0.032392117621488026,"66":0.010781045678862239,"67":0.0045773609731769825,"68":0.08327190705057107,"69":-0.03441557461481111,"70":-0.11074198384401315,"71":0.0039806576991289104,"72":-0.04622960559783171,"73":-0.014160206469622084,"74":-0.11145740630852975,"75":-0.03517799066932663,"76":-0.013602100446145498,"77":0.03468306533034195,"78":-0.04050160250856432,"79":0.052179864439623455,"80":0.04281946626391325,"81":-0.08315835076977857,"82":-0.03617394608836901,"83":-0.0007516058110962497,"84":0.011026837691212958,"85":-0.0229971482624345,"86":-0.03389105910061667,"87":0.06231986315654049,"88":0.054205727558581114,"89":0.07671646330687577,"90":0.0020610099245311603,"91":0.06462956308808832,"92":0.1321376985621725,"93":-0.010216134240090173,"94":-0.03131569076181434,"95":0.007167391200273259,"96":-0.0024301536171520543,"97":-0.12633186636281005,"98":0.025638162508246642,"99":0.09210150211354717,"100":-0.0035456070784818296,"101":0.04755725464158375,"102":0.006509742637700979,"103":-0.024556256571434943,"104":-0.030632735500867595,"105":0.04590104423323764,"106":-0.031742857353476504,"107":0.008452180504443668,"108":-0.015683489172009377,"109":-0.003324453136823189,"110":-0.13358493863564236,"111":0.011837826983855368,"112":0.015924143004711303,"113":0.021931313994889092,"114":-0.027449571726863634,"115":-0.020794358488165535,"116":0.05018008424211506,"117":0.022336315910275847,"118":-0.0012670264313745453,"119":-0.06451721046345489,"120":-0.010450256958708978,"121":0.05519816468566439,"122":-0.022287816760254802,"123":-0.0567396570444748,"124":0.038193387921169074,"125":-0.015767039073072055,"126":0.011586331279754444,"127":-0.06054662052144543,"128":-0.03340230587606492,"129":-0.06339578547137381,"130":-0.05555264528189867,"131":0.03398423262064907,"132":-0.029863878244412747,"133":-0.08471707449612881,"134":0.06056675341122351,"135":0.05907118330114161,"136":-0.05773936457383053,"137":-0.04543945100489631,"138":-0.016212580141356972,"139":-0.05865898506014423,