{"layers":[{"out_depth":3,"out_sx":32,"out_sy":64,"layer_type":"input"},{"sx":5,"sy":5,"stride":1,"in_depth":3,"out_depth":16,"out_sx":32,"out_sy":64,"layer_type":"conv","l1_decay_mul":0,"l2_decay_mul":1,"pad":2,"filters":[{"sx":5,"sy":5,"depth":3,"w":{"0":-0.07753637922767004,"1":-0.011849411274786224,"2":0.017530197301098196,"3":-0.042467913285663114,"4":-0.008166243165698216,"5":-0.08205867885545928,"6":0.018732838425963794,"7":-0.007110299159560934,"8":-0.028276629208206245,"9":-0.08305904192058576,"10":-0.09181876438356167,"11":0.00876333406637816,"12":-0.09604923048549517,"13":-0.05700150161215365,"14":0.08056645469772374,"15":-0.038731251831134746,"16":-0.01686400637337138,"17":-0.03601470148880548,"18":0.042285776046415896,"19":-0.03908021142226151,"20":-0.03971322745412678,"21":-0.02722664192143986,"22":-0.08421388900687019,"23":-0.09056698553496458,"24":0.012194218404134368,"25":-0.057072765656832,"26":-0.049717727823199206,"27":0.01094078766303845,"28":-0.038535027404189896,"29":0.04280320871075944,"30":-0.012272484062663017,"31":-0.06781006085501805,"32":-0.03853619659105129,"33":-0.06321925647387183,"34":-0.12716799754284686,"35":-0.03612693030409672,"36":-0.005165540953974319,"37":-0.05066373396892589,"38":-0.05804446430818505,"39":-0.04252975742633615,"40":-0.02532824259120394,"41":-0.13757053695586913,"42":0.009199309473546212,"43":-0.10883947011786366,"44":0.0033918361806418267,"45":-0.045353454114896115,"46":-0.04453790395896924,"47":-0.08893322483624412,"48":-0.011628691677299775,"49":-0.028173220795965064,"50":-0.060947282191961195,"51":0.055340215287306524,"52":-0.0747660977194208,"53":-0.06993786679176289,"54":0.044378741337050026,"55":-0.1121753693463585,"56":-0.11796555546126168,"57":-0.022242696560077407,"58":-0.08702862157498963,"59":-0.0910197156765882,"60":-0.012185670864575959,"61":-0.09667182264568838,"62":-0.04356449508916416,"63":0.003489539377336662,"64":-0.1066733438201672,"65":-0.08830706375281358,"66":0.010846686993048823,"67":-0.144522915716609,"68":-0.053208651830722764,"69":0.04029202826075013,"70":-0.14495385735880334,"71":-0.05753471850451037,"72":-0.030411011147487187,"73":-0.04183416862465769,"74":-0.1099434923180752}},{"sx":5,"sy":5,"depth":3,"w":{"0":-0.00004017796250645795,"1":-0.030843138893142753,"2":-0.013379263321067642,"3":-0.09829827893450531,"4":-0.07126575566385043,"5":-0.06307888829654308,"6":-0.018242809745805142,"7":-0.08677093895938916,"8":-0.04352002340802895,"9":-0.0844460348022349,"10":-0.005946656929858712,"11":-0.05365831703338177,"12":-0.0207547651206415,"13":-0.0633175325517445,"14":-0.03950516477369296,"15":-0.02383322578170587,"16":-0.08312903979790219,"17":-0.0267161179516298,"18":-0.04911155859358261,"19":-0.036146962992139986,"20":-0.06191737226559945,"21":-0.09439300813234003,"22":-0.0254278327658107,"23":-0.011814831138109359,"24":-0.051705751263647896,"25":-0.10855935777867642,"26":-0.014275708913941369,"27":-0.011263622815319159,"28":0.021470332480057315,"29":0.017145125422582543,"30":-0.032135072472035085,"31":0.008915464599327778,"32":-0.011511483582005285,"33":-0.045657341435573665,"34":-0.03621290523378562,"35":-0.05999881761143576,"36":-0.04629547767191327,"37":-0.02439635663183655,"38":-0.08419822000846687,"39":-0.04136453721304777,"40":-0.005943081088591072,"41":0.0385875709102798,"42":-0.04028401263362899,"43":-0.10938410541497048,"44":-0.03058200782001049,"45":-0.038148790843086394,"46":-0.11719803189418232,"47":-0.06003941653244773,"48":-0.048232892628835886,"49":-0.05150576723348411,"50":0.01888646654802964,"51":-0.0426004022030166,"52":-0.11772019845357654,"53":-0.027790395336331424,"54":-0.10787017632068328,"55":-0.10899355113896303,"56":0.03739410105031233,"57":-0.08953590811529523,"58":0.025246283552850884,"59":-0.042898833441990546,"60":-0.04365409141946783,"61":-0.06644207474211983,"62":-0.017802740637406448,"63":-0.05496484417216469,"64":-0.1080742153956451,"65":-0.0457136268819578,"66":-0.04633589345830859,"67":-0.1410848958376073,"68":-0.06103210461958272,"69":-0.03134790285182991,"70":-0.09143204493945074,"71":0.018775635512079066,"72":-0.020442219998721964,"73":-0.17442557278409204,"74":0.0013720639630189699}},{"sx":5,"sy":5,"depth":3,"w":{"0":0.02209331953224259,"1":-0.08299895582580058,"2":-0.0671636806906582,"3":-0.01261896753424615,"4":-0.04887534385151566,"5":-0.0149896590658771,"6":-0.050530588751960856,"7":-0.08406285653900454,"8":-0.07493833170268517,"9":-0.03740405846780638,"10":-0.07532318751897576,"11":0.030140907554149148,"12":-0.03994465808348627,"13":-0.04413387948602583,"14":-0.021090625020615303,"15":-0.059678028431206225,"16":-0.07126944821664147,"17":-0.005419199603722554,"18":0.022137664668656645,"19":-0.13362714353496719,"20":-0.029065757753716715,"21":-0.01972199526701318,"22":-0.033141673518780085,"23":-0.05879652608743572,"24":-0.006652307708982811,"25":0.008897566899169145,"26":-0.11234521695880122,"27":-0.015941289559861606,"28":-0.07049294691777172,"29":-0.09140158549090203,"30":0.03664397304892706,"31":-0.04822155264820524,"32":-0.09647199454321082,"33":-0.03894053131005652,"34":-0.07984075921111135,"35":-0.03739615037996002,"36":-0.020133226582656687,"37":-0.0902017626164556,"38":-0.11095754326245107,"39":0.030222731051413845,"40":-0.14470639594271853,"41":-0.07505482971770329,"42":0.03446065300201523,"43":-0.10441052647296756,"44":-0.02710400595274653,"45":-0.06524545391002345,"46":-0.01885402768603343,"47":-0.011442701865985125,"48":0.008145622223925985,"49":-0.04469980084840669,"50":0.037707126137111364,"51":-0.02731521556355604,"52":-0.11730394994186488,"53":-0.035112969996993613,"54":0.056107703494742305,"55":-0.07526010523757672,"56":-0.043133207213432556,"57":0.03155908634525658,"58":-0.0034950300330155856,"59":-0.03348751659268074,"60":-0.06057639267210999,"61":-0.002501832714441896,"62":0.038367258581058945,"63":0.03340493693202237,"64":-0.046501321769866294,"65":-0.07729514794632153,"66":0.020880169052472683,"67":-0.033132121382837804,"68":-0.02560200685571879,"69":0.006450880236078097,"70":-0.03582198414388632,"71":0.0005391018065029413,"72":-0.0037873520480043504,"73":0.030525666400285353,"74":-0.08220431599790967}},{"sx":5,"sy":5,"depth":3,"w":{"0":0.014092158190076658,"1":0.004421424485344827,"2":-0.1083628400351569,"3":0.05856025837187157,"4":0.01607039098676363,"5":-0.0945843446617221,"6":0.03987919492140314,"7":-0.06809986488253877,"8":-0.11425720618883975,"9":0.07631126452307521,"10":-0.039901043814363796,"11":-0.04662874742328767,"12":0.07857178660126513,"13":-0.006186401271277053,"14":-0.010056867684729893,"15":0.045768819417396536,"16":-0.03268186436135961,"17":-0.019604001886464342,"18":0.035605578401814865,"19":-0.0005748698957407693,"20":-0.07919385038866282,"21":0.016737804820950018,"22":-0.03860767841160292,"23":-0.08900816260459722,"24":0.011733952946645504,"25":-0.0680917730039921,"26":-0.02537419147118574,"27":-0.05470046712563932,"28":-0.011360145589703236,"29":-0.0625554696518559,"30":0.054442892651606414,"31":-0.040099203891874886,"32":-0.06203300339959208,"33":0.003914207718712718,"34":-0.025307116213109906,"35":-0.07978769855785527,"36":0.0091318875427965,"37":0.046416244758521276,"38":-0.10268784890882546,"39":0.10138573897508318,"40":0.02693141985593363,"41":-0.010645560648522285,"42":0.013497467836252735,"43":-0.04837024948210609,"44":0.005167944269559765,"45":-0.018103793166639206,"46":0.031643974160478275,"47":-0.04968414886492851,"48":0.018453230140770664,"49":0.005390761810437948,"50":-0.10478639972681332,"51":0.043229514162231614,"52":-0.006786877563000207,"53":-0.06616519723435046,"54":0.05119988177519978,"55":-0.03331259662120762,"56":0.010386424305545448,"57":0.024111025775863756,"58":0.0049313730293401754,"59":0.012895450232123044,"60":0.03800481314529565,"61":-0.005498995714981253,"62":0.00543582934685586,"63":0.08449124074242027,"64":0.06722976452142841,"65":-0.08470236196193025,"66":0.03619494835691423,"67":0.027932049750106585,"68":-0.059206591340213444,"69":0.012928989194297254,"70":0.03159557623188914,"71":-0.025758698467272842,"72":0.06741376311836374,"73":0.008155539320812689,"74":-0.02417518165641011}},{"sx":5,"sy":5,"depth":3,"w":{"0":0.014230566119559203,"1":-0.02135656186342586,"2":-0.07305115014278829,"3":0.03148018295577782,"4":-0.04933840994214672,"5":-0.05363833711179913,"6":-0.0018750649184133721,"7":0.021693863655654063,"8":-0.10424736024357989,"9":-0.04956710178452653,"10":-0.049681309184963426,"11":-0.0748465025845016,"12":-0.06336204988601836,"13":0.038005241774592656,"14":-0.05481128226933954,"15":-0.039619625938486926,"16":-0.08751635568446665,"17":-0.029530863380325723,"18":-0.009579088779437436,"19":-0.11661665314131614,"20":-0.039107951575869326,"21":0.029852195476552473,"22":-0.038701548413882694,"23":-0.004109537956096004,"24":-0.05291626169661067,"25":-0.050714545165633486,"26":-0.05604529649611239,"27":-0.047523543142540425,"28":-0.013757181367253655,"29":-0.02596825756474136,"30":0.02409688114574889,"31":-0.0845671427446503,"32":-0.0649911924278261,"33":0.045646730372799454,"34":-0.08169891323895434,"35":-0.11818981162190699,"36":0.017915442363604643,"37":-0.09361490648820858,"38":-0.05379407094094443,"39":-0.07606350802372538,"40":-0.04017326212491852,"41":-0.03871994398301134,"42":-0.0308408449013743,"43":-0.05823184280886251,"44":0.018263538429941276,"45":0.07253587678146226,"46":-0.023288554474558333,"47":-0.10955673405795868,"48":-0.004075922647249719,"49":-0.021768311230319422,"50":-0.11072309732433168,"51":-0.06636172243547929,"52":-0.08335122323483653,"53":-0.12528501558452548,"54":-0.01411261449297755,"55":-0.0931645257634135,"56":-0.06655547475412811,"57":-0.0006894244663659234,"58":-0.05381656934504066,"59":-0.05607766086406849,"60":-0.0026526118734048606,"61":0.0065722556503793215,"62":-0.04096717438307276,"63":-0.025751794029057085,"64":-0.06713739200363346,"65":-0.1331478601521664,"66":0.01921794936061125,"67":-0.05538373206272577,"68":-0.09957009153095729,"69":0.022855344966651536,"70":-0.013781010438051801,"71":-0.016543582514627363,"72":0.012971806450912069,"73":-0.10933396936160938,"74":-0.11386741594079522}},{"sx":5,"sy":5,"depth":3,"w":{"0":-0.020696821118189757,"1":0.07320073762065737,"2":-0.154093889014378,"3":-0.019400280512936973,"4":-0.021648086603805676,"5":-0.027924278880701186,"6":-0.005942385994152557,"7":-0.027520970239088206,"8":-0.06757636676639686,"9":-0.034567427600017665,"10":-0.020739727783936127,"11":-0.14434581257758644,"12":-0.022903449400010042,"13":-0.04355881611073654,"14":-0.03820706514761809,"15":0.10970166594498862,"16":0.03287370428758701,"17":-0.07174279315694647,"18":0.040485517716284,"19":0.04906833725863579,"20":-0.14533999575374784,"21":0.010935315827631681,"22":-0.06926889734182445,"23":-0.1434588149555591,"24":0.049130173559071684,"25":-0.03850344251934495,"26":-0.09664817281930842,"27":0.05037232653168579,"28":-0.07031823605313177,"29":-0.059795805667397055,"30":0.00921084087206997,"31":0.04572719551101288,"32":-0.13611979515858721,"33":0.06975456624298161,"34":0.03153394205439836,"35":-0.11090035606153874,"36":-0.01839643536595446,"37":-0.04299879775452062,"38":-0.05267243832031794,"39":0.08487108349973455,"40":-0.0292644271568495,"41":-0.08511817954744665,"42":0.022213150769765558,"43":-0.03674823353600963,"44":-0.13481817785737235,"45":0.05720745409903303,"46":0.03344269604644014,"47":-0.07804351263747177,"48":0.07842878780002031,"49":0.09021068613544876,"50":-0.14106528773542895,"51":0.03520759000211794,"52":-0.040175445238469776,"53":-0.10946922617207963,"54":0.05056898341785682,"55":0.03440288929406892,"56":-0.08658464527760693,"57":0.03525948659213509,"58":0.012607795826647807,"59":-0.10020987475020018,"60":0.028323506070433775,"61":0.019591683316642825,"62":0.0016386216183770911,"63":0.05203870187327216,"64":0.03475654708703039,"65":-0.05894564630162187,"66":0.080762534242735,"67":0.08266271871298146,"68":-0.10509779623978775,"69":0.04237526762319809,"70":0.016063079349908235,"71":-0.09737656124116152,"72":0.07018639809183633,"73":-0.07361646936357047,"74":-0.050464425523721046}},{"sx":5,"sy":5,"depth":3,"w":{"0":-0.05761667178676707,"1":-0.02830066783532063,"2":-0.06601965504814296,"3":-0.016914454555046185,"4":-0.0559625361837723,"5":-0.017090971626450572,"6":-0.04173319725036495,"7":-0.035266942680606456,"8":-0.09768263765793826,"9":-0.011125427124114188,"10":-0.005416426447608043,"11":-0.09220300644280516,"12":-0.09860392423839326,"13":-0.0478564270231269,"14":0.02984585747101468,"15":-0.02333297829598276,"16":-0.0724609334494171,"17":-0.015753778757943763,"18":-0.002360161077864722,"19":-0.06181986175284925,"20":-0.01511682616805172,"21":-0.04047251396210113,"22":-0.0088780757624072,"23":-0.055139206018612684,"24":0.002682171031085526,"25":0.028819455855116714,"26":-0.11743904442021712,"27":-0.04713232698477823,"28":-0.09941184926387403,"29":0.0050549212627888935,"30":-0.051238075219866626,"31":-0.1077192259998706,"32":-0.05884445261903369,"33":-0.06894548376046145,"34":-0.09250789484786166,"35":-0.0788156810589609,"36":0.022792124634322522,"37":-0.04675703458796089,"38":-0.10281697539315551,"39":0.01831063290826424,"40":-0.07152798259270457,"41":-0.148000536659596,"42":-0.03395833092968707,"43":-0.07485019809245474,"44":-0.10963672629864195,"45":0.017424854740352696,"46":-0.04805003293739488,"47":-0.1645019536904222,"48":-0.018252622417470492,"49":-0.10479415391789353,"50":-0.02626165109436962,"51":0.019840594507497027,"52":-0.14186761907520387,"53":-0.046621571544576496,"54":-0.043977950238235246,"55":-0.047916317342592225,"56":-0.05613733430219193,"57":-0.05573352959627636,"58":-0.00795534795704245,"59":-0.09308984131678985,"60":-0.0017256189031998083,"61":-0.15028328982998537,"62":-0.09107882815578293,"63":-0.0719404278618043,"64":-0.09842750448282646,"65":-0.00456256838393988,"66":-0.006159035341515258,"67":-0.04453951685346571,"68":-0.11779019231569239,"69":-0.029489793731924202,"70":-0.02392378478297811,"71":-0.09601435716315952,"72":-0.04044914976481615,"73":-0.13961056555009138,"74":-0.033632090236708434}},{"sx":5,"sy":5,"depth":3,"w":{"0":0.05245495086791652,"1":-0.004010416680908749,"2":-0.10258532369562161,"3":0.023595152065396415,"4":0.005359907713564281,"5":-0.10081108622564908,"6":0.0033054069551424333,"7":0.04286361763391307,"8":-0.11928897895742951,"9":0.05085666199594337,"10":-0.02045186029296562,"11":-0.0758843649933693,"12":0.08239015169895508,"13":-0.014255016455885826,"14":-0.05185327192816712,"15":0.05796162366135631,"16":0.013955340222609287,"17":-0.0798982967020628,"18":0.014333706456025948,"19":-0.009132359611020312,"20":-0.03644628852400294,"21":0.03350932925006888,"22":-0.006939270172034104,"23":-0.07601505046726409,"24":0.00779865512145195,"25":0.09028979439362098,"26":-0.12596080927176853,"27":0.023586036777623807,"28":0.01091890194858661,"29":0.0001484171637541881,"30":0.04023224247772673,"31":0.02249291101684676,"32":-0.07344504944091022,"33":0.03626255183807708,"34":-0.093252166192687,"35":-0.09851795520178991,"36":0.10647728569956502,"37":-0.0737726840966251,"38":-0.1354778603867942,"39":0.042892101727333806,"40":-0.016198138346172276,"41":-0.15759727577325486,"42":0.07373411532777539,"43":0.0645894469331986,"44":0.008564959405766915,"45":0.018869843449533543,"46":-0.004129566526079274,"47":-0.02614622807784601,"48":0.02031076745887758,"49":-0.012948191686151375,"50":-0.06594086436640995,"51":0.034624682213069614,"52":0.07940770970550529,"53":-0.11799571213182426,"54":0.10185538697383371,"55":0.05828778786189427,"56":-0.10336081028312534,"57":0.021225304728360723,"58":0.045021381458926604,"59":0.00876518494885881,"60":-0.010775325156569737,"61":-0.011767437135321936,"62":-0.037726858102587066,"63":0.06635187500617784,"64":-0.012461592986112612,"65":0.0031252283963519533,"66":0.06939135648152087,"67":-0.019149939167639796,"68":-0.08241154074695234,"69":0.027115491624562123,"70":0.015502193311854484,"71":-0.06264883001192456,"72":-0.026133039872639298,"73":0.06310023293149465,"74":-0.003945395195373354}},{"sx":5,"sy":5,"depth":3,"w":{"0":-0.11948949143140689,"1":-0.02588312569043386,"2":-0.03743455058780208,"3":-0.06084218706818333,"4":-0.11047297375688406,"5":-0.007690917249485228,"6":-0.023376296163375034,"7":-0.015310603896566369,"8":0.04132758136741387,"9":-0.009021861163948179,"10":-0.026269705457125696,"11":0.04616642019469291,"12":-0.032489820228574336,"13":-0.044369045872064784,"14":-0.00571924785401754,"15":-0.04271809346764673,"16":-0.05585766060325423,"17":0.011352809285798435,"18":-0.06775167980042957,"19":-0.04820542916425371,"20":-0.009059278738925517,"21":-0.04078083840309194,"22":-0.09282649707978084,"23":0.07425045799787931,"24":-0.06100241129466707,"25":-0.020012841590404187,"26":0.00796100864419115,"27":-0.00005809344474038205,"28":0.037263366214686455,"29":0.05835696982844029,"30":-0.07200129533708631,"31":0.048955931801778575,"32":0.0637752444447623,"33":-0.14034292753395042,"34":-0.0407263937489918,"35":0.026065046692349575,"36":-0.028116309597055765,"37":-0.05457236288846817,"38":-0.03425951989114576,"39":-0.12677842821042054,"40":-0.07091056772452184,"41":0.021304099501973088,"42":0.017292457427516592,"43":-0.0959982356038748,"44":0.027646378737352057,"45":-0.09128760589426554,"46":-0.01723391159508988,"47":0.023817261326377036,"48":-0.1250136091928184,"49":-0.02827489933707624,"50":0.010556582063716503,"51":-0.11424946201487454,"52":-0.04068998341979323,"53":0.04810188928896818,"54":-0.05196826739941303,"55":-0.012999014918399015,"56":-0.0379414087833148,"57":-0.05830032237638426,"58":0.024253340975818827,"59":-0.016925981454323762,"60":-0.09261114305597483,"61":-0.01905159621381878,"62":0.04251592940740929,"63":-0.03404070586941725,"64":0.0045957422423561906,"65":-0.011443328428834297,"66":0.0013415153617117642,"67":-0.11865111920590626,"68":-0.007925619650642634,"69":-0.03602268341690113,"70":-0.0337184266040834,"71":-0.023885064089780823,"72":-0.029892341791722295,"73":-0.02617479218498142,"74":0.023526506036248732}},{"sx":5,"sy":5,"depth":3,"w":{"0":0.018383697828582065,"1":0.042806265528200334,"2":0.09938368647850149,"3":0.011585565498961257,"4":0.06607891598629466,"5":0.059894665600248045,"6":0.0029431744083181044,"7":0.03651443244517276,"8":0.1308163991579053,"9":0.062902365424345,"10":0.02371172959247127,"11":0.0500296400365033,"12":-0.010374116292375257,"13":-0.0049021242508226195,"14":0.016320079045005705,"15":0.06270945875489942,"16":0.013008826861137081,"17":0.07086538990089171,"18":0.09116639100109447,"19":-0.006853214363064587,"20":0.024929675216957686,"21":-0.018819804118502297,"22":0.04286230392311183,"23":-0.020934887901225416,"24":0.024893499380145657,"25":0.004871926388891363,"26":0.018948696612088544,"27":0.10126122113929792,"28":-0.019714121477484626,"29":0.0487277321798563,"30":0.09926282824843209,"31":0.03551025303507265,"32":0.12685013265428224,"33":0.013094667618247659,"34":0.032215744150044134,"35":0.039775418276195997,"36":0.03237145127311239,"37":0.016953102930589516,"38":-0.005490752523031102,"39":-0.016884388033990182,"40":0.005203928627720984,"41":0.09850354400138513,"42":0.0875760060790027,"43":0.047312202169776905,"44":0.07586648225049146,"45":0.06055706971997389,"46":0.08449692022827889,"47":0.06723362378884959,"48":0.027927986245300372,"49":0.0004473969999115554,"50":0.08495228820063112,"51":0.0581339403134385,"52":0.05394391132098089,"53":0.08492872647173094,"54":0.0030043851052182573,"55":0.017617167991076318,"56":-0.021902787687593957,"57":0.03448097915024369,"58":-0.031745020584244485,"59":0.06551576737298466,"60":0.09960650252449078,"61":-0.04068476115778616,"62":0.0797213817603002,"63":0.05112949944017597,"64":0.058856293518281234,"65":0.06322319222752852,"66":0.02435075880200002,"67":0.01392391855059308,"68":0.05522505097666518,"69":0.09234636618411154,"70":0.027811460805455327,"71":0.12317023117720025,"72":0.027560282343097472,"73":0.027641939201362827,"74":0.04801661413426619}},{"sx":5,"sy":5,"depth":3,"w":{"0":-0.040712513181712484,"1":-0.00031480769134975014,"2":0.04137818470796362,"3":-0.049939075221004506,"4":-0.04837597780570888,"5":0.05130794309412875,"6":-0.05608212887119207,"7":0.02600384448123468,"8":0.016464001877079897,"9":-0.08830392025332723,"10":0.022920941134541517,"11":0.03836334239852856,"12":-0.013317238054123865,"13":-0.0022061451631476795,"14":0.016417481881722422,"15":-0.057309484801883144,"16":-0.027218882351207035,"17":0.04930202057462025,"18":-0.10749751795124016,"19":-0.015537241223017592,"20":0.013026821080018482,"21":-0.09270593459135293,"22":0.036601277651044054,"23":0.05473556326949305,"24":-0.13091571825546142,"25":-0.0062314682999910585,"26":0.03497632209022462,"27":-0.06652271891996593,"28":0.04066968207374865,"29":-0.000253169044670405,"30":-0.10267277265313365,"31":-0.0294740454394402,"32":0.06580040116607928,"33":-0.07330741891446843,"34":0.007326111779624072,"35":0.05563840420749108,"36":-0.043190817394943085,"37":-0.02087851053861552,"38":0.08839217951442759,"39":-0.11165251632624454,"40":-0.006920285294104954,"41":0.03560084352804325,"42":-0.04699580886199492,"43":-0.05252325244992137,"44":0.07346449101819447,"45":-0.09288745141484343,"46":-0.021600658695882038,"47":0.10266645326551747,"48":-0.08724619780113409,"49":-0.001914855903134688,"50":0.04768727033333016,"51":-0.09828089132242561,"52":0.013397334500603047,"53":-0.004911160584458331,"54":-0.1469146163086924,"55":-0.0068222972059862495,"56":0.08111155351244902,"57":-0.06603752342753359,"58":0.004383646577096624,"59":0.07652842859266094,"60":-0.12015070302616801,"61":-0.04768587419668958,"62":0.041758441178216255,"63":-0.10484710931043371,"64":-0.0004297311215906301,"65":0.03868712729289935,"66":-0.1532345197075746,"67":-0.06166236210574037,"68":0.06301680082508439,"69":-0.09597930775532254,"70":-0.048243113462742626,"71":0.0222533954903649,"72":-0.036208781308339724,"73":-0.0578761751675225,"74":0.03396667148911656}},{"sx":5,"sy":5,"depth":3,"w":{"0":0.005008179261659504,"1":0.001906947565747822,"2":0.11240001378882761,"3":0.025193670216982534,"4":0.08428589209333102,"5":0.08507997394023413,"6":0.031876227250734024,"7":0.017384928617113223,"8":0.0028992101828548694,"9":0.0475931125886615,"10":0.09862734957182615,"11":0.050080488306248144,"12":0.02747690973456131,"13":0.0658066327261689,"14":0.007143246549715937,"15":0.07889931272971774,"16":0.1229551420150889,"17":0.07635423499280337,"18":0.06158752631470493,"19":0.0383914945618055,"20":0.11018893630388472,"21":0.035096466719838015,"22":0.09313411518059853,"23":0.0536021300775411,"24":0.06737687794243183,"25":0.003178019948739082,"26":0.062012584151906726,"27":0.014641220281319456,"28":0.041477713635735707,"29":0.12035112566955981,"30":0.06890414684899246,"31":-0.035720206617366614,"32":0.057919428928816456,"33":0.031797913056102745,"34":0.13577968387206274,"35":0.09769837056178389,"36":0.07949123858820308,"37":0.06064822180546845,"38":0.04776254287021188,"39":0.06554408452476991,"40":-0.022901131421205173,"41":0.044127127278511466,"42":0.11979851569748659,"43":0.11272622322361192,"44":0.03039877708876496,"45":0.09199612608980351,"46":0.013616406749695553,"47":0.07967611823169558,"48":0.16560495813340256,"49":-0.010882449877225272,"50":0.1010055962268607,"51":0.07467390252516012,"52":0.10414658427665469,"53":0.025343795308850912,"54":0.029168888777563788,"55":-0.05662557692907759,"56":0.10443952724152415,"57":0.08339536696949708,"58":0.07468610388540659,"59":0.09668295599010433,"60":0.07782817085054086,"61":0.025279820744317685,"62":0.008882584803263179,"63":0.0026253868440051895,"64":-0.01237176746769993,"65":0.01533868652430232,"66":0.05133279765591187,"67":0.08058524732946565,"68":0.12213556108859823,"69":0.04103637998005424,"70":0.011693521108274957,"71":0.0164481846927035,"72":0.08385053215097714,"73":-0.001443325277944641,"74":0.03251297775494487}},{"sx":5,"sy":5,"depth":3,"w":{"0":0.04140244801361421,"1":0.05728548015888716,"2":-0.005946972485248264,"3":0.035187181697885955,"4":-0.017629666493072568,"5":0.02768466301606763,"6":-0.002749065475846535,"7":-0.0019652039138026126,"8":0.031878327684004344,"9":0.05687907887028088,"10":-0.006147544118753136,"11":-0.05531272050523539,"12":0.022706851050118222,"13":-0.07549574497638942,"14":-0.034464301391859756,"15":0.020309555683610037,"16":-0.021510022002309056,"17":-0.014760264473039872,"18":0.007527869267624233,"19":0.037992343470087925,"20":-0.00006749247204374777,"21":0.010467222960890804,"22":-0.034158976541506646,"23":-0.014394413090938538,"24":-0.025494643185254216,"25":-0.009237973269789307,"26":-0.036324662922320866,"27":-0.042849462990420334,"28":-0.02022687964834123,"29":-0.020544003959849594,"30":-0.022566783820782695,"31":0.02366677550486233,"32":0.013107122364057387,"33":-0.03235097123405526,"34":-0.020364724548376425,"35":0.0197660038940467,"36":-0.0034212415019855675,"37":-0.006952861427095723,"38":-0.033415179528390605,"39":-0.09979386705354443,"40":0.00004484298550047192,"41":0.010597943209416245,"42":0.012720550645945796,"43":-0.06055178653315342,"44":0.028743265348609527,"45":0.008855550528353184,"46":-0.03427056249939867,"47":-0.003990222630336183,"48":0.014096663384178735,"49":-0.020578486806495506,"50":0.0006638109543954003,"51":0.03075241379152895,"52":-0.02758450862007543,"53":-0.0032502479383291227,"54":0.05368947103754205,"55":-0.015112933839516675,"56":0.08713133107917413,"57":-0.005193466185728762,"58":-0.07502942884857616,"59":-0.023222223986486434,"60":0.009966140252456018,"61":-0.0029153223489093495,"62":0.03162689042305707,"63":0.015349091453610126,"64":0.011393464836517275,"65":0.004148680187004159,"66":-0.025002606799377085,"67":-0.0025340298013578964,"68":0.05082737192254629,"69":-0.004584230437814165,"70":-0.056291169400581466,"71":0.025677120381700797,"72":-0.021911115109668453,"73":0.017211358245582,"74":0.015171583532422947}},{"sx":5,"sy":5,"depth":3,"w":{"0":-0.07872523787768775,"1":-0.04941340941171433,"2":0.037391390902353355,"3":-0.15180809094572742,"4":-0.12498497264894635,"5":0.054579194050552775,"6":-0.08692496982056283,"7":-0.1553114989549534,"8":0.009976963772721297,"9":-0.05922678699970939,"10":-0.05578474726285588,"11":0.03296941811029227,"12":0.02432282207750555,"13":0.016064011213178665,"14":0.03451103578644925,"15":-0.1451658565896638,"16":-0.055927824596579245,"17":0.012313562453099527,"18":-0.0809791387167259,"19":-0.01484834804123178,"20":0.014017990456255767,"21":-0.04393487913012497,"22":-0.09989090320753098,"23":0.009661702559998651,"24":-0.014492618111984665,"25":-0.09413851008516004,"26":0.04006330631319154,"27":-0.03818096053038026,"28":0.0036179297905382284,"29":-0.0053374780361781175,"30":-0.08990898961409234,"31":-0.07513189545544408,"32":0.06901032459335668,"33":-0.036165942422064175,"34":-0.1016605263393937,"35":-0.0005271252305311893,"36":-0.11795742804362913,"37":-0.07064881610304881,"38":0.0651088736052267,"39":-0.04079119874660519,"40":-0.08184613860507885,"41":0.06668946905722244,"42":0.033764636412085415,"43":-0.027828691876380617,"44":0.06681331970877023,"45":-0.11373698995905794,"46":-0.08555021946584546,"47":0.03272020523111407,"48":-0.06833025575609192,"49":-0.0734111742722602,"50":-0.006998595120653115,"51":-0.10124221881111063,"52":-0.06106851299430955,"53":0.03473654262491535,"54":-0.14517193499790876,"55":-0.07481563030004153,"56":0.022875310573496607,"57":-0.03648399491609797,"58":0.04080769959756648,"59":-0.0077252891856182185,"60":-0.05896408288228053,"61":-0.03342989927960177,"62":-0.0008577427443602533,"63":-0.13104060198186576,"64":-0.13170355717934773,"65":-0.005487147766680317,"66":-0.06460962387891082,"67":-0.10729422528097814,"68":-0.012884749269797727,"69":-0.034835673828446524,"70":-0.0253560340038764,"71":0.05092362387873935,"72":-0.04889237302933601,"73":-0.03263018864991036,"74":0.029709666578159842}},{"sx":5,"sy":5,"depth":3,"w":{"0":0.01800397808017131,"1":-0.07056220344661784,"2":-0.05535475183832599,"3":0.016611550384131372,"4":-0.11154227858726821,"5":-0.024493151136623512,"6":0.009779944600937155,"7":0.061304667975557156,"8":0.03943057956183851,"9":0.03955968183272899,"10":-0.05336930712249626,"11":-0.026657689512326603,"12":-0.010441374665428146,"13":-0.026202169329575073,"14":0.017317403366526363,"15":-0.05172369398123613,"16":-0.05679993739241278,"17":0.019084551703422045,"18":0.05582599063303633,"19":-0.0382213125193489,"20":-0.015007927684783894,"21":0.004772140867352254,"22":0.011352637662043197,"23":-0.026635001973957333,"24":-0.01361665476376828,"25":0.011966086945148781,"26":-0.05169748626371402,"27":-0.043999409851008475,"28":-0.06170509578247491,"29":-0.013516030119217752,"30":-0.05134566353784792,"31":-0.03075135023704909,"32":0.03174250700216437,"33":0.005304449094868798,"34":-0.04736173432067867,"35":-0.04197987947425558,"36":0.05792688222729306,"37":-0.05558123083585686,"38":-0.049076595852397584,"39":0.05851627922287995,"40":-0.00811983322117231,"41":-0.029517657492190125,"42":0.014946575619425766,"43":-0.05842394622782368,"44":0.004469243832860777,"45":0.019591444702705203,"46":-0.026004762940016718,"47":-0.02784340369101899,"48":-0.04199668269137797,"49":0.0010835204718650834,"50":-0.005232464669982114,"51":0.022444651677502737,"52":-0.06221716763199184,"53":0.02417552254908789,"54":0.006716407407759915,"55":-0.036627593132787975,"56":-0.019178865899720517,"57":-0.029906080497363482,"58":0.005920043629183855,"59":0.054303976196993044,"60":-0.036584446066805505,"61":-0.08196623679778314,"62":0.06805066025008318,"63":0.03699421400098799,"64":-0.04217948716644115,"65":-0.034790732803877795,"66":0.04561564473014491,"67":0.05878384734455543,"68":-0.0005807519203645887,"69":-0.019977662769174592,"70":-0.0579479248098944,"71":-0.04213245105618221,"72":-0.026363589457472816,"73":-0.04163426142862988,"74":-0.013757786960795161}},{"sx":5,"sy":5,"depth":3,"w":{"0":-0.028780121000599235,"1":-0.0346965051937065,"2":-0.03997802338598105,"3":-0.11602469449889995,"4":-0.04907862997685199,"5":-0.047486002555624636,"6":-0.016769136771516417,"7":-0.03936733449268921,"8":-0.08636531065395746,"9":-0.06795286750179036,"10":-0.0276315753262718,"11":-0.11453370317825856,"12":-0.022288604651720934,"13":-0.02217622624763997,"14":-0.03500205960239657,"15":-0.030317256949609437,"16":-0.06958019451330487,"17":-0.044493424040113305,"18":-0.0988595166002959,"19":-0.07178613949828494,"20":-0.07733876463243552,"21":-0.03638126414576648,"22":-0.07843486319128003,"23":-0.06594819820043585,"24":0.000977207139367466,"25":-0.10998849593772622,"26":-0.07204600327571532,"27":-0.04934036887911285,"28":-0.09582044409154408,"29":0.017961620931531454,"30":0.021161885227266176,"31":-0.100168877353353,"32":-0.06188047477118167,"33":-0.06301345134466282,"34":-0.08436694848868667,"35":-0.049511647564178064,"36":-0.09494252373898662,"37":-0.09334915888372934,"38":-0.0658464674199147,"39":-0.05219876442146885,"40":-0.05077393052100095,"41":-0.02163516583091866,"42":0.0027595466572120143,"43":-0.06335127620650331,"44":-0.03998812141996993,"45":0.04359693325029331,"46":-0.13810598515132913,"47":-0.047373603189093935,"48":-0.021582108961592426,"49":-0.17534309735036804,"50":-0.13626099047107426,"51":0.033486933146187454,"52":-0.1447551719043516,"53":-0.0737383260862435,"54":-0.051618621862897465,"55":-0.07121585680344221,"56":-0.04628278972959646,"57":0.00657851834931001,"58":-0.1306070954078014,"59":-0.031745527527299214,"60":-0.010903861275863106,"61":-0.2177450682688485,"62":-0.02619154434072318,"63":-0.007733122307452268,"64":-0.09059197809481657,"65":-0.023267509746996262,"66":-0.016566178190413117,"67":-0.00502564399875215,"68":-0.007726244739779673,"69":-0.027406943294227305,"70":-0.17831881607979075,"71":-0.015210447187148729,"72":-0.03836918125047952,"73":-0.1471562366735306,"74":0.025041748641760446}}],"biases":{"sx":1,"sy":1,"depth":16,"w":{"0":0.3845069888555197,"1":0.23099874301542797,"2":0.3438202284681586,"3":0.25638620410758567,"4":0.4013981616693784,"5":0.37019273953694504,"6":0.4401499922171692,"7":0.2881054470040426,"8":0.05025189941030462,"9":0.16067176091960855,"10":0.16606685778737001,"11":0.2378595022668376,"12":-0.002610108488686744,"13":0.14631651417801156,"14":0.06627249774811364,"15":0.36919187813470755}}},{"out_depth":16,"out_sx":32,"out_sy":64,"layer_type":"relu"},{"sx":2,"sy":2,"stride":2,"in_depth":16,"out_depth":16,"out_sx":16,"out_sy":32,"layer_type":"pool","pad":0},{"sx":5,"sy":5,"stride":1,"in_depth":16,"out_depth":20,"out_sx":16,"out_sy":32,"layer_type":"conv","l1_decay_mul":0,"l2_decay_mul":1,"pad":2,"filters":[{"sx":5,"sy":5,"depth":16,"w":{"0":0.04461067266641164,"1":0.02887538831813287,"2":0.05282657401414729,"3":0.007290062533949477,"4":0.057753992497413975,"5":-0.022401623662470126,"6":0.047422072645633244,"7":0.007783435355757792,"8":0.024348500413555026,"9":0.005560141318703837,"10":-0.026121467255050095,"11":0.005603525995498076,"12":0.006981896779912848,"13":-0.02107437669130937,"14":0.03361094839884598,"15":0.010615129462560158,"16":0.018219086062259422,"17":-0.015170332321259852,"18":0.0014509128535621153,"19":-0.01477735219065266,"20":0.01358998128375173,"21":-0.01884896248268416,"22":0.026555596495866914,"23":-0.011372310710601005,"24":0.008899824145451415,"25":0.009711117448083444,"26":-0.009537528713735536,"27":-0.01914926412687639,"28":0.01270035999138463,"29":-0.027745191251292444,"30":0.009951194147606814,"31":-0.008854065795661732,"32":-0.022624618708851598,"33":-0.02270947423721043,"34":0.02600056074698398,"35":-0.001501297688667637,"36":0.005038792504267263,"37":-0.008324077925418396,"38":0.00617339708515458,"39":-0.010672953226097964,"40":-0.0052338200258018885,"41":0.007583720922082805,"42":-0.006661195841255489,"43":-0.0030063807782107735,"44":-0.0017135398024611598,"45":-0.003122295136603386,"46":-0.007312655281365415,"47":-0.003339917666737146,"48":0.038833416828330206,"49":-0.041155136356497535,"50":0.045434475276731015,"51":0.028324772445260535,"52":0.061372777473744346,"53":0.010513609023009962,"54":-0.006592603672599239,"55":0.02010021542943567,"56":-0.007860172713869427,"57":0.009395335118020586,"58":0.00010710557888170577,"59":-0.017727045200349133,"60":-0.024592416373644743,"61":-0.008643900403710505,"62":-0.00048343981817656123,"63":-0.02409492335286977,"64":0.030112896468225084,"65":-0.02412620222586678,"66":0.028587015142434006,"67":0.016594084246192672,"68":0.012841677022757788,"69":0.018675974168117233,"70":-0.021176347220664866,"71":0.008860305579613528,"72":0.022965704736248933,"73":-0.03085898812168402,"74":-0.02120789538800693,"75":0.002156182022232782,"76":-0.023057896681461566,"77":-0.0011931470590440165,"78":-0.008643168125643768,"79":-0.00036536390948239885,"80":0.029536442530442738,"81":0.010067612851784459,"82":0.030368073816044772,"83":0.015441548845321151,"84":0.020741090668296797,"85":0.0010151067648842729,"86":0.006238549470237891,"87":-0.015393105076546034,"88":-0.02286025994864052,"89":0.014307592309206583,"90":-0.017773730484875266,"91":0.03493567895676513,"92":-0.02567757994681575,"93":-0.02250484071557207,"94":-0.013383598765866417,"95":0.006949085847923053,"96":0.005373905651868397,"97":-0.008830639330087785,"98":0.00816318366803575,"99":-0.015045407117880542,"100":0.015471024871040621,"101":-0.003783155081345602,"102":-0.009364177910473004,"103":-0.026858867854097433,"104":-0.020852528764836002,"105":-0.028751036745658137,"106":-0.034540764856183355,"107":0.014313171201667228,"108":-0.004288336202547227,"109":0.0088518192397138,"110":0.02484154668320794,"111":-0.0004304221004335121,"112":-0.03020488270760221,"113":-0.06418877002171447,"114":-0.011503072511176845,"115":0.024035880068202866,"116":-0.01393447502557293,"117":0.03237558061935542,"118":0.0073271626301891915,"119":-0.01303446163383147,"120":-0.0186814633483149,"121":-0.0060821180242171795,"122":-0.025523863987404857,"123":-0.00967332045507703,"124":-0.0047810284654503455,"125":-0.05645416923236107,"126":-0.026382163120204864,"127":-0.05736934818813949,"128":0.004488790758821266,"129":-0.0285322828293942,"130":0.01898671078800695,"131":0.013997692211611946,"132":0.029450126797507546,"133":0.000561770610968335,"134":0.0062851378220539576,"135":0.042682211284565987,"136":-0.00837045624784598,"137":-0.00411733197913914,"138":-0.02598594211295434,"139":0.011665648428303041,"140":-0.012808069393087557,"141":-0.03660508528787951,"142":-0.019200889871542243,"143":-0.04769345920207488,"144":0.015128238233790817,"145":-0.037956646735294614,"146":0.009904990695070873,"147":0.03514182491193287,"148":0.022623621205403472,"149":0.014147483754751672,"150":0.025665064504484088,"151":0.02233915774182681,"152":-0.014361995952165241,"153":-0.01248341068204178,"154":-0.007691991230534255,"155":-0.017082029443046626,"156":0.004885183073181452,"157":-0.02686454642865883,"158":-0.003129970820789416,"159":-0.044419331183183315,"160":-0.006525745170898544,"161":-0.015164026995170707,"162":0.009696557803499158,"163":0.03790338644851457,"164":0.021431897630125922,"165":0.02104593304676772,"166":-0.026965327322666183,"167":-0.0008171783934632555,"168":-0.021074875103011453,"169":0.03298838063423182,"170":-0.026393792063520854,"171":0.015519505299123352,"172":-0.012330352684835693,"173":-0.04576742854402918,"174":-0.007217149805653992,"175":0.007858205427713687,"176":-0.022807044875582546,"177":-0.02358566393032233,"178":0.010304644683062044,"179":0.0033545668332920046,"180":-0.019986842843243105,"181":-0.003999506297524806,"182":-0.015899800390756922,"183":0.016817121075212535,"184":-0.02707029862619331,"185":0.018963755151919375,"186":-0.007424552997947415,"187":0.0033826135061355914,"188":0.0038302434401259505,"189":0.0021444362541289848,"190":-0.004661956919442144,"191":-0.03861083275439952,"192":-0.00473631709856426,"193":-0.05702513210995255,"194":0.015802571483867753,"195":0.005317590076344701,"196":0.005508077803118001,"197":-0.033162967087078755,"198":-0.04267064769976145,"199":-0.005888198708591297,"200":-0.03550172677637095,"201":0.029919933059885634,"202":0.00878807998235355,"203":0.037346920839544696,"204":-0.007221776094489402,"205":-0.017356015728921172,"206":-0.016222488315962902,"207":-0.02304068428363626,"208":-0.007571905453894309,"209":-0.06408829965539628,"210":-0.002760509482648101,"211":0.029743018264905437,"212":-0.022001299892814758,"213":0.03679280420078124,"214":-0.04083258567493222,"215":0.017685005154809866,"216":-0.00024619602756225257,"217":0.01847983562885869,"218":-0.031216987165126286,"219":0.03042665144506907,"220":0.0088132270906538,"221":-0.03186216878706942,"222":-0.012022981151618454,"223":-0.04618981184217934,"224":0.014531473924326875,"225":-0.03643484591095854,"226":-0.03260770438646718,"227":0.02700583565134964,"228":0.009118674481307924,"229":0.01260508061990957,"230":-0.0274366923063605,"231":0.024218339982239025,"232":-0.016082592933177754,"233":0.006183960849564504,"234":-0.020810418859076484,"235":0.03393389344125435,"236":-0.004215064352316707,"237":-0.03792744655152238,"238":-0.008624556604326298,"239":-0.02217793957228968,"240":0.021702082450154078,"241":-0.004076217433371913,"242":0.0019491331345615737,"243":0.03619653050520548,"244":-0.0030854015076153076,"245":0.03582256562438525,"246":-0.020438698872807692,"247":0.03160145399459665,"248":-0.036332673906678915,"249":0.030698703975450572,"250":-0.027552626203563836,"251":0.04316071976211334,"252":-0.025407508414070343,"253":-0.026336685633322046,"254":0.03314925393274752,"255":-0.004379809154505687,"256":-0.022492871473994727,"257":-0.00519102185544752,"258":-0.02395170168279519,"259":0.00046680661860694383,"260":-0.0021280669828453464,"261":0.04129347740757735,"262":-0.03000990946724742,"263":0.02522442261181431,"264":-0.020527994312554195,"265":0.020834353246093906,"266":-0.02168706062787001,"267":0.03734829933727515,"268":-0.0440702303041594,"269":-0.04989523905597404,"270":-0.0047198289496496425,"271":-0.04666219457187731,"272":-0.03063034074259223,"273":0.002766306847680442,"274":-0.0036142675116390475,"275":0.002443504068014894,"276":-0.01282948833982594,"277":0.008418508135965525,"278":-0.035952418555865534,"279":0.003641465677028662,"280":-0.00023496409436781204,"281":-0.006448264644382762,"282":-0.03439627965393914,"283":0.04002924911633259,"284":0.013968827336429599,"285":-0.01591798707360343,"286":-0.0038644797459423392,"287":-0.015936864526450677,"288":-0.0014640547545688096,"289":-0.0585194896524881,"290":-0.015884773461180658,"291":0.036907240405128036,"292":0.003438002822096971,"293":0.04126827840652233,"294":-0.0412176705801013,"295":0.023689766758023794,"296":0.02520711224381995,"297":0.009055809433587135,"298":-0.025798117056685676,"299":0.024087699410993157,"300":-0.0035911460654712395,"301":-0.0036336040411260647,"302":-0.008519479647518171,"303":-0.06628059489038106,"304":0.002474675999699838,"305":-0.04513489698454255,"306":0.007008764820333082,"307":0.052107157615574454,"308":0.0037447343846537793,"309":0.0464333135382445,"310":-0.0015167189622009097,"311":0.024682890711319953,"312":-0.024048162434895753,"313":0.0400503765480178,"314":-0.040031800072050316,"315":0.022889894499401757,"316":0.006110844809865511,"317":-0.04806873122368324,"318":-0.021519494972009008,"319":-0.055262479845290306,"320":0.006074791599869321,"321":-0.024955755754550783,"322":-0.011935825129259368,"323":0.017594052619993007,"324":0.019208123821659328,"325":0.0029502172073240835,"326":-0.03329556757681879,"327":-0.003071274954377821,"328":-0.042030555356095914,"329":-0.0046697016959179926,"330":0.007863819121820851,"331":0.005179197352976359,"332":-0.003938123463153064,"333":-0.024111899699855003,"334":0.004546396435640208,"335":0.010776977045220236,"336":-0.036816916904057105,"337":-0.02218024628055032,"338":-0.0065147655053959235,"339":0.0028363675966984318,"340":-0.005332592736981087,"341":0.008889308410318807,"342":-0.020336686006142978,"343":0.02731285560099614,"344":0.009969427353664911,"345":0.018224711592915117,"346":-0.04243129183688105,"347":0.010152177701172419,"348":-0.021507806073835574,"349":-0.031571272996233045,"350":0.03656375359200336,"351":-0.051722878413532694,"352":-0.01657390227657609,"353":-0.035946411166504245,"354":-0.038357042584942644,"355":-0.010683966263854197,"356":-0.004685008982743301,"357":0.015354783920120076,"358":-0.017597238940364277,"359":0.007056236752337316,"360":-0.019288012492351583,"361":0.01576156804230843,"362":-0.0211891265935276,"363":-0.002255691110539537,"364":-0.015464587002740997,"365":0.000568080824245658,"366":0.0022084137283736797,"367":-0.08013841076571598,"368":0.0065782907513171444,"369":-0.026030468365498712,"370":-0.02059923796921817,"371":0.02031022174310217,"372":-0.025433004236309648,"373":0.03626820490078619,"374":0.0022559321514615473,"375":0.03727283139375916,"376":-0.010841375462632955,"377":0.0035223431027904205,"378":0.002342147165846866,"379":0.019050917995458622,"380":-0.038726656221994234,"381":-0.02747389983766668,"382":-0.009507813130182594,"383":-0.010686764685848232,"384":0.02636989510039035,"385":-0.032799019246665194,"386":-0.014762680839454699,"387":0.024459494125861167,"388":0.03541274039256351,"389":0.052600331934316895,"390":0.015935218565134742,"391":0.028459413663217463,"392":-0.033705261844153026,"393":-0.003060286768452697,"394":-0.017023568275325807,"395":-0.009107220079032105,"396":0.0010097716326151328,"397":-0.020745690154595122,"398":0.0055124448063464835,"399":-0.04136138093959526}},{"sx":5,"sy":5,"depth":16,"w":{"0":-0.012557437293279423,"1":-0.004384152037001412,"2":-0.02119879336034134,"3":-0.0007341842641898789,"4":-0.012656363303833663,"5":-0.010187633303751494,"6":0.013012943154855872,"7":-0.04751729343446097,"8":-0.013831579817439993,"9":0.0199769229822402,"10":0.013253758947076762,"11":0.020511128052403172,"12":0.01599686786758381,"13":0.008080252066436984,"14":-0.0022422827246179676,"15":-0.01099480090221223,"16":-0.012301052101081013,"17":-0.009583138009348001,"18":-0.012243429375509976,"19":-0.004268080492560556,"20":-0.01528512901627992,"21":-0.009052032280508028,"22":-0.0376089400636234,"23":0.002879725923803355,"24":0.008081882774401705,"25":0.014554211291522092,"26":-0.004267391426076748,"27":0.007331048523941563,"28":0.002646428445383855,"29":0.0036522209597968395,"30":-0.013279428605661689,"31":-0.021880654788909774,"32":-0.03925965980147571,"33":-0.023455084166864936,"34":-0.031301417619117075,"35":-0.026931576693501134,"36":-0.04216687526808028,"37":-0.020318302252556934,"38":-0.030013922544436508,"39":-0.05629594839505933,"40":-0.0022454441690354233,"41":-0.005544783710144983,"42":-0.01606579566645384,"43":-0.0024451070607842736,"44":-0.01077808351123538,"45":-0.033716167229172166,"46":0.0060938471533807876,"47":-0.05228890676008922,"48":-0.028149675718843588,"49":-0.0169851787835249,"50":-0.020537460646368022,"51":-0.03913083383206331,"52":-0.02293999985557969,"53":-0.039268327487574695,"54":-0.0384852123060333,"55":-0.047662451526860126,"56":0.04974853469949263,"57":0.011552081645269536,"58":0.0021831075601663748,"59":0.05044627948085702,"60":0.0020650031643633486,"61":-0.005286929176585069,"62":-0.018176355571310514,"63":0.004833863552828901,"64":-0.03385869143213066,"65":-0.02860407455264372,"66":-0.024946989674139147,"67":-0.06109483355557094,"68":-0.00316617920216615,"69":-0.06181915651491692,"70":-0.027412133967994974,"71":-0.016109166280974065,"72":0.024507879240870046,"73":0.017360827461826808,"74":0.01760771884996098,"75":0.022090911965460754,"76":-0.001817481113261661,"77":0.0021790149430991573,"78":0.02295805618205462,"79":-0.01717758158069628,"80":-0.03302574750636162,"81":-0.009711354413701863,"82":-0.029055766509297306,"83":-0.015210060592364431,"84":-0.008684938880672097,"85":-0.036644691108398575,"86":-0.013552681551027368,"87":-0.028982577854544306,"88":-0.02228946462668381,"89":0.034088182224049565,"90":-0.0022719906723569594,"91":0.05926334572148056,"92":-0.020394792926810543,"93":-0.0033057860087809866,"94":-0.014700785429147685,"95":0.019513938964915937,"96":-0.018085591048557365,"97":-0.007707129545284519,"98":-0.018303732996674656,"99":-0.004269015138418473,"100":-0.00836797965214423,"101":-0.03383185190923503,"102":-0.046019003460427116,"103":-0.03821090808834989,"104":-0.05135211885479218,"105":0.006377980301771894,"106":-0.05342862754226234,"107":0.015552674761900179,"108":-0.017884379792604634,"109":-0.02393196053692952,"110":-0.024948600740008122,"111":-0.00016731512735076846,"112":-0.036881828612098315,"113":-0.00510102469813417,"114":-0.03511929708954,"115":-0.031905751586450065,"116":-0.02663024010101177,"117":-0.035277741429381865,"118":-0.01436497738140733,"119":-0.007877413972637092,"120":-0.008781411341691397,"121":0.03332803390557085,"122":-0.003535197196483966,"123":0.014200848572171878,"124":-0.017014963567128144,"125":-0.009731692887514687,"126":0.01652307131885392,"127":-0.030175047369196246,"128":-0.024829064442828647,"129":-0.03436081070781786,"130":-0.02400363205430243,"131":-0.04289911350579887,"132":-0.03650085268865508,"133":-0.03938033318570252,"134":-0.051099416788276814,"135":-0.050821080824968924,"136":-0.025263014935377855,"137":0.021901912717974193,"138":-0.022503627173954193,"139":0.02853617772378036,"140":0.021064186577306063,"141":-0.019936105886326685,"142":0.013639883634430536,"143":-0.016544971257239534,"144":-0.014277336582652634,"145":-0.018461729163835768,"146":-0.032536560611295534,"147":-0.02688187059937731,"148":-0.027774637884452235,"149":-0.05641010805593276,"150":-0.00790198511517244,"151":-0.02665650131581297,"152":0.0003331705624784808,"153":0.03084634903294257,"154":-0.008582668386310065,"155":0.025310601339370988,"156":0.013057617295052459,"157":-0.0010865922371595068,"158":0.011566282348243178,"159":-0.03311293594578879,"160":-0.01571339330013385,"161":-0.01762377950498926,"162":0.0019222097066770158,"163":-0.00003650370926090945,"164":-0.03260824287701515,"165":0.005472372472059306,"166":-0.04022548447247462,"167":-0.005231783525434632,"168":-0.004770950103010918,"169":0.05114143706049111,"170":-0.023260599776162186,"171":0.038197743489875834,"172":0.012978835923124005,"173":-0.04561934431393913,"174":-0.01900561867573946,"175":-0.035971903872297616,"176":-0.01015502461629421,"177":-0.023252050133193612,"178":-0.012537125436433046,"179":0.009277409651497658,"180":-0.0018536206566148819,"181":-0.004140500793901645,"182":-0.022616275062768833,"183":0.016015040600769397,"184":-0.008093037725596688,"185":0.03618932997084039,"186":-0.027139038118083728,"187":0.017713929464981456,"188":-0.02648854002270541,"189":-0.03178845982769676,"190":-0.05412291362133054,"191":-0.016769219977931047,"192":-0.03765619774664215,"193":-0.04173947516623093,"194":-0.01469842980300343,"195":-0.01175007402922743,"196":-0.01652513820752276,"197":-0.011702385727991125,"198":-0.02131556736771583,"199":0.0009568340539512694,"200":-0.020751639941442662,"201":0.012921607012243735,"202":-0.011754673378667627,"203":0.05262331293687357,"204":-0.03412949948987639,"205":-0.01170259102018325,"206":-0.01895816987994529,"207":-0.019084388378161253,"208":-0.0358209577529738,"209":-0.0006370382481308048,"210":-0.03752483323449654,"211":-0.006682869856322081,"212":0.01020104898053748,"213":-0.03160486452516627,"214":-0.009670905925753967,"215":-0.037670192738327495,"216":-0.016970260236679715,"217":0.005767055689789422,"218":-0.012764656103492188,"219":0.010591139213625275,"220":0.0007042807049740999,"221":-0.015737328195416858,"222":0.005954136024986155,"223":-0.02627653230798304,"224":-0.026446474474642465,"225":-0.02659867804003952,"226":-0.003867268756245424,"227":-0.01127733362578354,"228":0.005031241523242815,"229":-0.04395681933525072,"230":-0.03431149922931174,"231":0.007476292368828665,"232":-0.03398409723046075,"233":0.03642266272266776,"234":0.007577880094327622,"235":0.038511811850875405,"236":-0.0353741752478281,"237":-0.000274356324992831,"238":-0.018876776488674696,"239":0.004169647213972742,"240":-0.001187596558958851,"241":-0.00015655325541847557,"242":-0.010522702950427914,"243":0.0037193044450826583,"244":-0.005147177585835141,"245":0.05653964750794933,"246":-0.017881698823498143,"247":0.03454232598622869,"248":0.010221148987795988,"249":0.028266230151916063,"250":-0.03227398203005662,"251":0.03769420211455005,"252":0.015329805797007821,"253":-0.0308680660723438,"254":-0.01865612336098859,"255":-0.02107212734913063,"256":-0.010930482070158674,"257":-0.03276820476048181,"258":-0.00963092640431396,"259":0.04624541128301819,"260":-0.01582093988516534,"261":0.05657835452130125,"262":-0.013517644987551751,"263":0.02391318569348961,"264":-0.030694232113427443,"265":0.016280884967757436,"266":-0.015053392892307985,"267":0.0539042820531005,"268":-0.01242679470328654,"269":0.019026804174486624,"270":-0.01576131997175692,"271":-0.030837435807859158,"272":0.0036831890771001573,"273":-0.034435642452889964,"274":-0.03875147443075886,"275":-0.009955553071949258,"276":0.011889884950395238,"277":0.044295410410292425,"278":-0.016105465492198153,"279":0.006896759782029025,"280":-0.03258170902776033,"281":-0.007517300810135301,"282":-0.04391594131511028,"283":0.013633154350541845,"284":-0.010841281315713684,"285":-0.010107614929461523,"286":0.00848134903446965,"287":0.023945180265628568,"288":-0.013587051827389555,"289":-0.013988222109025502,"290":-0.029061119651023017,"291":0.004670201157512426,"292":0.01002177546407795,"293":0.012624289423228135,"294":0.0007926500471670807,"295":0.016473664862338415,"296":0.00013965006569161069,"297":-0.0026160352768314077,"298":0.003584339214847191,"299":0.021623364564948615,"300":-0.010447451304153425,"301":-0.017671230344616286,"302":-0.0014193683606640469,"303":0.0016833698223175462,"304":-0.010514935953906873,"305":0.018040827285934473,"306":-0.03178010334741479,"307":-0.020286241850546047,"308":0.01078391627650766,"309":0.0006143810764690183,"310":-0.009658517598407109,"311":-0.028866042425070727,"312":-0.020321091164499677,"313":0.012243776989518217,"314":0.02092974296567331,"315":0.004820474170684818,"316":-0.03385392669927642,"317":0.016286815315306236,"318":-0.021549078925302802,"319":-0.012752007022205735,"320":-0.012934249439510746,"321":0.003831746806331735,"322":-0.008846144216510244,"323":0.03866374878867346,"324":-0.022923677428747586,"325":0.03772155516036177,"326":-0.012735029462135254,"327":0.03834670449587999,"328":-0.05660349835735058,"329":0.011212164445016267,"330":-0.012860418357336048,"331":0.04607911904188837,"332":-0.022300053437483414,"333":-0.05985489263357797,"334":-0.006571095305139587,"335":-0.01337982911436193,"336":0.008010669242463402,"337":-0.031278405701826245,"338":-0.005114035080028154,"339":0.024778337879783757,"340":-0.016297785024889502,"341":0.058828609253397675,"342":0.009208391254916789,"343":0.01667173424159746,"344":-0.028520878101007237,"345":0.013393096987057991,"346":-0.01665568324093823,"347":0.017797187120981287,"348":-0.007888536868548872,"349":-0.032331753358594104,"350":-0.04492398506703313,"351":-0.005049777900244498,"352":0.0031471459976595284,"353":0.0013334924703769571,"354":-0.028995151422966183,"355":-0.0027436977830718407,"356":0.030153908635126077,"357":0.013231031776464631,"358":-0.01253967901142559,"359":0.015741077921729907,"360":-0.00662281538683954,"361":0.000581278021671061,"362":-0.04135618914781498,"363":0.0000016065283780735835,"364":0.0007534375912699966,"365":-0.01279797393265653,"366":-0.012398006078923617,"367":-0.02257941425832802,"368":0.0219400639560737,"369":-0.0026935329078996532,"370":-0.006728648173499995,"371":0.010941190919511559,"372":0.0004887154678580014,"373":0.030402551884658763,"374":0.0158484116652819,"375":0.04779777794066877,"376":0.0342951803841023,"377":-0.020185604172087673,"378":-0.005848181821887432,"379":0.0018118265170800596,"380":0.006607793138687219,"381":-0.02925870040701126,"382":0.003466302828478501,"383":0.005349613647027433,"384":0.01784477863579462,"385":0.029680983157869486,"386":0.0020301221661745083,"387":-0.002191991908461632,"388":-0.005717944842243817,"389":0.015147136999641413,"390":0.020521057905119804,"391":0.023483702382010023,"392":0.002482381470204209,"393":-0.01564344648014803,"394":0.021456625638014176,"395":0.004581856123985541,"396":-0.024806567103928933,"397":0.022891414233918522,"398":-0.005309031878847884,"399":0.019220150729019097}},{"sx":5,"sy":5,"depth":16,"w":{"0":-0.031564170745978365,"1":0.014417073793388451,"2":-0.034953581249818635,"3":-0.011237965987790255,"4":-0.01860854101550776,"5":0.013094941509898608,"6":-0.020073319606920336,"7":-0.003103649281686704,"8":0.01587262305903746,"9":-0.0450561578651175,"10":-0.0008724467046814654,"11":-0.03999869983189639,"12":-0.021406270946412793,"13":0.00974445938181639,"14":0.02066454714629572,"15":-0.0004104006925162448,"16":0.05061734282129966,"17":0.018296985989536153,"18":0.00534910701534858,"19":-0.010039849071030362,"20":0.008981965218921955,"21":-0.021967627086293462,"22":0.012738699699108453,"23":-0.02595657950366469,"24":0.011690354302729066,"25":-0.0401146631481331,"26":0.02743185574287172,"27":-0.03833053701650652,"28":0.0027559897574891377,"29":0.024410073015011826,"30":-0.009072283572490158,"31":-0.015825014134119925,"32":0.011415556185725614,"33":0.0002076630088180249,"34":-0.001206720022744612,"35":0.015274865965335942,"36":-0.0045971208194102815,"37":-0.010758736074595142,"38":0.015422688924916916,"39":0.021231114282612675,"40":0.012227261921119259,"41":-0.022194764377248082,"42":0.02232356835959593,"43":-0.04889856513052628,"44":-0.005482814828829444,"45":0.02043386094584289,"46":-0.004673851074641558,"47":-0.005550384354399864,"48":-0.013617521665695785,"49":0.054245375647525865,"50":0.015515625690384935,"51":-0.0022667350824521785,"52":-0.02195157117375293,"53":-0.022595375326958184,"54":-0.018102061813647485,"55":-0.004046154535727323,"56":0.024878942381288273,"57":-0.011305962199729389,"58":0.016625678977985423,"59":-0.03709821105629992,"60":-0.009154588353757856,"61":0.029249263078198286,"62":-0.004238222851746733,"63":0.030427838434417594,"64":-0.024521558640199358,"65":0.005367968617403859,"66":0.0013987780317805004,"67":0.01203829709888687,"68":-0.01170363972656854,"69":-0.0010187162438723587,"70":-0.034080123559795096,"71":-0.030346352006512676,"72":0.0016328051020365578,"73":-0.008491027181588397,"74":0.044366244077335866,"75":-0.02023269270803166,"76":-0.0098809050758954,"77":0.011207887090234323,"78":-0.007001008561909345,"79":-0.017652251883280103,"80":0.019796036563044062,"81":-0.0020540403635835487,"82":-0.02922476959124111,"83":0.0004540737842595799,"84":0.022068497795242073,"85":-0.010016611573900528,"86":-0.017164039305674464,"87":0.00013163907119310956,"88":0.02893740002233682,"89":-0.01980152543756931,"90":0.018571998081445128,"91":-0.006008623942026836,"92":0.012355173142708906,"93":0.04282588656283417,"94":-0.007678553604668913,"95":-0.008531215655279192,"96":-0.00815764588883091,"97":0.004724048511425691,"98":-0.007158489795580772,"99":-0.024326748787004557,"100":0.004493860862491858,"101":0.021364481349673687,"102":0.001205787742155533,"103":-0.012897849561343338,"104":0.008809860274132724,"105":-0.025414042390264728,"106":0.041667617963913516,"107":-0.017071053409651146,"108":0.006753202066023442,"109":0.02608252584642679,"110":-0.0230168632530454,"111":-0.013749967297363205,"112":0.015141319703076144,"113":0.02525799124169596,"114":0.019737798965209805,"115":-0.01094188271913557,"116":0.005165971102409013,"117":-0.027236568892862748,"118":-0.005525943644286542,"119":-0.005746725394994736,"120":0.022809658418476937,"121":-0.03891011833484236,"122":0.020796442385226304,"123":-0.011243572293514732,"124":-0.014749930359386062,"125":0.007724316552612934,"126":0.007873251488191957,"127":-0.005697065389205837,"128":0.024283347485896053,"129":0.002907209612487428,"130":0.023961289934325263,"131":0.021504554792814764,"132":-0.02442980319550024,"133":-0.01882445256860851,"134":-0.0034743842788321775,"135":-0.01584905737367244,"136":0.03126837107442871,"137":-0.009713847444061946,"138":0.03345873797066325,"139":-0.027740543327844154,"140":0.0042699737151815935,"141":0.04129916385197251,"142":0.03068874627890534,"143":-0.005313882697306116,"144":-0.016527786542073007,"145":0.008857816620877531,"146":-0.005737033154427398,"147":0.011702814355133371,"148":-0.0031256199672479446,"149":-0.01731672796084318,"150":-0.002474005657102668,"151":-0.03814439902564121,"152":0.01605998399349596,"153":-0.014314731626134822,"154":0.006431269707418223,"155":-0.0007259716127850279,"156":-0.007621221202603283,"157":0.0028230680169454765,"158":-0.01299829647185417,"159":0.0060775368187056915,"160":0.0014856652436228501,"161":-0.0162040593114617,"162":-0.027069346317388963,"163":-0.024364234517212893,"164":-0.001953413509961741,"165":0.0043292613301234555,"166":-0.03156600521945756,"167":-0.01327072436487488,"168":-0.0018513719107843807,"169":0.003754678567911799,"170":-0.005127673440829814,"171":-0.003279314451496847,"172":-0.01180686351066538,"173":-0.0010039430513090828,"174":0.010270629079889248,"175":-0.014301133054583456,"176":-0.023591326137108116,"177":0.010710943344716697,"178":0.00012370928298754993,"179":-0.011461452997672485,"180":-0.035237555346645105,"181":0.005789114487605267,"182":-0.01635353118607406,"183":0.002333177506568083,"184":-0.009985552540838917,"185":-0.006111619588567277,"186":0.00705786224364474,"187":0.0014979219731625568,"188":-0.01772216540343435,"189":0.009533451577317213,"190":-0.00835561135319038,"191":-0.013161352806370838,"192":0.008067172862558418,"193":0.01061012722804054,"194":-0.0012766259488748155,"195":-0.01471032226419333,"196":-0.03630742107926566,"197":0.012208352386540704,"198":-0.013812671348232662,"199":0.026369527761843852,"200":-0.001486047712186195,"201":-0.021268328716125433,"202":0.03781646724906071,"203":0.00947251890873852,"204":-0.03940978499389272,"205":-0.022019034170168605,"206":-0.016061884686048238,"207":-0.01192887296926767,"208":-0.03437948298343722,"209":0.000821783534203397,"210":-0.017578492211082933,"211":0.005284554843227207,"212":-0.022861656112803753,"213":-0.0030844823556992846,"214":-0.013168941280367847,"215":0.0017385379780332103,"216":-0.002085404743989558,"217":-0.013097836134327419,"218":0.0037293627236570006,"219":-0.035860811122563105,"220":-0.007416313482638125,"221":0.035567542791764085,"222":0.014292194545055079,"223":-0.008502783328706772,"224":-0.008580978372841766,"225":-0.027950969134491792,"226":-0.017507454659090625,"227":-0.0057298626377605705,"228":-0.018187901333615822,"229":-0.007847272944525497,"230":-0.007804005336531227,"231":-0.016826476028157924,"232":-0.011391463908675943,"233":-0.004872513386744975,"234":-0.03274670063705689,"235":-0.0068859668118702476,"236":-0.004822584190267222,"237":0.00906585477840417,"238":-0.0019965132666401667,"239":-0.041536723560653264,"240":0.008444697591919268,"241":-0.013517093201438372,"242":-0.01678597493790144,"243":-0.003011831500356283,"244":-0.003362767922361115,"245":-0.010371327770514017,"246":-0.013621066831125557,"247":0.00005148969345966853,"248":-0.007890163632627487,"249":-0.01472662953882884,"250":0.015885226141272142,"251":0.004598863087987474,"252":0.0026116174526479743,"253":0.002043694606643087,"254":0.002146562520478426,"255":-0.013675147957497791,"256":-0.0020895494957728104,"257":0.009066221613313111,"258":-0.021449581283344964,"259":-0.010926163588390065,"260":-0.018200320673685197,"261":-0.0005506306786878426,"262":-0.0404847131596888,"263":0.010424988027830363,"264":0.006916887430979256,"265":0.0037842550723266237,"266":-0.011431368638582105,"267":0.002326770022762174,"268":-0.04143376335399751,"269":-0.017441932074461278,"270":-0.01693796446399034,"271":-0.009844005581654113,"272":-0.024696012945763436,"273":-0.05155610344219895,"274":-0.012964091176128597,"275":-0.010296326772172059,"276":-0.0171280989848045,"277":0.013162245133304237,"278":-0.04605140346202443,"279":-0.0006155542059193481,"280":-0.011495988034948166,"281":0.01955922239797199,"282":-0.008409363485335483,"283":0.013158353781081647,"284":-0.012244220977472676,"285":-0.016583852988907025,"286":-0.004307547944155162,"287":-0.024221263414988398,"288":-0.022772461015131328,"289":-0.022164541627303608,"290":-0.03545678631662566,"291":0.018955642163354443,"292":-0.01351015276641872,"293":0.022134140042524383,"294":-0.009102215268008553,"295":0.03174609577375616,"296":-0.0006261737081805549,"297":-0.009709245011056671,"298":-0.009339412970112395,"299":-0.01842548442090462,"300":-0.00218036417345301,"301":-0.004034132138507349,"302":-0.009477070382853045,"303":-0.009213898973911354,"304":-0.030610709712180138,"305":0.013628937749795032,"306":-0.03562398107842379,"307":-0.009816160137974454,"308":-0.012600979160032902,"309":-0.01738092349297369,"310":-0.016454348337502877,"311":-0.006724185172627939,"312":0.003193970380977208,"313":0.0007884422984477188,"314":-0.024669764174239384,"315":-0.02871668834520893,"316":-0.022250533551271035,"317":-0.02227154588629098,"318":-0.00490901112497353,"319":-0.02386475146311208,"320":-0.0262969419072864,"321":-0.0012853090909923026,"322":-0.02204494711897794,"323":0.011933610527236483,"324":-0.0002299834432315897,"325":-0.02582713949674433,"326":0.006293107785813901,"327":-0.0063040656677936366,"328":-0.0034798722069828616,"329":-0.028035389439684092,"330":0.011299603304255538,"331":0.01443637782895184,"332":-0.016267879154741927,"333":-0.013268740391850546,"334":-0.013990065389848183,"335":-0.013480350468551491,"336":-0.03146323447190405,"337":-0.03809988299239256,"338":-0.030691501887253555,"339":0.011630483241251668,"340":0.004530756834082315,"341":0.016584374700140302,"342":-0.009954090683643411,"343":0.004931320975873584,"344":-0.01893635676429948,"345":-0.010172107950688368,"346":-0.0013361051154178413,"347":-0.006714495255637114,"348":-0.004470377526255433,"349":-0.002061534397155777,"350":-0.0023664893924515706,"351":-0.010950801032675348,"352":0.009066944437486742,"353":-0.007596416351336883,"354":-0.022769116591005577,"355":-0.002107565380941369,"356":0.007042912353772239,"357":0.048775935267320665,"358":-0.017603228679416983,"359":0.020332033548622647,"360":-0.05432039178095523,"361":-0.017136157966950907,"362":-0.023243603785949543,"363":0.022704407724539258,"364":-0.025537373224480006,"365":-0.0024367101614853025,"366":0.00138210932616889,"367":-0.033125660892129705,"368":-0.03644701004576713,"369":-0.027991614012967302,"370":-0.03824578318344933,"371":0.019899852676013068,"372":-0.025561768470063445,"373":0.0495947449107106,"374":-0.033135629362606306,"375":-0.0009612017955951147,"376":-0.011154899726894523,"377":-0.004288441318650801,"378":-0.0018841864724800429,"379":0.012884820157295236,"380":-0.0280292839370034,"381":-0.031802189607455005,"382":-0.02880783836465258,"383":-0.004554288015792055,"384":-0.003650382660284924,"385":-0.013705028128013143,"386":-0.027856364434645998,"387":0.049021865111067486,"388":0.011505461948218918,"389":0.02620283974154494,"390":-0.02436308678769061,"391":0.0003464528336327793,"392":-0.0037758557232477606,"393":-0.007502273330283825,"394":0.010360030179567046,"395":-0.024938833369227375,"396":-0.03670279316691263,"397":-0.012334609668939412,"398":-0.03431160899562608,"399":-0.0354526630838966}},{"sx":5,"sy":5,"depth":16,"w":{"0":-0.03519325999306974,"1":-0.034752945519773475,"2":0.007623682837356763,"3":-0.036060714846635374,"4":-0.025534803105432345,"5":-0.061529627214850766,"6":0.007786062887709514,"7":-0.02276286105627473,"8":0.011109742269047387,"9":0.057281937835361764,"10":0.020480741782064344,"11":0.06647281421855464,"12":-0.013367673622544426,"13":0.004620949220795734,"14":-0.01138075458998313,"15":-0.02213972561838141,"16":-0.0291739178795927,"17":-0.030935839886694128,"18":0.01195861683464773,"19":-0.023184328771114822,"20":-0.019193620643021825,"21":-0.034778697607245494,"22":-0.034233354639048245,"23":-0.03273584016654351,"24":-0.03550789452814567,"25":0.05447367936481347,"26":0.021129445432611187,"27":0.04356582837591333,"28":0.00544869923267005,"29":0.011521262094703026,"30":-0.026898357661066165,"31":-0.025712984725837728,"32":-0.0742025969269989,"33":-0.038189534188669876,"34":-0.024876699602407903,"35":0.02110277147178833,"36":-0.0454236201690642,"37":-0.03841134790011183,"38":-0.044395128956769066,"39":-0.006187995645857698,"40":-0.01715558942845769,"41":0.03367032830342497,"42":0.012348357267397124,"43":0.05755429814553294,"44":-0.01936132555176692,"45":-0.015243391672687746,"46":-0.015779846880216927,"47":-0.022423800323943026,"48":-0.02153049598238247,"49":-0.016504885317761835,"50":-0.014083249255623898,"51":-0.016918481257945546,"52":-0.052358775244828716,"53":-0.06259760194020954,"54":-0.02577282667222402,"55":-0.00641448358865708,"56":0.02780262549305236,"57":0.0649959834021386,"58":0.021407596957711716,"59":0.03838062219859197,"60":-0.005615677054254504,"61":-0.006637392901403185,"62":-0.011390931971992152,"63":-0.005789055644777286,"64":-0.014304061155324952,"65":-0.02355239954852687,"66":-0.02444369219234444,"67":-0.021183856081904984,"68":-0.03583942609700145,"69":-0.04483616379433629,"70":-0.05423073733459672,"71":-0.014626577612959069,"72":0.020543256828488208,"73":0.02703514762846181,"74":0.023496984870702082,"75":0.04423552898699561,"76":0.00538049743499206,"77":0.009452645664821551,"78":-0.007472856417687701,"79":-0.02968850636172616,"80":-0.031837979045341004,"81":-0.04926281610773033,"82":-0.011395761604697182,"83":-0.02901405938678012,"84":-0.012242769540758036,"85":-0.05946611998469433,"86":-0.010191863592888649,"87":-0.024057502768561643,"88":0.013689782867916972,"89":0.03764322962094324,"90":0.012713908649645842,"91":0.08193915692322455,"92":-0.0008041039676000268,"93":-0.02728741734221246,"94":-0.04049227065921225,"95":-0.016716802966742998,"96":-0.02191909798306474,"97":-0.027557246462981126,"98":-0.032943115995983256,"99":-0.022027341690704506,"100":-0.034314319401149054,"101":-0.03158113806926344,"102":-0.03682971644118525,"103":-0.028870075564087133,"104":-0.010649797657030384,"105":0.05769520620498996,"106":0.04119151052933785,"107":0.056897702252633936,"108":-0.015421633601222187,"109":0.0063623539247311175,"110":-0.009089783484003454,"111":-0.03526624506555509,"112":-0.04404109221404282,"113":-0.04261363446726345,"114":-0.033666888631862166,"115":-0.025455750314920835,"116":-0.0011190725227328427,"117":-0.033289764430702286,"118":-0.024556798243503278,"119":-0.00714928027002608,"120":-0.011990061336123348,"121":0.07932654806147078,"122":0.011488851327857472,"123":0.08198000836585616,"124":-0.0026729594861007906,"125":-0.027182534937873898,"126":-0.027203830032951657,"127":-0.03942882251255622,"128":-0.0384941072779291,"129":-0.03467201929847361,"130":-0.06040909366664178,"131":-0.0298559433689395,"132":-0.015243265331844435,"133":-0.04706902475338569,"134":-0.03580317072756178,"135":-0.049322962254649605,"136":-0.05415840821358442,"137":0.04533352884294749,"138":-0.00023432274549981208,"139":0.0907169604568993,"140":0.005410518281953746,"141":-0.01039368760850137,"142":0.012124696338424177,"143":-0.029876990239028768,"144":-0.04274165202493736,"145":-0.021162509184320607,"146":-0.03680353599077749,"147":-0.024493294244952835,"148":-0.043908842679341795,"149":-0.043925273071494915,"150":-0.05223076583823518,"151":-0.006246374083135141,"152":-0.007914757857604666,"153":0.07374259626738228,"154":0.003695935925793121,"155":0.06041080673128359,"156":0.0050951062214519335,"157":0.006759626771569386,"158":-0.06133614465836832,"159":-0.06803410446163329,"160":-0.034261918740084586,"161":-0.034456598361064884,"162":-0.02181018605788245,"163":-0.006498406242120617,"164":-0.014633487471241824,"165":-0.017161109826942432,"166":-0.039373586191936066,"167":-0.03823195827339148,"168":0.026237616449363853,"169":0.06523787738417303,"170":-0.000737101891534239,"171":0.057847256971331175,"172":0.0104998111006132,"173":-0.022046964157514292,"174":-0.039258670457081174,"175":-0.03503222154504038,"176":-0.05132609968752368,"177":-0.0019202025507239467,"178":-0.004086218896606594,"179":-0.03820184435704149,"180":-0.023415589550906852,"181":-0.009773411330837223,"182":-0.025697798732523716,"183":0.012435888905538425,"184":-0.010050508548233687,"185":0.053892884401653504,"186":0.0038673667066374314,"187":0.044586811072778065,"188":-0.004034870798663475,"189":-0.016588477116104425,"190":-0.014440564996717113,"191":-0.03870221636189545,"192":-0.024444196385548022,"193":-0.039570644190842046,"194":-0.018955179057190578,"195":0.022047111239421144,"196":-0.042490016471175306,"197":0.010874434183874007,"198":-0.013651327398633015,"199":0.00042265324361903683,"200":-0.01963038447872183,"201":0.030472940457920435,"202":0.007095955434089513,"203":0.0732271401775417,"204":0.011188838686046948,"205":-0.046505677850176,"206":-0.0028042080711540144,"207":-0.04088356160595768,"208":-0.03927922368746978,"209":-0.011620179764507046,"210":-0.026262548509902364,"211":-0.0016954306925120275,"212":-0.02917196947925755,"213":-0.029517890434731287,"214":-0.03885042040132858,"215":-0.014185339246821686,"216":-0.017601653535248656,"217":0.049449736783551156,"218":0.0294569269100956,"219":0.0589114639717606,"220":-0.0019282978036473718,"221":-0.01227340627510047,"222":-0.007552047454995277,"223":-0.06838560461324088,"224":-0.040894058735501615,"225":-0.04163039648024304,"226":-0.03060635196675273,"227":-0.020371878269280753,"228":-0.06191154892429057,"229":-0.004065624512011069,"230":-0.044501847723246606,"231":-0.008691943703891609,"232":-0.045899028663133334,"233":0.04668993263124328,"234":-0.00018777400251545693,"235":0.07367368089437214,"236":0.00003139056736337837,"237":-0.0097466856955509,"238":-0.017326311173197377,"239":-0.03971930297857557,"240":-0.039914625732791136,"241":-0.009509474725812163,"242":-0.0019071287393178152,"243":-0.007411214207490499,"244":-0.031223239258710962,"245":0.020005791344422895,"246":-0.03761341304954514,"247":0.017049612827398114,"248":0.03708911336338906,"249":0.024176863998981033,"250":0.025779529143811312,"251":0.05407112894224301,"252":0.029773691902321812,"253":0.006290487874152529,"254":-0.023814178271721536,"255":-0.018786594154873458,"256":-0.008409495400211558,"257":0.012169551835244844,"258":-0.004537290690863482,"259":-0.012658330171262258,"260":-0.0670968532670346,"261":0.0046928059079406875,"262":-0.035025430317459805,"263":0.017372440837538902,"264":0.02376050489682027,"265":0.021549114661818636,"266":0.016833892399194132,"267":0.0391921780162947,"268":-0.011065878548946199,"269":0.0011206549546405684,"270":0.0022349670135693423,"271":-0.001314439261009664,"272":-0.003530927583796014,"273":0.001790572338167457,"274":-0.012035751970473074,"275":0.007874271877837583,"276":-0.004962505749779529,"277":0.05851555507180181,"278":-0.01397772539311405,"279":0.023612564311932746,"280":0.009922687270052397,"281":0.006726263406261595,"282":0.012906902221795868,"283":0.047530792761487604,"284":-0.022798399364710977,"285":0.009764123049340701,"286":0.011835819873124494,"287":-0.025932588794368272,"288":-0.019929753708972254,"289":-0.022390694495098742,"290":-0.004426018588207814,"291":0.029105071484985732,"292":-0.01324906556962439,"293":0.02713872315028506,"294":-0.028613895585999152,"295":-0.012505465756433768,"296":-0.039220785085098304,"297":0.030819182218852974,"298":0.019760816219248294,"299":0.03999734438737978,"300":0.03310941131679012,"301":-0.009934167183567866,"302":0.025730180303316454,"303":0.008887883704439324,"304":-0.030383903138186327,"305":-0.012167395898979855,"306":-0.01873979228496135,"307":-0.0006452655522245187,"308":-0.02233618941203339,"309":0.0006549253032936367,"310":0.01589932369462923,"311":0.02132345811477801,"312":-0.01135205657603959,"313":0.03956544895260592,"314":0.01764865570991812,"315":0.05103603832898331,"316":-0.004887738684846535,"317":0.02020736241954368,"318":0.0034176918192529325,"319":0.004323071141521095,"320":0.0167632989076444,"321":0.0104344420767716,"322":0.003152551308513845,"323":0.01700907849243679,"324":0.00019652721301280192,"325":-0.0005946863625564986,"326":-0.0411734111168274,"327":-0.005552641892294281,"328":0.04337676335401916,"329":0.020655495942287428,"330":0.06201278990765255,"331":0.023730819863462177,"332":-0.02306227272113266,"333":0.01837208644230983,"334":0.011466317344211099,"335":-0.0025760919661146735,"336":-0.016882089043648192,"337":0.019537460018361916,"338":-0.0012570147432010913,"339":-0.024278528261798982,"340":0.03247079060306506,"341":-0.012304102216610276,"342":-0.01688803008626186,"343":-0.002994220647168401,"344":0.015807243905227433,"345":-0.005068235113327138,"346":0.05021314368987477,"347":0.03669131851127423,"348":-0.001651031555013603,"349":0.06854262879170941,"350":-0.008730234903283559,"351":0.00217001749208466,"352":0.010416457822683673,"353":0.0000026219990136126388,"354":0.0010297247452163074,"355":-0.0024304670007139284,"356":-0.01542627453077847,"357":-0.003487824333532389,"358":0.02490117741597243,"359":-0.0008249844575070951,"360":0.021127699455848522,"361":-0.010512666018716548,"362":0.0407267526558488,"363":-0.027213902678355224,"364":-0.00889262497017741,"365":0.016675112515761415,"366":0.028566100630684637,"367":0.0026138450274329336,"368":0.02227605843429876,"369":0.02346390031474355,"370":-0.0060222247404337235,"371":-0.0034225287049744397,"372":0.008653595119789186,"373":-0.006744462153683411,"374":0.017022819533439565,"375":0.005372301262448026,"376":0.023990779193606607,"377":-0.013431770469787904,"378":0.037482195005517374,"379":-0.003097996245611383,"380":-0.0020718666623077823,"381":0.02359615655376167,"382":0.016018465468327026,"383":-0.012912261003416286,"384":0.009517195099604936,"385":-0.0004487632950806027,"386":0.022986120553678036,"387":-0.0325248907958965,"388":0.0011819393096666045,"389":0.0029698736406374763,"390":0.000057672218570936747,"391":-0.010389642943860519,"392":-0.009044151501856907,"393":0.026783115789283198,"394":0.0470910414757942,"395":0.02447937552243152,"396":-0.007348564281950418,"397":-0.01509180959960298,"398":0.010338578238482474,"399":0.009587442269784995}},{"sx":5,"sy":5,"depth":16,"w":{"0":0.027996290003368257,"1":-0.004242956743277689,"2":0.002381175609855324,"3":0.0013081325977042737,"4":0.0018137868394172377,"5":-0.007953134877722194,"6":-0.022620405940958547,"7":-0.010293359039709231,"8":0.0034021932061365783,"9":-0.006865105576677802,"10":0.00881247973326581,"11":-0.004912935917446877,"12":-0.0014584815147263793,"13":-0.014041618396934248,"14":-0.01686835116667295,"15":0.0005295147208013215,"16":-0.013613000707957736,"17":0.025211795186634432,"18":0.0000035472546392512895,"19":0.017381257848073067,"20":-0.030731776037396193,"21":-0.018876007816065528,"22":-0.014423740586645565,"23":-0.006881919319795028,"24":0.012677716670949945,"25":-0.00863169763233952,"26":-0.020315965891386213,"27":-0.0183163709986515,"28":-0.01658946340118051,"29":0.04727598869812103,"30":0.024086855496917015,"31":0.01081280849713203,"32":-0.005816682085114858,"33":-0.007676393284321828,"34":0.007546922778170577,"35":0.017883896394091728,"36":-0.010758898522519031,"37":-0.020272817064419635,"38":0.020401790962236484,"39":0.031078073861472377,"40":0.018334250409615647,"41":-0.04024739236112734,"42":0.02133339167938498,"43":0.016535822609259933,"44":-0.0040271630077091955,"45":0.005722526800075955,"46":-0.019476372785640465,"47":-0.01733162575095309,"48":0.018084029557750944,"49":-0.005209480386844416,"50":0.010858321739175003,"51":-0.004477488618899252,"52":-0.02981558585723383,"53":0.005551113525378052,"54":-0.019265652146720262,"55":0.0024263443061948533,"56":0.002394496517415206,"57":0.0016365332801855567,"58":-0.018338459767088176,"59":-0.020045560189155126,"60":0.007905154837734006,"61":0.005866599313199659,"62":-0.022755778241536025,"63":0.003481945236049562,"64":-0.007425770521206694,"65":-0.012210425796330126,"66":0.032094743305474044,"67":0.0035200646251734896,"68":-0.019506418840667287,"69":-0.02167594192573234,"70":-0.009118452305149096,"71":-0.010142569762654827,"72":-0.01762798447416739,"73":-0.006284158513357361,"74":-0.012407782783668556,"75":0.02260993222618046,"76":0.008693331963220419,"77":-0.0028802698721817443,"78":-0.010142873457960007,"79":0.001984959708550967,"80":-0.007208561431520472,"81":-0.0015779994596319962,"82":0.001817895681610059,"83":-0.01441996542109254,"84":-0.016695791049470422,"85":-0.027518102963252262,"86":-0.006242578401295272,"87":-0.0038636349923311946,"88":0.01685351061065823,"89":-0.0014341283415763909,"90":0.03489164447723071,"91":-0.0025266774904359767,"92":-0.036349441879913506,"93":0.012302261570721874,"94":-0.020975143873045776,"95":0.022590133648105956,"96":-0.010615155931921895,"97":0.01209140821417482,"98":-0.004342961481426182,"99":0.01894377184980391,"100":0.001563298418130791,"101":-0.007330851481247404,"102":0.009159388373207449,"103":-0.0009588306619872822,"104":0.005769179405016878,"105":-0.020552410499056737,"106":-0.002517713164377999,"107":-0.019742423597013864,"108":-0.023140574808459033,"109":0.024496529404614505,"110":0.010568970296945956,"111":0.018153371749605646,"112":0.013296510576643937,"113":-0.001430220503499386,"114":0.021157329246541037,"115":-0.014878424609030166,"116":-0.0016380036089832205,"117":0.004070042959250602,"118":-0.037185534322774216,"119":0.01317675141414297,"120":-0.024529640179360192,"121":0.0035945988458970938,"122":0.0010115642809796314,"123":0.024892445381250516,"124":-0.008745396411322607,"125":0.004728669692693233,"126":0.009444593257438396,"127":0.01884165637530619,"128":0.02818322721165435,"129":-0.023661618174977368,"130":-0.0017894095042029603,"131":-0.019424987182135443,"132":-0.03373028026901911,"133":-0.015545492520761893,"134":-0.0005020507727616953,"135":0.009947858918774798,"136":0.0013563351239349946,"137":-0.00024000348482176458,"138":-0.021143897264060345,"139":-0.010814462364956094,"140":-0.01456124068331468,"141":-0.0215213469672168,"142":0.0022481833858232526,"143":-0.0015283012326714886,"144":-0.009370139689235698,"145":-0.008614011879748923,"146":0.01173252745969256,"147":-0.0022171399815965106,"148":0.01903923469341238,"149":0.02977254622226595,"150":-0.0240137760002027,"151":-0.019503708977467813,"152":-0.021757052244705505,"153":0.017661624137715274,"154":-0.010462940093325776,"155":-0.028838785569965626,"156":-0.000595926176564953,"157":-0.013742018668167908,"158":0.01718228405714553,"159":0.022805185901323768,"160":0.005094064271661836,"161":-0.011740311798472767,"162":0.006406172641731335,"163":-0.00032423015858314505,"164":0.01618993945685717,"165":0.00007137918134822013,"166":0.0017729586856526335,"167":-0.004119466127044058,"168":0.015527249145558928,"169":0.013196717612139336,"170":0.006252600479354385,"171":0.013665065944447214,"172":0.005374482958192803,"173":-0.020221397198227836,"174":-0.003790826790387974,"175":-0.022684172763538124,"176":0.007437490776692016,"177":0.0038943744300373936,"178":-0.007089681247634787,"179":0.006279607027468006,"180":0.004962210866376957,"181":-0.03889293180545843,"182":-0.01889433273942224,"183":0.009970175947743012,"184":0.006161962830275382,"185":0.0069872488260756364,"186":-0.00147334105985053,"187":0.012944968472191894,"188":0.019087626070739952,"189":0.014274539400676823,"190":0.018736033614142118,"191":0.015228758003325387,"192":0.008859687266636863,"193":-0.01428252139607338,"194":0.025745148663149132,"195":-0.0045861552524580525,"196":0.01624131696084012,"197":-0.0219248580740661,"198":-0.02451731979379098,"199":0.0032962125722195462,"200":-0.021805716391859884,"201":-0.0006450404990780759,"202":-0.003499684975849893,"203":-0.018013102932778066,"204":-0.0061230578676677505,"205":-0.012842871175571235,"206":-0.013559265773867691,"207":0.011791322032406662,"208":-0.009535004063449606,"209":0.025996017939975267,"210":-0.029216767169782557,"211":0.002456069548295251,"212":-0.010365547559661974,"213":-0.007370099023382642,"214":-0.022145461880943632,"215":-0.027875191925607258,"216":-0.01918940513615985,"217":-0.0007402772673698151,"218":-0.0069399527902661235,"219":-0.012132017881235167,"220":-0.019427731776475166,"221":-0.004820185907342321,"222":-0.0038431310896043726,"223":-0.011789134338689184,"224":-0.020661663435243723,"225":-0.010847732656891401,"226":0.003577019822657799,"227":-0.007745444739274453,"228":0.013412415907597897,"229":0.008939830924871908,"230":0.011531928297959298,"231":0.01286991831447739,"232":0.007905360902830578,"233":-0.0111050082905964,"234":-0.01552489276653552,"235":0.03025535225541974,"236":-0.0037552954326594036,"237":0.022891598687205066,"238":-0.0030495855818778402,"239":-0.02697891320955454,"240":0.004556019047732671,"241":0.012342275227505448,"242":-0.013290790428492997,"243":0.015894280900382283,"244":-0.011966989203480495,"245":-0.011010452583013941,"246":-0.012887674270015415,"247":-0.018734814769068703,"248":-0.003583589698297475,"249":-0.030161469655337145,"250":-0.013002782023782737,"251":-0.005417445379379238,"252":-0.02704239398062409,"253":-0.05207974788464827,"254":-0.028292288116622103,"255":-0.02675865250485073,"256":-0.005134394510404839,"257":-0.01328159401217731,"258":-0.03221700533225051,"259":-0.0041521570412559085,"260":-0.03546161080011718,"261":-0.024832007045175835,"262":-0.013498124591309892,"263":-0.007985348951186563,"264":-0.024448462605247974,"265":-0.011938959016956529,"266":-0.017760171434570305,"267":0.002918833071024398,"268":0.012709377776758223,"269":-0.008321029353689845,"270":-0.010746124862334968,"271":-0.009942120627666065,"272":-0.027280730915757997,"273":-0.02852517066699009,"274":-0.004475362197773885,"275":0.008991568692628247,"276":0.010092046673421262,"277":-0.03848851480406654,"278":0.01815183489006189,"279":0.011979504832297205,"280":-0.02095801589787828,"281":-0.030652461449240227,"282":0.005826504112012012,"283":0.005389008947094497,"284":-0.006409157662763215,"285":-0.004970427950598072,"286":-0.027609658775639537,"287":-0.03701934533539262,"288":0.016668356771801205,"289":0.0060503292329927945,"290":-0.0012237496345394799,"291":-0.014667565905502573,"292":-0.0028428225373939788,"293":-0.0001381510710130814,"294":0.030996421398698168,"295":-0.02140620192270978,"296":0.008981140280585295,"297":-0.008745598994084346,"298":-0.011462325087819572,"299":-0.010024154616654506,"300":0.014603030993304176,"301":0.005419556521906988,"302":-0.009803361137560572,"303":-0.00805547993526693,"304":-0.03687666660409778,"305":0.017383215639636247,"306":0.0014050157288004645,"307":-0.009337479146579872,"308":-0.046607193490074035,"309":-0.015913955479185577,"310":-0.02148160255813746,"311":0.004988331099417756,"312":-0.015900389584540344,"313":-0.00674756573357388,"314":0.0012058673965825177,"315":0.016158481824482467,"316":-0.00219319204704562,"317":-0.004550013324646253,"318":-0.006462529288430448,"319":-0.02688380779353533,"320":-0.01379117857923956,"321":0.0073463389221700955,"322":0.0360272139274751,"323":0.0068960131678377995,"324":-0.02451036680847055,"325":-0.00982114507005838,"326":0.0010879764826096884,"327":0.019399371443816944,"328":-0.006480120713673385,"329":-0.0010062752735159252,"330":-0.02094081117728192,"331":0.006982636653596738,"332":-0.006917600486777076,"333":0.013259529907146714,"334":-0.0011797826870859427,"335":-0.020473382515694416,"336":-0.011654072154656157,"337":0.0029352387784969346,"338":0.002467650726082659,"339":-0.007801306383380672,"340":0.02490360556561555,"341":-0.021064220707231532,"342":0.0017737964094834302,"343":-0.0018884640817213006,"344":-0.004142456682128092,"345":0.010209474590168698,"346":-0.008831894288269736,"347":0.00043785522662188013,"348":0.013800007936951285,"349":0.006537292156338744,"350":-0.024370944242239945,"351":-0.00020983314731450343,"352":0.0017129650603631287,"353":0.001340249543408763,"354":0.005638624977862219,"355":0.009203815133083701,"356":0.010596570686174018,"357":-0.023567010123987698,"358":0.012023041698934638,"359":0.00826421371637511,"360":-0.013153733454129233,"361":0.0043211466615557465,"362":-0.015327843603228912,"363":-0.017024166993683407,"364":-0.0036795642628523395,"365":-0.028865511090190428,"366":0.007915695146552163,"367":0.005261881412355654,"368":0.005166811285343066,"369":0.014431465324525153,"370":-0.015988054478844556,"371":-0.022024501959455572,"372":-0.004703202743652737,"373":0.004232105545345611,"374":0.018725224035623458,"375":-0.004097701884661221,"376":-0.025759771411978917,"377":-0.00531348537721642,"378":-0.03216316214874771,"379":0.00386872891102996,"380":-0.017474176964611433,"381":-0.014546735096737057,"382":0.0028781566097061803,"383":-0.003975489217105288,"384":0.001722778703484286,"385":0.005515391590195473,"386":-0.011928290755695794,"387":-0.007215762849057748,"388":-0.028366427415888035,"389":-0.01827467371603079,"390":0.02132127102637006,"391":-0.021820955265137314,"392":-0.009424691053125055,"393":-0.009549023608465169,"394":-0.00505684361032664,"395":0.008560763351183722,"396":-0.01221074309009331,"397":-0.005206220644779846,"398":-0.0016057505110414114,"399":-0.00036463127715789795}},{"sx":5,"sy":5,"depth":16,"w":{"0":-0.015093195305792208,"1":-0.007260852285687012,"2":0.000906501867022091,"3":-0.007326440102038817,"4":-0.011794265769934866,"5":-0.019450074456617325,"6":-0.012489267523934361,"7":-0.0009639808282475992,"8":0.02430825415199486,"9":0.010667464741956838,"10":-0.006763672818246183,"11":-0.025611680614322875,"12":-0.018153021794730485,"13":0.007387302550546833,"14":-0.00005974689653315103,"15":0.010711471237602523,"16":0.0030184061820884302,"17":0.010880659999603024,"18":-0.016212683152730032,"19":0.002997621017639492,"20":-0.001789211672199661,"21":-0.01017236053000875,"22":-0.03613696864663202,"23":0.0010231109085876832,"24":-0.018615348229414894,"25":-0.0032721715714920103,"26":-0.008367561263729745,"27":0.0035325586810119585,"28":-0.03847931798553795,"29":0.0010523192104130799,"30":-0.004317158424993973,"31":-0.0016012800346532588,"32":-0.0052833806813110205,"33":-0.027912735683274903,"34":0.006492093346348277,"35":0.01678875123448469,"36":-0.009214312384147591,"37":-0.0003981388415793512,"38":0.02020288192981744,"39":0.007731993305025599,"40":0.009819002114243441,"41":-0.013267420568932427,"42":-0.004471681896499707,"43":-0.006810178270903608,"44":-0.023223820887124755,"45":0.00029311473776902797,"46":-0.0038307976566230376,"47":-0.011923884414492056,"48":-0.0000027332246721043334,"49":-0.004418835480901911,"50":-0.013305842596356332,"51":-0.011064439957018264,"52":-0.018423888187761576,"53":0.012018800902708562,"54":0.012906448872574708,"55":0.017678619398225362,"56":-0.01105956031722767,"57":-0.002556495081774549,"58":0.0009177637588830796,"59":-0.003924232267989089,"60":-0.03224625051166594,"61":-0.019975551072087618,"62":0.02654691872883862,"63":-0.03253984338952873,"64":0.00749651006393942,"65":0.008379403423742557,"66":-0.00234214470192082,"67":0.017783106790423834,"68":-0.020524819351022825,"69":0.00917416212026418,"70":-0.02433956467407127,"71":-0.006658299085689124,"72":-0.01156966063197776,"73":-0.024988921131524258,"74":0.016890262952635297,"75":0.015698573425547382,"76":-0.02180269404122525,"77":-0.005852649874061633,"78":0.009276755575867698,"79":-0.008087643188922725,"80":0.004718986345534214,"81":-0.021480619795349067,"82":-0.00015644784688988546,"83":0.001639334415415808,"84":0.022603819397492418,"85":0.007356783573798541,"86":-0.035534689369966455,"87":-0.010006136989192652,"88":-0.009808663915405675,"89":-0.02025916997237319,"90":0.004312657130678113,"91":-0.017544375582812178,"92":-0.02610937654040948,"93":0.013950077141308134,"94":0.0043635052138028775,"95":-0.017082058807775243,"96":-0.011910920943640572,"97":-0.02079216789679198,"98":-0.008940093546843546,"99":0.000686952634560684,"100":0.020480368429747986,"101":-0.020227232013722722,"102":-0.035777890111719335,"103":0.03319786612133106,"104":0.004399080433545424,"105":-0.010031557054994679,"106":-0.00991364284671227,"107":-0.010222895993473702,"108":0.009347791608287349,"109":-0.002200682542613512,"110":-0.020895294947453447,"111":0.014299660893706111,"112":-0.015520819705558289,"113":-0.00842954004493485,"114":0.001174607765879133,"115":-0.002986652030884106,"116":-0.02640625832225112,"117":0.005172661949866429,"118":-0.004103200728803953,"119":-0.009352969281663619,"120":-0.008820980928318659,"121":0.01621523479371386,"122":-0.0050280162420957755,"123":0.021961390170216137,"124":0.0030584348252316084,"125":-0.011603528587668024,"126":0.009510157830174415,"127":-0.015577792349803672,"128":0.04217217624499825,"129":-0.00022622633651526842,"130":-0.0045909312121432955,"131":0.03130716008123343,"132":0.01783878028752878,"133":0.001136089478081866,"134":-0.04236871304339972,"135":-0.028581287588887852,"136":-0.00043949140869211707,"137":-0.0009631061039837938,"138":-0.02680816121304363,"139":-0.013106576505080026,"140":-0.0071121416941157915,"141":-0.015062065462105097,"142":-0.026635733749818893,"143":-0.000024392366975685577,"144":0.016035212325914136,"145":-0.017436998688318807,"146":0.027242304034736396,"147":-0.007871661102630843,"148":0.005331738655768209,"149":-0.02730283413966011,"150":0.014477018501118644,"151":-0.000546505319996578,"152":-0.0011005713124612958,"153":0.007375686690322632,"154":-0.013551374920938808,"155":-0.0006005441752436438,"156":-0.011460650429940798,"157":-0.01716000832945251,"158":-0.021584251431154024,"159":0.00931525379159605,"160":-0.03157121222427217,"161":-0.008445503014630922,"162":0.023626414650371123,"163":0.021911115118596815,"164":0.00589129942122471,"165":0.005881977517123817,"166":0.019079796858076026,"167":-0.0008077399586339565,"168":0.014633830565468397,"169":0.002548787976164513,"170":-0.019490677523900227,"171":-0.016598053225006452,"172":-0.013445078457698191,"173":-0.01774479630411093,"174":-0.02350981795838614,"175":0.000993088813451101,"176":-0.03361042851253048,"177":-0.023181736326106744,"178":0.009536314268683949,"179":0.0022756916767030467,"180":0.013530615739207797,"181":-0.006173806105564639,"182":-0.030817740431224056,"183":-0.003743267479493831,"184":0.01244010053560189,"185":0.006132497823952737,"186":0.02028290748256471,"187":0.007152789565410574,"188":-0.014181319913704865,"189":-0.016882248572746176,"190":-0.0007763482356304141,"191":-0.039480211014893,"192":0.027082852975155,"193":-0.004343138002880009,"194":0.011897977935197835,"195":0.0015918467563170256,"196":-0.00365061989667189,"197":0.00529928628197634,"198":-0.018023871162152445,"199":0.004508865067673169,"200":0.04579713918226544,"201":-0.0012589872463835403,"202":0.013414385841033218,"203":-0.012333893227904694,"204":0.005343193934541726,"205":-0.0023232619035927684,"206":-0.010621132611189615,"207":-0.00820620485346202,"208":0.006858849439201591,"209":0.0008665482605111369,"210":0.006300385093071693,"211":0.039057604367675934,"212":-0.000880358987297548,"213":-0.002327127625116072,"214":-0.008544894824970936,"215":-0.0016390509606597887,"216":0.004163143984769014,"217":-0.003206061471771931,"218":0.015070729427509815,"219":-0.02927071497558246,"220":-0.01710919227657248,"221":0.008129271887675859,"222":-0.008311863231983787,"223":0.009490594855690822,"224":0.0012085368006891188,"225":-0.02071969152406242,"226":-0.028264853099550083,"227":-0.010815470659272039,"228":0.004462536720672862,"229":-0.024837569217939146,"230":-0.010306363226325067,"231":-0.002366135167189305,"232":0.005695545019349492,"233":-0.015018625817082035,"234":-0.0057855997706976565,"235":0.0035911578343787004,"236":0.006433090773358491,"237":-0.02339232255121985,"238":0.0264237789335213,"239":-0.012560810734264441,"240":-0.005077640587490409,"241":-0.007302702513248111,"242":-0.007405279689943873,"243":0.029280957537595655,"244":0.004698001148705776,"245":0.017812563483939774,"246":-0.009916067544930962,"247":-0.012979889818672014,"248":0.0005071595535567132,"249":-0.0052107078933170846,"250":-0.016850209326040082,"251":0.014495825030241377,"252":0.012120839418850837,"253":-0.017043008937266593,"254":0.0025350569699376696,"255":0.030408065592341316,"256":-0.007981641711603898,"257":0.007337690308231217,"258":-0.018799493123866483,"259":0.025174295947493795,"260":-0.021579100400533104,"261":-0.010513064695180483,"262":0.002742654931592266,"263":-0.00048698785140674706,"264":-0.022609221169315685,"265":-0.019275302253112025,"266":-0.000777254429152025,"267":-0.01549199351182556,"268":0.035168239047142225,"269":-0.006486136389858003,"270":-0.0037761320158307167,"271":-0.0011601744733346733,"272":0.018260436912237592,"273":0.01788996050870939,"274":0.008334610011625254,"275":-0.026131793514162244,"276":0.005566796201308658,"277":-0.030985164390420136,"278":0.006948608871562699,"279":-0.0008496091708286693,"280":-0.013844952493436046,"281":0.011963043438371712,"282":-0.011406784218562649,"283":-0.023159470200276634,"284":-0.0265914616898057,"285":-0.0023974929721452876,"286":-0.0037253384246751526,"287":-0.016030861628471782,"288":0.006712956113453148,"289":-0.02406628306425597,"290":0.0006760505956629384,"291":0.011163067988406486,"292":-0.0176068241201054,"293":-0.0020675245818503633,"294":-0.0005080490098817779,"295":-0.002626865278109662,"296":-0.01546272915467689,"297":-0.012197798764439001,"298":-0.000313398250329922,"299":0.0011007463515866466,"300":-0.024164787250150293,"301":-0.002441466868265505,"302":-0.012349199474752985,"303":-0.005473079442545539,"304":0.015322271577200161,"305":-0.0024995076694923814,"306":-0.02689788001703867,"307":0.013432263075259255,"308":0.012494695684465713,"309":-0.012431060620422998,"310":0.0018138937168053265,"311":0.02809888604536335,"312":0.03832376253149328,"313":-0.0008837360624352636,"314":0.006078235175819795,"315":-0.008894799787519886,"316":-0.023568934100941307,"317":0.00005634657897245007,"318":-0.02557264604223142,"319":-0.006216067583914647,"320":0.014096062535692205,"321":-0.015794875393854404,"322":-0.0056027881099209205,"323":0.015667037775686583,"324":-0.017039115275166904,"325":-0.016651387844815367,"326":0.004053892492911758,"327":-0.015830552781165966,"328":-0.01892357408363194,"329":-0.004769176080589856,"330":-0.011279947900005855,"331":-0.0006463856002688765,"332":0.00559764974006825,"333":-0.010191468207274564,"334":-0.027947096529291348,"335":0.024706318573171415,"336":0.01778492985873889,"337":-0.011803090561913088,"338":0.015939829720247548,"339":-0.0044728801148365355,"340":-0.009036275502107366,"341":0.01059305860266423,"342":0.01043809608395874,"343":0.0345320081967256,"344":0.0005824591654294483,"345":0.01144813301569958,"346":-0.012070321702619192,"347":0.0016154612856283134,"348":-0.023866393894015497,"349":-0.00999951507714787,"350":-0.0164392711822962,"351":-0.0013988082210421781,"352":-0.009908565205966861,"353":0.009903898794671906,"354":0.014346585427696823,"355":0.0002965475583792943,"356":0.0042402215420031435,"357":-0.019336996723650114,"358":0.0012468156975069262,"359":0.018657177114885078,"360":0.007844932055447288,"361":-0.0046303288959176365,"362":-0.01575023528424214,"363":0.011793357966975742,"364":-0.027825682344496193,"365":-0.0007821749528188654,"366":-0.028284494140161053,"367":-0.015070847082493993,"368":-0.019467147653426563,"369":0.0004976724677617182,"370":-0.005163664631543653,"371":-0.030388040740176356,"372":0.000146108995612296,"373":-0.012766492931619978,"374":-0.006900697309640024,"375":-0.002639868851051378,"376":-0.023387810785318226,"377":-0.0034582151070215437,"378":0.0039731779847933515,"379":-0.01947955757392933,"380":-0.006413979893596432,"381":-0.013706276795936672,"382":0.005465858638857545,"383":0.017497776652082422,"384":-0.009352239198229936,"385":0.004206882899357391,"386":-0.015398456618785972,"387":-0.01375201535606898,"388":0.012808792144894984,"389":-0.004384161848788798,"390":-0.012821382048658288,"391":-0.01907719496889506,"392":0.007095082991688933,"393":-0.019696827262952972,"394":-0.003864052834608131,"395":-0.025436523391368423,"396":0.02403852535071341,"397":-0.007728103233297438,"398":-0.02057015491863041,"399":0.014545561575137023}},{"sx":5,"sy":5,"depth":16,"w":{"0":0.0030571462736260126,"1":-0.015378713603039228,"2":-0.029924296844995105,"3":-0.01823091628042051,"4":-0.004776318556173096,"5":-0.03949129596835097,"6":-0.033339368143790675,"7":-0.06746521567513483,"8":-0.007937960974098364,"9":0.06741896014186048,"10":0.05324463866597346,"11":0.08969731228966744,"12":0.061346146319259894,"13":-0.02159215519507814,"14":0.004112467440486225,"15":-0.030230999447586313,"16":-0.05158932474556023,"17":-0.033138721389408786,"18":-0.002284229764212036,"19":-0.009984861942890614,"20":-0.031184836845616182,"21":-0.033178881890116314,"22":-0.015011466395439281,"23":-0.022570509505330266,"24":0.018810403570587164,"25":0.07358600179983432,"26":0.05648854842079268,"27":0.044839820848894194,"28":0.007203565881132133,"29":-0.008669696148602857,"30":0.0003600345228048032,"31":0.0024543567221145426,"32":-0.008554809710275823,"33":-0.00820259327297439,"34":-0.03946221143023078,"35":-0.027092565551894446,"36":-0.020500806999727915,"37":-0.06516538278292529,"38":-0.030185983236803857,"39":-0.0269047700378391,"40":-0.018757941356795774,"41":0.037139207375333286,"42":0.07887045375176342,"43":0.0695465707227302,"44":0.018015417963703446,"45":0.014633748423382562,"46":-0.020359494502686905,"47":-0.009995721288633855,"48":-0.026520390876670224,"49":-0.005653808928632562,"50":-0.007670984264527547,"51":-0.029284131402331617,"52":-0.04706264787333715,"53":-0.043444096057441796,"54":-0.0381803078324271,"55":-0.052689055730154116,"56":0.018159781900528693,"57":0.04236765015487737,"58":0.04366715318643232,"59":0.02514164029913203,"60":0.008444641414737834,"61":0.011097874315741963,"62":0.0004216867524178583,"63":-0.011079832573143612,"64":-0.02793259421990129,"65":-0.04023201084530766,"66":-0.016202976147676986,"67":-0.03441845939273056,"68":-0.04274605068567764,"69":-0.03471281490959263,"70":-0.027415316282703876,"71":-0.007677342221753632,"72":-0.003816897950037904,"73":0.08371225978427183,"74":0.011715367909424184,"75":0.07477247703353186,"76":0.010786915454483886,"77":0.006796574971236785,