{"layers":[{"out_depth":3,"out_sx":32,"out_sy":64,"layer_type":"input"},{"sx":5,"sy":5,"stride":1,"in_depth":3,"out_depth":16,"out_sx":32,"out_sy":64,"layer_type":"conv","l1_decay_mul":0,"l2_decay_mul":1,"pad":2,"filters":[{"sx":5,"sy":5,"depth":3,"w":{"0":0.03565707379200545,"1":0.07750799344478057,"2":-0.11125176692218185,"3":0.03226931062633322,"4":0.23045419532245073,"5":-0.16067036837373372,"6":0.07287743556122843,"7":0.14629234576408723,"8":-0.14864455309018826,"9":-0.05858698770929212,"10":0.07745299606412712,"11":-0.2991860909112871,"12":-0.07919744440827756,"13":0.10170974922811112,"14":-0.04825586001635384,"15":-0.052078961556777666,"16":-0.013360645317359195,"17":-0.09492217871224148,"18":0.2446113690581497,"19":0.01766339890232694,"20":-0.018698555670083425,"21":0.20602534616938428,"22":-0.007802191203421982,"23":-0.2966618536851511,"24":0.15098853805270548,"25":-0.0593903304405427,"26":-0.04026179334592676,"27":0.0005875348298542138,"28":-0.15907995575392397,"29":-0.3642080916071712,"30":-0.013258853650277527,"31":-0.17482676671862055,"32":0.08290538531725025,"33":-0.023060443544543282,"34":-0.08155969973838818,"35":-0.19359320964112048,"36":0.06852608285287301,"37":-0.16495789633772479,"38":-0.21597039546572006,"39":0.056728552498718485,"40":0.019195011709196363,"41":-0.04161308389160059,"42":-0.044938193977499874,"43":0.14835156918916445,"44":-0.24247731015762639,"45":-0.051150846785234835,"46":0.06082162513804505,"47":-0.029836561537678698,"48":0.10048819271540074,"49":-0.04671029056891762,"50":-0.22621243544723116,"51":0.12162926758034748,"52":-0.015746399208270395,"53":-0.23830652505099206,"54":0.18171577807881972,"55":-0.20699951826846885,"56":-0.12189489251020261,"57":-0.020888313038985338,"58":0.024897507921477918,"59":-0.03371130871557945,"60":-0.13604520785127872,"61":0.014536172261364591,"62":-0.06137436975729568,"63":-0.001899648797328441,"64":-0.020041680752523258,"65":-0.17263015399646142,"66":0.06970312165588984,"67":-0.12648205971786755,"68":-0.08136323485901381,"69":-0.018302438636107855,"70":0.006685916909800094,"71":0.08137291421511433,"72":0.13089124965447793,"73":-0.15325453078932044,"74":-0.05390405715729721}},{"sx":5,"sy":5,"depth":3,"w":{"0":0.14271044819338513,"1":0.018955362962561416,"2":0.0665443129537262,"3":0.1730411518503975,"4":0.06794777424022994,"5":0.18972741085212178,"6":-0.09403166917697964,"7":0.12119894531437717,"8":0.19415050470430434,"9":0.15117691051337698,"10":0.16757783120165146,"11":-0.025110659225653437,"12":-0.10426232412550065,"13":-0.06555024857607858,"14":-0.2602097701885233,"15":-0.0631543898454667,"16":-0.030409480510802965,"17":-0.25608379148935995,"18":0.11862922126087061,"19":0.1372574796518185,"20":-0.15815004238206778,"21":0.007575934519355396,"22":0.2248286762615591,"23":0.015162416578340413,"24":0.028377233586121313,"25":-0.036760063715670366,"26":-0.06841476061737127,"27":-0.09831731268866489,"28":0.16515898702290402,"29":-0.03534258628300101,"30":0.224628687811574,"31":-0.052254938385598575,"32":0.047769147377177315,"33":-0.1820853434582381,"34":0.030195610443752033,"35":0.12970609814875378,"36":-0.14232331037731963,"37":0.008837780366602863,"38":-0.03369037690085942,"39":-0.15082143001926432,"40":-0.023388240615703056,"41":0.0027834398701051368,"42":-0.05126748134370305,"43":-0.26248822482801076,"44":-0.02508897524935637,"45":-0.17099669493240394,"46":-0.017072046747002804,"47":-0.040388284754080184,"48":-0.05023565909809252,"49":0.040513454365456385,"50":0.0007371901637734553,"51":-0.28937378853524187,"52":-0.2576622799736796,"53":0.015257726824306844,"54":-0.36595525833886483,"55":-0.18930992491057322,"56":0.09246477704247506,"57":-0.1025458492306423,"58":-0.20158920823409382,"59":-0.09877997137719889,"60":-0.018763699525939776,"61":0.16320070499072659,"62":0.07553643304745247,"63":-0.005740437429477984,"64":0.003981953400962104,"65":-0.1289884215332713,"66":-0.04944583276365471,"67":-0.0456329011643542,"68":-0.09584192589563842,"69":0.009093754246567793,"70":0.01247175033585248,"71":-0.12651208451697407,"72":-0.07494103645950442,"73":0.14064772743113663,"74":-0.08738154956322043}},{"sx":5,"sy":5,"depth":3,"w":{"0":-0.10226043741005222,"1":-0.0485527308147017,"2":-0.1779780301312668,"3":0.20320880889027734,"4":-0.03575964985587932,"5":-0.05542116203216257,"6":-0.15136916709634754,"7":0.13780463952560523,"8":-0.20857578507600058,"9":-0.22347774371073797,"10":-0.08684986900010057,"11":-0.19328558490738304,"12":0.07205250109821773,"13":0.09773049189497758,"14":0.08660274065982142,"15":-0.059413563153957405,"16":0.12947498020645484,"17":-0.2757862534247599,"18":-0.054947462839051914,"19":0.061958979789899206,"20":-0.15793484657724383,"21":-0.01899121602445848,"22":-0.027884957271999175,"23":-0.06156610413703767,"24":0.055436154474884154,"25":0.15014661790068032,"26":-0.09834186608596997,"27":0.02633886339155257,"28":-0.09405194172968855,"29":-0.28168672246456367,"30":-0.0832167458759805,"31":-0.03210005165144943,"32":-0.06371202552658126,"33":-0.009658474424230762,"34":-0.08025128970637313,"35":-0.32285042141504916,"36":0.0640884292098265,"37":-0.12882699712986467,"38":-0.09063179843558469,"39":0.033734034932479666,"40":0.021384284925939363,"41":-0.37954698420866023,"42":0.1844461540364067,"43":0.027689154202396135,"44":-0.009454837186181252,"45":0.16489907170401094,"46":0.20903208517578367,"47":-0.17087764124768484,"48":-0.03675153507294295,"49":0.14717555787233264,"50":0.13817133641078383,"51":0.08696499784555035,"52":0.08601877275471773,"53":-0.16355512093080532,"54":0.18703002249910786,"55":0.1379674520812354,"56":-0.04642160752386104,"57":-0.025965371194705173,"58":-0.24062080526030163,"59":0.08734495643186395,"60":-0.2359736710255033,"61":0.10394528927568769,"62":0.167502353827318,"63":-0.04550976820257975,"64":-0.07005850342546263,"65":-0.039298639669446335,"66":-0.11068020060829657,"67":-0.029194038652401576,"68":-0.024239305361830197,"69":-0.14012148431683064,"70":-0.021179851780317994,"71":-0.20167692520163316,"72":-0.031196701869837078,"73":-0.04355572677758232,"74":0.26582922223698663}},{"sx":5,"sy":5,"depth":3,"w":{"0":0.13045839617360339,"1":-0.08859145513502857,"2":-0.027636597447266643,"3":-0.14670281433888377,"4":-0.019654049191497817,"5":-0.11912357894173668,"6":-0.12762454182982422,"7":-0.04211298692942855,"8":0.03532157987800817,"9":0.15474042661767823,"10":-0.2836217236171843,"11":-0.4614327520914026,"12":0.0537909614629357,"13":-0.02071267127370772,"14":-0.2019973297542579,"15":-0.15045500431322245,"16":-0.053957800125803375,"17":-0.01531492766291855,"18":0.0193351810237609,"19":-0.032036427610032454,"20":-0.17484894925738517,"21":-0.2535238421631963,"22":-0.0879241658537638,"23":-0.148983907783227,"24":-0.002452247672295048,"25":-0.07918002865276841,"26":-0.13559154746725313,"27":0.1131357953221966,"28":-0.16062231609400449,"29":-0.08707696571853583,"30":0.037129471885319204,"31":-0.217407172136842,"32":-0.38359768259442684,"33":0.11037495627699813,"34":-0.2806485598746661,"35":-0.24748523511607434,"36":0.261493820520096,"37":-0.22430323494623353,"38":-0.09503191443233107,"39":-0.13143140198311987,"40":-0.11651005569727374,"41":-0.19176103276835704,"42":0.14317629212723945,"43":-0.2751101533106882,"44":-0.1138404450097627,"45":-0.14737675993027932,"46":0.00014376337491774863,"47":-0.09115574982165557,"48":-0.1455574863078926,"49":0.1189689924182403,"50":-0.15182833838337315,"51":-0.019016264411166293,"52":-0.06453490667503942,"53":0.018776726909513115,"54":0.019164012607911625,"55":0.09423305578602977,"56":-0.007326552633586137,"57":-0.011871955107511996,"58":-0.03127590483141581,"59":-0.15016584200206926,"60":-0.0635239398490258,"61":-0.19906868443023246,"62":-0.04719971988842745,"63":0.11711260650881414,"64":-0.25378443228970166,"65":-0.11019595664275547,"66":-0.20896534686606336,"67":0.05979946017171831,"68":-0.11918759408094756,"69":-0.20653145219847707,"70":0.016051355834860268,"71":-0.1443475469774352,"72":-0.21438515625426915,"73":-0.2316033791744063,"74":0.016487650326648833}},{"sx":5,"sy":5,"depth":3,"w":{"0":0.009966248969276904,"1":0.2738658444990598,"2":0.16718000592176757,"3":0.10847635263922033,"4":0.13945458771768476,"5":0.27078760653265127,"6":0.1683277462142957,"7":0.14019667537814046,"8":0.049502268643027585,"9":0.08446477271571748,"10":0.04288102459027553,"11":0.15150833551662649,"12":0.2177905367616775,"13":0.06724779205090735,"14":0.1140266962390001,"15":0.12133342315338842,"16":0.09961525972852098,"17":-0.05764866351266892,"18":0.10010039034738165,"19":0.08083031325285732,"20":-0.016282667954621917,"21":-0.00925889257429598,"22":0.012290983111588237,"23":0.24754905605241542,"24":0.15818360630820633,"25":0.01173810771299351,"26":0.11612216938264226,"27":0.00976176042888885,"28":0.0010867984990188468,"29":0.03749119179477729,"30":0.2685887444270141,"31":-0.1275698941359695,"32":-0.09336345020822004,"33":0.22500224365105176,"34":-0.11680041658111871,"35":-0.021485120330889715,"36":-0.06724374379364768,"37":0.00700236575478525,"38":-0.07924154027676272,"39":0.2146223521100376,"40":0.2334880941672246,"41":0.02910275107484641,"42":0.1072870656669166,"43":-0.012116450400314302,"44":-0.09484059922168514,"45":0.22846413248232506,"46":0.1655779766027564,"47":0.009689546962751837,"48":0.00304819727674467,"49":-0.05086852775121531,"50":0.06153936178361785,"51":0.060606426438962566,"52":0.06832957222875535,"53":-0.005112391384802012,"54":0.2585348189928145,"55":0.15876432339121105,"56":0.021506743555145064,"57":0.018397762025793456,"58":-0.0360654308983884,"59":-0.252256762202615,"60":0.21093346905744084,"61":-0.023185195029167955,"62":-0.11681716176945997,"63":0.08812730996470386,"64":0.08419576236368248,"65":-0.04693077538403297,"66":-0.03344001037525997,"67":-0.11871579335730659,"68":0.07208309736351365,"69":0.011035740720839644,"70":0.09432905837338486,"71":-0.12946633149533573,"72":0.06930809982923553,"73":0.14563933036390006,"74":-0.10441407800192143}},{"sx":5,"sy":5,"depth":3,"w":{"0":-0.01974115903482873,"1":-0.057773625969252555,"2":-0.06895753338659363,"3":-0.2714092464235452,"4":0.17878969639435932,"5":0.012888095914312888,"6":-0.15377426096616945,"7":0.018628696236076915,"8":-0.008195956521870712,"9":-0.12002133232627046,"10":0.023709510102094728,"11":0.0032814529076618726,"12":-0.056918682774004636,"13":0.06425325545968356,"14":-0.2419739692135336,"15":-0.21712715870535976,"16":-0.1207840164362517,"17":-0.03368374586796261,"18":-0.13698262021750407,"19":0.01437361318573337,"20":0.03706050533199615,"21":-0.19347731901617987,"22":0.009712544035285193,"23":0.0484391966090851,"24":-0.2215485454860335,"25":-0.047069997458871304,"26":0.008660918904676839,"27":-0.08180275001306092,"28":0.07833359248216328,"29":0.19731092802834524,"30":-0.1542215718332299,"31":-0.22336414365703725,"32":0.030442791592856434,"33":-0.09566884986559827,"34":0.27803420840329984,"35":-0.3079838424612182,"36":-0.24194603548060087,"37":-0.16253778558198992,"38":0.007971955366404927,"39":0.09074130755374117,"40":0.15782400245116338,"41":0.03458371427645275,"42":0.18439301002228148,"43":-0.059856821250899334,"44":0.0893387501805816,"45":-0.1622097915420153,"46":-0.14414032431503554,"47":0.13595468490365958,"48":-0.04474394149104011,"49":-0.1903921066143194,"50":0.009128164875987721,"51":-0.1216183834996777,"52":0.0002431746545415482,"53":0.08710069860020535,"54":0.07977669881168026,"55":0.048693919030406055,"56":0.1552304686440411,"57":0.1523667765544654,"58":-0.06820788984613049,"59":-0.09803806682435016,"60":-0.11921818862148123,"61":-0.21746645829372785,"62":0.030159529153955197,"63":-0.10790281213698022,"64":0.03676284845119922,"65":-0.21535830196975358,"66":-0.13539135997632643,"67":0.09044809172690405,"68":0.05265625019692393,"69":-0.01596143671832824,"70":0.12156574923868461,"71":-0.23109351623963403,"72":0.030892330413322743,"73":-0.04219690516996381,"74":0.032130603509278474}},{"sx":5,"sy":5,"depth":3,"w":{"0":0.1382042832529408,"1":-0.03236377475153374,"2":0.151141711189263,"3":-0.023998874899154105,"4":0.12078474485249596,"5":0.034266428912926104,"6":0.17003129443070572,"7":0.2581061366701595,"8":0.14538954805966564,"9":0.3735614729130324,"10":0.0678439779773541,"11":0.09495044466562669,"12":0.001933553429757943,"13":0.16244041634707912,"14":0.15474788369944198,"15":0.14902388692970067,"16":0.23622931715801418,"17":0.10855614329655312,"18":0.17348978975820448,"19":0.0608870361006453,"20":0.09015068947224208,"21":-0.09307483478041065,"22":0.20048904201119155,"23":-0.1037722209113934,"24":0.1368794706980129,"25":0.09517853482025071,"26":0.0732617591828225,"27":0.06803464904141239,"28":-0.007925436072171454,"29":-0.01162650708050556,"30":0.10188347267967564,"31":0.1305394773029781,"32":-0.14573899695684617,"33":0.010641682990389936,"34":-0.051749355682286995,"35":-0.18485048199054335,"36":0.08822925189867054,"37":-0.005442204567249715,"38":0.07630676531933867,"39":0.1319942951787858,"40":0.24576859670246326,"41":-0.11300445924766553,"42":0.2703956796358181,"43":0.1953839209185839,"44":0.1264039891665818,"45":-0.07675998042182618,"46":-0.0692107241065364,"47":0.217924084389688,"48":0.22955263318226396,"49":0.09484257399164019,"50":0.08702052207427098,"51":0.1864234857563219,"52":0.07351933627663558,"53":-0.004817951214323971,"54":0.06103860265281439,"55":-0.041802601306308265,"56":0.002352780605832127,"57":0.2209680988230836,"58":-0.17824240569866182,"59":-0.1525766351374383,"60":0.029955010702540773,"61":0.12076932579871584,"62":0.04690664898304867,"63":0.16786314036216676,"64":-0.17748088498688566,"65":0.05793804025614471,"66":0.12208286034245398,"67":0.038687754090828745,"68":0.05632277039141664,"69":0.0712747130771772,"70":-0.10509167952363163,"71":0.040021930805610395,"72":0.04419272104586183,"73":-0.07422854108811054,"74":-0.008522166359157783}},{"sx":5,"sy":5,"depth":3,"w":{"0":0.13098185023568898,"1":-0.144244796507692,"2":0.012705362982087472,"3":0.26440290923987514,"4":0.057060061317784655,"5":-0.22637741423873428,"6":0.07725802913019161,"7":0.08744337453070261,"8":-0.34203776639476785,"9":0.16694737666370335,"10":0.06032482266191239,"11":-0.042103512371563644,"12":0.18562098560446297,"13":-0.14811668266224953,"14":-0.03353352667513196,"15":0.046253297465235904,"16":0.029129589820601102,"17":-0.1615988874702584,"18":0.18844541645673749,"19":-0.07029671931636182,"20":-0.12199695170873512,"21":-0.0956954575135984,"22":-0.12255321461142424,"23":-0.19030491665226065,"24":0.23349300566187095,"25":0.06674288054044479,"26":-0.32249306118137944,"27":0.04085683385401536,"28":0.11441401823939394,"29":0.07532489370827769,"30":0.20362233400898894,"31":-0.04249729335702341,"32":-0.11621540036039518,"33":-0.06641081313287359,"34":-0.027706132010484736,"35":-0.2602974831908632,"36":0.013406688116176738,"37":0.05927344411741772,"38":0.01755114512068067,"39":0.1900072082310914,"40":-0.24403879600299688,"41":-0.20707284444954618,"42":0.2529088753073342,"43":0.03453057699585754,"44":-0.0652802745264728,"45":0.13356155484037777,"46":-0.011716228652722736,"47":-0.17910434454713584,"48":0.08877789588244216,"49":-0.1548090573684612,"50":0.03778780755442894,"51":0.06996622674262203,"52":0.2088117788231847,"53":-0.17978874837879533,"54":-0.08217905841684613,"55":0.022564725934481885,"56":-0.2387347605475339,"57":0.08259122141987012,"58":0.2583111923038202,"59":-0.007579488024501552,"60":0.30168937402709084,"61":-0.07252051059599265,"62":-0.1410789648637809,"63":-0.10533820768961506,"64":-0.06606909839528517,"65":-0.17125746488641183,"66":0.2947459692917916,"67":-0.1104300391980924,"68":-0.22958855074555323,"69":-0.002747088388761045,"70":0.06788870941522483,"71":-0.1836873913809496,"72":0.17492877484998418,"73":0.045633007480545176,"74":0.03377097961452753}},{"sx":5,"sy":5,"depth":3,"w":{"0":-0.23828596137502775,"1":0.009970349228290591,"2":-0.0293222500066749,"3":0.11709172402386304,"4":0.2724345621541668,"5":-0.038933648905999936,"6":-0.11355736160435963,"7":-0.11814006993471776,"8":0.10375932354189765,"9":-0.08722734387240787,"10":0.07834676430764251,"11":-0.014094942256418577,"12":-0.007035846381530199,"13":0.04650019036286107,"14":0.04018617226301678,"15":0.06629652104795271,"16":0.003994064669677874,"17":0.15125285413546655,"18":-0.11874258871218632,"19":0.05176849504166771,"20":-0.14818418329782504,"21":-0.017371899542780442,"22":0.05050826127158745,"23":0.04478070184498588,"24":0.00952304044605477,"25":-0.0568843129964825,"26":-0.004962084458395694,"27":0.036390630647063806,"28":0.07302306574716087,"29":0.1668067466941974,"30":0.012493065603088025,"31":-0.05363549194541691,"32":0.043796490523002246,"33":-0.07736865015030871,"34":0.07131352209013023,"35":-0.046458346660015894,"36":-0.0018933766040269734,"37":-0.03510203449892086,"38":0.24359512774689165,"39":-0.043755577750301346,"40":-0.09274359763758663,"41":0.17979674555223926,"42":0.04694401466878653,"43":0.046034091569307024,"44":0.03705885760046577,"45":-0.2282979521760598,"46":-0.010433931667193221,"47":0.025588201501733465,"48":0.15881799696642443,"49":-0.16910491621043158,"50":0.04214293437731101,"51":0.03745364543438403,"52":-0.08983853791480581,"53":-0.17788416481728908,"54":-0.006116333593001998,"55":-0.025855055965603634,"56":0.11183539379046871,"57":-0.09627299163621057,"58":-0.07121028290346225,"59":-0.0779063346245602,"60":0.056189402134621515,"61":-0.07135720811422987,"62":0.15233440633130368,"63":-0.16819217463479869,"64":-0.04537730278286392,"65":0.2781339492571117,"66":-0.061052518409538126,"67":0.17919566312683546,"68":-0.1761057470324265,"69":-0.007162286397424268,"70":0.03968463878327949,"71":-0.16498963016615334,"72":0.1206230982195925,"73":-0.21385278186743423,"74":0.15740376044099422}},{"sx":5,"sy":5,"depth":3,"w":{"0":-0.18042254707304867,"1":-0.20160615491640171,"2":-0.12719760144401362,"3":-0.04516535831282272,"4":-0.17051012667062865,"5":-0.18119252008968814,"6":-0.04056939086422159,"7":0.03776119252883014,"8":-0.09073378363202435,"9":0.026557657873616983,"10":0.13736598738250463,"11":-0.05368651262376143,"12":0.13846151857955386,"13":0.18614006738698824,"14":-0.05793764440225706,"15":-0.06022110625224585,"16":-0.06324431394473803,"17":0.01507326169840218,"18":-0.04372835890152828,"19":-0.039473302696545295,"20":0.10477507692899572,"21":-0.19328364942058415,"22":0.12392668277889664,"23":0.0725099286690103,"24":0.14634662883560323,"25":0.10657746775062034,"26":0.1488761926822532,"27":-0.05625937118859944,"28":-0.0554419435920263,"29":0.1683893797989978,"30":-0.09346138756400305,"31":-0.15493606311848196,"32":-0.13296365489946788,"33":-0.17878633748814066,"34":0.0036344215669555707,"35":-0.005435855537676721,"36":-0.24075928584342388,"37":0.0650899201460844,"38":0.09280525328571637,"39":-0.028442440556063407,"40":-0.12832956075332547,"41":0.06450536315358324,"42":0.12131866843075328,"43":0.1960547371368718,"44":-0.03604064586978398,"45":-0.1416038305178919,"46":-0.17607902694873118,"47":0.10858301030810524,"48":-0.2665324119955125,"49":0.020479807290478495,"50":0.20291910131941013,"51":-0.14335807898404382,"52":0.022735525625542034,"53":0.11994778370911227,"54":-0.056408661910053226,"55":0.05170590503625161,"56":-0.17389629814373767,"57":0.1705110859286844,"58":0.07526873988117265,"59":-0.03027469290268864,"60":-0.16365676329909823,"61":-0.07559303858155424,"62":0.02447492584035308,"63":-0.15722550335786978,"64":0.12310686730032384,"65":0.06682276321155381,"66":-0.0815644357924521,"67":0.062109374456036294,"68":-0.21807044093582093,"69":-0.0625358301366919,"70":-0.1449298175157421,"71":-0.019016716856416052,"72":-0.1622119233662563,"73":-0.08195335762134032,"74":0.17533460337412188}},{"sx":5,"sy":5,"depth":3,"w":{"0":0.0768277509495848,"1":-0.09610912835669654,"2":-0.11178442169941791,"3":0.00379075670086929,"4":-0.11512613563311626,"5":0.06652422444962885,"6":-0.1609163415147005,"7":0.08294442531441357,"8":0.15980737942005588,"9":-0.13251675472068908,"10":-0.021489496162123527,"11":-0.11021797461712106,"12":-0.13400473415195904,"13":0.07860113146191114,"14":-0.10127506529462434,"15":0.01757388618858583,"16":-0.06386370566092227,"17":0.04164117559411301,"18":-0.12320975491410174,"19":0.09023640975536243,"20":-0.061806094574262685,"21":-0.12677658879992326,"22":-0.07166678218426875,"23":0.16021743394687182,"24":-0.31972932757399297,"25":0.06874612508127373,"26":0.13932170682177125,"27":-0.05304334570475226,"28":-0.12441136518498523,"29":0.028000848965686668,"30":-0.2950488604820352,"31":0.17118084572658412,"32":0.009564012325873214,"33":0.043439748139741094,"34":0.06023100020445349,"35":-0.1918415059219852,"36":-0.3199563699577919,"37":-0.007205466191785454,"38":-0.029822228849374365,"39":-0.0977777409462817,"40":0.04294548605484268,"41":0.20669286946585805,"42":-0.101646508942631,"43":-0.06278435747006458,"44":0.11623637268278142,"45":0.011264686666962932,"46":-0.03682294483654267,"47":-0.004861576779123923,"48":0.0006979320642529563,"49":0.13830824982542117,"50":0.06600505689045068,"51":0.08549966252423015,"52":0.022259009943693377,"53":0.19291247543933723,"54":-0.13268668945888534,"55":-0.1918024964088051,"56":-0.05164948242921776,"57":-0.03841574564870713,"58":0.04086706127092531,"59":0.13000829827990007,"60":-0.0949952611509214,"61":-0.022251277192048377,"62":-0.0006578919079020598,"63":-0.07758124891981209,"64":0.0680894093716175,"65":0.055221694470576996,"66":-0.18412778142231617,"67":0.12462931287670946,"68":-0.017079909708487287,"69":-0.01769535363672081,"70":0.012885759762988242,"71":-0.023098853271255715,"72":-0.15729349284215263,"73":0.05155590090905084,"74":0.16436908629361222}},{"sx":5,"sy":5,"depth":3,"w":{"0":-0.2124268235292934,"1":-0.012851538990114087,"2":-0.05382996463841357,"3":0.02746432845153346,"4":-0.06641424788475361,"5":-0.10623694906808637,"6":-0.0741896800536046,"7":0.03106213609930427,"8":-0.22562598717024465,"9":0.20249254896397736,"10":-0.17102679872784232,"11":-0.3476146516430691,"12":-0.1695327997664077,"13":-0.024166267459426807,"14":-0.1547054666911366,"15":0.06831657440705798,"16":0.03274684815091287,"17":-0.06300089377377613,"18":0.09189676696390037,"19":-0.0004608899992509319,"20":-0.24542426634243059,"21":0.14003932603811736,"22":-0.024172301655254184,"23":-0.2759097483907559,"24":-0.24891128716412234,"25":0.052004921228104024,"26":-0.052890764230948434,"27":-0.12983177980631963,"28":0.24610278955547887,"29":-0.13488452452524335,"30":-0.24387016250747773,"31":0.2883095952102786,"32":0.007942244126787961,"33":-0.03008311555373538,"34":-0.09191876595462575,"35":-0.2194484495333125,"36":0.04181029033375495,"37":0.06375321374425275,"38":-0.0978853952536914,"39":0.16640138902171084,"40":-0.033882830091510496,"41":-0.1453955275533258,"42":0.13364616994664802,"43":0.12657481007313873,"44":-0.23988435617386075,"45":-0.07612068540156035,"46":-0.17519092606006303,"47":0.07483107972206851,"48":-0.0486071078538693,"49":0.11561746180091567,"50":-0.10020280049583198,"51":-0.0375163219203805,"52":-0.130221953486949,"53":-0.018862419409201647,"54":-0.04132418089731013,"55":0.02664641499651643,"56":0.007535186366068069,"57":0.14787018999804497,"58":-0.03845414487512148,"59":-0.1710474584751709,"60":-0.05891153808247788,"61":-0.019448705141370155,"62":0.08914094987966033,"63":-0.17669444871957796,"64":-0.1542743060452892,"65":0.230203160967412,"66":-0.1368706359713817,"67":0.04607100248437081,"68":-0.17749491527221573,"69":-0.07065664996692989,"70":0.037959178510321545,"71":-0.20874278817261377,"72":-0.06865398909637623,"73":0.023657924236254506,"74":-0.1754298451952022}},{"sx":5,"sy":5,"depth":3,"w":{"0":-0.05790483873938022,"1":-0.004016908220550822,"2":-0.0032652790392630015,"3":-0.2725055324152774,"4":-0.11725063385647826,"5":-0.13558290772529094,"6":0.03170850580266756,"7":-0.2184332679673413,"8":-0.11226729588204605,"9":-0.16681983459967983,"10":-0.22828099943676364,"11":0.0857166915308602,"12":-0.15509555228988106,"13":-0.0873079184909627,"14":0.25715784754407683,"15":0.09683992042021915,"16":0.08177794035204176,"17":-0.15660236629384094,"18":-0.00025064046116626533,"19":-0.24166810568533934,"20":-0.17929119848993214,"21":-0.062068391229225056,"22":-0.21620851255854553,"23":-0.005063841149994319,"24":0.13846097857878423,"25":-0.33429519884306336,"26":0.08808704143006418,"27":-0.15028967766916512,"28":0.005454778113073155,"29":-0.02350871329407584,"30":0.008046250051386487,"31":-0.07286011698190491,"32":-0.13710204876893892,"33":0.05453607692534635,"34":0.14598201955702492,"35":-0.13660268042614826,"36":-0.1296426790471727,"37":-0.13147934374283363,"38":0.06755606567187165,"39":-0.16456107036888684,"40":-0.040896565348308045,"41":0.17866078179268957,"42":-0.06697593544244301,"43":-0.0511970500367886,"44":-0.09089130375587304,"45":-0.2190585840359775,"46":0.05805921485358124,"47":-0.16982166096796783,"48":0.07869836771864391,"49":0.00206175565229956,"50":-0.12109293597546524,"51":0.15415664938330778,"52":-0.1353194969914389,"53":-0.07310859561284205,"54":0.0587822630499373,"55":-0.20226380117479495,"56":-0.051267233551892874,"57":-0.25682072879649465,"58":0.12568067290844043,"59":-0.2544166337099911,"60":-0.014130121737623066,"61":0.055349697139970955,"62":0.024287334389299607,"63":-0.07275723709301732,"64":0.037094807876139724,"65":-0.17021143906757852,"66":-0.2012488432799979,"67":-0.09377083254191121,"68":-0.053526728962538,"69":0.02992831315742494,"70":-0.039483616198105954,"71":-0.102603512968174,"72":-0.15586426013485433,"73":-0.21161328939038335,"74":-0.18254856732325644}},{"sx":5,"sy":5,"depth":3,"w":{"0":0.027227604565427777,"1":-0.12221460879861902,"2":0.10999402259747784,"3":-0.003331924543765176,"4":-0.02878893590468849,"5":-0.004391049658175578,"6":-0.028649957857130745,"7":0.040145871455235675,"8":0.07614788994434898,"9":0.2095699764801473,"10":0.13061809724483345,"11":0.08653817449052838,"12":0.027441795688077197,"13":-0.16037853678567862,"14":0.15567708771630426,"15":-0.23463958564030532,"16":-0.10422582725733259,"17":0.17468088607356974,"18":-0.11147923934254153,"19":-0.09649068472499653,"20":0.018866148495518487,"21":0.03434199941549653,"22":0.023829512675160883,"23":-0.14799523047436194,"24":0.00962233184853854,"25":-0.09618387655731683,"26":-0.059164137432597304,"27":0.037259037780760396,"28":0.054793323172360506,"29":-0.0017382245035759913,"30":-0.14501430577413912,"31":0.01022819101238406,"32":0.059221268152779255,"33":-0.10148755559119278,"34":-0.014250588927117846,"35":0.0310832243590072,"36":-0.10709630981189654,"37":-0.11700109964054045,"38":0.2312023381899192,"39":-0.1260765958572303,"40":-0.04172170767985353,"41":0.08177771293016159,"42":-0.06342048996789729,"43":0.23719072406026456,"44":0.09195560818467892,"45":-0.14416278532368093,"46":0.1956730602624699,"47":0.05152811530425662,"48":-0.18641472936304396,"49":-0.07427816521854566,"50":0.26934442604244274,"51":-0.024993605901209567,"52":0.09088698514143838,"53":0.07828743385228006,"54":0.05394078409765969,"55":0.00018663566225959449,"56":-0.012100268945733184,"57":-0.04834501172302537,"58":0.015303692479389744,"59":-0.06989910007965275,"60":-0.016511360950337513,"61":-0.018144043548111104,"62":0.15553798192629428,"63":-0.0401281386119424,"64":-0.1014715964939408,"65":0.02364177090868259,"66":-0.14282062795767114,"67":-0.06280182325324413,"68":0.25012042717036453,"69":-0.22486145057787496,"70":-0.33364919345961563,"71":0.2089349427257202,"72":-0.04863129056063191,"73":0.06234896550688942,"74":0.10774080188915033}},{"sx":5,"sy":5,"depth":3,"w":{"0":0.2002491144243073,"1":0.15866115029411693,"2":0.009173549705958314,"3":-0.002520888490872359,"4":-0.09576179237630761,"5":0.025226109713719025,"6":0.18772677443627342,"7":-0.07981028862099637,"8":-0.125075163002115,"9":0.15347987075883823,"10":0.02961000436994856,"11":0.0553214084328302,"12":0.08278729665213107,"13":-0.0369786194601657,"14":-0.10184215469268203,"15":0.13111461148826728,"16":0.1411689313717273,"17":0.046349476650700105,"18":0.2453125204315628,"19":0.2949879203669423,"20":-0.06498374171614237,"21":0.05257532890814028,"22":0.00436354241580835,"23":-0.15623932188339593,"24":-0.021631716785997904,"25":-0.0993026555902624,"26":0.047545268214755826,"27":0.27074476624943894,"28":0.13059691375324095,"29":0.04677708900729396,"30":0.054301493539368965,"31":0.07523514642397419,"32":-0.004702320342238673,"33":-0.04832144007189977,"34":0.013996483893957676,"35":-0.2192357784368388,"36":0.11121346683284472,"37":-0.13989596823589265,"38":-0.05893017358122423,"39":0.25278923065114167,"40":-0.011428572340489725,"41":-0.19571167071320622,"42":0.0432825913866811,"43":-0.07031688351898432,"44":0.16834118690757852,"45":0.14239135930008645,"46":0.02480462100944486,"47":-0.2529573697128343,"48":-0.036289756446649946,"49":-0.2906319581924461,"50":-0.03876928933685677,"51":0.14319776835572734,"52":-0.004583935174333356,"53":0.09978356381849854,"54":0.1313214681993334,"55":0.12427883613526598,"56":0.009718759648788933,"57":-0.0339893552066059,"58":-0.02424280970601986,"59":0.13034840182934004,"60":0.11074000728684942,"61":0.29855813925479363,"62":0.0726965801955482,"63":0.2602168419313419,"64":0.013827236630736142,"65":-0.017919921316051933,"66":0.03074928403415754,"67":0.13853622646525604,"68":-0.1837695301808139,"69":-0.04763626008436379,"70":-0.05585466942042692,"71":0.18705075471781027,"72":0.07318133940984343,"73":-0.006506459466622288,"74":-0.07259938745299892}},{"sx":5,"sy":5,"depth":3,"w":{"0":0.10713559274133916,"1":-0.1300570717927172,"2":0.19553661672050812,"3":0.0033534523459123906,"4":0.16137440786620452,"5":0.0055600024723902325,"6":-0.08252543910556863,"7":0.06617743912243455,"8":0.18364732085550564,"9":-0.06033556170342793,"10":-0.066693980944158,"11":-0.17386229340664963,"12":-0.0469041246086276,"13":0.06023886181133042,"14":0.14108414010471157,"15":-0.10724746660601948,"16":0.027919648090495502,"17":-0.08463841687842105,"18":-0.03267850396137873,"19":0.005038885814509221,"20":0.28084164810880824,"21":-0.04652773013737482,"22":-0.010197040439719904,"23":0.1325483254581318,"24":-0.20926725146452538,"25":-0.07330486275353398,"26":0.08110690481750492,"27":-0.15124782515873056,"28":-0.18602861799032347,"29":0.011311600009124498,"30":-0.03916853112606831,"31":-0.17331960934624843,"32":0.06145151070524235,"33":-0.12730661005549657,"34":-0.04312805400322341,"35":0.10094496854034275,"36":-0.08333005954259465,"37":-0.001234699447482013,"38":0.0009990277028061791,"39":-0.0013254161743295797,"40":-0.06643324872679922,"41":0.16963394729791562,"42":0.02390485316849798,"43":-0.08500916586336976,"44":0.011328192543089113,"45":0.0018249654921962905,"46":0.08392167542099792,"47":-0.03636444009648972,"48":0.23243419748327912,"49":0.14247321344879554,"50":0.14827407631030978,"51":-0.044458707631405275,"52":-0.2142423758826235,"53":-0.05257050118332125,"54":0.02537981315633863,"55":-0.0792689214989771,"56":0.25754624632141254,"57":0.10057256409623186,"58":-0.045059703934880346,"59":0.15215053361945238,"60":0.07843115210127655,"61":-0.019742605721959065,"62":-0.1415113873994072,"63":0.17499195448722066,"64":-0.11646783285409433,"65":0.06853923128609438,"66":0.14665364554051652,"67":-0.0898083095047106,"68":0.04542600985860829,"69":0.008187035405388371,"70":-0.012811876036842971,"71":0.06302683602745038,"72":0.06870011997001507,"73":-0.11161249279532118,"74":-0.0026059207280205187}}],"biases":{"sx":1,"sy":1,"depth":16,"w":{"0":0.08928586026743326,"1":0.08344166175369055,"2":0.08440867863914246,"3":0.10195716526992388,"4":0.11250833966117897,"5":0.09359532142577463,"6":0.12034920329707156,"7":0.08405208951351527,"8":0.049335516386052256,"9":0.0981969926026161,"10":0.12993479539079072,"11":0.07168545688804409,"12":0.09969984016235399,"13":0.12294631471328225,"14":0.05556451004317059,"15":0.07002042983393787}}},{"out_depth":16,"out_sx":32,"out_sy":64,"layer_type":"relu"},{"sx":2,"sy":2,"stride":2,"in_depth":16,"out_depth":16,"out_sx":16,"out_sy":32,"layer_type":"pool","pad":0},{"sx":5,"sy":5,"stride":1,"in_depth":16,"out_depth":20,"out_sx":16,"out_sy":32,"layer_type":"conv","l1_decay_mul":0,"l2_decay_mul":1,"pad":2,"filters":[{"sx":5,"sy":5,"depth":16,"w":{"0":-0.1986920266152914,"1":0.033793020806365884,"2":-0.11518843338685233,"3":-0.11240059891504478,"4":0.022785993019194716,"5":-0.11004072341385777,"6":0.10164599694811756,"7":-0.05090995933956634,"8":0.035099073526386894,"9":-0.11047725647362312,"10":0.025684003181458963,"11":-0.14950148859293824,"12":-0.12612523864043365,"13":0.0004094549930173559,"14":0.04213099835254519,"15":0.0773632671096562,"16":-0.02978669900358846,"17":0.01949338729018002,"18":-0.10314424423122721,"19":-0.06402085392048551,"20":-0.012419191177889609,"21":-0.09619865061789756,"22":0.06404267671670082,"23":-0.050455455495778435,"24":0.025511548136577605,"25":-0.11923101243371567,"26":-0.024162191907607804,"27":-0.1017083403122051,"28":-0.06981811647860348,"29":-0.047271620316271884,"30":-0.029154946917132794,"31":0.07439206104365377,"32":0.07603727889389517,"33":-0.027300160038263483,"34":0.12324227104667207,"35":0.08865024140270379,"36":0.013898669090068493,"37":-0.08010939800512062,"38":-0.04944616512183641,"39":0.09260676811964101,"40":-0.023022841709723386,"41":-0.026471252659195206,"42":-0.061228571940544596,"43":-0.008346824075459777,"44":-0.02953937811377211,"45":-0.13575220473629399,"46":0.052581518886688786,"47":-0.04437070761814761,"48":0.08977428263383916,"49":0.10360758629062593,"50":0.13865458683082021,"51":0.23653256996578664,"52":0.08046093498918909,"53":0.0051501740274214666,"54":-0.05601141315464163,"55":0.1550160776195713,"56":-0.06911809669548387,"57":-0.025180987785515203,"58":-0.11349389001852064,"59":0.014359230802722042,"60":0.09860522734309067,"61":-0.20343439337894897,"62":0.007613035207117263,"63":-0.062442884033054445,"64":0.12084195290310612,"65":0.08444964879537349,"66":-0.023405627810957685,"67":0.06370769365730503,"68":-0.06134048352122884,"69":-0.00006414186048992344,"70":0.018341369660399558,"71":0.12991803262856771,"72":-0.09548876995865094,"73":-0.042469736925553926,"74":-0.06935135115573489,"75":0.08121247099752565,"76":-0.0061738870176706335,"77":-0.08482375518383689,"78":0.05154950390091605,"79":0.04422129820610089,"80":-0.08020012072799738,"81":-0.01740542520537734,"82":-0.031212708577846457,"83":-0.03546888182106186,"84":0.08440535576194287,"85":-0.06684523245048715,"86":0.003249681261907488,"87":-0.09281149730928613,"88":0.0066154594431181764,"89":-0.03540436272863733,"90":0.04308751060784453,"91":-0.09893576802338441,"92":-0.13795116522497755,"93":0.055018438888017454,"94":0.006073385501809773,"95":-0.010658572845440802,"96":0.03637469258637317,"97":0.05855887177474346,"98":-0.020258479768043722,"99":-0.03409419989347755,"100":-0.09274781894625113,"101":0.011161336496474862,"102":-0.08993676776529273,"103":-0.033681905732579336,"104":0.0378049238863261,"105":-0.040409140507238456,"106":0.011307205894456027,"107":-0.014885656857999835,"108":-0.0843937032665858,"109":0.017879072591304012,"110":-0.040378526433303585,"111":0.01881494202351396,"112":0.13227150747396463,"113":-0.029756176115961458,"114":-0.0037669451892640114,"115":0.07294555906893337,"116":0.03181695644148447,"117":0.023277896067765133,"118":-0.0280762314014726,"119":0.08589045694476602,"120":-0.08804262689603155,"121":0.008273210905684905,"122":-0.11417148649390603,"123":0.1124768334622067,"124":0.04126500494859351,"125":-0.15516780318931572,"126":0.07177624074915087,"127":-0.04619532305398235,"128":-0.059169370806385374,"129":-0.0004269113415904984,"130":0.08067713737715704,"131":0.03808212251047121,"132":0.1140631639713406,"133":-0.0680594055356416,"134":0.017392822721810853,"135":0.1541374584557736,"136":-0.1010172566191207,"137":-0.14131238492690523,"138":-0.1450939446228576,"139":0.07084982739678587,"140":-0.024838331076385337,"141":-0.14656435142942567,"142":-0.03789150951189374,"143":-0.021926489029237824,"144":0.03936776060842756,"145":-0.00603348862264331,"146":0.09625842640474157,"147":0.062286978553930825,"148":-0.055765428515151746,"149":0.02720623562937572,"150":-0.04038580507716651,"151":0.12304986007895659,"152":-0.027674132839458177,"153":0.024313214323922878,"154":-0.11787597103819462,"155":0.19832800760185132,"156":-0.030698623753056414,"157":-0.11493739854798175,"158":0.11897010375244246,"159":-0.054664289046080894,"160":-0.05907045533810981,"161":-0.09402051164711926,"162":-0.017191909296433647,"163":-0.07788886554095258,"164":0.06283823407380482,"165":-0.0117459514195369,"166":0.000536975195996975,"167":-0.027241624260478436,"168":0.014460156100237806,"169":-0.13161088083754666,"170":-0.0340412177081078,"171":-0.02215932022394087,"172":-0.12788185041075786,"173":-0.06952680240290149,"174":0.06399458116638687,"175":-0.08222747337757713,"176":0.014732124937076648,"177":-0.012098861739366038,"178":-0.011007930947029782,"179":-0.11043486355156865,"180":-0.04093868609829961,"181":0.03700281492785015,"182":-0.0019023922808686375,"183":0.07703000272831836,"184":0.018881617296455176,"185":-0.0004059928974291553,"186":-0.0076546895359050375,"187":0.028319196625773004,"188":-0.13221434674928922,"189":-0.020585980934736094,"190":0.13476078820270168,"191":0.07023396057037729,"192":0.11155383499854547,"193":0.07106129698248613,"194":0.0744704727261164,"195":0.003877254337801798,"196":0.07382626160498927,"197":-0.2110508527405373,"198":0.03593954356137232,"199":0.10107438658373435,"200":-0.1383840464372139,"201":-0.0604825036804243,"202":-0.05404268251183938,"203":0.1382860532822191,"204":0.06435261289992344,"205":-0.08797139910345197,"206":0.12517290571386444,"207":-0.0620253641312581,"208":0.06871351232940316,"209":-0.01221576197117184,"210":0.04831821923568891,"211":0.03700670906891386,"212":-0.09092616406737644,"213":-0.0212278630418481,"214":-0.014020465603633217,"215":0.1981797111874154,"216":-0.0915964163764263,"217":-0.05780606100101063,"218":-0.08691492198466598,"219":0.040924278763593315,"220":0.03136753884068552,"221":-0.017970451594993775,"222":0.07810328944133936,"223":-0.08412174441440265,"224":0.10337932746452214,"225":-0.10660581758887215,"226":0.11630531340299814,"227":0.05725514509283056,"228":0.04711330989279171,"229":0.0024299232377871273,"230":-0.000023929683519117832,"231":0.15205594333787714,"232":-0.011007062588330403,"233":0.08452147414330335,"234":-0.15988116502736277,"235":0.025754803842459994,"236":0.036779183850206947,"237":-0.01709253906536892,"238":0.08033910419711446,"239":0.07339713177861619,"240":-0.00015809681521305498,"241":-0.022999403431509396,"242":-0.07908524546396098,"243":0.022996339907710103,"244":-0.026384727639195762,"245":-0.0945924841887074,"246":0.04611739452175979,"247":0.002702227097474066,"248":-0.039226943002318285,"249":-0.018797862538328252,"250":-0.040588108406116215,"251":0.05913820559602999,"252":-0.08860143634888563,"253":-0.03951150255047379,"254":-0.0022543112966351376,"255":-0.061826712123889724,"256":-0.008470023420452596,"257":0.026291421714215446,"258":0.044465218994978184,"259":0.004420512907644181,"260":0.060481246503661754,"261":0.06636730260316835,"262":-0.0569042579850016,"263":-0.03767362733204131,"264":0.026657953689366635,"265":0.005845900072991929,"266":-0.05300664015074193,"267":0.02246548114227282,"268":-0.052824994176419934,"269":0.024841500559036632,"270":0.10022683932829705,"271":-0.006819971684076102,"272":0.1341019262189641,"273":0.04871796073466755,"274":0.01903840085681536,"275":-0.024758683795141248,"276":-0.13808904427817073,"277":-0.04684477819993057,"278":-0.06706991415374776,"279":0.0220605265742448,"280":-0.013687687407032884,"281":-0.07242805937930558,"282":-0.013597648510664365,"283":0.029415765941007706,"284":-0.05088639460877799,"285":-0.04111517526607239,"286":0.0770445484137663,"287":-0.06341867700509292,"288":0.050111154395770005,"289":-0.025165408762890723,"290":0.03585719140183327,"291":0.0024538893758283536,"292":-0.005715798873664374,"293":0.01616244710374013,"294":0.015095865153866067,"295":0.06120330712980954,"296":-0.05184579293434416,"297":-0.015277369752249177,"298":0.034268266539218446,"299":-0.029162305751997096,"300":0.002014824227270619,"301":-0.01946234616512356,"302":0.059851495654364234,"303":-0.07349687822889253,"304":-0.014148924306993315,"305":-0.004071615390892702,"306":0.03295536788640669,"307":0.025655378484186416,"308":-0.009452033818796826,"309":0.021847429277563227,"310":0.05979118398437336,"311":0.10041482075149726,"312":-0.0592383066732652,"313":0.006443741064638759,"314":-0.11364269379556288,"315":-0.055811481432381536,"316":-0.015214110885368452,"317":-0.03356981407915353,"318":-0.04279537917243918,"319":0.05188147348422432,"320":-0.07597273333473771,"321":0.04328202274197792,"322":-0.0040443045038318845,"323":0.0006994774275789614,"324":-0.05808655913036439,"325":0.012016534130106804,"326":-0.011533453324527519,"327":-0.09191578414385693,"328":0.031965007883105745,"329":0.003878013698506811,"330":0.01681300245149134,"331":0.10189485255937848,"332":0.0004748957450044621,"333":0.02715992372781265,"334":-0.05261010352511802,"335":0.04443482847090184,"336":0.053492577179861896,"337":0.0932939797545995,"338":0.019962994605608353,"339":-0.015176626482750248,"340":-0.03456460379496209,"341":0.04544634065907172,"342":0.06483821465060523,"343":-0.024375637868481265,"344":0.08922725005692947,"345":0.057218711021622036,"346":-0.014029598521493398,"347":-0.06847367956879219,"348":-0.03463717812338746,"349":0.038644846085082576,"350":0.023388702050307145,"351":-0.04392153688245679,"352":-0.08972930163693556,"353":-0.04075984095408336,"354":0.12920033611866438,"355":0.07621861279561487,"356":-0.15470747258598036,"357":-0.05393340304857429,"358":0.0803869808075632,"359":0.07205349714148936,"360":-0.05847479585826258,"361":0.07634905249425088,"362":-0.08705162754038291,"363":0.016967771034696044,"364":-0.06151110545975068,"365":0.01914700646370329,"366":-0.015082800035478745,"367":-0.0419761683854421,"368":0.0015084035012211576,"369":-0.12830384090231917,"370":-0.01675992722453582,"371":-0.031086859531831018,"372":0.008447227326091244,"373":-0.06587279356649796,"374":0.024455471035939418,"375":0.1007275725027855,"376":-0.07524533587431727,"377":-0.0175609259540912,"378":0.033084187796708,"379":-0.011439162718861941,"380":-0.03637430350005816,"381":-0.12559866061209593,"382":-0.02595395887828078,"383":0.09005865372906446,"384":-0.04359276664073835,"385":-0.12553872869474508,"386":-0.06553330967765351,"387":0.010935871605433231,"388":0.003062813941733242,"389":0.004967454584105264,"390":-0.02232518071924157,"391":0.0032268305983001056,"392":-0.03157088284026083,"393":-0.06184396921519819,"394":0.05920876217671402,"395":-0.07051845720153493,"396":0.06148034681439092,"397":-0.004364241744064885,"398":0.027863077656761062,"399":-0.07904786332662816}},{"sx":5,"sy":5,"depth":16,"w":{"0":0.017471080127578822,"1":-0.014606013158890395,"2":0.08585321626943601,"3":0.1103207629882314,"4":-0.0990844022929051,"5":-0.023323761912172135,"6":0.027698123140595225,"7":0.05657315167777324,"8":-0.061921489960023154,"9":0.11235117559487157,"10":0.0490873900225725,"11":0.09695842844850314,"12":0.08317379784052754,"13":-0.03552195867176123,"14":-0.08069632176372116,"15":0.009720604012239316,"16":0.06389701194163884,"17":-0.007485279672804343,"18":-0.04339113310623164,"19":-0.0844865683840593,"20":-0.016871048268995135,"21":0.07002940954262757,"22":-0.050969303307645826,"23":0.10070509348309156,"24":0.015625814382480136,"25":0.03243303222000746,"26":0.03404833877132408,"27":0.0911288861583279,"28":0.05098500802053196,"29":0.07457034708125712,"30":-0.04797219276164581,"31":0.09966557560079657,"32":0.010885654705469011,"33":-0.07281907246129879,"34":-0.023582660649437828,"35":-0.021118678148175734,"36":0.003835728271010588,"37":0.006386470997467466,"38":0.05924430141100754,"39":-0.04813980333876981,"40":0.014283356977320647,"41":0.015401156249390844,"42":0.006505683289494851,"43":0.04169820204897035,"44":-0.0006797585380206406,"45":-0.006377879526867225,"46":0.018416609540278458,"47":0.04251547976010822,"48":-0.03126148209209512,"49":-0.07432824752010256,"50":-0.0461086185888626,"51":-0.0525820983513223,"52":0.009432964713851062,"53":-0.06291170465822278,"54":-0.0013682213687241918,"55":0.06667957725676771,"56":0.0011036648219501608,"57":-0.051279286735654475,"58":-0.03389203847247234,"59":0.04474754527848118,"60":-0.08411817808410593,"61":-0.03565817435951,"62":0.012811588534990698,"63":-0.004789394509767601,"64":0.11397316319926047,"65":-0.11989482121619144,"66":-0.029560656694852035,"67":-0.05255948123171918,"68":0.1283766676525572,"69":-0.0637303496955102,"70":0.035733911983447206,"71":0.024751377750093596,"72":-0.031811385557358685,"73":-0.12971578777604165,"74":-0.06763320598271313,"75":0.030183517805054495,"76":-0.0200308783358566,"77":-0.0885776706861819,"78":0.04346035840114678,"79":-0.06105687450944028,"80":0.001050436969616376,"81":0.005681732484200022,"82":0.038239896475893716,"83":-0.05139951794997237,"84":-0.08072634945587406,"85":0.07192450174338401,"86":-0.0639904872124033,"87":-0.05416063857557035,"88":0.0625034473788857,"89":-0.03767331349295885,"90":0.051369092390857636,"91":0.034750012116255835,"92":-0.0030676543548873317,"93":-0.024855429006817087,"94":-0.05231685766184337,"95":-0.056753985962428075,"96":-0.03663814134460104,"97":-0.0970075892619586,"98":0.11098804217354072,"99":0.07667996820830456,"100":-0.1284367288332902,"101":0.07481156648471399,"102":-0.09745890788340557,"103":-0.015388631502684024,"104":0.09884241474931801,"105":0.189901476018309,"106":-0.010626359428157104,"107":0.008291937069531546,"108":-0.07774712914253909,"109":0.024129244589485458,"110":0.040592497475663764,"111":-0.11932930405648144,"112":0.036372162413621026,"113":-0.10281791494491088,"114":0.12234034276070889,"115":-0.07128420378200791,"116":0.024586229181010392,"117":0.03644821052574835,"118":-0.006920183171451778,"119":-0.05738390736472874,"120":-0.06539907059093791,"121":-0.024466602229517055,"122":-0.10030609865929516,"123":-0.0339306476953517,"124":-0.04606891821954838,"125":-0.014073107018969737,"126":0.10704122597242516,"127":-0.06750976591040045,"128":-0.02414133431891125,"129":0.021781834051519924,"130":0.01959803932595268,"131":-0.046796149171114215,"132":0.017088985054761464,"133":0.01943722075423615,"134":0.06413538272150926,"135":0.013153208512291665,"136":-0.033746972135664355,"137":0.028005379884827895,"138":-0.1178078770078213,"139":0.036410131451679366,"140":-0.09231777694673107,"141":-0.03145966226586592,"142":0.10599064802483601,"143":0.03917942501017423,"144":0.08407912637143121,"145":-0.06827361328857638,"146":-0.011426288667972871,"147":0.020989348374000346,"148":0.03569028022595696,"149":-0.14656183079825852,"150":-0.008023536498319012,"151":0.08615105344700738,"152":-0.05547637668547407,"153":-0.0599290958488343,"154":-0.1582548280567938,"155":-0.007508067676760152,"156":0.04678835739108449,"157":-0.15668160590069893,"158":0.009722575938844288,"159":-0.10072886685636022,"160":-0.05299967229227352,"161":-0.01986803675805961,"162":0.017067812010122373,"163":0.041183820952321475,"164":-0.10838605254224647,"165":0.06445980321019172,"166":-0.18743849549156724,"167":-0.01981899319092654,"168":0.0036247631301527406,"169":-0.054449345557804875,"170":0.0716433660089918,"171":-0.039804821342065595,"172":-0.018043880800296883,"173":0.038470283820766026,"174":-0.03592255839291077,"175":0.10711395383151982,"176":-0.027408918179205044,"177":-0.08576254825315703,"178":-0.03714111576845043,"179":-0.09171565959169412,"180":-0.09989364495129492,"181":0.09627718925668448,"182":-0.018269157798773143,"183":-0.0460622602694709,"184":0.08551362555967766,"185":0.07330840250884697,"186":0.011803969340561883,"187":-0.042896393208635517,"188":-0.048473440517115746,"189":0.134795283564726,"190":-0.1628801025528304,"191":-0.08506460178726999,"192":0.04150856860909255,"193":-0.034041776154641865,"194":-0.006815791648006341,"195":-0.030400751134531286,"196":0.0334111384511634,"197":0.001496514344223585,"198":0.11291339597111777,"199":-0.06365337243668301,"200":-0.03679979456691571,"201":0.11402799815072179,"202":0.02778858077296027,"203":-0.004587043450271727,"204":-0.06273022535594866,"205":-0.023169507290981394,"206":-0.03788452774286558,"207":-0.02878505832687709,"208":0.003330175087107789,"209":0.02485755958317121,"210":-0.04684907686795695,"211":-0.06555555087510123,"212":0.12115529383203916,"213":0.00011273856694447165,"214":0.017831590450706886,"215":0.11256158231198844,"216":-0.09035791996689742,"217":-0.07258145342852973,"218":-0.11159192394670728,"219":-0.036257024912287814,"220":-0.1177527967235223,"221":-0.006062440321795029,"222":0.04158518101862245,"223":0.018231585249987754,"224":0.047742656155510446,"225":-0.03244118414241505,"226":-0.007913239621527516,"227":-0.0641600397196206,"228":0.0653363432172192,"229":-0.06261839518006611,"230":0.061692448610611364,"231":0.02703580890425004,"232":-0.03533552413872691,"233":-0.1690606946001324,"234":-0.15368664098805124,"235":0.09928165022254086,"236":-0.03667658620512467,"237":-0.06679201066866106,"238":0.0072052293474223214,"239":-0.03489689546041818,"240":-0.05253244132173591,"241":-0.015586694026605709,"242":-0.06305658189024917,"243":0.06259526352551352,"244":-0.10109455311364503,"245":0.015642090487259938,"246":-0.026855066609120376,"247":-0.09541497313974075,"248":0.07476406546563762,"249":0.015658312622722013,"250":0.17585220234944499,"251":0.0024026400746359616,"252":0.01732806175802263,"253":0.003363005539947554,"254":-0.10571855597298069,"255":0.06971496206520042,"256":0.01537644804555196,"257":-0.14273315030306394,"258":0.021418256254648257,"259":0.08333708631790043,"260":0.023285692524801418,"261":0.02427739398316341,"262":-0.00849218448422876,"263":-0.05722771163958839,"264":-0.009792413298897542,"265":0.14903564389654148,"266":0.04120795647074164,"267":0.07059251332729992,"268":-0.0063884661878338715,"269":0.12567517683516868,"270":-0.11184629773535565,"271":0.05132770425108482,"272":0.01933531451815275,"273":-0.18519825129062553,"274":0.018472624270463495,"275":0.009446927787869479,"276":-0.03129562730976843,"277":0.03351970474477288,"278":0.09083558139484309,"279":0.04420454502535977,"280":-0.007569356489573532,"281":0.05128953797100365,"282":-0.014802571672120157,"283":-0.030532186383928954,"284":-0.07503604814566378,"285":0.017449375359359726,"286":0.04571220791778669,"287":-0.11874668957665344,"288":0.053050245893699395,"289":0.05310584615764532,"290":-0.010461757415139437,"291":0.041201682259777286,"292":0.12837521628264373,"293":-0.18697440097270956,"294":0.044548569589316155,"295":0.03350879142824311,"296":-0.030537531783800965,"297":-0.052168351196855416,"298":-0.03368433736523442,"299":-0.033199994416863506,"300":-0.01657681399017654,"301":-0.001795431146408458,"302":0.014871283955199049,"303":0.057074060965827525,"304":0.04609793377662112,"305":-0.012229908691671242,"306":0.04909287303796324,"307":-0.059452302035292955,"308":0.08104344834763907,"309":-0.09661083970610528,"310":-0.035794158632743815,"311":0.021275413257652337,"312":0.02807919460342284,"313":-0.07202904959849778,"314":0.0038837619913690276,"315":0.033442066752613374,"316":-0.13251577396043165,"317":-0.12835268144793088,"318":0.06036625331952265,"319":-0.059622008304425086,"320":0.07070092152652667,"321":0.01815710186372869,"322":-0.02627611774141141,"323":-0.052737495582931795,"324":-0.11915085785325057,"325":-0.049839067117654255,"326":-0.07835765817580494,"327":-0.08315149869807885,"328":0.0010794011539662146,"329":0.1238157317350274,"330":0.07624138870350695,"331":-0.04789816061571856,"332":0.0567670691503126,"333":0.048891507238749875,"334":-0.06626081472626333,"335":0.05585076683492927,"336":-0.005845364013819188,"337":-0.05224802663006692,"338":-0.03070444701049545,"339":0.05125782503685436,"340":-0.05544699966310808,"341":0.03538252271415284,"342":0.06661450104976381,"343":-0.058959266926091394,"344":0.007693607393989058,"345":0.02800701690057937,"346":0.1052798761996745,"347":0.02312369890985474,"348":-0.029841521399826154,"349":0.0719510050556516,"350":-0.13032283118592153,"351":0.002694789261662224,"352":0.1252917098251824,"353":-0.05140014867762139,"354":-0.028423132729944397,"355":-0.06139588373210829,"356":-0.0007943599063544814,"357":0.024318698821301835,"358":0.04860439604322507,"359":0.0937641215734711,"360":0.054516083584454623,"361":-0.028292233828918784,"362":-0.07060898570384522,"363":-0.040563411479070055,"364":-0.06394198170712019,"365":0.013046708442739238,"366":0.02640304168579686,"367":-0.015113332808645595,"368":0.09135230355567642,"369":-0.03317214607278743,"370":-0.015198953605995507,"371":0.05329592258081865,"372":-0.026113933732134987,"373":-0.07721947445880654,"374":-0.013865250515051195,"375":0.1362704002812392,"376":0.002597215613789219,"377":-0.06028750095896042,"378":-0.10459095227141513,"379":-0.001100981217148921,"380":-0.030941355544064155,"381":-0.04747996567442425,"382":0.06869625264270537,"383":0.00043252277055144455,"384":0.07686183235302219,"385":-0.012074675177939333,"386":0.0038943373534451493,"387":0.011925557046430307,"388":0.11382119292605884,"389":-0.14939272219837543,"390":0.08792718167047829,"391":0.12437560300386177,"392":-0.06421302302250569,"393":-0.11177806719048505,"394":0.046258546358312384,"395":0.06784166146842711,"396":-0.07125274418495824,"397":-0.10902250566214057,"398":0.006010210530821646,"399":-0.024627270964770142}},{"sx":5,"sy":5,"depth":16,"w":{"0":0.057338092607691044,"1":-0.0038644926441687723,"2":0.010425892694832926,"3":0.08545102761021767,"4":0.05657590526030038,"5":-0.10713220481798781,"6":0.09654695482867658,"7":0.019994513888467055,"8":-0.06595032958668552,"9":-0.023476139145384673,"10":0.05154688677270473,"11":-0.07918348708126927,"12":0.062388207267000444,"13":0.006059449863675473,"14":-0.048296692341369414,"15":-0.024066332182570253,"16":0.01919268283053679,"17":0.06974535964408496,"18":-0.07317715647347661,"19":-0.0442465520512766,"20":0.07951818282106268,"21":0.05132956720614143,"22":0.031135253752835247,"23":0.05243978514748764,"24":-0.021408227064988156,"25":0.0038411304135613474,"26":0.014781890067526837,"27":-0.03991394135836408,"28":-0.013614795436014564,"29":-0.015967864491730387,"30":0.07379065954497517,"31":-0.090232905076126,"32":-0.0002390502398093965,"33":-0.10601373607183957,"34":-0.06783723768267197,"35":-0.12841670851213033,"36":0.0392764954282008,"37":-0.09902415557908947,"38":-0.0219348165129595,"39":-0.0633143088051223,"40":-0.09304871565024637,"41":-0.11833112175163861,"42":-0.07346451306121339,"43":-0.09688860810604599,"44":-0.14195124605149603,"45":0.04248058342806108,"46":0.04374684948468388,"47":0.030121175323187963,"48":-0.08923576463035486,"49":-0.029780354170540476,"50":-0.13069627067925774,"51":-0.060718328298773445,"52":0.10074476722753248,"53":-0.13163469326882327,"54":0.04686850078304247,"55":-0.014052055393982039,"56":0.003971599335566296,"57":0.033998002325350225,"58":0.008742606842251052,"59":-0.1446669354726837,"60":-0.04258361109900713,"61":-0.044833738403447496,"62":0.007905312803262796,"63":0.010515995688541006,"64":-0.041119016708233036,"65":-0.030401298563176977,"66":0.0068313419330919434,"67":-0.013140119584074551,"68":0.04583182141112252,"69":-0.13065030482922638,"70":0.09498471398946484,"71":-0.03285565221919101,"72":0.04113864352133336,"73":-0.04142163369428124,"74":0.011562950699399941,"75":-0.01662500690643427,"76":-0.008882645485577267,"77":-0.023831696732629443,"78":0.03151303082908519,"79":0.05043338473415122,"80":-0.09198748721544184,"81":-0.08569518914495891,"82":0.03233271026149688,"83":-0.03030255705001312,"84":-0.015979570653179374,"85":-0.07538170248707271,"86":0.12897555672303598,"87":0.024780160597054988,"88":0.06336252062041944,"89":0.02963060861042941,"90":-0.09764482933127151,"91":-0.02062115054131493,"92":-0.030645377740417847,"93":-0.08611689095811524,"94":0.09360597860455787,"95":0.053312368569750725,"96":-0.013085686724075948,"97":-0.1258202735064904,"98":-0.10966105218788195,"99":0.01934407923188172,"100":0.06029800190606969,"101":-0.05580129280935448,"102":0.006159028424523596,"103":0.017430348854824897,"104":0.05622859972981918,"105":-0.03692825003860344,"106":-0.01006328293421533,"107":-0.07516774721641449,"108":-0.07550629080760979,"109":-0.023747215243123513,"110":-0.048069198429479286,"111":-0.04374324359922371,"112":-0.07679998699155448,"113":-0.06779370305922196,"114":-0.15897599358526956,"115":-0.021618480392881844,"116":-0.07542049343515186,"117":-0.1507038690093637,"118":-0.016565071235742163,"119":-0.010595605918361013,"120":-0.032409435046946766,"121":-0.03344354071760149,"122":-0.0020861083037638966,"123":-0.039475618612297876,"124":-0.10200965178678192,"125":-0.037402562284518055,"126":0.11630462449094185,"127":-0.03334633826895086,"128":-0.05327195775024969,"129":-0.03326371658043249,"130":-0.07859808812126218,"131":-0.06370300729093169,"132":0.020970506044860376,"133":-0.1033535639298219,"134":0.15086201400045657,"135":0.001305729334335164,"136":-0.06665731978022005,"137":-0.09819399861933517,"138":0.07235678020039157,"139":-0.14315215380217625,"140":-0.0842585932983456,"141":0.010682450868533413,"142":0.006596713408607213,"143":-0.011743432473612075,"144":-0.08732691828243759,"145":-0.04884626546969826,"146":-0.054608119186860433,"147":-0.00383312354413821,"148":-0.007922063129906792,"149":-0.24194065570154666,"150":0.09148705436781963,"151":0.00660633598965338,"152":0.04215860949159909,"153":-0.15139237782269208,"154":-0.029084215483627482,"155":-0.1287550724267859,"156":0.011737038035094478,"157":-0.02538671931005852,"158":0.004628163782134339,"159":0.02655371499203183,"160":-0.0065799389362532455,"161":0.04241642848930113,"162":0.040020402537355906,"163":-0.03043746993070939,"164":0.05168175951562669,"165":-0.07946571603297,"166":0.1206556378790434,"167":0.14474665295713066,"168":-0.07348775965222186,"169":0.0570625558362511,"170":0.002723794945330412,"171":0.02771069720699138,"172":-0.08940715716431903,"173":-0.045716618319191375,"174":0.0403291331327591,"175":0.052467647705569394,"176":0.03496901068111462,"177":-0.0866341165239963,"178":0.018152429209563628,"179":-0.1341926792649278,"180":0.07061201991509941,"181":-0.08955469731502648,"182":0.049401357909821406,"183":0.12998244328775002,"184":0.030149819972346042,"185":-0.10339723700928173,"186":-0.0352265230330807,"187":-0.04994784156069592,"188":-0.0667670805735746,"189":0.026568724938837225,"190":0.04789572859530458,"191":0.023083493025572388,"192":0.006798580844366559,"193":0.026821140234614838,"194":-0.034983458305613196,"195":-0.0254939950084616,"196":0.018565074901372988,"197":-0.11675078407810671,"198":0.062029130602869624,"199":0.09484344486277539,"200":-0.0836515156723424,"201":-0.10573995844128257,"202":-0.15297530417643893,"203":-0.10004684010985382,"204":-0.05310379365276016,"205":0.04757387345084487,"206":-0.04174732087955237,"207":-0.024792646713189065,"208":-0.06792295748630588,"209":-0.009079789943057023,"210":-0.02064357444085898,"211":-0.11847140851004226,"212":0.03863937026242693,"213":-0.13163171869896728,"214":0.07093531690357482,"215":0.10334427513661257,"216":0.03097187905126229,"217":-0.005027438242197535,"218":-0.045267895609707544,"219":-0.14921163910690627,"220":-0.06478257929272775,"221":-0.001056468472015142,"222":0.01925156848865583,"223":0.031003433157910164,"224":-0.05693201141261565,"225":0.013640808229168938,"226":-0.040264633187535974,"227":0.06115246129575818,"228":0.04278837025569287,"229":-0.014927252762369532,"230":0.05256947811562433,"231":0.04010212285833217,"232":-0.08125899796268397,"233":-0.08589904572670595,"234":-0.01824819246730023,"235":-0.029774078627011362,"236":-0.03037486858914689,"237":0.033440301999912395,"238":0.016561512178104688,"239":-0.02355104843055759,"240":0.14983923333759722,"241":0.018078586478149025,"242":-0.030056074817426226,"243":-0.0088976861378399,"244":0.04390955136615099,"245":0.03070270681661175,"246":0.08450949312511703,"247":0.0261396614634737,"248":-0.05263180960352114,"249":-0.06604447380726268,"250":-0.14296394464846837,"251":-0.0021434045912076226,"252":-0.07519526490413941,"253":-0.12184916615830871,"254":0.03785205540280399,"255":0.01560529595338028,"256":0.05297003984759961,"257":-0.041808205571861254,"258":0.0211890413346439,"259":0.012966553072111033,"260":0.09334446009472734,"261":-0.08706412436295555,"262":0.027918212513391796,"263":0.06922577406333912,"264":-0.09762180173515009,"265":-0.006829141860886966,"266":-0.09431800091496481,"267":0.025857722093173805,"268":0.029031546032095026,"269":-0.03974599591388705,"270":0.005291622323631115,"271":-0.040152489807170275,"272":0.005248502415178903,"273":-0.09336088291580259,"274":0.030411859364598726,"275":0.014634005393191686,"276":0.04231552593925637,"277":-0.09095860572575046,"278":0.00304924236812205,"279":0.0823242735544331,"280":0.004415932892289994,"281":-0.08835214492743891,"282":-0.0414748552628647,"283":-0.023301169471937406,"284":-0.12040412332233956,"285":-0.000992525215785908,"286":0.0686022671741901,"287":0.10253186231398469,"288":-0.055879517665236016,"289":-0.12091431986925998,"290":-0.05995933481683302,"291":-0.03984163821107532,"292":0.0855150974329086,"293":-0.10863204477852338,"294":0.009317087768263963,"295":0.08920104200570293,"296":0.14521013530058627,"297":-0.025952070321112714,"298":-0.05028630053525625,"299":-0.04610837615912894,"300":-0.11240369866933987,"301":0.01648481669208381,"302":0.015492085210173603,"303":0.02575706237848153,"304":-0.0811018771937333,"305":-0.1109079557428158,"306":-0.05931157619383804,"307":0.030920757699285373,"308":0.05862621563201686,"309":0.03633217057057982,"310":0.06604695932280347,"311":-0.0035983236617374505,"312":-0.042699843928643795,"313":-0.05372037708597159,"314":0.027083851346282016,"315":-0.10323515392616336,"316":-0.049718037793621786,"317":-0.04151503163508341,"318":0.0032451888116973525,"319":0.04152060736140266,"320":0.10307393021780523,"321":-0.17866186024176672,"322":0.0535526263647153,"323":0.02567771389801769,"324":0.028873764618341555,"325":-0.09087812653346836,"326":0.019286372271311667,"327":0.15851061784553463,"328":0.035827561028501355,"329":-0.097125262879852,"330":-0.03520322146437877,"331":0.01396156261498021,"332":-0.034816850596365495,"333":-0.00015367803923472243,"334":0.016044890898438004,"335":-0.032371714727979756,"336":-0.039715811902709064,"337":-0.1970979193023576,"338":-0.02037623190942792,"339":-0.0369284011737659,"340":0.029427424668214956,"341":-0.04960372126701873,"342":0.019991526951042074,"343":0.1277709642283379,"344":-0.05383069286531901,"345":-0.031303706201015476,"346":-0.11618809460969096,"347":0.010724615916588007,"348":-0.07318452228011253,"349":-0.017470787160089474,"350":0.020467273150497636,"351":-0.11236584671555591,"352":0.030520470188143918,"353":-0.023526124566725266,"354":0.04345860837908044,"355":-0.04005453755489573,"356":0.14752541679391376,"357":-0.13633210678830068,"358":-0.0005798434109765404,"359":0.09730387881321435,"360":0.00895610990053759,"361":0.009430516020729075,"362":-0.005523859204643695,"363":-0.13121596166390598,"364":-0.10224615376840718,"365":-0.0249308441885359,"366":0.048549679608520614,"367":0.010441643513573308,"368":-0.03814426785816802,"369":-0.1000425815376923,"370":-0.0967108724366203,"371":-0.029782809263413663,"372":-0.029613438804577386,"373":-0.06655427819142919,"374":0.025557676175036778,"375":-0.0013637520202396938,"376":0.008778614560334876,"377":-0.08921815665726236,"378":-0.09873174442293708,"379":-0.11262391785565296,"380":-0.10481326510821047,"381":0.016234079071793105,"382":0.03764706751390176,"383":-0.01970015315209661,"384":0.02291093910432642,"385":-0.05062209003954675,"386":-0.106096502316448,"387":-0.03368677753607672,"388":0.03128863938425323,"389":-0.027425728656605666,"390":0.07560368407316949,"391":0.02182534574085264,"392":0.04083322249286952,"393":-0.08096316659814354,"394":-0.05464991516487644,"395":-0.04888013788541237,"396":0.022904853368328322,"397":-0.02437863624178857,"398":0.07851940284967436,"399":0.005221868612947429}},{"sx":5,"sy":5,"depth":16,"w":{"0":0.033028520495618836,"1":0.01191445265270347,"2":0.02663284349492004,"3":0.08454829605015313,"4":-0.01629272160331621,"5":-0.03204075589284177,"6":-0.002357242624764262,"7":0.033995318771548794,"8":0.017164116619408164,"9":0.006786691025935057,"10":-0.043667578930864454,"11":0.02965380621099317,"12":-0.006429916937230537,"13":0.036426424805759625,"14":-0.10142210686874166,"15":-0.0400564279613575,"16":0.10050190008259025,"17":0.06268272849757929,"18":0.10751486515516118,"19":0.0895695792946153,"20":-0.014393176453870705,"21":-0.137253678652004,"22":-0.01828277652479362,"23":0.10450879169200848,"24":-0.026322601719342843,"25":-0.0531959035982525,"26":-0.05836524652075229,"27":0.10920006827520082,"28":0.016680043250399894,"29":-0.0946779466522018,"30":-0.012261601440630609,"31":-0.048258808695716,"32":0.050680178075753785,"33":0.059982397053559414,"34":-0.14267535650697558,"35":-0.021500019925487602,"36":-0.06744055825346505,"37":-0.08667092347370114,"38":0.04217447929255326,"39":0.11479212222527095,"40":-0.06246947328658016,"41":-0.055839475845215786,"42":-0.0047085235686763795,"43":-0.005036341732166277,"44":0.09609675340562497,"45":-0.04601317969779041,"46":-0.04482367172968087,"47":-0.01792520047903452,"48":0.017515991741170432,"49":-0.04179140049693103,"50":0.00992660293372302,"51":-0.006438229040347235,"52":0.03747905333439745,"53":0.04996932141417634,"54":0.07439338801692283,"55":0.006950739098346504,"56":0.08093289994334361,"57":0.06914345646655579,"58":-0.02845795959766865,"59":-0.04922687689894912,"60":0.02976798315228966,"61":0.07492712281087643,"62":-0.07082732322199396,"63":0.061545218187409795,"64":0.06432597536220763,"65":-0.058287959455997664,"66":-0.03455244393935302,"67":0.06382314234296509,"68":0.006018080824463727,"69":-0.09064327109768705,"70":-0.0431687722615081,"71":0.03158401823550752,"72":-0.04222270517205149,"73":-0.005743767881641558,"74":0.003322546577137365,"75":-0.0753398802022531,"76":-0.045296731559002074,"77":-0.04645611840736158,"78":0.014971456098623765,"79":-0.005169078946456575,"80":0.010709935329392715,"81":0.04186898814131051,"82":-0.13961293977795186,"83":0.0254971318907945,"84":-0.12876199691755458,"85":0.13533591590351077,"86":0.02533340218455175,"87":-0.024611050176343803,"88":-0.13807720798948758,"89":0.02149444689419972,"90":-0.047991143340924663,"91":0.08413725874085129,"92":-0.023509102655598545,"93":0.1504740259235895,"94":-0.028000594696298113,"95":0.015397680148433533,"96":-0.05081277193312444,"97":0.09926386589219963,"98":0.012489906143959775,"99":0.03157966957179339,"100":0.009256106064997386,"101":0.021623698037106003,"102":-0.06470288278187632,"103":0.06983359663237529,"104":-0.08116196357655775,"105":-0.0015719392025925812,"106":-0.05226115396500663,"107":0.06324209567494446,"108":0.09256104764576882,"109":-0.03922477949363144,"110":-0.0894372313828195,"111":0.008485402573358268,"112":-0.07656783934041204,"113":-0.02771850659055287,"114":0.037372238506036326,"115":0.0289179555455726,"116":-0.11763380674587003,"117":-0.0767904137979736,"118":-0.0915492346404224,"119":-0.023940403388149574,"120":0.039703174386592315,"121":-0.052834185295953996,"122":-0.02925792160816447,"123":-0.08693857676571395,"124":-0.053330159984109456,"125":0.04250814646582512,"126":-0.04672598582044254,"127":0.0329561287333949,"128":-0.021670858620663674,"129":-0.07275231919510089,"130":-0.0269587412819807,"131":-0.06593987404199796,"132":0.062073455916818863,"133":0.034790454314234935,"134":-0.0053023985043596,"135":0.008132315209959454,"136":-0.047633556866104154,"137":-0.019965752203804987,"138":-0.0600402270352231,"139":-0.14189946888870603,"140":-0.0000721576928838178,"141":-0.016629278352914192,"142":0.08042897716816877,"143":-0.014951253463950594,"144":-0.08364409113240875,"145":-0.06446930707724617,"146":-0.07984942286141754,"147":-0.08266600692883488,"148":0.011075390311572099,"149":0.05540373330140069,"150":-0.05404333440095441,"151":-0.029818141194977,"152":-0.09301382321273022,"153":-0.08883271854176467,"154":-0.045400408688931124,"155":-0.026956482623533867,"156":0.0227215966760739,"157":0.006239788249525764,"158":-0.002972279083139282,"159":0.0053570561734317965,"160":0.01178299585622175,"161":-0.00409367611366763,"162":0.037606921994478355,"163":-0.008301850898375976,"164":-0.21974214513146095,"165":0.01770024351153391,"166":-0.0027876071383572593,"167":0.08340121232608495,"168":0.07276884744839644,"169":-0.032534104400568274,"170":-0.06727813366888089,"171":0.0690169804464382,"172":-0.011465952963315434,"173":-0.026202561012525633,"174":0.024201191718150432,"175":-0.019147186963960956,"176":0.13965843388436294,"177":-0.024601906746518035,"178":0.012797141791226322,"179":0.06241330844390121,"180":-0.023499183691709877,"181":-0.07827496178869114,"182":-0.035742858049404,"183":-0.049284245196462385,"184":-0.0443724366208224,"185":-0.039774872313691825,"186":-0.044143805428332863,"187":0.028102413310946976,"188":-0.043522095931438576,"189":-0.10484291938709392,"190":-0.08443714484330439,"191":-0.030953185609480204,"192":0.0995728019980391,"193":-0.009752432512189112,"194":0.15413832516829515,"195":0.020592318189127008,"196":-0.04343761643845132,"197":0.04585580020167476,"198":-0.05348230932553353,"199":0.06251796088664506,"200":-0.03224931945074591,"201":0.018542805981834314,"202":0.03959212157152267,"203":0.056265314152463226,"204":-0.016730650270883482,"205":-0.08813160121931021,"206":-0.05771365880047519,"207":-0.07696969680634558,"208":0.0096474845593995,"209":-0.07141008914533442,"210":0.01430561729822512,"211":-0.07610200418206359,"212":0.04607374820412177,"213":-0.0029939392831317647,"214":-0.021789253964682266,"215":0.05606969520661563,"216":0.02263997069427136,"217":0.020280459252556476,"218":-0.08090466032424437,"219":-0.034382696098069966,"220":-0.07307705530080996,"221":-0.08866090406606852,"222":0.09339298010725738,"223":-0.05596906754750601,"224":-0.01889506924986857,"225":-0.08966710078346786,"226":-0.007904427279573419,"227":-0.06484149104148389,"228":0.07394717144317169,"229":-0.02195371250711689,"230":0.01744934897127586,"231":-0.03485702826416691,"232":-0.04179999622177096,"233":0.012353770854016392,"234":0.030510598198232645,"235":-0.05089871788673435,"236":-0.012371528781182793,"237":-0.03717931500408211,"238":0.039722186727954155,"239":-0.04120607481307311,"240":0.052495948314399125,"241":0.014129081064922076,"242":0.06775948188014641,"243":0.0698782524094854,"244":0.0028644047761187128,"245":-0.02591824371287655,"246":-0.048588124953549035,"247":-0.04799794155009724,"248":-0.052592459768125426,"249":0.006755404044321863,"250":-0.058628831436470775,"251":-0.027708396134956754,"252":-0.01829682544815795,"253":-0.08563201319250414,"254":0.040100106269365575,"255":-0.04278152809224568,"256":0.060371143164662744,"257":0.04381944269155492,"258":0.07962997793732296,"259":0.020305171558760098,"260":-0.09680718570700284,"261":-0.03549551232795164,"262":-0.10458920782152574,"263":-0.00442471100795098,"264":-0.0020888199831276652,"265":-0.15285934205158955,"266":-0.07515529788245369,"267":-0.006613440629898784,"268":-0.041924675498310186,"269":-0.06043891490792336,"270":-0.010720081947085545,"271":-0.13521606718796125,"272":-0.07054962013304612,"273":-0.03190316935802588,"274":0.005567240440357842,"275":0.026579356032032337,"276":-0.0034580140034902542,"277":0.0045801715076838456,"278":0.030496151491903194,"279":0.13363598385107545,"280":-0.08228905772310308,"281":0.005613959653056549,"282":-0.06896758792043686,"283":0.08354298635193051,"284":0.028536223515402297,"285":-0.027011215311918548,"286":-0.03522257486802382,"287":-0.15190906940009363,"288":0.031776312299538666,"289":-0.06051829494820253,"290":-0.10062433033936614,"291":-0.09670437452512493,"292":-0.043411738069589166,"293":-0.01757972801572821,"294":-0.005861736824260257,"295":0.04390275235738749,"296":0.1179631272851096,"297":0.02673447898405651,"298":-0.15393520514480222,"299":0.030906998008537623,"300":-0.08773129048007082,"301":0.06189270622284316,"302":0.02483954807729913,"303":0.013753633634394144,"304":-0.031122480648667007,"305":-0.05046296120300664,"306":-0.0034038416260289985,"307":-0.017935421964393718,"308":-0.02986120628090313,"309":-0.015735393604483262,"310":-0.01361098218304188,"311":0.05139802916896494,"312":0.014308952227657736,"313":-0.05851907117893934,"314":-0.05201057741536499,"315":-0.06176609387488498,"316":-0.10353051547441613,"317":0.04579896949012289,"318":0.007939090462012815,"319":-0.039198539063181465,"320":0.06146282668867002,"321":0.023551213483734002,"322":0.04000383318624773,"323":0.07790952294588166,"324":-0.010981386534371218,"325":0.0004663533801723104,"326":-0.018530294555167283,"327":-0.02675619842552487,"328":0.002081142438106404,"329":-0.0009205203558172244,"330":0.01736822856924713,"331":0.013679457945598356,"332":0.08983347367643979,"333":-0.05677896506932616,"334":0.020567342591478535,"335":-0.059419884405893575,"336":0.0020962713448557805,"337":-0.02517855173272495,"338":-0.037420288608200326,"339":0.01907413595684328,"340":-0.06366335743125054,"341":-0.080098708120838,"342":0.057866361867612785,"343":0.008533110112648314,"344":-0.027611398226515222,"345":-0.01468360797279783,"346":-0.058014531272011595,"347":0.0023635982750194935,"348":0.02418541586009589,"349":-0.15430894055834288,"350":-0.007247122859540132,"351":-0.060019806278483794,"352":0.05476992530203721,"353":-0.02036814170325511,"354":0.11024753062749308,"355":0.0017879922947761848,"356":-0.0037909516177588452,"357":-0.0186262491564593,"358":0.07946432084070648,"359":0.05412352802223324,"360":-0.00352278257756169,"361":-0.04093480352018973,"362":0.03110936350921343,"363":-0.07781542991230686,"364":0.05676677906070609,"365":0.018070088208363148,"366":-0.08101844220277371,"367":-0.061966822121655794,"368":-0.10249714123094336,"369":0.006216081795963345,"370":-0.021987178849178772,"371":-0.04208812327809628,"372":0.04063566064863725,"373":0.07900621765048539,"374":0.018937125897160786,"375":0.030418072224457377,"376":-0.02502271227415396,"377":0.007223006207029875,"378":-0.006951657414941318,"379":0.06415952787373938,"380":-0.0021793114082311518,"381":0.05443458358332548,"382":-0.08246919236412932,"383":0.024507717754771736,"384":-0.12323271249027984,"385":-0.05091859567817133,"386":-0.01667952165000207,"387":-0.005912394434213187,"388":0.10807824973563052,"389":0.09237897908232416,"390":0.01653031080651041,"391":-0.09376304045313985,"392":-0.07927829495450507,"393":-0.06724734389278304,"394":-0.03711011755488304,"395":-0.10163074480635408,"396":-0.014141019971224937,"397":-0.039677987243548374,"398":-0.0758219414978706,"399":0.0252659131059043}},{"sx":5,"sy":5,"depth":16,"w":{"0":-0.01583147408214206,"1":-0.06472438447683221,"2":0.02777144111013042,"3":0.007183158058456503,"4":0.05862537368944501,"5":-0.08048783091978705,"6":0.007533839749308177,"7":-0.023801842198735122,"8":0.04191151923597516,"9":-0.07272207123152918,"10":-0.059593423285186395,"11":0.008333851990293236,"12":-0.022620902470718234,"13":0.05194175055166787,"14":0.009433716330960904,"15":0.007332595501456268,"16":0.012212918080294208,"17":-0.0984381824539957,"18":-0.0254137571886103,"19":-0.0765630228582379,"20":0.02940714709876324,"21":-0.011043753571817982,"22":0.05171842535146589,"23":-0.008903537354988382,"24":-0.039889878289150776,"25":-0.13377936904609294,"26":-0.014591418177526825,"27":-0.09950120124079864,"28":0.005750720445131447,"29":0.010269664780267562,"30":0.04943286023496986,"31":0.06553437484122063,"32":-0.04365768946952021,"33":-0.1699186146161254,"34":-0.2063712896177559,"35":-0.05075557823920731,"36":0.0761746203507502,"37":-0.06788712094713732,"38":0.11830274412316391,"39":-0.0067005476860939606,"40":0.02666728337060444,"41":-0.04611645139593952,"42":-0.08241811022929918,"43":0.03083297100820811,"44":-0.07995548811600928,"45":0.045798193609245176,"46":0.018184333055600493,"47":0.051090617864897984,"48":0.05292224342646915,"49":-0.0853513976089364,"50":0.033319974190610654,"51":-0.005730676493520316,"52":0.05848381314183971,"53":-0.13971671865942398,"54":0.07203447443710884,"55":0.06373271869398761,"56":-0.04016747387233941,"57":-0.09941431600388119,"58":-0.05530376920686134,"59":0.02395122650618092,"60":-0.11493866752175988,"61":-0.017216352021389228,"62":0.0334763095604994,"63":0.029906886121485086,"64":0.10099079031408728,"65":-0.0847448761037215,"66":0.04062299522584051,"67":0.04437159455746254,"68":0.09904350102385381,"69":-0.0850969222791631,"70":0.08797839375265945,"71":0.03655023910258539,"72":0.10132514080564779,"73":-0.16280697928201424,"74":-0.11517990237520587,"75":0.025814627231507292,"76":0.003797092423003948,"77":-0.08210172240188279,"78":0.011460564742439054,"79":0.03464511390553894,"80":0.008397301529850038,"81":0.020111697809384516,"82":0.061287340764571166,"83":0.10584677965646719,"84":-0.016099821656915612,"85":-0.036689937641427084,"86":0.007326088919609987,"87":0.08103687257129155,"88":0.007442813282510419,"89":0.07420065565050282,"90":-0.03753907968450241,"91":-0.06617755545161844,"92":0.0035884672085580716,"93":-0.010836517773877289,"94":-0.02916893463175845,"95":-0.0007770711191210759,"96":-0.0017169801909661343,"97":-0.09732974243300219,"98":0.07371327661806938,"99":-0.09336889634102695,"100":-0.010794941510196183,"101":0.007113919192615727,"102":0.09164470907364299,"103":-0.035687571799471504,"104":-0.0569744709702931,"105":0.05900605579165855,"106":-0.05738848321852706,"107":0.00485282204092604,"108":-0.1587672751702437,"109":0.00234466123760828,"110":0.020912480670617645,"111":0.023455710521042727,"112":-0.09516107158184664,"113":0.06175832909996812,"114":-0.031177757747453114,"115":-0.09606679656559726,"116":0.028390547723441302,"117":-0.01190595489940835,"118":0.06398320422168025,"119":-0.07749316985602114,"120":-0.007711821847201228,"121":-0.10033101239789165,"122":-0.05555194020523006,"123":-0.036832176809690066,"124":-0.21093597309077772,"125":-0.10974832733841988,"126":-0.015575926872454005,"127":0.06977687285297034,"128":-0.022298815418772426,"129":-0.03545884830344227,"130":-0.072963062998168,"131":-0.08671946521983523,"132":0.0027528141716515126,"133":-0.0445709690891667,"134":0.08782253361760675,"135":-0.036057369827225946,"136":0.06348558417946702,"137":-0.07840441730261147,"138":-0.0804785167070816,"139":-0.016700347707479503,"140":-0.09288235109247163,"141":-0.07000797948870419,"142":0.04806872482211513,"143":-0.052749751187211334,"144":0.05915835783203142,"145":0.01742837436818876,"146":0.03668389094373436,"147":0.04970460814106523,"148":-0.025656686251141876,"149":-0.05955110931542718,"150":0.013734251806251204,"151":0.12001117448362937,"152":-0.09110697596157977,"153":-0.07365715105728331,"154":-0.17929315642915458,"155":0.011602999064043945,"156":0.019910693138331156,"157":-0.015251451810567564,"158":0.05833733440153551,"159":-0.06623356500700289,"160":0.01528819018155845,"161":0.03915630205910823,"162":0.040566592613644994,"163":0.057732325795201545,"164":-0.09027352874809025,"165":-0.025834340137997434,"166":-0.035788085330830464,"167":0.03914227203314737,"168":0.13821070315059372,"169":0.05790500981960786,"170":-0.06425911091058899,"171":0.05516022377529957,"172":-0.03868692704203157,"173":0.04411341970505236,"174":-0.035803911771931964,"175":0.0012102156116485328,"176":-0.04173672430563388,"177":-0.09789989683547483,"178":-0.038585735591110136,"179":0.0024667521154553623,"180":0.05534217245071213,"181":-0.02117205387423584,"182":0.05924512752038766,"183":0.1723077373033129,"184":0.04250006186053837,"185":0.051632124915068134,"186":-0.04186328388204986,"187":-0.024084772748897858,"188":-0.06282657161010698,"189":0.02784387809863527,"190":-0.027530720847769148,"191":-0.03861165715918017,"192":-0.05259322913773468,"193":-0.026027228963272878,"194":-0.0438022580693716,"195":-0.14599490629429251,"196":0.09929907532787915,"197":-0.10116572681020101,"198":0.06723329444032618,"199":0.039480565987272766,"200":-0.017846842154231046,"201":-0.03486988705769868,"202":0.013490449475856797,"203":0.021943121805809734,"204":-0.0692517815000534,"205":-0.0838938722022735,"206":0.014314860161321247,"207":0.11400620398715022,"208":-0.07865586619296579,"209":-0.11457012745380858,"210":-0.02921072482311788,"211":-0.056334314251868786,"212":0.053766873654779876,"213":0.043748578791472426,"214":-0.01092860340548166,"215":0.019334273087430406,"216":0.022211199831224982,"217":-0.05785699387037254,"218":-0.0324660731029299,"219":-0.07087523187694467,"220":-0.18196308282635545,"221":-0.008362029352323103,"222":-0.020825778520139948,"223":-0.037059295771751564,"224":0.03628852128562211,"225":-0.0341573512741217,"226":0.023961149251740005,"227":0.0395366449462468,"228":0.02435301855211586,"229":-0.0449045138709253,"230":0.07524685514934036,"231":0.07656705275599957,"232":-0.10717624203464465,"233":-0.0775747357964898,"234":-0.05403993061675549,"235":0.10761677507418231,"236":-0.07851620493645865,"237":-0.05430002270556073,"238":0.08231934580368387,"239":0.006303631323008292,"240":0.03163728595828723,"241":-0.0014794876637640787,"242":0.04277236508818808,"243":-0.005924784679210273,"244":-0.03299157778952441,"245":0.04307609392379002,"246":0.014879734343445083,"247":0.09142022372242165,"248":-0.019851353079234524,"249":0.014268036806359337,"250":-0.05693256815326733,"251":0.009134794595530191,"252":-0.03361380529355635,"253":0.06334368176122851,"254":0.06346138725783458,"255":0.012049174466704313,"256":0.05528621504708317,"257":-0.00048216925725326986,"258":-0.04470605059900925,"259":0.004541646374754507,"260":0.040909448128596974,"261":-0.08089742394780902,"262":0.06730698548180367,"263":0.03937713345184501,"264":0.024607541151888516,"265":-0.0014833691475333683,"266":-0.07025494927738592,"267":-0.02516552162169835,"268":-0.07585200686937567,"269":0.06158420939554066,"270":0.03425928792565686,"271":-0.11610441405868886,"272":0.0056904307291259495,"273":0.04483532923338706,"274":-0.039517277361813236,"275":-0.14745968868255677,"276":0.08527016856231544,"277":-0.008623394095934541,"278":0.11528262427873104,"279":0.04637716098640607,"280":0.009479006787641993,"281":-0.002890519517023596,"282":0.015988391219062592,"283":-0.009284448496920807,"284":-0.08680700526561425,"285":-0.1984672947112753,"286":0.02210983380941451,"287":0.029599012468359286,"288":0.06851599511881952,"289":0.03512239197390165,"290":0.013325495777629015,"291":-0.04708268825924432,"292":-0.04663576035198215,"293":-0.0958010551832221,"294":0.012311573378903736,"295":0.10159138449545609,"296":-0.03268822325224706,"297":-0.03810534488822981,"298":-0.05454316136024617,"299":0.022262581616266097,"300":-0.1801666869424258,"301":-0.09627619347166802,"302":0.0000751955520402448,"303":0.009684283933318912,"304":0.031266823029436876,"305":0.019374889291359547,"306":-0.013542544279469042,"307":-0.034304564320570226,"308":0.08177894817548069,"309":-0.11663172605855684,"310":-0.002355624481063174,"311":0.06356291203119226,"312":-0.0643760224510779,"313":-0.020421080563839664,"314":-0.13249111055729657,"315":0.05700937134323815,"316":-0.03267725723080874,"317":-0.18262888467453822,"318":0.10389850784622157,"319":-0.04743018606923816,"320":0.11838886985992973,"321":0.03218308617471629,"322":0.009108311333216209,"323":0.20682058159811528,"324":0.0341830098889051,"325":0.009265622965798363,"326":0.0653461504655181,"327":0.08878366728022924,"328":0.027770022381396055,"329":0.09748224282762896,"330":-0.06407973454650179,"331":0.06543600501630653,"332":-0.027013953570792257,"333":0.009211683259867225,"334":-0.03261903978534904,"335":-0.10704018010797127,"336":0.06562247142414826,"337":-0.06568280659370096,"338":0.0748308297815235,"339":0.03662877632483178,"340":-0.02183989744478207,"341":-0.0006064358411777748,"342":0.0716640240513598,"343":0.06578899691631336,"344":0.025842064679227176,"345":0.08822723443975056,"346":0.05780789454796658,"347":-0.08099898116590676,"348":-0.08792305013970406,"349":-0.07561713666583621,"350":0.07059805748736857,"351":-0.09961133673541715,"352":0.08491313899676337,"353":-0.03309365547902625,"354":-0.03936483876108937,"355":0.05132267364976026,"356":0.09512629344267257,"357":0.038793176709770866,"358":0.047712038935123706,"359":0.0705567279187706,"360":-0.007202482721706142,"361":0.014766286717419384,"362":-0.037855441200427616,"363":0.030770706994306046,"364":-0.0894473869137678,"365":-0.027678707427524138,"366":0.14864324927366585,"367":0.06090085932974484,"368":-0.019934697306534747,"369":0.04404042563427309,"370":0.0751309251432877,"371":-0.04739407351542063,"372":0.16566026579558107,"373":0.035799702783405635,"374":0.06281136340476863,"375":0.043645627217906,"376":-0.07748703839486261,"377":0.004647851906559935,"378":-0.013111113938554488,"379":0.027717707933265806,"380":-0.05566101814022053,"381":-0.017001210930129428,"382":0.02082048223226408,"383":-0.1890132879389348,"384":0.07142596318157736,"385":-0.029868522560350705,"386":0.04954393023322161,"387":0.003826410768195976,"388":0.04692019785919295,"389":0.030331518404086474,"390":0.07618880321234515,"391":0.10410765851870628,"392":-0.0442218625440563,"393":-0.053256053702297426,"394":-0.08672041134940349,"395":0.0855374111923447,"396":-0.028014967073930638,"397":-0.03097319667378426,"398":0.06501796977529478,"399":0.03939672169238419}},{"sx":5,"sy":5,"depth":16,"w":{"0":0.05469262067379861,"1":0.04445188112212211,"2":-0.017311495641806594,"3":0.044957904858897134,"4":-0.12625425700476597,"5":0.03907299123722515,"6":-0.01875295783520209,"7":-0.09796985977342879,"8":0.020077521464064895,"9":0.04059516830947959,"10":0.07628834832845147,"11":0.06923143839157475,"12":0.1293867561099873,"13":0.07026398958373627,"14":-0.06989428305648346,"15":0.0036757357052961846,"16":0.0456741040655024,"17":0.08019430514235304,"18":0.13826871903218163,"19":0.21776347426758594,"20":-0.10639764063701439,"21":0.017990620977905,"22":-0.2312493072921014,"23":0.0338745495086773,"24":0.08234682190696392,"25":-0.0034229712456933406,"26":0.00005390251344015518,"27":0.13005436842801424,"28":0.03482580935562529,"29":0.002328654426938694,"30":-0.032548906032173926,"31":0.031277960398291026,"32":0.11576799377330362,"33":0.00891996544135882,"34":0.055407300693702005,"35":0.0858124942759604,"36":-0.1517664158824921,"37":0.06789161932833893,"38":-0.11698221434422089,"39":0.04669726282691647,"40":-0.04942909629500546,"41":0.01685401254622999,"42":0.0619809094160753,"43":0.12663888073068594,"44":0.10577277964560168,"45":0.03015547063016142,"46":-0.11594908510077319,"47":-0.018279815088326795,"48":0.10062383518693717,"49":-0.05814437614242816,"50":0.1448703865601004,"51":0.000826340673083562,"52":-0.037189597781896636,"53":0.0825158440045809,"54":-0.09317578615550931,"55":-0.026246208907062585,"56":-0.07745732428965545,"57":0.04938453313709879,"58":-0.0006090714974940491,"59":0.08139740567934221,"60":0.05269667255089314,"61":-0.06925404266334649,"62":-0.06565664689816021,"63":0.015029331735701696,"64":0.018280919124328866,"65":0.03347299002952003,"66":0.09880735804490667,"67":0.113791584528396,"68":-0.19813156079916067,"69":-0.011414546988020696,"70":-0.17852300870012883,"71":0.06800153269168888,"72":-0.0218296888302182,"73":0.03802922216906135,"74":-0.028669040998236014,"75":0.057437407129584325,"76":0.021088958738385802,"77":-0.07126845395340546,"78":-0.026450872827773343,"79":-0.0539343581165303,"80":0.03224580086885513,"81":0.004860943291963377,"82":0.09742408771628389,"83":0.09532327138257082,"84":-0.11663509061224181,"85":0.1917027153950631,"86":-0.1272245404493531,"87":-0.005012272950098446,"88":-0.06241394784390423,"89":0.07711256440186225,"90":0.10115155606408097,"91":0.14676353158627004,"92":0.10151276649799357,"93":-0.00837957349207874,"94":-0.0374083409079017,"95":0.044028109084281376,"96":0.09888085702496621,"97":0.009550058917734527,"98":0.03792057352814512,"99":0.13564011363450504,"100":-0.048836763080042214,"101":0.1298234095428092,"102":-0.21357056291572107,"103":-0.026448202895676207,"104":0.10423669184053252,"105":0.051604083205679385,"106":0.005665138766179955,"107":0.06052048045739215,"108":0.01433706234198728,"109":0.03170535892389862,"110":-0.1393332345148147,"111":-0.04645475234884369,"112":0.12177165290596725,"113":0.025492818446952233,"114":0.1165257316316221,"115":0.11108863265579344,"116":-0.19000804208774041,"117":0.07216235243679435,"118":-0.12950938155759248,"119":0.10315782322186992,"120":-0.006763396361107057,"121":0.08773766314895853,"122":0.09284084758082349,"123":0.01608113852889063,"124":-0.02950902735448593,"125":-0.03201246274157142,"126":0.007922717180427637,"127":-0.016078216797601342,"128":-0.045354754308639965,"129":0.043635393595859426,"130":0.022129379458211654,"131":0.05319003010886718,"132":-0.1274030799311324,"133":0.008512027764981361,"134":-0.1590094567463625,"135":-0.060171329721713684,"136":0.058826234174259764,"137":-0.006539743695571455,"138":0.1353974906090076,"139":0.06335829933920557,"140":0.05626632141588656,"141":0.07422998888796105,"142":-0.03845075953910176,"143":-0.046359789826255125,"144":0.09019090578931756,"145":0.0007928649446493725,"146":0.08009991726858273,"147":0.041258447713044655,"148":-0.10958541397801716,"149":-0.04852744724860349,"150":-0.12211271568426035,"151":0.007018824473992587,"152":0.10925770793214051,"153":0.0019218523906527481,"154":0.08318725026917827,"155":0.06974998235878248,"156":0.05930252296622643,"157":-0.0207805769710344,"158":-0.11910801515708844,"159":0.05374454379724018,"160":0.03923967217648332,"161":0.040107207891269876,"162":0.12748222716844523,"163":0.09023177719768921,"164":-0.14472493461921235,"165":0.08133128573092463,"166":-0.07891214390876404,"167":-0.07199467565390495,"168":0.009928295818112547,"169":0.09912520212390875,"170":0.019140921473293836,"171":0.11451228092851992,"172":0.07556535523759582,"173":0.09157403439922279,"174":-0.09229894087036294,"175":-0.08176787063117028,"176":0.09503796944248243,"177":0.09484477193296326,"178":0.2152095679633194,"179":0.06534629635160454,"180":-0.12314510944667818,"181":0.08967367751808444,"182":-0.13711665542176096,"183":0.002609019856201686,"184":-0.01006315752343574,"185":0.0692249644790352,"186":0.0005272205622495034,"187":0.0686989202359318,"188":0.08178985515813358,"189":0.014419718905002866,"190":-0.00592248592504411,"191":-0.2057478024219988,"192":0.03400983525381009,"193":0.004270583520301903,"194":0.12521674991266413,"195":0.006194326705914598,"196":-0.25642601612244537,"197":0.021542503116437742,"198":-0.11685682624141747,"199":0.06135599391470255,"200":0.039242412479689404,"201":0.015604877776440025,"202":0.1267830189801075,"203":0.13562305376443703,"204":0.05505574088136023,"205":0.023584075235332486,"206":0.03887602380147329,"207":-0.09125176042822393,"208":0.01897507206161022,"209":0.04596762864828149,"210":0.02859056787355975,"211":-0.017233404889961904,"212":-0.14406979790329597,"213":0.05965505022532524,"214":-0.19437409742422843,"215":0.06700643622854414,"216":-0.04345659803344796,"217":-0.06736550767747261,"218":0.0029057421676375963,"219":0.011888421153792482,"220":0.026186358308565447,"221":-0.025732803033922075,"222":-0.040047377782627146,"223":-0.07807281222398703,"224":-0.05637155555070721,"225":0.013231858191964787,"226":0.007056876996555411,"227":0.12331625242695882,"228":-0.20348977266207802,"229":0.03503511508526171,"230":-0.0745234166477631,"231":-0.04365244265305383,"232":0.014633340416844746,"233":0.027310176398404974,"234":0.03920060038314745,"235":0.041141371830455194,"236":0.011169126406887456,"237":0.046857621954365436,"238":-0.05027332168846,"239":-0.005483838792224206,"240":-0.038702344979335224,"241":0.05709064204147249,"242":0.012673522124860358,"243":-0.0032094938932853154,"244":-0.14482400961030986,"245":0.06522604293800435,"246":-0.08902826024085074,"247":0.012464741359972593,"248":-0.02767479031764233,"249":0.14329228423529045,"250":0.003386014279586971,"251":0.10591776713768974,"252":-0.023078799012151773,"253":0.10769030708318608,"254":-0.16144125995033354,"255":-0.004126214005802622,"256":0.09239456999812488,"257":-0.03329391929634693,"258":0.03959828435934342,"259":0.11464123002788622,"260":-0.0866500066010932,"261":0.11549423333547947,"262":-0.09326242385101159,"263":-0.05339921031639535,"264":-0.020787376006053702,"265":0.07741773397135604,"266":0.06363014992404135,"267":0.03595586743571205,"268":0.08917993117392212,"269":-0.016698048003804304,"270":-0.06828552177941699,"271":0.04014579726195502,"272":-0.02990610335482503,"273":0.027347272506566777,"274":0.025273626930610985,"275":0.032447640681209464,"276":-0.04723348664006035,"277":0.01623663035134326,"278":-0.1700961539993403,"279":-0.14484545547875433,"280":0.0863035804304856,"281":0.061968846034920394,"282":0.06475460869776553,"283":0.07559616810699575,"284":0.11126107910982236,"285":-0.0015613721110674826,"286":-0.04496847905460241,"287":0.04913074419688433,"288":0.034032816499069724,"289":0.07854261553590439,"290":-0.09930468883081499,"291":0.06710062290582254,"292":-0.11401068930265362,"293":-0.05189997648888255,"294":-0.10867433393055105,"295":-0.16167682846265374,"296":-0.031134161010065435,"297":-0.021698258460791917,"298":0.08805552312781528,"299":-0.04519111532359544,"300":0.06660280135549151,"301":-0.0011068109788521282,"302":-0.0030964777301332666,"303":-0.012036786122063624,"304":-0.03833064451231281,"305":0.010126609058938875,"306":0.012839204103675242,"307":-0.01898250833051337,"308":-0.19130030010990337,"309":0.08182787687251022,"310":-0.09349824341971207,"311":-0.13300688759098594,"312":-0.07774794288104235,"313":0.06420655483202431,"314":0.021157750449825933,"315":-0.09760674390835818,"316":0.05087958605551141,"317":0.08720829346133217,"318":-0.12548283088890677,"319":-0.06870315414776325,"320":-0.07109444940747864,"321":-0.07645270358202959,"322":0.026779471548786744,"323":-0.023794005801502916,"324":-0.0026551176525639584,"325":0.0594940997283598,"326":-0.0851433737451009,"327":-0.030143596725678696,"328":0.04624170493807768,"329":0.0010251459292729978,"330":0.11175446415221864,"331":-0.08688295247091257,"332":0.008672660963932158,"333":-0.04797377897096944,"334":-0.01425979557925507,"335":0.04200370818453544,"336":0.038793952213470366,"337":-0.09202129661468075,"338":0.027355754130899634,"339":0.03243309143486473,"340":-0.1256919758424455,"341":-0.05562995854565548,"342":-0.017198860566885646,"343":-0.022855898952100044,"344":0.00781559107162381,"345":0.01353008744468896,"346":0.10050172762509518,"347":-0.06579253347086089,"348":0.014509215932403272,"349":0.017084849016936243,"350":0.014905612447426693,"351":0.06621535478313129,"352":-0.04048998045031811,"353":0.008206365693165182,"354":0.03794443035498293,"355":0.004021287853518189,"356":-0.09077492547008333,"357":0.043372565780183635,"358":-0.14785049496429856,"359":-0.03295633994825763,"360":-0.031309307401772075,"361":0.0682760736732802,"362":0.018246303991658455,"363":0.06826885515213121,"364":0.0522327617808273,"365":0.018625058283540965,"366":-0.011792248975091065,"367":0.045036534271339676,"368":-0.09072986467303365,"369":0.10649852970632423,"370":0.02336096190911076,"371":-0.09407547518460507,"372":-0.07984938129999962,"373":-0.11078031894650328,"374":-0.16731334992564062,"375":-0.009685177546069365,"376":-0.04798313420236268,"377":-0.09117796829659558,"378":-0.035426829674361324,"379":-0.04432610455181385,"380":-0.1198505824862653,"381":-0.0030828790479710687,"382":-0.058865476098061975,"383":0.055341024002312965,"384":-0.0670534889315585,"385":-0.004541925993337971,"386":0.00937329500130788,"387":-0.06088681146781221,"388":-0.07825235070085645,"389":0.04863436369938232,"390":-0.14703976716263628,"391":-0.12756677158063898,"392":0.04224624015387925,"393":0.02634737335640003,"394":0.10957985766309329,"395":-0.02386929246957861,"396":-0.03545695376657054,"397":-0.05757438899984477,"398":0.009592044122082366,"399":0.063973400596268}},{"sx":5,"sy":5,"depth":16,"w":{"0":-0.0027803460938571577,"1":0.006877488223784229,"2":0.00404926750465161,"3":-0.04761006201921575,"4":0.01689387042550493,"5":0.06237714720210655,"6":0.10150823414601928,"7":0.05775288499009788,"8":-0.04378852503421132,"9":-0.04601210184667433,"10":0.03935606658269588,"11":0.031231951999513122,"12":0.04303195586447051,"13":-0.04277875416522059,"14":0.07571520919188103,"15":0.06044165677919861,"16":0.010158601997993164,"17":0.07391716656476363,"18":-0.016163601921869122,"19":0.03458605922345881,"20":0.0022715332282249095,"21":0.0005171266770211788,"22":-0.09093687255429687,"23":0.003088360035956957,"24":-0.03940546270162345,"25":-0.013081299824638567,"26":0.006798251511882473,"27":-0.03517540032020978,"28":0.06140077631444409,"29":0.010611133499071267,"30":-0.031038936887159214,"31":0.011612646392326457,"32":-0.034879525756043916,"33":-0.003141172338286472,"34":0.06235939891680199,"35":0.07451383225628823,"36":0.004776083884941794,"37":0.006037203427801343,"38":-0.02253121228419656,"39":0.033861659858474856,"40":0.012827202051991997,"41":-0.0006885664226076143,"42":-0.024206046088986247,"43":-0.021855313734108824,"44":0.003552965866232029,"45":0.06688586683034717,"46":-0.027115242571013057,"47":0.06569659634710749,"48":-0.00949489505637407,"49":-0.07211285881189457,"50":0.06596498155610087,"51":0.05720210682941977,"52":-0.048753070667322575,"53":-0.04195892038478993,"54":-0.04309258996101324,"55":-0.048549762639015684,"56":-0.019812304603920763,"57":-0.11480110735544176,"58":-0.012152552165557492,"59":0.06837151831883216,"60":0.008545658908906129,"61":0.024645230222388743,"62":-0.01825998617997225,"63":-0.0876715425257127,"64":0.05372828777364283,"65":0.013610281913629889,"66":-0.03174106350824641,"67":0.01300408713412301,"68":0.0038966256667523,"69":-0.055065656495411244,"70":0.0025742300388845165,"71":-0.1017611852558653,"72":-0.020346150211138374,"73":0.07066283110920768,"74":-0.03480161495546831,"75":-0.01930083449639491,"76":0.016425988499673663,"77":-0.1301900446485803,"78":0.01699688991414275,"79":0.008176297624726232,"80":-0.011775326645811778,"81":0.04724330896054661,"82":0.000491814661358538,"83":0.04542886966658909,"84":0.0025218499147300908,"85":0.013959918084211258,"86":0.09530396093972172,"87":-0.04654142712196454,"88":0.009403238414634047,"89":-0.013561373885986551,"90":-0.07987717108564273,"91":0.014286622591403373,"92":-0.0021658955760674526,"93":-0.12229421416035445,"94":0.060071356069911416,"95":0.028795785156372884,"96":0.050934130238341174,"97":0.03022890721401923,"98":0.05435790150934824,"99":0.10993774611657595,"100":-0.034394903675867707,"101":0.13545417830885134,"102":-0.1729041268181388,"103":0.037699226987638786,"104":0.09624666011964302,"105":0.053649261638516216,"106":-0.020128092861727395,"107":-0.015491679545449923,"108":0.04346532468655201,"109":0.01812014442523772,"110":0.007258437297921665,"111":0.047362290898140536,"112":0.014424648876648159,"113":-0.07308120811387295,"114":0.06036576461638002,"115":0.009458224400821117,"116":-0.01543086558993374,"117":0.04756297687375384,"118":0.03066581247664642,"119":-0.050806682669670165,"120":0.02333242120277898,"121":0.12954588164961842,"122":0.025882180300427274,"123":0.0453021582712619,"124":0.05376060632442569,"125":0.054256805164316343,"126":0.03068176323547168,"127":-0.06056091507668139,"128":0.045285782368174515,"129":-0.07484051162947661,"130":0.023242025455137042,"131":-0.1165682013524367,"132":0.024472946665231258,"133":0.04292363763636305,"134":-0.059978039715602394,"135":0.023077147689441566,"136":-0.030179931998338766,"137":-0.026297763018749643,"138":-0.053420046487406316,"139":-0.020490750240742164,"140":-0.03534244459819791,"141":-0.08679231400406558,"142":-0.017205639353691276,"143":0.08595088551239873,"144":0.0185737737108904,"145":-0.038906345718366514,"146":0.056116883603539294,"147":0.00807704261360275,"148":0.051301366745410165,"149":0.014938499323615247,"150":-0.005789620839367475,"151":-0.15876159213106977,"152":-0.14430232155939895,