{"layers":[{"out_depth":3,"out_sx":32,"out_sy":64,"layer_type":"input"},{"sx":5,"sy":5,"stride":1,"in_depth":3,"out_depth":16,"out_sx":32,"out_sy":64,"layer_type":"conv","l1_decay_mul":0,"l2_decay_mul":1,"pad":2,"filters":[{"sx":5,"sy":5,"depth":3,"w":{"0":-0.0890180244072319,"1":-0.0294559784766204,"2":0.08670797488280191,"3":-0.11943369699115115,"4":0.0644518766185816,"5":0.10565986007357472,"6":-0.28859942079479334,"7":0.06957306367021172,"8":0.12222850810196305,"9":-0.2010891335262364,"10":-0.08009054347839707,"11":-0.0715322607606285,"12":-0.17164523972924448,"13":-0.15211463457636037,"14":0.22584390346366656,"15":0.17542046086183194,"16":-0.3049358037738273,"17":0.08631295146514809,"18":-0.111837937848645,"19":0.05646619390177412,"20":0.04098902471678381,"21":-0.23567206732789178,"22":0.030642116694934832,"23":0.012579387400074712,"24":-0.09109847238682456,"25":0.10609178967009787,"26":0.18806638849368768,"27":-0.09899801278276264,"28":-0.06270898583380886,"29":-0.016404491611964937,"30":-0.06314164900044372,"31":-0.04083865484226863,"32":0.185234697248976,"33":-0.10235993588538113,"34":-0.05050088796125178,"35":0.035673597733198295,"36":-0.04611255419561437,"37":-0.24527829897875017,"38":-0.14073972443246846,"39":-0.138625769899167,"40":-0.12254555402556783,"41":0.05023039865492291,"42":-0.038196327296597235,"43":-0.006624059799553258,"44":0.14366596663931455,"45":0.011913686939694789,"46":-0.08587586866928693,"47":0.02620475484411137,"48":0.20412259222532747,"49":0.012749540686562769,"50":0.02348677903600042,"51":-0.049801713005665854,"52":-0.17245623792276138,"53":-0.0034974831709948407,"54":-0.24285369029725798,"55":-0.18087810620210806,"56":0.04717476995317047,"57":-0.2305984532732217,"58":-0.08682568522311176,"59":-0.050123716420540684,"60":0.04605283098072175,"61":-0.18413893097917466,"62":-0.002359857094931248,"63":-0.13460723999048113,"64":-0.2318411125309252,"65":0.12986563675572863,"66":0.008705931565701645,"67":-0.12056656643994246,"68":0.07708925589490563,"69":-0.1574055154133207,"70":-0.14553989640404927,"71":-0.02686699718910195,"72":0.014308504175195176,"73":0.01779019122783024,"74":0.010427662304469709}},{"sx":5,"sy":5,"depth":3,"w":{"0":-0.12212633683014597,"1":0.037043637699728404,"2":0.1877006637749946,"3":-0.22749797431020105,"4":-0.025177402679761766,"5":0.13848598907770746,"6":-0.1654294656186993,"7":-0.11271913102635615,"8":0.1602541910741567,"9":-0.14426622716896312,"10":-0.04135698335196942,"11":-0.05047039507648354,"12":0.2064795824311693,"13":0.1490935242487221,"14":0.09556185795133093,"15":-0.0026311899347911884,"16":-0.02658594785219534,"17":0.018768928357852547,"18":0.07241571245305557,"19":0.09567434405222155,"20":0.08436408402104122,"21":-0.20618110486916347,"22":0.18058631321111432,"23":0.0759960799892124,"24":-0.10056126356429679,"25":0.06971849644057068,"26":0.11448909069590239,"27":-0.04852052539840354,"28":0.02627778783081175,"29":0.09985816596225584,"30":0.1287916876044855,"31":0.05395926508958244,"32":0.0627439450055694,"33":0.1229592015321227,"34":0.15068933229288772,"35":0.114359362015438,"36":0.05697371575275121,"37":0.09709190245596235,"38":0.0850142387201998,"39":0.03085127299551,"40":0.10317816999595526,"41":0.053468439908109115,"42":-0.1556453194223378,"43":0.1553086102520363,"44":0.05665791589715411,"45":0.13888206702096548,"46":0.1358927280675072,"47":0.010480413157169265,"48":0.06540234608634121,"49":0.042937538948581974,"50":-0.17723134668648544,"51":0.09527477180430811,"52":-0.10133094226899544,"53":-0.22164237851927568,"54":-0.0324138194822128,"55":-0.02689111773905915,"56":-0.1221025815206371,"57":-0.007522592313993048,"58":0.15582574679731617,"59":-0.013530786422923423,"60":-0.11592255828614773,"61":0.0644809123258238,"62":0.0018492592994346978,"63":0.04067125466464893,"64":0.2603966964249353,"65":0.34403891310380635,"66":0.0016971468095723107,"67":-0.053857164305794215,"68":0.012237530253442114,"69":0.1508424998418538,"70":0.11849507962386338,"71":-0.034686093334241226,"72":-0.10056125653813455,"73":0.08549427515681869,"74":0.1140343374821727}},{"sx":5,"sy":5,"depth":3,"w":{"0":-0.12775200308577211,"1":-0.1405053945004023,"2":0.03257490788137435,"3":-0.15786580409327935,"4":-0.06714347632567305,"5":0.19870200001330454,"6":-0.1855207655513325,"7":-0.2273223841100826,"8":-0.0826555583202017,"9":-0.09124305084774734,"10":0.08735639355700997,"11":-0.04972693831413554,"12":0.11256693028392624,"13":0.041235070090155264,"14":0.34425106268892464,"15":-0.08841193082004035,"16":-0.07914651953046041,"17":0.14212602810167888,"18":-0.048160430834546,"19":-0.08114462012713015,"20":-0.05516313294312463,"21":-0.034331449666826,"22":0.11410590193468895,"23":0.16138778307181567,"24":0.02002101315891509,"25":0.04834875025251551,"26":-0.07718898089924045,"27":0.39770558062028927,"28":-0.27982371196036815,"29":0.2436826268158713,"30":-0.12923339428093414,"31":-0.06597573548998548,"32":0.2011175621649112,"33":-0.1431359234050851,"34":-0.0577757299989183,"35":0.002615702474466763,"36":-0.25869666608233893,"37":-0.03784906557362218,"38":0.14572983893492708,"39":-0.13596347965366645,"40":0.16034884230087235,"41":-0.09918357478757561,"42":-0.044584777249536654,"43":-0.008050809041761097,"44":0.023776146352293737,"45":-0.37564093385366776,"46":-0.43938182281341676,"47":-0.16995408266999465,"48":-0.2889972396018785,"49":-0.232677307204187,"50":0.06979560359927879,"51":-0.11986743979823582,"52":-0.09192475780737348,"53":0.16576596675349756,"54":-0.2229985270343615,"55":-0.18030627804696564,"56":0.10972183151026928,"57":0.3371136266801667,"58":0.09919287917360703,"59":0.04715276849833175,"60":-0.1763724777746543,"61":0.03261920614619609,"62":0.08354270598359886,"63":-0.16080526012622373,"64":-0.1765034351959334,"65":-0.08468414116734074,"66":-0.0284343625300325,"67":-0.16086465316725568,"68":0.22965313283726033,"69":-0.06973054561944392,"70":0.05308638053349582,"71":-0.0029062545924499715,"72":0.07589988608954461,"73":-0.03017264335349408,"74":0.11922123423376163}},{"sx":5,"sy":5,"depth":3,"w":{"0":0.021270029341152512,"1":-0.1747650286786333,"2":-0.16515655902766138,"3":-0.07973053980997077,"4":-0.24114080758994544,"5":-0.10450436441771203,"6":-0.05911855194677148,"7":-0.2108841221053875,"8":-0.06918390976045347,"9":-0.20527170964732225,"10":0.12682332415702077,"11":-0.2026200015131271,"12":-0.06032018058541548,"13":-0.03486160302627424,"14":-0.07302073901975596,"15":-0.015091693060827398,"16":-0.20232250334609847,"17":-0.13093678987837756,"18":-0.04447194711496817,"19":-0.015276076337278488,"20":-0.02967571223036484,"21":0.0013643008334807251,"22":0.014629325815258868,"23":-0.24117970177372566,"24":0.06253026475412184,"25":-0.0291470409055939,"26":-0.08075195691496675,"27":0.04653966950623441,"28":-0.09060816178752186,"29":0.019038833493171717,"30":0.10611098772961729,"31":-0.23303324258394745,"32":-0.20320475773010638,"33":0.12029322996272382,"34":-0.19735700319130425,"35":-0.08222556212500128,"36":-0.07939111140870088,"37":-0.27569614848865875,"38":0.010778448223727664,"39":0.11473007591172643,"40":-0.17495658296727795,"41":0.0007107032986918205,"42":0.06886770581817388,"43":-0.3256354771870217,"44":-0.05676582240798788,"45":0.10037892801604106,"46":-0.023041494846920342,"47":0.019070431959789885,"48":-0.05589138112518799,"49":-0.15832757298823588,"50":-0.057719543100730575,"51":-0.12751741409942616,"52":-0.15115427287426872,"53":0.06968998145595379,"54":-0.11074967479896723,"55":-0.0995247937000009,"56":-0.11451530059722495,"57":0.24002400187113862,"58":0.1432933677178108,"59":-0.1684394328195625,"60":0.11522755576555845,"61":-0.1957014627159545,"62":0.12265167149185548,"63":0.1788788971885159,"64":0.03953316563027343,"65":0.023061013953959226,"66":0.07185972659101972,"67":-0.2349568942676531,"68":-0.0030567648397575747,"69":0.005160560074177549,"70":-0.023031209057520808,"71":0.23711423053329916,"72":-0.1017843717911332,"73":-0.06806200146636937,"74":0.08592729080925134}},{"sx":5,"sy":5,"depth":3,"w":{"0":-0.024132376999373834,"1":0.17691578424916793,"2":-0.1311459904596098,"3":0.2986252963653159,"4":-0.09002195791624024,"5":0.03879575896306677,"6":-0.14007417752080817,"7":0.007382852385208541,"8":-0.39179941295156956,"9":0.03719071141645836,"10":0.0943822480345854,"11":-0.020206168514843477,"12":-0.08441469670778211,"13":0.11240610821085918,"14":0.2886759814514638,"15":0.11917108124788763,"16":-0.008431193675640858,"17":-0.14072460153949579,"18":-0.019118874022214735,"19":-0.1325525319433327,"20":-0.10775249511954169,"21":0.044892500689158094,"22":-0.0521058484081649,"23":-0.17588752625029608,"24":0.15777972825876965,"25":0.16219150415361894,"26":-0.19062489008596534,"27":0.1889871194388153,"28":0.16134026440667387,"29":0.1824947674404579,"30":-0.07919054090105573,"31":0.059996078250135185,"32":-0.1305226925486689,"33":0.13136923231468287,"34":0.07084253109788653,"35":0.012334863080947181,"36":0.17255238048196714,"37":0.05552248996102504,"38":-0.10031041503923534,"39":0.06409509501040733,"40":0.009613666432487513,"41":-0.004230390679730911,"42":0.12000170601114717,"43":0.09260049753956874,"44":-0.0478301473533384,"45":0.11542606802568754,"46":-0.1903955378633672,"47":-0.016968356483615894,"48":0.045148583063239676,"49":-0.16650415099286014,"50":0.14841914204975376,"51":-0.03430132150148698,"52":0.22239354629767974,"53":-0.21785158197917054,"54":-0.012857439938069546,"55":-0.08206547933485703,"56":-0.05810175029687264,"57":0.11609185060072823,"58":-0.02452835104893565,"59":-0.17241798567150127,"60":-0.18983196108840972,"61":-0.11143095108916147,"62":-0.11978095592665938,"63":0.10468529732659161,"64":-0.07038492297127044,"65":-0.10199496826788435,"66":0.12915123132748985,"67":-0.11421933245077823,"68":-0.2899229179279625,"69":0.11175748300112102,"70":-0.13529168291549215,"71":0.0024287169803575933,"72":0.09490431121824068,"73":-0.018117531511482366,"74":-0.2803719341925742}},{"sx":5,"sy":5,"depth":3,"w":{"0":0.04183882389833545,"1":-0.1277531328665458,"2":-0.12116914289164914,"3":0.08415135795092567,"4":-0.0847850970986506,"5":-0.19552300123018063,"6":-0.0948283319237983,"7":-0.038377383680902606,"8":-0.16963758524277314,"9":-0.01822960789678269,"10":-0.0023644360401518364,"11":0.003542225812287216,"12":-0.14933065781131363,"13":-0.14148142711263095,"14":0.029402905188405475,"15":-0.005798544070032126,"16":-0.10660551621151251,"17":-0.23376101835976357,"18":-0.061254246572761156,"19":-0.04064906250589214,"20":-0.06334935967739885,"21":-0.0060495759170460465,"22":-0.37989855518702037,"23":-0.026636010328967452,"24":-0.07040970600960798,"25":-0.2544779247180554,"26":-0.03790057140676989,"27":-0.003355360070399447,"28":-0.13094412718676224,"29":-0.017013828494746103,"30":0.008775995839901435,"31":-0.198845615044249,"32":0.06810341197893588,"33":-0.022627393874441154,"34":-0.10574678975336166,"35":0.0680034139623681,"36":0.07868040807021641,"37":-0.1336623760045626,"38":-0.13097443832537636,"39":-0.08781636588952996,"40":-0.24736145433984927,"41":-0.22476543570450125,"42":-0.0024262475923470233,"43":0.04395513673264947,"44":-0.11942137715640214,"45":0.2549534046002134,"46":-0.2529509762981891,"47":-0.05271177911175369,"48":-0.18872227673143913,"49":-0.10742936200133041,"50":-0.11553893907186473,"51":-0.05241698549262232,"52":-0.1087927582405264,"53":-0.06487530267138768,"54":-0.17516477679229575,"55":-0.16138058218589083,"56":-0.013824345857126594,"57":-0.02396530156448005,"58":-0.13545378006081416,"59":-0.2742584584000463,"60":-0.01447019103698927,"61":0.023824586598185045,"62":0.010436076138839415,"63":0.009727452871298779,"64":-0.0890064430754966,"65":0.0035808570094358365,"66":-0.06630454507340798,"67":0.014751476339745254,"68":-0.18120009599668216,"69":0.12459141512175492,"70":-0.15971457690330837,"71":-0.1826309066181267,"72":-0.02845245628750234,"73":0.09492121911680282,"74":-0.10572228385291196}},{"sx":5,"sy":5,"depth":3,"w":{"0":0.05065865197667242,"1":-0.013272105654156074,"2":-0.14861861584884717,"3":-0.069314208591188,"4":-0.07974006214663563,"5":-0.014551030464163887,"6":-0.06305149036422292,"7":-0.09452575922198984,"8":-0.0065986720565488445,"9":0.06566221270366612,"10":-0.018659219253005333,"11":0.107667369316446,"12":-0.174223570924072,"13":0.28101069616355356,"14":0.1525490547734795,"15":-0.20565399128732764,"16":0.057181692097434726,"17":0.05443740515246577,"18":-0.04554835463435932,"19":-0.022180683181856363,"20":-0.009067869441649966,"21":0.04800899937001806,"22":-0.08379987290237889,"23":0.16739519086623286,"24":-0.05960416553288638,"25":0.0598659986587681,"26":-0.11298747285457131,"27":0.025541710333143897,"28":0.002878481183389147,"29":0.23765422758247953,"30":0.1942968519530476,"31":0.012214972144376364,"32":-0.06311402498594976,"33":0.04738452743426051,"34":-0.046905601991517956,"35":0.24961866491566584,"36":-0.005858014616500082,"37":0.12679543662386708,"38":0.0931621118989526,"39":-0.022764047821007227,"40":0.07265065364705303,"41":0.09670369623527054,"42":-0.1305041562433391,"43":-0.11849711489246881,"44":0.01905791361958564,"45":0.22482213267007503,"46":-0.0009413450336255497,"47":0.12088433489225758,"48":0.29334536727020605,"49":-0.02337541496255313,"50":0.14186480044418445,"51":0.04342198297999985,"52":-0.11090973640681082,"53":0.2247068464413868,"54":-0.16659178683985762,"55":0.13230039312750352,"56":0.16567747610961703,"57":-0.16809901143143502,"58":-0.1501730175088436,"59":0.04549359291508706,"60":-0.17960075355406574,"61":0.06475908611764054,"62":-0.024276521099328915,"63":-0.020799154175242557,"64":-0.06027496554241274,"65":0.05601544157201915,"66":-0.16382760543724872,"67":-0.036096044338852155,"68":0.17095069694060663,"69":-0.121416949622063,"70":-0.19677344545044959,"71":-0.03191462830059425,"72":-0.16540701611850725,"73":-0.1149616696491731,"74":0.023267846361944095}},{"sx":5,"sy":5,"depth":3,"w":{"0":0.15433124643544402,"1":-0.41192793788899645,"2":0.06004547135012995,"3":-0.052566102976682266,"4":0.053045400747622345,"5":0.03059963211592189,"6":-0.04296710420597411,"7":0.010879774459668406,"8":0.15013899923304896,"9":0.045101662923337935,"10":0.06091383876415027,"11":0.18989774131359555,"12":-0.17912658186679406,"13":0.19853553133186505,"14":0.051043597651107386,"15":0.06612373685491192,"16":0.023853847544928686,"17":-0.06968454563260305,"18":-0.11142999081989229,"19":-0.11101955015670145,"20":0.045760527398126,"21":-0.15036097496191672,"22":-0.051740555068131515,"23":-0.18625839734901936,"24":0.1345422422390092,"25":-0.26048898448716884,"26":0.1341064984694178,"27":-0.15782660463138437,"28":-0.003856713217425762,"29":0.028631401627982774,"30":0.03842784997403152,"31":0.22280344749329245,"32":-0.07137157374902225,"33":-0.13343365543258134,"34":-0.04343919616983843,"35":0.12854873964391333,"36":0.04891023000097585,"37":0.003172402226203519,"38":0.08981834822048466,"39":0.046044655837251015,"40":0.1789359584164246,"41":-0.06203609452072936,"42":-0.08535068314002446,"43":-0.16021397934366466,"44":0.08489591974591215,"45":0.24944997730721735,"46":-0.0009691599322636267,"47":-0.09414129530833974,"48":-0.07151060603856434,"49":0.25189403746356664,"50":-0.04915594344128108,"51":-0.06138374313565832,"52":-0.107529710728703,"53":0.15936146148154348,"54":-0.10307518471688731,"55":0.0016266790810038692,"56":0.14378552951114085,"57":-0.2752608633529797,"58":-0.17594783151668072,"59":0.05955810581905174,"60":0.0374917455141727,"61":0.17779130944949872,"62":0.00949783021190136,"63":-0.2662922550128543,"64":-0.14140895913524065,"65":0.021870575768165586,"66":-0.27700340051971517,"67":-0.0663649355167824,"68":0.037690765089093935,"69":-0.2733081037389123,"70":-0.08227891501175828,"71":0.03864427757567201,"72":-0.14817614435358348,"73":-0.09095052101637571,"74":-0.044149824746122314}},{"sx":5,"sy":5,"depth":3,"w":{"0":-0.05369072934785069,"1":0.020264305772236427,"2":-0.018495331769690718,"3":-0.11347929929069654,"4":-0.026321218500599874,"5":0.08182785639495449,"6":-0.10867828918288992,"7":0.020427985315012755,"8":0.08058256837974147,"9":-0.24791878984243346,"10":-0.08789839236798899,"11":0.04089143348372017,"12":0.07052836630796483,"13":0.19064253702065798,"14":0.033963826772492,"15":0.035531152825195665,"16":-0.1256847891704526,"17":0.122560021371839,"18":-0.031118539606691024,"19":0.0691105170645756,"20":0.2792249013707194,"21":-0.1751955043951135,"22":-0.058907214612835754,"23":0.05999062400341757,"24":-0.29469638485977395,"25":-0.06104410580586671,"26":0.18025793245494065,"27":-0.1733307615568035,"28":-0.026347345840765892,"29":0.1186141569976251,"30":-0.004622754285767775,"31":-0.08344650028899339,"32":-0.1718743847345141,"33":-0.37713652371393663,"34":-0.1475698137722055,"35":-0.10858745503533047,"36":-0.3612980610530066,"37":-0.07963646180302164,"38":0.02574169565105443,"39":-0.03800247903233277,"40":-0.04468264439871564,"41":-0.02140476759533912,"42":-0.03328551047338922,"43":-0.18546300947347227,"44":0.11095422086938254,"45":0.10908841870173311,"46":0.12001786476573371,"47":-0.06046628444295906,"48":0.09945544580669716,"49":-0.06711412508166144,"50":0.09248747932498615,"51":-0.16407313944680504,"52":-0.09701479195844019,"53":-0.02006852060953099,"54":-0.23115277928289765,"55":-0.16914083512794786,"56":-0.061545110603070455,"57":-0.03928855875181462,"58":-0.10147586104779037,"59":-0.05978725909406183,"60":0.06687623397053923,"61":0.0423426586430362,"62":-0.15037766363119257,"63":0.002084537956785972,"64":-0.09720490585721017,"65":-0.053359243535081945,"66":-0.1342653171578067,"67":-0.16972889733071767,"68":0.19227732832822525,"69":-0.001386637920764271,"70":0.022119279195966228,"71":0.14535843202707321,"72":-0.007455351258531183,"73":0.04453106756804726,"74":0.0029579734570351667}},{"sx":5,"sy":5,"depth":3,"w":{"0":0.09325581596788163,"1":0.12448426999842145,"2":0.001684080713069877,"3":-0.010868958045825937,"4":-0.021046855332364157,"5":0.0963549531741159,"6":-0.1270194060544944,"7":0.012705174333058103,"8":-0.19955754920531374,"9":-0.014624883159039976,"10":0.07323409710504947,"11":0.020571165334196697,"12":0.03194641989844153,"13":0.14239534591886674,"14":0.017233442834195863,"15":0.2752676621644162,"16":0.2223692552595815,"17":0.023275716467797906,"18":0.09472486717533121,"19":0.051739802704432264,"20":-0.061453286732699036,"21":0.05198246879127206,"22":0.0908375107225752,"23":0.23994699229765126,"24":0.1752817805233647,"25":-0.03338426709369315,"26":-0.060728429322091104,"27":0.06387080059776779,"28":-0.06518512583596842,"29":-0.18903002461086568,"30":0.11194904406025337,"31":0.14516689263995552,"32":-0.1025924241810018,"33":-0.17082077617298172,"34":-0.03552414443119477,"35":0.12556491666050357,"36":0.0656988167401232,"37":0.05968321606047359,"38":-0.10361043674244286,"39":0.007300615021580359,"40":-0.18531162119441816,"41":0.022127255523289258,"42":-0.09101113913109884,"43":0.17412590159383895,"44":-0.07608615637812688,"45":0.02486083884428761,"46":-0.018019861818029025,"47":-0.0478921431273776,"48":0.12656062474055432,"49":-0.03143705273094668,"50":-0.20742050720478228,"51":0.013860910620938142,"52":0.018606762993996565,"53":-0.17404956085547243,"54":-0.05709528171586873,"55":0.18502778287386973,"56":-0.00551188885002304,"57":0.1611413987431926,"58":0.2135445525183337,"59":0.2756705282655605,"60":-0.048467692663695536,"61":0.1994205500043857,"62":-0.05131664884824926,"63":0.12917001022955188,"64":-0.020243527575511018,"65":-0.0340931158655406,"66":0.12856803883170378,"67":-0.052637463178098975,"68":0.014213673270497032,"69":0.07053783844863165,"70":0.0943784507448196,"71":-0.030943808260446026,"72":0.22653814317054946,"73":0.02672358990386679,"74":-0.18715130660251744}},{"sx":5,"sy":5,"depth":3,"w":{"0":-0.08202637763019116,"1":-0.09455639725676777,"2":-0.12004620636818226,"3":0.0011842084531968353,"4":0.02989402487093592,"5":-0.08336955904667982,"6":-0.007942449150968903,"7":-0.036917569119921674,"8":0.13025118289607224,"9":-0.1546182765069105,"10":-0.1736728378641661,"11":-0.09633253910009304,"12":-0.014560793109770575,"13":0.14499215866080192,"14":0.0750768398344633,"15":-0.12479539803048906,"16":-0.11251513061245708,"17":0.06410945724894139,"18":0.11471170846276335,"19":-0.22726604123577437,"20":-0.23844570872245568,"21":-0.1564719657982922,"22":-0.2685152707757787,"23":0.05736064778705943,"24":-0.14112611672121997,"25":-0.042022661538771065,"26":-0.12894558162819325,"27":-0.12418680392445972,"28":-0.10082485445229657,"29":0.2245277826524279,"30":-0.015034641199352836,"31":-0.12657089898624047,"32":-0.0024829494946015844,"33":0.03650678988455223,"34":-0.15207706085419162,"35":-0.006772961583022728,"36":-0.10475248135462956,"37":-0.14019557521093645,"38":-0.09374095094612174,"39":-0.028526223665390555,"40":-0.1416782680708586,"41":-0.011749092520580293,"42":0.011454584929904067,"43":-0.09535067079384929,"44":0.1019126532057989,"45":-0.14712876536142677,"46":-0.16210144932247159,"47":-0.049704443909966006,"48":-0.1602515812292729,"49":-0.0378882578297024,"50":-0.1621235935013846,"51":-0.19062558927877934,"52":-0.0641071357870607,"53":-0.0373482306694199,"54":-0.09312488759984244,"55":-0.10639528370272659,"56":-0.1436426621418818,"57":-0.07004164344263297,"58":-0.044629783334002436,"59":-0.19368668071271009,"60":-0.13878037078352515,"61":-0.046295160668997644,"62":-0.07050616192038231,"63":0.09350252111904293,"64":-0.07676724894420014,"65":-0.1538020274756448,"66":-0.15693146988504292,"67":-0.2873364161920301,"68":-0.14112390856298,"69":0.1852861279270165,"70":-0.1579861651017371,"71":0.05688473204911887,"72":-0.12464393396694641,"73":-0.062129343099278915,"74":-0.050058115937190305}},{"sx":5,"sy":5,"depth":3,"w":{"0":0.03426920724064896,"1":0.011741167222677948,"2":0.09908829425042084,"3":0.193773691535257,"4":0.04967632395219144,"5":0.10832386333302142,"6":0.15945712518109012,"7":0.08198214672653018,"8":0.31218046565381696,"9":0.12570600654923467,"10":-0.011872074673148544,"11":0.08842646445631074,"12":-0.11438694868553552,"13":-0.10785801248591947,"14":0.0023708207698805044,"15":-0.10080837379493461,"16":-0.00830785612767775,"17":-0.09115426370263005,"18":0.0012202815999271218,"19":-0.011687088435025932,"20":0.05223515977656931,"21":-0.22696300066003594,"22":-0.023139561438821045,"23":0.08595012581343421,"24":0.015823931018787006,"25":-0.0944043556962769,"26":0.18156644773280928,"27":-0.14870742403503837,"28":0.1964432131173345,"29":0.13644024050744316,"30":-0.09515384154156936,"31":-0.1793217684300588,"32":-0.08502264762423836,"33":-0.06762784137263621,"34":-0.07779205484927396,"35":-0.031048259781332598,"36":-0.04538629313484711,"37":0.13202246536789655,"38":0.10760243974047798,"39":0.05049079826802119,"40":-0.08360016060394236,"41":-0.08138253717088406,"42":0.11491237270500326,"43":0.08198599804253578,"44":-0.026869576244282576,"45":0.010017811832121725,"46":0.0909491528429137,"47":0.12088704912820346,"48":-0.05006213704289364,"49":0.09783018976649577,"50":-0.0013786923503331446,"51":0.25198090784977406,"52":-0.16014688128749588,"53":-0.046645689044754336,"54":-0.0550817483960702,"55":0.20455025460163573,"56":0.009447303482664126,"57":0.120251299350373,"58":0.3977072852941933,"59":-0.059516707683382034,"60":-0.03136947550446647,"61":0.3692343710142865,"62":0.17702112138652643,"63":0.010369641121560592,"64":-0.11192799015334158,"65":0.051509868686847565,"66":0.10383359989856462,"67":0.08822694391569132,"68":-0.011328801944078646,"69":0.031473446028231204,"70":0.011950273927917244,"71":-0.06985159993697118,"72":0.20738316092552478,"73":0.032605005275059,"74":0.0075505327974720185}},{"sx":5,"sy":5,"depth":3,"w":{"0":0.11723119146195676,"1":0.12266254565008508,"2":-0.2560386206280357,"3":0.07878301468262866,"4":0.206682189492423,"5":-0.15167421565686767,"6":0.004843724660944761,"7":-0.18868475098298734,"8":-0.19483069626345995,"9":-0.057315105723566406,"10":-0.1644731965725396,"11":0.02372142329813397,"12":-0.04379123619913695,"13":0.14737446227252846,"14":0.07955423444777185,"15":0.40217341078664365,"16":0.15289470770258354,"17":-0.14379190902360092,"18":0.19108864643794793,"19":0.0861743395503855,"20":-0.13939357189383716,"21":0.05354899754148091,"22":-0.10512163090994608,"23":0.20767555807142363,"24":-0.06550903425930374,"25":0.045261545680382535,"26":0.10515754472642164,"27":-0.07682934704078116,"28":-0.013004995023139763,"29":-0.008687762459407033,"30":0.10618469423358895,"31":0.0953344317886682,"32":-0.08235072047648162,"33":0.0850391913554268,"34":0.04395896680837967,"35":-0.13571673148183092,"36":0.056991059947168216,"37":-0.24582439561697428,"38":0.2585756329375601,"39":-0.2797356276092464,"40":0.0057357155187905415,"41":0.16704797148343514,"42":-0.11815199840928622,"43":-0.20081495391825213,"44":0.09706855561900997,"45":-0.004238362060609526,"46":0.038700735088431554,"47":-0.38778167811133707,"48":-0.12695500419621644,"49":0.13238283001596046,"50":-0.06571244429067075,"51":-0.10541516475127669,"52":-0.03071782801347852,"53":-0.14124445353734155,"54":-0.026649818782202458,"55":-0.16061892302522351,"56":0.02452196123954426,"57":-0.032410093220866985,"58":-0.034552836172391826,"59":-0.04169559388228531,"60":0.12946054807116597,"61":-0.012037810482378503,"62":-0.21576054033918757,"63":-0.11272520522299535,"64":0.06272489407341199,"65":0.10773742828130949,"66":0.0464237797559684,"67":0.11969951838216439,"68":0.0961162858270302,"69":-0.11493124164033382,"70":0.1095165552161958,"71":-0.1221232473603597,"72":-0.1993382052403039,"73":-0.11225122321297168,"74":0.06180481982692455}},{"sx":5,"sy":5,"depth":3,"w":{"0":-0.14790728489830685,"1":0.18932023054141273,"2":0.15625471134938948,"3":-0.09348176481009553,"4":0.02274218422979714,"5":0.05674356608429767,"6":-0.040517158947634295,"7":-0.14935187578522985,"8":0.09302510457967483,"9":-0.08495708778251175,"10":-0.15530930364547785,"11":0.14247114085430168,"12":0.10608220712834275,"13":-0.012109489084339705,"14":-0.158235867573998,"15":-0.09748182081046415,"16":0.08084291140420309,"17":-0.020471777173556197,"18":0.07209933418002402,"19":0.11245908357381364,"20":0.05851411747745758,"21":-0.021277546154053188,"22":0.15446909129890538,"23":0.0660480528884692,"24":-0.041310016510927396,"25":-0.03634105118818497,"26":0.0852517786992778,"27":-0.18531158536377873,"28":0.15022088370512054,"29":-0.04048577892306201,"30":0.06029226244629071,"31":-0.19348502004184429,"32":0.008700040757327313,"33":0.015453982787463313,"34":-0.11802363498683693,"35":-0.25176811879766126,"36":0.09394192428197186,"37":-0.03255830376374923,"38":-0.026226338345477235,"39":0.1767538514729453,"40":0.19748369252615353,"41":0.22417668853085257,"42":0.028740785454732146,"43":-0.086405915231164,"44":0.3410286236622932,"45":0.17348573563931788,"46":0.1694828636615375,"47":-0.04930519527157923,"48":-0.0932874877758567,"49":0.019803029371950012,"50":-0.105255005789092,"51":0.04638657077912794,"52":-0.055189171212865346,"53":0.004588171174017161,"54":0.08591879103382156,"55":0.04356347591914259,"56":-0.03431402271298197,"57":0.002975082116289507,"58":0.025189471017657523,"59":0.2842137336857294,"60":-0.07112288609840207,"61":-0.031609370771294505,"62":0.02690175027542236,"63":-0.004931680511404234,"64":0.22311815231032686,"65":-0.11669332828134464,"66":0.11335147428144585,"67":0.1439794497103961,"68":0.07955465728421736,"69":-0.012512099520452551,"70":0.18714306375240491,"71":0.054463496600789196,"72":0.07799583001599457,"73":0.14947555222739745,"74":-0.1622881491226353}},{"sx":5,"sy":5,"depth":3,"w":{"0":-0.06903535154700587,"1":-0.08036904010565041,"2":-0.06720756966777831,"3":-0.062102880766562486,"4":-0.14090181040237842,"5":-0.07452241637761255,"6":0.28634581944323567,"7":-0.22065863682954992,"8":-0.06096535707919494,"9":-0.06526523783811582,"10":0.033047541110825036,"11":-0.09527534190983818,"12":0.08374089640299982,"13":-0.06618680245262622,"14":-0.12297798583351897,"15":-0.05855372007853432,"16":-0.09353895997580541,"17":-0.02649883819875476,"18":-0.0012045557777194185,"19":-0.15173352654391495,"20":-0.007753845467000125,"21":-0.15266609314488663,"22":-0.18956760025676395,"23":-0.0007200330991260103,"24":-0.1122425485834884,"25":0.10384789906335887,"26":-0.0745193850378016,"27":0.03860943180970167,"28":-0.32259201485811617,"29":-0.02484134241829561,"30":0.14771267611449754,"31":-0.017771701207166545,"32":-0.29239967010269974,"33":-0.00745639938430165,"34":-0.1529796833981654,"35":-0.0776159002206089,"36":-0.09075462578611984,"37":-0.11816667421894998,"38":-0.03705962601207222,"39":-0.019690364296806387,"40":0.0803823434905874,"41":0.09953921694710796,"42":-0.014959530400983877,"43":0.0017496276097669742,"44":-0.09185264710098531,"45":0.07387427715094724,"46":-0.26598815902934375,"47":-0.08845267251661575,"48":-0.020957469455046496,"49":-0.020039328093805014,"50":0.008294730270155261,"51":-0.10637292478427257,"52":-0.1919265064186702,"53":-0.2506177754821583,"54":0.09164043147491133,"55":-0.09399980755919966,"56":-0.13295381348328952,"57":-0.10114429550868388,"58":-0.008864136160167986,"59":-0.12546690507732494,"60":-0.043388593764285534,"61":0.02815336442148033,"62":-0.033920890368148264,"63":0.06664145931700736,"64":-0.19827292515867218,"65":-0.09825154334537312,"66":0.06925685049566883,"67":-0.16981231502018937,"68":0.01752264990043557,"69":-0.04702442753054417,"70":-0.1893960647242328,"71":0.07855002612220972,"72":0.1708432992176444,"73":-0.08077767738177331,"74":0.044875340282986724}},{"sx":5,"sy":5,"depth":3,"w":{"0":0.008756495495961523,"1":-0.25634348785968625,"2":-0.08390667492110786,"3":0.047262124086125554,"4":0.038323129654608615,"5":-0.1125034312511345,"6":-0.09546234204146462,"7":-0.07223230706505446,"8":-0.19493310200663588,"9":-0.007929699401548378,"10":-0.17359114562097047,"11":-0.15591046390325078,"12":-0.1043525911315769,"13":-0.2413439444769107,"14":0.055943134640568194,"15":-0.11326031046598667,"16":-0.1599275238873408,"17":0.01690700282107878,"18":-0.12592482328025062,"19":-0.16904795683585008,"20":-0.04627278373233228,"21":0.024875869622192032,"22":-0.15366997020347817,"23":-0.11299691120081859,"24":-0.15362972521004398,"25":-0.04998701805879705,"26":-0.22458757972640903,"27":-0.034986673832111494,"28":-0.15267275508693098,"29":-0.023681416006159788,"30":0.15498985914578078,"31":-0.21792572029706056,"32":-0.1028324038076152,"33":0.15348904184837311,"34":-0.12078508997102667,"35":-0.09419713733932407,"36":-0.19395714256141233,"37":-0.318971792861736,"38":0.011770470615060846,"39":-0.1318448793551026,"40":-0.017960393675246586,"41":-0.31037315623030554,"42":-0.08446269808894599,"43":-0.037240212595114966,"44":-0.09419155490085714,"45":0.06865808182467828,"46":0.04676583538340186,"47":0.05214001571331855,"48":-0.014888065633276657,"49":-0.2827009415228594,"50":-0.14762780296057718,"51":-0.012599026747286992,"52":-0.06829597716177715,"53":-0.1524157812557347,"54":-0.06668777198684256,"55":-0.09253757846800816,"56":-0.06824921685170415,"57":0.03749034380810893,"58":-0.14773816949800692,"59":-0.3048348048359339,"60":-0.04054600050552882,"61":-0.094724696381493,"62":0.06620959058702995,"63":0.06197937970020629,"64":0.14694415414368606,"65":-0.2388948307267928,"66":-0.07839019871289556,"67":-0.18212996070142606,"68":-0.002859945510427141,"69":0.19156546604048602,"70":-0.10722214673884614,"71":-0.11214529238307135,"72":-0.055780283797813086,"73":-0.1306065077062868,"74":-0.07525623586674808}}],"biases":{"sx":1,"sy":1,"depth":16,"w":{"0":0.04672201360797425,"1":0.04195744575739541,"2":0.04690587099154017,"3":0.12550525788155462,"4":0.05627999025252162,"5":0.1215148137365671,"6":0.029433393284786124,"7":0.021460551635247887,"8":0.03597734653883921,"9":0.08418387038201182,"10":0.12030994078341949,"11":0.05366715063475991,"12":0.02584194241088382,"13":0.027649169216591423,"14":0.1317117041190697,"15":0.14360192941954955}}},{"out_depth":16,"out_sx":32,"out_sy":64,"layer_type":"relu"},{"sx":2,"sy":2,"stride":2,"in_depth":16,"out_depth":16,"out_sx":16,"out_sy":32,"layer_type":"pool","pad":0},{"sx":5,"sy":5,"stride":1,"in_depth":16,"out_depth":20,"out_sx":16,"out_sy":32,"layer_type":"conv","l1_decay_mul":0,"l2_decay_mul":1,"pad":2,"filters":[{"sx":5,"sy":5,"depth":16,"w":{"0":-0.012771872797878961,"1":0.08696926223930633,"2":0.15219170770888427,"3":-0.061332785888110836,"4":-0.035677497388076504,"5":-0.06380892063494656,"6":0.11370927481069436,"7":0.061651587578827945,"8":-0.00014178825049085804,"9":-0.04832057066267883,"10":-0.08698862941641461,"11":0.06250929223115056,"12":-0.011328980562926807,"13":0.05094260181144994,"14":-0.13001689019407942,"15":-0.010232407595647901,"16":0.0469936292642751,"17":-0.07187689881110729,"18":0.054148602116329964,"19":-0.06153326926550814,"20":0.02932355946096216,"21":0.0396617152458458,"22":0.09865256302883507,"23":-0.025909958872093564,"24":-0.05315192290689995,"25":-0.046563372198971005,"26":-0.013353035910807031,"27":0.010723340489833047,"28":-0.09476221420945079,"29":-0.023409287638082046,"30":-0.03875260512780401,"31":-0.037124371599872925,"32":0.010254987503418425,"33":0.004666210456380735,"34":-0.028590428002360124,"35":-0.017533796578939585,"36":0.0695352621230307,"37":-0.10231129609038081,"38":-0.033007771084626124,"39":-0.012426379564087488,"40":-0.10267325578337376,"41":0.012014722379225407,"42":-0.012982014836566838,"43":-0.01839088436461623,"44":0.0003977223082982901,"45":-0.00487304290448004,"46":0.017908880707944694,"47":-0.11134431119246678,"48":-0.0040080451029624615,"49":0.09979298097107242,"50":0.045106059279609964,"51":0.009739150494302856,"52":0.0805229885609861,"53":0.05921820526439235,"54":0.044711145197177844,"55":-0.030946029725326077,"56":0.003938505163723703,"57":0.03703704597106891,"58":-0.08269944673894206,"59":0.000875688584906327,"60":-0.002454949347450865,"61":-0.04552917870163106,"62":0.06527428842682947,"63":-0.05320782436593651,"64":-0.0014669592373499675,"65":0.023161780837663216,"66":0.023232509740722766,"67":-0.03712892257207126,"68":0.05583861098227566,"69":-0.0062531960728756135,"70":-0.050696579758298214,"71":0.0424163542647533,"72":-0.045102247328943086,"73":0.06275371577482061,"74":-0.0660060260619746,"75":0.016253855900654594,"76":0.0680162445575095,"77":0.09117806377614521,"78":-0.04655515627965012,"79":-0.017602428634337274,"80":0.006771551999427707,"81":0.023282177133772723,"82":0.03904619173318504,"83":-0.0727142456630109,"84":-0.0652240882519912,"85":-0.013588928783913243,"86":0.013395038043197305,"87":0.009484366990656143,"88":0.06267072106873467,"89":-0.0575619592335754,"90":-0.041712958694642435,"91":0.0629471263476979,"92":-0.0882996082840142,"93":0.018537448972609838,"94":-0.024030717414564695,"95":0.04120765528714306,"96":-0.041927638425697376,"97":-0.01828083041009282,"98":0.028117077416089004,"99":-0.029649176246382747,"100":-0.012298772321982246,"101":0.0010207813378721618,"102":-0.05047315637859657,"103":0.00984765310400693,"104":0.00531742104784855,"105":-0.03004517063500769,"106":-0.06857357075634538,"107":0.08853642408620684,"108":-0.042013931502930126,"109":-0.00690528596107316,"110":-0.10076652114468919,"111":0.006644319533671861,"112":-0.08454555785105423,"113":-0.03981786938999429,"114":-0.13289504283146328,"115":0.019810746003866102,"116":0.09213333672536099,"117":-0.03367262950052363,"118":-0.06404259399028166,"119":-0.054523657682410284,"120":-0.04942030648234532,"121":0.06941135927384495,"122":-0.052036938134069836,"123":0.063124927503156,"124":0.036873491172917015,"125":0.04423562556080029,"126":0.04879864844867718,"127":-0.09455433691258673,"128":0.05170429596141399,"129":-0.004977300660906838,"130":0.028515263806339376,"131":-0.10145010005030661,"132":0.13676888372071191,"133":-0.10575350618039964,"134":-0.014746066373528068,"135":-0.036080997569439104,"136":0.004534944141012612,"137":0.06535943962758754,"138":-0.07120318002179137,"139":0.0120890049879973,"140":-0.026949891112370655,"141":0.016151704331161667,"142":-0.05430415084030938,"143":-0.012329658058267445,"144":-0.02317268197908395,"145":-0.026625637351825954,"146":-0.059716239612785854,"147":-0.12851684140249417,"148":0.05312695911307597,"149":-0.04610237170868447,"150":-0.13457329452002614,"151":-0.0749505337590562,"152":0.055139457257219866,"153":0.06889065562521093,"154":-0.06166854853595996,"155":0.022997552256912482,"156":0.025084031718828177,"157":-0.02183968728136643,"158":-0.09588732379834713,"159":-0.10780990765422882,"160":0.02168817244841659,"161":-0.015425638712560502,"162":0.058012322847135006,"163":-0.008848460162044415,"164":0.07054640657795645,"165":0.004761314267796647,"166":0.028188902985513298,"167":0.07831620344896785,"168":0.03996244952338462,"169":-0.0378283431787687,"170":0.031367519038893996,"171":-0.026619304134562077,"172":0.02868221382423599,"173":0.02031464773556304,"174":-0.07319177848960617,"175":-0.08099027105212861,"176":-0.1592951920352171,"177":0.02215147180980304,"178":0.029058927965189617,"179":0.0028705838840515996,"180":-0.034581937419745815,"181":-0.0670065170697605,"182":-0.047265317434137546,"183":-0.0014831715223908744,"184":0.0567201283707634,"185":0.020089827330717784,"186":-0.0020502968966577967,"187":0.012507458170503938,"188":-0.09083416348328367,"189":-0.04532559626083073,"190":-0.018460498118651275,"191":0.02889302873458081,"192":-0.09457300572504648,"193":-0.0641131041787161,"194":-0.06891511699155499,"195":-0.01005920470765516,"196":0.08377536690915241,"197":-0.012118133037090365,"198":-0.09596285305672562,"199":0.0017604282122193648,"200":-0.030678874155713746,"201":-0.002195398874690066,"202":-0.03625530597050608,"203":0.036713782090219534,"204":0.12250129483231402,"205":0.008582732265208545,"206":0.007375443479383042,"207":-0.08875501384754529,"208":0.013662013419018803,"209":-0.057568278874140906,"210":-0.08944194961721218,"211":-0.053872405323099934,"212":0.07926169806817264,"213":-0.06301560386847967,"214":-0.03499683546914158,"215":-0.09578128014089309,"216":-0.11028493037255731,"217":0.043446467015327415,"218":-0.056038204578564704,"219":-0.07973025069710082,"220":0.0713191054960541,"221":-0.060860568597180614,"222":-0.03562316823418273,"223":-0.0019412596813563302,"224":-0.04949530892748196,"225":-0.039141047917488916,"226":-0.005231884208690941,"227":-0.12098310431173982,"228":0.23457402676537323,"229":-0.058522030966035414,"230":-0.12575377149609474,"231":-0.05860270180851363,"232":-0.03521729486550863,"233":0.05245880795073322,"234":0.0073951708589727145,"235":0.07186148328309801,"236":0.13538294320672525,"237":-0.07408220077142529,"238":-0.07138813701083474,"239":-0.07362428579192819,"240":0.00831686584699301,"241":-0.10077494067098984,"242":0.08711684165168641,"243":0.07454561184644007,"244":-0.07112390654057157,"245":0.016470592536580796,"246":-0.05014014361947563,"247":0.03249791585627343,"248":-0.013481230070462837,"249":-0.07386070340992223,"250":-0.038320728129442046,"251":-0.10019332489096837,"252":0.028352662596845855,"253":-0.06236316830379175,"254":-0.053932014443444656,"255":-0.04115821462121418,"256":0.09236370016845778,"257":-0.12132647100376415,"258":0.008615530383889208,"259":-0.004441940930016683,"260":-0.041050217206344344,"261":-0.04034531726463726,"262":-0.11080182340066017,"263":0.0006228355283529305,"264":-0.005623844234058025,"265":-0.020832482339158766,"266":-0.17556004064192038,"267":-0.08639664878964431,"268":-0.04549758096845148,"269":-0.04200716543246946,"270":-0.02832366304575504,"271":0.03283582473794899,"272":0.048493409553955966,"273":-0.13363244857996978,"274":-0.06002366318582843,"275":-0.05470854073891709,"276":0.06466077422336311,"277":-0.06905291746173291,"278":-0.07969549744684966,"279":-0.045227373177445865,"280":-0.05176725605658315,"281":0.020388068079041963,"282":-0.05338925595571747,"283":-0.04323410402905396,"284":-0.04987999221206891,"285":-0.1759759758525473,"286":0.03632586903200343,"287":0.10907290384901067,"288":-0.06317414457082435,"289":-0.1026351253815976,"290":-0.030292649969646753,"291":-0.06250147238373238,"292":-0.005714698069409349,"293":-0.08552705489973386,"294":-0.006934932381752629,"295":-0.04169705391796301,"296":-0.06739391048746905,"297":-0.06493845592180975,"298":-0.07824083771630808,"299":0.0012771651295090324,"300":-0.002424828944889683,"301":-0.08637765395723115,"302":-0.14425203577380463,"303":-0.06467135720283303,"304":-0.026275478380344015,"305":-0.05521971877693822,"306":-0.08200792544926473,"307":-0.11841372764054511,"308":0.0029440672825484654,"309":-0.15503559872341605,"310":-0.04419104851711772,"311":0.04902207192116355,"312":-0.0674482001336173,"313":0.03803862817157231,"314":-0.05969919265499131,"315":-0.0675212920815158,"316":0.09652274801585092,"317":-0.05312184617521144,"318":-0.05442667297051362,"319":-0.0010290921822421484,"320":0.007731296748846579,"321":-0.025307811202183547,"322":0.0007129196588210981,"323":-0.04218513217625986,"324":-0.07189180553607787,"325":0.05374340841252736,"326":-0.029283687772010538,"327":0.042382537802608596,"328":0.05662535020379646,"329":-0.08911682481849127,"330":-0.02059969804029567,"331":-0.016706039594328603,"332":-0.00014612625307647037,"333":-0.07171085799719501,"334":-0.04809771617333376,"335":0.014597574485692622,"336":0.07281544402697411,"337":0.015890455562449918,"338":-0.09473414794837301,"339":-0.014183550668938375,"340":-0.023699688880619532,"341":0.10469523071000193,"342":-0.09670966019032377,"343":-0.03329826223900357,"344":-0.037090354435422405,"345":-0.0747603535962264,"346":-0.07425156967218433,"347":-0.0397588024207732,"348":-0.07455400403565833,"349":-0.04633660184686288,"350":-0.11178009925742072,"351":-0.08665501220035932,"352":-0.030250123193023594,"353":-0.06293211219648505,"354":0.06429046357430515,"355":0.02417064877709398,"356":-0.01652560316807685,"357":-0.042061323315054217,"358":0.012900672034728439,"359":-0.09436871289794674,"360":0.03479609973932313,"361":-0.021899301170264767,"362":0.03723967938006478,"363":-0.17583881995765394,"364":-0.012582159559350034,"365":-0.005236327720311009,"366":-0.01346170433880532,"367":-0.0039358850849979385,"368":-0.03196116644871621,"369":-0.05997151860360459,"370":0.03248989171922478,"371":-0.03131834428940866,"372":0.10872760428228767,"373":-0.03801235583729374,"374":-0.08185994392225873,"375":0.04112252655545791,"376":-0.022301660702337366,"377":0.03498165187612631,"378":0.04231811968884688,"379":-0.07431396199733611,"380":-0.007850252774282647,"381":-0.11280243119426527,"382":0.034930068648619826,"383":-0.09453285652207376,"384":-0.005947497164594414,"385":-0.10772082263534034,"386":0.06760595118001822,"387":-0.012676141595598881,"388":0.024861888852268678,"389":-0.040823706331599346,"390":-0.0825433176311542,"391":-0.016054336457313835,"392":-0.012415295883805924,"393":0.01753852508212227,"394":-0.055410962568302316,"395":-0.01887107852713812,"396":0.04028688799063741,"397":-0.10289755012351182,"398":-0.09662210943429338,"399":-0.01446568026469844}},{"sx":5,"sy":5,"depth":16,"w":{"0":-0.06514343947754633,"1":-0.015349906770772052,"2":-0.024583920104309216,"3":0.0357572255906103,"4":0.01862757299823836,"5":-0.03811570626724995,"6":-0.012005199842431431,"7":-0.11062767892034586,"8":0.014735810989746726,"9":-0.10861126454088048,"10":0.022549236846005332,"11":-0.026318571051577092,"12":0.017897875713991096,"13":0.009709815428431818,"14":0.06101300682632055,"15":0.030038942949559656,"16":-0.05223566386711643,"17":-0.016161586969680168,"18":-0.007035202494176914,"19":-0.011235281479238126,"20":-0.04927807860540753,"21":0.006271721960451956,"22":-0.060876692990148515,"23":-0.05883098416831203,"24":-0.0450340057702938,"25":-0.07219422889611653,"26":-0.020505910305228654,"27":-0.1538790988751124,"28":0.04488387496722251,"29":-0.1185339884713546,"30":-0.07119814431066045,"31":-0.0346695952617511,"32":-0.0711469585229953,"33":-0.06262988431506014,"34":0.00044435253281996216,"35":0.03957295248631677,"36":-0.030151221202515538,"37":-0.020019950858456096,"38":0.008369758482625889,"39":0.03590331914455283,"40":0.008929527732104366,"41":0.09029513094783315,"42":0.021439775638060755,"43":-0.059128390400158784,"44":-0.0015442892670549915,"45":-0.06113817839709238,"46":0.00668925636730361,"47":0.036203650938219124,"48":-0.01698681328722716,"49":-0.016968922160447576,"50":-0.023217429409969893,"51":0.0765403209837632,"52":0.0800462531337742,"53":0.04189068001110799,"54":-0.02797841986708752,"55":0.027632281773657195,"56":-0.054311706926688304,"57":0.030708875918282523,"58":0.0013045582904050365,"59":-0.009125119536382875,"60":0.033527536163530526,"61":-0.03254092999146243,"62":0.02534681231830973,"63":0.06988436971950528,"64":-0.03704929353112563,"65":0.03731081099209843,"66":0.022146177094210708,"67":-0.02178631096310963,"68":0.0838747969515755,"69":0.07388613478869643,"70":-0.049162917624141156,"71":0.0027204804747509703,"72":-0.09123653112958123,"73":0.035925082311148895,"74":0.06010288489756318,"75":0.01552240694587482,"76":0.015001368283256628,"77":0.04081414306483474,"78":-0.039762025619014985,"79":-0.00857589786399856,"80":-0.0825012003815939,"81":-0.1714391247837527,"82":-0.15670780137919,"83":0.053740525504124996,"84":0.04037430938035378,"85":0.042771498294210446,"86":0.06579447278568891,"87":-0.057845578597804904,"88":-0.15403494928309883,"89":0.004109793564149279,"90":-0.012392681384097156,"91":-0.02609873726840958,"92":-0.014357666996338721,"93":0.016952217809336003,"94":0.01740098581968378,"95":0.024500990034564404,"96":0.08477595754401117,"97":-0.0344413065838107,"98":-0.05955668850317759,"99":0.055471608544399226,"100":-0.08088841044017912,"101":0.0792990846417659,"102":0.07518247939056331,"103":-0.045875736207985136,"104":-0.07386602646954511,"105":-0.02072980330512345,"106":-0.0040560552337565265,"107":-0.053068230875310984,"108":-0.018411847527063565,"109":0.032507760798446604,"110":0.0028606522673374603,"111":0.01369209163574085,"112":-0.015948758814944067,"113":0.056602871687272446,"114":-0.028797731189294268,"115":0.034884724764727516,"116":-0.003612884661991847,"117":0.07242977594181915,"118":-0.01796028425883315,"119":-0.0069907086839971246,"120":-0.039053638972184404,"121":-0.026923148996801195,"122":0.011200721116478041,"123":-0.060031223081340616,"124":0.024109139128838674,"125":-0.06193744401558959,"126":0.04737036292544804,"127":0.014628374774828236,"128":0.025864681234985528,"129":0.01908922104396601,"130":0.013981739378746607,"131":0.1044466262517134,"132":-0.08341724666232304,"133":-0.043865426594051904,"134":-0.019471773103993416,"135":-0.010567132789502349,"136":-0.14383176837248304,"137":-0.11487038406991155,"138":-0.015458407935350764,"139":-0.0783005872823368,"140":-0.041980798782931664,"141":0.009016327209958014,"142":0.05164401964421342,"143":0.03777551979843363,"144":0.01529121725171537,"145":-0.06341406333991564,"146":-0.052357224261727696,"147":0.0794834422871217,"148":0.002800309663838503,"149":0.053178747954607294,"150":-0.028261175482490474,"151":-0.10262030434784475,"152":-0.06646137305254475,"153":0.027163366361411298,"154":0.017211263632305206,"155":-0.01323607136446299,"156":0.0013125469875018,"157":-0.07718132400260182,"158":0.03549512619046607,"159":0.08525843935452294,"160":-0.012793246073190524,"161":0.0013102969615569927,"162":-0.10545201466569643,"163":-0.04766199065223789,"164":0.032149264913349095,"165":-0.037760060565474526,"166":-0.05467967020038137,"167":-0.06527903985640113,"168":-0.10688050599232839,"169":0.041547427052006126,"170":0.05144049816288412,"171":-0.038767912281932805,"172":0.060823485805412074,"173":-0.03002202730946544,"174":0.08324035620514932,"175":-0.0369331732637848,"176":-0.017182496626132363,"177":-0.03239299757622899,"178":-0.06731798146900864,"179":0.08555298230304122,"180":-0.09922972411543733,"181":-0.012234795704483372,"182":-0.021946851123102365,"183":-0.023412783940222934,"184":-0.010602278224685364,"185":-0.0759417061058568,"186":0.01605085998861998,"187":-0.030114417331452096,"188":0.010912132062865608,"189":-0.1157737424819508,"190":-0.0601109307255559,"191":0.08754298428548786,"192":-0.050652239546916084,"193":-0.09830583966360043,"194":-0.0903489248225215,"195":-0.00965936775740303,"196":0.008415180312647293,"197":0.09212981803877607,"198":0.0033613558774562673,"199":0.00034179536578052354,"200":-0.04674115858576395,"201":-0.04589892512467018,"202":0.20862133106919256,"203":-0.023470182119579772,"204":0.07725981834358468,"205":-0.028087907106658632,"206":-0.007466986274296265,"207":0.04304240115023718,"208":-0.09110781126873509,"209":-0.05301515716792191,"210":-0.021389931413491353,"211":-0.02220963139058882,"212":-0.012188087679482734,"213":0.03841914741177458,"214":-0.06805803358237177,"215":0.036841812759301235,"216":-0.0720173182235998,"217":-0.1082275329117021,"218":0.018254343127664992,"219":-0.064266549623571,"220":-0.030687412985295447,"221":-0.060552525125458424,"222":0.019180277297232286,"223":0.11601890444848155,"224":-0.08042978164687288,"225":-0.08763651461382642,"226":-0.09843818017762154,"227":-0.0018288869615631388,"228":0.08288368903139429,"229":0.039542778541197275,"230":-0.06210517180522258,"231":0.02579346176907705,"232":-0.12561179278369927,"233":-0.09027131193585416,"234":0.012965532921396673,"235":-0.1109261131819424,"236":-0.068452166606115,"237":-0.045867739297154216,"238":0.008223009483633846,"239":-0.008537420089834977,"240":-0.029694214332258124,"241":-0.06848199084224126,"242":-0.02951106577643622,"243":-0.013174029110343325,"244":0.04341957837806157,"245":0.07625589468021882,"246":-0.021147051055009074,"247":-0.07097161698261233,"248":-0.09637454815225856,"249":-0.009834481898276123,"250":-0.06957103177730789,"251":-0.04643855036066461,"252":-0.07248997454980495,"253":-0.05983381076172975,"254":-0.04177037839293426,"255":-0.03169124803781294,"256":-0.019528248405485733,"257":-0.039135905270324636,"258":-0.07795365746471031,"259":-0.14828373166335582,"260":0.04250977753047421,"261":0.01884195371984777,"262":-0.0526393792350509,"263":-0.0991809739110982,"264":-0.11361565368008532,"265":0.0019326049195337851,"266":0.09065360788603011,"267":-0.06929134860495322,"268":0.06486929698717529,"269":-0.06886310438801625,"270":0.048921569429256045,"271":-0.0041906444757215935,"272":0.06908524716441827,"273":-0.011394501958190549,"274":-0.04370047859694427,"275":-0.049012557397891274,"276":0.02676285606713548,"277":0.019413125121110472,"278":0.0522828167568383,"279":0.05515653809742582,"280":0.009296963514051645,"281":-0.0290837090055899,"282":-0.10041397725345529,"283":-0.0801798838996431,"284":0.07084186222716417,"285":-0.07316371917078998,"286":0.03372144749708959,"287":0.006262861012482626,"288":0.0015740356292641116,"289":-0.018114474955312723,"290":-0.024509942426254268,"291":-0.1182074788747747,"292":0.08836789063423857,"293":0.05338997791889319,"294":0.01748093813989329,"295":0.001178437197096094,"296":0.023403994973278268,"297":-0.12094346434675497,"298":-0.019202477325966937,"299":-0.05095986700476752,"300":0.024239457410768682,"301":0.03408935691754473,"302":0.12295028763679061,"303":0.026572131472628307,"304":0.004426462740096937,"305":-0.046802886833136145,"306":-0.0011041776184113723,"307":-0.006276716135001211,"308":-0.016011741019560346,"309":0.012723108792214388,"310":0.05212319501671037,"311":0.016843335269476116,"312":-0.05302834489417663,"313":0.08067769371032239,"314":-0.022176279191102172,"315":0.015220271650879483,"316":-0.06986095407060502,"317":-0.09662706667037756,"318":0.08048664039726708,"319":-0.08220925130383185,"320":-0.08105586285669543,"321":-0.063279885423307,"322":-0.09191495086534505,"323":0.05899458449473743,"324":0.01536272057033833,"325":-0.04396016541215983,"326":-0.019478420573018903,"327":-0.049277320807831586,"328":0.04859964224734037,"329":-0.016319573485703405,"330":-0.014199377415861802,"331":-0.08472978177420772,"332":0.007783720431438894,"333":-0.1400159708953477,"334":-0.01565745379393953,"335":-0.02720575493910027,"336":0.0326158566819908,"337":-0.040397322729351544,"338":0.019079007380407947,"339":0.01641694252017231,"340":-0.04695805376211868,"341":0.04191222700931342,"342":-0.032847334292273524,"343":-0.08669878364987325,"344":0.0027000024479500043,"345":-0.07929651038929497,"346":0.0711385499286482,"347":-0.04404564218801122,"348":-0.04304027702653233,"349":-0.06756099116381625,"350":-0.023677150436450106,"351":0.013042272729293284,"352":-0.02262364226807974,"353":-0.048047076888385165,"354":-0.045198029992084554,"355":0.021578431162895553,"356":0.014378025758719368,"357":0.10299391138523538,"358":-0.06313230471740286,"359":-0.005208266020099299,"360":-0.02402863528412517,"361":-0.12374038859694232,"362":0.10485585343353163,"363":-0.09579116896282973,"364":-0.025963427647171022,"365":-0.01934799295020371,"366":0.08473284837179404,"367":0.09174545837927758,"368":-0.0218745907052452,"369":0.010324402548690301,"370":-0.07108139091453734,"371":-0.007091435217594804,"372":0.0015825211415908353,"373":0.06541462251776664,"374":0.038854323937134595,"375":0.05855654929898537,"376":0.02490693650686354,"377":-0.004019272810184387,"378":0.0803075675719737,"379":0.012839120052881342,"380":-0.014724375725668707,"381":-0.009491059933398882,"382":0.006267854230620642,"383":0.04302563929447806,"384":-0.02715969271302625,"385":-0.02408887488263802,"386":-0.01646172875760247,"387":-0.035085795207458595,"388":0.06476487938028251,"389":0.04994301492864216,"390":-0.00846568575217532,"391":-0.11428187507914189,"392":0.0937112739765492,"393":0.004358707925511549,"394":0.0032703329099225903,"395":0.003954462415199052,"396":-0.049395326504143765,"397":-0.041391533269192815,"398":0.058122655161012775,"399":0.03912304885255036}},{"sx":5,"sy":5,"depth":16,"w":{"0":0.019499197922652558,"1":0.0905253044557154,"2":0.05627974117977402,"3":0.08377420045443526,"4":-0.028572848842218206,"5":0.014221452660148534,"6":0.0033066763877419468,"7":-0.030752331184785698,"8":-0.024512869947260776,"9":-0.06488194129738206,"10":0.0862583163776194,"11":-0.0603417028954153,"12":0.0373918264316832,"13":-0.03998972445645134,"14":0.16092884977643604,"15":0.12295183997677597,"16":0.04258154447923945,"17":-0.04634481399754334,"18":-0.09075916041926789,"19":0.05248686126124998,"20":0.020142210632185815,"21":0.039611457843255676,"22":-0.025403755106587458,"23":-0.09830737746692772,"24":-0.0693486341810121,"25":-0.002830209192847347,"26":0.057078538536881177,"27":-0.08855731225732788,"28":-0.00800704523137222,"29":-0.04688484305290072,"30":0.04723275459845565,"31":0.10169035978778469,"32":-0.04409662869964229,"33":-0.005673796373714701,"34":0.036894236402479665,"35":0.07768138735901042,"36":-0.06374714789271382,"37":0.06622173416635567,"38":0.007940304466668291,"39":-0.07650818750507214,"40":0.014839652125876405,"41":-0.07353932103716924,"42":0.0634310350722258,"43":-0.04678280187380835,"44":-0.041490945574331445,"45":0.05600768686820006,"46":-0.025669319194229167,"47":0.0891211153895352,"48":0.04853321648248295,"49":-0.03829416617401487,"50":0.02658510735395418,"51":0.09469289932274845,"52":-0.039202834245216395,"53":0.11843166845583997,"54":-0.06175477453228692,"55":-0.14198816856982335,"56":-0.03698790792053786,"57":-0.05938037739248396,"58":0.06893391659175632,"59":-0.06646563835011354,"60":0.029320849148840086,"61":-0.06635546145557278,"62":0.08236238694784212,"63":0.17608457780421197,"64":0.0500959087182775,"65":-0.03326731292967725,"66":-0.018629258939786376,"67":0.07872469850018163,"68":0.06775006947124218,"69":0.02440185424059317,"70":0.03120874143998724,"71":0.009384218073191584,"72":0.05050577813731804,"73":-0.11934096080792585,"74":-0.03703005614868743,"75":-0.08168685340643529,"76":0.05941705057263378,"77":-0.09371573671527905,"78":0.021659896607517874,"79":0.08361867489861559,"80":0.007876689641613697,"81":-0.0635911812201776,"82":-0.025071206833797457,"83":0.04548941785148592,"84":0.04418474549982993,"85":0.05184456045775846,"86":-0.0664052118520024,"87":-0.009180993915669757,"88":0.04615085567954191,"89":-0.012332429525982291,"90":-0.03901292017788132,"91":-0.012746024097621609,"92":-0.029805596989401394,"93":0.015830969402725457,"94":0.06363657745045191,"95":0.03776263155672462,"96":0.013336865797275091,"97":-0.020799378616165116,"98":-0.11292531414162478,"99":0.018798172179757627,"100":0.03894116386406675,"101":0.058773985080171454,"102":-0.07261982502303718,"103":-0.028651435904147173,"104":-0.01829545698179875,"105":0.014385691334403265,"106":-0.025103042066130152,"107":-0.06811745915992065,"108":-0.03211678413659943,"109":0.0086836102667617,"110":0.01856952801202736,"111":0.01641855016048789,"112":0.03229541893953889,"113":-0.042333031788914996,"114":-0.09601996089373205,"115":0.026811317861891705,"116":-0.01933746492506501,"117":0.027209830720915464,"118":-0.03335927999665998,"119":-0.07797876909639019,"120":-0.08525291465793217,"121":-0.050827331373576146,"122":-0.02413129385988931,"123":-0.08387990698098796,"124":-0.022246081156782484,"125":0.0009968881251476442,"126":0.037531874134375205,"127":-0.08913999061634768,"128":-0.024561380199587486,"129":0.05146527938849866,"130":-0.10978053340783392,"131":0.0790556523157384,"132":0.024529799645798742,"133":0.04290076476343772,"134":0.027383025579852085,"135":-0.04688216720491589,"136":-0.01827609258111491,"137":0.0038376754997218525,"138":-0.0536470588757003,"139":-0.05574819951538125,"140":-0.06482716162793048,"141":-0.01919669084392857,"142":0.08226534545594212,"143":0.03563298072058316,"144":0.04391786017978679,"145":-0.0402848620380826,"146":-0.05827307511235139,"147":0.11548971719813832,"148":-0.03659788687748015,"149":0.026197867980637675,"150":-0.04523170363660992,"151":-0.1002096098863655,"152":-0.04540217262601064,"153":-0.1044399732755162,"154":-0.07635399844582078,"155":-0.09239392327188153,"156":-0.008831956560007485,"157":-0.028860559113095523,"158":0.002533197171201814,"159":0.044491769722268745,"160":-0.021655333912666573,"161":0.060901139873116863,"162":-0.01291194629275736,"163":0.04998917798885102,"164":0.11259518828022817,"165":-0.01769495457488692,"166":0.006361135883413835,"167":-0.07782026794551475,"168":0.0099157645286271,"169":0.03328013960298146,"170":0.03499762817531718,"171":0.012989011984497843,"172":-0.02069567272881781,"173":-0.028246077946452435,"174":0.03284814161036648,"175":-0.059446049094021416,"176":0.0010449946514741446,"177":0.050235533845305325,"178":-0.09776705101343784,"179":0.026682460844478922,"180":0.028280510651570095,"181":-0.03970525925113977,"182":-0.023967037327021486,"183":-0.022101561881486625,"184":-0.08912056651369604,"185":-0.033098409527359964,"186":0.004969872123360218,"187":0.009143610467533267,"188":-0.02960722512501227,"189":-0.06663387310180392,"190":0.009567404927515743,"191":0.04277311065105092,"192":-0.06382017838895,"193":0.05622133955379157,"194":-0.14913810072904132,"195":-0.020011738166629472,"196":0.0219581594013627,"197":0.037063995034871046,"198":-0.03498659643151275,"199":-0.0031555108842995323,"200":-0.10591813872028323,"201":0.0037992100708641135,"202":-0.016160984601520902,"203":-0.02966822827521455,"204":0.005377430021066981,"205":0.09302890144235375,"206":-0.12047695997337686,"207":0.05758095879063412,"208":-0.056603314530967376,"209":0.021406254383696213,"210":-0.058283281107123226,"211":-0.002251130190585699,"212":-0.08154033364736352,"213":-0.01990613413420001,"214":0.12099162678537881,"215":-0.036723646525695194,"216":-0.017886973804294107,"217":-0.04582390015815181,"218":-0.010486000892838064,"219":-0.024836070875947445,"220":0.004394676279402365,"221":-0.016913591542344036,"222":0.0027734903427026367,"223":0.04708420975308372,"224":-0.07751157856790761,"225":-0.11670336875501273,"226":-0.08697717695489182,"227":0.047180772563034726,"228":-0.0338534567969766,"229":-0.04437749372945489,"230":0.057050846440308306,"231":-0.07356551125257695,"232":-0.05057416621074619,"233":0.0006266910428110223,"234":-0.06055040894620642,"235":-0.032135255767980965,"236":-0.09317839177745195,"237":-0.010934777721930565,"238":-0.04051946579224903,"239":-0.02387690802273646,"240":-0.11865126515011416,"241":0.05912946068298062,"242":0.022208132729822926,"243":-0.0772014189881808,"244":0.0053585460768660175,"245":-0.09234902710118108,"246":0.004456574215242468,"247":-0.03049220271520117,"248":0.030675185732217128,"249":0.031165551648801925,"250":-0.01840850021221433,"251":0.05664920146512542,"252":-0.034760882577201606,"253":0.0034970592866455544,"254":0.0032624547561428876,"255":0.0326839156507662,"256":-0.07214073232236284,"257":-0.0016340032793928734,"258":-0.03151908342051505,"259":0.06241935671471151,"260":-0.0638233149356746,"261":0.0018771023273109922,"262":-0.04711239553554587,"263":-0.054770532187712516,"264":0.01353504516689405,"265":-0.06846411483329978,"266":-0.09964366578569465,"267":-0.00006057051183758011,"268":0.04021110407401901,"269":-0.015126462986483968,"270":0.03566165678201889,"271":-0.04680304274073158,"272":0.034451429035902405,"273":0.03377772167456791,"274":0.0621787248327925,"275":-0.09868874893363769,"276":-0.0011871669147391288,"277":0.09643318716282323,"278":0.06921056088411799,"279":-0.04350276824917611,"280":-0.0743439844190561,"281":0.09351874115574267,"282":-0.06483786959802554,"283":0.04473790769142648,"284":-0.020305660911654772,"285":0.013743665161218962,"286":0.05634277431593323,"287":0.129772271946425,"288":0.05218320302060157,"289":0.02694673333532903,"290":-0.01650319726549174,"291":0.010204168950673704,"292":-0.05442632326440283,"293":-0.024202264130056394,"294":-0.007699977202161423,"295":0.010321592220006016,"296":0.06634878275226527,"297":0.004016804845742539,"298":-0.005542208450180348,"299":0.05150252090894509,"300":-0.023907249053801906,"301":0.12849759747743933,"302":-0.007703825381175132,"303":-0.08037625670141162,"304":-0.0353064055979015,"305":0.04468124677773109,"306":-0.039016826564318714,"307":-0.0729062805264773,"308":-0.005188881758075804,"309":-0.0994187623060435,"310":-0.02065048637318586,"311":-0.029239373535217165,"312":-0.06660053089681686,"313":-0.007254368752787412,"314":-0.03856072315343532,"315":0.027426779343507453,"316":-0.06337950489232241,"317":-0.0339702448613649,"318":-0.0361884568815607,"319":-0.04388154374513465,"320":-0.05627054385024271,"321":-0.05634112717123234,"322":-0.07190442718295349,"323":-0.010303287555608335,"324":-0.0365346461427947,"325":0.05686281489686767,"326":-0.03379842126671814,"327":-0.0068862115609180565,"328":-0.013667312110525295,"329":-0.025041928659767444,"330":0.04997459789653049,"331":0.002590612346960868,"332":-0.0840540782324713,"333":0.0023262054656867986,"334":-0.032199943257783074,"335":-0.05425269197113969,"336":0.040286655904471474,"337":-0.038465810837803725,"338":-0.05053559420327745,"339":-0.01070727310555301,"340":-0.08331575164428161,"341":-0.020717497009218183,"342":0.06467600938049242,"343":0.044324810357193115,"344":-0.07832713123984113,"345":-0.031806775157291536,"346":-0.04921489235191034,"347":0.027733435070622266,"348":0.04000715581783733,"349":0.027531191655286624,"350":-0.006827369631864391,"351":0.02153207607721175,"352":0.03882778235337533,"353":0.06350875269690041,"354":0.02890711365848547,"355":-0.001480424449507027,"356":0.005510134963445004,"357":0.014112807562821145,"358":0.002030037763237211,"359":-0.0019192970256145117,"360":0.029262380682270474,"361":0.061015098168451166,"362":-0.06661315692552293,"363":0.04548066563293523,"364":0.021120768400126843,"365":0.04477442371023092,"366":0.028455830531715198,"367":0.02393109517184351,"368":-0.04341902034949334,"369":0.0665908771417479,"370":-0.007653750549345981,"371":-0.014029417409466293,"372":-0.0016320824168996053,"373":0.03766749526242744,"374":0.07418362037552112,"375":0.03574144702158638,"376":-0.044397345603718545,"377":0.04076976719329561,"378":0.0092373191053393,"379":-0.0599701763879574,"380":-0.0063272508907832765,"381":0.010854739962951868,"382":0.07163988590113968,"383":0.10294764365064954,"384":0.05762647537834182,"385":0.13457818227587082,"386":-0.09049144623090546,"387":0.0435499821010019,"388":0.0070006317533947,"389":-0.012357666621673436,"390":0.06178715799913487,"391":-0.004412208274292797,"392":-0.09657984474267273,"393":-0.02118442726136092,"394":-0.04512567971598635,"395":0.020817882763579994,"396":0.03530311906630143,"397":0.01931677400819063,"398":0.013921494543472406,"399":-0.06397865960905415}},{"sx":5,"sy":5,"depth":16,"w":{"0":-0.04168584047900687,"1":-0.047483945214599234,"2":0.05980800451407261,"3":0.11485082261277493,"4":0.0905219214563109,"5":0.12221427069868034,"6":-0.11896209167708272,"7":-0.1081361458881605,"8":0.005627409234474873,"9":-0.08762527694279354,"10":0.006640368237176956,"11":-0.014105358839240805,"12":-0.06611731218290268,"13":0.00799052843274972,"14":0.12077854717821965,"15":0.12357060591619444,"16":-0.010073630785116744,"17":-0.12130407548899536,"18":0.04726082522735624,"19":0.03419124422733241,"20":0.038219550474829604,"21":0.1012768371880721,"22":-0.006143483477514744,"23":-0.09924888260489365,"24":0.009327084192328012,"25":-0.08366840753468176,"26":0.04017392626214905,"27":0.004891447898169544,"28":-0.003910837294060184,"29":-0.0631817622602291,"30":0.19932149040105088,"31":0.1434905348676391,"32":0.16176323477663268,"33":-0.1822451391822845,"34":-0.03517253833091316,"35":0.17766492861518696,"36":0.06819128259512207,"37":0.12686513301391406,"38":-0.12002175154692298,"39":-0.08251954592182513,"40":0.1273035706847126,"41":0.0013673892321142043,"42":0.09268673588777883,"43":-0.04435773190208877,"44":0.07275542666637629,"45":-0.0258402289520435,"46":0.15367376902586652,"47":0.14168029812072452,"48":0.01856861942074291,"49":-0.2088085912763126,"50":-0.042485189848539634,"51":0.20070122444875496,"52":0.014198263078064198,"53":0.1276763128954242,"54":-0.02596758435331072,"55":-0.02346168629138805,"56":0.11785621701088733,"57":-0.023264858716391407,"58":0.07826292156888046,"59":-0.06179106922832699,"60":0.05854653832993187,"61":-0.05103594380227382,"62":0.17750558257337506,"63":0.14624662031415928,"64":0.0789805377365188,"65":-0.04836791942917334,"66":0.006949038918760594,"67":0.11087360971849892,"68":-0.0866892871920823,"69":0.02313763425229173,"70":-0.11921824062782749,"71":-0.10281349706840336,"72":0.02057130572350367,"73":-0.10013893719351426,"74":0.1415214248391052,"75":0.008128261101978762,"76":-0.0433851114869534,"77":-0.07889135487156815,"78":0.07077489792427466,"79":0.031015893106026263,"80":-0.03623111801096211,"81":0.012546671175967083,"82":0.025517493172297224,"83":0.12508908532081836,"84":0.03624809567982025,"85":0.043720932233312186,"86":-0.11964436833595864,"87":-0.08930805964419807,"88":0.06293559066740022,"89":-0.041717186829793265,"90":-0.05366543814384819,"91":-0.15307337428433593,"92":-0.06723281329453748,"93":-0.06895910261943301,"94":0.10086855138618159,"95":0.10651522370216021,"96":0.07435535351864964,"97":0.007201706849102435,"98":0.0058746981096549624,"99":0.13816978750360687,"100":-0.008110874957602359,"101":0.09178739034476312,"102":-0.053501343418605345,"103":-0.06954303520519158,"104":0.09074514167714011,"105":-0.037806045463504676,"106":0.10751468026439637,"107":-0.0000399996554776426,"108":0.049169068980893085,"109":-0.06396826325419695,"110":0.06785610124223172,"111":0.04754370801338665,"112":-0.012465124436582,"113":-0.07618596443127851,"114":0.04347393045186645,"115":0.16676450113479493,"116":-0.05656011209724949,"117":0.10830142787418383,"118":-0.0420712764506709,"119":-0.10871852871553457,"120":0.07708294962367888,"121":-0.01230629743975286,"122":0.07383090625396872,"123":-0.14022399896804855,"124":-0.048690687390243084,"125":-0.09936201966378583,"126":0.13774736323799663,"127":0.07713097565204928,"128":0.01867649361163657,"129":-0.19698696599641718,"130":0.01953402089173104,"131":0.08276800374838135,"132":0.12281090294825224,"133":0.14179666073712927,"134":0.007574265118092064,"135":-0.035556025250499106,"136":-0.012826694528157736,"137":-0.005531898330025495,"138":0.13986700989696965,"139":-0.0467658299919018,"140":0.053514689616431126,"141":0.006707294656259699,"142":0.1270471509517142,"143":0.11081321385737038,"144":0.05209152613293356,"145":-0.015649484952110406,"146":0.08104834968098076,"147":0.1308574901065538,"148":-0.04662982739635853,"149":0.048880884329017694,"150":-0.048424133315014085,"151":-0.05262697087711854,"152":-0.035469583599111884,"153":-0.014070063010049627,"154":-0.05039562446847641,"155":0.0016076108518038477,"156":-0.036985101248403346,"157":-0.006471886387573816,"158":-0.0022509769430442755,"159":0.09673633156174995,"160":-0.08530509796565756,"161":-0.03393474126877732,"162":0.020480589724524823,"163":0.083578046243129,"164":-0.04772813911467191,"165":-0.0035519523648433206,"166":0.017903421473274502,"167":-0.05016895642735363,"168":0.005881239359263359,"169":0.0010777603816221016,"170":-0.03946198276560531,"171":0.033973759123808275,"172":0.05583126443372912,"173":-0.04913881837611233,"174":0.07044600146873259,"175":-0.053900784629943986,"176":-0.007643077685845279,"177":-0.08463067463026865,"178":-0.011434573539573967,"179":0.06407479840016114,"180":-0.09444180418973791,"181":0.021006841781175137,"182":0.008201368493539151,"183":0.0384727454081219,"184":-0.010902362025424155,"185":0.04495416626316481,"186":-0.00783226386386856,"187":0.035699420910750526,"188":-0.04879869099068906,"189":-0.03483108803008904,"190":0.07485659609055137,"191":0.0015241374648707166,"192":-0.058631413665757845,"193":-0.050602965271870505,"194":-0.0479905255261709,"195":0.13813487197052834,"196":-0.034638014790203,"197":0.04473741002949431,"198":0.04007958938055021,"199":-0.06944642686770704,"200":-0.048307618853427,"201":0.07393759645845513,"202":0.0027797740141770966,"203":-0.011502083093938806,"204":-0.17034614700289377,"205":0.015383200181062344,"206":0.02372968683100357,"207":0.062467688102418886,"208":-0.12445863464895006,"209":-0.08016442432459896,"210":0.021367812730785436,"211":0.11796288710327424,"212":0.0020672305074529488,"213":0.051674965226847065,"214":-0.01671291822222665,"215":0.02755612643542234,"216":0.044151940111570274,"217":0.04055450016044495,"218":0.050602157942621115,"219":-0.0379595916476992,"220":0.007028135906949058,"221":-0.029395406888393306,"222":0.04413834435687058,"223":0.06496570549635744,"224":0.026053364991417433,"225":-0.015822261275874844,"226":0.003665275346631401,"227":0.042971074635761344,"228":-0.0074336634368490405,"229":0.12226536747467176,"230":0.01623824877988285,"231":-0.02528183519831935,"232":-0.010295772847279151,"233":0.10074396384048889,"234":0.0014731689935409914,"235":-0.008435306017275821,"236":0.026678873644576828,"237":-0.003512218337520647,"238":-0.07428642876654214,"239":0.09195831349547182,"240":-0.08479690384834568,"241":0.0418130969353996,"242":-0.011528403505040415,"243":-0.08376867225957903,"244":0.008333013518546215,"245":-0.030721184234432517,"246":-0.010329717218811959,"247":-0.00787819940278054,"248":0.06188661018250457,"249":0.09324035838666234,"250":-0.0645967691953216,"251":0.08235076282936803,"252":-0.03993394583525126,"253":0.20467791120293133,"254":-0.060794036622466546,"255":-0.01624318423254252,"256":-0.08191906636219724,"257":0.07098328980673296,"258":0.0478659778827496,"259":-0.12053443049168319,"260":-0.017659384311666502,"261":-0.04829497835282451,"262":0.11248430125064295,"263":0.009683666929964505,"264":0.006458530356594453,"265":0.020100789603291525,"266":0.028829320390165405,"267":0.08866566995714042,"268":-0.0399358350549325,"269":-0.011848608634366056,"270":0.03233261090375306,"271":0.005353082008300402,"272":-0.012735222668203788,"273":-0.015097016971144187,"274":0.029538158139073848,"275":-0.0053152933352945235,"276":-0.04264283727342366,"277":-0.08846448098647794,"278":0.01868152521068312,"279":0.050292872470029434,"280":0.021712634592644546,"281":0.15571737514400785,"282":0.015446404856054233,"283":0.05186566361980149,"284":-0.0035351656408722787,"285":0.12089727146756565,"286":0.013760299064153426,"287":-0.00938377305944895,"288":-0.11452694721173406,"289":0.002693218045017171,"290":-0.006413985908687619,"291":0.06656823511167413,"292":-0.004577842265988454,"293":0.07738970798331771,"294":0.032365020469530645,"295":0.006989724543065354,"296":0.10608335264360634,"297":0.07438321382342941,"298":0.056652742135525534,"299":0.022858594248985443,"300":-0.06520111463834996,"301":0.06328087995027126,"302":0.038606297096599004,"303":-0.037155556458323524,"304":-0.024349847401008103,"305":0.07682006569928396,"306":-0.04172960063183053,"307":0.09814317240617809,"308":-0.06830120857541952,"309":-0.07127129473224218,"310":-0.013098737268866012,"311":0.0395778855406336,"312":0.061724127976612836,"313":0.04903179387699334,"314":-0.009657139567209296,"315":0.02750373628295776,"316":-0.02082001369167566,"317":0.033270852991597544,"318":0.009613716009044308,"319":-0.025652883159174886,"320":-0.009995859985632172,"321":0.06444030019850525,"322":-0.06420913798457858,"323":-0.007489791325755944,"324":-0.0921006554824707,"325":-0.026209186981597916,"326":0.04997935862667827,"327":-0.014144252735895486,"328":-0.06059026052200426,"329":-0.058935328786750014,"330":-0.024428962071102803,"331":0.07498495062976254,"332":0.005466549273598814,"333":0.12527225331260772,"334":-0.012316385866725532,"335":-0.05405621811253181,"336":-0.07072306833153218,"337":0.07076209093224464,"338":-0.03271124494380938,"339":-0.09238934169753298,"340":0.016659886133798225,"341":-0.035227265733361025,"342":0.08776468126279661,"343":-0.020430782465044758,"344":-0.11671702709306629,"345":0.06604778023039902,"346":-0.023774967428580127,"347":0.07539384390853932,"348":-0.015742350307941858,"349":0.05064192021296279,"350":-0.10278560503543417,"351":-0.03302456527552951,"352":0.06560593231520928,"353":0.034226155406560696,"354":0.041277163153327336,"355":-0.07771852839830755,"356":-0.0014942779071248084,"357":-0.02703181444752601,"358":0.03027189969035113,"359":-0.0007323653100507858,"360":-0.10248845281910711,"361":0.09031655331186925,"362":0.023752608481473585,"363":0.0806006822394318,"364":-0.00016299318475470145,"365":0.08028306901146189,"366":0.0071224059923338055,"367":0.001627463345389549,"368":-0.07715894879500508,"369":0.12145861980369917,"370":-0.018526907366486697,"371":0.05101029878185197,"372":0.013760432053949716,"373":0.0038659720131903946,"374":0.009465198840148426,"375":-0.05178677116157473,"376":0.029560365264310814,"377":0.033846627094691724,"378":-0.14237724130686666,"379":0.1001531575961158,"380":0.01576237020114876,"381":-0.02475562032009859,"382":-0.03809623804537378,"383":0.05373249062878316,"384":0.0012876099342257964,"385":0.0690294237228967,"386":-0.008138065519299255,"387":0.03307774128094729,"388":-0.01055658926347535,"389":-0.07292402673750532,"390":0.09713313223840862,"391":0.06278288554485192,"392":0.02321964213347265,"393":0.11840589498041952,"394":-0.06809035683063872,"395":0.03540385867874812,"396":-0.053116290952158036,"397":0.0433037507837811,"398":-0.03748582697846542,"399":0.0316555614079262}},{"sx":5,"sy":5,"depth":16,"w":{"0":-0.022820309615221003,"1":-0.003712552809986745,"2":-0.020822736422065825,"3":-0.09139551469941244,"4":-0.09444676700084152,"5":-0.08751172686191101,"6":-0.13129999157789993,"7":0.010520929148235667,"8":-0.021099685505258998,"9":0.10289415864752194,"10":0.029048709477794036,"11":0.016725535813154117,"12":0.025733739792275168,"13":-0.020107311046556154,"14":-0.01755907674256789,"15":-0.00459153459314646,"16":-0.08591790554475814,"17":-0.013522642560340702,"18":-0.10215658035570332,"19":0.026732232629589382,"20":-0.11919885880089573,"21":0.07034786171937406,"22":0.015575417720595596,"23":-0.025009347536940032,"24":-0.052718616338419934,"25":-0.036108574016460615,"26":0.1244898737591304,"27":-0.09163764103407475,"28":-0.10720418163112566,"29":-0.06976476450672528,"30":0.0017880355323427145,"31":0.19168384472620434,"32":0.09179991869682234,"33":-0.018811274534853803,"34":0.015981175815840746,"35":0.044752667256186866,"36":-0.09796794268020265,"37":0.16217035588387985,"38":-0.0026068285134387037,"39":-0.023133225937788555,"40":-0.07949458321017329,"41":0.0004944686073004953,"42":-0.010450990348792521,"43":-0.041815526295943685,"44":0.04734903007874102,"45":-0.07564532859062931,"46":0.08155244050538948,"47":0.07526293268687266,"48":-0.021036796411130727,"49":-0.10651943495959842,"50":-0.024118449822074742,"51":0.07680249807144063,"52":0.049117476852843185,"53":0.09478412348692654,"54":0.023169797001077304,"55":-0.017099374137865143,"56":0.04153597831051054,"57":0.04992994526754627,"58":-0.006818532927306979,"59":0.010438483867558964,"60":-0.07022270936554012,"61":-0.048822599383717656,"62":0.09507762677303337,"63":0.03184177482419206,"64":0.06767388434495455,"65":-0.06505159774408799,"66":-0.006228597531813119,"67":0.12056463985274503,"68":-0.06618613517489486,"69":0.07624059359959683,"70":-0.050291509477409777,"71":-0.03774597585994885,"72":-0.051826863211862036,"73":-0.11831152902944884,"74":0.09236746281760308,"75":0.01781789710845845,"76":-0.08586498756440601,"77":0.014005378266381749,"78":0.036142494668851846,"79":0.026122876070663856,"80":0.0787242927903361,"81":-0.0032393432299293087,"82":-0.04031634525793627,"83":-0.009012343961845151,"84":-0.020926201384255032,"85":0.056951979479243874,"86":-0.04032410315496968,"87":-0.05117120811202203,"88":-0.06848638025886877,"89":-0.08557721084705197,"90":-0.05992875031041862,"91":-0.043394194652292786,"92":-0.1252346636726555,"93":0.032908603507263254,"94":0.045406475429215366,"95":0.02513679702884362,"96":-0.028918824254477046,"97":-0.034043147381675264,"98":-0.06634009146559348,"99":-0.011446047733596768,"100":-0.013873570148549506,"101":0.034522404569601824,"102":-0.05351129815933506,"103":0.04662826823887326,"104":-0.02543844126270685,"105":0.028193969605063412,"106":0.011938715014791301,"107":-0.008497054825107275,"108":-0.03958013782727208,"109":-0.10734360354803375,"110":0.01037006350200539,"111":0.032049378815548576,"112":0.03984355035039402,"113":-0.06527089383324187,"114":0.04056438515797386,"115":0.11632904309345848,"116":-0.01566802030991004,"117":0.1324203927385208,"118":0.08190898145459584,"119":-0.04650963108386823,"120":0.07774133804557748,"121":-0.04873757213294723,"122":0.023423276683928032,"123":-0.1226078645635725,"124":-0.0678230191106925,"125":-0.03731011337269444,"126":0.13742236794422352,"127":0.049762920147026934,"128":0.09293415888273503,"129":-0.05055544658270962,"130":0.013210280701459739,"131":0.07741237137413483,"132":-0.017285511435171624,"133":0.1584805253227664,"134":0.02122748198253276,"135":-0.02518011056293547,"136":-0.08001326749202292,"137":-0.0525728137591299,"138":-0.030937243150877782,"139":-0.07120808801270735,"140":0.018002756179667522,"141":0.03693068710173941,"142":0.05895086139245166,"143":0.1082133598518765,"144":0.07050625576199042,"145":0.002077212957720326,"146":0.0795323328970741,"147":0.058925900361796534,"148":-0.05426301894714883,"149":0.06979968990822082,"150":-0.03202939197857845,"151":-0.019952353152527625,"152":0.03215167697295774,"153":-0.12382980659618152,"154":0.08385553202881194,"155":-0.0639666704665525,"156":-0.11144395031043645,"157":-0.11042708790309193,"158":0.052480961154142504,"159":0.04076043390282477,"160":0.025407223577585132,"161":-0.027465663089111723,"162":-0.021837748388166732,"163":0.08113899354712537,"164":0.021562734386762244,"165":0.00914761142494946,"166":0.03686726617389954,"167":-0.0003210283655763857,"168":-0.0568982886796707,"169":-0.08605472886827656,"170":0.05486582151598366,"171":0.016089072152125402,"172":-0.011504212960048643,"173":0.07510270674938603,"174":0.002440635720819526,"175":0.06941188605071537,"176":0.10432950121704088,"177":-0.06364772422750613,"178":0.08680640890696163,"179":0.11054848278168121,"180":0.01330655156745585,"181":-0.015694533953494717,"182":0.13551093193240807,"183":0.04964276022445739,"184":-0.017145325759423697,"185":-0.05984621047643615,"186":0.016505715686922835,"187":0.005717764498835037,"188":-0.12160846713655288,"189":-0.012210158620125774,"190":0.04672325343750618,"191":0.03567376787700188,"192":0.10783764593524092,"193":-0.09833587378164221,"194":0.033466845682307636,"195":0.13820165820450198,"196":-0.034922592012097145,"197":0.08510420985537642,"198":0.06192293243125593,"199":-0.00639509532142753,"200":0.07508445814118904,"201":-0.035735421969545586,"202":0.1927149296989526,"203":-0.017965201607863336,"204":0.0057226188727381435,"205":-0.04050682522017492,"206":0.13815746627309886,"207":0.16872558375223193,"208":-0.022580781977917835,"209":0.03138692156511093,"210":-0.04818804023027179,"211":0.21839401082961118,"212":-0.0178055956801268,"213":0.13290861849283675,"214":-0.14650332741359115,"215":0.03399641527205122,"216":-0.03548279058108703,"217":-0.03270088193092647,"218":0.1136477416347984,"219":0.05488564481727062,"220":-0.024038934962227067,"221":0.026390948344906635,"222":0.10509832890186592,"223":0.2771315462061849,"224":0.021740588049534795,"225":-0.016655783328684903,"226":-0.09864759214446427,"227":0.05690097376819756,"228":-0.03317467568737247,"229":-0.007618838417039431,"230":-0.07504593111640424,"231":-0.08440808936748766,"232":-0.02916706664085695,"233":-0.08167651583835078,"234":0.1886840557948312,"235":-0.04602572961805325,"236":0.002445256835563303,"237":-0.00803397189248405,"238":-0.018621717901624056,"239":0.05435501624296422,"240":0.06914221068080854,"241":0.016142484653957914,"242":-0.059605324888473206,"243":0.05331668013050436,"244":-0.054471678921526864,"245":-0.02879513514230381,"246":-0.008309674016674816,"247":-0.029274505580342003,"248":0.056246978230026334,"249":-0.05344236701053425,"250":-0.036109450373369115,"251":0.05855482478976856,"252":-0.10487407266138213,"253":-0.016369316870867342,"254":0.012385236306134395,"255":0.02437831817328355,"256":-0.0758895036238159,"257":0.03920861417350494,"258":-0.10398874074830483,"259":-0.05169041999634233,"260":-0.11152831955789111,"261":-0.03188056067192232,"262":-0.06631406516997412,"263":0.1166519997537734,"264":-0.0021645971792734753,"265":-0.0009889690883017807,"266":-0.10908247319853034,"267":0.037779226916883714,"268":-0.08935767879735217,"269":0.06028237324918805,"270":0.03421267842307464,"271":-0.09290224808502541,"272":0.022657662020239784,"273":-0.016913661317377603,"274":-0.060184787470904284,"275":0.03138488113418754,"276":-0.010785290891362523,"277":0.055399280900154245,"278":0.0031709047745449048,"279":-0.005067052828123465,"280":-0.015862287084336308,"281":-0.04766513921125236,"282":0.009711444576773767,"283":-0.03700298303677897,"284":-0.05194818545408247,"285":0.05851440774347054,"286":0.016512340274775113,"287":0.08605296053263324,"288":0.004006679779001574,"289":0.0009958826755026664,"290":0.08818887061805582,"291":0.02985985693480936,"292":-0.016493503057757472,"293":0.10031773478192063,"294":-0.030679160434397106,"295":0.016818758676427962,"296":-0.04000543214927899,"297":0.009323163775528089,"298":-0.05233098170096388,"299":0.05883769518123284,"300":-0.07099201542676167,"301":0.09163328545407169,"302":0.07122173498982909,"303":0.021040832129185855,"304":-0.011845025690766824,"305":-0.02161977750842472,"306":0.04685965382660542,"307":0.09080351206115155,"308":0.024119581099398362,"309":0.14584873189546463,"310":-0.007898693487987666,"311":-0.09405899632726036,"312":-0.0023522100482753373,"313":0.025359197197878068,"314":-0.009593873576892507,"315":0.0514193561773493,"316":-0.06540695263642574,"317":-0.029208100903248338,"318":0.11026072836010148,"319":0.15243664167900345,"320":-0.06266562366632052,"321":-0.00028487825499752116,"322":0.08946194685104826,"323":-0.09877718164552837,"324":-0.014347005007116272,"325":0.019039313513564003,"326":0.06683327660568608,"327":0.046231389691012974,"328":-0.02286723198789861,"329":-0.07031658292378454,"330":-0.00786182182666224,"331":0.0517728882155388,"332":-0.03294730443160474,"333":0.05779605139003504,"334":0.020195393480450644,"335":0.016366636518916643,"336":-0.02645271506582747,"337":0.06452700658800756,"338":0.008155291115573763,"339":0.005865808889032293,"340":0.010041946413243808,"341":-0.01656569174981123,"342":0.06309483737825541,"343":-0.015420243991592662,"344":-0.06855542576269581,"345":0.11251920632194884,"346":0.01297540885303868,"347":0.05045445427435596,"348":-0.06435592502268138,"349":0.07119163906274398,"350":-0.07828462323794226,"351":-0.032905449093717065,"352":0.10636622081071989,"353":0.09370070127290556,"354":-0.05160973175293894,"355":0.02583803077221597,"356":-0.02655430831418562,"357":-0.06900813062982042,"358":-0.04926619196551226,"359":-0.03010103960151757,"360":-0.06726034475928293,"361":0.09881681780443691,"362":-0.03910093640116303,"363":0.09168311105644894,"364":-0.007928845317800727,"365":0.008632886173928581,"366":0.03545828247462599,"367":0.05027154528445237,"368":-0.07400902586035664,"369":0.007160023935807012,"370":-0.017597389098448418,"371":0.008411735634132323,"372":-0.04407954728600415,"373":0.0794245335457859,"374":0.034782300328914925,"375":-0.027676597266628886,"376":-0.12958756216881445,"377":0.14794696501133522,"378":-0.021957975030874436,"379":0.08484286455605841,"380":-0.08607832535951962,"381":-0.027771345363031122,"382":0.014715994462999071,"383":0.036451446498619894,"384":-0.02668210163195478,"385":0.011642977032739206,"386":-0.07424318338243224,"387":0.1166163854476159,"388":-0.1159939173971658,"389":0.03405109757193434,"390":0.09106118810506707,"391":0.015531493333270918,"392":-0.09334966278304942,"393":0.08059596730864871,"394":-0.010143278804855963,"395":0.07281001124838962,"396":0.011647775516271556,"397":0.02737217154832321,"398":0.007471988749414202,"399":-0.05680882203453162}},{"sx":5,"sy":5,"depth":16,"w":{"0":0.1340493957374008,"1":-0.011054903520160931,"2":-0.04013380883933543,"3":-0.03230808802418631,"4":-0.03210283014418579,"5":0.15300824326246765,"6":0.040818725713862025,"7":0.06047399327795651,"8":0.04551501656830863,"9":0.03153191948411688,"10":-0.007360316954852229,"11":-0.03631582196744891,"12":0.026091272049473372,"13":-0.06416840664540074,"14":0.013443986813933904,"15":0.0895357368974993,"16":-0.05404588214091879,"17":-0.07019686391131015,"18":-0.039560798597265315,"19":0.10346788706717212,"20":0.01967043145510518,"21":0.032492035784053255,"22":0.07408568929159283,"23":0.02273612312175481,"24":0.004984693456084665,"25":-0.10422528554236161,"26":0.0722893305805532,"27":-0.11114629424602729,"28":-0.03396179142047097,"29":-0.051407834510790736,"30":0.019914075141528702,"31":0.013699659462492386,"32":-0.02516716823305167,"33":-0.012731368250929404,"34":-0.0095705021963812,"35":0.02387784193020977,"36":-0.027382269492905835,"37":0.06796724689987861,"38":-0.05463027743935078,"39":-0.03468991173117933,"40":0.017950571465362553,"41":0.01315303334689829,"42":0.008629779414205438,"43":-0.11732445555556714,"44":0.04140606742546246,"45":-0.0309195909283514,"46":0.16816471154751544,"47":0.05186977876612148,"48":0.003929106182460923,"49":-0.012746402830040516,"50":0.047862043339984194,"51":0.08392133552178604,"52":-0.006006089431362227,"53":0.0037286567632737423,"54":0.007260214877958858,"55":-0.06880019816710052,"56":-0.09476545330226316,"57":0.0023398883387966505,"58":0.04271889294419791,"59":-0.10286068139731296,"60":-0.013873585387975602,"61":-0.027974916423858725,"62":0.07782497261615615,"63":0.0720425080400246,"64":0.057732068914981075,"65":-0.00887025161671161,"66":-0.05209675168903574,"67":-0.01394414210402768,"68":0.026474171581726394,"69":-0.026698515203537693,"70":-0.05895094995613056,"71":-0.021380994030381902,"72":-0.04337392685778329,"73":-0.01114141667780295,"74":0.08049723415317867,"75":-0.06559188938437757,"76":-0.015190239163807512,"77":-0.09195458633414542,"78":0.010321419984271217,"79":0.10460069517273052,"80":-0.0012935857629776276,"81":0.003336017526588215,"82":-0.0683991650198184,"83":-0.03692196465155099,"84":-0.015552281842731183,"85":0.11686946141601659,"86":-0.048526574374263505,"87":-0.11198641104357308,"88":-0.020109697525291417,"89":0.03495519015947542,"90":0.03870807418242948,"91":-0.10594810371965381,"92":-0.07469756163574355,"93":-0.11976644236417941,"94":0.009123537039702267,"95":-0.037712638488385616,"96":-0.0037090315733317634,"97":-0.08885006519252671,"98":-0.007017004555837026,"99":0.03556362717072672,"100":-0.03644886435787777,"101":0.059767363941339705,"102":-0.06205199049373255,"103":0.006435526754532901,"104":-0.02311993034093106,"105":-0.0600713477887431,"106":0.04675259083964551,"107":-0.09332814305562519,"108":0.028202794961784523,"109":-0.10435825364064576,"110":0.015946507766045975,"111":0.04441004549406765,"112":0.059320364020624856,"113":0.0013170912435561419,"114":0.02359517699580514,"115":0.03777070194385503,"116":0.01849153878988242,"117":-0.0005555360930208174,"118":-0.037062987437884456,"119":-0.15313292401956888,"120":-0.01488986962608888,"121":-0.07302914084167465,"122":0.147194870622982,"123":-0.05772606614595072,"124":-0.01785439638422021,"125":-0.12681213085421003,"126":0.05244576528379615,"127":0.09724731023568958,"128":-0.019214871011409587,"129":-0.08065664436671423,"130":0.03692758440747603,"131":-0.04361696021138002,"132":-0.042466577124994125,"133":0.2154020566703938,"134":-0.051665965551688044,"135":-0.08852395413458412,"136":0.06920309798321594,"137":-0.043975315947850396,"138":0.04719576975879698,"139":-0.040581658755747194,"140":-0.017601944574390058,"141":-0.12371770525498553,"142":0.0378249995531989,"143":0.13884685470023092,"144":0.01120516636558073,"145":-0.10654584197578265,"146":-0.040221810085367043,"147":0.06397764043513948,"148":-0.04796782546650458,"149":0.10600866334145177,"150":-0.008315447580776382,"151":0.019790181366934854,"152":-0.000009072318754559903,"153":-0.1379907379240147,"154":0.026440166465185818,"155":-0.005993416131590142,"156":-0.015590201260827599,"157":-0.023647764399501434,"158":0.03570058497076707,"159":0.04707547277397019,"160":0.07776772921409346,"161":-0.060018486717078094,"162":-0.11718122515007913,"163":0.0968133204715094,"164":-0.06072408094734654,"165":0.12589064560876106,"166":-0.07766720839136004,"167":-0.0416138304934643,"168":-0.05809719588044972,"169":-0.15637908987474075,"170":0.03216573878999125,"171":-0.10420306644547503,"172":0.06215190613193343,"173":0.01041001418672,"174":0.016789559255593545,"175":0.07924290228814733,"176":0.11372301051152543,"177":-0.14533195475328145,"178":-0.10291188060872497,"179":0.06280959818441206,"180":0.0053695422034315985,"181":-0.016376747462580714,"182":-0.026025337685965592,"183":0.0068831706474916255,"184":-0.0007401086211843871,"185":0.014807553491910052,"186":-0.029359235899612937,"187":-0.032300157726361745,"188":0.048620271754245555,"189":0.013319189683747127,"190":0.11523623669202183,"191":0.029814503110606093,"192":0.04438003732563524,"193":-0.0338896697874557,"194":0.039864596991810455,"195":0.07677025437202327,"196":-0.0888405381643922,"197":0.10605031110781545,"198":-0.0883337351051099,"199":-0.08147514707402088,"200":0.11650792603119352,"201":-0.1545109130488645,"202":0.04920925910718656,"203":-0.03464973763396754,"204":-0.0634522471918512,"205":-0.028747978432769265,"206":0.017250924808786802,"207":0.08355850843757699,"208":0.03702786560716759,"209":-0.025515691980072627,"210":-0.013545557805614606,"211":0.005659076185714599,"212":0.009663135202511717,"213":0.09998332277196066,"214":-0.007406530613092863,"215":-0.10570537398487322,"216":0.005698431362210426,"217":-0.04362018928807925,"218":0.008845170334805,"219":-0.037302276231110654,"220":0.04030134402542604,"221":0.06290388933542795,"222":0.07737106473861026,"223":-0.04362354424146193,"224":0.07921952721917822,"225":-0.07895177895908871,"226":-0.035418356186444275,"227":0.07922666773332011,"228":-0.044144827881860235,"229":-0.007476718816402337,"230":-0.045233229431664336,"231":-0.09659478296881284,"232":-0.06452188571299446,"233":-0.014584114423628138,"234":0.04917564302806655,"235":-0.05943750897229143,"236":-0.012952311804225692,"237":-0.0031374184257613592,"238":0.06037247187933945,"239":0.11465498123863135,"240":-0.04606100536270989,"241":-0.10976756043497986,"242":-0.15164185087538068,"243":0.04131147352314345,"244":0.0020055112109762644,"245":-0.06598763653221962,"246":-0.07569208246978189,"247":-0.1459635775319048,"248":0.0038663987443865754,"249":-0.020945788048139475,"250":0.011151888109575781,"251":-0.11202051818348378,"252":0.00451181231692204,"253":-0.04610124630797448,"254":0.02788892715431404,"255":0.10880168505552626,"256":0.0696660564259721,"257":-0.03492752867350049,"258":-0.07874755619116673,"259":0.05768614013462556,"260":-0.0725008467899769,"261":0.11574995847927265,"262":-0.09209863650281189,"263":-0.027526714769185594,"264":-0.014481361087590235,"265":0.05077577091845038,"266":0.053918378572269325,"267":-0.005378600625397801,"268":0.057338348563940995,"269":0.040895804536372746,"270":0.09104417439302018,"271":0.05474268935304454,"272":-0.025723456435942375,"273":0.042327439987536124,"274":0.037638326440678535,"275":0.09358340192106233,"276":-0.01813610317223206,"277":0.025174602657117684,"278":-0.06717656116961436,"279":-0.057210568324276095,"280":0.022397334304605988,"281":-0.02376149402262328,"282":-0.06769177782894188,"283":0.08658789990821299,"284":-0.14445683138941107,"285":-0.031399235930196265,"286":0.028830639778451086,"287":0.10602816395327991,"288":0.004867464474369522,"289":0.09008646235788621,"290":-0.06333912372661482,"291":0.04425427829322667,"292":-0.027275853597337838,"293":0.11777287686170114,"294":0.0380618008123322,"295":-0.036472761623154486,"296":0.025146231846800326,"297":-0.01383783963615923,"298":-0.0004576982402345754,"299":-0.05302162887568766,"300":-0.015967835874898643,"301":-0.030369850589497344,"302":0.08032601492864752,"303":0.0652788273998721,"304":0.030736928951693793,"305":0.01765023649602358,"306":0.05264504410562621,"307":0.009807066367733864,"308":-0.02186103236128764,"309":0.05086796468422964,"310":-0.036178759606641325,"311":0.053056741354723276,"312":-0.06701170097789717,"313":0.0027847706344513935,"314":-0.008260395026766175,"315":-0.002425382839150437,"316":-0.015785492214836657,"317":-0.08429576457545201,"318":0.019839247393391473,"319":0.1482364746064493,"320":-0.01554861904191298,"321":-0.05317479957723466,"322":-0.06451438101730862,"323":0.09951430749611982,"324":0.06904714580846716,"325":0.06113648111916963,"326":0.06532666115017997,"327":-0.09620682651384238,"328":-0.030515130420924224,"329":-0.003101304304575662,"330":-0.019091620192829367,"331":0.05764491172756832,"332":-0.03509792702264066,"333":0.056804678837529606,"334":0.10350358865032074,"335":0.09462424757832459,"336":-0.08023502364325212,"337":0.011433297556814435,"338":-0.06594732044420856,"339":-0.0034362808179628315,"340":0.02698711113258535,"341":0.0072824261061433205,"342":0.026483594838303728,"343":0.013043647452239767,"344":-0.007270088373564839,"345":-0.00927601593906281,"346":0.01791611667644891,"347":-0.029119291290853062,"348":-0.0407273990157333,"349":0.10848548343456221,"350":0.014740630811938408,"351":0.03951939202605831,"352":0.04458127127105322,"353":0.08798464712617735,"354":0.005540762073372347,"355":0.08225327346724873,"356":-0.13847816846592467,"357":0.017373686355031212,"358":-0.03131578743358878,"359":-0.006809467332433535,"360":-0.005104526508803054,"361":0.037376783190072774,"362":-0.03690385119405692,"363":0.041064008952332025,"364":-0.031443293870291524,"365":0.02167195907545049,"366":0.06061560410975828,"367":-0.04105172524844565,"368":-0.07664222333414261,"369":0.05407403794382772,"370":0.02455105948176127,"371":0.11371845206836136,"372":-0.06572492756877954,"373":0.06172930851602377,"374":-0.000992915965458357,"375":-0.03610834370663435,"376":-0.06143395983327798,"377":0.03729486937722492,"378":0.008686383307498097,"379":0.06818288035559798,"380":-0.06467662054518462,"381":-0.007847693847029331,"382":0.10213667114941134,"383":0.05856975858117994,"384":-0.13368997374122935,"385":0.00017288321580574855,"386":0.03290284642765972,"387":0.13723305654080106,"388":-0.005968227717904728,"389":0.09797579131885754,"390":0.09129287830804202,"391":0.00009644850516752905,"392":0.0033960599672079477,"393":0.11403742509828761,"394":0.05774900688591313,"395":0.02538200832951313,"396":-0.08144999969168264,"397":0.056282567874700096,"398":0.04195073804920069,"399":-0.019976895176828307}},{"sx":5,"sy":5,"depth":16,"w":{"0":-0.17235417314132212,"1":-0.09513629699054618,"2":-0.052349762255529085,"3":-0.051919304703013466,"4":0.006620429497005133,"5":-0.002472785505131177,"6":-0.1177717273941532,"7":-0.13130506937745318,"8":-0.06103565209441834,"9":0.07106343199180577,"10":0.027343683500714422,"11":-0.021421608622264394,"12":-0.06583179413151716,"13":0.07265288385085625,"14":-0.042990304553605155,"15":-0.04565940644245672,"16":-0.025497846155203358,"17":-0.04749174112187467,"18":-0.10150323362860916,"19":0.022389134081486795,"20":0.045914320211655646,"21":0.005539383581224229,"22":-0.017592745342681685,"23":-0.042442329569485016,"24":-0.026012502969241378,"25":0.11381407712828484,"26":-0.02100464508853844,"27":0.011232501437208216,"28":0.07036623601489714,"29":0.09704690770564363,"30":-0.0892987480445697,"31":0.007376004381293164,"32":0.01895382514162794,"33":-0.05660972207147899,"34":-0.13482602888095943,"35":-0.07167715731074317,"36":-0.04403705937462963,"37":0.09263324818736327,"38":-0.0535931820941596,"39":0.05194490286469298,"40":-0.0022004652477463946,"41":0.015726043957390107,"42":0.08574435183181466,"43":0.060119907823166605,"44":0.035640802511560286,"45":0.058754131899220526,"46":-0.02010846495732938,"47":-0.09464990417289933,"48":-0.0036784787557800325,"49":0.04873828197008891,"50":-0.09723077238732933,"51":0.023295286742873997,"52":0.0547573493211509,"53":-0.12536179579781698,"54":-0.08517251281444303,"55":-0.07816720803110522,"56":-0.016466389997144205,"57":0.013357872526430593,"58":-0.018127001125771987,"59":-0.010556912060758651,"60":-0.1182934786915326,"61":-0.05724396621067471,"62":-0.07596165245432546,"63":-0.02250547923661249,"64":0.05576388693757578,"65":-0.010842914256430811,"66":-0.0008357415924663283,"67":-0.05606540183082714,"68":0.06887375035038282,"69":0.0280013985842783,"70":-0.03376595026269698,"71":-0.08561344368195194,"72":0.03821686277402996,"73":-0.06828757699230231,"74":-0.03783891328606721,"75":-0.041581668403179006,"76":-0.05001557258726071,"77":-0.11620928507492276,"78":-0.01598753149747245,"79":0.010647408977442723,"80":-0.08957537200433374,"81":-0.031064608193164204,"82":-0.21623434626240476,"83":0.002056664352565726,"84":-0.016239646523917968,"85":0.013484311437715129,"86":-0.09266045570201366,"87":0.020524086303792568,"88":0.0030875410826076513,"89":0.0450440226433544,"90":-0.02444303337997216,"91":0.0021920802708757744,"92":-0.07099492397584069,"93":-0.09130999538631487,"94":0.02897462972186388,"95":0.05036877870816998,"96":0.05180140745107504,"97":-0.11345632106876502,"98":-0.03928257447819631,"99":0.05168514563603714,"100":0.057755199337825976,"101":-0.004664890026083991,"102":0.008576911475184381,"103":0.022316561757281105,"104":0.08680725816111726,"105":-0.028019618474109054,"106":-0.08534445218778274,"107":-0.0626107566899635,"108":-0.045031276670515,"109":0.003112233895616621,"110":0.06758627103361776,"111":0.011440095409712775,"112":0.04392306390481283,"113":0.01760744343893391,"114":-0.05448999104315572,"115":-0.04048075767767448,"116":0.033628453752055476,"117":0.009613592855901295,"118":-0.007172797059118825,"119":-0.01645129183055532,"120":0.0033516368549957433,"121":0.063814504699625,"122":0.041356644194797024,"123":0.11000680919304327,"124":-0.03341966069185605,"125":0.012096542532345076,"126":-0.034010253188429616,"127":0.0068853145314529685,"128":-0.08414927326729106,"129":-0.043215253759549814,"130":-0.07103535125484858,"131":0.01673481444820374,"132":0.02120817443670131,"133":0.01307285704389561,"134":-0.17844038451894081,"135":-0.10972692227263432,"136":0.003513106520359127,"137":0.027385721193550084,"138":-0.010610722173235158,"139":-0.030340898429723973,"140":-0.05307491205654879,"141":0.04511724351022795,"142":0.04607347664914119,"143":-0.05024602861537974,"144":-0.16783673386336545,"145":-0.07886848545664307,