{"layers":[{"out_depth":3,"out_sx":32,"out_sy":64,"layer_type":"input"},{"sx":5,"sy":5,"stride":1,"in_depth":3,"out_depth":16,"out_sx":32,"out_sy":64,"layer_type":"conv","l1_decay_mul":0,"l2_decay_mul":1,"pad":2,"filters":[{"sx":5,"sy":5,"depth":3,"w":{"0":0.06466533607969319,"1":-0.2075428259265418,"2":0.13125915448768388,"3":-0.10149561973676925,"4":0.015060886152282852,"5":-0.11069003038223682,"6":-0.11312933697638425,"7":-0.07694438058898458,"8":-0.0980170391541273,"9":-0.03164486732341312,"10":0.03516928417684128,"11":-0.038140958547734666,"12":-0.09779849530481612,"13":-0.060049658262358536,"14":0.08693141192999079,"15":-0.06449388115122129,"16":-0.24604611405459084,"17":-0.1045450906656485,"18":-0.00794231464299183,"19":-0.06940537025808273,"20":-0.039004521334478875,"21":-0.014599382290027253,"22":-0.07300358274655429,"23":-0.06638096425550642,"24":0.012641704886606875,"25":-0.043390825267900154,"26":-0.055010822151393204,"27":-0.14884143343028655,"28":-0.1623369759611458,"29":0.0035579493540112495,"30":-0.1620156728900845,"31":-0.16145601740255783,"32":-0.19232125007405754,"33":-0.07677044942763579,"34":-0.09913707196603504,"35":-0.068318396144358,"36":-0.11234565112940875,"37":-0.20015507321873216,"38":-0.001855969361293759,"39":0.10058117636903949,"40":-0.155720937482372,"41":-0.15908023477401076,"42":-0.12951243500351106,"43":-0.11013756381665563,"44":-0.026510615619781883,"45":-0.09748746416847726,"46":-0.12651753977517927,"47":-0.15639272909458035,"48":-0.1034377532142814,"49":-0.019954619981750847,"50":-0.028158451282530913,"51":-0.06824470964565474,"52":-0.2684209921680079,"53":-0.03623374393253577,"54":0.06087453750673113,"55":-0.14356608007391614,"56":-0.0252958601030484,"57":-0.0977569635411778,"58":-0.1591790890253693,"59":-0.06533672114079606,"60":-0.08092499532626934,"61":-0.14903925901017342,"62":-0.11008790413847687,"63":-0.08713951790075423,"64":-0.12016026977701547,"65":-0.11465442314402535,"66":0.025641345842556895,"67":-0.16730423519963544,"68":-0.14586789227201166,"69":-0.1281531455215898,"70":-0.03783818042912188,"71":-0.07939136477762741,"72":-0.013087069556140743,"73":-0.17398995011225632,"74":-0.11934843998230031}},{"sx":5,"sy":5,"depth":3,"w":{"0":0.09396826272587487,"1":-0.09198952093561642,"2":0.022317396773621496,"3":-0.14569919027051687,"4":-0.2121168082150265,"5":-0.14480538183855426,"6":0.02627149903848293,"7":-0.12112085265191874,"8":-0.09329281495294303,"9":-0.007473785247407217,"10":-0.12365584519745651,"11":-0.08759944591682332,"12":0.055409662544923986,"13":-0.21835851995497632,"14":-0.10404593071889605,"15":-0.10800919787157866,"16":-0.020616697449436693,"17":-0.09997073456816055,"18":0.007071914481694474,"19":-0.15724479838525995,"20":0.008597383893887986,"21":-0.030204736564735747,"22":0.016888943416646887,"23":-0.1338964702887134,"24":0.05074255171799327,"25":-0.07979703594144923,"26":-0.16816794028519713,"27":0.04512584014994643,"28":-0.1153203574401992,"29":-0.13692524301607434,"30":-0.05002297675627907,"31":-0.1683699708913006,"32":-0.14374363426171588,"33":0.02738773170837207,"34":-0.09768267316991812,"35":-0.17622799992931215,"36":-0.09079462349530182,"37":-0.3375795931441695,"38":-0.1269809589036744,"39":-0.16722871714847795,"40":-0.16638304616177704,"41":-0.170013989674357,"42":0.006735590634727453,"43":-0.08579987727366595,"44":0.04018950134507691,"45":0.010098511594071588,"46":-0.08638282152011446,"47":-0.06258006492155892,"48":-0.03030780465059306,"49":-0.10332888786803288,"50":-0.07563935658564498,"51":0.08947955898468776,"52":-0.08779065655501861,"53":-0.16427530078624375,"54":-0.09235227457139707,"55":-0.053432921317548426,"56":-0.006853376572314556,"57":0.01651993949123227,"58":-0.10118243204125095,"59":-0.19139552625158684,"60":-0.05521006046359064,"61":-0.10249318277846176,"62":0.013911732327278666,"63":-0.04684182135313981,"64":-0.09895427708759265,"65":-0.06724685785649137,"66":-0.11718290287145809,"67":-0.2219731910746513,"68":-0.07204647593897982,"69":0.0018930371482203045,"70":-0.007193707011901878,"71":-0.00808785972961673,"72":-0.06355681932604149,"73":-0.1281791385336603,"74":-0.11766189696976743}},{"sx":5,"sy":5,"depth":3,"w":{"0":-0.10371272383580311,"1":-0.06684892211617137,"2":0.21340059491880756,"3":-0.025394441704589404,"4":-0.027692824203374596,"5":0.07544824241094826,"6":-0.01740189930013924,"7":-0.204946321667269,"8":0.17814054314053565,"9":0.1104329624332978,"10":-0.0966091727532782,"11":0.11732701488975947,"12":0.042482773078855,"13":0.03890618717505708,"14":-0.04087031236220826,"15":-0.06990599234123801,"16":-0.09963701123117306,"17":0.030040035441811615,"18":-0.2011143749565232,"19":-0.05146901541434014,"20":0.0023828243085571373,"21":-0.16101505377058822,"22":-0.12850986506366033,"23":0.09547124784606047,"24":-0.06531802717622925,"25":-0.0037682600316717683,"26":0.09048332069735965,"27":-0.026012907447589145,"28":0.0769017527712078,"29":0.029426277477748734,"30":-0.22355895151775393,"31":-0.04270589628384999,"32":0.11540313066147458,"33":-0.17081229713671311,"34":-0.18128898146353725,"35":0.17383117845307455,"36":-0.008399934712934935,"37":-0.16226893278207988,"38":0.03873656530745945,"39":-0.0318669027201387,"40":-0.15031024441571803,"41":0.17306152680528175,"42":0.08893293002294857,"43":0.015116536931169003,"44":-0.050386214439005816,"45":0.020857200552079277,"46":0.08991596885811011,"47":-0.049537003924629806,"48":-0.007668261683723104,"49":-0.31019158777263584,"50":0.03124638443286862,"51":-0.07154531485723113,"52":0.10412603097319564,"53":-0.08648127725083755,"54":-0.10394848513368986,"55":-0.07173818047016976,"56":0.13823279753102663,"57":-0.07907974004743029,"58":-0.03280397993172118,"59":0.09695438806968851,"60":-0.11378233232330412,"61":0.012078221192107977,"62":0.2695894844990005,"63":0.010458364972306476,"64":-0.1854809356047494,"65":0.04551159757923664,"66":-0.051984012175071724,"67":0.10288292169522104,"68":0.09568433486147147,"69":-0.014569357452431039,"70":0.06662049212023807,"71":-0.12850126334002163,"72":0.07213361211710455,"73":0.060840548065114915,"74":0.1279132567594142}},{"sx":5,"sy":5,"depth":3,"w":{"0":0.04207636960189086,"1":0.11675478913050841,"2":0.13793939413859518,"3":-0.22743755268806162,"4":-0.07936475337996364,"5":0.10806137359756758,"6":-0.167972464429415,"7":0.0005307922985401739,"8":0.06475421377923063,"9":-0.030393144341353512,"10":0.012316706968071732,"11":0.07856638840168062,"12":-0.05902008980978617,"13":0.008690855549092292,"14":0.18362645592420482,"15":-0.15259097764839324,"16":-0.08146072426804388,"17":0.15478918629495847,"18":-0.22759971166180706,"19":-0.08874447850730305,"20":0.07540323682367964,"21":-0.17408554896841966,"22":-0.08565320499207651,"23":0.05805619170123597,"24":-0.10226177684233903,"25":0.08685518273784598,"26":-0.03169672314113936,"27":0.010476433900730315,"28":-0.1975979912763187,"29":0.17636233165292609,"30":0.01882332904487292,"31":0.02384375774557156,"32":0.0018443564610311756,"33":-0.2994648095118427,"34":0.1654858850402344,"35":0.10772180962600235,"36":-0.12143635161283116,"37":0.040205429458869416,"38":-0.005193813656990186,"39":-0.025994641627668902,"40":-0.2744110702485064,"41":0.1211752431630887,"42":-0.07024805498013148,"43":-0.013826736225515984,"44":-0.0875650098050255,"45":-0.18218048165325723,"46":0.002005695347829851,"47":-0.047213856145724084,"48":-0.24268368146069444,"49":-0.1015467744194435,"50":0.06909984894171672,"51":-0.1593511688944946,"52":0.17664430268535308,"53":0.08278364840168946,"54":-0.23344880457208816,"55":0.08631760732459713,"56":0.02481478841733901,"57":-0.2572432354228954,"58":-0.059028760014229825,"59":0.1882192756483808,"60":0.0166981276477036,"61":0.05285575210080269,"62":-0.0788176624969822,"63":-0.14883022179357522,"64":-0.058949022741781716,"65":-0.00612759344706456,"66":-0.17133711566924706,"67":-0.08960073679118599,"68":0.09291940590639315,"69":-0.14975194919198787,"70":-0.10855550091107544,"71":0.1043706839341334,"72":-0.051290032258926005,"73":-0.09022904324775043,"74":0.02248593841959189}},{"sx":5,"sy":5,"depth":3,"w":{"0":0.05485723743683495,"1":0.08218539846253531,"2":0.08107697191344979,"3":-0.15109867867130924,"4":-0.04049403380869265,"5":0.17568444654399357,"6":0.14786837498535246,"7":-0.01924037973179909,"8":0.059248182871022105,"9":-0.13871129522820447,"10":-0.05220965415748666,"11":0.01774238715405036,"12":-0.047832939256525854,"13":0.010028048733936047,"14":-0.002499487810629924,"15":-0.04747163699731657,"16":-0.10520895758563586,"17":-0.061657716478606815,"18":-0.026383681132277275,"19":-0.06752831978573079,"20":-0.036154739716535426,"21":-0.012493081050880143,"22":-0.19604636262733957,"23":0.12500174261177646,"24":-0.21397547772122588,"25":-0.1460296537122201,"26":-0.13684504184033458,"27":0.09267553246488927,"28":-0.12385572531995588,"29":-0.0010983506946152131,"30":-0.004600770093665586,"31":-0.2237613063558168,"32":-0.007425700604491254,"33":0.024554132495621626,"34":-0.12032382649521833,"35":-0.05467415709077105,"36":-0.09856282302143264,"37":-0.14787963075495267,"38":-0.044629018353177244,"39":-0.06674487812644483,"40":-0.13549639628227014,"41":-0.13805128524442034,"42":-0.027890935723323206,"43":-0.11532905606901357,"44":-0.06324897943145061,"45":-0.060397675389280835,"46":-0.18512069498100248,"47":-0.017641042609489663,"48":-0.039720593899447,"49":-0.11476176909803246,"50":-0.17920621950975,"51":0.027888945729094467,"52":-0.2817370263725628,"53":-0.08136493847971198,"54":-0.11174844395910914,"55":-0.14707222104043052,"56":0.08199615769616618,"57":-0.14751390693052477,"58":-0.06638828060357771,"59":-0.11497800084498203,"60":-0.06925881947973207,"61":0.026840979990209398,"62":0.13884665840656177,"63":-0.034946592899270754,"64":-0.0426049374137098,"65":-0.004457175745652769,"66":-0.08521552130127408,"67":-0.15913781939876656,"68":-0.011499926065520631,"69":-0.08102186865989179,"70":-0.23683569374480837,"71":-0.005571697505949631,"72":0.08196610833330777,"73":-0.12597190943184103,"74":-0.23875240608907905}},{"sx":5,"sy":5,"depth":3,"w":{"0":-0.10974426424070673,"1":0.02555984635080635,"2":0.016160141533144348,"3":-0.03724052509010185,"4":0.004567635538258755,"5":-0.10466073503199239,"6":-0.07339978416872009,"7":-0.043677233318044816,"8":0.011273781944195302,"9":-0.06341293649134894,"10":0.025543642531723205,"11":0.03823489846724443,"12":0.09918075585610948,"13":0.01739979111212924,"14":-0.06303237256649946,"15":-0.09430999367133015,"16":0.037527913272999994,"17":-0.08411059956013596,"18":-0.10154499031455798,"19":0.05778054635751018,"20":0.0273761744221908,"21":-0.16319631323430697,"22":-0.04657143790504328,"23":0.16237683836358957,"24":0.029661506728335868,"25":0.07051028809867645,"26":0.10602582268770702,"27":-0.05423230966259361,"28":0.11702008725067319,"29":-0.07696502997248239,"30":-0.21077771198114562,"31":-0.017147395393722658,"32":0.13762451387880148,"33":-0.1563427079241336,"34":-0.14331915645301246,"35":0.04832645242441528,"36":-0.17020188467398983,"37":-0.04309797908787855,"38":-0.08288338139478243,"39":0.04434093003161798,"40":-0.003392397879746567,"41":0.002467550110817144,"42":0.17524862999496504,"43":0.010186967357512629,"44":0.10176253728848532,"45":-0.09864320060446546,"46":-0.13486578489047488,"47":0.09367327681575291,"48":-0.05438848003748232,"49":-0.05502118849730466,"50":0.12697104128924847,"51":-0.18357889382192183,"52":0.01744948502221803,"53":-0.01749851210823461,"54":0.03807175746575667,"55":-0.04023503576531014,"56":0.06882689654547117,"57":0.016156008246595084,"58":0.09662624165972586,"59":0.03318571183584561,"60":0.006582447823263966,"61":-0.20270826906418424,"62":0.07243721617785244,"63":-0.2272252154742015,"64":-0.09110398635230577,"65":-0.018413454513925284,"66":-0.1199086349041658,"67":-0.14651621886027905,"68":0.08763660397799282,"69":-0.1906121225568923,"70":0.059450374127902564,"71":-0.04185815158304047,"72":0.017597405291145337,"73":-0.012946455642032291,"74":0.12232058762637756}},{"sx":5,"sy":5,"depth":3,"w":{"0":-0.03529646126894028,"1":0.019344295390940253,"2":0.024934966112805032,"3":0.033192490338632696,"4":-0.07439836512056323,"5":0.06536660707332054,"6":-0.016433647789716642,"7":0.059456255241014375,"8":-0.0706084726062973,"9":0.18324311869234694,"10":-0.01014483324681311,"11":-0.24091803321056274,"12":-0.014558570982164731,"13":0.14756220171591194,"14":0.036818096897592405,"15":-0.02618915108831611,"16":-0.017134399668480346,"17":-0.20389292613830037,"18":-0.13648550783487928,"19":-0.023085058466589467,"20":-0.0025801804432736136,"21":0.10441277331750949,"22":0.07568741381393909,"23":-0.10909723558555028,"24":0.10364042630041098,"25":0.06536353855838778,"26":-0.09132310621735942,"27":0.12586866048237322,"28":-0.15987569271493338,"29":-0.0737068622878545,"30":0.06665805806063005,"31":-0.0010235800275069909,"32":-0.19697958360127724,"33":0.007281469727152879,"34":0.009475475277536026,"35":-0.0782154636692186,"36":0.03643096119111685,"37":0.09890970268411545,"38":-0.032749417767501725,"39":0.15583899556861447,"40":0.03587449493102514,"41":0.11642123598393879,"42":0.02961841514321488,"43":0.2525523466090236,"44":0.061593639191692084,"45":0.07037473988056309,"46":0.015934882898715273,"47":-0.10333516008203622,"48":-0.0006001116855475418,"49":0.03856439035028521,"50":-0.2010372498194583,"51":-0.019672777206137033,"52":0.02593836506459352,"53":-0.1425788129961712,"54":-0.000026432558525745016,"55":-0.0032286250749137134,"56":-0.10688055162092994,"57":-0.013217046960289395,"58":-0.12418119093951513,"59":-0.10110487380677796,"60":0.15565344791808663,"61":0.14324474815909363,"62":-0.147523350653735,"63":0.14887610406511584,"64":-0.04931185910073111,"65":-0.24777975093666388,"66":0.11443781338361358,"67":0.047422824002137445,"68":-0.1213384336361249,"69":-0.09508329191750603,"70":0.06791590202356192,"71":0.04578965624735564,"72":-0.12412271094579734,"73":-0.024391537954536496,"74":-0.018995838878785417}},{"sx":5,"sy":5,"depth":3,"w":{"0":-0.05744150459331439,"1":0.05513264891601268,"2":0.03399679636263037,"3":0.14823482472511929,"4":-0.06736226138940493,"5":-0.06379338254156944,"6":-0.0940178475247223,"7":-0.10099315237591452,"8":0.21788509288628238,"9":-0.09444229816007665,"10":-0.049441291267104386,"11":0.12206842679382994,"12":0.09034989084251338,"13":-0.06226801126611911,"14":0.03847044712599192,"15":-0.26078655822482594,"16":0.0779133179138909,"17":0.1200938554491531,"18":0.09864028395623455,"19":-0.02389901247458039,"20":0.02711715077417803,"21":-0.11774509598377983,"22":0.09638982802769581,"23":0.01453086669230989,"24":0.03184652275519779,"25":-0.002058114594729097,"26":-0.03225791489439797,"27":-0.1307737660088978,"28":-0.025495963520669854,"29":0.061543073762175174,"30":-0.1310884409582681,"31":-0.02882482703858505,"32":0.034403842122412376,"33":-0.0037368206753103047,"34":-0.09160463572753573,"35":0.04080226807574384,"36":-0.04253747719035835,"37":-0.09392774747691458,"38":-0.008454626510596497,"39":-0.15853800954613095,"40":-0.09386487564979046,"41":0.18672502974988334,"42":0.04162342708357829,"43":-0.06905081038440652,"44":0.06719452878252698,"45":0.007270670793285776,"46":0.02437975494652389,"47":0.015776660674899818,"48":-0.13947208964065694,"49":-0.01539863359680713,"50":-0.025053875253840015,"51":-0.05877237910205044,"52":-0.08066141209731112,"53":0.012487342761319237,"54":-0.03823732560951069,"55":0.03292736859373584,"56":-0.06798183600124005,"57":0.03332058942409893,"58":0.0012149633124267714,"59":0.019897082006611392,"60":-0.15692435932572985,"61":0.00015578255950321305,"62":0.16434302176469975,"63":0.04694108886326327,"64":0.006330748201686275,"65":-0.166008125173723,"66":0.021042596731460327,"67":-0.01814841657111316,"68":0.023078777942711865,"69":-0.07015306683967006,"70":-0.14023770123138632,"71":0.023508558520729157,"72":-0.07574704291738044,"73":0.022721517479572986,"74":0.06095127461776726}},{"sx":5,"sy":5,"depth":3,"w":{"0":-0.17477884712963768,"1":0.002826188738051426,"2":0.2690650131391453,"3":-0.11310682779131738,"4":-0.14465441531107756,"5":-0.12238843804199157,"6":-0.23049131163577027,"7":-0.15410667071689033,"8":0.14608618129281636,"9":-0.11133256057841204,"10":0.062018532142109506,"11":0.10556564464327918,"12":0.007038584616751512,"13":-0.002343012212129227,"14":0.08982562725312229,"15":0.01614349481660401,"16":-0.05800319941883489,"17":0.006048868213344921,"18":-0.020031482751611884,"19":-0.01177218576065403,"20":0.016905816796925936,"21":-0.18668370601548104,"22":-0.10727661192817137,"23":0.09984628405448857,"24":-0.12559116194553285,"25":-0.07660384146802475,"26":0.07257563031162287,"27":-0.3198633170065446,"28":-0.036652662335745996,"29":0.11699085136305791,"30":0.04123523451401535,"31":0.07121465030270556,"32":0.009775770742234315,"33":-0.03791637605548973,"34":-0.07500404822201986,"35":0.09559208017860071,"36":-0.11246715282302674,"37":-0.061210415690099246,"38":-0.04672189919904474,"39":-0.238397561067234,"40":-0.07595313922182469,"41":-0.034149066787387404,"42":0.04549294496068137,"43":0.012340890858370042,"44":0.0034005823486306327,"45":-0.08239712918858064,"46":-0.0969166891914215,"47":0.1537583021414223,"48":-0.1490048950088836,"49":-0.026386140542811756,"50":0.033280622003741094,"51":-0.09134217319038385,"52":-0.09493167733235335,"53":0.05685709314586973,"54":-0.16134725455540394,"55":-0.14575312099537352,"56":0.032827866243292814,"57":-0.05971843890730417,"58":-0.058162429073019765,"59":0.03586114912856907,"60":0.09440595407520283,"61":-0.02190367084994005,"62":-0.011407877428265566,"63":-0.2002747588239398,"64":-0.04282401392236879,"65":-0.0005765672811362695,"66":-0.02308086764693871,"67":-0.11017717819758975,"68":0.05661835819209164,"69":-0.10701489213760963,"70":-0.07376052043092124,"71":0.08175101672261323,"72":0.0650894499353878,"73":-0.08784042547064773,"74":-0.08265613932432885}},{"sx":5,"sy":5,"depth":3,"w":{"0":-0.05157118787936861,"1":-0.06385714033199294,"2":-0.06365031402601853,"3":0.15284038479349774,"4":-0.04496991633927082,"5":-0.052411638672040343,"6":-0.1717208553050737,"7":0.025979470610353536,"8":-0.261128416099353,"9":0.06767765147033174,"10":0.15388772041623003,"11":-0.040020388584394086,"12":-0.13541324539168179,"13":0.002534779088966645,"14":-0.04055573723569767,"15":-0.00011574726132871774,"16":-0.10454593322449583,"17":-0.15981633210733473,"18":0.06753315761668928,"19":0.02331478629615717,"20":-0.03030209282084347,"21":-0.1366852874753193,"22":0.15325334896373044,"23":-0.11579439937836326,"24":0.010578603663455257,"25":-0.14019120727562986,"26":-0.057932479291654876,"27":0.02657675388212705,"28":0.12179685620122531,"29":0.21307676025178232,"30":0.07582883093372442,"31":-0.13974368171098006,"32":-0.042610986995152166,"33":-0.0952675048566826,"34":-0.22124875688642143,"35":-0.053342842574784395,"36":-0.046304525726702586,"37":-0.21433772917394253,"38":0.004068882140410017,"39":0.05894157808060683,"40":-0.08421399111932719,"41":0.015063586382917061,"42":0.020781776021767163,"43":0.0017418428230455685,"44":-0.038800073361840125,"45":-0.1303521606312682,"46":-0.05356587678742204,"47":0.07687769489433921,"48":0.049713999004483,"49":-0.08944058730475159,"50":0.05965367249983655,"51":0.10207477547410541,"52":-0.011249229873244745,"53":-0.07210000915428391,"54":0.16803887656791944,"55":0.024968664124961622,"56":-0.04814099170137224,"57":-0.1029234600040209,"58":-0.167446856613403,"59":-0.022117647102974057,"60":0.12982230577009796,"61":0.1657582485243862,"62":0.2217106349776016,"63":0.03541720650181196,"64":-0.12150611386266327,"65":0.07170715330862057,"66":0.05912512050407955,"67":0.040777446114044616,"68":-0.015461938280890104,"69":-0.09016163478156616,"70":0.004130257298340133,"71":0.0707531645687564,"72":0.027115317480977067,"73":-0.03822583435067024,"74":0.11834917688138286}},{"sx":5,"sy":5,"depth":3,"w":{"0":-0.07274331072781795,"1":-0.006176087602440312,"2":-0.061741173670450546,"3":-0.00871144821532161,"4":-0.14259402703784718,"5":-0.045864841392748934,"6":0.12924428056742207,"7":-0.06514415683049517,"8":-0.030640173378529652,"9":-0.15086809890711758,"10":-0.0028695685652971557,"11":-0.08085655228446535,"12":0.05092879714069908,"13":-0.0059735654444094295,"14":0.0884481889254079,"15":0.023489589326184446,"16":0.035708632663354375,"17":0.01341212877460327,"18":-0.10347665569779405,"19":0.13709971166465426,"20":-0.028372787148736357,"21":0.02103713490286975,"22":-0.09731179506807061,"23":0.14451825879120767,"24":0.05184033013290975,"25":0.05165875409587377,"26":-0.010044939011298742,"27":-0.06301667386996425,"28":0.04422137239018897,"29":-0.08380300988998544,"30":0.09066361452195684,"31":0.0355436601384031,"32":-0.10702518684528523,"33":-0.08572014683929474,"34":-0.05366609498088581,"35":-0.1631307598786094,"36":0.22846209720243607,"37":0.05237841481041192,"38":0.10847126746849897,"39":0.02410448459159303,"40":0.08497826005406477,"41":-0.16198299628039428,"42":-0.08568477538890963,"43":0.20862008375645125,"44":-0.0467732508942249,"45":-0.10512481253862516,"46":0.10717768981844661,"47":-0.018224477508015792,"48":0.1431210355153931,"49":0.19468435670281992,"50":-0.02324458989827051,"51":-0.07216412153241636,"52":0.10719356913377968,"53":-0.20183563703282517,"54":0.010724277774803812,"55":-0.004919419042256392,"56":-0.0706914074084935,"57":0.18351769332445522,"58":-0.02671064542793945,"59":-0.16546209544978877,"60":-0.02452947719045109,"61":-0.012926088346389739,"62":0.03334731378818836,"63":-0.012231313099771619,"64":-0.023658519270340624,"65":-0.17702387840068037,"66":0.027129710545177217,"67":0.16669513641500788,"68":-0.03732210968360773,"69":-0.09847665933686782,"70":0.11281795464182189,"71":-0.10716018520338992,"72":-0.058565423443203285,"73":0.1323855971423602,"74":-0.16488246970246442}},{"sx":5,"sy":5,"depth":3,"w":{"0":-0.07722602102713501,"1":-0.057455152745595886,"2":-0.05230809881947026,"3":0.07617891188697279,"4":-0.12346318806640362,"5":-0.15629688994259563,"6":-0.08666393918205641,"7":-0.034034668092592764,"8":-0.22919826500174426,"9":0.0001608944916168318,"10":-0.09632785886262177,"11":-0.06340413282864722,"12":0.004624340738305033,"13":-0.10921699803794793,"14":-0.012388345235773108,"15":-0.07627898080519328,"16":-0.16592741154443957,"17":-0.17269304525198498,"18":0.07955075032457382,"19":-0.11166028789247974,"20":-0.12579714063532724,"21":-0.05916957100531537,"22":-0.12391480016923531,"23":-0.17146098157637651,"24":-0.11619528233813721,"25":-0.02718220699600069,"26":0.010246953394142598,"27":0.028667208377741952,"28":-0.08203784372457011,"29":-0.14261230920882342,"30":-0.06301793209204572,"31":-0.13744333360468117,"32":-0.09719845608580926,"33":-0.08589945566451405,"34":-0.1719494146442333,"35":-0.018404467453018658,"36":-0.16643663841766798,"37":-0.12219299659390448,"38":-0.1798161572858829,"39":-0.033796215904755046,"40":-0.10835257989026216,"41":-0.11153882225184195,"42":0.019386901832267982,"43":-0.04597348128427536,"44":-0.08987333935282678,"45":-0.0031379299436933533,"46":-0.11815705517346332,"47":-0.20221932815762242,"48":0.007373817153852908,"49":-0.16914496954176383,"50":-0.09400259486460517,"51":0.09587967171946442,"52":-0.17443058796160613,"53":-0.2709627748272866,"54":0.01901893772015088,"55":-0.0954268032959426,"56":-0.10466413280720062,"57":-0.1360322429534625,"58":-0.1666921580784534,"59":-0.08150474044918986,"60":-0.050406201703177424,"61":-0.13279879404255399,"62":-0.11298782635233837,"63":-0.060723397127178134,"64":-0.07617315151124537,"65":-0.17106208105632512,"66":-0.06439891694827045,"67":-0.04919309946176018,"68":-0.1079517631322278,"69":-0.012543463577486862,"70":-0.09374205128330981,"71":-0.09429793576949641,"72":0.06442820057907102,"73":-0.0811390793722658,"74":0.04212287290954245}},{"sx":5,"sy":5,"depth":3,"w":{"0":0.045440861566564954,"1":-0.11666277860872626,"2":-0.0034772323272528557,"3":0.08500959601615733,"4":-0.16926862358326483,"5":-0.11325431834659816,"6":-0.08366920215663429,"7":-0.07973087062738214,"8":-0.005397350794683376,"9":0.12338510235898413,"10":-0.15957605223697244,"11":0.03128832771683234,"12":-0.01564800371714358,"13":-0.22148802696964467,"14":-0.02596769654144036,"15":0.08439819845664219,"16":-0.04563440685646731,"17":-0.13318947986190185,"18":-0.053354258134744544,"19":-0.17518039283324177,"20":-0.122384395576157,"21":-0.010827186749612997,"22":-0.23130152769036,"23":-0.20429870594194907,"24":0.08667378486912203,"25":-0.3321963298822685,"26":-0.12881460157753932,"27":0.09948834900765813,"28":-0.10745237055355988,"29":0.06468090153406157,"30":-0.010544463963501303,"31":-0.023932633368220418,"32":0.008860967836040656,"33":0.1586137983472589,"34":-0.05896967291981317,"35":-0.13526263432939498,"36":-0.022469440422771044,"37":-0.3867806002400894,"38":-0.20425257081938733,"39":0.08928978990240871,"40":0.0569944769745394,"41":-0.16514685082284616,"42":0.024288278382592884,"43":-0.03115309110399883,"44":-0.03654556643298593,"45":-0.08765226259135485,"46":-0.10803519989339466,"47":0.023439640668217,"48":0.0982610774569729,"49":-0.23757286586791365,"50":-0.10386424559388797,"51":-0.01386694541286439,"52":-0.14764421157642324,"53":-0.11200936661117657,"54":-0.20628350486722713,"55":-0.1737605723232893,"56":-0.080122923404789,"57":0.02623970459917341,"58":-0.11719912210055973,"59":0.08296764935209858,"60":-0.05422576698487833,"61":0.008788714078725881,"62":0.004604713519599718,"63":-0.08285067031543972,"64":-0.07944301863588495,"65":0.09527398214868374,"66":-0.03476611733394018,"67":0.06056601590231624,"68":0.16026091357875283,"69":0.12393714737389777,"70":-0.002068375433262707,"71":-0.10679739632811147,"72":-0.01271577797230044,"73":-0.027167691373339225,"74":-0.05412531492521334}},{"sx":5,"sy":5,"depth":3,"w":{"0":-0.2587913670982259,"1":0.07028369443495693,"2":0.13824236701581696,"3":-0.034794416842351704,"4":-0.0977857877321781,"5":-0.0883865501886753,"6":-0.04738134849511179,"7":-0.17994477041688045,"8":-0.024151435286651906,"9":-0.12528067441946958,"10":-0.0468309703330412,"11":-0.04872656556804486,"12":0.19341555765589602,"13":0.05543907359466896,"14":-0.03603926997837399,"15":-0.1006503339452635,"16":-0.04525884278951869,"17":0.03471988509723993,"18":-0.15058110445650053,"19":-0.1787066702772584,"20":0.17486764252859222,"21":-0.1637616208980596,"22":0.0830209371756937,"23":0.1266654219320554,"24":-0.04268491291075508,"25":-0.02017288095852416,"26":0.1620946665491648,"27":0.12866263505733938,"28":0.10745382399483377,"29":0.10970689882387448,"30":-0.10469967788191249,"31":-0.01002575705793742,"32":-0.048091515783238385,"33":-0.2188599732447895,"34":-0.137468533842485,"35":-0.08351737654313238,"36":-0.08252259881072155,"37":-0.17520354694047902,"38":0.04610791398687448,"39":-0.10198221505512708,"40":-0.0008614388567087316,"41":-0.00877808786988184,"42":0.050439040185559524,"43":0.07814029536820401,"44":-0.07577993206763403,"45":-0.23236864650472183,"46":0.005869506362035207,"47":0.003937465012342537,"48":-0.09001245045996535,"49":-0.060728652113048266,"50":0.060840322170202216,"51":-0.08576314473562256,"52":-0.043628756250078504,"53":0.05946130954330578,"54":-0.0802456222991521,"55":0.0036825687325455735,"56":0.16278690928569864,"57":0.08584439313620837,"58":-0.0013506715731164088,"59":0.07108654727769569,"60":-0.09371328847321898,"61":-0.06464311987545841,"62":0.13054155461924552,"63":-0.17062950022738355,"64":-0.05879215986294334,"65":0.04433519988241501,"66":-0.08185353089606122,"67":-0.22231497484100043,"68":0.017667393874992044,"69":-0.061595043232167745,"70":-0.07602922358411682,"71":-0.01752299038384172,"72":-0.1366142964406363,"73":0.1667132451611955,"74":-0.08811486429765131}},{"sx":5,"sy":5,"depth":3,"w":{"0":0.15981909853996612,"1":0.09483188355066736,"2":-0.20739698703664183,"3":0.1414874407811681,"4":-0.10283476649992986,"5":-0.15392649331278704,"6":-0.008214821389426231,"7":-0.052863662378219815,"8":0.01613182379998744,"9":0.0373673581959013,"10":-0.025676251512907165,"11":-0.013698066499686185,"12":0.018532566532403576,"13":0.0700239789931855,"14":-0.08475396028664606,"15":0.04818580108310255,"16":-0.02236092627017741,"17":-0.13614572343966047,"18":0.0069486445403442645,"19":0.04416547956394977,"20":-0.04345641760833814,"21":0.11225263485588174,"22":0.009171586346963303,"23":-0.057037458262443434,"24":0.11712767024208348,"25":-0.06386142703506548,"26":-0.13889892265912762,"27":0.16356889494415544,"28":-0.1483309825979664,"29":-0.09233008188631289,"30":0.017279716384629308,"31":0.08245224736184519,"32":-0.17223221518930978,"33":0.04300605704931817,"34":0.04231385742972175,"35":-0.03187835382520086,"36":0.10554373758187509,"37":0.06748266803784307,"38":-0.011360288076051517,"39":0.007001394542139252,"40":0.12532067752462495,"41":-0.20579656897804802,"42":0.0734184448026523,"43":-0.18542794549861857,"44":0.0026103582605925746,"45":0.2164014819438591,"46":-0.027080553011021476,"47":-0.1311630563772804,"48":0.12786506184605617,"49":0.02351162369353594,"50":-0.10792326689158259,"51":0.016768713889076328,"52":0.07644172836906626,"53":-0.16144673749561034,"54":0.005901788456430753,"55":0.11023191683118894,"56":-0.0901684812703998,"57":-0.06666390138438445,"58":-0.0788208733526857,"59":-0.02574136613127679,"60":-0.0966462799683967,"61":0.1047196564140099,"62":0.03636444335640189,"63":-0.0005130729698618053,"64":0.03300025617259144,"65":-0.06895220605299573,"66":0.00701225477362325,"67":0.20485560055997676,"68":0.04755208024627768,"69":0.1278840363040563,"70":-0.22863627593673766,"71":-0.15728707011148033,"72":0.10339592946336632,"73":-0.08159317903292941,"74":0.11758374052336373}},{"sx":5,"sy":5,"depth":3,"w":{"0":0.07867528702560235,"1":0.038541110212884234,"2":0.2036201411577681,"3":-0.06300179000243969,"4":0.053353123361891464,"5":-0.08622257753048736,"6":0.06789130534646724,"7":-0.1499540152220425,"8":-0.0301595761007914,"9":0.12585972428156944,"10":-0.11259363010241986,"11":-0.2587813352829933,"12":-0.202484493892885,"13":0.0996891705574071,"14":-0.047602204050717606,"15":-0.0905890761870245,"16":-0.03139729572674684,"17":0.016857029527296608,"18":-0.03291013975151773,"19":-0.0025037654145906767,"20":0.11795461809447377,"21":-0.03206616815371054,"22":-0.11970367422803527,"23":-0.031725871043988024,"24":-0.0035488034362470048,"25":-0.037994265385419904,"26":-0.10355955733533896,"27":-0.06070610716557757,"28":0.0644899660373184,"29":0.0805731325038008,"30":-0.12753862172226646,"31":0.14216200459342526,"32":0.15268363858694908,"33":0.12430551039712102,"34":0.0353468129557343,"35":0.32545077135437916,"36":0.03093867403743643,"37":0.09552431857506324,"38":0.22729022470216217,"39":-0.12139822813817831,"40":-0.10618480846317965,"41":0.13740781867200438,"42":0.011431355656789032,"43":-0.12944228919031475,"44":0.06828142177763272,"45":-0.00029379900834220114,"46":-0.03441737568441232,"47":0.1466184729829459,"48":0.07698222705569396,"49":0.08047922407169628,"50":0.21750856676808603,"51":0.025355185759853814,"52":0.09165784544114822,"53":0.04802319408497238,"54":0.1444830723922003,"55":0.02077139643261145,"56":0.07009566447644408,"57":0.024275249226002785,"58":0.20714170837376908,"59":0.27390104987050906,"60":0.012215883551587101,"61":-0.12718869754718126,"62":-0.06987730009722058,"63":0.07690941157635678,"64":-0.017579410141102456,"65":-0.09505426452446436,"66":0.07683236867426953,"67":-0.011026564598930722,"68":0.1515830758225992,"69":-0.02319584060623779,"70":0.10870996980314568,"71":-0.13198546426384877,"72":0.1020954315159723,"73":0.05632470125918481,"74":0.10794706151636618}}],"biases":{"sx":1,"sy":1,"depth":16,"w":{"0":0.18322693142655289,"1":0.17229269816973822,"2":0.021962213279127642,"3":0.01074350392529393,"4":0.1374308991411808,"5":-0.054977701780548775,"6":0.10554168288124094,"7":-0.02264095251600605,"8":-0.006476755610212185,"9":0.08820375997300689,"10":0.06405455107433125,"11":0.18687774351288852,"12":0.18510702875556828,"13":-0.00531012220594709,"14":0.1019604859526622,"15":0.06579416654756651}}},{"out_depth":16,"out_sx":32,"out_sy":64,"layer_type":"relu"},{"sx":2,"sy":2,"stride":2,"in_depth":16,"out_depth":16,"out_sx":16,"out_sy":32,"layer_type":"pool","pad":0},{"sx":5,"sy":5,"stride":1,"in_depth":16,"out_depth":20,"out_sx":16,"out_sy":32,"layer_type":"conv","l1_decay_mul":0,"l2_decay_mul":1,"pad":2,"filters":[{"sx":5,"sy":5,"depth":16,"w":{"0":0.026865863347564013,"1":-0.06125559201237229,"2":0.005298044185227839,"3":-0.026928974201073624,"4":-0.09714567247912557,"5":0.001797124098552479,"6":0.06670827005329225,"7":0.06660387656778288,"8":0.022007066081914866,"9":0.0350465584241605,"10":0.06539198100183372,"11":0.01964355784081171,"12":-0.005193960853779575,"13":0.03190804873763251,"14":0.0058044053025712245,"15":-0.022333057962544447,"16":-0.016157308748805606,"17":0.06705884983374844,"18":0.06384537385362674,"19":0.014910252408863029,"20":-0.041156539718881995,"21":0.011099341022987975,"22":0.09923325239149619,"23":0.045007583963415525,"24":0.028505733117297462,"25":0.09717631224175774,"26":0.01124938951585597,"27":0.08666517385000581,"28":0.05605433754103799,"29":0.06958736234880664,"30":-0.06977047858641192,"31":-0.08583830601684952,"32":-0.051587864390844014,"33":-0.06382879841421091,"34":0.05824127056728486,"35":-0.015599324918635957,"36":-0.05728078073699979,"37":0.058517369245602684,"38":-0.04862968163735356,"39":-0.006719010276071499,"40":0.0038819341271324,"41":0.06782080830817196,"42":-0.06915648872002923,"43":-0.044835957159806185,"44":0.055354084807141525,"45":-0.05820883448896935,"46":0.011841568344210438,"47":-0.030243672805000434,"48":-0.013826240864208549,"49":-0.0253115286561826,"50":-0.0282629272429369,"51":-0.03753843668186533,"52":-0.14174791336823717,"53":0.06008664086533654,"54":-0.013444542195057162,"55":0.042760241383847236,"56":0.03734454123701416,"57":0.04077961264209216,"58":-0.014156164067338,"59":0.05308821082496765,"60":0.008668709538160194,"61":-0.06392511696531744,"62":-0.017591781714907304,"63":0.05556080556339921,"64":-0.027914765661486426,"65":-0.022257438176736588,"66":-0.0011264501507719593,"67":-0.028398388010616695,"68":0.0045169565884426105,"69":0.0236695699021762,"70":-0.029929650644402554,"71":0.014881385442174093,"72":-0.04553156183825361,"73":0.03410223214368443,"74":0.004204748947576765,"75":-0.08276308306438905,"76":0.03642567008255227,"77":-0.05593119958552264,"78":-0.03991908398362089,"79":0.07589176389807825,"80":-0.04555088305229477,"81":-0.015168901574071936,"82":-0.017296437581183783,"83":0.009553201363110494,"84":0.019604703406724613,"85":-0.027680573850846525,"86":0.07401663056031833,"87":-0.001563812677742771,"88":0.037869724106877604,"89":0.039730043369868476,"90":0.003593488466052267,"91":-0.06999617055037438,"92":0.07287075219080935,"93":-0.03042569514602751,"94":0.08433187560044281,"95":-0.05808733170176206,"96":-0.04146340518240458,"97":0.00841908072227711,"98":0.04936115359586159,"99":-0.07011238550520417,"100":-0.014798197407239649,"101":0.034422159759226044,"102":0.001202602107670254,"103":-0.05741193745922175,"104":0.006050590455721573,"105":0.0823802016975652,"106":0.053675544383507426,"107":0.07048501637252734,"108":-0.02639156811022595,"109":-0.01883298743922744,"110":0.05485609624007345,"111":-0.003121635482152731,"112":0.05877110242465053,"113":0.0039015491285226303,"114":-0.03316654311537373,"115":-0.08673229782985688,"116":-0.023019482317063113,"117":0.08867886886308106,"118":0.08149172814181993,"119":-0.007307448585895983,"120":0.0022610977631402807,"121":0.007920796167695055,"122":-0.07949161630744657,"123":0.05763069461076619,"124":0.037817237598994254,"125":0.0706933072701024,"126":0.029637089438424566,"127":-0.003413147052620714,"128":-0.046960372235114664,"129":-0.07796486723362048,"130":0.05115252751695326,"131":0.03870626028905889,"132":-0.02770961663412691,"133":-0.03837784404985673,"134":0.1343444478559556,"135":-0.05313521928046093,"136":0.004742234146308196,"137":0.05562296495361398,"138":0.06043131132100646,"139":-0.016306827604892746,"140":-0.08588230481065454,"141":-0.025459790411619276,"142":0.02754498834864332,"143":0.017281271739967387,"144":-0.04106794408488741,"145":0.00790335605524718,"146":-0.10187602592278779,"147":-0.03474397647643598,"148":-0.026673349288212262,"149":0.03278806838305137,"150":0.013369978338604444,"151":-0.03022024563815765,"152":0.0639619719664511,"153":0.030434054714070985,"154":-0.011603181602251189,"155":-0.08429842731400881,"156":0.0791592274076985,"157":-0.04729975015540967,"158":-0.026926354003538783,"159":0.043935010651377636,"160":-0.02061896353990624,"161":0.010034487614976356,"162":-0.03447632206667667,"163":-0.07716675586359135,"164":0.03258788965576755,"165":0.026748283943661685,"166":-0.07540029512262597,"167":-0.07671141086099148,"168":0.004525057869430508,"169":0.03766804323850598,"170":0.07580197028950672,"171":-0.013300185368650701,"172":0.054973606604936165,"173":0.033100877824346245,"174":0.041346099340838875,"175":-0.05238639125815886,"176":0.02728749422074218,"177":-0.025384266995647022,"178":0.02751809150980776,"179":-0.06683342292457085,"180":-0.02748255763339984,"181":-0.04045890492262011,"182":0.18236317023940285,"183":-0.06951216394038681,"184":0.0467398024824817,"185":-0.029301971455976586,"186":0.0414174671496979,"187":0.03699752547971237,"188":0.021854417597316173,"189":-0.02488309661917617,"190":0.08606977492293978,"191":-0.07318668248675061,"192":-0.026440066108746035,"193":-0.010816335072730618,"194":0.003343898834126755,"195":-0.05469793854628008,"196":0.011508899457684236,"197":0.07129294545855794,"198":0.0709297734135187,"199":-0.09269836145444493,"200":-0.05238328131002544,"201":0.07990732473326224,"202":0.1078470091338405,"203":-0.0029039047445452086,"204":0.014831478514283406,"205":0.02930721982878227,"206":0.10863195745386492,"207":0.009878153736996173,"208":-0.09826146781662802,"209":-0.03149959976982288,"210":-0.0911439010721545,"211":-0.06036208532817841,"212":-0.08702490872239615,"213":-0.010240831126812585,"214":-0.01403248782268072,"215":-0.04731448639496919,"216":-0.05327860512727776,"217":-0.0017676397977887848,"218":0.05732762544648487,"219":-0.09327388611697786,"220":0.03886913381493015,"221":-0.04196264681477443,"222":-0.02308685171387135,"223":-0.011870698225873586,"224":-0.13106156998332477,"225":-0.04466429318591103,"226":-0.0450949497615765,"227":-0.12472721166838965,"228":-0.00297493935535169,"229":0.013607022655016305,"230":0.08703259468465405,"231":-0.03842210760249766,"232":-0.02432254906742099,"233":0.05661915871420941,"234":0.05811829397495051,"235":-0.07685192522152638,"236":0.03184054316028931,"237":-0.028351871353897763,"238":-0.03189943145420722,"239":0.07390451800875074,"240":0.006430579359745652,"241":0.05699717664853724,"242":-0.054125140697161137,"243":-0.07782955664225821,"244":0.02102335031755097,"245":-0.052985860082154536,"246":0.05130809909971565,"247":-0.034798400110681034,"248":-0.10286263632721131,"249":-0.07799368906494943,"250":0.02106456517539008,"251":-0.009805976180726378,"252":-0.0170513070592566,"253":-0.03700424249699131,"254":0.03716172784017209,"255":0.006432508434347035,"256":0.006434473093823889,"257":-0.038504960762877294,"258":-0.09649732223218226,"259":-0.11536451828878674,"260":-0.03199895369622099,"261":-0.041975345551234285,"262":0.07245027043428161,"263":-0.036652775529106806,"264":-0.037362168277240114,"265":-0.003069952751148812,"266":0.002826599635281424,"267":0.02638051935608512,"268":0.015318957646946884,"269":-0.015849893375708916,"270":0.08814005456320244,"271":-0.09280376153908348,"272":-0.0039928529925706314,"273":-0.006731055321030436,"274":-0.028153034438540742,"275":-0.028069604063518865,"276":-0.04350101411019225,"277":0.060828412609266795,"278":0.0808945703048069,"279":-0.07203603173607445,"280":-0.022398336892034288,"281":0.010567952938215159,"282":-0.007347569481082446,"283":0.05944657284722888,"284":0.007707065820690404,"285":-0.029917939737934728,"286":0.07039247648853349,"287":0.020132841376038768,"288":-0.04472991946490347,"289":-0.05193932796012898,"290":-0.06037352153844351,"291":-0.08747420761423881,"292":0.02588011653804544,"293":0.017829174095534934,"294":0.11271395185234992,"295":-0.08157345287393476,"296":-0.1135277255742597,"297":0.02068350025252076,"298":0.03666738583029172,"299":-0.02780776513670714,"300":0.02393378652532829,"301":0.03494667333892875,"302":0.1519976070125368,"303":-0.0003499635042508875,"304":-0.06748729102303266,"305":-0.0457489663489594,"306":-0.011199679168679736,"307":-0.04773745472309286,"308":-0.04214723754691448,"309":0.02277055262466447,"310":0.05923847808244094,"311":0.05456495908768087,"312":0.03667451980392675,"313":-0.01592839949665636,"314":0.08510793655851903,"315":-0.008735379931241398,"316":-0.05208817329518102,"317":0.011352425439242116,"318":0.062273327517814,"319":-0.013832590988963405,"320":-0.009585991896108113,"321":0.02910800521331741,"322":-0.003299563612458317,"323":-0.06679037322009418,"324":0.0052808867332401555,"325":0.03805113569847598,"326":0.1175939550364062,"327":-0.0509588939681935,"328":0.0005560802080075763,"329":0.05310099076265252,"330":0.058591332317274265,"331":-0.006847966269872309,"332":0.05343326815158079,"333":-0.04847365708065105,"334":0.04554293374067912,"335":-0.0557395951911788,"336":0.07605215664789292,"337":0.07436239954892851,"338":-0.09740197671942619,"339":-0.06786495267528884,"340":-0.011871783749171617,"341":-0.0005096823330831194,"342":0.0767582640492196,"343":-0.04964075224015863,"344":-0.06432597007113132,"345":0.09278934199709368,"346":0.039663624684046196,"347":0.03907390575621089,"348":0.04691630625145173,"349":-0.012528084151695288,"350":0.09813945896825876,"351":-0.04367153125831782,"352":0.008264734272495654,"353":-0.026518869202358374,"354":-0.031806698851069966,"355":0.03902727483181663,"356":0.017614814358556677,"357":0.08672699450497715,"358":0.06807185811244852,"359":-0.07075573184382537,"360":-0.055788516340702934,"361":0.000984895332097996,"362":0.1115551743206618,"363":0.062023026985845275,"364":0.127008392981634,"365":-0.025322195707039825,"366":0.01712753779461763,"367":-0.04218240182641231,"368":0.02905973596270292,"369":-0.12878573663162574,"370":0.04454924595612502,"371":-0.03426324395284494,"372":0.007572926428759626,"373":0.024400330570434656,"374":0.08259916504821459,"375":-0.01598334840875745,"376":0.048664583608169935,"377":0.12017423890844332,"378":0.05322081540976524,"379":0.029631806333656276,"380":0.05203790382447801,"381":-0.018231774476279463,"382":0.0821026421770473,"383":-0.0754184327863333,"384":0.010730473496307609,"385":0.036789140565720205,"386":-0.006519913130395673,"387":-0.002039146266456217,"388":0.006194035265945457,"389":0.03942796731356707,"390":0.06773329640702497,"391":-0.036669724759847575,"392":-0.029852016394761482,"393":0.060655470910927496,"394":-0.06348298611183502,"395":0.03539415518700973,"396":0.10181703208850226,"397":-0.0476549266190126,"398":0.0913235105956921,"399":0.024224994332797106}},{"sx":5,"sy":5,"depth":16,"w":{"0":-0.03362631114041676,"1":0.05282463987015226,"2":0.006836818937603034,"3":-0.03973805928714534,"4":-0.054601498064247585,"5":0.02759203496357267,"6":0.0702784786456089,"7":-0.019154858084560886,"8":0.022432313674215134,"9":0.0456712570861409,"10":0.012510626561513758,"11":-0.09560740053332425,"12":-0.00009170803763599694,"13":-0.05538823708747028,"14":0.0680857365398267,"15":0.010240425664932724,"16":-0.038943294177188566,"17":-0.047621857146295105,"18":0.03870514235617848,"19":0.08757470831496407,"20":0.07071445612085045,"21":0.06644538583447313,"22":0.0014178672399907163,"23":-0.002723278705629625,"24":0.04066540726891034,"25":-0.09458602380317857,"26":0.011004073418610677,"27":-0.08781055958865569,"28":-0.04600976012330859,"29":0.08134613520654553,"30":-0.004350833548960878,"31":-0.014803717714251964,"32":0.006093316068608441,"33":-0.11666184044161422,"34":0.000090010115134989,"35":0.10404612631578729,"36":-0.02069675856944915,"37":0.01902616159120817,"38":-0.0043451667527754385,"39":0.01474091631812063,"40":0.019764789957559883,"41":-0.05767559685423082,"42":-0.13124579685623278,"43":-0.04200086150694252,"44":-0.10258191980279818,"45":0.0685164191470721,"46":-0.036805365562061945,"47":-0.015397497270816296,"48":-0.01131892938418471,"49":0.016513177717017692,"50":0.030794362768741555,"51":0.12108034369923583,"52":0.034937806320654394,"53":0.17358968927566834,"54":0.03696397762975303,"55":0.019915676424421082,"56":0.08800802038197902,"57":-0.08462677421388975,"58":-0.14058703109763734,"59":0.017520700052869414,"60":-0.014003913463958963,"61":0.11360723246811306,"62":-0.055165844029054896,"63":0.01935480391509574,"64":-0.031642132820219375,"65":-0.015399920807138005,"66":-0.020116447145082244,"67":0.09288420613394449,"68":0.08441712989123484,"69":0.0915875468769676,"70":-0.05344387644766837,"71":-0.03978876937711727,"72":0.0706304003302327,"73":-0.0907404196631278,"74":-0.024265633939542466,"75":-0.13632096021396115,"76":-0.1221780492661175,"77":0.057566486214188285,"78":0.007959073632458197,"79":0.08298019548924462,"80":-0.03813323487169423,"81":0.011784839771971603,"82":-0.017402280264222768,"83":0.0017428517008550384,"84":0.011191273732958628,"85":0.028214056531047287,"86":0.018275415216989364,"87":0.00008939181299293508,"88":-0.03041792160305222,"89":-0.004899413454824358,"90":-0.0031743037273217986,"91":0.0025112809371319613,"92":-0.06601434280812687,"93":0.007622825668472303,"94":0.09163913355363108,"95":-0.047133239377707914,"96":-0.025648537002937552,"97":-0.04924134244956503,"98":0.036234487641965185,"99":0.09569846522843604,"100":0.001984857631156895,"101":0.02710699774398807,"102":0.028233610494317652,"103":0.04069290618740172,"104":0.1204078628772002,"105":-0.08875880587868923,"106":0.02192208743366571,"107":-0.017671351231223684,"108":-0.05595902117992943,"109":0.04104436502475037,"110":-0.006149406680024663,"111":-0.07969743768323667,"112":-0.0022719544410061774,"113":-0.0680264605466504,"114":0.0010228547842308104,"115":0.03262687430875112,"116":-0.05331059589482931,"117":0.05607746853866957,"118":-0.07468268222740286,"119":0.027926538260046166,"120":0.09748520036952499,"121":-0.1450301278769531,"122":-0.054263544830349224,"123":-0.031716811521401635,"124":-0.18560454522547648,"125":0.08159562686576681,"126":0.011218314635475145,"127":-0.03657009657468046,"128":0.006680275828319509,"129":0.00284056088886368,"130":0.08792829430018388,"131":0.09292515579206195,"132":-0.01711682486341369,"133":0.06129428871745969,"134":-0.11796355292589476,"135":0.11059367245046389,"136":-0.007130970330627929,"137":-0.06945877572932843,"138":-0.06732646717574209,"139":-0.08909117503843707,"140":-0.14310689405502616,"141":0.12645240903937735,"142":-0.006368390240880423,"143":-0.11264963175117786,"144":0.0018497632802312637,"145":0.010014849074403984,"146":0.0013737679242328078,"147":0.1132653550675605,"148":0.07359331697395764,"149":0.04556398928623596,"150":-0.028191173715104254,"151":0.0005710935659945592,"152":0.1137790771048744,"153":-0.11022917178900209,"154":0.012784866325407733,"155":-0.023962232191606557,"156":-0.10332214892956217,"157":0.10035574223046062,"158":-0.08166976895536379,"159":0.044387177427251394,"160":0.003261375952815095,"161":0.017537759600220578,"162":-0.0784320833776606,"163":-0.020127501545229867,"164":-0.0030303526178114422,"165":-0.07020844338823222,"166":0.013789358793726576,"167":-0.06513918874663834,"168":-0.001341626023471718,"169":-0.035635831858498626,"170":0.0016631974088356376,"171":0.02983945133373348,"172":-0.02094180044018719,"173":-0.09063718090797489,"174":0.006502736809944306,"175":-0.10977688436690013,"176":-0.07999477341077531,"177":-0.09166024381619003,"178":0.0031858238152782893,"179":0.013280771873889803,"180":-0.01767121232773682,"181":0.009748491280762531,"182":0.0013553844100904378,"183":-0.01931516899750164,"184":0.014145453412043377,"185":-0.03449968429405145,"186":-0.0031911295428292455,"187":0.03765068053160799,"188":-0.10127405789243257,"189":0.04652285564782474,"190":-0.010968457060920816,"191":-0.016410056482187296,"192":0.03932369801589823,"193":-0.09422884828592061,"194":0.014098607749191468,"195":0.05558648232404608,"196":-0.004066961116570481,"197":0.030977241803435366,"198":-0.07821890715809705,"199":0.07714664123111806,"200":0.04947213997475775,"201":-0.05224315066225532,"202":-0.04075807637146867,"203":-0.005084925434460395,"204":-0.13830143155125235,"205":0.10648329415889736,"206":-0.007357171217152356,"207":0.009592505998170521,"208":-0.028199461149658336,"209":-0.05700714398586753,"210":0.04714007372581002,"211":0.08027014049194578,"212":-0.07560029781981448,"213":0.06858156115948122,"214":0.02821326172298225,"215":0.006940680242113225,"216":0.05290018092438558,"217":-0.06649903356505556,"218":0.02851789003836855,"219":-0.04145641735627133,"220":-0.14575380036395116,"221":0.10885375261591472,"222":-0.010084134547894984,"223":-0.026702584040977046,"224":-0.02183502118933534,"225":-0.02360926002682424,"226":0.0969805643016234,"227":0.12892214491261725,"228":0.09629333587056838,"229":0.11967460339491147,"230":-0.04144438305140654,"231":0.007164214568791059,"232":0.08762756079872414,"233":-0.0921666615540237,"234":-0.0632598725507856,"235":0.00840329231372257,"236":-0.05596838462428894,"237":0.05252018900989844,"238":-0.03861444000780845,"239":0.0481746541245774,"240":-0.0530722569681711,"241":-0.025144095124120486,"242":-0.0224391571167825,"243":-0.01840006875391134,"244":-0.035140621192763434,"245":-0.0811364567831717,"246":0.04297927277641902,"247":-0.024675927923239905,"248":0.005180196174191958,"249":0.02357798189687362,"250":-0.006236274521138221,"251":0.03509096956673705,"252":-0.00712423502492221,"253":-0.09979945245727544,"254":0.02147618983725592,"255":-0.0020061002553729878,"256":0.012178038073997179,"257":-0.03697412858442563,"258":0.01098250130955434,"259":0.09295914283738999,"260":0.04320496654985336,"261":-0.013449571761592966,"262":-0.029853685933937293,"263":0.021647349632728984,"264":0.02719015580849084,"265":-0.03240883676608316,"266":-0.006150403566301668,"267":-0.023428667474189074,"268":-0.051538820734189486,"269":-0.011322018233710152,"270":-0.04537516115123052,"271":0.019440072233761253,"272":-0.04700443340719472,"273":-0.07526242506953808,"274":-0.013551858330431368,"275":-0.030811895443484578,"276":-0.026536063165211635,"277":0.08435590251276709,"278":-0.052041790698187686,"279":-0.04654282480805772,"280":0.0496508847323994,"281":0.04180481953460766,"282":-0.06775790086506289,"283":-0.045961500298864325,"284":-0.06628586050248886,"285":0.01894661034668679,"286":0.013399071434205104,"287":-0.006414438918914983,"288":-0.08161696850943136,"289":-0.046645547038083976,"290":0.05461217616405825,"291":-0.013873139804290406,"292":-0.02206965363629226,"293":0.04021339247545115,"294":0.09185844941529929,"295":-0.02615989679860764,"296":0.03244737011299472,"297":0.03993326802017142,"298":0.027461320219464545,"299":-0.04416668891499937,"300":-0.0910532382409549,"301":0.038253222257467585,"302":-0.0059817835167686705,"303":0.004000313566613474,"304":0.002140905413191736,"305":0.0020110748544323515,"306":0.04603327599245691,"307":0.028591309893784198,"308":-0.06565426220648506,"309":0.06713767600699604,"310":-0.03766459880666841,"311":0.07993009245668588,"312":0.05507638720541819,"313":-0.04493521067695876,"314":0.11496439092610293,"315":0.0008952909147750983,"316":-0.03716058521273502,"317":0.012296111181624455,"318":-0.08548680162479895,"319":0.028847340932795777,"320":-0.04235611707258172,"321":-0.05335226280827892,"322":-0.05577589444103568,"323":-0.015933225907701173,"324":-0.08143542431562864,"325":-0.023809633151060428,"326":-0.04910635075030479,"327":-0.01733888708425372,"328":-0.0361163232289633,"329":-0.007508127754678314,"330":-0.08698685499851184,"331":-0.035438204711240526,"332":0.03713287582861839,"333":0.009258376323691635,"334":-0.04534085602429335,"335":-0.01752168254383183,"336":0.0021040912547574783,"337":-0.03207029358387573,"338":-0.017679083402203453,"339":0.027988045888405547,"340":-0.055788272685528585,"341":-0.012061856092210471,"342":-0.011273686446330566,"343":-0.001896153944717101,"344":0.05215502182310177,"345":-0.06590307892484268,"346":-0.0640377230078945,"347":-0.004037758485387257,"348":-0.04060245972245818,"349":0.005263692867827922,"350":-0.024573677610393755,"351":-0.026697904844408305,"352":-0.02439353215729918,"353":0.02526120731731971,"354":0.041777001036250615,"355":0.05241990130804953,"356":-0.05084389391013824,"357":0.015107557487870018,"358":-0.0034503358697373877,"359":0.049837615263317224,"360":0.002695515265707669,"361":-0.0035069356746303603,"362":-0.024718438999873884,"363":-0.045582847695636024,"364":0.003886801930249914,"365":0.02272426646400624,"366":-0.04039693457547625,"367":-0.07976757418873355,"368":-0.06182247100705019,"369":0.02303088037057499,"370":-0.014190787324626763,"371":0.005091525295784667,"372":-0.027213794081188555,"373":0.021353866036341887,"374":-0.046478377188934605,"375":0.07149805270191424,"376":0.009363456182337745,"377":0.0320844798740422,"378":-0.02865224350004638,"379":0.007747467333447829,"380":0.0489214742076783,"381":0.02318766089233739,"382":-0.030442147471430092,"383":-0.0397257664875844,"384":-0.07988186078187502,"385":-0.032763035298976756,"386":-0.008274612695255486,"387":-0.02256120066609909,"388":0.009581157240383978,"389":-0.06463159449622352,"390":-0.03496484497022499,"391":0.008610181898387833,"392":-0.07395452339772526,"393":0.051311371189388166,"394":-0.06825123170471219,"395":-0.011923096559645102,"396":-0.03760175054383285,"397":-0.02950107401117762,"398":-0.05718423445715034,"399":0.038943547313747814}},{"sx":5,"sy":5,"depth":16,"w":{"0":0.060964373635389944,"1":0.06084883791539605,"2":-0.016778513820822617,"3":0.026808181287861537,"4":0.0660820373114049,"5":-0.06290229852962444,"6":0.002245962681548205,"7":0.03912708971053757,"8":0.08091918372593425,"9":-0.03889965504110901,"10":-0.01881763634300784,"11":0.041268422162356024,"12":-0.015079933862707787,"13":0.0029156809505575415,"14":-0.023120110323880783,"15":-0.06540632937279393,"16":0.09762302145654828,"17":0.06770359209633184,"18":0.00869764640189412,"19":0.04347073726232392,"20":0.09697696536208289,"21":0.027421552647678298,"22":-0.06802650882491088,"23":0.011746548264839169,"24":0.00878658436648291,"25":-0.008284302409323126,"26":0.0458888321873638,"27":0.05669286770767551,"28":0.11925733689215198,"29":0.010163615156962954,"30":-0.04517813091857571,"31":-0.05911835112147982,"32":0.020255863559314715,"33":0.07252885152742129,"34":0.010096498639834865,"35":0.014164343172239706,"36":0.01920287037957816,"37":0.04560704168654756,"38":-0.07247115590953149,"39":-0.017285906476572976,"40":-0.014577583568224457,"41":-0.0916231674248468,"42":-0.023981606246657,"43":0.10695731456282091,"44":0.04027462374847183,"45":0.02065309371278394,"46":-0.06060227426528169,"47":-0.04890708308979067,"48":0.059977430232028596,"49":0.0717261825576809,"50":0.01989289464319824,"51":0.05544147386866829,"52":0.056342648051885824,"53":-0.008718590576205712,"54":-0.026968544365927848,"55":0.010635704194280973,"56":-0.019445774063187104,"57":-0.049509196572028395,"58":0.0056761515704760335,"59":0.09064077577080173,"60":0.12391207030149763,"61":-0.04303513391699832,"62":-0.1057540284158463,"63":-0.02347452825404393,"64":0.10121683193019376,"65":0.026079642092043585,"66":0.0046553658552567125,"67":0.0035401065846602793,"68":0.026802325582531573,"69":0.005200205242319734,"70":-0.07414298859048622,"71":0.022265629477210655,"72":-0.012485783578223029,"73":-0.03868514277369144,"74":-0.04142332558285322,"75":-0.011059883163894812,"76":0.03681519169753341,"77":0.07650503460738212,"78":-0.07160756826917872,"79":-0.03717419971284838,"80":0.036642225176138764,"81":0.08956740156230118,"82":-0.06328691982837213,"83":-0.029440561331012274,"84":0.03708772118406098,"85":0.008764265545647047,"86":0.03046385832637879,"87":0.004676906383436749,"88":0.03785871621262918,"89":0.04996609992856438,"90":-0.017638186038931896,"91":0.07193134403603763,"92":0.06022322477464813,"93":-0.02648344386438327,"94":-0.01923434465094678,"95":-0.028787804237916565,"96":0.19167553172238266,"97":0.028424777445374014,"98":-0.006448925486218363,"99":-0.04556488021206432,"100":0.0375224152465853,"101":-0.0009589280472370537,"102":-0.04350730277074988,"103":-0.0006900577564879453,"104":-0.007255252613100571,"105":-0.06526784208251452,"106":-0.05384074684065016,"107":0.0887559355234219,"108":0.032070015768391955,"109":0.0015361258034459748,"110":-0.05850089114635968,"111":-0.04855846067386584,"112":0.038907614706825716,"113":0.11468522557169612,"114":0.012644736277149316,"115":-0.050369456681728896,"116":0.0356260213913322,"117":0.017245670565045352,"118":-0.05748994584552072,"119":0.034115559545247275,"120":-0.034533986118560366,"121":-0.04303351461421166,"122":-0.007467203196792319,"123":0.06460067536146366,"124":0.07061433007732466,"125":0.004085418519744021,"126":0.020006052864002297,"127":-0.06766639701259376,"128":0.003491716628423366,"129":0.0680489976116357,"130":0.004536276217215973,"131":0.00002069276441289989,"132":0.034048038010270586,"133":-0.03458696546137649,"134":-0.033105673781676344,"135":-0.05651808748457775,"136":0.018301720527476233,"137":0.024855743033145507,"138":-0.009872533646495048,"139":0.053227672303465166,"140":0.11421719715535994,"141":-0.015319511139412925,"142":-0.0303237089988338,"143":-0.09756183284000955,"144":0.07360080661690158,"145":0.07952946686783004,"146":-0.024629410452846702,"147":-0.00579090424611138,"148":-0.05551979132739139,"149":0.0019798929840288706,"150":-0.04977199163869328,"151":0.00356452450639745,"152":0.016199914205925675,"153":0.006954127158709067,"154":-0.06885290919601676,"155":0.06254304234530476,"156":0.01352370825395472,"157":-0.040634273808521595,"158":-0.07837949271135199,"159":-0.10550330527800554,"160":0.021712436671937587,"161":0.13723648695791943,"162":-0.03284286838506595,"163":0.0008918857217208859,"164":0.019114856591263163,"165":0.006231759245085637,"166":0.0034888177503761345,"167":-0.0643524234995629,"168":-0.01844269940416848,"169":-0.007850294644709436,"170":-0.025374820960543314,"171":0.006028488631039052,"172":0.006483899323165731,"173":0.04019354689148791,"174":-0.005601420620482131,"175":-0.049107163008477395,"176":0.08723581988162842,"177":0.08167211734584949,"178":-0.018182588621509867,"179":-0.1181118256277476,"180":0.07744464922760376,"181":-0.07961647978673307,"182":-0.01340641047214812,"183":-0.037801365327711285,"184":0.0116084865694468,"185":-0.006838922067809287,"186":0.03680941353960196,"187":0.04614402701581069,"188":0.026486872586726697,"189":0.01196054438088145,"190":0.013071284352950413,"191":-0.035797214675824744,"192":0.026768679205519688,"193":0.1394296128700061,"194":-0.05850504158283843,"195":0.00566850774693895,"196":0.038330076796070145,"197":-0.19863418745834036,"198":-0.057671143581110244,"199":0.018594333674448956,"200":-0.02131719527733857,"201":-0.018559245111142497,"202":-0.040706716024800894,"203":0.08097078534901746,"204":0.12339700547086199,"205":-0.0026746071188353477,"206":0.053516345463080886,"207":-0.060689728524897485,"208":0.10690068003816784,"209":0.06812714658989216,"210":-0.01781286500730354,"211":-0.05742275067347512,"212":-0.023229691372120373,"213":0.023539406310319328,"214":-0.005588687468040992,"215":0.0007591218331119703,"216":-0.013771065087461738,"217":0.03354315481967749,"218":0.00120626487228159,"219":0.1066830387557425,"220":0.11708849113586883,"221":0.07708002776359762,"222":-0.08173659483009275,"223":-0.09561906165066307,"224":0.06453924068055919,"225":0.005899242256716902,"226":-0.027927858680118496,"227":-0.04020031616345297,"228":0.009010862829632177,"229":0.05166373646051598,"230":-0.027883416456676354,"231":-0.0550633189008787,"232":-0.07543142367720836,"233":0.01804803012456189,"234":-0.11431032087383029,"235":0.03469860770214086,"236":0.033455544243844955,"237":0.10331185447883527,"238":-0.00889564192178162,"239":-0.10540476580315672,"240":0.0723107816382134,"241":0.03748321822463111,"242":0.03240174117809961,"243":-0.026661944510493453,"244":0.008646316190256255,"245":-0.04822933515337715,"246":-0.03138300091236439,"247":0.040623448893381674,"248":-0.017069278814048773,"249":-0.04279722317302688,"250":-0.04876114790362118,"251":0.014252914092104987,"252":0.05676544098989078,"253":0.030389833200712934,"254":0.07708861784255941,"255":0.027734351556282635,"256":0.05167068669153803,"257":0.05445471871358194,"258":-0.04549586661010474,"259":-0.06502062965895834,"260":0.09853941014206367,"261":0.008676686688174567,"262":-0.055305741815185536,"263":0.00986771964783273,"264":0.06684264298566676,"265":0.016872672065718106,"266":-0.001113438622816983,"267":0.0636955109218793,"268":0.07092883294633724,"269":0.05688856265404732,"270":-0.030546229941934556,"271":-0.016282765756075818,"272":0.054096851763217824,"273":0.025773769682737317,"274":-0.08743196789302193,"275":0.03964109512470003,"276":0.013817821188379287,"277":-0.06437607215249623,"278":-0.022857619940286303,"279":-0.11165118017523618,"280":-0.034950566089963865,"281":0.026346141174102906,"282":-0.05358223704310595,"283":0.11365994634832499,"284":0.043623200991880155,"285":0.04463124149027868,"286":-0.02866232139944817,"287":-0.01973440965468306,"288":0.09906415177008675,"289":0.00038164035306828423,"290":-0.07066568761253698,"291":-0.039075125720536306,"292":0.029796285155345333,"293":0.07870757737551394,"294":-0.10625881857927474,"295":0.0038779715042340413,"296":-0.04272406170243864,"297":0.0674523306068413,"298":-0.06089736661893233,"299":0.03854749008572882,"300":0.01042885123556254,"301":-0.02490660829892159,"302":0.03197738775333151,"303":-0.0618004840212135,"304":0.027861471847236273,"305":0.016876009352068396,"306":-0.005262878229877522,"307":0.002741153704918217,"308":0.03896652622704506,"309":0.04241436214661256,"310":-0.01444468955662423,"311":-0.04745488929116734,"312":0.05733448338762508,"313":-0.0710811081380985,"314":-0.10273459673574688,"315":0.12005015290662255,"316":0.0790174773837162,"317":0.018975677453215718,"318":-0.08244818062229389,"319":-0.029377857645037052,"320":0.0918064007657729,"321":0.02163278372872614,"322":0.018089992102426247,"323":-0.01891439586459582,"324":0.012357212576715943,"325":-0.009972518770302048,"326":-0.045209975587606435,"327":-0.00709090928696957,"328":-0.006313484832727689,"329":0.01648628624051915,"330":-0.0018663643824104595,"331":0.05834637726413998,"332":0.08157625048407456,"333":0.03479970617007083,"334":-0.014085602775632158,"335":0.01218806665738579,"336":0.15448306825634667,"337":0.038741975775401706,"338":-0.01936673230872014,"339":-0.05545845047695099,"340":0.0993147042172097,"341":0.04241709484772742,"342":-0.03563837567618723,"343":0.004122518546210993,"344":0.03131440212029678,"345":-0.06425246156497195,"346":-0.06335827762193759,"347":0.09247170964711965,"348":0.010218610183815981,"349":0.09019025781208902,"350":0.011056955597414377,"351":0.09656282057903534,"352":0.051987876791284006,"353":0.08963805852417504,"354":-0.0030295913112395978,"355":0.049862081613989806,"356":0.06401140058536402,"357":0.04253934181746024,"358":-0.00974836708909052,"359":0.08927141972227205,"360":0.029529867308904632,"361":0.022932361324219566,"362":-0.09985103941019072,"363":0.012862415603439809,"364":0.08248779675515926,"365":0.0352104977235345,"366":0.023162611197077482,"367":-0.1019803831872697,"368":0.09615650492603385,"369":0.12404520576753567,"370":0.031500770490094865,"371":-0.0009216869581951775,"372":0.07006804257992638,"373":0.04337211405684487,"374":-0.06297676195686674,"375":-0.05837311894281073,"376":0.017331910447156765,"377":0.016712368817530274,"378":0.0027724232533272992,"379":0.11881882761862865,"380":0.060749797759689014,"381":-0.015464663750368458,"382":-0.028548010534014543,"383":0.010677739225484794,"384":0.03289977510834852,"385":0.019581438632668178,"386":-0.03959477129206941,"387":-0.012222288647799503,"388":0.09915816664316836,"389":0.04650514242667117,"390":-0.03308966061719405,"391":0.09418446363560397,"392":0.027536839057014918,"393":-0.0030788863557427355,"394":-0.0944511278471345,"395":0.037076665108527924,"396":-0.0041240913026471876,"397":0.0996276811797363,"398":-0.022369821098774164,"399":-0.07382578891413705}},{"sx":5,"sy":5,"depth":16,"w":{"0":0.13265168726019846,"1":0.005693743786840714,"2":0.011782891926101838,"3":-0.010868147608006879,"4":-0.020084924872335104,"5":-0.02299265082563629,"6":-0.020722483705323543,"7":-0.04980243251621143,"8":0.043229022676159336,"9":-0.010253141487472636,"10":0.008387879860870593,"11":0.06783519336206521,"12":0.0173806107654774,"13":0.06457292041318642,"14":-0.04309723320313865,"15":-0.014273245089967732,"16":0.05380910652544309,"17":0.020487403606892857,"18":0.001184833921102732,"19":0.0007054445932715521,"20":0.0003592232227917072,"21":0.06261603555351825,"22":0.011639435552811378,"23":0.04797366063009064,"24":0.01306945378543723,"25":-0.018948610767850527,"26":-0.08496772352602382,"27":0.057543437905095154,"28":-0.013047617083807238,"29":0.031216109244774207,"30":-0.06650590000740784,"31":0.03337561254520886,"32":0.010294376857403177,"33":0.045136095051864805,"34":-0.00313333126036441,"35":0.00907009047173584,"36":-0.042798812221412935,"37":-0.08010387616863854,"38":-0.08109235187846492,"39":0.02309542635069968,"40":-0.024371259448239205,"41":0.07123050876521493,"42":-0.02860398996134395,"43":0.031326066888893236,"44":-0.008304709225264417,"45":0.0011983077220288415,"46":0.005461855084496626,"47":0.029880254126669323,"48":0.013562614830698472,"49":0.029826922104139376,"50":0.06449130710309153,"51":0.04519400878961327,"52":-0.03351804884223579,"53":-0.09000087845517026,"54":0.04287940190348173,"55":0.02179110257362813,"56":-0.04176784952894087,"57":-0.08068566947631754,"58":-0.004164239095595832,"59":0.08329823370665625,"60":0.05455774878790274,"61":-0.06740590852443515,"62":0.0182786826578833,"63":0.08585491070336618,"64":0.007113526260070279,"65":-0.004535001027093182,"66":0.005757145060004067,"67":0.01945084180690291,"68":-0.027872667805432814,"69":-0.04223138371611436,"70":-0.0453178553846201,"71":0.030922475785945387,"72":0.023269280995654774,"73":0.062099468316780156,"74":0.018107051952357022,"75":0.05788097811287354,"76":-0.001496246445393034,"77":-0.028357327009689074,"78":0.0020290790575708648,"79":-0.01789545368735751,"80":-0.0023772180023654086,"81":-0.04485499738091964,"82":0.08747333938980421,"83":-0.04887265882903192,"84":-0.0007209895129697864,"85":0.01992282805037811,"86":-0.03503043796440624,"87":0.03616007126172704,"88":0.0210880462010769,"89":-0.010169658900031561,"90":0.08545948453971537,"91":-0.021486925791952525,"92":-0.15827627814504253,"93":0.02585532271946906,"94":-0.07108383310368264,"95":0.007221875058636383,"96":-0.03550978997712041,"97":-0.019638656937180282,"98":-0.02245649168256552,"99":0.033788508461123724,"100":-0.06979465635134505,"101":0.09290804107078914,"102":-0.004061099139559099,"103":0.033902992033320846,"104":0.046731747779252,"105":-0.05827111951337537,"106":-0.06546470091875584,"107":-0.010936299503104764,"108":-0.03898394061963342,"109":0.026093681055208366,"110":-0.029650401289116658,"111":0.008818111793112121,"112":0.04963979642250808,"113":0.0008884214656351394,"114":-0.02146291083656628,"115":-0.028463720707541117,"116":-0.03166992944385551,"117":-0.044904552860337114,"118":0.03627265492935061,"119":0.038406567421885425,"120":-0.053628943799952235,"121":-0.03390828067562709,"122":0.04542614521405634,"123":-0.01618530188851482,"124":0.001582396766507472,"125":0.028149019358190246,"126":-0.02480803357335923,"127":0.06874563855908034,"128":-0.024373350288657353,"129":0.05006743656689187,"130":-0.053468314429791636,"131":-0.045690752348965524,"132":0.00029026684196842664,"133":-0.12867055304931962,"134":0.04384400796973627,"135":-0.010573109899766776,"136":-0.03945063652844932,"137":0.07345716762645058,"138":0.05014883322289532,"139":-0.02027226158673616,"140":0.0322834242252968,"141":0.031210402188991633,"142":-0.01046930967607591,"143":0.05834984883779629,"144":-0.007451502893765422,"145":-0.050721491904941324,"146":-0.015704908857648803,"147":-0.06958989435714898,"148":-0.13245208784638593,"149":-0.05700290083303806,"150":-0.007630146011661906,"151":-0.03055722466877537,"152":-0.09536427590919042,"153":-0.0016117988034295564,"154":-0.01745406051533954,"155":-0.12853278195458803,"156":-0.03269174656329848,"157":-0.07090951631380252,"158":0.00969284660410055,"159":0.05955734944344203,"160":-0.01175336770416342,"161":-0.0516190160668964,"162":0.021446704192878297,"163":0.05861330521976754,"164":-0.09495240343056262,"165":0.054697578757300976,"166":0.014817197430322174,"167":0.027778950105158462,"168":-0.0010304762645432205,"169":-0.04431644414999229,"170":0.006484602969049533,"171":-0.06654296232758976,"172":-0.07422597069609857,"173":-0.0024888700726257654,"174":0.02022529044978722,"175":-0.1120579029446102,"176":-0.11264056601171259,"177":-0.05916214674204681,"178":0.0820744199088276,"179":-0.021678324082547815,"180":-0.021677132064974545,"181":0.14098069630678742,"182":-0.09489601780844799,"183":-0.02085888141706044,"184":-0.03627502474853486,"185":-0.038454193276276166,"186":0.03307959430516392,"187":-0.05658048349556237,"188":-0.0772395484303031,"189":0.12095239281875501,"190":0.014037939864210858,"191":-0.09154292734333336,"192":-0.011232875524778587,"193":-0.05683382383862845,"194":0.06247188805742217,"195":-0.04658256136657567,"196":-0.05729480338894157,"197":-0.05230962827245951,"198":0.019606093601914232,"199":-0.00623459100689977,"200":0.00700504929055023,"201":-0.09374978028303722,"202":0.00209378352088601,"203":-0.0983306274559008,"204":-0.09339766427179415,"205":0.024159093374141318,"206":-0.00038550509841963574,"207":-0.0024361536311484173,"208":-0.09732138978614295,"209":-0.0839929389386535,"210":-0.04502063805510315,"211":-0.08233787108504079,"212":-0.07584962293020871,"213":-0.03661530534122588,"214":0.051677498134210915,"215":0.015670150510442446,"216":-0.10254974994751895,"217":-0.017242589766451665,"218":0.01876799716217107,"219":-0.15491005235187696,"220":-0.10584559699214523,"221":0.024655139830800907,"222":-0.06776004432875299,"223":0.010621064463921892,"224":-0.07095219369478603,"225":-0.0613228281037816,"226":-0.02515026512610499,"227":0.008565797709723237,"228":-0.044652449625255705,"229":0.011721211433440931,"230":0.015746749394895124,"231":-0.02259922831612676,"232":-0.032684795085439367,"233":-0.041097771833276175,"234":0.09566427676016767,"235":-0.13966422424577354,"236":-0.08225797364705101,"237":-0.015350836673655376,"238":0.01861675896176006,"239":-0.1187710778917593,"240":-0.06440522185591284,"241":-0.03975279112735583,"242":0.01284749910459119,"243":0.10048840338351951,"244":-0.05728483759286673,"245":0.09000744648596952,"246":-0.06019713488650287,"247":0.044954438327862584,"248":0.00041679195303652694,"249":-0.09568634328258886,"250":0.015396674355321906,"251":-0.04601799640952004,"252":-0.03866736129387651,"253":0.04736672664278941,"254":0.04502189325037238,"255":-0.0493344852695319,"256":0.0018858818383997345,"257":-0.07197567324600254,"258":-0.0046591414661144095,"259":0.03507926194027215,"260":-0.06487569148603861,"261":0.07294410416747069,"262":0.059771729009538574,"263":0.005836636988296886,"264":-0.014611155305470663,"265":0.08501839722078151,"266":0.047437151471137626,"267":-0.09087312126746594,"268":-0.08028585026055439,"269":0.09828917610649662,"270":-0.022182093290040936,"271":-0.061704025591279334,"272":-0.020491730064244994,"273":-0.03860093355646528,"274":0.01963779794039674,"275":-0.0431983386466147,"276":0.03827344935372094,"277":0.08070837975543223,"278":0.06518991464928607,"279":0.06413092039160675,"280":-0.027298876707839075,"281":-0.005304975199363322,"282":0.0711564266521383,"283":-0.08159628905462009,"284":-0.14751828913723025,"285":-0.025872236624864278,"286":0.013683185410917644,"287":-0.10238045183548908,"288":-0.024226989347766098,"289":-0.10769615319579422,"290":-0.029851818496615244,"291":-0.04370261459640845,"292":-0.0467144990435071,"293":-0.03922462227791896,"294":0.0847361183292087,"295":0.005258693829911551,"296":-0.12817132496980432,"297":-0.01908759500351158,"298":0.023876455581027807,"299":-0.10045149037170432,"300":-0.028573428760454555,"301":-0.043163087878378976,"302":0.04318057976730909,"303":-0.11499829967805275,"304":-0.09236824130689748,"305":-0.13573719651751448,"306":0.02257487528843063,"307":-0.05560589163631971,"308":-0.05785540377073262,"309":-0.06883846646268442,"310":0.07668341397815376,"311":-0.023524767357583205,"312":0.057959206727213004,"313":-0.03354169939632688,"314":0.13475567888393797,"315":-0.0976161411371764,"316":-0.11114996866295279,"317":-0.019823387760663145,"318":0.028518815914869957,"319":-0.037704523356355754,"320":-0.009983910942687208,"321":-0.05644344555459699,"322":0.018441765913115093,"323":0.08306070326620976,"324":-0.0812180434014253,"325":-0.03800043210203912,"326":0.0345451778462998,"327":-0.03339123722008499,"328":0.10168135155563145,"329":0.01555818624109882,"330":0.025761676665525222,"331":-0.09135379196877713,"332":-0.09961880196042608,"333":0.0830586156471603,"334":0.039392456248952774,"335":-0.17227091616330917,"336":-0.08189168917007496,"337":-0.07789299585086565,"338":0.021743401542497563,"339":0.010171201749303853,"340":0.012338819025099212,"341":0.03513302474554668,"342":0.03037034888540864,"343":-0.039048532344121784,"344":-0.024787331058814477,"345":-0.028939590090403915,"346":0.06762842394806745,"347":-0.10723744198467056,"348":-0.0979051977953824,"349":-0.03813518116215185,"350":0.05959175649248859,"351":-0.025513961495881508,"352":-0.09743421464480942,"353":-0.07216700286491104,"354":0.004321616657856704,"355":-0.04872123113406458,"356":-0.087805033172115,"357":0.0012220766674249288,"358":0.12789561323609985,"359":-0.016337541077332148,"360":-0.030968994380781153,"361":-0.056232354512902614,"362":0.0986526650073919,"363":-0.1040040003023516,"364":-0.0641654768450682,"365":0.02916021960401034,"366":0.03406152980896123,"367":-0.16824192062860896,"368":-0.04662500383153018,"369":-0.11458570482354433,"370":-0.09695687212897258,"371":-0.025702933395571278,"372":-0.03506041648931698,"373":0.036610723739014556,"374":0.1796021739588349,"375":-0.061102347970358954,"376":0.02707775331479653,"377":-0.06182057012532904,"378":0.09935636398514912,"379":-0.09256749952603593,"380":-0.09042277129968376,"381":-0.047477966636948435,"382":0.07819857867637978,"383":-0.07660496640035994,"384":-0.03346921248516419,"385":-0.02089145682847936,"386":-0.06897723007971514,"387":-0.029245171103564876,"388":-0.13381995067584304,"389":-0.0053349481024798084,"390":0.12800815949168637,"391":-0.04029458773770942,"392":0.008994572616031902,"393":-0.04550653775058613,"394":0.11521462541699425,"395":0.003374603964044306,"396":-0.02672644460555344,"397":-0.09930874316346976,"398":0.1239713854018463,"399":-0.09108430464878618}},{"sx":5,"sy":5,"depth":16,"w":{"0":-0.03949682208953162,"1":0.05140395275149863,"2":0.007764187290322528,"3":-0.08719414759454022,"4":-0.007440006471259123,"5":-0.04108665729003498,"6":-0.026606015297700493,"7":0.009582475095123336,"8":0.013700553369826625,"9":0.009709030364989038,"10":-0.04186735196141529,"11":-0.0400093658135766,"12":0.0061156789479561045,"13":-0.03942204901064606,"14":0.013437106030769797,"15":-0.029293467501126685,"16":0.008802018275908777,"17":-0.015929447450976148,"18":0.048348751898984264,"19":-0.05347327932019754,"20":-0.006112607708091942,"21":0.017150373613289187,"22":-0.03972477514560464,"23":-0.0025580291436200168,"24":0.00805446420289532,"25":-0.0667909730747631,"26":-0.007672639476325002,"27":-0.07486577260452953,"28":-0.05334019276192788,"29":0.004286389702936638,"30":0.05904112731457588,"31":0.0017116515834561565,"32":-0.05709977045571828,"33":-0.06909444448053106,"34":-0.05938896635026981,"35":0.01378983457345236,"36":-0.08278208305189626,"37":-0.02564006547232651,"38":0.09391012778285611,"39":-0.06583920867473128,"40":0.015581835964324156,"41":0.03339064294919314,"42":-0.031622470096049654,"43":0.034877711467275495,"44":-0.028283669118383113,"45":-0.03135309760243306,"46":0.04086047980808515,"47":0.033388039994862104,"48":0.03349161313658514,"49":-0.008723680394634697,"50":-0.030093686625854123,"51":-0.03635079643591191,"52":-0.024600594215943402,"53":-0.0014748584307280556,"54":0.015357984784051117,"55":-0.049300189732530496,"56":0.020166724111427982,"57":0.021263581664333973,"58":-0.020472489858241315,"59":-0.02406578698774596,"60":-0.012936894616830242,"61":0.013370409258431288,"62":-0.041306670440120555,"63":-0.07611317878171907,"64":0.0011345067754393824,"65":-0.01805209589567388,"66":0.01449665772669765,"67":0.004575690333467472,"68":-0.034781195903781335,"69":0.03254271658294582,"70":0.001900308185824372,"71":0.030049933716482107,"72":0.026719496093359184,"73":0.01804848848556614,"74":-0.012402963191910211,"75":-0.07546623365141542,"76":-0.04185780205281845,"77":0.038238646565208416,"78":-0.02860922987109333,"79":-0.07226118489312154,"80":-0.02300116485662544,"81":0.0373256761914579,"82":0.04747452833236598,"83":-0.003904503332436683,"84":-0.05849336532465101,"85":-0.0443503097726979,"86":-0.015669994613954467,"87":0.024089651441265323,"88":-0.06908778132816325,"89":0.03533905824193712,"90":-0.02808966476303137,"91":-0.04701816477763692,"92":-0.03861737215393935,"93":-0.025535643500449633,"94":0.10256050835333276,"95":0.019368790531211634,"96":-0.001348389626063409,"97":0.005956624616969071,"98":-0.02819980367389134,"99":0.0021667874965433155,"100":-0.04874433269176739,"101":-0.005696713029315389,"102":-0.052931477110290656,"103":-0.01818299660955783,"104":-0.02188574140964837,"105":-0.04394200877708725,"106":-0.02115335340268003,"107":-0.06389330132031412,"108":-0.007528778947409868,"109":-0.000035439572860756875,"110":-0.03212430022003156,"111":0.021656015248507687,"112":-0.04849241337144585,"113":-0.04427817504386836,"114":0.01804148682988887,"115":-0.03373697938236957,"116":-0.051395984245334266,"117":-0.08227827937798478,"118":0.0009801299750124362,"119":-0.02042731487154212,"120":-0.020382580220754447,"121":-0.03514190532828454,"122":-0.033724489504880155,"123":0.0038921587802273976,"124":0.06486760178637013,"125":0.007088476273302924,"126":-0.07941650942378305,"127":-0.015398239367768015,"128":-0.0452809210663611,"129":0.006019218329444188,"130":-0.03298713089143717,"131":-0.05009416127324277,"132":0.06492737795427622,"133":-0.03625094963564091,"134":-0.05373460907020131,"135":-0.07946943091900578,"136":-0.06721030955657128,"137":0.09589522088324318,"138":-0.06738710343441158,"139":-0.014927840715393803,"140":-0.055398724563309576,"141":-0.023241745113803128,"142":0.05355272549799637,"143":-0.07748580190656265,"144":0.014569452078416742,"145":0.004841825087161791,"146":-0.02082810610164191,"147":-0.011270922869159207,"148":-0.01486725887810154,"149":-0.03164877903882154,"150":0.023222093839155036,"151":-0.06768490351609228,"152":0.0011868985131331835,"153":0.01161607078570024,"154":0.00340072672822693,"155":0.025470346389770797,"156":-0.02392321575304641,"157":0.0017448390677650388,"158":0.033012527196426736,"159":-0.002585084042508624,"160":-0.05778220415631309,"161":0.006314832085929731,"162":0.010066568989932077,"163":0.01936288933981341,"164":0.060821827160450606,"165":-0.06331653097061744,"166":-0.04855816199450944,"167":0.06622057896466052,"168":-0.03925382748222292,"169":-0.015206766840185288,"170":-0.032840488774158384,"171":0.054306002339098235,"172":0.037704334253077385,"173":-0.05355787058453868,"174":-0.05804508891265834,"175":0.024386084596166237,"176":-0.022128735332516348,"177":-0.005282443697409649,"178":0.06312659615479305,"179":-0.036315994300328426,"180":-0.0028226288913138753,"181":0.10586419275864341,"182":-0.026634399803190625,"183":-0.07511670806238623,"184":-0.02833065367652537,"185":-0.051821003204554995,"186":0.0010249253780107558,"187":-0.0168039922167146,"188":-0.03965252304301996,"189":0.049551459594972494,"190":0.03985561228027156,"191":-0.0313432750899872,"192":-0.021147948520307974,"193":0.02382827023637708,"194":-0.05389190687350266,"195":0.02185098045647279,"196":-0.010132431223591856,"197":-0.05932207165477484,"198":0.037885051710244276,"199":0.011676240962647487,"200":0.01159754512495036,"201":-0.019850251545382086,"202":-0.005522666698681859,"203":-0.053262878584674045,"204":-0.06545174909684368,"205":-0.04460886243127217,"206":-0.011796703867018017,"207":-0.065654204598554,"208":-0.020400057309249077,"209":-0.006751388031111105,"210":0.06189988749923241,"211":-0.08517997977393377,"212":-0.061098672548728424,"213":0.02448709114823653,"214":-0.01256309377984006,"215":0.011681237817150929,"216":-0.00002708350669610882,"217":0.04242150781105852,"218":0.01336795151323765,"219":-0.0521456107151184,"220":0.051807976374372525,"221":-0.021523632968317864,"222":0.001618417979625604,"223":0.026526663662069405,"224":-0.0027747588635584643,"225":-0.04089506612823697,"226":0.00721294254673187,"227":-0.006857113678628389,"228":0.022369370928518248,"229":-0.005650521525323889,"230":-0.026888491677213588,"231":0.012751241393427612,"232":0.01659866762711538,"233":-0.061225532575772,"234":-0.06428688783695342,"235":0.013907706939647017,"236":-0.06476091322092749,"237":0.022526864790006637,"238":0.003075620370539287,"239":-0.028492580755975605,"240":0.002715529061641828,"241":0.10333267512940414,"242":0.02040044420864915,"243":-0.001597738283745496,"244":-0.02015592115729215,"245":0.018501624533724444,"246":0.019261325198495365,"247":0.022090519984235654,"248":0.013085997704582209,"249":-0.06592503500615979,"250":-0.008509591059955739,"251":0.006612453948641306,"252":-0.02848513619546222,"253":-0.017102895673477135,"254":0.004259310001734126,"255":0.02065129045957576,"256":-0.05077707618245295,"257":0.0036664607428593086,"258":0.019238011178746267,"259":0.015792078820682783,"260":0.000919628983040928,"261":-0.04567540301274865,"262":-0.04441479609281774,"263":-0.030963256446211267,"264":-0.024496206252064865,"265":-0.039727999731308715,"266":-0.03403449141648624,"267":0.014304211786908641,"268":-0.08225798813852311,"269":0.00950684411636742,"270":-0.03625659957610274,"271":-0.056479143493006236,"272":-0.03509000869168615,"273":0.004972144538709379,"274":-0.08773137174278986,"275":-0.0621953515524064,"276":-0.008342715215081753,"277":-0.027626217072376835,"278":0.056293346843318035,"279":-0.004941847704805619,"280":-0.06317252665287487,"281":-0.042782401285891176,"282":0.049135866515122424,"283":0.04690520784900391,"284":-0.04548420253335465,"285":-0.0003837630320156106,"286":-0.017839462017671028,"287":-0.08615198157352699,"288":0.03363532262505034,"289":-0.12280924347492174,"290":0.0533306549944334,"291":0.017685214728171108,"292":-0.017632616026850102,"293":-0.015551703218602093,"294":-0.03718154968939153,"295":-0.08370099010277254,"296":-0.02626849965005599,"297":-0.030760971584976524,"298":0.03934275334917367,"299":0.033361736800014245,"300":-0.007818269481449558,"301":0.041539878164458324,"302":-0.013480470732863686,"303":-0.04402352933368316,"304":-0.03466640728556493,"305":0.07750268876847609,"306":0.052761437866083886,"307":-0.013602894179854774,"308":0.007424028203411823,"309":-0.06157354436110898,"310":0.01761096416732003,"311":-0.010524471871433778,"312":0.015440382464421686,"313":0.07678606337868038,"314":0.00003493089426302132,"315":0.007660217383385999,"316":-0.06718142195149333,"317":-0.004943612566453296,"318":-0.05140109199027253,"319":-0.012532002966918797,"320":-0.04268359848637232,"321":-0.07143347039818934,"322":-0.01615032725399447,"323":0.0571400026243948,"324":0.011420924167714517,"325":0.009279541461438804,"326":0.006365194751166197,"327":0.012391124555579438,"328":0.07860596521300903,"329":-0.004390136894245552,"330":0.04572447519451697,"331":-0.015191731256821774,"332":0.01812131712799285,"333":0.007741719911623999,"334":-0.012869014787353708,"335":-0.013437413536414802,"336":-0.020572840867542967,"337":0.02788114631210053,"338":-0.013761652705896474,"339":0.008991779846117182,"340":0.034073565257391435,"341":0.025697167069566876,"342":0.025715496498385677,"343":0.029967563112985374,"344":-0.01665125656440529,"345":0.007113057628808048,"346":0.0070627044569712,"347":-0.049816486017226935,"348":-0.00019333211950076323,"349":0.027469982951921625,"350":0.008953159697198286,"351":-0.02493232913087576,"352":0.07652976268583814,"353":-0.0010912006942125083,"354":0.018409737405406003,"355":-0.017623615875012218,"356":-0.08792436439002199,"357":-0.05905824411923377,"358":0.033105772878629355,"359":-0.024733506227014354,"360":-0.003493837296857556,"361":0.013608828451902961,"362":0.030485872711448637,"363":0.0034575055386939896,"364":0.0071397513401824445,"365":-0.061557119107578696,"366":-0.012155440968750065,"367":-0.05019133385561827,"368":0.03350461692478667,"369":-0.006207992169041641,"370":0.01600906845154081,"371":-0.008619369798027137,"372":-0.017144377487126352,"373":0.021465324830729136,"374":-0.03056822448885461,"375":0.02109564686488865,"376":-0.025244421044213827,"377":-0.040456850335438485,"378":-0.027076844516027435,"379":0.01396446156079344,"380":0.012944100858840346,"381":0.06636730830790526,"382":-0.05292559527516051,"383":-0.019819253994242607,"384":0.055001778902185335,"385":0.021060235726258713,"386":-0.012230950935555769,"387":0.009711439586157073,"388":-0.05533913709894684,"389":-0.00722853755802683,"390":0.005837475594390985,"391":-0.04118876436089995,"392":0.018584855758328814,"393":-0.02221570934549059,"394":-0.021573892068337323,"395":-0.038749194384049376,"396":-0.0025655099904362006,"397":-0.022804359935762984,"398":-0.030345256321575843,"399":-0.08331996460348362}},{"sx":5,"sy":5,"depth":16,"w":{"0":0.0904751245471112,"1":0.09035414008864899,"2":-0.016478484983986703,"3":-0.04564992187406409,"4":0.05869210141954594,"5":-0.05773516222897878,"6":0.05356972398877864,"7":0.021475081170306037,"8":0.04854360226100234,"9":0.050231773622364945,"10":-0.007952699288118134,"11":0.04568207663508216,"12":0.06101991468418585,"13":-0.09163435384950233,"14":-0.024138690290692627,"15":-0.017583258394939568,"16":0.07168752013642504,"17":0.07202667682630248,"18":0.13343650898128376,"19":0.03502699444949806,"20":0.05666439092171044,"21":0.016949483699081978,"22":-0.017513542382620175,"23":0.01128598938517392,"24":0.09812965375282462,"25":0.050422978306305564,"26":0.017940155542834523,"27":0.11369245421717733,"28":0.01611194601955589,"29":-0.06564926003397666,"30":0.03474862518914853,"31":-0.01596354540121952,"32":0.049698767181078456,"33":0.04211572854892224,"34":-0.03230552466842328,"35":0.018614044584465122,"36":0.07968441700345304,"37":0.030448304998776446,"38":0.015072616774995147,"39":0.030026276361803172,"40":-0.009814371199485878,"41":0.06772045271339466,"42":0.0017935638283343254,"43":0.11149009470892612,"44":0.08318940683930989,"45":-0.056470658839899865,"46":-0.015570167234338387,"47":-0.05212418502984339,"48":0.0952878837396737,"49":-0.0209600727335553,"50":0.02343772006842242,"51":-0.017131352440717562,"52":0.03502128755322433,"53":-0.012859179506161469,"54":0.07617152063249436,"55":0.04127379815634448,"56":0.04305902466702563,"57":-0.007070852426463555,"58":-0.053396418646219884,"59":0.07277312290545838,"60":0.023772578134409424,"61":-0.04671257852285404,"62":-0.0505323405275272,"63":0.04995477464119621,"64":0.13546585849516266,"65":0.07262546133135665,"66":-0.023822323344056227,"67":-0.025753775113866267,"68":0.09516835285233985,"69":-0.004712390427592332,"70":0.03108744908975269,"71":-0.00239906281184472,"72":0.032296587220755006,"73":0.07479659671953816,"74":-0.032683815977305034,"75":0.06329184560435434,"76":0.07493466366583769,"77":0.021986386655897413,"78":0.008936791444538577,"79":-0.04370089141729969,"80":0.017576094684254317,"81":0.038825026727853484,"82":0.010740285237156063,"83":-0.014957370505079165,"84":0.018224323107028175,"85":-0.06328890689868197,"86":-0.02204289907499251,"87":-0.04926199305192236,"88":-0.06007719010600171,"89":0.061447229715753025,"90":0.00452644583390739,"91":-0.0184135100058828,"92":0.05652186372358775,"93":-0.09283844822980375,"94":0.026302753999138152,"95":-0.005625040234142025,"96":-0.026271991916409485,"97":0.008402953657245362,"98":-0.03214528615616299,"99":-0.11418930478689462,"100":-0.011196019861321448,"101":-0.018329554327093666,"102":-0.07633136963261053,"103":-0.04279531938899621,"104":-0.01641662428746614,"105":0.07020900046852366,"106":-0.06550319070039358,"107":0.11118869519736424,"108":0.12323931628320944,"109":-0.07219007085232332,"110":0.08175774105066361,"111":-0.00116497296281762,"112":0.05729552483909947,"113":-0.005984642561353918,"114":-0.054642722366633444,"115":-0.028124136277045606,"116":0.06633323143646983,"117":-0.040822962816522444,"118":-0.04848217221059946,"119":-0.06674781267953625,"120":-0.04993041506125142,"121":0.04543165637310113,"122":0.014498397829281664,"123":0.04240700506925991,"124":0.13531276296198827,"125":-0.09322126707835866,"126":0.01419920754255591,"127":-0.011686111362811759,"128":0.0015889974976317992,"129":0.048139007194676946,"130":0.002398743743549123,"131":-0.12079236879564909,"132":0.061171599852339206,"133":-0.09920483149676149,"134":0.053103603345890316,"135":-0.008320362128757326,"136":-0.04363883259631424,"137":0.024538898982042714,"138":-0.04259566632209222,"139":0.05379164296208278,"140":0.11637817572144551,"141":-0.039588123224967416,"142":0.11914685977189507,"143":-0.036038801602289276,"144":0.13764264671092785,"145":0.12178071620187374,"146":0.05676978502571355,"147":-0.03286718563415769,"148":0.0753474093273247,"149":-0.06848415031338159,"150":-0.003513017171151872,"151":-0.06659365101379162,"152":-0.08193914561523183,"153":0.020496214353737965,"154":-0.013452905102249177,"155":0.08369013664688577,"156":0.1452321502158425,"157":-0.09802427245096451,"158":0.057927461280048866,"159":-0.05668418831542087,"160":0.027065446957634832,"161":0.09630804391795986,"162":-0.09474205937673211,"163":-0.03194559745767836,"164":-0.032607565683422705,"165":0.021374408643578292,"166":-0.009943396496343822,"167":0.01386285249999834,"168":-0.09615206952671002,"169":-0.04614810201857099,"170":-0.015025860028811388,"171":0.028612726203720667,"172":0.0013683222581935702,"173":-0.012016340557533091,"174":-0.02156476298288556,"175":0.05036466800814714,"176":-0.0431001188558451,"177":0.03533562715472612,"178":-0.07051990021667028,"179":-0.09281293300989618,"180":-0.07724946199330765,"181":-0.033317375805341005,"182":0.0024382781193124097,"183":-0.06410497428508537,"184":-0.1550034258973058,"185":0.0463022508415324,"186":-0.018457092558122275,"187":0.03551747383701699,"188":0.07816914320927497,"189":-0.06753575380407173,"190":0.030758577285917285,"191":-0.011887301505051386,"192":-0.036895605617137534,"193":0.004681752820449869,"194":-0.031132318151727022,"195":-0.07770449904549837,"196":-0.030565097610824463,"197":-0.07034227728803394,"198":0.04896643836702394,"199":-0.08560358205976351,"200":-0.017320473120089903,"201":0.003650704106045328,"202":-0.008680894785335473,"203":-0.02574093067975471,"204":0.09466590017786303,"205":-0.006940113519460887,"206":0.10180466443683296,"207":0.0022163932483804057,"208":-0.0495952626874104,"209":0.013153251887258719,"210":-0.020615909406667736,"211":-0.017246790044769318,"212":-0.016318500052112182,"213":-0.08062516166289044,"214":-0.022222269141189493,"215":0.016234313341597133,"216":-0.12666748846303094,"217":0.10926770267392838,"218":0.07241513056990927,"219":0.03653412488564532,"220":0.10730286810729561,"221":-0.017620094185642365,"222":0.05419059517706061,"223":-0.11580387812578875,"224":0.07826035949701418,"225":0.06411216173951546,"226":0.011771567355721093,"227":-0.056395453157137274,"228":-0.010385400770644896,"229":-0.08003027603080863,"230":0.018382405087805247,"231":-0.03950185008908677,"232":-0.07124846884850179,"233":0.006014360067368871,"234":-0.06198675857014589,"235":0.04431323292952086,"236":0.11321347782411054,"237":-0.09631987888239169,"238":0.07356159750124812,"239":-0.01853423143725517,"240":-0.08158320741118202,"241":-0.04045232383120684,"242":0.008051788414154257,"243":-0.11176566105188099,"244":-0.07316805080716467,"245":0.032168348159918536,"246":-0.024914618795710886,"247":-0.02416184498800372,"248":0.009820445827573798,"249":0.030665461627158552,"250":-0.01657239726524964,"251":-0.02007614492857682,"252":0.04063586799429968,"253":-0.07087589771820142,"254":0.03187343469875114,"255":0.10606237350184508,"256":-0.05172875844942624,"257":0.01121927077161642,"258":-0.03154207485151616,"259":-0.016124456348703648,"260":-0.12292846292067709,"261":-0.020556846766595648,"262":0.021929970651483447,"263":-0.020652993392280508,"264":-0.047101575921568356,"265":-0.0026137600640371837,"266":0.06297851525543186,"267":-0.015310474751839276,"268":0.006885476596475006,"269":-0.079726219195207,"270":-0.033029973793721745,"271":0.09270557238456921,"272":-0.09349207599725222,"273":0.04811089807705298,"274":-0.06563943616581819,"275":-0.07194255170505615,"276":-0.027812025008087996,"277":-0.10596966760516277,"278":0.025636418562533674,"279":-0.07333759467853873,"280":0.038410789689575016,"281":-0.05853904218694123,"282":0.014268732058918602,"283":-0.023100061795965268,"284":0.04591447215014691,"285":0.0039943202613516,"286":-0.019159492708092283,"287":0.14772011399699247,"288":-0.005705816396606302,"289":0.07020780061399363,"290":0.05292011648481573,"291":-0.042491138834617026,"292":0.09376945349815925,"293":-0.014206941323516504,"294":-0.01282878691410343,"295":0.012519728344757173,"296":0.012716696790613104,"297":0.017952356565767002,"298":-0.005768543576471295,"299":0.0054749280175458515,"300":0.014240035350560246,"301":-0.07972149438531556,"302":-0.08719768939317862,"303":0.10656406792012589,"304":0.014632869001366915,"305":0.011746131725308325,"306":0.0061466733121689566,"307":-0.09179406943361902,"308":0.016864095820409583,"309":-0.019040548290120016,"310":-0.03695538124324307,"311":-0.03554276382451633,"312":-0.15191882670354057,"313":0.06052809693200326,"314":-0.008378614689226916,"315":0.03283357048951199,"316":0.08896492541085682,"317":-0.0698960844523747,"318":0.05719799842003178,"319":0.06860043802556227,"320":-0.04794726532038714,"321":-0.06503894525524728,"322":-0.08544925978336353,"323":-0.018507913111542033,"324":-0.005838892797082006,"325":-0.04212075092740524,"326":-0.06958324211983558,"327":-0.05899081378010189,"328":-0.039670318739783,"329":0.0027256378819724026,"330":-0.0920717194273188,"331":-0.031969057679141884,"332":0.08118118707840223,"333":-0.10056973388909708,"334":-0.06150511767128551,"335":-0.001924892135858939,"336":-0.054817709517967605,"337":-0.02886913991939552,"338":0.036200815150382266,"339":-0.04511925632417785,"340":-0.051319053385310204,"341":0.017435337679773958,"342":-0.04790575885464135,"343":-0.007052176709599393,"344":-0.04405811892394475,"345":-0.005421777242350812,"346":0.021878186738289854,"347":0.013412846674436324,"348":0.002533757168533061,"349":-0.07103088729638493,"350":-0.06565380286021906,"351":0.1066715457509149,"352":-0.01935360004286241,"353":-0.07245472347006933,"354":-0.05467452476562641,"355":0.04321395667179707,"356":0.0012231476949884146,"357":-0.040803931723866545,"358":-0.0053830933290239915,"359":-0.05472805515843991,"360":-0.0284763863873377,"361":-0.04249672186042895,"362":0.0697686290093041,"363":-0.04101402905373348,"364":-0.08316789816295705,"365":0.03397367926041172,"366":-0.055588628095808355,"367":0.037218608112998645,"368":-0.0455979881276653,"369":0.022712869668757,"370":0.027572519297986868,"371":0.009164334462064959,"372":-0.035307962464362436,"373":-0.05371716244942326,"374":-0.02831994453012976,"375":-0.03429794183858694,"376":-0.01909234932132556,"377":-0.045213429099447255,"378":-0.10965779463507595,"379":0.08974494995404922,"380":0.05004902480434296,"381":-0.006765710199543992,"382":-0.043210935535924755,"383":0.07462790375866,"384":-0.02370856806855063,"385":-0.011369180698464399,"386":-0.03406068062646438,"387":-0.04778954358219854,"388":-0.04946797774743831,"389":0.016929521820066955,"390":-0.029969601232815866,"391":-0.14033505638255098,"392":-0.06901203914697322,"393":-0.013682620149993933,"394":-0.000043763282577616004,"395":0.07468430318707697,"396":-0.003919483394715135,"397":-0.039041217478955725,"398":-0.05152527816819236,"399":0.04511443449257713}},{"sx":5,"sy":5,"depth":16,"w":{"0":-0.005559993918389664,"1":-0.026580337347775127,"2":-0.04144083901867302,"3":0.07513033385166915,"4":0.025903781170106353,"5":0.07436100788595212,"6":0.05576899626884303,"7":-0.006629276984168629,"8":0.041925626196201125,"9":0.10885329575999653,"10":0.012421266806714154,"11":0.0430852669893042,"12":0.04174561161083907,"13":0.10403590081534363,"14":-0.12044688298236064,"15":-0.03374926643584479,"16":-0.05204592040711652,"17":-0.07576350430694213,"18":0.04044469726401388,"19":-0.026500256356816174,"20":-0.0748694841991656,"21":-0.011846133951601601,"22":-0.04073877971340208,"23":-0.027902017286200734,"24":0.07987066227784707,"25":0.03755104918737109,"26":0.0041466490353509276,"27":-0.0826160292030108,"28":0.0016014063628401946,"29":-0.0009138088073836937,"30":-0.030760373367206082,"31":0.03545945008413452,"32":-0.06833395714393718,"33":0.02443663204399832,"34":0.008253000191786531,"35":0.041269311236793,"36":-0.04914577729391673,"37":-0.014527518224609189,"38":-0.045982491655868984,"39":0.004117503816562307,"40":-0.06371312361982213,"41":0.051687288058538,"42":0.06303504720428543,"43":-0.07635363489930216,"44":-0.06884607952327612,"45":-0.012324499837005176,"46":-0.013594356150190787,"47":0.013505053733513675,"48":-0.1237653617568114,"49":-0.04580543310084646,"50":0.000001908813849101704,"51":0.0021978341589252303,"52":-0.05374551713943261,"53":0.027668873230255166,"54":0.01612816196271845,"55":0.048084836029784014,"56":0.06199643571757157,"57":-0.015191940512345582,"58":0.027179811367421917,"59":0.03348245097967757,"60":0.005567061917248596,"61":-0.018781385013032673,"62":-0.08210616581615243,"63":0.002931458649953283,"64":-0.08336228212560214,"65":-0.09749581507809098,"66":-0.012183960172979536,"67":0.057571000189356986,"68":-0.012405140718947338,"69":0.03337751481978427,"70":-0.053823486199793685,"71":0.03246300165462014,"72":0.06160680344705382,"73":0.017100795498696857,"74":-0.02173771291335609,"75":-0.025013983820966028,"76":-0.02503151038981573,"77":0.01622449930280395,"78":0.007354929787258758,"79":-0.03725833386406991,"80":-0.1218670772728866,"81":-0.08178162280487583,"82":-0.03294967550919648,"83":0.019099590664177934,"84":-0.0040293926259037565,"85":0.10427302016343487,"86":0.04160147224445511,"87":0.030826185856042673,"88":0.05851745752606899,"89":0.0039059019463720556,"90":-0.0003858848497336311,"91":-0.07269048575459461,"92":-0.07849815678533889,"93":-0.0032326714130113446,"94":0.006909624475840839,"95":-0.006180693270927802,"96":-0.06991546001974024,"97":-0.06308131706229846,"98":-0.02707528400997483,"99":0.0049289011190595195,"100":-0.06354173221639023,"101":-0.0570740040455481,"102":0.030713513849903052,"103":0.04197823802383354,"104":0.05209181769197271,"105":-0.0004199637257757091,"106":0.012477162956597518,"107":-0.04966710000907428,"108":-0.023477384988928957,"109":0.0074094446229656654,"110":-0.01634987934492867,"111":0.022852346076364802,"112":-0.1028657411810136,"113":-0.04313349802134546,"114":0.018726639867212333,"115":-0.039288442266529916,"116":0.005008245755799649,"117":-0.011372198568624004,"118":0.04233244850766457,"119":0.009807613753894866,"120":-0.031933633073801745,"121":-0.010206587936851945,"122":-0.007731177691583822,"123":-0.12446805648503052,"124":0.01654380641130472,"125":-0.004696647933719645,"126":-0.047044278275206367,"127":0.10282794200144711,"128":-0.13650591144836524,"129":-0.04587411045343965,"130":0.05160302377324535,"131":0.0646801566431933,"132":-0.06388628274402594,"133":-0.05421660206179544,"134":0.01586487232502476,"135":0.023810504047071416,