{"layers":[{"out_depth":3,"out_sx":32,"out_sy":64,"layer_type":"input"},{"sx":5,"sy":5,"stride":1,"in_depth":3,"out_depth":16,"out_sx":32,"out_sy":64,"layer_type":"conv","l1_decay_mul":0,"l2_decay_mul":1,"pad":2,"filters":[{"sx":5,"sy":5,"depth":3,"w":{"0":-0.11245611930650619,"1":-0.025576978129345465,"2":0.0982228744144495,"3":-0.1246681005274802,"4":0.06703404168466401,"5":0.106188538240141,"6":-0.29726631659332786,"7":0.06101833118695625,"8":0.11218310318064555,"9":-0.20713068860665615,"10":-0.0744699300144234,"11":-0.08499682355632227,"12":-0.17340287480212022,"13":-0.14998486770082634,"14":0.22024204083055893,"15":0.1564064220549707,"16":-0.29996520202699906,"17":0.09502063295068117,"18":-0.12311151210687363,"19":0.06905105317074269,"20":0.03782277883704334,"21":-0.24250041307702608,"22":0.03403030485781558,"23":0.009101869498286945,"24":-0.09671781056465414,"25":0.11316767482367017,"26":0.18780315747129295,"27":-0.1042978192503431,"28":-0.05730150794614733,"29":-0.019505730588777928,"30":-0.08103645342749342,"31":-0.030055497970251414,"32":0.20986909604660287,"33":-0.11856498921042265,"34":-0.04542841517613772,"35":0.047944984422327294,"36":-0.048245569269589096,"37":-0.2379435599479875,"38":-0.1430195928364777,"39":-0.13868301843851208,"40":-0.11121761794787445,"41":0.04851102665264926,"42":-0.04372855540713765,"43":0.001741461406434867,"44":0.13929759060355645,"45":-0.008801924249578322,"46":-0.08416190513657788,"47":0.03960488905492521,"48":0.19660283467697395,"49":0.026549946416831796,"50":0.024741058101354373,"51":-0.05606192387043696,"52":-0.16259289721960046,"53":-0.010131583643885705,"54":-0.2503400137957137,"55":-0.17618987401808198,"56":0.030868522463683497,"57":-0.24629986965342335,"58":-0.08643085639647938,"59":-0.06858688829666015,"60":0.03196806017071813,"61":-0.17480157556990505,"62":0.008889315547470803,"63":-0.13503818379189234,"64":-0.2147767533023449,"65":0.13117606851376312,"66":0.004072202782090784,"67":-0.10430568047076945,"68":0.0775420358062447,"69":-0.15417931913099764,"70":-0.1359603361133795,"71":-0.03252700814816498,"72":0.01883238398177352,"73":0.020167021168982863,"74":0.003332574000190959}},{"sx":5,"sy":5,"depth":3,"w":{"0":-0.12179336942904705,"1":0.03509231303024872,"2":0.18901942333524202,"3":-0.22858917580485116,"4":-0.026107042956849208,"5":0.14265677791894132,"6":-0.16654109083915464,"7":-0.11665089907835674,"8":0.17411480976845484,"9":-0.14684630839118795,"10":-0.04643096718133333,"11":-0.03368187841518942,"12":0.20005659960352024,"13":0.1496298679529484,"14":0.1188269029250569,"15":-0.00035099701224007975,"16":-0.03184887430831276,"17":0.025852578649558092,"18":0.072956009042447,"19":0.08936966858053674,"20":0.09721442504468757,"21":-0.20777620850572315,"22":0.17442044284250519,"23":0.08743114957388724,"24":-0.10709327581491798,"25":0.06425865166775871,"26":0.13612451038493,"27":-0.054566513513955056,"28":0.023787880566599376,"29":0.11689030165693803,"30":0.13489017411426132,"31":0.05059353926364803,"32":0.06210111516389712,"33":0.12264957820607844,"34":0.1433678479099676,"35":0.12068945773305235,"36":0.05634832611370176,"37":0.09026030068304791,"38":0.08296255160486614,"39":0.024862937048416297,"40":0.09736712621175832,"41":0.06571028687207942,"42":-0.1590564435073603,"43":0.15593872260235925,"44":0.062396719376425026,"45":0.14437091008553685,"46":0.13712482217894437,"47":0.009595471077002359,"48":0.0635741550985372,"49":0.04249447710286093,"50":-0.17131970104527108,"51":0.09714130281705294,"52":-0.1093645034082979,"53":-0.22082641208576648,"54":-0.03673402920331593,"55":-0.034746820622835475,"56":-0.1139345154150507,"57":-0.01139083477592935,"58":0.14904042208363177,"59":-0.013364606965791045,"60":-0.11483245649881314,"61":0.054335917955198224,"62":0.006715334091912929,"63":0.043853012529331895,"64":0.2562762488233765,"65":0.35284477017041815,"66":0.004886504637809631,"67":-0.06731082432424394,"68":0.01674130515420773,"69":0.1612511954415428,"70":0.10550200318366244,"71":-0.029700646980432135,"72":-0.09801506596427548,"73":0.06843038810040389,"74":0.1180323958548664}},{"sx":5,"sy":5,"depth":3,"w":{"0":-0.13227313840057514,"1":-0.14552481194094163,"2":0.027659155876278017,"3":-0.16035476106790658,"4":-0.05899098926590746,"5":0.19050120660108696,"6":-0.1883326022376697,"7":-0.21930297451969735,"8":-0.09173500579172891,"9":-0.10373799806467053,"10":0.08614570252627418,"11":-0.056030786953158405,"12":0.09936701602346035,"13":0.03863953463568656,"14":0.3450229245052052,"15":-0.09084360956247568,"16":-0.07190899693918527,"17":0.14747780009657618,"18":-0.04943100212903435,"19":-0.0714453671985058,"20":-0.05631485153102266,"21":-0.0312240234328171,"22":0.12042104869289083,"23":0.16023794031436422,"24":-0.00027814432994979494,"25":0.04986477655765698,"26":-0.08206882765796576,"27":0.39077782463025895,"28":-0.2796548837663547,"29":0.23940115069123186,"30":-0.11608407148963519,"31":-0.06794397215828267,"32":0.20101844302673524,"33":-0.14097981582476113,"34":-0.05921224218223913,"35":-0.011207142583152306,"36":-0.25856779924797435,"37":-0.04003672853422691,"38":0.13096879119217805,"39":-0.16717214202689715,"40":0.1577890708825428,"41":-0.11763452036277114,"42":-0.06643066213802613,"43":-0.014620906481048863,"44":0.00796068996796263,"45":-0.3723752920354237,"46":-0.4432730098742061,"47":-0.1857299587347255,"48":-0.29114959674619173,"49":-0.22783707002914153,"50":0.05424714220690611,"51":-0.11837412792014482,"52":-0.09700760556593421,"53":0.1535110371880004,"54":-0.23872672050242608,"55":-0.18904108227102917,"56":0.09436576523766038,"57":0.32537850450246014,"58":0.09735506540079883,"59":0.041763228850805925,"60":-0.15322153002954406,"61":0.05044331599585729,"62":0.07570933484936483,"63":-0.1515607144380837,"64":-0.16093254397598755,"65":-0.09071018416934386,"66":-0.016153441208977458,"67":-0.1577276231369959,"68":0.22647868705473762,"69":-0.07768356088006625,"70":0.05463209211022453,"71":-0.013125232230049053,"72":0.063799050486364,"73":-0.029911460783867437,"74":0.10951406593474908}},{"sx":5,"sy":5,"depth":3,"w":{"0":0.017671012768643867,"1":-0.15295329248468945,"2":-0.18499540755422414,"3":-0.07603928066305286,"4":-0.22837703871581197,"5":-0.12339720479508284,"6":-0.06645678131261594,"7":-0.20574272300664698,"8":-0.08552258310126219,"9":-0.21599113115457086,"10":0.13871928921075655,"11":-0.2130732683662477,"12":-0.07576853303590603,"13":-0.01882949389450769,"14":-0.06997251929187562,"15":-0.02132566510159279,"16":-0.18320341721666444,"17":-0.1461782275766386,"18":-0.052343126205737535,"19":0.009878454255294697,"20":-0.04509720169598892,"21":-0.005513274159321015,"22":0.04340265301582319,"23":-0.2569692540945209,"24":0.05196802002769698,"25":-0.00009823959404490516,"26":-0.09210578704785477,"27":0.0341777405963104,"28":-0.059437729339651635,"29":0.013360611888858703,"30":0.1025939751311553,"31":-0.2218689529640412,"32":-0.21501377368033966,"33":0.11422068105798265,"34":-0.17998777106790556,"35":-0.09161990185841931,"36":-0.08289295656647866,"37":-0.25457631157716704,"38":0.0012964973952257065,"39":0.11464401838029263,"40":-0.14984556488222323,"41":-0.007103872562004198,"42":0.06527671513014063,"43":-0.30465918353914234,"44":-0.062050139883599004,"45":0.09872451238237052,"46":-0.01354905391720013,"47":0.012106978518880531,"48":-0.06418863427155296,"49":-0.14806289871090836,"50":-0.06774655622569653,"51":-0.13125046183865022,"52":-0.14015030194566952,"53":0.06111928270074911,"54":-0.11369179147206562,"55":-0.09058170319158279,"56":-0.12197258250914499,"57":0.23899413310182158,"58":0.1462094206420733,"59":-0.1647204822567414,"60":0.11872641517488991,"61":-0.19426353094829044,"62":0.11999702803986065,"63":0.18424270805398274,"64":0.043053286636728146,"65":0.01788600150894867,"66":0.07627300610146319,"67":-0.22440843195844956,"68":-0.008853844992311679,"69":0.005634340920144341,"70":-0.02230790407268437,"71":0.24406337962491637,"72":-0.1088215930317101,"73":-0.07075771227625684,"74":0.09723457385585393}},{"sx":5,"sy":5,"depth":3,"w":{"0":-0.010803254364093096,"1":0.1739162198279611,"2":-0.12649010527497498,"3":0.30301734796375906,"4":-0.09251656540904135,"5":0.050094583609103266,"6":-0.1388760822445584,"7":0.00539092784018513,"8":-0.3693833101290497,"9":0.055927485962844616,"10":0.09617388051078926,"11":-0.011567716632925572,"12":-0.05941990531871076,"13":0.12483195422246046,"14":0.2939188275408667,"15":0.13729909455902684,"16":-0.004038307396408429,"17":-0.13711488736711697,"18":0.00035731150336664065,"19":-0.12972194503480877,"20":-0.10889010157636894,"21":0.0632060052065124,"22":-0.047541930691677434,"23":-0.17420162060045422,"24":0.18340194277982336,"25":0.16879013757811479,"26":-0.19941341767887666,"27":0.2116698175287663,"28":0.16086066131046467,"29":0.18368564957839356,"30":-0.06620801404783082,"31":0.06936157443485237,"32":-0.1350229605337359,"33":0.14936588601768575,"34":0.07772005742938855,"35":0.009969281178749822,"36":0.19281782641705209,"37":0.06564977896364953,"38":-0.09837589218126122,"39":0.08135919138067423,"40":0.01753873180621528,"41":-0.006516572776084662,"42":0.13618760064154303,"43":0.0953832375633685,"44":-0.053589908936990616,"45":0.1112227549622624,"46":-0.19508909890865378,"47":-0.02275969250039359,"48":0.043469731502430824,"49":-0.17087586057977777,"50":0.13535835607674207,"51":-0.02949240736220347,"52":0.2228908957967295,"53":-0.21933200118903678,"54":-0.0070481772781829,"55":-0.08138471491928606,"56":-0.05661440464913907,"57":0.11677984573780062,"58":-0.03390152291505873,"59":-0.18078419224914685,"60":-0.1937057824571225,"61":-0.11219267266482134,"62":-0.11713344315643517,"63":0.10431486234349009,"64":-0.06642824005066085,"65":-0.08781676970208561,"66":0.1278418563061091,"67":-0.11366667774662578,"68":-0.2774020988840916,"69":0.11107274347654854,"70":-0.13337870656567274,"71":0.012365076026558952,"72":0.09324163056193248,"73":-0.01992302140051937,"74":-0.279620343881809}},{"sx":5,"sy":5,"depth":3,"w":{"0":0.05188229812026184,"1":-0.11479842812500006,"2":-0.1366785517318709,"3":0.090086114925306,"4":-0.07314632306141454,"5":-0.21162075585221887,"6":-0.09416292531763704,"7":-0.030491232070034062,"8":-0.171809614116489,"9":-0.022437390480599152,"10":0.003403629399293052,"11":0.008162913092315689,"12":-0.16269601959725055,"13":-0.13180949622330446,"14":0.03308007335549835,"15":-0.002029338633169887,"16":-0.0879626802939019,"17":-0.2490135399031509,"18":-0.05834695015808214,"19":-0.023596834135877553,"20":-0.07445294296196615,"21":-0.002059910554232443,"22":-0.362613403488715,"23":-0.030646826263818414,"24":-0.07401405483414451,"25":-0.24548056721806227,"26":-0.03133164930295384,"27":-0.007502769923543348,"28":-0.11604810597815582,"29":-0.008695515631394528,"30":-0.0006762987860034103,"31":-0.17936522888550935,"32":0.0577706896567166,"33":-0.030056095840092244,"34":-0.08328693424673517,"35":0.05832669140646074,"36":0.06959706582510446,"37":-0.12414271668250401,"38":-0.13982502003706923,"39":-0.09620372126203085,"40":-0.23394190350927901,"41":-0.23266849166839307,"42":-0.013912612536329175,"43":0.06064000350456711,"44":-0.12698829813406756,"45":0.24698603776355757,"46":-0.24913366388566627,"47":-0.06483113875429156,"48":-0.19907866333729934,"49":-0.11051379443866474,"50":-0.1263261361427888,"51":-0.06437060180904164,"52":-0.10612419465173592,"53":-0.07151103641332754,"54":-0.18786862076469332,"55":-0.1479113036362679,"56":-0.0225919073390045,"57":-0.03975487102565331,"58":-0.12838179726146268,"59":-0.282652474973672,"60":-0.014313609410647526,"61":0.025603884753579262,"62":-0.003469804145206004,"63":0.007514259246439824,"64":-0.08930433251848041,"65":-0.006720879208108936,"66":-0.0697734903722855,"67":0.012764602432394264,"68":-0.1879348628908385,"69":0.11899940658371616,"70":-0.1607974100853434,"71":-0.18970412041217327,"72":-0.041925405503580024,"73":0.09215478447486758,"74":-0.10921046527563245}},{"sx":5,"sy":5,"depth":3,"w":{"0":0.02552665486467203,"1":-0.014582004245021147,"2":-0.14210864694690012,"3":-0.08105752585544561,"4":-0.07687599213158428,"5":-0.00817723537968038,"6":-0.06979384409137056,"7":-0.0901379831961173,"8":-0.00028482717404494515,"9":0.06410930538048622,"10":-0.01192892186442491,"11":0.11459446589254953,"12":-0.17544257800496607,"13":0.291640672093302,"14":0.15552844488434941,"15":-0.2332121258210646,"16":0.05759552691582032,"17":0.06305340683674032,"18":-0.05708578231228156,"19":-0.02542004173751203,"20":-0.004961465630112171,"21":0.03882308428365583,"22":-0.08740433585605202,"23":0.17709382716923905,"24":-0.07223868519321909,"25":0.05940022693910259,"26":-0.10682549434029359,"27":0.025081896760779532,"28":0.002902902675853209,"29":0.2404277901034135,"30":0.1743416450409498,"31":0.013274344469391314,"32":-0.05123812012779611,"33":0.03113558881089541,"34":-0.04677240246530935,"35":0.2603897116039362,"36":-0.010227389245639961,"37":0.1309942405950285,"38":0.1044227972546259,"39":-0.034030110124047566,"40":0.07716163750935714,"41":0.10738933911970092,"42":-0.14391220268748145,"43":-0.13035948232357208,"44":0.015190298395739656,"45":0.20431155733590156,"46":-0.002475036475199711,"47":0.1363919528620824,"48":0.2798736074091779,"49":-0.02576134610533873,"50":0.15466610603313038,"51":0.046052135941047366,"52":-0.11635304206225403,"53":0.23893461292974677,"54":-0.16419892258097044,"55":0.13426672081559665,"56":0.17841109582353235,"57":-0.17453618081783134,"58":-0.16867872061272177,"59":0.05084826034765601,"60":-0.19447301270074288,"61":0.0537482958503871,"62":-0.01574753462281253,"63":-0.02812680439947104,"64":-0.06803983922216615,"65":0.06274037742091815,"66":-0.15258585472442643,"67":-0.03709097024427109,"68":0.17839793173177637,"69":-0.10906578569831125,"70":-0.20388264583396576,"71":-0.03553408590190159,"72":-0.15734105301946913,"73":-0.1260634971763019,"74":0.027286299727526584}},{"sx":5,"sy":5,"depth":3,"w":{"0":0.13954496638024777,"1":-0.42206852774267206,"2":0.07450761648702914,"3":-0.06682803016583286,"4":0.05166774739643649,"5":0.04408629522342438,"6":-0.03714344210852578,"7":0.015744953535842175,"8":0.16580316842490073,"9":0.04748477025228508,"10":0.06944245295085044,"11":0.1983768788712194,"12":-0.17491785225035522,"13":0.20656471852473576,"14":0.0634952010928666,"15":0.05266433793404762,"16":0.016883711547007005,"17":-0.06386166394470853,"18":-0.1287317075103297,"19":-0.13221696178450848,"20":0.05138937171939566,"21":-0.15544401788211598,"22":-0.06958680962962285,"23":-0.197539025473296,"24":0.13658262494572562,"25":-0.2608554312621231,"26":0.1323318640417338,"27":-0.15746096616481567,"28":0.004786426587126431,"29":0.033232796973657865,"30":0.04426292598709285,"31":0.22286891635063855,"32":-0.06056364298369664,"33":-0.14181889212715665,"34":-0.050035903149062574,"35":0.13558290780935742,"36":0.05801408282840807,"37":0.007583047078379555,"38":0.08999657645239524,"39":0.05568555049637952,"40":0.19229721034307254,"41":-0.05940371945752028,"42":-0.08147068564969348,"43":-0.1488999679985155,"44":0.08505956410732904,"45":0.2554105064723005,"46":-0.005048807416450082,"47":-0.08405371546996662,"48":-0.08425499537697544,"49":0.2549198427099281,"50":-0.04214893728137097,"51":-0.055432311179737605,"52":-0.09988625376833282,"53":0.15700524121896395,"54":-0.09941350248548554,"55":-0.0036824268439555746,"56":0.14008356325725438,"57":-0.27875576556682036,"58":-0.18613707408000968,"59":0.048540024623344606,"60":0.04551893157324771,"61":0.17473191112053113,"62":0.02268765909060056,"63":-0.2758190054775869,"64":-0.12264105269751735,"65":0.020884071495196468,"66":-0.2777266281379889,"67":-0.05210311061760827,"68":0.023929750381484798,"69":-0.27607742589181433,"70":-0.07741301185590838,"71":0.023188716348040192,"72":-0.1495437103199044,"73":-0.08385755485669087,"74":-0.058299448782911545}},{"sx":5,"sy":5,"depth":3,"w":{"0":-0.07366706730243815,"1":0.017546380353370358,"2":-0.007862174368294436,"3":-0.11958589478552845,"4":-0.03169509340175943,"5":0.08098751283738133,"6":-0.11299066620940301,"7":0.018622379349227697,"8":0.06893907137661076,"9":-0.25469336423770156,"10":-0.09006775490001609,"11":0.024052265212797217,"12":0.0665730409885989,"13":0.1991183835861795,"14":0.021886174748003036,"15":0.003049934052439265,"16":-0.12932097238314008,"17":0.1354359795295632,"18":-0.04073372825454657,"19":0.06930396777116167,"20":0.28405406512516074,"21":-0.18054292396767535,"22":-0.0530200935350363,"23":0.06103403963936432,"24":-0.302632856201944,"25":-0.061853045015282625,"26":0.17782652834494198,"27":-0.1831702203387687,"28":-0.028818614858980122,"29":0.10930473466891319,"30":-0.02363795474571527,"31":-0.08450122282123207,"32":-0.16070929384879362,"33":-0.38472000307877197,"34":-0.13814826393527513,"35":-0.10144942376106458,"36":-0.36442960721721174,"37":-0.07540406133663562,"38":0.027563294281632976,"39":-0.04229045769926707,"40":-0.04223374425040432,"41":-0.023549788844169233,"42":-0.04400508715639278,"43":-0.17843108481597136,"44":0.11001921339945617,"45":0.10103778472044748,"46":0.12053631077707158,"47":-0.05353132989259256,"48":0.09967143250450539,"49":-0.05265845160000807,"50":0.09730668479820034,"51":-0.16292822736996973,"52":-0.0938390102679697,"53":-0.021116765175028866,"54":-0.23134104440586437,"55":-0.1658427506539836,"56":-0.07011188371203812,"57":-0.04291057429885456,"58":-0.09668555412123878,"59":-0.06620472107192514,"60":0.06202825524405751,"61":0.04279631297963299,"62":-0.15410568593196813,"63":0.0017016281246359905,"64":-0.09551923381912193,"65":-0.06683874677019935,"66":-0.1353584247311019,"67":-0.15904304080337558,"68":0.182987024904098,"69":0.0014541771941101302,"70":0.027855943293177244,"71":0.13960072105837573,"72":-0.006533373717121431,"73":0.05092343735957708,"74":-0.003728640890545346}},{"sx":5,"sy":5,"depth":3,"w":{"0":0.0890372929264977,"1":0.12430990030504199,"2":0.008907130973335975,"3":-0.011947762751606543,"4":-0.018145985977512838,"5":0.10750507815384493,"6":-0.12676527942209756,"7":0.014182440116062274,"8":-0.192913700176369,"9":-0.01074720511446121,"10":0.0723459450114694,"11":0.028564130901614714,"12":0.031455733925864524,"13":0.1374911718787252,"14":0.029548696165006372,"15":0.2787779279630953,"16":0.20960122128766923,"17":0.027776071788361837,"18":0.09962897784479254,"19":0.04310076191083491,"20":-0.05605646879094566,"21":0.05795233515770138,"22":0.07787127493630802,"23":0.24706175745265177,"24":0.180420054651302,"25":-0.03996143247581452,"26":-0.053321511475108475,"27":0.0640129216198708,"28":-0.06598885384954703,"29":-0.1778157488710117,"30":0.12003180706038076,"31":0.13285055509328783,"32":-0.10565945093975741,"33":-0.1652215789804241,"34":-0.044815792621237374,"35":0.13297091714510825,"36":0.07664913729640736,"37":0.050448989166893825,"38":-0.10177867760368911,"39":0.021007948073132478,"40":-0.1914924763881486,"41":0.031589720923413486,"42":-0.08255024512994359,"43":0.17368679635847253,"44":-0.06478630737229982,"45":0.034404759697970466,"46":-0.02816365400141643,"47":-0.0472467018352288,"48":0.14028614467838843,"49":-0.040170832832141214,"50":-0.19862456186589453,"51":0.029311517790907682,"52":0.01780934710751713,"53":-0.16116780612511303,"54":-0.04062782323516839,"55":0.18573296629394623,"56":0.0029779330920291485,"57":0.18173118997057738,"58":0.21234457037734483,"59":0.2853691160203061,"60":-0.04286900761022662,"61":0.20105562495055934,"62":-0.049488734277017395,"63":0.13917328918884195,"64":-0.0173955829841149,"65":-0.029606698893706217,"66":0.14113476414364728,"67":-0.0490028590013386,"68":0.015169878925995752,"69":0.08133253846731622,"70":0.09890669572440575,"71":-0.03085171045655985,"72":0.23824037735340478,"73":0.03035800065510016,"74":-0.17782564613424978}},{"sx":5,"sy":5,"depth":3,"w":{"0":-0.08149080554673324,"1":-0.08707487234922076,"2":-0.12883762806305102,"3":0.010921611306193782,"4":0.044729008803965645,"5":-0.08698269402953993,"6":-0.003942858140120846,"7":-0.019046877911048758,"8":0.12525162464227538,"9":-0.14979712872083803,"10":-0.1501788912554496,"11":-0.10282261528034559,"12":0.0016764137536016994,"13":0.16149392954804773,"14":0.08247527967743466,"15":-0.13341369243543943,"16":-0.09769944473234779,"17":0.06130779571169267,"18":0.10444929315922742,"19":-0.21543661181569698,"20":-0.24117897344307462,"21":-0.16304800644326956,"22":-0.255781797707678,"23":0.0623952833017388,"24":-0.13748843289129078,"25":-0.022399051456675062,"26":-0.12450408344220082,"27":-0.12040293117136923,"28":-0.07975961976897744,"29":0.23731284122792848,"30":-0.03521730772629693,"31":-0.1119449570800233,"32":0.0023636169102881814,"33":0.02317303126117364,"34":-0.14930362607790182,"35":-0.002325433471728095,"36":-0.10949756918091567,"37":-0.12872694563129317,"38":-0.0901366652344229,"39":-0.03388042066691949,"40":-0.12664830295511587,"41":-0.007589822490968163,"42":-0.006797322646575076,"43":-0.07742798594069326,"44":0.11019918813292345,"45":-0.1652134895787161,"46":-0.15402761776308052,"47":-0.04443994441898832,"48":-0.18518046846537808,"49":-0.031083098730816206,"50":-0.15952269187362542,"51":-0.20548271485646763,"52":-0.04818743925946332,"53":-0.03558104755849563,"54":-0.10448622444940073,"55":-0.08803885489864324,"56":-0.14861760766772297,"57":-0.09801799745956288,"58":-0.038016224699580874,"59":-0.20818126652435684,"60":-0.14251424343240898,"61":-0.036844448365702324,"62":-0.07068636966838028,"63":0.07647449317926085,"64":-0.07015347722191952,"65":-0.15842556864561527,"66":-0.1572770872126402,"67":-0.2776114825406638,"68":-0.15536792036350688,"69":0.18765055176279827,"70":-0.14950665732029828,"71":0.04582671053846076,"72":-0.14246179614681845,"73":-0.06516627899158205,"74":-0.059532542517943564}},{"sx":5,"sy":5,"depth":3,"w":{"0":0.04582218267496356,"1":0.017185251343695904,"2":0.08994848412591275,"3":0.20751574161501807,"4":0.05716713461360291,"5":0.099812882229966,"6":0.165201701476828,"7":0.08797302927504394,"8":0.3026359713626654,"9":0.13294951284254794,"10":-0.006392078489748763,"11":0.09103354465493606,"12":-0.10918805732227298,"13":-0.10423517357174512,"14":0.0017804333896993911,"15":-0.09089838143587461,"16":-0.008227846209644814,"17":-0.09969175202182075,"18":0.012897628986402114,"19":-0.010900262442760744,"20":0.04490182713790662,"21":-0.2250160927325317,"22":-0.020643029682966798,"23":0.08512781333610327,"24":0.018839547897599514,"25":-0.09174010880373488,"26":0.1902437119156725,"27":-0.14470580379230435,"28":0.19983594772694044,"29":0.13650820500381744,"30":-0.08736887400455065,"31":-0.1887673387023819,"32":-0.07808226855829069,"33":-0.06003939257480251,"34":-0.08419483350000538,"35":-0.024040000295725998,"36":-0.042256208953224905,"37":0.12953826989396544,"38":0.11926268378596268,"39":0.05396564518743002,"40":-0.08730824142506699,"41":-0.07367583161355128,"42":0.11847157882071215,"43":0.07855789811484863,"44":-0.01834529955902821,"45":0.015283735484780986,"46":0.082862771592018,"47":0.12243196435401878,"48":-0.03587153546901861,"49":0.08420629430604315,"50":0.0010106635350766943,"51":0.2610688481057933,"52":-0.17205046981587727,"53":-0.043366237634387995,"54":-0.04537981707755657,"55":0.206167424920222,"56":0.013190208717579104,"57":0.12583558441723666,"58":0.39032152376220336,"59":-0.05355612144575004,"60":-0.015152342696366667,"61":0.37399784010316695,"62":0.17009751896841055,"63":0.02339398363987975,"64":-0.10753479238492525,"65":0.043088566780570395,"66":0.12092077111778882,"67":0.0920624411895303,"68":-0.010601796094131564,"69":0.045853935547432854,"70":0.011854332658298331,"71":-0.07234811568985992,"72":0.22342790259389456,"73":0.03125111751114142,"74":0.00858803974002102}},{"sx":5,"sy":5,"depth":3,"w":{"0":0.10589694637539335,"1":0.11594450823788123,"2":-0.2437855427114377,"3":0.06576105953860895,"4":0.20283214897219218,"5":-0.13224203694858114,"6":0.011821320309873404,"7":-0.19146664424322776,"8":-0.17201075133123778,"9":-0.043455337469720696,"10":-0.1567085722995421,"11":0.0380774618119089,"12":-0.027564922195602904,"13":0.147317482747541,"14":0.09027174884627762,"15":0.3942553561854868,"16":0.14915199886840466,"17":-0.14218652379043686,"18":0.1869355897661374,"19":0.0884411684004385,"20":-0.13416178345974855,"21":0.06222544463007246,"22":-0.10630554475057277,"23":0.21615481930756902,"24":-0.05548207688866181,"25":0.05348728584270304,"26":0.1178231412255472,"27":-0.07084684731239228,"28":-0.009409818174002792,"29":-0.0074326522684858105,"30":0.10253904293279544,"31":0.0920485043202891,"32":-0.07908931790184938,"33":0.08445077205312607,"34":0.0405699971938644,"35":-0.13697931500621718,"36":0.06536086062146375,"37":-0.24855261626328157,"38":0.269292498821949,"39":-0.27814780959206625,"40":0.013200233162015667,"41":0.16775503628541746,"42":-0.11829759504082701,"43":-0.2014851580529742,"44":0.09681807449900173,"45":-0.011154862954431124,"46":0.05705063213899696,"47":-0.38626911569669553,"48":-0.13270454764421238,"49":0.14442263639778347,"50":-0.0679518219002304,"51":-0.10340693500915238,"52":-0.027282024226374737,"53":-0.14437910489465205,"54":-0.017611942282241017,"55":-0.15934548758301006,"56":0.012391083676472523,"57":-0.029669012983283023,"58":-0.04413819768905618,"59":-0.052930665575014677,"60":0.1290165394375808,"61":-0.005175856008956199,"62":-0.20919428692473238,"63":-0.11441324348358824,"64":0.07606118397006989,"65":0.11529813879444299,"66":0.0528117740301044,"67":0.13530174759223362,"68":0.09909632138578107,"69":-0.0985623498454215,"70":0.12385987487402766,"71":-0.1339775088361307,"72":-0.19199502343062663,"73":-0.11400256548246505,"74":0.04735746967494653}},{"sx":5,"sy":5,"depth":3,"w":{"0":-0.1426999480028755,"1":0.1915502731779163,"2":0.1415961505051197,"3":-0.08809168589325744,"4":0.025614172839210657,"5":0.04714825702572196,"6":-0.03441847848306577,"7":-0.1450170964850326,"8":0.0863584618732601,"9":-0.08109140050439823,"10":-0.15020839870573846,"11":0.14343609295488974,"12":0.11724270920883895,"13":-0.00309833804003049,"14":-0.15136132711044115,"15":-0.0890120112230343,"16":0.07561820767088823,"17":-0.029819501059460515,"18":0.07853868184845898,"19":0.10982711644352507,"20":0.05434765693473876,"21":-0.01740959139508213,"22":0.15584946246858372,"23":0.06956037144365416,"24":-0.03825742192024154,"25":-0.034764064738366116,"26":0.09341754521382634,"27":-0.17775140960262098,"28":0.15760390125131152,"29":-0.03227946711006236,"30":0.0687365375438098,"31":-0.20286168351776232,"32":0.00825585641079859,"33":0.021822830569724623,"34":-0.12093991964383256,"35":-0.24712544966005726,"36":0.09757761493965167,"37":-0.035608538180725284,"38":-0.022654561088245824,"39":0.18124376879523557,"40":0.19637959033882169,"41":0.23051271244039,"42":0.033737429089501454,"43":-0.08401109901220537,"44":0.35060799093290534,"45":0.17700755567738416,"46":0.15967540635312893,"47":-0.04699782530580035,"48":-0.08931749889639004,"49":0.01581075865197343,"50":-0.0996937285045494,"51":0.0504534164546141,"52":-0.06288637034768951,"53":0.006965493059449605,"54":0.08879595694692217,"55":0.03672243203962977,"56":-0.03144679320679189,"57":0.011942393621239562,"58":0.02631953948269787,"59":0.29553492898554995,"60":-0.07104062756232324,"61":-0.0395216775167147,"62":0.01783308755012623,"63":-0.0019455721803359248,"64":0.21561865059516777,"65":-0.12768451423878835,"66":0.12118071360517484,"67":0.13618738508017147,"68":0.08138997292949872,"69":-0.009031775565200852,"70":0.18130722138668312,"71":0.06128067461013649,"72":0.07933714601056094,"73":0.14514912309404093,"74":-0.1541485936893155}},{"sx":5,"sy":5,"depth":3,"w":{"0":-0.04893170532826399,"1":-0.05994637315578934,"2":-0.08014421521351857,"3":-0.05312999582809426,"4":-0.1191309544497875,"5":-0.08520842819548267,"6":0.29372370404201426,"7":-0.20118919923553297,"8":-0.0663024277022963,"9":-0.07151725862808488,"10":0.043901775341855645,"11":-0.09592154109754619,"12":0.07495530773212013,"13":-0.056774592667685655,"14":-0.11861090649981411,"15":-0.04547356045383747,"16":-0.07477596614924939,"17":-0.03726842371056456,"18":0.015837308939840204,"19":-0.13113992981879352,"20":-0.015539337365176825,"21":-0.14808211168000135,"22":-0.1718900767262565,"23":-0.005601184037910516,"24":-0.12060456228361374,"25":0.11564843803741554,"26":-0.07790538869769938,"27":0.025066218674463098,"28":-0.3151933167956158,"29":-0.023520145628525124,"30":0.1426503641583457,"31":-0.0006598991102676388,"32":-0.30376190335822534,"33":-0.009265592574711254,"34":-0.13042962321490062,"35":-0.08826702943151832,"36":-0.09061406803996193,"37":-0.09286327741546667,"38":-0.04505377844319131,"39":-0.03506789701507755,"40":0.10192754344662623,"41":0.09966479376091034,"42":-0.035588984913147416,"43":0.017609766043807915,"44":-0.09198445271977995,"45":0.07733404548493808,"46":-0.2526450289102952,"47":-0.09710388384041822,"48":-0.024756807256120287,"49":-0.018056148926531613,"50":-0.000385522801447754,"51":-0.10969294172460745,"52":-0.19060306236938118,"53":-0.26112312599039417,"54":0.07952599556974899,"55":-0.08918789760716314,"56":-0.14107032454609728,"57":-0.11702436696022998,"58":-0.004335905805834001,"59":-0.13087277841244865,"60":-0.04272570653810129,"61":0.03563195162168514,"62":-0.0418521660761424,"63":0.06646165242139458,"64":-0.193865728899617,"65":-0.1059534721567438,"66":0.0695858587257709,"67":-0.1647528756329301,"68":0.011186901851429834,"69":-0.05032819548037074,"70":-0.18751179671326856,"71":0.07031379491680376,"72":0.1651897116367386,"73":-0.0883229721513236,"74":0.0417134098409058}},{"sx":5,"sy":5,"depth":3,"w":{"0":0.010887711844663044,"1":-0.24984598163571625,"2":-0.08527365012212887,"3":0.046688972144543504,"4":0.04769126721623867,"5":-0.11945153228888776,"6":-0.09966721911543781,"7":-0.060912036351027724,"8":-0.19556147962386838,"9":-0.016533636103604744,"10":-0.15962415088798376,"11":-0.15018636981902503,"12":-0.11616825067104367,"13":-0.2265712131991598,"14":0.05930660364811928,"15":-0.12951758847170675,"16":-0.15739597524845106,"17":0.014020127544729349,"18":-0.1375352264049833,"19":-0.16468743392528495,"20":-0.04606582336122872,"21":0.012865616120518803,"22":-0.15271800697444454,"23":-0.11169295291412061,"24":-0.16826758252130633,"25":-0.04737939964929112,"26":-0.2215739284867334,"27":-0.04169093188250789,"28":-0.14370211173345632,"29":-0.018225071699095284,"30":0.1391540580247015,"31":-0.20006706263472437,"32":-0.09921911474138456,"33":0.14079268565707767,"34":-0.11450525467472666,"35":-0.09269839990070755,"36":-0.20763876757030064,"37":-0.32009080054909755,"38":0.013086910466088895,"39":-0.14770437303085482,"40":-0.02029051683111368,"41":-0.31269828764606344,"42":-0.0999326478937196,"43":-0.035088929501070044,"44":-0.09270629569533582,"45":0.06461796567017893,"46":0.0509671402881999,"47":0.05091645261714266,"48":-0.022412284548154995,"49":-0.27654043215752583,"50":-0.15105653299167826,"51":-0.022952074432258017,"52":-0.05647337926775083,"53":-0.15739969901047712,"54":-0.07994191309388832,"55":-0.0799516425733278,"56":-0.07340686778023067,"57":0.026285523676923356,"58":-0.1318826767634627,"59":-0.3073916120679967,"60":-0.04721689025194065,"61":-0.09565724041792953,"62":0.05806808762267894,"63":0.057733942282164906,"64":0.14961711079816978,"65":-0.2450018652103699,"66":-0.08000531948916101,"67":-0.1778161474866294,"68":-0.005698002800524761,"69":0.19236870358305636,"70":-0.10278616563694701,"71":-0.11644888192285549,"72":-0.055929951066626356,"73":-0.12565043042551186,"74":-0.07755293880959456}}],"biases":{"sx":1,"sy":1,"depth":16,"w":{"0":0.06503107966802721,"1":0.05817671705172215,"2":0.06429580895958471,"3":0.12121918051690016,"4":0.07156471552352872,"5":0.11607858143423902,"6":0.04029572397081317,"7":0.030768036638930286,"8":0.05332257528607127,"9":0.08830842872066404,"10":0.11785324718404898,"11":0.09181293406043071,"12":0.029044875935098774,"13":0.05184055555556966,"14":0.12541325577761525,"15":0.1379914389739943}}},{"out_depth":16,"out_sx":32,"out_sy":64,"layer_type":"relu"},{"sx":2,"sy":2,"stride":2,"in_depth":16,"out_depth":16,"out_sx":16,"out_sy":32,"layer_type":"pool","pad":0},{"sx":5,"sy":5,"stride":1,"in_depth":16,"out_depth":20,"out_sx":16,"out_sy":32,"layer_type":"conv","l1_decay_mul":0,"l2_decay_mul":1,"pad":2,"filters":[{"sx":5,"sy":5,"depth":16,"w":{"0":-0.017192588831095916,"1":0.07886344895596366,"2":0.15233708974662546,"3":-0.056545860900989425,"4":-0.03767855135044026,"5":-0.05832109093074112,"6":0.10602001079970304,"7":0.05888078930201642,"8":-0.003719419947699686,"9":-0.0527557967410404,"10":-0.08276208292375373,"11":0.06129369986196577,"12":-0.01549181702983582,"13":0.03835809271211644,"14":-0.1252358451236374,"15":-0.003892042603156848,"16":0.05106626990487801,"17":-0.07232639757868388,"18":0.05441833684735438,"19":-0.057671239213240647,"20":0.02508896531452312,"21":0.046474174476375904,"22":0.09391478075813636,"23":-0.02236921179512813,"24":-0.053514831685094126,"25":-0.05427190785575199,"26":-0.009658386675025325,"27":0.005787713803987018,"28":-0.09830985976750328,"29":-0.03154506902101303,"30":-0.03552634761977926,"31":-0.035781320248669354,"32":0.014575470855929785,"33":-0.0030727644662873923,"34":-0.028963957424700704,"35":-0.01347275113746141,"36":0.07311202946152233,"37":-0.10368081910233107,"38":-0.03978721946051224,"39":-0.004087313810354381,"40":-0.10415681478783491,"41":0.014336635752185425,"42":-0.008647074179909097,"43":-0.022735535343965625,"44":-0.005717881594404271,"45":-0.019073557598900726,"46":0.020514916756768514,"47":-0.11135243122106982,"48":-0.004956052800209001,"49":0.09061860174516644,"50":0.049711347670897126,"51":0.010088315030322158,"52":0.09459811481635867,"53":0.06217300093591102,"54":0.03982619286788999,"55":-0.028604537780666555,"56":0.002532373136396578,"57":0.04174511128572651,"58":-0.08272431245655572,"59":-0.009000613652869955,"60":-0.0006851284342971533,"61":-0.04970011868898176,"62":0.06957268691559544,"63":-0.052454683205147984,"64":-0.005516893966277716,"65":0.01930474610569676,"66":0.02984002332522321,"67":-0.03839125177894061,"68":0.06396898296447534,"69":-0.0036844233012942643,"70":-0.0539173952032562,"71":0.04143686211535712,"72":-0.05483384878141118,"73":0.06693036900335092,"74":-0.06771904077718977,"75":0.013515220693924194,"76":0.07224975696568157,"77":0.08727766992909193,"78":-0.04247474559706102,"79":-0.017914515484637298,"80":0.00413504866222751,"81":0.009584737499196359,"82":0.03805334469686179,"83":-0.06413990778495576,"84":-0.06918018979440616,"85":-0.002626226517317187,"86":0.013449636927961342,"87":0.012718954902375896,"88":0.06325082997413406,"89":-0.06899602469996156,"90":-0.03357658335699352,"91":0.05113585608860222,"92":-0.08786411237293218,"93":0.009709934343316703,"94":-0.015365119795476253,"95":0.05337481044311071,"96":-0.042036136640520576,"97":-0.02841212930886779,"98":0.0254887966805121,"99":-0.019121170519309547,"100":-0.023355806588932482,"101":0.012252421504153949,"102":-0.04730853456501408,"103":0.023098826191365107,"104":0.004169309592114915,"105":-0.04349469388290588,"106":-0.0643415995643979,"107":0.07471712426813683,"108":-0.036660866485791636,"109":-0.016302455590082567,"110":-0.09000051242319615,"111":0.016468942716528188,"112":-0.0799287870135877,"113":-0.057864995674321844,"114":-0.12955273266115555,"115":0.03329925996144377,"116":0.08855577729448237,"117":-0.023787364819524256,"118":-0.06655004544057314,"119":-0.05111603713190443,"120":-0.042538794709933936,"121":0.06220341813834955,"122":-0.043922855775379695,"123":0.05438490739402487,"124":0.03139332748689652,"125":0.031397451259923666,"126":0.060023587849044074,"127":-0.08174573159701405,"128":0.05424558779654092,"129":-0.02451331645923931,"130":0.03780393032777081,"131":-0.09333529756777105,"132":0.14097921822008644,"133":-0.10012153704820213,"134":-0.009526956553222237,"135":-0.03209363165067197,"136":0.005656758260520811,"137":0.0620253350865699,"138":-0.07140629942059318,"139":0.0035338760619627444,"140":-0.03361442153625103,"141":0.002199389706656539,"142":-0.04792159415689678,"143":-0.005281354827423147,"144":-0.023808800375417247,"145":-0.0463620076177951,"146":-0.060096620771112164,"147":-0.12701842535240546,"148":0.050989377711385536,"149":-0.03814964851250677,"150":-0.13825091731893585,"151":-0.07505571264507752,"152":0.05588618492834941,"153":0.0705747286291612,"154":-0.061256999599606614,"155":0.01582015916151826,"156":0.02102859204562192,"157":-0.03807034056426878,"158":-0.0929065045147841,"159":-0.1006905038253728,"160":0.028266028085761265,"161":-0.024975433737099668,"162":0.05690010799701852,"163":-0.00038563387038884924,"164":0.05488028287249405,"165":0.009313287720419035,"166":0.03363941495726748,"167":0.09258464103298303,"168":0.04896652819175016,"169":-0.048037062673934976,"170":0.028280543134308257,"171":-0.03771302224981446,"172":0.029602672850631832,"173":0.015901290720663416,"174":-0.07064161383734327,"175":-0.07754230731171671,"176":-0.150872703004442,"177":0.015873196544432026,"178":0.03847080289870951,"179":0.012649576152406004,"180":-0.05399508222424031,"181":-0.056350331785108426,"182":-0.04572513863775666,"183":0.007016247373594967,"184":0.06596392679320343,"185":0.006422242969110571,"186":0.008307567113065741,"187":0.007757686356096272,"188":-0.09098094941028155,"189":-0.05104544622896688,"190":-0.010893923546323209,"191":0.03927906525878166,"192":-0.08993823253153702,"193":-0.07568555595075101,"194":-0.06244414764719727,"195":-0.0000030141693676707737,"196":0.077353444630096,"197":0.0004538645358201041,"198":-0.09159578307563375,"199":0.0015559548867283995,"200":-0.01831398376630075,"201":-0.010943060107650908,"202":-0.023260594118780818,"203":0.031180996962071897,"204":0.1255175368599514,"205":0.002035152109478101,"206":0.02110805094408062,"207":-0.07773760733338565,"208":0.015144486301162554,"209":-0.07120145517807623,"210":-0.08561362378517619,"211":-0.047652302196806585,"212":0.08323675689067377,"213":-0.05198412791277546,"214":-0.03708802092042492,"215":-0.09380208544721277,"216":-0.10813239495428612,"217":0.03931589072375834,"218":-0.056519574268152475,"219":-0.08635295767532485,"220":0.06653357575767876,"221":-0.06958018090163183,"222":-0.02573624322250965,"223":0.008519861052993941,"224":-0.04713715603560095,"225":-0.05034336784790522,"226":-0.008626837650012972,"227":-0.12099592887875052,"228":0.23964199382221563,"229":-0.05020621714740601,"230":-0.13360907730888494,"231":-0.06666469864266197,"232":-0.034672081565273426,"233":0.052046362288159356,"234":0.008987387777473608,"235":0.06258914156856489,"236":0.129562222017463,"237":-0.08191739658565479,"238":-0.06305703736524997,"239":-0.06053937762438321,"240":0.019101557454584087,"241":-0.09253157300471716,"242":0.09771935863514845,"243":0.07391670331463888,"244":-0.0775240349845936,"245":0.015468225712400474,"246":-0.0371363595350659,"247":0.04765469672783202,"248":-0.008712769082522128,"249":-0.06840350242442789,"250":-0.041662481196075206,"251":-0.08938303367933846,"252":0.03277212559557732,"253":-0.053334519330672965,"254":-0.06089528323880766,"255":-0.04659773394665614,"256":0.10363171471129215,"257":-0.11191779434538432,"258":0.02835814091647024,"259":-0.0036209623035714468,"260":-0.04925304755991816,"261":-0.036440507032547226,"262":-0.10805899118999768,"263":0.004693968502295573,"264":0.007543452667853591,"265":-0.01754356371845741,"266":-0.17232923093115932,"267":-0.07324322662969338,"268":-0.05018502885688357,"269":-0.029468852323563135,"270":-0.03374704700905399,"271":0.03724058003089845,"272":0.05201086150466145,"273":-0.12537015487107128,"274":-0.0542153302772236,"275":-0.04818690652712514,"276":0.05873843157318853,"277":-0.06203244716997354,"278":-0.07266847179219313,"279":-0.04771433870523417,"280":-0.04716226249675298,"281":0.021435676062380695,"282":-0.04758824774879261,"283":-0.03272858390222849,"284":-0.053745612149592004,"285":-0.1698209982889252,"286":0.03914681986457114,"287":0.12325680286409342,"288":-0.06251131664735092,"289":-0.10194653468899638,"290":-0.02809891719966524,"291":-0.05115422331278954,"292":-0.0005572112024251416,"293":-0.07118801501347329,"294":-0.005183835318658476,"295":-0.039010999996605115,"296":-0.06202333760234353,"297":-0.058777412611361886,"298":-0.07486960826981676,"299":0.011341235831554396,"300":-0.00035808675443183,"301":-0.0826296406240034,"302":-0.1367836852873805,"303":-0.04746656856108721,"304":-0.028840163402380346,"305":-0.05845221594678566,"306":-0.08020911686948325,"307":-0.10751194071410997,"308":0.010490431001464002,"309":-0.14974377031595162,"310":-0.046562902011992216,"311":0.041863098896372714,"312":-0.07189798734964943,"313":0.045160828689412465,"314":-0.05590417284082938,"315":-0.06268134567380543,"316":0.09573477239248007,"317":-0.04918517096012935,"318":-0.0478167468753416,"319":0.008901962470609695,"320":0.020165104988498272,"321":-0.014114014978894187,"322":0.007021312173004157,"323":-0.054187570353147065,"324":-0.0659073767145291,"325":0.04418457519012503,"326":-0.021408081065475232,"327":0.05230771634079279,"328":0.0689335095296554,"329":-0.08323620538929333,"330":-0.031017196852109935,"331":-0.0016290677267354508,"332":-0.008282384244375555,"333":-0.0666466236652631,"334":-0.05932883191150768,"335":0.004067583480495135,"336":0.07730972946519586,"337":0.02342385386247823,"338":-0.07979628533640662,"339":-0.02508487604473152,"340":-0.020337539449315968,"341":0.09947963969369192,"342":-0.09979283141682849,"343":-0.038794745646779115,"344":-0.031492629431309864,"345":-0.0668381643537448,"346":-0.0756107125746114,"347":-0.02324024518854764,"348":-0.08323546388567024,"349":-0.034188472783131856,"350":-0.12450143511754151,"351":-0.09179416203594912,"352":-0.034712942359439516,"353":-0.056202481409265946,"354":0.0639005442893494,"355":0.0184459621519057,"356":-0.01452269428824204,"357":-0.04921330115455587,"358":0.008718473652038329,"359":-0.10308839310294556,"360":0.027859801282699832,"361":-0.011413542528137496,"362":0.0338870856875422,"363":-0.16534203359243396,"364":-0.008231521666316874,"365":0.006532798905211926,"366":-0.022228153417330348,"367":-0.009515461598893363,"368":-0.03660740452223596,"369":-0.052926404551534884,"370":0.02432030312341967,"371":-0.033533198902137615,"372":0.12139578644219216,"373":-0.04190838211168268,"374":-0.07945099961287824,"375":0.03768299681717573,"376":-0.03060703407386907,"377":0.04601547446743085,"378":0.031831465231048184,"379":-0.07373159268549986,"380":-0.003204398950264357,"381":-0.10978436120584993,"382":0.02991305852270676,"383":-0.09773385499069669,"384":-0.01000743061304814,"385":-0.1124136118522088,"386":0.05936058058128357,"387":-0.007158586827576247,"388":0.03640181516032336,"389":-0.03631767741884246,"390":-0.08408316102362506,"391":-0.016313466321315664,"392":-0.0199078022300497,"393":0.026808514473563423,"394":-0.06602598641021638,"395":-0.01906945383630616,"396":0.034214290924477794,"397":-0.0992821741893011,"398":-0.09411538641806524,"399":-0.009331636282740785}},{"sx":5,"sy":5,"depth":16,"w":{"0":-0.0602448695518159,"1":-0.007683236863784453,"2":-0.01835545927441461,"3":0.031278485373490275,"4":0.020096308744971394,"5":-0.04451302736214286,"6":-0.009565711148167098,"7":-0.10852629026032598,"8":0.02240370181971118,"9":-0.10855014924013207,"10":0.018560170151502017,"11":-0.026401129977104882,"12":0.014248116908500365,"13":0.01678250051026512,"14":0.057478766799748816,"15":0.021244061309575343,"16":-0.05678888553145907,"17":-0.013481169874119563,"18":-0.001055104104955592,"19":-0.022212074543683617,"20":-0.047380236726715805,"21":-0.0006192915331689568,"22":-0.062497562453865174,"23":-0.05957641073096874,"24":-0.04819206637337768,"25":-0.07125806894058762,"26":-0.025592524347959864,"27":-0.15097325052397395,"28":0.03895155610334024,"29":-0.11257739341410357,"30":-0.07994955063661473,"31":-0.04256881691932788,"32":-0.07620211534907947,"33":-0.06282977048659136,"34":-0.0019985044932353375,"35":0.026239091000471986,"36":-0.029557932870505847,"37":-0.03163815548041447,"38":0.006324833961055955,"39":0.03655154395856153,"40":0.003488644709259219,"41":0.09250490667002821,"42":0.01464929699920364,"43":-0.052834338934012154,"44":-0.007364289098900698,"45":-0.0548241314368336,"46":0.00009737921633001498,"47":0.024226797321670098,"48":-0.01837443385088442,"49":-0.007929162700504349,"50":-0.02647540015281529,"51":0.06338579786119897,"52":0.08171127405119054,"53":0.030529826476557508,"54":-0.023573574545225354,"55":0.03100210260324433,"56":-0.05704044764094043,"57":0.033340510631125496,"58":-0.005327513102248169,"59":-0.006956039416972024,"60":0.03445077995050219,"61":-0.025973720267504163,"62":0.01974312124196335,"63":0.05738155798264719,"64":-0.037685569640024945,"65":0.04550338182785698,"66":0.023402038437539987,"67":-0.035624958733231266,"68":0.08460448173051527,"69":0.06643498367645073,"70":-0.042439345517322875,"71":0.010929247292382427,"72":-0.09259129149446681,"73":0.03690823857336756,"74":0.056159189840646405,"75":0.017855019244008386,"76":0.024933829431680512,"77":0.04687899742640337,"78":-0.04323957792572997,"79":-0.018630079839539685,"80":-0.07736655336340023,"81":-0.1657259361432772,"82":-0.15365314481919404,"83":0.04999492992358133,"84":0.045570054619777624,"85":0.03659605293991513,"86":0.07064707122002685,"87":-0.05362584088348165,"88":-0.1501853780142342,"89":0.012037464290077998,"90":-0.016063426938125066,"91":-0.01847879284669216,"92":-0.008794262347977172,"93":0.029289327538077652,"94":0.010126132105760494,"95":0.01940760784384478,"96":0.08138630702429782,"97":-0.026595822961045158,"98":-0.0553610226064771,"99":0.05642673581797897,"100":-0.07731990144055524,"101":0.074675066042457,"102":0.0787849255871636,"103":-0.04373974639057091,"104":-0.07714523339173553,"105":-0.013461960689625584,"106":-0.004863906661937204,"107":-0.04513905033698554,"108":-0.022828481168777257,"109":0.03723594547152737,"110":0.0004795350669123292,"111":0.007788794671831236,"112":-0.01216839141782686,"113":0.06345292234910413,"114":-0.034174504014256486,"115":0.03255156969508822,"116":-0.0023209488696265424,"117":0.06440753441521851,"118":-0.019378620598534603,"119":0.0001227279797768859,"120":-0.03513513870924833,"121":-0.022907834724299483,"122":0.011766412506223473,"123":-0.0560610773789674,"124":0.019984202059181548,"125":-0.059007581758949545,"126":0.042577959081052795,"127":0.006512405349454912,"128":0.03535130466485106,"129":0.026066641779624304,"130":0.018737227056276628,"131":0.10253571245567775,"132":-0.08540923796835442,"133":-0.04967005365448982,"134":-0.01510974564543113,"135":-0.002473319107268615,"136":-0.1371669597214371,"137":-0.11327292923500744,"138":-0.012959984306487126,"139":-0.07655214281222493,"140":-0.03628550013884323,"141":0.01501925194259987,"142":0.04749722018039105,"143":0.03393108460716739,"144":0.023112969150554878,"145":-0.06180216258888239,"146":-0.042789035144372,"147":0.08074759625098152,"148":0.0004772788849355547,"149":0.05759641736673844,"150":-0.02202174979860182,"151":-0.09629485310814179,"152":-0.05851211099894406,"153":0.026979248137659544,"154":0.023643492077224652,"155":-0.00961107252593525,"156":0.012036743423543574,"157":-0.07722878560590207,"158":0.03668221191125182,"159":0.08980909524075001,"160":-0.008096250765020895,"161":0.0069768437686047145,"162":-0.10104865403105508,"163":-0.05716748257991786,"164":0.03986075181414388,"165":-0.04114609776474155,"166":-0.04939238942769784,"167":-0.061041724245855564,"168":-0.10524470580654807,"169":0.049296772797363456,"170":0.05125883806467119,"171":-0.03167289915688702,"172":0.06647972810478404,"173":-0.022918600370894982,"174":0.08385073332430831,"175":-0.0401853444433323,"176":-0.013889001584924508,"177":-0.02778580116766987,"178":-0.07142184407419018,"179":0.08289351060130547,"180":-0.09422313052960232,"181":-0.019927285795962136,"182":-0.02969445124062587,"183":-0.021463111167126635,"184":-0.0070546494231336345,"185":-0.0695407189474003,"186":0.015120725996496597,"187":-0.021569958746725317,"188":0.006358305802978845,"189":-0.11019949942777894,"190":-0.06571819611501185,"191":0.08104184806942562,"192":-0.04309725139172697,"193":-0.09969038212774364,"194":-0.08923421245817124,"195":-0.016499862215478996,"196":0.012529159672647696,"197":0.0846986294343535,"198":0.0046393621931106865,"199":0.009316551679080963,"200":-0.040640671070312884,"201":-0.03984964925590233,"202":0.2073192692921511,"203":-0.024493492365196386,"204":0.07722766622146816,"205":-0.022062188810019766,"206":-0.013301959260873306,"207":0.03515951314205014,"208":-0.08284752425315006,"209":-0.055625308082528885,"210":-0.018883314763987323,"211":-0.026068218637134388,"212":-0.011457945499016062,"213":0.03808509112970589,"214":-0.061975630871896746,"215":0.046533938499664224,"216":-0.06438713943928433,"217":-0.10397351255755374,"218":0.02015504489404257,"219":-0.06427257117208184,"220":-0.022445376978933385,"221":-0.05829586858835655,"222":0.014516572040096001,"223":0.11495872543701119,"224":-0.07470981915043035,"225":-0.08315722214776748,"226":-0.09169691020665079,"227":0.0021704762789395825,"228":0.08318959674071419,"229":0.04429388025638212,"230":-0.057756265805387265,"231":0.03323383928170588,"232":-0.12005834465415244,"233":-0.08869393971939471,"234":0.016068400783611887,"235":-0.10957885874623388,"236":-0.05738322285885202,"237":-0.049597877481248005,"238":0.012107247789078611,"239":-0.0031660202262954983,"240":-0.026783554023477242,"241":-0.06426684239304488,"242":-0.02390626250954651,"243":-0.011218774074421707,"244":0.049510224534652106,"245":0.08005995401804394,"246":-0.01699928752578093,"247":-0.06807639415839112,"248":-0.09419462499034371,"249":-0.004474354388816824,"250":-0.06786230917015805,"251":-0.03919703288275646,"252":-0.0639668142024168,"253":-0.05690221880837408,"254":-0.03826396654061931,"255":-0.031303978529834096,"256":-0.01591656664830558,"257":-0.03251299790011853,"258":-0.07708177192165201,"259":-0.15104774291181403,"260":0.04831341695105285,"261":0.016905737661658808,"262":-0.05104949002486085,"263":-0.09685905699299968,"264":-0.11169323465872254,"265":0.012343851056923478,"266":0.09187052433738863,"267":-0.0654182052283755,"268":0.06960214566386401,"269":-0.06220393315383952,"270":0.050129246747021426,"271":-0.007915609986196292,"272":0.07672208227216495,"273":-0.010148340255503128,"274":-0.04409534220475987,"275":-0.050232773013886935,"276":0.03166182674742319,"277":0.017823192233515986,"278":0.056792256798877595,"279":0.0606736768748576,"280":0.014542682825396695,"281":-0.02068941894316984,"282":-0.09962261636309475,"283":-0.0766195303292397,"284":0.07484555626598578,"285":-0.0649049529997132,"286":0.03556375671130054,"287":0.005948461588870584,"288":0.009469028961572262,"289":-0.01596994671076006,"290":-0.020619068857934214,"291":-0.11907286088191214,"292":0.09131755476027843,"293":0.057477785295626305,"294":0.023184475197106116,"295":0.006331319925036505,"296":0.03239550057075864,"297":-0.11309628973288463,"298":-0.01317636328532032,"299":-0.05730236535310977,"300":0.03648963401046297,"301":0.0319516687675555,"302":0.12471593212284893,"303":0.0299910241813237,"304":0.01255798627691504,"305":-0.04804643770979479,"306":0.005614804313755482,"307":-0.00034650890979003415,"308":-0.013588528541651247,"309":0.018467289421102175,"310":0.060794848909316905,"311":0.023814216144026856,"312":-0.045589342436444545,"313":0.08517177781861092,"314":-0.015518413839461941,"315":0.01214119977756576,"316":-0.06173993055662391,"317":-0.09865385926466787,"318":0.0879429930675148,"319":-0.07730133618190282,"320":-0.07855189961368715,"321":-0.05736812709693399,"322":-0.08999719188886916,"323":0.06464797277603021,"324":0.010421234908963276,"325":-0.04281426913036141,"326":-0.016552916966937926,"327":-0.048477854671374165,"328":0.05349407805392333,"329":-0.009992306892377545,"330":-0.0106122529931645,"331":-0.07778273335264844,"332":0.007854020814551402,"333":-0.13548526757178198,"334":-0.012420804023753746,"335":-0.02513332665240389,"336":0.0380406591228291,"337":-0.039108995600562024,"338":0.02447058045009893,"339":0.017260425914563324,"340":-0.04629893235408827,"341":0.041800480533558386,"342":-0.02947006275429638,"343":-0.08410746039217362,"344":0.010195610423854294,"345":-0.07521281534812058,"346":0.07386831862201107,"347":-0.043467833092045674,"348":-0.045723208766082046,"349":-0.062291932597659076,"350":-0.02390290179087081,"351":0.012413278109279582,"352":-0.017434503117589487,"353":-0.0463768890146368,"354":-0.04507557102092668,"355":0.0213656208898485,"356":0.015448332003314528,"357":0.10441251495167606,"358":-0.06081675680251241,"359":-0.0012141103060709652,"360":-0.020436002871615292,"361":-0.12007637782063732,"362":0.11202080127663615,"363":-0.09535551075642432,"364":-0.026590448508807183,"365":-0.01864316991857612,"366":0.086279411425416,"367":0.09208339572685516,"368":-0.01498954160985128,"369":0.007546044553219441,"370":-0.06943898537520303,"371":-0.005408745596415066,"372":-0.0005692323681528568,"373":0.0681508586865955,"374":0.043818047271241986,"375":0.062313307549052704,"376":0.03100114998946826,"377":-0.0012580363981559747,"378":0.0870452982497953,"379":0.01994544859154282,"380":-0.012920368101273125,"381":-0.005930925555632069,"382":0.006208114052854942,"383":0.046142981635910144,"384":-0.020660965495090996,"385":-0.023365411111787228,"386":-0.010949837930489507,"387":-0.03137231533804423,"388":0.06417324733962498,"389":0.054496556652250595,"390":-0.0030449325986593246,"391":-0.11168124939801952,"392":0.10148443792377508,"393":0.006830109911205642,"394":0.009046255844764537,"395":0.008451439655013406,"396":-0.04416421420825844,"397":-0.03570339041473781,"398":0.06213622036342101,"399":0.04404242644648605}},{"sx":5,"sy":5,"depth":16,"w":{"0":0.016174539277092007,"1":0.0923641454208608,"2":0.05699023065974045,"3":0.07335399105895461,"4":-0.028461288401087925,"5":0.0006393270278257712,"6":-0.006550692577704185,"7":-0.029391883858406232,"8":-0.03233693550376777,"9":-0.07651424717029638,"10":0.07960454736178088,"11":-0.06626361509251225,"12":0.04044400616509366,"13":-0.04139301189303345,"14":0.15218369983784252,"15":0.10934505356089555,"16":0.038013927127517104,"17":-0.04676065197437174,"18":-0.09246697689550704,"19":0.04009429645616411,"20":0.012932125062973249,"21":0.027764007183170916,"22":-0.030408573442792394,"23":-0.09119353671037456,"24":-0.07955072383894765,"25":-0.015676580619952602,"26":0.04627445697715204,"27":-0.10065757102199495,"28":0.004135674725088277,"29":-0.05623214050244675,"30":0.03800858761875047,"31":0.0893853306794924,"32":-0.05348167088805706,"33":-0.014798572674541299,"34":0.04641327063835809,"35":0.07004116504818816,"36":-0.07318394444609005,"37":0.061078593964674036,"38":0.0003451158948840292,"39":-0.07161751130018179,"40":0.007714582445519662,"41":-0.08327065563320864,"42":0.0582280955470847,"43":-0.058848483460305856,"44":-0.03025400167604088,"45":0.0450696185793325,"46":-0.0324588944412048,"47":0.08310772333170051,"48":0.042740389388172415,"49":-0.04680382151721048,"50":0.03512716390258587,"51":0.0893527249636873,"52":-0.045724368541837056,"53":0.11317789971422622,"54":-0.0604156505251412,"55":-0.133250484820349,"56":-0.04242013722517033,"57":-0.0601394289670141,"58":0.06415690814914964,"59":-0.07460987579593695,"60":0.04250681987300027,"61":-0.07512303302030834,"62":0.07670946176667398,"63":0.1715659570493654,"64":0.048753907430669895,"65":-0.03875161395060715,"66":-0.011010007057007273,"67":0.07474591170856333,"68":0.05852616836492965,"69":0.018284660776960143,"70":0.024549152870057392,"71":0.021476112394355765,"72":0.052105643083342375,"73":-0.12597479400619926,"74":-0.04202242253430542,"75":-0.08370149168759321,"76":0.07720599769052502,"77":-0.10074175313787762,"78":0.015271345465235205,"79":0.07933771094639111,"80":0.005438788895793284,"81":-0.06734707815244172,"82":-0.030137436369043345,"83":0.038833300274342064,"84":0.03852810139235678,"85":0.05091367911552503,"86":-0.06824953381500183,"87":-0.010685330231125235,"88":0.0464292129405433,"89":-0.021267764280569118,"90":-0.03918277546446276,"91":-0.023047033844229466,"92":-0.027091135112287786,"93":0.00713841034772,"94":0.06410274093397955,"95":0.035472149111053966,"96":0.013858199814241507,"97":-0.03372572795325696,"98":-0.11903942135456652,"99":0.009272571024246293,"100":0.02525231109797215,"101":0.06379685317497143,"102":-0.08253603683679317,"103":-0.021922963518515175,"104":-0.010975614540002671,"105":0.005053541832908916,"106":-0.024324605895976018,"107":-0.07433439915650954,"108":-0.01986808876371996,"109":-0.0007357217689292866,"110":0.023518791139891377,"111":0.01716745096286123,"112":0.037577874118070544,"113":-0.05587683964062398,"114":-0.0919747878027557,"115":0.022109940947618416,"116":-0.030129827623993934,"117":0.023576963330158983,"118":-0.04173259796569057,"119":-0.07470549453191369,"120":-0.07892207014359705,"121":-0.06043181139168349,"122":-0.013163362335560142,"123":-0.0910937585085806,"124":-0.01701094495516333,"125":-0.007407527174260816,"126":0.03433557382041584,"127":-0.09478240293737651,"128":-0.014842554926048447,"129":0.046116941339231346,"130":-0.10606185278541529,"131":0.07342318676826483,"132":0.01929763807336038,"133":0.041010558112931236,"134":0.01944300601692684,"135":-0.03827123770429803,"136":-0.009736117743003243,"137":-0.002383896184790211,"138":-0.04164956655812447,"139":-0.06179982888304164,"140":-0.06455209628058162,"141":-0.024379144360747916,"142":0.0782991903396224,"143":0.03716608397353238,"144":0.055737510599247475,"145":-0.03903680782227502,"146":-0.050576264938563174,"147":0.1101216127885899,"148":-0.04546866122360295,"149":0.028441477704732005,"150":-0.03735896659356416,"151":-0.08429040419184618,"152":-0.02873999380857768,"153":-0.11535946122097711,"154":-0.07175617315407257,"155":-0.10528042064801016,"156":-0.005852357353550045,"157":-0.028094146929291207,"158":0.003951139949803139,"159":0.0465938083742842,"160":-0.018153611697718286,"161":0.06092744184564537,"162":-0.015086213654051963,"163":0.0474842270581056,"164":0.10122971023301672,"165":-0.020582226646670292,"166":0.0007467955806878332,"167":-0.07783543846904119,"168":0.006029066243459909,"169":0.026169237983136695,"170":0.030644711472493168,"171":0.004061170072282312,"172":-0.025380734944359416,"173":-0.03649429282165614,"174":0.028491523146826563,"175":-0.06413612359101283,"176":0.005808249617326116,"177":0.04234311204304403,"178":-0.10117014082761396,"179":0.029103876174699936,"180":0.015688763274054527,"181":-0.04398010373199414,"182":-0.026694630202025567,"183":-0.019384354774970598,"184":-0.0850318441430989,"185":-0.04424965742322226,"186":0.010707933236140832,"187":0.0018673041183501168,"188":-0.02921114623547183,"189":-0.07487450441710396,"190":0.006841655991793611,"191":0.04053599337634316,"192":-0.058636066401034664,"193":0.050987797312742396,"194":-0.15489544051599935,"195":-0.013989171162284203,"196":0.011947427319053697,"197":0.04186564029111907,"198":-0.038000066711907414,"199":0.0016914351525842582,"200":-0.10142264455161558,"201":-0.006737688741828093,"202":-0.010197639760041823,"203":-0.0388021880263604,"204":-0.0076094057505112275,"205":0.084864837377635,"206":-0.11687734030444254,"207":0.06343435441655944,"208":-0.048818462721837076,"209":0.017853832190368707,"210":-0.05460996738803376,"211":0.009503144259267108,"212":-0.08742205501959752,"213":-0.012790413167882101,"214":0.12440395139890342,"215":-0.0256321871412211,"216":-0.008326592729939852,"217":-0.05368440178147817,"218":-0.004800903782139729,"219":-0.03337697488711708,"220":0.0028151856208889947,"221":-0.022666228073353265,"222":0.0114368491169803,"223":0.0564135845658427,"224":-0.06575954669994537,"225":-0.1190967938301185,"226":-0.08207309866604781,"227":0.05090360964284131,"228":-0.04059843881492471,"229":-0.04087026960802315,"230":0.0642628883411515,"231":-0.062353387980952905,"232":-0.03682422186508679,"233":-0.00590609977083826,"234":-0.052422762299009856,"235":-0.040191180362378044,"236":-0.08714426386985366,"237":-0.01505856040113481,"238":-0.03848015757780008,"239":-0.020078507780286033,"240":-0.11216467885149661,"241":0.051080240945944565,"242":0.029717791542016713,"243":-0.08446458848988467,"244":-0.006129437410330981,"245":-0.0972025396259529,"246":0.00016965228150111155,"247":-0.02591174055514836,"248":0.03892330840756382,"249":0.023179848499779873,"250":-0.01487812184051949,"251":0.04966584898564634,"252":-0.041335800413230046,"253":-0.003930296402434089,"254":-0.0013430323798479793,"255":0.027760158153096952,"256":-0.0640287322030768,"257":-0.0073573828891753176,"258":-0.030059692453761954,"259":0.05724646496655483,"260":-0.07998618519103227,"261":-0.0034103867135162266,"262":-0.050418915832363256,"263":-0.05104133923923437,"264":0.021815043165903655,"265":-0.08084687079948148,"266":-0.10566510899133913,"267":-0.009082011988538403,"268":0.03432811587464904,"269":-0.021649607813556227,"270":0.030410099322316506,"271":-0.05314575585580275,"272":0.0451934811706996,"273":0.027063994523699904,"274":0.06287829162751735,"275":-0.10041868153355361,"276":-0.01595091166268105,"277":0.09624344779002814,"278":0.06245895837111512,"279":-0.03926341987695509,"280":-0.07057334354090986,"281":0.08163308276928107,"282":-0.06419200497448124,"283":0.033168844800685444,"284":-0.029385083750121246,"285":0.0029389056921676777,"286":0.05752321822345859,"287":0.1316810656269249,"288":0.06099967063885132,"289":0.018968287093448794,"290":-0.01698630747847389,"291":0.010815851401615615,"292":-0.06510000951033602,"293":-0.027156341109113184,"294":-0.010529256652531134,"295":0.02357605090087852,"296":0.0728183876052311,"297":-0.008025945154931045,"298":-0.004645687229732197,"299":0.039964911042344446,"300":-0.024145719911968705,"301":0.1196741133461793,"302":-0.006850432427922727,"303":-0.08401555755971964,"304":-0.022347343748247123,"305":0.04013871474134207,"306":-0.027347218075964776,"307":-0.06655519439631295,"308":-0.015016625467062205,"309":-0.09659888194425995,"310":-0.018101061316267906,"311":-0.016483465654575757,"312":-0.05431869867994,"313":-0.01854285906932736,"314":-0.02998885164502169,"315":0.011800601468897783,"316":-0.06343497098356908,"317":-0.04686313759616868,"318":-0.03309375949266706,"319":-0.040434237045923666,"320":-0.047729934779358996,"321":-0.06182105437458492,"322":-0.0640384420451916,"323":-0.014845219641244264,"324":-0.03984557295709318,"325":0.05275101061450687,"326":-0.042489431254209134,"327":0.0029490012578821108,"328":-0.004183944954846823,"329":-0.03246558787197239,"330":0.05717450186268295,"331":-0.0032316894447742494,"332":-0.09121260786920246,"333":-0.002590205061600138,"334":-0.03749879303069695,"335":-0.060234216360161706,"336":0.051506184616942605,"337":-0.04410354397969805,"338":-0.04217374884225439,"339":-0.016842267576408426,"340":-0.0931973234804235,"341":-0.02910790211022524,"342":0.06886823098235512,"343":0.05487558139468039,"344":-0.06782880503755055,"345":-0.04102739595599125,"346":-0.051586511623600666,"347":0.022269018738121628,"348":0.03801584297947714,"349":0.022182205286411943,"350":-0.012371890786063756,"351":0.01396539023116183,"352":0.050505285563003544,"353":0.0546806122335372,"354":0.03104864300953176,"355":-0.011830452884875046,"356":-0.004328386120919224,"357":0.002616962997140787,"358":-0.0049530739589017945,"359":0.005841537931632642,"360":0.041423066515068004,"361":0.05111458745900413,"362":-0.06523823206038179,"363":0.03612409434603045,"364":0.015140907990771408,"365":0.0346695061844336,"366":0.021978135763398746,"367":0.013831204623288297,"368":-0.032535146740976,"369":0.05753642244554515,"370":-0.0077164124360230265,"371":-0.025462277195353294,"372":-0.011028090145441885,"373":0.03066467327590393,"374":0.07780631429653487,"375":0.04977613215000069,"376":-0.03362530357028326,"377":0.029293156987649227,"378":0.014656978789382182,"379":-0.07296058649488119,"380":-0.01550359963696626,"381":0.0009667335864667672,"382":0.06726193307990207,"383":0.0983053767110613,"384":0.0724961223021846,"385":0.13092726104700395,"386":-0.08678143613642945,"387":0.04024985305199968,"388":-0.003379472192298764,"389":-0.012916622966600023,"390":0.06616980389057717,"391":-0.0008356526405811029,"392":-0.08281185812754485,"393":-0.03422009019891814,"394":-0.033450659054083,"395":0.006395742294944798,"396":0.028820528514082403,"397":0.008693887511437095,"398":0.011938764600250914,"399":-0.06662981262910259}},{"sx":5,"sy":5,"depth":16,"w":{"0":-0.037984034048842534,"1":-0.04842072454016513,"2":0.053834319022582525,"3":0.0978089951526873,"4":0.09489533856765373,"5":0.10219815026663269,"6":-0.11644315747706499,"7":-0.10452718051007266,"8":0.011777365608899243,"9":-0.0910715591066801,"10":-0.00279772373273025,"11":-0.02438161938902371,"12":-0.06145533281948128,"13":0.002564330583704616,"14":0.10145718586453042,"15":0.10094220081155474,"16":-0.0073537002451732935,"17":-0.11951150604683675,"18":0.053860201504464605,"19":0.01834960819441139,"20":0.04238208699710868,"21":0.0939385805416945,"22":-0.009365855218732611,"23":-0.09844064618912282,"24":0.012167371893496726,"25":-0.08821924126712281,"26":0.03497493582440509,"27":-0.001331663533970912,"28":0.006646375508050471,"29":-0.06289841349037416,"30":0.1869382345176431,"31":0.12817721767964702,"32":0.16254409832194713,"33":-0.17939775793988955,"34":-0.032415372714620985,"35":0.16121640761803963,"36":0.08243162274347034,"37":0.11050401849053763,"38":-0.12463578617032978,"39":-0.08147860920545383,"40":0.13266748880383172,"41":0.00044543682847036724,"42":0.09240264181976723,"43":-0.04266406221126387,"44":0.08400131706222876,"45":-0.02666801027052184,"46":0.1487794286107931,"47":0.12571972556517755,"48":0.007717896801696426,"49":-0.20763164677571438,"50":-0.04138346584409867,"51":0.18804921932348276,"52":0.026796521865454465,"53":0.11629823074623512,"54":-0.03958274044534162,"55":-0.021006683433945808,"56":0.11846172464488253,"57":-0.022659723387743504,"58":0.07694834868133077,"59":-0.055207215836631185,"60":0.06051868150697214,"61":-0.04683254495834361,"62":0.1667272492248762,"63":0.13197121003427828,"64":0.07597943414340903,"65":-0.04709324062084355,"66":0.005614289265763508,"67":0.09830261772188796,"68":-0.07614648204256992,"69":0.014973908243728285,"70":-0.12465818479831736,"71":-0.09825605485207171,"72":0.015626907495684912,"73":-0.09990479291342158,"74":0.14105845310056042,"75":0.012586804079994572,"76":-0.043669388073981276,"77":-0.08450062149918092,"78":0.06191979135903599,"79":0.022528801495113267,"80":-0.03015994549457527,"81":0.013066856276131007,"82":0.026078928577444916,"83":0.10360767642490662,"84":0.03170756940134251,"85":0.032403753637502024,"86":-0.11617660513003654,"87":-0.08736354328916668,"88":0.0706925781511682,"89":-0.045598094021643776,"90":-0.05806886233631649,"91":-0.15957448275222524,"92":-0.0593729369057874,"93":-0.07869306332472213,"94":0.09469790323852265,"95":0.0942264918585663,"96":0.0802041818716883,"97":0.009224707720846817,"98":0.008564013196846158,"99":0.13449680940153474,"100":-0.007606710855324483,"101":0.08683519112774819,"102":-0.04774294427410941,"103":-0.06994614157932032,"104":0.09448075260576637,"105":-0.04091895331277072,"106":0.10156249760284315,"107":-0.004834407271261607,"108":0.056166739158875115,"109":-0.06365627045688799,"110":0.06584407230752057,"111":0.0394397856254361,"112":-0.008898259786300329,"113":-0.07142056776152281,"114":0.04323801853554778,"115":0.1691601065642494,"116":-0.05634533679616391,"117":0.1089077059715703,"118":-0.04301618027623274,"119":-0.1118105476427334,"120":0.08040653166428034,"121":-0.01618519229748776,"122":0.06817570349108408,"123":-0.13972988296257902,"124":-0.043816891621436566,"125":-0.09875094005805626,"126":0.14268008859333503,"127":0.07438319713910152,"128":0.01879377667047025,"129":-0.19813820832548237,"130":0.019867720697870073,"131":0.08268977825321613,"132":0.12502502567879206,"133":0.14107062882047494,"134":0.008526410572774952,"135":-0.039518620543950514,"136":-0.011276063943995903,"137":-0.010127090579661635,"138":0.13291081067080557,"139":-0.05100473953196468,"140":0.061457838451907984,"141":0.002798902892400561,"142":0.1277977867018285,"143":0.10644408748222879,"144":0.04771486642905529,"145":-0.02172891426681536,"146":0.07872901585455559,"147":0.1303827161246627,"148":-0.04665738434283286,"149":0.03926078072598104,"150":-0.04584034449571465,"151":-0.0499018200595351,"152":-0.028403272128064337,"153":-0.018188305060155858,"154":-0.05592222154322367,"155":-0.0023051809572167117,"156":-0.037989449664442794,"157":-0.009395722421984129,"158":-0.009270695424936987,"159":0.08756429394359445,"160":-0.08428058711106068,"161":-0.04027489099258338,"162":0.019434991882428664,"163":0.08729245184171143,"164":-0.04567806457046701,"165":0.0023624146622299885,"166":0.018676238520380976,"167":-0.05266355120703355,"168":0.01209519042161883,"169":-0.00823822775580322,"170":-0.03392106040600722,"171":0.027859873367142778,"172":0.06058260455761582,"173":-0.0516658288596914,"174":0.07533585057560607,"175":-0.055767044611133666,"176":-0.00726200676235462,"177":-0.08451816619453946,"178":-0.013411139523091722,"179":0.06548354659841961,"180":-0.1037040837970024,"181":0.023981390479340486,"182":0.009974773952219759,"183":0.039795425111841046,"184":-0.0088919673253794,"185":0.037491434302018664,"186":-0.01122607212053459,"187":0.03138977857221568,"188":-0.04861936666979231,"189":-0.030784761738340605,"190":0.08078792393530518,"191":0.0000341711302935264,"192":-0.06046177311069948,"193":-0.044791629467535114,"194":-0.05195036464212979,"195":0.14441637132517904,"196":-0.038485282551577266,"197":0.04982002599437395,"198":0.036652184565729495,"199":-0.07146229744274846,"200":-0.0516258645121319,"201":0.06458683026178026,"202":-0.005844430942173432,"203":-0.009464464057495507,"204":-0.17364562757773486,"205":0.021474552866386217,"206":0.025644745723892994,"207":0.06731313087908497,"208":-0.13380564396195357,"209":-0.07359698817645724,"210":0.014271503689943154,"211":0.1204957783790548,"212":-0.00013145961607082462,"213":0.041866158389308204,"214":-0.0203950982759368,"215":0.025902272582543986,"216":0.030335929792243532,"217":0.034620963849005336,"218":0.04383792231826412,"219":-0.031696340229639755,"220":-0.0051865660877977015,"221":-0.022726378789058636,"222":0.03584056852959428,"223":0.056310402015049284,"224":0.02569011617141489,"225":-0.015016691178199615,"226":-0.0001808760239571901,"227":0.028589373984355404,"228":-0.011517700891987025,"229":0.11081980350132249,"230":0.01752353171388612,"231":-0.024761383898531854,"232":-0.00973841385968455,"233":0.09557241122670239,"234":-0.001942464734423771,"235":-0.011378899827285831,"236":0.010725670586525238,"237":-0.006582060245159698,"238":-0.08939886405455963,"239":0.07778494795914785,"240":-0.09523349096561934,"241":0.030740031271797016,"242":-0.02196346376552007,"243":-0.072486882730413,"244":0.006037770889746767,"245":-0.020182433175619876,"246":-0.018204265219617637,"247":-0.021398196598526882,"248":0.06123282274213894,"249":0.08155093162693897,"250":-0.05976128872993324,"251":0.07592220191443583,"252":-0.03831859392006409,"253":0.1987882923427334,"254":-0.049624468744282266,"255":-0.0054919468631484765,"256":-0.08809071792406462,"257":0.06393168328688952,"258":0.03434265948414402,"259":-0.11465075324044446,"260":-0.02573688714299916,"261":-0.04532196006586727,"262":0.10867067747687234,"263":-0.0019810202725944375,"264":0.0006012888332374329,"265":0.003925810156554174,"266":0.022318241505161127,"267":0.08479591301206399,"268":-0.035108167395732304,"269":-0.014675657397123775,"270":0.04165155447191258,"271":-0.0013378822133537141,"272":-0.01399977946182198,"273":-0.012442900920859593,"274":0.021190217918931168,"275":-0.013384444798644759,"276":-0.05436226042001079,"277":-0.10433417047403207,"278":0.016122497526453984,"279":0.041260303655352826,"280":0.023892831596549046,"281":0.14139277497908034,"282":0.013689251476535236,"283":0.05013660186425991,"284":-0.011128839741784744,"285":0.11777039496121829,"286":0.0024390297339686824,"287":-0.02796650084587915,"288":-0.12025305670539714,"289":0.0068795331065309275,"290":-0.017606004106031515,"291":0.05183724958085075,"292":-0.01622075329239161,"293":0.0639103788095091,"294":0.029618046169555816,"295":0.00047098562233036095,"296":0.10352785572506462,"297":0.06873331224278889,"298":0.04999062766739696,"299":0.024567150464248722,"300":-0.06639676359145522,"301":0.06692867137246289,"302":0.02500216940777713,"303":-0.053185081800120035,"304":-0.024880562403975355,"305":0.0842327551240492,"306":-0.05420486265909163,"307":0.08772675174154973,"308":-0.07257356313381992,"309":-0.08372046067170448,"310":-0.013041583236139602,"311":0.039955847972484346,"312":0.06423700010100594,"313":0.04790210956904079,"314":-0.016613822086792285,"315":0.03002413206422167,"316":-0.018999095835505294,"317":0.038886022877931546,"318":-0.0006517374270397256,"319":-0.041450417794174646,"320":-0.018007137381950564,"321":0.05031954876324506,"322":-0.07406123968489858,"323":0.0013652223709503231,"324":-0.09235755480136805,"325":-0.019501580934672507,"326":0.04705137273599129,"327":-0.01759113671032483,"328":-0.06767124545669796,"329":-0.07083725432625594,"330":-0.020245264065306787,"331":0.06365848189417671,"332":0.011206300006108774,"333":0.11526003480801074,"334":-0.0030185264602505643,"335":-0.04501728289206611,"336":-0.07888248878904458,"337":0.05883863406796688,"338":-0.045025586782024604,"339":-0.08468977810831416,"340":0.012513884398749743,"341":-0.034950347911591274,"342":0.08582134131432166,"343":-0.028816168653005788,"344":-0.12399785646308191,"345":0.05716777911186738,"346":-0.025774860276620962,"347":0.06692325733909907,"348":-0.024949496260201837,"349":0.046945989983803046,"350":-0.10180634131283398,"351":-0.03201638023686626,"352":0.06658169836403728,"353":0.027222103176971397,"354":0.034835511028425935,"355":-0.0837522654711461,"356":-0.008156106465976696,"357":-0.047722112224860454,"358":0.02229339874484272,"359":-0.002176157145045174,"360":-0.10546859054940835,"361":0.08266582731493671,"362":0.022440364093953242,"363":0.07511774116807303,"364":-0.0038907021625575614,"365":0.07992710686112246,"366":0.0023892598450313495,"367":-0.0188400712807266,"368":-0.07994098739297067,"369":0.1175557899726681,"370":-0.02219519361551861,"371":0.041270569727178505,"372":0.007702445844322638,"373":-0.01002185590737378,"374":0.011158341599500302,"375":-0.04671814516570291,"376":0.024566936070126156,"377":0.031218262937331737,"378":-0.15072030062761096,"379":0.10155593338918645,"380":0.012300807072836603,"381":-0.023597925675819566,"382":-0.05286854343201881,"383":0.03617418722917443,"384":0.002484882501273054,"385":0.06658549687004471,"386":-0.01304208595422758,"387":0.025772062195844353,"388":-0.013712624544355146,"389":-0.0790825741652216,"390":0.10335135280677572,"391":0.06356171605235311,"392":0.02045642723302121,"393":0.11043773969734318,"394":-0.07461280876088891,"395":0.0393344569038112,"396":-0.05813484976973998,"397":0.04613719455143825,"398":-0.04193417975967184,"399":0.022206531805078766}},{"sx":5,"sy":5,"depth":16,"w":{"0":-0.008585968635661207,"1":-0.005970096574160847,"2":-0.013592369226940647,"3":-0.09636935678174537,"4":-0.08922810686573242,"5":-0.09460977650948015,"6":-0.1233564645121234,"7":0.02097064830029372,"8":-0.006044170445535972,"9":0.10803234936597153,"10":0.025989039200989425,"11":0.010346640713345016,"12":0.03662282152789668,"13":-0.025040853847328053,"14":-0.023694360268722032,"15":-0.008537028161661438,"16":-0.07889327747008604,"17":-0.0196631845058485,"18":-0.08610890969867004,"19":0.017874762998773188,"20":-0.11190626032942981,"21":0.06867223353375307,"22":0.02263644554173154,"23":-0.018221286719761146,"24":-0.04213486401035214,"25":-0.03537896866022304,"26":0.12291489915153124,"27":-0.09113310245030821,"28":-0.10488155322920137,"29":-0.07609214890793806,"30":-0.0027459325037929956,"31":0.1892465162025833,"32":0.08345609943957888,"33":-0.016301972340828554,"34":0.024572052551867028,"35":0.033377268407210815,"36":-0.09085558439201119,"37":0.15828564373819168,"38":0.0014506576223428384,"39":-0.01804823874104727,"40":-0.07027685609944145,"41":0.00317904409288622,"42":-0.01541451301743997,"43":-0.046022345685854095,"44":0.047521491346998866,"45":-0.06999858965084392,"46":0.07593708359753874,"47":0.06718860502702285,"48":-0.026770457034104557,"49":-0.09440823240282296,"50":-0.016499886106300862,"51":0.06839417919985749,"52":0.05509994151397649,"53":0.08605408861793731,"54":0.017527362404745603,"55":-0.010829179439635033,"56":0.036701547651496,"57":0.05071917787306846,"58":-0.011542012477085788,"59":-0.001249998819972507,"60":-0.06306555508533769,"61":-0.05196815043377761,"62":0.08766364067576422,"63":0.021920557288130797,"64":0.06441771204734874,"65":-0.05774636053697144,"66":-0.001703459209094559,"67":0.11436471787340012,"68":-0.05939766796927519,"69":0.06868078535720976,"70":-0.049835521940869154,"71":-0.02751726149444635,"72":-0.05556734312898569,"73":-0.11650678528255161,"74":0.09114180858254568,"75":0.02469440879883327,"76":-0.08168020374868619,"77":0.013116452232776014,"78":0.027478003138080385,"79":0.018316757475820823,"80":0.08676612343710945,"81":0.00603211374769582,"82":-0.03780526842719005,"83":-0.018722055753718738,"84":-0.01682474699202999,"85":0.05092430457068167,"86":-0.03544516942771814,"87":-0.04590127847660381,"88":-0.06000844584141911,"89":-0.07984216668379437,"90":-0.05828299419192888,"91":-0.03242333325885526,"92":-0.1169596513847587,"93":0.03462953477186775,"94":0.035544068710621116,"95":0.01579616956143322,"96":-0.023335730373495362,"97":-0.02681236985425539,"98":-0.06268066911106064,"99":-0.01679161708047804,"100":-0.009707063554083933,"101":0.03771554990821535,"102":-0.051810713703464954,"103":0.05003755296092654,"104":-0.018693928918466888,"105":0.0351908090294751,"106":0.013471490126846319,"107":0.0035338235847535374,"108":-0.043622343376973405,"109":-0.10493285504059392,"110":0.009056272739322881,"111":0.035360868041130165,"112":0.041033403002541616,"113":-0.05806825928448434,"114":0.03709740574260084,"115":0.1140301328671825,"116":-0.008531127590229347,"117":0.13516736730660506,"118":0.07888748415312107,"119":-0.048096630257668915,"120":0.08189899305912152,"121":-0.044815774354624895,"122":0.025183012933575985,"123":-0.10645039486620726,"124":-0.07337165315768074,"125":-0.032044912264487406,"126":0.1411686216460997,"127":0.05321627593073856,"128":0.097524690456708,"129":-0.050583415982367284,"130":0.009467615418251156,"131":0.07270111894777034,"132":-0.012964347544241422,"133":0.163474084063033,"134":0.026692805405358323,"135":-0.019564522188882806,"136":-0.07624672412894146,"137":-0.05072349589961213,"138":-0.03182603419434994,"139":-0.07606783010802773,"140":0.02427127561935108,"141":0.03441242931547478,"142":0.06217551419934685,"143":0.11308236027066121,"144":0.07900381344178325,"145":-0.0022353431864489026,"146":0.08831261931804704,"147":0.056107279431357265,"148":-0.046929945278790325,"149":0.07517140563554897,"150":-0.023100324735342556,"151":-0.008946307793663883,"152":0.04107071707964447,"153":-0.11789607648418714,"154":0.08780608321477482,"155":-0.0658635861303032,"156":-0.10415326607481058,"157":-0.11063491967702871,"158":0.05812079733368814,"159":0.045384729913647455,"160":0.020529983137211025,"161":-0.021242082038822618,"162":-0.04086178657529104,"163":0.06973704790942725,"164":0.02201114424749829,"165":0.009833119039618147,"166":0.037554938608440065,"167":-0.002957844894091327,"168":-0.05870825191519146,"169":-0.08043848974315487,"170":0.04552605974005834,"171":0.018162555405798787,"172":-0.010469288600220557,"173":0.07717088674255833,"174":0.0002090199047591031,"175":0.07047638968500268,"176":0.10174689922871455,"177":-0.05364384992062193,"178":0.08276761607718458,"179":0.113722547281425,"180":0.020774911660237098,"181":-0.011824954383444962,"182":0.13621168608843334,"183":0.04732082905853382,"184":-0.02212644878533277,"185":-0.05763042084431809,"186":0.006716570349213369,"187":0.00391054584570803,"188":-0.12372548294715334,"189":-0.0052762690589020795,"190":0.05216208926217083,"191":0.03962115541518975,"192":0.09905145278651857,"193":-0.09393632211459624,"194":0.0250981659764973,"195":0.14161191201756634,"196":-0.027218795374329457,"197":0.08769316057478338,"198":0.0655169992529163,"199":-0.0035535885575131757,"200":0.070246496076818,"201":-0.03593445585314555,"202":0.18362672317719517,"203":-0.01657318240722161,"204":0.00764800479457871,"205":-0.030698837413710857,"206":0.1424179557125651,"207":0.17269152455215014,"208":-0.02216627027793163,"209":0.04410383222386637,"210":-0.06342575395996743,"211":0.22329523438134047,"212":-0.013798116033006722,"213":0.13807297186230919,"214":-0.14028577666075162,"215":0.042018997056535806,"216":-0.034680129560407495,"217":-0.040425197316868784,"218":0.11107254248958442,"219":0.04809317229779817,"220":-0.018153271841945578,"221":0.020929121993115706,"222":0.1092106241849663,"223":0.28489778651744757,"224":0.02729673943063212,"225":-0.007787319349293455,"226":-0.10022822522248358,"227":0.06259602581668858,"228":-0.03190550520842576,"229":-0.002546145592285479,"230":-0.06799664694019278,"231":-0.074293342996055,"232":-0.01882441972078991,"233":-0.08249690000625333,"234":0.18762094505231766,"235":-0.06275815920663294,"236":0.014507421400009777,"237":-0.015482641768072888,"238":-0.015730160573582955,"239":0.061241238775605486,"240":0.05785343535051219,"241":0.0144971317122852,"242":-0.08177013974200117,"243":0.05591683037535578,"244":-0.05007110469445707,"245":-0.029918718407095007,"246":-0.006106213151503775,"247":-0.039838930615624296,"248":0.0463481475840677,"249":-0.055626885026216134,"250":-0.043814751227315304,"251":0.06328937159653326,"252":-0.10516983998673365,"253":-0.016988852778747534,"254":0.014412835926458752,"255":0.023384637485759505,"256":-0.08333915903357873,"257":0.0366172752710644,"258":-0.11606775230959507,"259":-0.044440186017356435,"260":-0.10860854832576178,"261":-0.027702266662429392,"262":-0.06398647225820961,"263":0.11525672925690479,"264":-0.008833577690385654,"265":0.00057674848479525,"266":-0.11860836198559635,"267":0.04026399808961912,"268":-0.08312450820395019,"269":0.06306794949467961,"270":0.0403466419378512,"271":-0.0909060882361108,"272":0.012314659763839471,"273":-0.019853625702438094,"274":-0.06684052457817927,"275":0.037238938064526834,"276":-0.0032770364963931376,"277":0.053032074579886936,"278":0.013413894079413444,"279":-0.004620804240587392,"280":-0.026548174555779312,"281":-0.04786321356658104,"282":-0.005061517207674817,"283":-0.03638849428208211,"284":-0.04437648993541372,"285":0.06201671238639525,"286":0.01893972067954345,"287":0.08254211054895819,"288":0.013637061017958122,"289":0.00331044642936505,"290":0.09322093660408777,"291":0.03634074242515538,"292":-0.016141643200944147,"293":0.10179843620662779,"294":-0.014107495795667176,"295":0.03794781914595227,"296":-0.038788609724536974,"297":-0.0001632772647214968,"298":-0.06646185059407933,"299":0.05222839930039314,"300":-0.06197409457304122,"301":0.08512562128551364,"302":0.07401643494710905,"303":0.023727950895933877,"304":0.0024199205344687977,"305":-0.027287593321802667,"306":0.06569600687733135,"307":0.09693814839085918,"308":0.02910408660701105,"309":0.1458263173473637,"310":0.008743773315834383,"311":-0.0761595621827678,"312":0.008635720483441179,"313":0.011309507025815593,"314":-0.014829909396164109,"315":0.03753092375306303,"316":-0.05013482795209015,"317":-0.03330779426388376,"318":0.11175557292993767,"319":0.1547394182185909,"320":-0.06224853463374501,"321":0.008968743600211382,"322":0.07491610235994314,"323":-0.09854609045023298,"324":-0.017692319070546175,"325":0.01857923986124248,"326":0.06828079932954023,"327":0.043547098954939044,"328":-0.02624974750538702,"329":-0.06574874027133074,"330":-0.009702080793519472,"331":0.05563466585709889,"332":-0.03814395291384494,"333":0.061193699815195464,"334":0.02461568271303735,"335":0.014473675260231907,"336":-0.029163103157204655,"337":0.0679824790206578,"338":0.0014579376152381088,"339":0.012560445772441819,"340":0.0022810773663346964,"341":-0.020929161629386614,"342":0.05799960447187062,"343":-0.027061582495921433,"344":-0.07276583803793686,"345":0.11419359301556288,"346":0.007650212972331133,"347":0.055207998694529845,"348":-0.06223726072355081,"349":0.07654998796356308,"350":-0.0744372563354196,"351":-0.04204072038319062,"352":0.10520048135602561,"353":0.0966711361398173,"354":-0.06106465629384791,"355":0.027063858422936665,"356":-0.03811101159122372,"357":-0.08023038233847415,"358":-0.048948936302493466,"359":-0.0340379415079499,"360":-0.07240707524536266,"361":0.09097035123549088,"362":-0.05572244545587808,"363":0.09504192656278647,"364":-0.00760408729849763,"365":0.014159401911924887,"366":0.03062204780052508,"367":0.04122663545095041,"368":-0.05389907744988404,"369":0.009658088654872814,"370":-0.01570351125183029,"371":0.0007579355442176161,"372":-0.0570529075867054,"373":0.06902539365803965,"374":0.045708510872925455,"375":-0.014508123401590429,"376":-0.10835666659952181,"377":0.1355769515891898,"378":-0.02433934706017181,"379":0.0798319079874505,"380":-0.08029106272311586,"381":-0.021155899509373067,"382":0.009545595712738447,"383":0.025835431180644214,"384":-0.008363902326180837,"385":0.018084042349246696,"386":-0.06350062159816895,"387":0.10680159423529184,"388":-0.12701748478988856,"389":0.026886328032326,"390":0.10404059814760097,"391":0.03193858057268213,"392":-0.06921730236633995,"393":0.0634681358746464,"394":-0.005372338393096725,"395":0.06607743065142148,"396":0.017533854169487023,"397":0.03292096276532299,"398":-0.0017283544582414835,"399":-0.06498869101046295}},{"sx":5,"sy":5,"depth":16,"w":{"0":0.12083496292435299,"1":-0.006196463818936172,"2":-0.03956459198186269,"3":-0.038299475563783235,"4":-0.021453358589101718,"5":0.14407080305054884,"6":0.03765733309478186,"7":0.05926894317675706,"8":0.03890152882286321,"9":0.03818149290309723,"10":-0.018557257723802515,"11":-0.028996928244716717,"12":0.027830989816390116,"13":-0.056782928206155235,"14":0.0062157824309649985,"15":0.07971926011198173,"16":-0.06494373136483385,"17":-0.0654634136904413,"18":-0.044887978881159564,"19":0.09647038236716853,"20":0.02977868045609509,"21":0.022290083922034014,"22":0.06474082481818208,"23":0.014307349976548036,"24":-0.003928023789953663,"25":-0.09919791525392453,"26":0.061444725612908195,"27":-0.10382419946583797,"28":-0.032198391212307505,"29":-0.047107367529284405,"30":0.012378660662559243,"31":0.0013663576812492939,"32":-0.03632785952513387,"33":-0.009288748318211557,"34":-0.017741687127759254,"35":0.010623038180809107,"36":-0.01563030132625994,"37":0.057897061931982366,"38":-0.05893283271305012,"39":-0.036503867630005946,"40":0.014523108931049689,"41":0.02109677423080801,"42":-0.0016916399729608495,"43":-0.11269601845076017,"44":0.04581514069159677,"45":-0.023148895144612738,"46":0.16124036128866265,"47":0.034954339159183494,"48":-0.00390292691209258,"49":-0.005800364396665092,"50":0.04652524298635095,"51":0.06652120879120511,"52":0.0016091100183699785,"53":-0.007457846544860643,"54":0.006719655722107696,"55":-0.06144661638238547,"56":-0.09939211295558369,"57":0.005671768352436644,"58":0.03850428432375932,"59":-0.10092093295045966,"60":-0.005000907854030214,"61":-0.022019608578076312,"62":0.06620207762086418,"63":0.05993001835813447,"64":0.05338286356201354,"65":-0.001566168366456767,"66":-0.05215626000880714,"67":-0.03013558351549269,"68":0.027699765837313966,"69":-0.038336486151454637,"70":-0.049812578627341786,"71":-0.008783047152081249,"72":-0.04375579111124801,"73":-0.012026870667821687,"74":0.08026772986302579,"75":-0.06257331945285814,"76":-0.003355046204769413,"77":-0.08827980895100207,"78":-0.0038933150569167314,"79":0.09382352506335033,"80":-0.005544232575237095,"81":0.011282170391367419,"82":-0.06845933653157395,"83":-0.04306659620982683,"84":-0.0029914317084268785,"85":0.11120212188831148,"86":-0.05094805037889644,"87":-0.11529820953525025,"88":-0.022976043577775124,"89":0.04613698023548059,"90":0.035851102225555716,"91":-0.09465852240135689,"92":-0.07011578672479503,"93":-0.11121541662749675,"94":0.011693402407614297,"95":-0.041323771926731596,"96":-0.008559030075434529,"97":-0.08634409539290085,"98":-0.011910537570768076,"99":0.029234515261367215,"100":-0.01969946332623334,"101":0.061789935461831376,"102":-0.06439672860216365,"103":0.0040242578096907795,"104":-0.027099033294576927,"105":-0.04938019139597002,"106":0.04904536064969802,"107":-0.08546064919561189,"108":0.03035584845834149,"109":-0.10895469268644017,"110":0.019499028765759444,"111":0.04623773905626532,"112":0.05326926069755366,"113":-0.0012252944055693388,"114":0.02096322571248279,"115":0.025993930253926854,"116":0.03674051081765019,"117":-0.005507902982355017,"118":-0.033256940226260884,"119":-0.15072355538791196,"120":-0.017341952437604724,"121":-0.0594426643053935,"122":0.15033669920814055,"123":-0.04992340229370116,"124":-0.011272330598502208,"125":-0.11960453132987839,"126":0.056321968090216626,"127":0.09044575341178863,"128":-0.019980494505647445,"129":-0.07227653575360816,"130":0.04016751779385387,"131":-0.05960298835047221,"132":-0.028154546226449095,"133":0.21141842843871486,"134":-0.041152274669335964,"135":-0.07987567468502661,"136":0.07617385709467245,"137":-0.033692119024024136,"138":0.04246949299793577,"139":-0.04032014870844126,"140":-0.003997334982432055,"141":-0.12003118132278236,"142":0.03061057411363845,"143":0.13363142997896713,"144":0.016773723844248817,"145":-0.09930409862428886,"146":-0.03233476813270609,"147":0.05343144877711381,"148":-0.04121635217250842,"149":0.09991336811607344,"150":0.004682675524472218,"151":0.03349508506276228,"152":0.010892999893436351,"153":-0.1340464188021469,"154":0.02388997451405105,"155":-0.003123091314672785,"156":0.0004450474700972384,"157":-0.017527355827510933,"158":0.030197820967993786,"159":0.04106673001010603,"160":0.07542630018649721,"161":-0.05914507042249948,"162":-0.1160963186847153,"163":0.09612712484528169,"164":-0.05125927366337286,"165":0.12966914876247526,"166":-0.07213716806699019,"167":-0.03786754426765179,"168":-0.05863126214545817,"169":-0.1572568645419299,"170":0.0345796716266311,"171":-0.10442645890153657,"172":0.06717953559409258,"173":0.01545419156736518,"174":0.01837971037417048,"175":0.08237403409077304,"176":0.10986397880472078,"177":-0.14379442701369774,"178":-0.10367223248566078,"179":0.0660384959804359,"180":0.02024262015648742,"181":-0.012172488044064915,"182":-0.021571175020424625,"183":0.01016002093098118,"184":-0.00022380135509635193,"185":0.010364880153785967,"186":-0.026085947433983767,"187":-0.03320823363037463,"188":0.052948786231405316,"189":0.011068195984631114,"190":0.12010111920233972,"191":0.03455301486143732,"192":0.044975176413706075,"193":-0.0402835467632989,"194":0.04069728747468117,"195":0.08242898153527281,"196":-0.07037093884520662,"197":0.11140217910507502,"198":-0.0860859157620513,"199":-0.07631980851928143,"200":0.12063742435125338,"201":-0.1612079644812752,"202":0.05342146974289296,"203":-0.03864103777040622,"204":-0.05517217483373041,"205":-0.03286800083287998,"206":0.022011258019011878,"207":0.08842604138082046,"208":0.04533050310476095,"209":-0.0224207709381909,"210":-0.009690214213345295,"211":0.000876857668014143,"212":0.024583357585297515,"213":0.10512727425497545,"214":0.002525001561575641,"215":-0.09530581967745318,"216":0.012880105662662789,"217":-0.05521968676321825,"218":0.013441454384218796,"219":-0.05157615450826255,"220":0.055262349617560755,"221":0.049450732768584194,"222":0.08185526931966293,"223":-0.039739366060119734,"224":0.09119689408952875,"225":-0.07189380405374461,"226":-0.027831184633064204,"227":0.07546301474980506,"228":-0.03975460761572267,"229":-0.011287708571100624,"230":-0.03652878232832507,"231":-0.08339192567498134,"232":-0.054231576084228614,"233":-0.012015543359310037,"234":0.055957591664224454,"235":-0.06515667463408382,"236":0.004105535834927665,"237":-0.00742509702574228,"238":0.063626944285138,"239":0.10883624456736275,"240":-0.04285898829239412,"241":-0.11400208580921273,"242":-0.14793842709004285,"243":0.04516683618854651,"244":0.009283238821674636,"245":-0.061905355630113984,"246":-0.0695278178114186,"247":-0.14103501011659986,"248":0.006603232215072207,"249":-0.02339405832543693,"250":0.01681359756965792,"251":-0.11701502564009245,"252":0.015614837305734167,"253":-0.049906237423522334,"254":0.032937328064569234,"255":0.1138982110925053,"256":0.0733249063931876,"257":-0.03384194785517119,"258":-0.07444936218560999,"259":0.06420025809629115,"260":-0.06566361233499299,"261":0.12089427674996653,"262":-0.08791331440223508,"263":-0.021450707992688854,"264":-0.012437022972230594,"265":0.04494394509960423,"266":0.057950168434613945,"267":-0.0097531188708895,"268":0.06310095784602758,"269":0.03740203068956656,"270":0.09696233357419091,"271":0.060392496897922705,"272":-0.018834204748483314,"273":0.040795264371774186,"274":0.04246861711300423,"275":0.10123132938586879,"276":-0.007756337099143185,"277":0.030090451130964747,"278":-0.05621005186619183,"279":-0.04517464261394438,"280":0.027726720264223702,"281":-0.029695519187931983,"282":-0.06356319178162122,"283":0.07901879359086562,"284":-0.13679398540337945,"285":-0.037817613231879814,"286":0.03487023642427232,"287":0.11292798698683071,"288":0.018408522309416045,"289":0.0786493498280034,"290":-0.0584767923811282,"291":0.05127031252841574,"292":-0.019832183580359014,"293":0.1231222830898445,"294":0.05135128751261873,"295":-0.022605783358467798,"296":0.03612518589479149,"297":-0.024815255532660715,"298":0.005796977591294116,"299":-0.06619569983048539,"300":-0.0022472095455586916,"301":-0.03890586207531375,"302":0.0857309132678343,"303":0.07146984193035753,"304":0.047963712867267486,"305":0.008285935509887392,"306":0.06421825641807738,"307":0.01636350361581266,"308":-0.0179089137406837,"309":0.05548762529136816,"310":-0.023039477187224634,"311":0.07136012052168195,"312":-0.05294235986862718,"313":-0.01014248298940292,"314":0.00017161524486724122,"315":-0.012841080896748323,"316":-0.00009957156317499771,"317":-0.09571394302213518,"318":0.021895225162723835,"319":0.1540176149087081,"320":-0.007452001803676236,"321":-0.05738031676464717,"322":-0.05824335674878292,"323":0.10560069309201489,"324":0.058833799452730026,"325":0.06317941789407004,"326":0.07005889489723476,"327":-0.08924894152847129,"328":-0.023455300568566723,"329":-0.007883007244059962,"330":-0.014809619075349563,"331":0.05488726138918718,"332":-0.03458253124347638,"333":0.05161335886064699,"334":0.10815955818681132,"335":0.09790617313238054,"336":-0.07078735282309517,"337":0.007513597413849261,"338":-0.061047828679541706,"339":-0.0012697426966124976,"340":0.016703043330694282,"341":0.005806387619045089,"342":0.0330028153848779,"343":0.022823611202750758,"344":0.0013232629657613328,"345":-0.014141571048008006,"346":0.019091210681622242,"347":-0.035259940568322816,"348":-0.04138619943299999,"349":0.10448190757744753,"350":0.016247940567790744,"351":0.039021581305034095,"352":0.05347700135156598,"353":0.08470046933386755,"354":0.012769494967155594,"355":0.08527698089746348,"356":-0.15127611460354845,"357":0.012561468166957161,"358":-0.01961744810844075,"359":0.007827212636747677,"360":0.0007601208466135583,"361":0.03080229959223854,"362":-0.03609729420150288,"363":0.02989964401383975,"364":-0.02199350391024877,"365":0.015502903983297728,"366":0.060179587537658855,"367":-0.043807374806712665,"368":-0.061814475195961754,"369":0.04740180773895017,"370":0.036554059171343196,"371":0.11605255613656838,"372":-0.07048307922151281,"373":0.05640566744499984,"374":0.012765027966257373,"375":-0.020783012390893616,"376":-0.04949879468952532,"377":0.02767026597384756,"378":0.014455342173578425,"379":0.05551625695267621,"380":-0.05368236169991472,"381":-0.014315533470171303,"382":0.09947620877500621,"383":0.052443086648630954,"384":-0.1156894187701398,"385":-0.003239939076968858,"386":0.04753178441541292,"387":0.13962347492102006,"388":-0.016944824135481693,"389":0.09732196115231516,"390":0.10645519356397734,"391":0.017916341118830746,"392":0.02008119289002995,"393":0.10178918638462736,"394":0.06823362896772303,"395":0.018084362952196755,"396":-0.06986506449252945,"397":0.04907664288120373,"398":0.03967332344930575,"399":-0.02294076725575433}},{"sx":5,"sy":5,"depth":16,"w":{"0":-0.16831776323155181,"1":-0.09479691717660835,"2":-0.04175000307941524,"3":-0.03432416130221351,"4":0.007694161799488401,"5":0.0115544486081393,"6":-0.11883159270699549,"7":-0.12958649858536173,"8":-0.05311837661488197,"9":0.07117320889609705,"10":0.03824581907007364,"11":-0.021730423308955717,"12":-0.05676039256716895,"13":0.08009538323694791,"14":-0.028576586092425537,"15":-0.03229043998711303,"16":-0.018630541908489548,"17":-0.04565884401712939,"18":-0.09987652829344337,"19":0.03377701527507453,"20":0.0425065110752306,"21":0.011534357749092452,"22":-0.008891569296621625,"23":-0.03646758191651827,"24":-0.018481123510742613,"25":0.11038267937209129,"26":-0.015055270092764196,"27":0.008072972264805809,"28":0.07654309459034862,"29":0.10097048084482331,"30":-0.08118833947752264,"31":0.013738956679215245,"32":0.030043986891128072,"33":-0.05260663681621505,"34":-0.12443445262865999,"35":-0.06194931829472646,"36":-0.044465030271430235,"37":0.0980607497330411,"38":-0.04029499112282558,"39":0.06877563524538559,"40":0.010953306012523154,"41":0.010544764919192384,"42":0.09352616450459506,"43":0.05925105077735284,"44":0.04467232648878999,"45":0.06304902415051249,"46":-0.018819004428110388,"47":-0.0894276985649133,"48":0.0037129066663083247,"49":0.05673598278022604,"50":-0.08366144496355297,"51":0.024362493312009334,"52":0.05800179185858728,"53":-0.12501952711839182,"54":-0.0727212109017481,"55":-0.05999840982339491,"56":-0.0036580645161598297,"57":0.013517560105501541,"58":-0.011445114261052434,"59":-0.003692671785485368,"60":-0.10667421548408809,"61":-0.05008060415017308,"62":-0.0765738950409913,"63":-0.018823230938441626,"64":0.06436858301338978,"65":-0.003906894288860035,"66":0.011706701851511694,"67":-0.05862528177100642,"68":0.07057470202989295,"69":0.030743472939777455,"70":-0.016657893275624485,"71":-0.07207183798119729,"72":0.04664061058924742,"73":-0.06972001852900381,"74":-0.03302951927329717,"75":-0.034237220142719335,"76":-0.04396476498500659,"77":-0.10955220131848531,"78":-0.015919329130782353,"79":0.012898383512453373,"80":-0.08152079510339101,"81":-0.03129334479188465,"82":-0.20546524210856704,"83":0.015608094691291301,"84":-0.008411722544168424,"85":0.028693187743717673,"86":-0.09306864610481327,"87":0.03229428910269994,"88":0.014541925479660465,"89":0.047406860298214726,"90":-0.009941185635531405,"91":0.008103973981754194,"92":-0.06057599115321512,"93":-0.08508671338003282,"94":0.047851809863198445,"95":0.06269137154740777,"96":0.05767150293806873,"97":-0.11362442226807719,"98":-0.028379563842031462,"99":0.05675635551842074,"100":0.06036550688757778,"101":-0.00040564151098854574,"102":0.014967967979291187,"103":0.03185375932155794,"104":0.09283329759976182,"105":-0.02725033992360304,"106":-0.07541233211488778,"107":-0.060088366273877696,"108":-0.04156444086788429,"109":0.01223467515621623,"110":0.07678437402842814,"111":0.012137859020730321,"112":0.05799206391936147,"113":0.030788613328059454,"114":-0.04415621397278616,"115":-0.038348007048938294,"116":0.03747743788154859,"117":0.011743115745355838,"118":0.004486950720506212,"119":-0.003803661736497393,"120":0.016257896479822134,"121":0.0660972266588463,"122":0.05169460908468992,"123":0.11542147194713613,"124":-0.019074751248581556,"125":0.02330021378599711,"126":-0.026308360257209625,"127":0.007685840067623551,"128":-0.06943004874492707,"129":-0.026605737928210155,"130":-0.05470259293917056,"131":0.020993149476118005,"132":0.025097571084128488,"133":0.020046831468233987,"134":-0.16010927252943735,"135":-0.08987505402691909,"136":0.023090777985309195,"137":0.03397821396001559,"138":0.0034278929498173607,"139":-0.024890436189914333,"140":-0.03737288405663281,"141":0.05465331172723438,"142":0.05723457252828354,"143":-0.04554510918381786,"144":-0.16232450092129547,"145":-0.06880175144530315,